svm_type c_svc
kernel_type rbf
gamma 0.015625
nr_class 2
total_sv 32
rho -1.54527
label -1 1
nr_sv 27 5
SV
1.758805820146925 72:1 86:1 87:1 88:1 90:1 91:1 101:1 102:1 104:1 105:1 119:1 120:1 136:1 150:1 151:1 152:1 154:1 155:1 165:1 168:1 183:1 204:1 
0.3839593551753493 102:1 119:1 120:1 122:1 137:1 149:1 150:1 151:1 152:1 153:1 154:1 155:1 156:1 157:1 
0.2582353090453253 69:1 72:1 74:1 85:1 88:1 90:1 101:1 104:1 106:1 117:1 118:1 119:1 120:1 121:1 122:1 123:1 124:1 125:1 133:1 136:1 138:1 149:1 152:1 154:1 165:1 166:1 167:1 168:1 169:1 170:1 171:1 172:1 188:1 189:1 204:1 205:1 
0.05146362005547436 88:1 93:1 101:1 104:1 108:1 118:1 119:1 122:1 123:1 133:1 134:1 135:1 136:1 137:1 138:1 149:1 154:1 173:1 186:1 187:1 188:1 189:1 
0.4279785202947145 72:1 87:1 102:1 103:1 118:1 119:1 136:1 137:1 138:1 153:1 154:1 155:1 171:1 172:1 188:1 205:1 
0.3104579749176517 77:1 88:1 93:1 101:1 102:1 103:1 104:1 108:1 120:1 123:1 136:1 137:1 138:1 149:1 150:1 151:1 153:1 154:1 171:1 172:1 188:1 
0.7145848859478607 71:1 72:1 86:1 87:1 88:1 92:1 93:1 101:1 102:1 104:1 107:1 108:1 109:1 118:1 120:1 122:1 123:1 134:1 136:1 138:1 150:1 152:1 153:1 154:1 166:1 168:1 169:1 173:1 182:1 189:1 198:1 203:1 204:1 205:1 
0.08351152216387053 71:1 72:1 73:1 74:1 75:1 76:1 77:1 93:1 101:1 102:1 103:1 104:1 105:1 106:1 107:1 108:1 109:1 119:1 120:1 121:1 122:1 123:1 124:1 125:1 149:1 150:1 151:1 152:1 153:1 154:1 155:1 156:1 157:1 203:1 204:1 205:1 
0.9941661315244317 73:1 76:1 87:1 89:1 91:1 92:1 101:1 102:1 106:1 108:1 119:1 120:1 123:1 124:1 140:1 149:1 150:1 151:1 152:1 153:1 154:1 155:1 156:1 173:1 189:1 203:1 204:1 205:1 
0.2630997550355301 73:1 77:1 89:1 101:1 102:1 103:1 104:1 105:1 121:1 122:1 123:1 124:1 125:1 134:1 135:1 149:1 150:1 151:1 152:1 153:1 154:1 155:1 156:1 173:1 189:1 204:1 205:1 
1.520075205038183 70:1 72:1 74:1 75:1 76:1 77:1 78:1 86:1 88:1 90:1 93:1 102:1 103:1 104:1 105:1 106:1 109:1 117:1 120:1 122:1 125:1 133:1 136:1 173:1 203:1 204:1 205:1 
0.4244694306374688 87:1 88:1 101:1 105:1 106:1 107:1 108:1 109:1 118:1 119:1 120:1 149:1 150:1 151:1 152:1 153:1 154:1 155:1 156:1 157:1 173:1 189:1 203:1 204:1 205:1 
3 87:1 88:1 101:1 105:1 106:1 107:1 108:1 109:1 118:1 119:1 120:1 149:1 150:1 151:1 152:1 153:1 154:1 155:1 156:1 157:1 173:1 189:1 203:1 204:1 205:1 
1.600245887210011 71:1 72:1 74:1 75:1 77:1 85:1 86:1 87:1 88:1 89:1 90:1 91:1 92:1 101:1 102:1 103:1 104:1 106:1 118:1 119:1 120:1 122:1 124:1 133:1 135:1 136:1 137:1 138:1 140:1 141:1 173:1 189:1 204:1 205:1 
0.1429137674473181 72:1 85:1 88:1 101:1 104:1 117:1 118:1 120:1 125:1 133:1 135:1 136:1 137:1 138:1 139:1 140:1 141:1 149:1 150:1 151:1 152:1 165:1 168:1 181:1 184:1 200:1 
0.06376597543974302 72:1 77:1 85:1 88:1 90:1 93:1 101:1 104:1 106:1 109:1 120:1 122:1 125:1 136:1 138:1 141:1 152:1 154:1 157:1 168:1 170:1 173:1 181:1 184:1 186:1 189:1 200:1 205:1 
0.09680323757009229 77:1 88:1 89:1 90:1 93:1 109:1 118:1 119:1 120:1 121:1 122:1 123:1 124:1 125:1 141:1 150:1 151:1 152:1 153:1 154:1 155:1 156:1 157:1 173:1 181:1 189:1 197:1 205:1 
0.1866996440495489 73:1 86:1 87:1 88:1 89:1 90:1 91:1 92:1 93:1 101:1 119:1 120:1 121:1 122:1 123:1 124:1 125:1 136:1 141:1 149:1 150:1 151:1 152:1 153:1 154:1 155:1 156:1 157:1 173:1 183:1 184:1 185:1 186:1 189:1 204:1 205:1 
0.04997275434882198 72:1 73:1 86:1 87:1 88:1 89:1 90:1 91:1 92:1 93:1 94:1 101:1 102:1 104:1 120:1 133:1 136:1 149:1 150:1 151:1 152:1 153:1 154:1 155:1 168:1 171:1 172:1 173:1 182:1 184:1 189:1 198:1 200:1 205:1 206:1 220:1 
0.6240052742953252 72:1 86:1 87:1 88:1 89:1 90:1 91:1 92:1 93:1 101:1 109:1 149:1 150:1 151:1 152:1 153:1 154:1 155:1 156:1 205:1 
0.04547550762141648 87:1 88:1 89:1 90:1 91:1 92:1 93:1 101:1 102:1 119:1 124:1 125:1 136:1 137:1 138:1 139:1 149:1 150:1 152:1 168:1 169:1 170:1 171:1 172:1 173:1 189:1 203:1 204:1 205:1 
0.1725397321414606 72:1 73:1 85:1 86:1 87:1 88:1 89:1 90:1 91:1 92:1 93:1 94:1 101:1 104:1 118:1 119:1 121:1 125:1 133:1 134:1 136:1 137:1 138:1 139:1 140:1 150:1 151:1 152:1 153:1 154:1 155:1 157:1 166:1 169:1 173:1 182:1 185:1 189:1 198:1 201:1 202:1 203:1 204:1 205:1 
0.03252605875723356 72:1 73:1 85:1 86:1 87:1 88:1 89:1 90:1 91:1 92:1 93:1 94:1 101:1 104:1 118:1 119:1 120:1 121:1 122:1 123:1 124:1 125:1 136:1 141:1 149:1 150:1 151:1 152:1 153:1 154:1 155:1 156:1 157:1 168:1 171:1 173:1 181:1 182:1 183:1 184:1 185:1 186:1 187:1 188:1 189:1 200:1 205:1 
0.2330300101273126 72:1 86:1 87:1 88:1 89:1 90:1 91:1 92:1 93:1 101:1 119:1 120:1 121:1 122:1 123:1 124:1 125:1 135:1 149:1 150:1 151:1 152:1 153:1 154:1 155:1 156:1 167:1 183:1 199:1 200:1 201:1 202:1 203:1 204:1 205:1 
0.4485980907723635 72:1 73:1 85:1 86:1 87:1 88:1 89:1 90:1 91:1 92:1 93:1 101:1 104:1 119:1 120:1 122:1 125:1 134:1 135:1 136:1 138:1 141:1 149:1 150:1 153:1 154:1 155:1 156:1 157:1 166:1 167:1 173:1 183:1 184:1 186:1 189:1 200:1 205:1 
0.3233267006915231 72:1 86:1 87:1 88:1 89:1 90:1 91:1 92:1 93:1 101:1 118:1 119:1 120:1 134:1 136:1 149:1 150:1 152:1 153:1 154:1 155:1 156:1 157:1 166:1 168:1 170:1 173:1 182:1 184:1 186:1 189:1 198:1 199:1 202:1 204:1 205:1 
0.7892898295450438 72:1 73:1 85:1 86:1 87:1 104:1 109:1 119:1 120:1 121:1 122:1 123:1 125:1 136:1 139:1 141:1 151:1 152:1 153:1 155:1 156:1 157:1 167:1 170:1 171:1 173:1 184:1 185:1 187:1 189:1 199:1 201:1 202:1 203:1 205:1 
-3 72:1 86:1 87:1 88:1 89:1 93:1 101:1 104:1 118:1 119:1 120:1 136:1 137:1 138:1 141:1 149:1 150:1 151:1 152:1 153:1 154:1 155:1 156:1 173:1 189:1 203:1 204:1 205:1 
-3 71:1 72:1 74:1 75:1 76:1 77:1 78:1 85:1 86:1 87:1 88:1 90:1 93:1 101:1 104:1 106:1 109:1 118:1 119:1 120:1 122:1 125:1 136:1 137:1 173:1 203:1 204:1 205:1 
-3 72:1 74:1 75:1 76:1 77:1 85:1 86:1 87:1 88:1 90:1 101:1 104:1 106:1 118:1 119:1 120:1 122:1 123:1 124:1 125:1 136:1 149:1 150:1 151:1 152:1 153:1 154:1 155:1 156:1 173:1 189:1 204:1 205:1 
-3 72:1 87:1 88:1 101:1 102:1 104:1 119:1 120:1 136:1 149:1 150:1 151:1 152:1 153:1 154:1 155:1 156:1 173:1 189:1 203:1 204:1 205:1 
-3 72:1 87:1 88:1 101:1 102:1 104:1 119:1 120:1 136:1 149:1 150:1 151:1 152:1 153:1 154:1 155:1 156:1 173:1 189:1 203:1 204:1 205:1 
