svm_type c_svc
kernel_type rbf
gamma 0.015625
nr_class 2
total_sv 22
rho -1.56494
label -1 1
nr_sv 17 5
SV
0.2551139879832702 77:1 93:1 109:1 125:1 133:1 134:1 135:1 136:1 137:1 138:1 139:1 140:1 141:1 157:1 173:1 189:1 205:1 
1.132012553655384 71:1 77:1 87:1 88:1 93:1 103:1 104:1 105:1 106:1 109:1 119:1 122:1 123:1 124:1 135:1 137:1 138:1 139:1 140:1 149:1 150:1 151:1 152:1 153:1 156:1 167:1 173:1 183:1 189:1 199:1 205:1 
1.884520281287378 75:1 77:1 90:1 93:1 105:1 106:1 109:1 120:1 125:1 134:1 135:1 136:1 137:1 138:1 139:1 140:1 141:1 150:1 157:1 169:1 173:1 185:1 186:1 189:1 202:1 205:1 
0.6465415448828503 74:1 77:1 89:1 90:1 93:1 105:1 109:1 119:1 120:1 125:1 134:1 135:1 136:1 137:1 138:1 139:1 140:1 141:1 152:1 157:1 168:1 173:1 185:1 189:1 202:1 205:1 
0.4846344307394082 71:1 72:1 73:1 74:1 75:1 87:1 90:1 103:1 106:1 119:1 122:1 133:1 134:1 135:1 136:1 137:1 138:1 139:1 140:1 141:1 142:1 151:1 154:1 167:1 170:1 183:1 186:1 199:1 200:1 201:1 202:1 203:1 
1.931222522341705 87:1 88:1 89:1 90:1 103:1 106:1 119:1 122:1 133:1 134:1 135:1 136:1 137:1 138:1 139:1 140:1 141:1 151:1 154:1 167:1 170:1 183:1 184:1 185:1 186:1 
2.38234233277642 87:1 103:1 119:1 133:1 134:1 135:1 136:1 137:1 138:1 139:1 140:1 141:1 151:1 167:1 183:1 199:1 
1.172694957895982 71:1 74:1 87:1 90:1 93:1 103:1 106:1 107:1 108:1 117:1 119:1 122:1 135:1 136:1 137:1 138:1 151:1 154:1 165:1 167:1 170:1 171:1 172:1 173:1 183:1 186:1 199:1 202:1 
0.2858473428101592 71:1 76:1 77:1 87:1 92:1 103:1 107:1 108:1 109:1 117:1 119:1 122:1 123:1 125:1 133:1 134:1 135:1 138:1 141:1 151:1 153:1 154:1 157:1 167:1 168:1 173:1 183:1 184:1 189:1 205:1 
0.3310106135342053 71:1 75:1 87:1 89:1 91:1 103:1 119:1 134:1 135:1 136:1 137:1 138:1 139:1 140:1 141:1 149:1 151:1 165:1 167:1 168:1 171:1 181:1 183:1 185:1 199:1 202:1 203:1 
0.08922669804486885 77:1 87:1 90:1 103:1 106:1 108:1 119:1 122:1 123:1 134:1 135:1 136:1 137:1 138:1 139:1 140:1 141:1 149:1 151:1 154:1 155:1 165:1 167:1 168:1 169:1 170:1 172:1 181:1 183:1 186:1 189:1 205:1 
0.8483149510846538 71:1 86:1 87:1 90:1 92:1 93:1 102:1 103:1 106:1 107:1 108:1 109:1 117:1 119:1 121:1 122:1 123:1 125:1 133:1 134:1 135:1 136:1 137:1 138:1 139:1 141:1 149:1 151:1 154:1 155:1 157:1 165:1 166:1 167:1 170:1 173:1 181:1 182:1 183:1 186:1 189:1 199:1 204:1 205:1 
0.5287134692224363 70:1 71:1 72:1 73:1 77:1 86:1 87:1 88:1 90:1 92:1 93:1 103:1 104:1 106:1 108:1 117:1 119:1 120:1 122:1 123:1 124:1 134:1 135:1 136:1 137:1 138:1 139:1 150:1 151:1 154:1 155:1 166:1 167:1 170:1 173:1 183:1 184:1 185:1 189:1 197:1 199:1 204:1 205:1 
0.3141564941456628 77:1 85:1 87:1 101:1 117:1 119:1 124:1 133:1 134:1 135:1 136:1 137:1 138:1 139:1 140:1 149:1 150:1 151:1 155:1 165:1 167:1 169:1 170:1 181:1 183:1 184:1 185:1 186:1 203:1 205:1 
0.6619493382021345 71:1 87:1 88:1 89:1 90:1 91:1 92:1 93:1 103:1 109:1 119:1 125:1 133:1 134:1 135:1 141:1 150:1 151:1 157:1 167:1 173:1 183:1 189:1 199:1 205:1 
0.9814073052643635 71:1 77:1 87:1 92:1 103:1 105:1 106:1 107:1 108:1 117:1 119:1 133:1 134:1 135:1 151:1 167:1 183:1 199:1 
1.070291176129118 72:1 77:1 87:1 89:1 93:1 102:1 103:1 105:1 107:1 108:1 109:1 117:1 118:1 119:1 121:1 125:1 133:1 134:1 135:1 137:1 138:1 139:1 140:1 141:1 150:1 151:1 153:1 155:1 157:1 167:1 169:1 171:1 173:1 183:1 184:1 185:1 187:1 189:1 200:1 205:1 
-3 71:1 77:1 87:1 89:1 93:1 103:1 105:1 109:1 117:1 119:1 121:1 125:1 133:1 134:1 135:1 136:1 137:1 138:1 139:1 140:1 141:1 150:1 151:1 153:1 157:1 167:1 169:1 173:1 183:1 185:1 189:1 205:1 
-3 71:1 77:1 87:1 90:1 93:1 103:1 106:1 109:1 117:1 119:1 122:1 125:1 133:1 134:1 135:1 136:1 137:1 138:1 139:1 140:1 141:1 151:1 154:1 157:1 167:1 170:1 173:1 183:1 186:1 189:1 199:1 202:1 205:1 
-3 71:1 77:1 87:1 89:1 90:1 93:1 103:1 106:1 109:1 117:1 119:1 122:1 125:1 134:1 135:1 136:1 137:1 138:1 139:1 140:1 141:1 151:1 154:1 157:1 167:1 169:1 170:1 173:1 183:1 185:1 186:1 189:1 199:1 205:1 
-3 71:1 77:1 87:1 90:1 103:1 106:1 117:1 119:1 134:1 135:1 136:1 137:1 138:1 139:1 140:1 151:1 167:1 183:1 185:1 199:1 
-3 71:1 77:1 87:1 90:1 103:1 106:1 117:1 119:1 134:1 135:1 136:1 137:1 138:1 139:1 140:1 151:1 167:1 183:1 185:1 199:1 
