svm_type c_svc
kernel_type rbf
gamma 0.015625
nr_class 2
total_sv 33
rho -1.09208
label -1 1
nr_sv 28 5
SV
0.2431218762579846 25:1 26:1 40:1 41:1 56:1 57:1 72:1 73:1 88:1 89:1 98:1 99:1 100:1 101:1 102:1 103:1 104:1 105:1 106:1 107:1 108:1 109:1 114:1 115:1 116:1 117:1 118:1 119:1 120:1 121:1 122:1 123:1 124:1 125:1 126:1 127:1 135:1 136:1 142:1 143:1 151:1 152:1 158:1 159:1 167:1 174:1 175:1 183:1 190:1 191:1 198:1 199:1 206:1 207:1 214:1 215:1 222:1 223:1 230:1 231:1 237:1 238:1 239:1 245:1 246:1 247:1 253:1 254:1 
0.06341907163450991 31:1 37:1 38:1 47:1 48:1 53:1 63:1 64:1 69:1 71:1 72:1 73:1 78:1 79:1 85:1 88:1 89:1 90:1 94:1 95:1 101:1 106:1 107:1 109:1 110:1 117:1 123:1 124:1 125:1 130:1 131:1 132:1 133:1 134:1 135:1 136:1 137:1 138:1 139:1 140:1 141:1 146:1 147:1 148:1 149:1 150:1 151:1 152:1 153:1 154:1 156:1 157:1 165:1 173:1 174:1 181:1 190:1 197:1 206:1 207:1 213:1 222:1 223:1 229:1 238:1 239:1 245:1 246:1 255:1 
0.09708501175134186 31:1 114:1 115:1 116:1 117:1 118:1 119:1 120:1 121:1 122:1 123:1 124:1 125:1 126:1 131:1 199:1 215:1 222:1 238:1 254:1 
0.01336960029638269 20:1 32:1 36:1 47:1 52:1 62:1 68:1 75:1 76:1 77:1 84:1 86:1 87:1 88:1 89:1 90:1 91:1 92:1 100:1 101:1 102:1 103:1 104:1 105:1 106:1 116:1 132:1 148:1 164:1 165:1 166:1 167:1 168:1 169:1 170:1 171:1 172:1 173:1 174:1 175:1 176:1 180:1 181:1 182:1 183:1 184:1 185:1 186:1 187:1 188:1 189:1 190:1 191:1 196:1 212:1 227:1 228:1 244:1 
0.07780031768882553 31:1 47:1 63:1 66:1 67:1 68:1 69:1 70:1 71:1 72:1 73:1 74:1 75:1 76:1 77:1 78:1 83:1 84:1 85:1 86:1 87:1 88:1 89:1 90:1 91:1 92:1 93:1 94:1 99:1 103:1 115:1 119:1 131:1 135:1 147:1 151:1 163:1 167:1 179:1 180:1 181:1 182:1 183:1 184:1 185:1 186:1 187:1 188:1 189:1 190:1 195:1 222:1 238:1 254:1 
0.1991548272472603 23:1 24:1 39:1 51:1 52:1 63:1 64:1 68:1 69:1 70:1 71:1 72:1 73:1 74:1 75:1 76:1 77:1 78:1 79:1 95:1 111:1 115:1 116:1 117:1 118:1 119:1 120:1 121:1 122:1 123:1 124:1 125:1 127:1 140:1 143:1 156:1 159:1 172:1 175:1 179:1 180:1 181:1 182:1 183:1 184:1 185:1 186:1 187:1 188:1 191:1 195:1 196:1 197:1 198:1 199:1 200:1 201:1 202:1 203:1 204:1 205:1 207:1 223:1 239:1 247:1 248:1 
0.1378215717465595 23:1 39:1 51:1 52:1 53:1 54:1 55:1 56:1 57:1 58:1 59:1 60:1 61:1 62:1 63:1 67:1 68:1 71:1 78:1 79:1 87:1 94:1 95:1 98:1 99:1 103:1 107:1 108:1 110:1 111:1 114:1 115:1 116:1 117:1 118:1 119:1 120:1 121:1 122:1 123:1 124:1 126:1 127:1 135:1 139:1 140:1 142:1 143:1 151:1 155:1 156:1 158:1 159:1 167:1 171:1 172:1 174:1 175:1 178:1 179:1 180:1 181:1 182:1 183:1 184:1 185:1 186:1 187:1 188:1 190:1 191:1 199:1 206:1 207:1 215:1 222:1 223:1 231:1 238:1 239:1 247:1 
0.1695515270319457 23:1 39:1 51:1 52:1 55:1 63:1 68:1 71:1 79:1 87:1 95:1 103:1 111:1 114:1 115:1 116:1 117:1 118:1 119:1 120:1 121:1 122:1 123:1 124:1 125:1 127:1 131:1 135:1 143:1 151:1 159:1 167:1 175:1 183:1 191:1 195:1 196:1 197:1 198:1 199:1 200:1 201:1 202:1 203:1 204:1 207:1 215:1 223:1 230:1 231:1 238:1 239:1 247:1 255:1 
0.05872015779904851 31:1 68:1 69:1 70:1 71:1 72:1 73:1 74:1 75:1 76:1 77:1 78:1 88:1 100:1 104:1 116:1 120:1 132:1 136:1 148:1 152:1 153:1 154:1 155:1 156:1 157:1 158:1 163:1 164:1 168:1 169:1 170:1 171:1 172:1 173:1 174:1 179:1 180:1 184:1 194:1 195:1 200:1 215:1 216:1 222:1 232:1 238:1 254:1 
0.2339027280111134 30:1 31:1 38:1 47:1 53:1 54:1 55:1 63:1 72:1 73:1 74:1 75:1 79:1 90:1 91:1 95:1 98:1 99:1 100:1 101:1 102:1 103:1 104:1 105:1 106:1 107:1 108:1 109:1 110:1 111:1 115:1 116:1 117:1 118:1 119:1 120:1 121:1 122:1 123:1 124:1 125:1 126:1 127:1 143:1 147:1 148:1 149:1 150:1 151:1 152:1 153:1 154:1 155:1 156:1 157:1 158:1 159:1 163:1 164:1 165:1 166:1 167:1 168:1 169:1 170:1 171:1 172:1 173:1 174:1 175:1 186:1 187:1 191:1 199:1 200:1 201:1 202:1 207:1 214:1 215:1 216:1 223:1 230:1 239:1 254:1 255:1 
0.1376024820773715 37:1 46:1 47:1 53:1 56:1 57:1 58:1 61:1 62:1 63:1 69:1 71:1 72:1 73:1 74:1 75:1 76:1 77:1 85:1 86:1 87:1 88:1 89:1 90:1 91:1 92:1 93:1 100:1 101:1 102:1 103:1 105:1 106:1 108:1 111:1 114:1 115:1 116:1 117:1 121:1 122:1 127:1 128:1 130:1 131:1 133:1 135:1 136:1 137:1 138:1 139:1 140:1 141:1 142:1 143:1 149:1 151:1 152:1 153:1 154:1 155:1 156:1 157:1 158:1 159:1 165:1 169:1 170:1 181:1 185:1 186:1 188:1 197:1 201:1 202:1 203:1 204:1 205:1 213:1 217:1 218:1 220:1 221:1 222:1 229:1 233:1 234:1 237:1 238:1 239:1 254:1 
0.05143615633614932 31:1 40:1 41:1 44:1 47:1 54:1 55:1 56:1 59:1 60:1 61:1 63:1 67:1 68:1 69:1 70:1 72:1 74:1 75:1 76:1 77:1 79:1 83:1 84:1 88:1 89:1 90:1 92:1 93:1 95:1 99:1 103:1 104:1 108:1 111:1 117:1 118:1 119:1 124:1 127:1 134:1 136:1 137:1 140:1 143:1 151:1 152:1 153:1 155:1 156:1 157:1 159:1 165:1 166:1 167:1 168:1 170:1 171:1 172:1 175:1 179:1 180:1 181:1 184:1 185:1 186:1 188:1 191:1 195:1 199:1 200:1 201:1 204:1 207:1 214:1 215:1 219:1 220:1 223:1 229:1 230:1 235:1 236:1 239:1 246:1 255:1 
0.0924926479055565 27:1 31:1 32:1 38:1 39:1 43:1 44:1 47:1 48:1 55:1 59:1 60:1 63:1 71:1 75:1 79:1 83:1 84:1 87:1 91:1 93:1 95:1 99:1 100:1 101:1 102:1 103:1 104:1 105:1 106:1 107:1 108:1 109:1 111:1 115:1 127:1 143:1 147:1 148:1 149:1 150:1 151:1 152:1 153:1 154:1 155:1 156:1 159:1 163:1 164:1 165:1 166:1 167:1 168:1 169:1 170:1 171:1 172:1 173:1 175:1 183:1 189:1 191:1 198:1 199:1 205:1 207:1 214:1 215:1 221:1 223:1 229:1 230:1 235:1 236:1 237:1 239:1 251:1 252:1 255:1 256:1 
0.2515356961710298 35:1 36:1 38:1 39:1 40:1 41:1 42:1 47:1 51:1 52:1 55:1 56:1 57:1 58:1 62:1 63:1 64:1 67:1 71:1 74:1 78:1 79:1 83:1 87:1 90:1 92:1 93:1 94:1 99:1 103:1 104:1 105:1 106:1 107:1 108:1 109:1 115:1 116:1 117:1 118:1 119:1 120:1 121:1 122:1 123:1 131:1 147:1 148:1 149:1 150:1 151:1 152:1 153:1 154:1 155:1 156:1 157:1 158:1 159:1 163:1 164:1 165:1 166:1 167:1 168:1 169:1 170:1 171:1 172:1 173:1 174:1 175:1 179:1 183:1 186:1 195:1 199:1 202:1 211:1 215:1 216:1 217:1 218:1 227:1 228:1 230:1 231:1 232:1 233:1 234:1 243:1 244:1 
0.05938760610770218 18:1 19:1 34:1 35:1 38:1 39:1 40:1 41:1 42:1 46:1 47:1 48:1 50:1 51:1 54:1 55:1 56:1 57:1 58:1 62:1 63:1 67:1 70:1 71:1 74:1 77:1 78:1 79:1 83:1 86:1 87:1 90:1 92:1 93:1 94:1 99:1 100:1 101:1 102:1 103:1 104:1 105:1 106:1 107:1 108:1 109:1 115:1 116:1 117:1 118:1 119:1 120:1 121:1 122:1 123:1 124:1 131:1 147:1 163:1 164:1 165:1 166:1 167:1 168:1 169:1 170:1 171:1 172:1 173:1 174:1 175:1 176:1 179:1 182:1 183:1 186:1 195:1 198:1 199:1 202:1 210:1 211:1 214:1 215:1 218:1 226:1 227:1 230:1 231:1 232:1 233:1 234:1 242:1 243:1 
1.432464069942677 69:1 85:1 87:1 88:1 89:1 90:1 91:1 92:1 93:1 101:1 103:1 106:1 107:1 117:1 118:1 119:1 120:1 121:1 133:1 135:1 137:1 138:1 139:1 149:1 151:1 152:1 153:1 154:1 165:1 167:1 170:1 173:1 181:1 183:1 189:1 197:1 
0.8076481551844356 22:1 23:1 24:1 25:1 26:1 27:1 28:1 29:1 38:1 42:1 43:1 54:1 56:1 57:1 58:1 69:1 70:1 71:1 73:1 75:1 86:1 89:1 90:1 91:1 101:1 102:1 103:1 104:1 105:1 106:1 118:1 121:1 122:1 125:1 134:1 138:1 140:1 141:1 150:1 151:1 152:1 153:1 154:1 155:1 156:1 
1.075373485061999 76:1 77:1 87:1 89:1 90:1 103:1 104:1 118:1 119:1 120:1 150:1 151:1 152:1 167:1 181:1 182:1 183:1 
0.7163535567891256 70:1 73:1 86:1 87:1 89:1 93:1 102:1 104:1 105:1 106:1 107:1 108:1 109:1 118:1 121:1 124:1 133:1 134:1 135:1 136:1 137:1 138:1 139:1 150:1 152:1 153:1 155:1 156:1 166:1 167:1 169:1 170:1 172:1 182:1 185:1 186:1 189:1 201:1 205:1 
0.1928034316408461 8:1 21:1 24:1 37:1 38:1 40:1 41:1 42:1 43:1 44:1 45:1 53:1 54:1 55:1 56:1 60:1 69:1 72:1 76:1 84:1 85:1 86:1 87:1 88:1 89:1 90:1 91:1 92:1 101:1 104:1 106:1 107:1 117:1 119:1 120:1 122:1 123:1 124:1 133:1 134:1 136:1 137:1 138:1 140:1 149:1 152:1 156:1 
0.1887435318944594 102:1 107:1 123:1 138:1 149:1 150:1 151:1 152:1 153:1 154:1 155:1 156:1 157:1 
0.8053861272692817 53:1 58:1 59:1 70:1 71:1 73:1 74:1 89:1 100:1 101:1 102:1 103:1 104:1 105:1 106:1 107:1 108:1 109:1 
1.277427379340596 91:1 102:1 103:1 106:1 107:1 119:1 120:1 122:1 137:1 149:1 150:1 151:1 152:1 153:1 154:1 155:1 156:1 157:1 
0.5420258862590788 87:1 88:1 89:1 90:1 103:1 106:1 119:1 122:1 133:1 134:1 135:1 136:1 137:1 138:1 139:1 140:1 141:1 151:1 154:1 167:1 170:1 183:1 184:1 185:1 186:1 
0.274207585016853 69:1 72:1 74:1 88:1 90:1 104:1 106:1 118:1 119:1 120:1 121:1 122:1 123:1 124:1 125:1 136:1 138:1 152:1 154:1 165:1 166:1 167:1 168:1 169:1 170:1 171:1 187:1 188:1 189:1 204:1 205:1 
0.1713687470129787 7:1 23:1 26:1 39:1 42:1 55:1 58:1 71:1 74:1 87:1 90:1 103:1 106:1 138:1 139:1 140:1 141:1 155:1 156:1 157:1 
0.8385791007961243 88:1 118:1 119:1 120:1 121:1 122:1 123:1 124:1 125:1 154:1 181:1 182:1 183:1 184:1 185:1 186:1 187:1 188:1 204:1 205:1 
0.5369391153637464 76:1 88:1 90:1 92:1 106:1 108:1 119:1 121:1 123:1 124:1 133:1 134:1 135:1 136:1 137:1 138:1 139:1 140:1 141:1 150:1 152:1 155:1 165:1 168:1 170:1 181:1 183:1 185:1 186:1 201:1 
-1.616720725481503 71:1 77:1 87:1 88:1 89:1 93:1 101:1 103:1 106:1 109:1 118:1 119:1 120:1 121:1 122:1 123:1 124:1 125:1 135:1 141:1 150:1 151:1 152:1 153:1 154:1 155:1 156:1 157:1 165:1 167:1 170:1 173:1 183:1 184:1 185:1 186:1 189:1 199:1 205:1 
-3 12:1 23:1 24:1 28:1 41:1 42:1 44:1 52:1 53:1 60:1 70:1 71:1 72:1 73:1 74:1 75:1 76:1 92:1 101:1 102:1 103:1 104:1 105:1 106:1 107:1 108:1 116:1 117:1 124:1 136:1 137:1 138:1 140:1 151:1 152:1 156:1 
-2.011448215997967 71:1 73:1 77:1 85:1 87:1 89:1 90:1 91:1 93:1 101:1 102:1 103:1 109:1 119:1 120:1 121:1 122:1 123:1 124:1 125:1 135:1 141:1 150:1 151:1 152:1 153:1 154:1 155:1 156:1 157:1 165:1 167:1 171:1 173:1 183:1 185:1 186:1 189:1 199:1 205:1 
-1.150049179804291 71:1 77:1 87:1 89:1 90:1 101:1 103:1 106:1 107:1 118:1 119:1 120:1 121:1 122:1 123:1 124:1 135:1 151:1 152:1 153:1 154:1 155:1 156:1 165:1 167:1 170:1 181:1 183:1 185:1 186:1 199:1 
-2.967503328351222 71:1 77:1 87:1 89:1 90:1 101:1 103:1 106:1 107:1 118:1 119:1 120:1 121:1 122:1 123:1 124:1 135:1 151:1 152:1 153:1 154:1 155:1 156:1 165:1 167:1 170:1 181:1 183:1 185:1 186:1 199:1 
