svm_type c_svc
kernel_type rbf
gamma 0.015625
nr_class 2
total_sv 48
rho -1.32164
label -1 1
nr_sv 43 5
SV
0.05462163872189449 69:1 77:1 92:1 107:1 108:1 118:1 119:1 120:1 121:1 122:1 136:1 152:1 157:1 168:1 171:1 172:1 184:1 185:1 186:1 187:1 197:1 
0.5716400999330831 70:1 72:1 76:1 77:1 86:1 88:1 91:1 93:1 102:1 104:1 106:1 107:1 109:1 118:1 119:1 120:1 121:1 125:1 134:1 137:1 139:1 140:1 141:1 150:1 153:1 154:1 155:1 156:1 157:1 166:1 171:1 172:1 173:1 182:1 185:1 186:1 187:1 188:1 189:1 198:1 199:1 200:1 205:1 
0.3210059929183182 72:1 77:1 87:1 88:1 90:1 91:1 101:1 102:1 104:1 105:1 106:1 107:1 119:1 120:1 123:1 135:1 136:1 151:1 152:1 154:1 155:1 165:1 166:1 168:1 169:1 171:1 181:1 184:1 187:1 199:1 205:1 
0.1408436401495216 72:1 73:1 74:1 88:1 90:1 93:1 104:1 106:1 107:1 108:1 109:1 118:1 119:1 120:1 121:1 122:1 123:1 150:1 151:1 152:1 153:1 154:1 155:1 156:1 157:1 158:1 168:1 170:1 184:1 186:1 200:1 201:1 202:1 203:1 
0.5329846601985242 69:1 77:1 85:1 90:1 93:1 101:1 106:1 108:1 117:1 118:1 119:1 120:1 121:1 122:1 123:1 133:1 149:1 150:1 151:1 152:1 153:1 154:1 155:1 156:1 157:1 165:1 170:1 181:1 186:1 197:1 200:1 201:1 202:1 
0.03952455193896095 74:1 75:1 76:1 77:1 87:1 88:1 89:1 105:1 118:1 119:1 120:1 121:1 137:1 150:1 151:1 152:1 153:1 169:1 183:1 184:1 185:1 199:1 201:1 
0.271899200607771 71:1 77:1 87:1 89:1 90:1 101:1 103:1 106:1 107:1 118:1 119:1 120:1 121:1 122:1 123:1 124:1 135:1 151:1 152:1 153:1 154:1 155:1 156:1 165:1 167:1 170:1 181:1 183:1 185:1 186:1 199:1 
0.3937165899765675 73:1 74:1 75:1 76:1 86:1 88:1 89:1 90:1 91:1 92:1 93:1 94:1 102:1 104:1 105:1 106:1 107:1 108:1 109:1 117:1 118:1 119:1 120:1 121:1 122:1 123:1 124:1 134:1 136:1 137:1 138:1 139:1 140:1 149:1 150:1 151:1 152:1 153:1 154:1 155:1 156:1 157:1 158:1 166:1 168:1 169:1 170:1 171:1 172:1 182:1 184:1 185:1 186:1 187:1 188:1 201:1 202:1 203:1 204:1 
0.49184342782521 86:1 87:1 88:1 89:1 93:1 102:1 105:1 108:1 117:1 118:1 119:1 120:1 121:1 122:1 123:1 134:1 137:1 149:1 150:1 151:1 152:1 153:1 154:1 155:1 156:1 157:1 166:1 169:1 182:1 183:1 184:1 185:1 201:1 
0.1433368738084911 71:1 72:1 73:1 74:1 75:1 76:1 77:1 78:1 87:1 89:1 90:1 94:1 103:1 106:1 107:1 110:1 119:1 120:1 121:1 122:1 123:1 124:1 125:1 151:1 152:1 153:1 154:1 155:1 156:1 157:1 158:1 167:1 169:1 170:1 174:1 183:1 187:1 190:1 199:1 200:1 201:1 202:1 203:1 204:1 205:1 
0.001850541621177586 77:1 103:1 108:1 121:1 123:1 138:1 139:1 152:1 153:1 155:1 156:1 165:1 166:1 167:1 172:1 189:1 205:1 
0.2468971053524338 74:1 89:1 93:1 104:1 108:1 118:1 119:1 123:1 133:1 137:1 138:1 152:1 153:1 156:1 167:1 170:1 171:1 172:1 187:1 188:1 205:1 
0.05369169410234636 74:1 89:1 93:1 104:1 105:1 108:1 118:1 119:1 121:1 122:1 133:1 149:1 152:1 153:1 154:1 157:1 165:1 169:1 183:1 185:1 186:1 202:1 
0.5238815289984917 75:1 76:1 77:1 85:1 86:1 87:1 88:1 89:1 90:1 101:1 103:1 104:1 106:1 107:1 108:1 117:1 119:1 120:1 122:1 133:1 135:1 136:1 138:1 141:1 149:1 150:1 151:1 152:1 153:1 154:1 155:1 156:1 157:1 165:1 167:1 168:1 170:1 172:1 181:1 183:1 184:1 186:1 187:1 188:1 197:1 200:1 
0.5894347129630813 77:1 85:1 86:1 87:1 88:1 89:1 90:1 91:1 103:1 106:1 107:1 108:1 109:1 119:1 135:1 150:1 151:1 155:1 156:1 157:1 165:1 167:1 181:1 183:1 184:1 185:1 186:1 187:1 188:1 200:1 
0.3277644428426087 88:1 90:1 93:1 103:1 104:1 106:1 109:1 118:1 121:1 122:1 125:1 133:1 136:1 138:1 140:1 151:1 152:1 154:1 155:1 156:1 166:1 167:1 170:1 171:1 184:1 185:1 186:1 
0.09358523002818121 74:1 75:1 76:1 88:1 89:1 90:1 93:1 102:1 103:1 109:1 118:1 119:1 120:1 121:1 122:1 123:1 125:1 134:1 139:1 141:1 150:1 151:1 152:1 153:1 154:1 155:1 157:1 166:1 171:1 173:1 182:1 183:1 184:1 185:1 186:1 187:1 189:1 204:1 
0.7893907810536748 71:1 72:1 77:1 87:1 88:1 89:1 90:1 91:1 93:1 103:1 104:1 105:1 106:1 107:1 108:1 119:1 120:1 122:1 123:1 124:1 135:1 136:1 138:1 139:1 140:1 151:1 152:1 154:1 155:1 156:1 166:1 167:1 168:1 170:1 171:1 173:1 182:1 183:1 184:1 185:1 186:1 189:1 199:1 204:1 205:1 
0.08902214531372661 71:1 74:1 75:1 76:1 77:1 86:1 87:1 88:1 89:1 90:1 91:1 101:1 103:1 104:1 105:1 106:1 107:1 119:1 120:1 121:1 122:1 123:1 135:1 136:1 137:1 138:1 139:1 141:1 150:1 151:1 152:1 153:1 154:1 155:1 166:1 167:1 168:1 169:1 170:1 171:1 183:1 184:1 185:1 186:1 187:1 188:1 204:1 205:1 
0.3442917880231294 70:1 77:1 86:1 87:1 88:1 89:1 90:1 91:1 93:1 102:1 103:1 104:1 107:1 109:1 118:1 120:1 123:1 125:1 134:1 136:1 139:1 141:1 150:1 152:1 155:1 157:1 166:1 168:1 171:1 172:1 173:1 182:1 184:1 185:1 186:1 187:1 188:1 189:1 198:1 205:1 
0.08804273471441035 72:1 77:1 89:1 90:1 91:1 93:1 107:1 109:1 118:1 119:1 120:1 121:1 122:1 123:1 124:1 125:1 141:1 150:1 151:1 152:1 153:1 154:1 155:1 156:1 157:1 171:1 173:1 185:1 186:1 187:1 189:1 200:1 205:1 
1.192376741598109 73:1 74:1 77:1 88:1 89:1 90:1 91:1 93:1 102:1 103:1 104:1 105:1 107:1 109:1 117:1 118:1 119:1 121:1 122:1 123:1 125:1 133:1 135:1 137:1 139:1 141:1 151:1 153:1 154:1 155:1 157:1 166:1 167:1 168:1 169:1 171:1 173:1 183:1 185:1 187:1 189:1 201:1 202:1 205:1 
0.4168263439465132 74:1 77:1 89:1 91:1 103:1 104:1 107:1 118:1 119:1 121:1 123:1 133:1 135:1 139:1 153:1 154:1 155:1 166:1 167:1 168:1 171:1 187:1 201:1 202:1 
0.5609502752515224 77:1 88:1 89:1 90:1 93:1 109:1 118:1 119:1 122:1 123:1 124:1 125:1 141:1 150:1 151:1 152:1 154:1 155:1 156:1 157:1 173:1 181:1 183:1 184:1 185:1 186:1 189:1 205:1 
0.2623675649406418 70:1 71:1 74:1 77:1 86:1 87:1 89:1 90:1 92:1 93:1 103:1 107:1 108:1 119:1 120:1 121:1 122:1 123:1 133:1 134:1 135:1 141:1 151:1 152:1 153:1 154:1 155:1 156:1 157:1 167:1 183:1 185:1 186:1 198:1 199:1 202:1 203:1 
0.3135354939829491 72:1 73:1 77:1 88:1 90:1 91:1 93:1 102:1 103:1 104:1 105:1 106:1 107:1 109:1 118:1 119:1 120:1 121:1 122:1 123:1 124:1 133:1 134:1 135:1 136:1 137:1 138:1 139:1 149:1 150:1 151:1 152:1 153:1 154:1 155:1 166:1 167:1 168:1 169:1 170:1 171:1 172:1 173:1 182:1 184:1 185:1 186:1 189:1 200:1 201:1 204:1 205:1 
0.975743498428009 70:1 71:1 73:1 77:1 87:1 89:1 90:1 92:1 102:1 103:1 104:1 105:1 106:1 107:1 108:1 109:1 119:1 122:1 123:1 125:1 133:1 135:1 136:1 137:1 138:1 150:1 151:1 152:1 153:1 155:1 156:1 167:1 171:1 172:1 183:1 184:1 185:1 186:1 187:1 189:1 198:1 201:1 202:1 205:1 
0.7549042241226692 70:1 77:1 87:1 88:1 89:1 90:1 91:1 92:1 93:1 105:1 106:1 107:1 108:1 109:1 117:1 120:1 121:1 122:1 123:1 124:1 125:1 133:1 136:1 137:1 138:1 139:1 140:1 141:1 152:1 153:1 154:1 155:1 156:1 157:1 169:1 170:1 171:1 172:1 173:1 183:1 184:1 185:1 186:1 187:1 188:1 189:1 198:1 205:1 
0.2082310761158987 69:1 77:1 85:1 87:1 88:1 89:1 93:1 105:1 106:1 107:1 108:1 109:1 120:1 121:1 122:1 123:1 124:1 125:1 133:1 136:1 137:1 138:1 139:1 140:1 141:1 152:1 153:1 154:1 155:1 156:1 157:1 169:1 170:1 171:1 172:1 173:1 181:1 183:1 184:1 185:1 189:1 197:1 205:1 
0.3444175302348446 70:1 77:1 87:1 88:1 89:1 93:1 105:1 106:1 107:1 108:1 109:1 121:1 123:1 125:1 133:1 137:1 139:1 141:1 152:1 153:1 155:1 157:1 169:1 170:1 171:1 172:1 173:1 182:1 183:1 184:1 185:1 189:1 205:1 
0.5776494579105207 74:1 75:1 77:1 86:1 87:1 88:1 89:1 93:1 102:1 107:1 108:1 109:1 118:1 119:1 120:1 121:1 123:1 124:1 125:1 133:1 134:1 135:1 136:1 139:1 140:1 141:1 150:1 151:1 152:1 153:1 155:1 156:1 157:1 166:1 171:1 172:1 173:1 182:1 183:1 184:1 185:1 189:1 202:1 203:1 205:1 
0.6298421642119194 73:1 88:1 93:1 104:1 108:1 118:1 119:1 133:1 150:1 151:1 152:1 153:1 154:1 155:1 156:1 157:1 168:1 184:1 
0.3413625067815113 73:1 77:1 88:1 89:1 93:1 104:1 108:1 118:1 119:1 123:1 124:1 133:1 134:1 135:1 137:1 138:1 151:1 155:1 156:1 167:1 168:1 172:1 184:1 189:1 200:1 205:1 
0.1206423347299413 72:1 73:1 85:1 86:1 87:1 88:1 89:1 90:1 91:1 92:1 93:1 94:1 101:1 104:1 118:1 119:1 120:1 133:1 134:1 135:1 150:1 151:1 152:1 153:1 154:1 155:1 156:1 157:1 158:1 166:1 167:1 169:1 171:1 182:1 183:1 185:1 187:1 198:1 199:1 201:1 203:1 
0.4930400358716851 71:1 72:1 85:1 86:1 87:1 88:1 89:1 90:1 91:1 92:1 93:1 106:1 107:1 108:1 109:1 117:1 120:1 124:1 133:1 134:1 135:1 136:1 149:1 151:1 152:1 153:1 154:1 155:1 156:1 157:1 165:1 166:1 167:1 168:1 169:1 170:1 171:1 172:1 181:1 182:1 183:1 184:1 185:1 186:1 187:1 188:1 203:1 204:1 205:1 
0.1466603480322684 72:1 73:1 85:1 86:1 87:1 88:1 89:1 90:1 91:1 92:1 93:1 94:1 101:1 105:1 108:1 118:1 119:1 121:1 122:1 123:1 133:1 134:1 135:1 136:1 138:1 150:1 152:1 153:1 154:1 155:1 156:1 157:1 158:1 166:1 167:1 168:1 170:1 182:1 183:1 184:1 186:1 201:1 202:1 
0.02317209252887799 72:1 85:1 86:1 87:1 88:1 89:1 90:1 91:1 92:1 93:1 101:1 109:1 117:1 118:1 119:1 120:1 121:1 122:1 123:1 124:1 133:1 136:1 149:1 152:1 153:1 154:1 155:1 156:1 157:1 165:1 168:1 181:1 182:1 183:1 184:1 185:1 186:1 187:1 188:1 189:1 204:1 205:1 
0.2158488913168386 73:1 87:1 88:1 89:1 90:1 91:1 92:1 93:1 101:1 102:1 117:1 118:1 119:1 120:1 122:1 123:1 124:1 137:1 153:1 154:1 155:1 156:1 157:1 185:1 186:1 187:1 188:1 189:1 204:1 205:1 
0.4507204088806443 72:1 87:1 88:1 89:1 90:1 91:1 92:1 93:1 103:1 104:1 105:1 107:1 117:1 118:1 120:1 121:1 122:1 123:1 124:1 125:1 133:1 136:1 137:1 139:1 150:1 152:1 153:1 154:1 155:1 156:1 157:1 167:1 168:1 169:1 171:1 173:1 183:1 185:1 186:1 187:1 188:1 189:1 200:1 
0.7158179398820567 72:1 85:1 86:1 87:1 88:1 89:1 90:1 91:1 92:1 93:1 101:1 103:1 105:1 106:1 118:1 119:1 121:1 122:1 123:1 124:1 133:1 135:1 137:1 140:1 151:1 152:1 153:1 154:1 155:1 156:1 167:1 169:1 172:1 173:1 183:1 184:1 185:1 186:1 187:1 188:1 189:1 198:1 201:1 204:1 
0.09471432791759905 72:1 86:1 87:1 88:1 89:1 90:1 91:1 92:1 93:1 101:1 104:1 105:1 118:1 119:1 120:1 121:1 122:1 123:1 133:1 134:1 137:1 150:1 152:1 153:1 154:1 155:1 166:1 169:1 172:1 173:1 182:1 183:1 184:1 185:1 186:1 187:1 188:1 198:1 201:1 
0.01651604651596399 72:1 77:1 87:1 93:1 103:1 105:1 106:1 107:1 108:1 109:1 117:1 118:1 119:1 125:1 133:1 135:1 137:1 138:1 150:1 151:1 153:1 156:1 167:1 173:1 183:1 184:1 185:1 186:1 187:1 188:1 189:1 200:1 
0.03539131570741271 73:1 87:1 88:1 89:1 90:1 91:1 92:1 93:1 101:1 102:1 118:1 119:1 120:1 121:1 122:1 123:1 124:1 125:1 134:1 137:1 149:1 150:1 153:1 154:1 156:1 166:1 169:1 171:1 172:1 182:1 183:1 184:1 185:1 186:1 188:1 189:1 202:1 205:1 
-3 76:1 77:1 87:1 88:1 89:1 90:1 93:1 103:1 104:1 105:1 108:1 117:1 118:1 119:1 120:1 121:1 123:1 133:1 135:1 136:1 137:1 151:1 152:1 153:1 154:1 155:1 156:1 157:1 166:1 167:1 168:1 169:1 171:1 183:1 184:1 185:1 186:1 188:1 199:1 201:1 
-3 70:1 72:1 73:1 74:1 75:1 76:1 77:1 86:1 88:1 90:1 91:1 93:1 102:1 103:1 104:1 105:1 106:1 107:1 109:1 118:1 119:1 120:1 121:1 122:1 123:1 124:1 125:1 126:1 133:1 134:1 136:1 137:1 138:1 139:1 150:1 152:1 153:1 154:1 155:1 156:1 157:1 158:1 166:1 167:1 168:1 169:1 170:1 171:1 172:1 182:1 184:1 185:1 186:1 187:1 189:1 198:1 200:1 202:1 205:1 
-3 69:1 76:1 77:1 85:1 87:1 88:1 89:1 90:1 93:1 103:1 104:1 105:1 106:1 107:1 108:1 109:1 118:1 119:1 120:1 121:1 122:1 123:1 124:1 125:1 133:1 135:1 139:1 151:1 152:1 153:1 154:1 155:1 156:1 157:1 166:1 167:1 171:1 172:1 181:1 183:1 185:1 186:1 187:1 188:1 189:1 197:1 201:1 202:1 205:1 
-3 77:1 87:1 88:1 89:1 90:1 91:1 93:1 106:1 107:1 108:1 118:1 119:1 123:1 133:1 151:1 152:1 153:1 154:1 155:1 156:1 157:1 166:1 172:1 183:1 184:1 185:1 186:1 187:1 189:1 205:1 
-3 77:1 87:1 88:1 89:1 90:1 91:1 93:1 106:1 107:1 108:1 118:1 119:1 123:1 133:1 151:1 152:1 153:1 154:1 155:1 156:1 157:1 166:1 172:1 183:1 184:1 185:1 186:1 187:1 189:1 205:1 
