svm_type c_svc
kernel_type rbf
gamma 0.015625
nr_class 2
total_sv 23
rho -1.45944
label -1 1
nr_sv 18 5
SV
0.3740120525354054 20:1 36:1 52:1 94:1 110:1 111:1 126:1 127:1 128:1 132:1 133:1 134:1 135:1 136:1 137:1 138:1 139:1 140:1 141:1 142:1 143:1 211:1 227:1 
0.9074198309408131 31:1 47:1 63:1 130:1 131:1 132:1 133:1 134:1 135:1 136:1 137:1 138:1 139:1 140:1 141:1 142:1 222:1 238:1 
0.008404187614874601 19:1 20:1 35:1 36:1 52:1 68:1 84:1 100:1 116:1 127:1 128:1 132:1 133:1 134:1 135:1 136:1 137:1 138:1 139:1 140:1 141:1 142:1 143:1 144:1 148:1 164:1 180:1 196:1 212:1 227:1 228:1 243:1 244:1 
0.106955395602065 19:1 35:1 51:1 67:1 83:1 99:1 115:1 131:1 132:1 133:1 134:1 135:1 136:1 137:1 138:1 139:1 140:1 141:1 142:1 143:1 147:1 163:1 179:1 195:1 211:1 226:1 227:1 243:1 
1.25289364451513 58:1 74:1 89:1 90:1 105:1 
0.9079814113169225 118:1 122:1 138:1 165:1 
0.4227624688105501 8:1 24:1 39:1 54:1 55:1 69:1 84:1 85:1 88:1 89:1 90:1 91:1 92:1 93:1 101:1 102:1 118:1 119:1 135:1 136:1 152:1 
0.4355542097151117 20:1 37:1 53:1 54:1 70:1 88:1 89:1 90:1 91:1 92:1 93:1 102:1 117:1 118:1 133:1 148:1 
0.4557475361025234 85:1 102:1 118:1 119:1 136:1 137:1 138:1 139:1 140:1 141:1 151:1 166:1 181:1 
0.307733434332199 87:1 88:1 89:1 90:1 106:1 122:1 133:1 134:1 135:1 136:1 137:1 138:1 139:1 140:1 141:1 154:1 170:1 183:1 184:1 185:1 186:1 
0.01155738275743255 22:1 23:1 24:1 25:1 26:1 38:1 41:1 54:1 57:1 70:1 73:1 84:1 85:1 86:1 87:1 88:1 89:1 90:1 91:1 92:1 93:1 102:1 105:1 118:1 121:1 134:1 137:1 150:1 151:1 152:1 153:1 154:1 
1.35664818691817 87:1 103:1 119:1 133:1 134:1 135:1 136:1 137:1 138:1 139:1 140:1 141:1 151:1 167:1 183:1 199:1 
0.08499807734460507 38:1 39:1 41:1 43:1 44:1 54:1 57:1 59:1 70:1 72:1 75:1 84:1 85:1 86:1 87:1 88:1 89:1 90:1 91:1 92:1 93:1 101:1 104:1 106:1 116:1 117:1 119:1 121:1 122:1 134:1 135:1 137:1 152:1 153:1 
0.2038506996270192 76:1 88:1 90:1 92:1 119:1 121:1 123:1 133:1 134:1 135:1 136:1 137:1 138:1 139:1 140:1 141:1 150:1 152:1 166:1 168:1 170:1 183:1 185:1 186:1 
1.749789603647531 86:1 88:1 133:1 134:1 135:1 136:1 137:1 138:1 139:1 140:1 141:1 182:1 184:1 
0.4136918782196474 10:1 26:1 40:1 42:1 56:1 58:1 72:1 74:1 84:1 85:1 86:1 87:1 88:1 89:1 90:1 91:1 92:1 93:1 104:1 106:1 120:1 122:1 136:1 138:1 154:1 
3 133:1 134:1 135:1 136:1 137:1 138:1 139:1 140:1 141:1 182:1 
3 133:1 134:1 135:1 136:1 137:1 138:1 139:1 140:1 141:1 182:1 
-3 133:1 134:1 135:1 136:1 137:1 138:1 139:1 140:1 141:1 
-3 84:1 85:1 86:1 87:1 88:1 89:1 90:1 91:1 92:1 93:1 
-3 133:1 134:1 135:1 136:1 137:1 138:1 139:1 140:1 141:1 
-3 133:1 134:1 135:1 136:1 137:1 138:1 139:1 140:1 141:1 
-3 133:1 134:1 135:1 136:1 137:1 138:1 139:1 140:1 141:1 
