svm_type c_svc
kernel_type rbf
gamma 0.015625
nr_class 2
total_sv 28
rho -1.3076
label -1 1
nr_sv 23 5
SV
0.001442192311280891 36:1 52:1 132:1 133:1 134:1 135:1 136:1 137:1 138:1 139:1 140:1 141:1 142:1 143:1 151:1 168:1 184:1 185:1 200:1 201:1 202:1 211:1 218:1 227:1 
0.07625505369584396 35:1 41:1 42:1 51:1 53:1 54:1 55:1 56:1 57:1 58:1 67:1 74:1 83:1 90:1 99:1 106:1 115:1 122:1 131:1 132:1 133:1 134:1 135:1 136:1 137:1 138:1 147:1 150:1 151:1 154:1 158:1 163:1 166:1 167:1 170:1 174:1 175:1 179:1 182:1 183:1 186:1 190:1 191:1 195:1 198:1 199:1 202:1 206:1 207:1 211:1 214:1 215:1 216:1 217:1 218:1 219:1 220:1 221:1 222:1 223:1 227:1 230:1 231:1 232:1 233:1 234:1 235:1 236:1 237:1 243:1 
0.2683832184908668 19:1 20:1 35:1 36:1 52:1 57:1 58:1 68:1 69:1 70:1 71:1 72:1 73:1 74:1 84:1 90:1 100:1 106:1 116:1 122:1 132:1 133:1 134:1 135:1 136:1 137:1 138:1 148:1 151:1 154:1 159:1 164:1 167:1 170:1 175:1 176:1 180:1 183:1 186:1 191:1 192:1 196:1 198:1 199:1 202:1 204:1 205:1 206:1 207:1 212:1 214:1 215:1 218:1 219:1 220:1 221:1 222:1 223:1 227:1 228:1 243:1 244:1 
0.052128681980727 28:1 36:1 43:1 44:1 47:1 52:1 59:1 63:1 73:1 74:1 88:1 89:1 90:1 103:1 104:1 105:1 118:1 119:1 132:1 133:1 134:1 135:1 136:1 137:1 138:1 139:1 140:1 141:1 142:1 148:1 151:1 184:1 201:1 202:1 211:1 217:1 218:1 222:1 227:1 234:1 235:1 238:1 254:1 
0.1925186630281616 29:1 44:1 45:1 47:1 55:1 59:1 60:1 63:1 67:1 71:1 74:1 75:1 83:1 87:1 88:1 89:1 90:1 99:1 102:1 103:1 104:1 109:1 115:1 119:1 125:1 131:1 133:1 134:1 135:1 136:1 137:1 138:1 139:1 140:1 141:1 147:1 149:1 150:1 151:1 163:1 164:1 168:1 169:1 179:1 180:1 184:1 185:1 186:1 194:1 195:1 199:1 203:1 211:1 214:1 215:1 219:1 220:1 222:1 231:1 235:1 236:1 237:1 238:1 252:1 
0.1438545643820209 26:1 42:1 51:1 52:1 54:1 55:1 58:1 62:1 67:1 68:1 71:1 74:1 78:1 79:1 83:1 84:1 87:1 90:1 93:1 94:1 95:1 99:1 100:1 103:1 106:1 108:1 109:1 110:1 111:1 115:1 116:1 119:1 122:1 123:1 124:1 126:1 127:1 131:1 132:1 133:1 134:1 135:1 136:1 137:1 138:1 139:1 142:1 143:1 147:1 148:1 151:1 154:1 158:1 159:1 163:1 164:1 167:1 170:1 171:1 172:1 174:1 179:1 180:1 183:1 186:1 188:1 189:1 190:1 195:1 199:1 202:1 206:1 207:1 210:1 211:1 214:1 215:1 218:1 222:1 223:1 224:1 227:1 234:1 239:1 250:1 
0.9401829968151477 69:1 85:1 87:1 88:1 89:1 90:1 91:1 92:1 93:1 101:1 103:1 106:1 107:1 117:1 118:1 119:1 120:1 121:1 133:1 135:1 137:1 138:1 139:1 149:1 151:1 152:1 153:1 154:1 165:1 167:1 170:1 173:1 181:1 183:1 189:1 197:1 
0.4151838533124542 22:1 23:1 24:1 25:1 26:1 27:1 28:1 29:1 38:1 42:1 43:1 54:1 56:1 57:1 58:1 69:1 70:1 71:1 73:1 75:1 86:1 89:1 90:1 91:1 101:1 102:1 103:1 104:1 105:1 106:1 118:1 121:1 122:1 125:1 134:1 138:1 140:1 141:1 150:1 151:1 152:1 153:1 154:1 155:1 156:1 
0.1429509594124998 76:1 77:1 87:1 89:1 90:1 103:1 104:1 118:1 119:1 120:1 150:1 151:1 152:1 167:1 181:1 182:1 183:1 
0.3641188087987654 71:1 77:1 87:1 88:1 89:1 93:1 101:1 103:1 106:1 109:1 118:1 119:1 120:1 121:1 122:1 123:1 124:1 125:1 135:1 141:1 150:1 151:1 152:1 153:1 154:1 155:1 156:1 157:1 165:1 167:1 170:1 173:1 183:1 184:1 185:1 186:1 189:1 199:1 205:1 
1.062023615710853 71:1 77:1 87:1 89:1 90:1 101:1 103:1 106:1 107:1 118:1 119:1 120:1 121:1 122:1 123:1 124:1 135:1 151:1 152:1 153:1 154:1 155:1 156:1 165:1 167:1 170:1 181:1 183:1 185:1 186:1 199:1 
0.7523859630952785 84:1 85:1 86:1 87:1 88:1 89:1 90:1 91:1 92:1 93:1 
1.636771242004492 133:1 134:1 135:1 136:1 137:1 138:1 139:1 140:1 141:1 
2.950403067577786 133:1 134:1 135:1 136:1 137:1 138:1 139:1 140:1 141:1 
1.931725729551251 73:1 88:1 103:1 104:1 118:1 119:1 133:1 134:1 136:1 137:1 138:1 139:1 140:1 141:1 150:1 151:1 167:1 184:1 200:1 201:1 
0.2417638986629018 86:1 102:1 103:1 119:1 136:1 137:1 138:1 139:1 140:1 141:1 151:1 152:1 166:1 167:1 181:1 182:1 
0.003631365373330004 7:1 23:1 26:1 39:1 42:1 55:1 58:1 71:1 74:1 87:1 90:1 103:1 106:1 138:1 139:1 140:1 141:1 155:1 156:1 157:1 
0.5558964826744373 38:1 39:1 41:1 43:1 44:1 54:1 57:1 59:1 70:1 72:1 75:1 84:1 85:1 86:1 87:1 88:1 89:1 90:1 91:1 92:1 93:1 101:1 104:1 106:1 116:1 117:1 119:1 121:1 122:1 134:1 135:1 137:1 152:1 153:1 
0.5175443988373779 72:1 76:1 87:1 89:1 90:1 92:1 103:1 105:1 107:1 108:1 119:1 121:1 123:1 133:1 134:1 135:1 136:1 137:1 138:1 139:1 140:1 141:1 150:1 152:1 155:1 166:1 168:1 170:1 181:1 183:1 184:1 186:1 201:1 
1.147152661395772 76:1 88:1 90:1 92:1 119:1 121:1 123:1 133:1 134:1 135:1 136:1 137:1 138:1 139:1 140:1 141:1 150:1 152:1 166:1 168:1 170:1 183:1 185:1 186:1 
0.4255382952009094 86:1 88:1 133:1 134:1 135:1 136:1 137:1 138:1 139:1 140:1 141:1 182:1 184:1 
0.3383138819971669 10:1 26:1 40:1 42:1 56:1 58:1 72:1 74:1 84:1 85:1 86:1 87:1 88:1 89:1 90:1 91:1 92:1 93:1 104:1 106:1 120:1 122:1 136:1 138:1 154:1 
0.8398304056906771 70:1 71:1 75:1 86:1 87:1 88:1 91:1 102:1 103:1 107:1 118:1 119:1 123:1 133:1 134:1 135:1 136:1 137:1 138:1 139:1 140:1 141:1 150:1 151:1 155:1 166:1 167:1 168:1 171:1 182:1 183:1 184:1 187:1 203:1 
-3 87:1 88:1 89:1 90:1 106:1 122:1 133:1 134:1 135:1 136:1 137:1 138:1 139:1 140:1 141:1 154:1 170:1 183:1 184:1 185:1 186:1 
-3 22:1 23:1 24:1 25:1 26:1 38:1 41:1 54:1 57:1 70:1 73:1 84:1 85:1 86:1 87:1 88:1 89:1 90:1 91:1 92:1 93:1 102:1 105:1 118:1 121:1 134:1 137:1 150:1 151:1 152:1 153:1 154:1 
-3 87:1 88:1 89:1 90:1 103:1 106:1 119:1 122:1 133:1 134:1 135:1 136:1 137:1 138:1 139:1 140:1 141:1 151:1 154:1 167:1 170:1 183:1 184:1 185:1 186:1 
-3 87:1 103:1 119:1 133:1 134:1 135:1 136:1 137:1 138:1 139:1 140:1 141:1 151:1 167:1 183:1 199:1 
-3 87:1 103:1 119:1 133:1 134:1 135:1 136:1 137:1 138:1 139:1 140:1 141:1 151:1 167:1 183:1 199:1 
