svm_type c_svc
kernel_type rbf
gamma 0.015625
nr_class 2
total_sv 34
rho -1.55742
label -1 1
nr_sv 29 5
SV
0.1273172835846369 72:1 86:1 88:1 89:1 92:1 93:1 102:1 105:1 108:1 109:1 117:1 119:1 121:1 123:1 125:1 137:1 141:1 149:1 150:1 151:1 152:1 153:1 154:1 157:1 169:1 170:1 173:1 185:1 189:1 199:1 203:1 204:1 205:1 
0.3204044263529228 72:1 77:1 85:1 87:1 88:1 90:1 92:1 93:1 101:1 103:1 104:1 106:1 108:1 109:1 118:1 119:1 120:1 122:1 123:1 124:1 125:1 136:1 138:1 139:1 141:1 152:1 154:1 155:1 157:1 168:1 170:1 173:1 184:1 189:1 200:1 204:1 205:1 
0.4309983041721051 70:1 72:1 73:1 74:1 87:1 88:1 89:1 92:1 93:1 101:1 102:1 103:1 105:1 107:1 108:1 109:1 120:1 121:1 123:1 125:1 134:1 137:1 141:1 149:1 150:1 151:1 152:1 153:1 154:1 157:1 168:1 169:1 173:1 184:1 185:1 189:1 197:1 200:1 203:1 204:1 
0.9376577854139738 70:1 72:1 73:1 77:1 85:1 86:1 87:1 88:1 90:1 92:1 93:1 102:1 105:1 106:1 108:1 118:1 119:1 120:1 121:1 122:1 123:1 124:1 138:1 139:1 150:1 151:1 152:1 153:1 154:1 155:1 166:1 168:1 170:1 173:1 182:1 184:1 189:1 198:1 199:1 200:1 201:1 204:1 205:1 
1.058156519384751 70:1 72:1 73:1 86:1 87:1 88:1 89:1 90:1 92:1 93:1 101:1 102:1 103:1 106:1 107:1 108:1 109:1 118:1 120:1 122:1 123:1 125:1 134:1 135:1 138:1 139:1 141:1 150:1 151:1 152:1 154:1 157:1 166:1 168:1 170:1 173:1 182:1 184:1 189:1 198:1 199:1 200:1 204:1 205:1 
0.5960210262073636 70:1 73:1 87:1 88:1 92:1 93:1 101:1 102:1 107:1 109:1 120:1 121:1 123:1 125:1 134:1 138:1 141:1 150:1 151:1 152:1 154:1 157:1 168:1 169:1 173:1 184:1 189:1 204:1 205:1 
0.602347813467057 85:1 86:1 87:1 89:1 90:1 92:1 93:1 101:1 103:1 106:1 108:1 109:1 117:1 118:1 119:1 120:1 122:1 123:1 125:1 138:1 139:1 141:1 149:1 150:1 151:1 152:1 153:1 154:1 157:1 165:1 168:1 170:1 173:1 181:1 184:1 186:1 189:1 197:1 203:1 204:1 
0.6168009029077035 70:1 71:1 72:1 73:1 77:1 87:1 89:1 90:1 92:1 93:1 101:1 103:1 104:1 105:1 106:1 108:1 117:1 118:1 119:1 120:1 122:1 123:1 124:1 138:1 139:1 150:1 151:1 152:1 153:1 154:1 155:1 166:1 168:1 170:1 173:1 182:1 184:1 189:1 198:1 199:1 200:1 204:1 205:1 
0.899239268898804 74:1 77:1 85:1 88:1 90:1 93:1 103:1 104:1 106:1 119:1 121:1 122:1 124:1 134:1 137:1 138:1 139:1 150:1 151:1 152:1 154:1 155:1 170:1 172:1 182:1 183:1 186:1 188:1 197:1 202:1 205:1 
0.3770308184784244 69:1 73:1 77:1 86:1 88:1 90:1 92:1 93:1 106:1 108:1 118:1 119:1 121:1 122:1 123:1 124:1 133:1 134:1 136:1 138:1 139:1 150:1 151:1 152:1 154:1 155:1 166:1 168:1 170:1 173:1 182:1 184:1 189:1 198:1 199:1 201:1 204:1 205:1 
0.7636020523416045 70:1 87:1 89:1 90:1 92:1 93:1 101:1 102:1 103:1 104:1 105:1 106:1 108:1 109:1 118:1 119:1 121:1 122:1 123:1 125:1 133:1 134:1 135:1 136:1 138:1 139:1 141:1 149:1 154:1 157:1 165:1 167:1 168:1 169:1 170:1 173:1 181:1 185:1 186:1 189:1 197:1 198:1 199:1 203:1 204:1 
0.1388045410341913 70:1 72:1 73:1 74:1 77:1 85:1 86:1 87:1 88:1 89:1 90:1 92:1 93:1 102:1 103:1 106:1 108:1 109:1 118:1 119:1 121:1 122:1 123:1 124:1 125:1 134:1 135:1 136:1 138:1 139:1 141:1 150:1 151:1 154:1 155:1 157:1 167:1 170:1 173:1 183:1 184:1 185:1 189:1 197:1 199:1 204:1 205:1 
0.4688842884283352 70:1 74:1 87:1 88:1 89:1 90:1 92:1 93:1 106:1 108:1 109:1 122:1 123:1 125:1 133:1 134:1 135:1 136:1 137:1 138:1 139:1 141:1 154:1 157:1 165:1 170:1 173:1 182:1 183:1 184:1 185:1 186:1 189:1 205:1 
0.9955712674148812 73:1 85:1 86:1 87:1 88:1 90:1 92:1 93:1 101:1 102:1 104:1 106:1 108:1 109:1 117:1 118:1 119:1 120:1 122:1 123:1 125:1 136:1 137:1 138:1 139:1 141:1 149:1 150:1 151:1 152:1 154:1 157:1 165:1 167:1 170:1 173:1 181:1 183:1 184:1 185:1 186:1 189:1 199:1 204:1 205:1 
0.2356594697477445 70:1 73:1 86:1 87:1 88:1 90:1 92:1 93:1 101:1 103:1 105:1 106:1 108:1 109:1 119:1 120:1 122:1 123:1 125:1 135:1 138:1 139:1 141:1 150:1 151:1 154:1 157:1 165:1 167:1 169:1 170:1 173:1 182:1 184:1 185:1 186:1 189:1 199:1 204:1 205:1 
0.7868445344202328 70:1 85:1 86:1 88:1 90:1 92:1 93:1 101:1 103:1 105:1 106:1 108:1 109:1 119:1 122:1 123:1 125:1 135:1 138:1 139:1 141:1 149:1 150:1 151:1 152:1 154:1 157:1 167:1 170:1 173:1 183:1 186:1 189:1 201:1 203:1 204:1 
0.6173083229941748 70:1 71:1 73:1 77:1 85:1 87:1 88:1 90:1 92:1 93:1 104:1 106:1 108:1 118:1 121:1 122:1 124:1 134:1 137:1 138:1 139:1 149:1 150:1 153:1 154:1 155:1 166:1 169:1 170:1 171:1 173:1 182:1 185:1 189:1 198:1 201:1 204:1 205:1 
0.954628974548735 70:1 85:1 87:1 88:1 90:1 92:1 93:1 103:1 106:1 107:1 108:1 109:1 118:1 119:1 122:1 123:1 125:1 134:1 135:1 138:1 139:1 141:1 149:1 150:1 151:1 152:1 154:1 155:1 157:1 166:1 167:1 170:1 173:1 182:1 183:1 186:1 189:1 198:1 201:1 204:1 205:1 
0.5543652103023756 70:1 72:1 85:1 88:1 89:1 90:1 92:1 93:1 103:1 106:1 109:1 118:1 121:1 122:1 123:1 125:1 134:1 137:1 138:1 139:1 141:1 149:1 150:1 153:1 154:1 157:1 166:1 169:1 170:1 173:1 182:1 183:1 185:1 186:1 189:1 198:1 201:1 204:1 205:1 
0.2161662157637503 70:1 72:1 74:1 86:1 88:1 90:1 92:1 93:1 101:1 102:1 104:1 105:1 106:1 108:1 109:1 118:1 119:1 120:1 121:1 122:1 123:1 125:1 133:1 134:1 135:1 136:1 137:1 138:1 139:1 141:1 150:1 152:1 153:1 154:1 155:1 157:1 166:1 168:1 169:1 170:1 173:1 181:1 182:1 184:1 185:1 186:1 189:1 198:1 204:1 205:1 
0.1169696652325482 69:1 74:1 77:1 85:1 87:1 88:1 89:1 90:1 91:1 92:1 93:1 101:1 102:1 104:1 105:1 106:1 107:1 108:1 109:1 117:1 119:1 122:1 123:1 133:1 134:1 138:1 140:1 141:1 149:1 173:1 189:1 204:1 205:1 
0.04948016202396381 71:1 73:1 76:1 87:1 88:1 89:1 101:1 102:1 103:1 104:1 105:1 107:1 108:1 109:1 119:1 120:1 121:1 136:1 139:1 140:1 149:1 150:1 151:1 152:1 155:1 156:1 157:1 166:1 168:1 169:1 170:1 173:1 182:1 184:1 189:1 198:1 204:1 205:1 
0.05253014353870391 72:1 73:1 85:1 86:1 87:1 88:1 89:1 90:1 91:1 92:1 93:1 94:1 101:1 104:1 107:1 119:1 120:1 122:1 133:1 134:1 136:1 137:1 138:1 141:1 149:1 150:1 153:1 154:1 157:1 166:1 168:1 170:1 173:1 182:1 183:1 184:1 186:1 189:1 198:1 199:1 202:1 203:1 204:1 205:1 206:1 
0.1866462776035255 73:1 87:1 88:1 89:1 90:1 91:1 92:1 93:1 101:1 102:1 106:1 119:1 121:1 122:1 123:1 124:1 136:1 137:1 141:1 149:1 150:1 151:1 155:1 156:1 165:1 167:1 168:1 169:1 170:1 183:1 184:1 187:1 188:1 199:1 205:1 
0.2242224895597831 72:1 73:1 86:1 87:1 88:1 89:1 90:1 91:1 92:1 93:1 94:1 101:1 102:1 119:1 121:1 123:1 124:1 126:1 134:1 135:1 137:1 138:1 139:1 141:1 149:1 150:1 151:1 152:1 153:1 154:1 155:1 156:1 157:1 166:1 168:1 169:1 170:1 172:1 173:1 182:1 183:1 184:1 186:1 188:1 198:1 199:1 202:1 203:1 
0.2321631610234772 72:1 73:1 85:1 86:1 87:1 88:1 89:1 90:1 91:1 92:1 93:1 101:1 107:1 118:1 121:1 123:1 134:1 149:1 150:1 152:1 153:1 154:1 155:1 156:1 157:1 166:1 168:1 170:1 173:1 182:1 184:1 186:1 189:1 198:1 199:1 202:1 204:1 205:1 
0.7252773874721834 72:1 73:1 85:1 86:1 87:1 88:1 89:1 90:1 91:1 92:1 93:1 101:1 109:1 118:1 119:1 122:1 125:1 134:1 136:1 138:1 139:1 140:1 149:1 150:1 152:1 154:1 166:1 168:1 170:1 171:1 172:1 173:1 182:1 184:1 186:1 189:1 198:1 199:1 202:1 204:1 205:1 
0.1102935939385016 72:1 73:1 85:1 86:1 87:1 88:1 89:1 90:1 91:1 92:1 93:1 94:1 102:1 103:1 104:1 105:1 106:1 107:1 108:1 119:1 121:1 124:1 126:1 134:1 135:1 137:1 138:1 140:1 141:1 149:1 150:1 151:1 152:1 154:1 156:1 157:1 166:1 168:1 169:1 170:1 171:1 173:1 182:1 183:1 184:1 186:1 187:1 188:1 198:1 201:1 203:1 204:1 
0.2929222239947758 72:1 85:1 86:1 87:1 88:1 89:1 90:1 91:1 92:1 93:1 101:1 108:1 109:1 121:1 136:1 137:1 138:1 139:1 140:1 141:1 149:1 150:1 151:1 152:1 165:1 170:1 171:1 173:1 182:1 183:1 189:1 198:1 
-3 70:1 85:1 86:1 87:1 88:1 89:1 90:1 92:1 93:1 101:1 103:1 104:1 105:1 106:1 108:1 109:1 119:1 121:1 122:1 123:1 125:1 137:1 138:1 139:1 141:1 149:1 150:1 151:1 152:1 154:1 157:1 168:1 170:1 173:1 182:1 184:1 186:1 189:1 199:1 203:1 204:1 
-3 70:1 71:1 73:1 77:1 85:1 87:1 88:1 90:1 92:1 93:1 102:1 104:1 106:1 108:1 118:1 119:1 121:1 122:1 123:1 124:1 134:1 137:1 138:1 139:1 149:1 150:1 151:1 152:1 154:1 155:1 168:1 170:1 173:1 182:1 184:1 189:1 198:1 199:1 204:1 205:1 
-3 70:1 73:1 85:1 87:1 88:1 90:1 92:1 93:1 101:1 102:1 104:1 106:1 108:1 109:1 119:1 121:1 122:1 123:1 125:1 134:1 137:1 138:1 139:1 141:1 149:1 150:1 151:1 154:1 155:1 157:1 168:1 170:1 173:1 182:1 184:1 186:1 189:1 198:1 199:1 204:1 205:1 
-1.68831413025123 70:1 72:1 74:1 85:1 87:1 88:1 89:1 90:1 92:1 93:1 101:1 103:1 106:1 108:1 109:1 119:1 121:1 122:1 123:1 125:1 134:1 137:1 138:1 139:1 141:1 149:1 150:1 151:1 152:1 154:1 157:1 168:1 170:1 173:1 182:1 184:1 186:1 189:1 198:1 199:1 204:1 205:1 
-3 70:1 72:1 74:1 85:1 87:1 88:1 89:1 90:1 92:1 93:1 101:1 103:1 106:1 108:1 109:1 119:1 121:1 122:1 123:1 125:1 134:1 137:1 138:1 139:1 141:1 149:1 150:1 151:1 152:1 154:1 157:1 168:1 170:1 173:1 182:1 184:1 186:1 189:1 198:1 199:1 204:1 205:1 
