svm_type c_svc
kernel_type rbf
gamma 0.015625
nr_class 2
total_sv 29
rho -1.45905
label -1 1
nr_sv 24 5
SV
1.260371725594142 69:1 74:1 75:1 85:1 89:1 90:1 101:1 105:1 117:1 120:1 133:1 134:1 135:1 136:1 137:1 138:1 139:1 140:1 141:1 149:1 152:1 165:1 168:1 169:1 181:1 185:1 186:1 197:1 202:1 
0.01468561239253332 75:1 90:1 105:1 120:1 134:1 135:1 136:1 137:1 138:1 139:1 140:1 141:1 168:1 185:1 197:1 202:1 
1.019056995091461 69:1 85:1 87:1 101:1 103:1 105:1 106:1 107:1 117:1 119:1 123:1 133:1 134:1 135:1 136:1 137:1 138:1 139:1 149:1 151:1 155:1 165:1 167:1 169:1 170:1 171:1 172:1 181:1 183:1 189:1 197:1 199:1 200:1 201:1 202:1 203:1 204:1 205:1 
0.4898432720181165 87:1 103:1 119:1 133:1 134:1 135:1 136:1 137:1 138:1 139:1 140:1 141:1 151:1 167:1 183:1 199:1 
2.768795816441671 71:1 75:1 87:1 89:1 91:1 103:1 105:1 107:1 119:1 121:1 123:1 133:1 134:1 135:1 136:1 137:1 138:1 139:1 140:1 141:1 142:1 151:1 153:1 155:1 167:1 169:1 171:1 183:1 185:1 187:1 199:1 203:1 
0.2269211835372868 70:1 71:1 72:1 73:1 74:1 75:1 76:1 101:1 102:1 103:1 104:1 105:1 106:1 107:1 108:1 109:1 120:1 134:1 135:1 137:1 138:1 139:1 140:1 141:1 149:1 150:1 153:1 156:1 166:1 168:1 169:1 170:1 171:1 172:1 182:1 184:1 185:1 188:1 198:1 199:1 201:1 202:1 203:1 204:1 205:1 
0.6180184521256662 71:1 77:1 87:1 90:1 103:1 106:1 117:1 119:1 134:1 135:1 136:1 137:1 138:1 139:1 140:1 151:1 167:1 183:1 185:1 199:1 
0.07341489494365282 71:1 74:1 76:1 85:1 86:1 87:1 89:1 92:1 102:1 103:1 104:1 106:1 108:1 117:1 119:1 122:1 124:1 134:1 135:1 137:1 138:1 139:1 140:1 141:1 142:1 151:1 154:1 156:1 166:1 167:1 168:1 169:1 170:1 172:1 181:1 182:1 183:1 185:1 186:1 188:1 199:1 202:1 204:1 
0.377496239784171 71:1 74:1 85:1 86:1 87:1 89:1 90:1 91:1 92:1 102:1 103:1 104:1 105:1 106:1 108:1 119:1 120:1 122:1 124:1 133:1 134:1 135:1 136:1 137:1 138:1 139:1 140:1 141:1 151:1 154:1 156:1 165:1 166:1 167:1 168:1 169:1 170:1 172:1 181:1 183:1 185:1 187:1 188:1 199:1 201:1 202:1 
1.239146464817155 74:1 75:1 85:1 89:1 91:1 102:1 103:1 104:1 107:1 123:1 134:1 136:1 137:1 138:1 139:1 140:1 141:1 155:1 166:1 168:1 169:1 171:1 181:1 185:1 187:1 199:1 202:1 203:1 
0.8274545834488207 73:1 89:1 103:1 104:1 105:1 121:1 125:1 134:1 135:1 136:1 137:1 138:1 139:1 140:1 141:1 149:1 153:1 165:1 167:1 168:1 169:1 181:1 183:1 185:1 201:1 
0.5245429418289574 85:1 86:1 87:1 88:1 91:1 92:1 106:1 107:1 117:1 125:1 133:1 135:1 136:1 137:1 138:1 139:1 140:1 141:1 149:1 165:1 170:1 171:1 181:1 187:1 188:1 
0.3585289773592971 76:1 86:1 87:1 88:1 89:1 91:1 92:1 102:1 105:1 106:1 107:1 121:1 125:1 135:1 136:1 137:1 138:1 139:1 140:1 141:1 149:1 153:1 165:1 169:1 170:1 171:1 181:1 185:1 187:1 188:1 201:1 204:1 
0.2469810073273326 69:1 74:1 76:1 85:1 89:1 91:1 92:1 104:1 106:1 107:1 117:1 119:1 121:1 133:1 134:1 135:1 136:1 137:1 138:1 139:1 140:1 141:1 149:1 152:1 153:1 165:1 167:1 170:1 171:1 181:1 182:1 183:1 187:1 188:1 204:1 
0.4883709197359619 71:1 73:1 74:1 85:1 87:1 89:1 93:1 101:1 103:1 105:1 108:1 109:1 117:1 119:1 120:1 121:1 133:1 135:1 149:1 151:1 152:1 165:1 167:1 168:1 169:1 170:1 173:1 181:1 183:1 185:1 199:1 201:1 202:1 
0.4553075315286203 71:1 77:1 85:1 87:1 88:1 90:1 92:1 101:1 103:1 104:1 105:1 107:1 108:1 117:1 119:1 120:1 122:1 123:1 133:1 134:1 135:1 136:1 137:1 138:1 139:1 140:1 141:1 149:1 151:1 154:1 165:1 167:1 168:1 169:1 170:1 171:1 181:1 183:1 184:1 186:1 188:1 199:1 201:1 204:1 
0.6599212523217812 71:1 75:1 77:1 87:1 90:1 93:1 103:1 104:1 105:1 106:1 107:1 108:1 119:1 122:1 123:1 133:1 134:1 135:1 136:1 137:1 138:1 139:1 140:1 141:1 142:1 149:1 151:1 155:1 165:1 167:1 168:1 169:1 170:1 171:1 172:1 181:1 183:1 185:1 187:1 189:1 197:1 199:1 200:1 201:1 202:1 203:1 205:1 
0.8982847084664787 71:1 74:1 77:1 87:1 90:1 92:1 103:1 104:1 105:1 106:1 107:1 108:1 119:1 122:1 133:1 134:1 135:1 136:1 137:1 138:1 139:1 140:1 141:1 149:1 151:1 154:1 165:1 167:1 170:1 171:1 172:1 181:1 183:1 184:1 186:1 188:1 199:1 200:1 201:1 202:1 
0.2001726785329871 85:1 101:1 117:1 125:1 133:1 134:1 135:1 136:1 137:1 138:1 139:1 140:1 141:1 149:1 165:1 181:1 
0.08055233241335946 71:1 77:1 87:1 103:1 107:1 108:1 117:1 118:1 119:1 120:1 135:1 149:1 151:1 157:1 165:1 167:1 183:1 199:1 201:1 
0.277560372424056 77:1 85:1 87:1 101:1 117:1 119:1 124:1 133:1 134:1 135:1 136:1 137:1 138:1 139:1 140:1 149:1 150:1 151:1 155:1 165:1 167:1 169:1 170:1 181:1 183:1 184:1 185:1 186:1 203:1 205:1 
0.7952344390136326 73:1 87:1 88:1 89:1 90:1 91:1 92:1 93:1 101:1 102:1 119:1 125:1 134:1 135:1 136:1 137:1 138:1 139:1 151:1 165:1 166:1 167:1 168:1 169:1 170:1 171:1 172:1 173:1 181:1 183:1 199:1 201:1 
0.7589256286609318 72:1 86:1 87:1 88:1 89:1 90:1 91:1 92:1 93:1 101:1 117:1 119:1 120:1 123:1 133:1 135:1 136:1 137:1 138:1 139:1 140:1 141:1 149:1 150:1 151:1 154:1 165:1 167:1 170:1 181:1 183:1 186:1 197:1 199:1 202:1 203:1 204:1 205:1 
0.3404119701919298 72:1 85:1 86:1 87:1 88:1 89:1 90:1 91:1 92:1 93:1 101:1 117:1 119:1 120:1 121:1 122:1 123:1 124:1 125:1 133:1 135:1 136:1 137:1 138:1 139:1 140:1 141:1 149:1 151:1 165:1 167:1 168:1 169:1 170:1 171:1 172:1 173:1 181:1 183:1 185:1 186:1 189:1 197:1 199:1 200:1 201:1 202:1 203:1 204:1 205:1 
-3 71:1 85:1 87:1 89:1 91:1 101:1 103:1 105:1 117:1 119:1 120:1 123:1 133:1 134:1 135:1 136:1 137:1 138:1 139:1 140:1 141:1 149:1 151:1 165:1 167:1 168:1 169:1 170:1 171:1 181:1 183:1 185:1 187:1 199:1 200:1 202:1 203:1 
-3 74:1 76:1 90:1 91:1 92:1 105:1 106:1 107:1 108:1 134:1 135:1 136:1 137:1 138:1 139:1 140:1 141:1 142:1 149:1 165:1 169:1 170:1 171:1 172:1 181:1 186:1 188:1 197:1 201:1 203:1 204:1 
-3 71:1 75:1 85:1 87:1 89:1 91:1 101:1 103:1 105:1 107:1 117:1 119:1 133:1 134:1 135:1 136:1 137:1 138:1 139:1 140:1 141:1 149:1 151:1 165:1 167:1 168:1 169:1 170:1 171:1 172:1 181:1 183:1 185:1 188:1 199:1 201:1 203:1 204:1 
-3 71:1 75:1 87:1 89:1 91:1 103:1 119:1 134:1 135:1 136:1 137:1 138:1 139:1 140:1 141:1 149:1 151:1 165:1 167:1 168:1 171:1 181:1 183:1 185:1 199:1 202:1 203:1 
-3 71:1 75:1 87:1 89:1 91:1 103:1 119:1 134:1 135:1 136:1 137:1 138:1 139:1 140:1 141:1 149:1 151:1 165:1 167:1 168:1 171:1 181:1 183:1 185:1 199:1 202:1 203:1 
