svm_type c_svc
kernel_type rbf
gamma 0.015625
nr_class 2
total_sv 31
rho -1.50029
label -1 1
nr_sv 26 5
SV
0.3407901029107404 73:1 85:1 87:1 89:1 92:1 93:1 101:1 103:1 105:1 107:1 108:1 109:1 117:1 119:1 121:1 122:1 123:1 125:1 133:1 134:1 135:1 136:1 137:1 141:1 149:1 151:1 153:1 165:1 167:1 169:1 171:1 172:1 181:1 183:1 185:1 188:1 189:1 201:1 
0.1960128551949926 73:1 88:1 103:1 104:1 118:1 119:1 133:1 134:1 136:1 137:1 138:1 139:1 140:1 141:1 150:1 151:1 167:1 168:1 184:1 200:1 201:1 
0.2308075032213894 71:1 75:1 85:1 86:1 87:1 89:1 90:1 91:1 102:1 103:1 104:1 105:1 106:1 107:1 117:1 118:1 119:1 121:1 122:1 123:1 135:1 137:1 138:1 139:1 140:1 141:1 149:1 150:1 151:1 153:1 154:1 155:1 166:1 167:1 168:1 169:1 170:1 171:1 181:1 182:1 183:1 185:1 186:1 187:1 199:1 203:1 
0.04300964420355068 73:1 77:1 85:1 86:1 89:1 90:1 91:1 92:1 101:1 102:1 103:1 104:1 105:1 106:1 107:1 117:1 121:1 133:1 135:1 136:1 137:1 149:1 153:1 157:1 165:1 166:1 167:1 168:1 169:1 170:1 171:1 172:1 173:1 185:1 201:1 
2.000359429236805 73:1 74:1 86:1 89:1 102:1 105:1 121:1 134:1 135:1 136:1 137:1 138:1 139:1 140:1 141:1 149:1 153:1 157:1 165:1 169:1 173:1 181:1 185:1 189:1 201:1 204:1 
1.099895252944026 70:1 86:1 87:1 102:1 104:1 105:1 118:1 121:1 134:1 150:1 153:1 166:1 168:1 169:1 181:1 183:1 184:1 197:1 
0.9747431066601973 73:1 74:1 76:1 86:1 88:1 89:1 91:1 92:1 102:1 103:1 104:1 106:1 107:1 118:1 121:1 122:1 133:1 134:1 135:1 136:1 137:1 138:1 139:1 140:1 141:1 149:1 152:1 153:1 154:1 165:1 167:1 168:1 170:1 171:1 181:1 183:1 187:1 188:1 204:1 
1.270747263019703 71:1 75:1 87:1 89:1 91:1 103:1 119:1 134:1 135:1 136:1 137:1 138:1 139:1 140:1 141:1 149:1 151:1 165:1 167:1 168:1 171:1 181:1 183:1 185:1 199:1 202:1 203:1 
0.491590541793177 77:1 87:1 90:1 103:1 106:1 108:1 119:1 122:1 123:1 134:1 135:1 136:1 137:1 138:1 139:1 140:1 141:1 149:1 151:1 154:1 155:1 165:1 167:1 168:1 169:1 170:1 172:1 181:1 183:1 186:1 189:1 205:1 
1.538687491648894 73:1 87:1 89:1 105:1 121:1 133:1 134:1 135:1 136:1 137:1 138:1 139:1 140:1 141:1 153:1 165:1 169:1 172:1 181:1 183:1 184:1 185:1 188:1 198:1 201:1 202:1 
0.04907089556231599 70:1 87:1 89:1 90:1 92:1 93:1 101:1 102:1 103:1 104:1 105:1 106:1 108:1 109:1 118:1 119:1 121:1 122:1 123:1 125:1 133:1 134:1 135:1 136:1 138:1 139:1 141:1 149:1 154:1 157:1 165:1 167:1 168:1 169:1 170:1 173:1 181:1 185:1 186:1 189:1 197:1 198:1 199:1 203:1 204:1 
0.3800537589497532 73:1 86:1 87:1 89:1 91:1 101:1 102:1 105:1 121:1 125:1 135:1 136:1 137:1 138:1 139:1 140:1 141:1 150:1 151:1 153:1 165:1 169:1 183:1 184:1 185:1 186:1 187:1 201:1 
0.4030394947360346 71:1 73:1 86:1 87:1 89:1 101:1 102:1 103:1 105:1 118:1 121:1 125:1 134:1 135:1 136:1 137:1 138:1 139:1 140:1 141:1 150:1 151:1 153:1 169:1 184:1 185:1 186:1 187:1 201:1 
0.8648594797553091 70:1 89:1 92:1 104:1 105:1 120:1 121:1 125:1 133:1 134:1 135:1 136:1 137:1 138:1 139:1 140:1 141:1 152:1 153:1 168:1 169:1 183:1 184:1 185:1 188:1 202:1 
0.03924790028748916 72:1 85:1 88:1 101:1 104:1 117:1 120:1 125:1 133:1 136:1 137:1 138:1 139:1 140:1 141:1 149:1 152:1 165:1 168:1 181:1 184:1 200:1 
1.171485572917277 85:1 101:1 117:1 125:1 133:1 134:1 135:1 136:1 137:1 138:1 139:1 140:1 141:1 149:1 165:1 181:1 
0.6420486541251725 70:1 73:1 86:1 89:1 102:1 105:1 109:1 110:1 118:1 121:1 126:1 134:1 135:1 136:1 137:1 138:1 139:1 140:1 141:1 150:1 153:1 166:1 169:1 182:1 185:1 198:1 201:1 
0.8660103595460447 73:1 74:1 89:1 90:1 103:1 104:1 105:1 106:1 119:1 120:1 121:1 122:1 125:1 133:1 135:1 136:1 137:1 138:1 139:1 140:1 141:1 151:1 152:1 153:1 154:1 167:1 168:1 169:1 170:1 185:1 186:1 
0.146443690534642 70:1 86:1 102:1 103:1 104:1 118:1 125:1 133:1 134:1 139:1 140:1 141:1 150:1 155:1 166:1 167:1 168:1 170:1 182:1 185:1 198:1 
1.083443343392367 70:1 73:1 74:1 87:1 88:1 89:1 103:1 104:1 105:1 119:1 120:1 121:1 125:1 133:1 135:1 136:1 137:1 139:1 140:1 141:1 151:1 152:1 153:1 167:1 168:1 169:1 185:1 186:1 201:1 202:1 
0.03485074669543319 70:1 86:1 87:1 89:1 90:1 92:1 102:1 103:1 104:1 105:1 106:1 107:1 118:1 125:1 133:1 134:1 138:1 139:1 140:1 141:1 149:1 150:1 166:1 167:1 170:1 171:1 182:1 183:1 185:1 186:1 187:1 188:1 198:1 
0.2547553968653851 69:1 72:1 73:1 77:1 85:1 88:1 89:1 92:1 93:1 101:1 102:1 103:1 104:1 105:1 108:1 109:1 117:1 118:1 120:1 121:1 123:1 124:1 133:1 134:1 136:1 137:1 138:1 140:1 149:1 150:1 152:1 153:1 156:1 165:1 166:1 167:1 168:1 169:1 172:1 173:1 181:1 184:1 185:1 189:1 197:1 200:1 201:1 205:1 
0.09536950355796725 73:1 87:1 88:1 101:1 102:1 103:1 104:1 105:1 106:1 107:1 108:1 109:1 120:1 121:1 124:1 125:1 134:1 135:1 138:1 139:1 140:1 141:1 152:1 153:1 154:1 165:1 166:1 167:1 171:1 172:1 183:1 184:1 187:1 188:1 200:1 201:1 205:1 
0.1572148392868474 72:1 73:1 86:1 87:1 88:1 89:1 90:1 91:1 92:1 93:1 101:1 117:1 120:1 121:1 122:1 124:1 125:1 133:1 134:1 135:1 136:1 137:1 138:1 139:1 141:1 149:1 150:1 152:1 154:1 157:1 165:1 167:1 168:1 169:1 170:1 181:1 183:1 185:1 187:1 197:1 202:1 204:1 
0.06758160503296155 72:1 73:1 85:1 86:1 87:1 88:1 89:1 90:1 91:1 92:1 93:1 101:1 109:1 117:1 118:1 119:1 120:1 121:1 122:1 123:1 124:1 133:1 134:1 135:1 136:1 149:1 165:1 166:1 167:1 168:1 181:1 183:1 197:1 201:1 
0.557881567921526 73:1 87:1 88:1 101:1 102:1 103:1 104:1 109:1 117:1 120:1 125:1 134:1 135:1 139:1 140:1 149:1 153:1 154:1 155:1 167:1 168:1 172:1 184:1 185:1 186:1 187:1 200:1 
-3 73:1 85:1 87:1 89:1 101:1 103:1 104:1 105:1 117:1 120:1 121:1 125:1 133:1 134:1 135:1 136:1 137:1 138:1 139:1 140:1 141:1 149:1 153:1 165:1 167:1 168:1 169:1 181:1 182:1 183:1 185:1 201:1 
-3 70:1 74:1 86:1 87:1 88:1 90:1 102:1 104:1 106:1 109:1 118:1 122:1 126:1 134:1 135:1 136:1 137:1 138:1 139:1 140:1 141:1 150:1 154:1 166:1 168:1 170:1 181:1 183:1 184:1 186:1 197:1 202:1 
-3 73:1 86:1 87:1 89:1 102:1 103:1 104:1 105:1 118:1 121:1 125:1 134:1 135:1 136:1 137:1 138:1 139:1 140:1 141:1 149:1 153:1 165:1 167:1 168:1 169:1 181:1 183:1 185:1 201:1 
-3 73:1 89:1 103:1 104:1 105:1 121:1 125:1 134:1 135:1 136:1 137:1 138:1 139:1 140:1 141:1 149:1 153:1 165:1 167:1 168:1 169:1 181:1 183:1 185:1 201:1 
-3 73:1 89:1 103:1 104:1 105:1 121:1 125:1 134:1 135:1 136:1 137:1 138:1 139:1 140:1 141:1 149:1 153:1 165:1 167:1 168:1 169:1 181:1 183:1 185:1 201:1 
