svm_type c_svc
kernel_type rbf
gamma 0.015625
nr_class 2
total_sv 40
rho -1.42259
label -1 1
nr_sv 35 5
SV
0.08407801193799781 69:1 77:1 92:1 107:1 108:1 118:1 119:1 120:1 121:1 122:1 136:1 152:1 157:1 168:1 171:1 172:1 184:1 185:1 186:1 187:1 197:1 
0.6308827271529444 77:1 92:1 93:1 106:1 107:1 108:1 118:1 119:1 120:1 121:1 122:1 136:1 152:1 157:1 168:1 170:1 171:1 172:1 173:1 184:1 185:1 186:1 187:1 188:1 
0.01148281846143059 70:1 71:1 77:1 93:1 104:1 105:1 122:1 123:1 124:1 133:1 134:1 135:1 136:1 137:1 138:1 139:1 149:1 150:1 155:1 156:1 172:1 198:1 199:1 205:1 
1.100435662439207 77:1 93:1 109:1 117:1 118:1 119:1 120:1 121:1 122:1 123:1 124:1 125:1 136:1 141:1 152:1 157:1 168:1 173:1 184:1 189:1 200:1 205:1 
0.1610491906115417 77:1 133:1 136:1 152:1 168:1 184:1 
0.162096449545186 70:1 86:1 102:1 118:1 119:1 120:1 121:1 122:1 123:1 124:1 125:1 126:1 134:1 136:1 150:1 152:1 153:1 166:1 169:1 182:1 185:1 186:1 198:1 202:1 
0.4228993560741455 70:1 77:1 86:1 92:1 93:1 102:1 106:1 107:1 108:1 118:1 119:1 120:1 121:1 122:1 134:1 150:1 166:1 167:1 168:1 169:1 170:1 171:1 172:1 173:1 182:1 198:1 
0.5665259070840423 77:1 86:1 89:1 93:1 105:1 109:1 119:1 120:1 121:1 122:1 123:1 124:1 125:1 137:1 141:1 153:1 157:1 169:1 171:1 172:1 173:1 182:1 183:1 184:1 185:1 186:1 187:1 188:1 189:1 205:1 
2.494915896825261 77:1 86:1 89:1 118:1 119:1 120:1 121:1 122:1 123:1 169:1 170:1 171:1 172:1 182:1 183:1 184:1 185:1 
0.108434432285078 76:1 77:1 91:1 107:1 120:1 121:1 136:1 137:1 153:1 154:1 155:1 171:1 172:1 181:1 182:1 183:1 184:1 185:1 186:1 187:1 
0.01835933540123113 74:1 77:1 90:1 105:1 120:1 134:1 135:1 136:1 137:1 138:1 139:1 140:1 150:1 152:1 168:1 169:1 185:1 186:1 202:1 205:1 
0.2449102218698845 88:1 104:1 107:1 108:1 120:1 122:1 123:1 134:1 135:1 136:1 137:1 152:1 154:1 157:1 168:1 171:1 172:1 174:1 184:1 189:1 
0.6062847304410806 75:1 77:1 89:1 90:1 101:1 102:1 103:1 104:1 105:1 121:1 122:1 123:1 124:1 139:1 152:1 153:1 154:1 165:1 168:1 169:1 186:1 187:1 203:1 205:1 
0.0977213677643024 69:1 72:1 74:1 88:1 90:1 104:1 106:1 118:1 119:1 120:1 121:1 122:1 123:1 124:1 125:1 136:1 138:1 152:1 154:1 165:1 166:1 167:1 168:1 169:1 170:1 171:1 187:1 188:1 189:1 204:1 205:1 
1.582916811869316 88:1 105:1 106:1 119:1 120:1 121:1 122:1 123:1 124:1 125:1 169:1 170:1 189:1 197:1 
0.9827189568357356 150:1 167:1 168:1 169:1 170:1 171:1 172:1 188:1 189:1 205:1 
0.04766924683860053 75:1 76:1 77:1 94:1 104:1 109:1 120:1 121:1 124:1 125:1 137:1 138:1 139:1 140:1 150:1 151:1 152:1 153:1 154:1 165:1 171:1 187:1 188:1 204:1 
0.4871225342580328 77:1 88:1 93:1 101:1 102:1 103:1 104:1 108:1 120:1 123:1 136:1 137:1 138:1 150:1 151:1 153:1 171:1 172:1 188:1 205:1 
0.1944712554557048 77:1 92:1 107:1 108:1 117:1 118:1 119:1 120:1 121:1 122:1 151:1 167:1 168:1 169:1 170:1 171:1 172:1 173:1 189:1 204:1 205:1 
0.09281207222305161 141:1 142:1 157:1 158:1 165:1 166:1 167:1 168:1 169:1 170:1 171:1 172:1 173:1 
0.3555216679106972 105:1 120:1 141:1 157:1 165:1 169:1 170:1 171:1 172:1 185:1 199:1 
0.2068524087539215 72:1 88:1 92:1 101:1 104:1 107:1 108:1 120:1 122:1 124:1 136:1 137:1 140:1 152:1 156:1 168:1 171:1 172:1 181:1 184:1 188:1 200:1 
0.04650235465490574 77:1 92:1 93:1 107:1 108:1 109:1 121:1 122:1 125:1 141:1 157:1 171:1 172:1 173:1 188:1 189:1 205:1 
0.06000304152769696 77:1 86:1 93:1 102:1 104:1 105:1 106:1 109:1 118:1 119:1 120:1 125:1 134:1 136:1 141:1 150:1 152:1 157:1 166:1 168:1 169:1 170:1 171:1 172:1 173:1 182:1 189:1 198:1 205:1 
0.1418733396947895 72:1 77:1 85:1 92:1 101:1 107:1 108:1 117:1 120:1 133:1 149:1 165:1 168:1 169:1 170:1 171:1 172:1 173:1 181:1 200:1 
0.8173803231429849 77:1 103:1 104:1 105:1 106:1 107:1 167:1 168:1 169:1 170:1 171:1 181:1 
0.3670112809131745 77:1 104:1 105:1 106:1 107:1 118:1 120:1 122:1 137:1 139:1 156:1 167:1 168:1 169:1 181:1 
0.4744801582299844 77:1 88:1 89:1 105:1 106:1 118:1 119:1 120:1 121:1 122:1 123:1 124:1 150:1 151:1 152:1 153:1 154:1 155:1 156:1 169:1 170:1 181:1 183:1 184:1 
0.04590965406904674 77:1 78:1 92:1 93:1 107:1 108:1 121:1 122:1 123:1 133:1 134:1 135:1 136:1 153:1 154:1 171:1 172:1 188:1 189:1 205:1 
0.001955121763845179 77:1 92:1 93:1 107:1 108:1 121:1 122:1 123:1 133:1 134:1 135:1 136:1 137:1 153:1 154:1 171:1 172:1 188:1 189:1 205:1 
0.2254784950613985 77:1 92:1 107:1 108:1 120:1 121:1 122:1 133:1 134:1 135:1 136:1 153:1 154:1 171:1 172:1 188:1 189:1 
0.3154950255991216 75:1 77:1 91:1 106:1 120:1 121:1 133:1 134:1 135:1 136:1 152:1 153:1 170:1 187:1 203:1 205:1 
0.9209265814430671 73:1 87:1 88:1 93:1 101:1 102:1 108:1 109:1 117:1 123:1 124:1 134:1 135:1 136:1 137:1 152:1 168:1 169:1 170:1 171:1 172:1 173:1 181:1 184:1 200:1 
0.05942860520422329 73:1 86:1 87:1 88:1 89:1 90:1 91:1 92:1 93:1 101:1 102:1 120:1 121:1 122:1 123:1 124:1 125:1 150:1 151:1 168:1 169:1 170:1 171:1 172:1 173:1 189:1 200:1 
0.8633949566573682 73:1 86:1 87:1 88:1 89:1 90:1 91:1 92:1 93:1 101:1 102:1 118:1 120:1 121:1 122:1 123:1 124:1 125:1 136:1 152:1 166:1 167:1 168:1 169:1 170:1 171:1 172:1 184:1 200:1 
-3 77:1 88:1 120:1 121:1 122:1 123:1 124:1 136:1 152:1 168:1 169:1 170:1 171:1 172:1 184:1 
-3 73:1 77:1 89:1 93:1 105:1 106:1 107:1 108:1 109:1 118:1 119:1 120:1 121:1 125:1 137:1 141:1 153:1 157:1 169:1 173:1 185:1 186:1 187:1 188:1 189:1 205:1 
-3 77:1 86:1 88:1 93:1 102:1 104:1 118:1 120:1 121:1 122:1 123:1 124:1 134:1 136:1 150:1 152:1 166:1 168:1 169:1 170:1 171:1 172:1 182:1 184:1 205:1 
-3 77:1 120:1 121:1 122:1 123:1 124:1 168:1 169:1 170:1 171:1 172:1 181:1 
-3 77:1 120:1 121:1 122:1 123:1 124:1 168:1 169:1 170:1 171:1 172:1 181:1 
