svm_type c_svc
kernel_type rbf
gamma 0.015625
nr_class 2
total_sv 37
rho -1.42541
label -1 1
nr_sv 32 5
SV
2.471773022672336 73:1 89:1 105:1 121:1 137:1 153:1 169:1 185:1 201:1 
0.5140213805540639 73:1 89:1 105:1 117:1 118:1 119:1 120:1 121:1 122:1 123:1 124:1 125:1 136:1 141:1 152:1 157:1 168:1 173:1 184:1 189:1 199:1 
0.167988277529841 76:1 86:1 89:1 92:1 102:1 105:1 108:1 118:1 121:1 124:1 134:1 137:1 140:1 150:1 153:1 156:1 166:1 169:1 172:1 182:1 185:1 188:1 204:1 
0.539510218666962 119:1 120:1 121:1 122:1 123:1 124:1 182:1 183:1 184:1 185:1 186:1 187:1 188:1 
0.09578040512123615 77:1 86:1 89:1 93:1 105:1 109:1 119:1 120:1 121:1 122:1 123:1 124:1 125:1 137:1 141:1 153:1 157:1 169:1 171:1 172:1 173:1 182:1 183:1 184:1 185:1 186:1 187:1 188:1 189:1 205:1 
1.274309029286285 73:1 85:1 87:1 89:1 92:1 93:1 101:1 103:1 105:1 107:1 108:1 109:1 117:1 119:1 121:1 122:1 123:1 125:1 133:1 134:1 135:1 136:1 137:1 141:1 149:1 151:1 153:1 165:1 167:1 169:1 171:1 172:1 181:1 183:1 185:1 188:1 189:1 201:1 
0.2475760047078653 73:1 86:1 89:1 93:1 102:1 105:1 108:1 109:1 121:1 122:1 123:1 125:1 134:1 135:1 136:1 137:1 141:1 153:1 157:1 165:1 169:1 171:1 172:1 181:1 185:1 188:1 189:1 201:1 205:1 
0.04551251997818989 74:1 75:1 76:1 77:1 87:1 88:1 89:1 105:1 118:1 119:1 120:1 121:1 137:1 150:1 151:1 152:1 153:1 169:1 183:1 184:1 185:1 199:1 201:1 
0.3306979689714449 71:1 77:1 87:1 89:1 90:1 101:1 103:1 106:1 107:1 118:1 119:1 120:1 121:1 122:1 123:1 124:1 135:1 151:1 152:1 153:1 154:1 155:1 156:1 165:1 167:1 170:1 181:1 183:1 185:1 186:1 199:1 
0.6312455373516718 88:1 118:1 119:1 120:1 121:1 122:1 123:1 124:1 125:1 154:1 181:1 182:1 183:1 184:1 185:1 186:1 187:1 188:1 204:1 205:1 
0.197571370185431 71:1 77:1 87:1 88:1 92:1 103:1 105:1 107:1 108:1 117:1 118:1 119:1 120:1 121:1 122:1 135:1 138:1 166:1 167:1 168:1 203:1 204:1 
0.3358464403934175 77:1 92:1 107:1 118:1 119:1 120:1 121:1 165:1 166:1 167:1 168:1 173:1 181:1 188:1 189:1 200:1 201:1 202:1 
0.06583392623944837 71:1 87:1 88:1 103:1 104:1 105:1 118:1 119:1 122:1 134:1 135:1 150:1 154:1 166:1 168:1 169:1 170:1 182:1 184:1 198:1 
0.508509099357576 72:1 87:1 88:1 101:1 102:1 103:1 117:1 119:1 120:1 121:1 122:1 123:1 124:1 125:1 135:1 137:1 139:1 151:1 153:1 155:1 167:1 169:1 171:1 183:1 185:1 187:1 198:1 199:1 203:1 
1.310486121955815 73:1 85:1 87:1 89:1 101:1 103:1 104:1 105:1 117:1 120:1 121:1 125:1 133:1 134:1 135:1 136:1 137:1 138:1 139:1 140:1 141:1 149:1 153:1 165:1 167:1 168:1 169:1 181:1 182:1 183:1 185:1 201:1 
0.7132956539472408 73:1 86:1 87:1 89:1 102:1 103:1 104:1 105:1 118:1 121:1 125:1 134:1 135:1 136:1 137:1 138:1 139:1 140:1 141:1 149:1 153:1 165:1 167:1 168:1 169:1 181:1 183:1 185:1 201:1 
0.1565643030701799 73:1 89:1 93:1 102:1 103:1 105:1 110:1 119:1 120:1 121:1 125:1 135:1 136:1 137:1 138:1 139:1 140:1 141:1 151:1 153:1 166:1 167:1 169:1 182:1 185:1 186:1 187:1 201:1 202:1 
0.2620133045902186 70:1 74:1 87:1 88:1 89:1 91:1 92:1 103:1 104:1 105:1 108:1 119:1 120:1 121:1 124:1 125:1 133:1 134:1 135:1 136:1 137:1 138:1 139:1 140:1 141:1 151:1 152:1 153:1 156:1 167:1 168:1 169:1 172:1 183:1 184:1 185:1 186:1 187:1 188:1 198:1 202:1 
0.2061224095446771 70:1 74:1 75:1 76:1 77:1 86:1 89:1 102:1 103:1 105:1 118:1 120:1 121:1 133:1 134:1 137:1 150:1 152:1 153:1 166:1 167:1 168:1 169:1 182:1 185:1 198:1 201:1 
0.1409823044193557 70:1 73:1 74:1 87:1 88:1 89:1 103:1 104:1 105:1 119:1 120:1 121:1 125:1 133:1 135:1 136:1 137:1 139:1 140:1 141:1 151:1 152:1 153:1 167:1 168:1 169:1 185:1 186:1 201:1 202:1 
0.3389367030067412 70:1 73:1 74:1 86:1 87:1 88:1 89:1 91:1 92:1 102:1 103:1 104:1 105:1 107:1 108:1 118:1 119:1 120:1 121:1 123:1 124:1 133:1 134:1 135:1 136:1 137:1 140:1 141:1 150:1 151:1 152:1 153:1 156:1 158:1 166:1 167:1 168:1 169:1 172:1 174:1 182:1 183:1 184:1 185:1 186:1 188:1 190:1 198:1 201:1 202:1 204:1 205:1 
0.02739222089036329 76:1 77:1 87:1 88:1 89:1 90:1 93:1 103:1 104:1 105:1 108:1 117:1 118:1 119:1 120:1 121:1 123:1 133:1 135:1 136:1 137:1 151:1 152:1 153:1 154:1 155:1 156:1 157:1 166:1 167:1 168:1 169:1 171:1 183:1 184:1 185:1 186:1 188:1 199:1 201:1 
0.3048273291483211 72:1 86:1 87:1 88:1 89:1 90:1 91:1 92:1 93:1 101:1 117:1 118:1 119:1 120:1 121:1 122:1 123:1 124:1 125:1 136:1 137:1 138:1 140:1 156:1 166:1 167:1 168:1 169:1 170:1 172:1 186:1 188:1 197:1 198:1 199:1 200:1 201:1 202:1 203:1 204:1 205:1 
0.4723276794927268 72:1 73:1 85:1 86:1 87:1 88:1 89:1 90:1 91:1 92:1 93:1 101:1 118:1 119:1 120:1 121:1 122:1 123:1 124:1 125:1 137:1 140:1 153:1 156:1 169:1 172:1 185:1 188:1 198:1 199:1 200:1 201:1 202:1 203:1 204:1 205:1 
0.772960496762287 73:1 87:1 88:1 89:1 90:1 91:1 92:1 93:1 101:1 102:1 118:1 119:1 120:1 121:1 122:1 123:1 124:1 125:1 134:1 137:1 150:1 153:1 166:1 169:1 182:1 185:1 198:1 
0.3778205207691328 73:1 86:1 87:1 88:1 89:1 90:1 91:1 92:1 93:1 101:1 102:1 117:1 118:1 119:1 120:1 121:1 122:1 123:1 124:1 125:1 135:1 151:1 154:1 156:1 167:1 172:1 181:1 182:1 183:1 184:1 186:1 188:1 189:1 202:1 
0.3288257365235772 72:1 73:1 85:1 86:1 87:1 103:1 106:1 109:1 110:1 117:1 118:1 119:1 120:1 123:1 124:1 125:1 135:1 136:1 137:1 138:1 139:1 140:1 151:1 152:1 153:1 157:1 166:1 167:1 168:1 169:1 170:1 171:1 172:1 173:1 182:1 198:1 199:1 200:1 201:1 202:1 203:1 204:1 205:1 
0.3163663704496385 72:1 73:1 86:1 87:1 88:1 89:1 90:1 91:1 92:1 93:1 101:1 102:1 117:1 118:1 119:1 120:1 121:1 122:1 123:1 124:1 125:1 133:1 136:1 137:1 138:1 140:1 149:1 152:1 153:1 154:1 156:1 165:1 168:1 169:1 170:1 172:1 181:1 182:1 183:1 184:1 185:1 186:1 188:1 201:1 202:1 203:1 204:1 205:1 
0.0734604774526465 72:1 73:1 85:1 86:1 87:1 102:1 106:1 109:1 110:1 118:1 119:1 121:1 122:1 123:1 124:1 125:1 134:1 136:1 137:1 149:1 150:1 152:1 153:1 166:1 167:1 168:1 169:1 170:1 171:1 172:1 173:1 174:1 182:1 183:1 185:1 198:1 201:1 202:1 
0.2131159217138159 72:1 73:1 86:1 87:1 88:1 89:1 90:1 91:1 92:1 93:1 101:1 105:1 106:1 118:1 119:1 120:1 121:1 122:1 123:1 124:1 133:1 134:1 135:1 137:1 140:1 150:1 151:1 152:1 153:1 155:1 156:1 166:1 167:1 169:1 172:1 173:1 182:1 183:1 184:1 185:1 186:1 187:1 188:1 189:1 198:1 201:1 202:1 204:1 
0.9168873245833629 72:1 73:1 85:1 86:1 87:1 105:1 106:1 110:1 117:1 119:1 120:1 121:1 123:1 133:1 135:1 136:1 137:1 140:1 141:1 149:1 151:1 152:1 153:1 157:1 165:1 167:1 168:1 169:1 172:1 173:1 181:1 183:1 184:1 185:1 187:1 188:1 189:1 201:1 202:1 206:1 
0.06714236159263586 72:1 73:1 85:1 86:1 87:1 117:1 120:1 122:1 124:1 133:1 135:1 136:1 138:1 140:1 149:1 151:1 152:1 153:1 154:1 155:1 156:1 157:1 165:1 166:1 167:1 168:1 170:1 172:1 174:1 181:1 182:1 184:1 186:1 188:1 190:1 197:1 200:1 201:1 202:1 203:1 204:1 205:1 206:1 
-3 73:1 87:1 89:1 105:1 121:1 133:1 134:1 135:1 136:1 137:1 138:1 139:1 140:1 141:1 153:1 165:1 169:1 172:1 181:1 183:1 184:1 185:1 188:1 198:1 201:1 202:1 
-3 71:1 73:1 87:1 89:1 103:1 105:1 117:1 118:1 119:1 120:1 121:1 122:1 123:1 124:1 125:1 126:1 135:1 137:1 151:1 153:1 156:1 165:1 167:1 169:1 181:1 183:1 184:1 185:1 188:1 198:1 201:1 202:1 203:1 204:1 
-2.447890280919276 73:1 74:1 87:1 89:1 103:1 105:1 117:1 118:1 119:1 120:1 121:1 122:1 123:1 124:1 125:1 135:1 137:1 151:1 153:1 165:1 167:1 168:1 169:1 172:1 181:1 182:1 185:1 186:1 187:1 188:1 198:1 201:1 
-2.977812160009229 73:1 87:1 89:1 105:1 117:1 118:1 119:1 120:1 121:1 122:1 123:1 124:1 125:1 137:1 153:1 165:1 166:1 167:1 168:1 169:1 172:1 182:1 185:1 188:1 201:1 
-3 73:1 87:1 89:1 105:1 117:1 118:1 119:1 120:1 121:1 122:1 123:1 124:1 125:1 137:1 153:1 165:1 166:1 167:1 168:1 169:1 172:1 182:1 185:1 188:1 201:1 
