svm_type c_svc
kernel_type rbf
gamma 0.015625
nr_class 2
total_sv 34
rho -1.13442
label -1 1
nr_sv 29 5
SV
0.1559987975734373 24:1 25:1 40:1 41:1 56:1 57:1 72:1 73:1 88:1 89:1 104:1 105:1 120:1 121:1 136:1 137:1 152:1 153:1 168:1 169:1 184:1 185:1 200:1 201:1 216:1 217:1 232:1 233:1 248:1 249:1 
0.007797810114516792 25:1 26:1 41:1 42:1 57:1 58:1 73:1 88:1 89:1 98:1 99:1 104:1 105:1 114:1 115:1 116:1 117:1 118:1 119:1 120:1 121:1 122:1 123:1 124:1 125:1 126:1 127:1 136:1 143:1 144:1 152:1 159:1 160:1 168:1 175:1 176:1 183:1 184:1 191:1 192:1 199:1 207:1 215:1 221:1 222:1 223:1 231:1 238:1 
0.1431621291813057 30:1 31:1 47:1 63:1 79:1 95:1 111:1 115:1 116:1 117:1 118:1 119:1 120:1 121:1 122:1 123:1 124:1 125:1 126:1 127:1 131:1 132:1 133:1 134:1 135:1 136:1 137:1 138:1 139:1 140:1 141:1 142:1 143:1 159:1 175:1 191:1 207:1 216:1 223:1 239:1 254:1 255:1 
0.2888963903613493 19:1 20:1 35:1 36:1 51:1 52:1 67:1 68:1 83:1 84:1 99:1 100:1 115:1 116:1 117:1 118:1 119:1 120:1 121:1 122:1 123:1 124:1 125:1 126:1 127:1 131:1 132:1 133:1 134:1 135:1 136:1 137:1 138:1 139:1 140:1 141:1 142:1 143:1 147:1 148:1 152:1 163:1 164:1 168:1 169:1 179:1 180:1 184:1 185:1 186:1 195:1 196:1 201:1 202:1 203:1 211:1 212:1 218:1 219:1 227:1 228:1 235:1 243:1 244:1 
0.1219352752175241 19:1 20:1 27:1 28:1 35:1 36:1 43:1 44:1 52:1 59:1 60:1 68:1 74:1 75:1 84:1 89:1 90:1 100:1 104:1 105:1 116:1 119:1 120:1 132:1 133:1 134:1 135:1 136:1 137:1 138:1 139:1 140:1 141:1 142:1 143:1 144:1 148:1 149:1 164:1 168:1 180:1 184:1 185:1 196:1 201:1 202:1 212:1 218:1 219:1 227:1 228:1 235:1 236:1 243:1 244:1 251:1 252:1 
0.02489065362332985 43:1 44:1 56:1 59:1 60:1 66:1 67:1 68:1 69:1 70:1 71:1 72:1 75:1 76:1 82:1 83:1 85:1 88:1 91:1 92:1 101:1 104:1 107:1 108:1 117:1 120:1 123:1 124:1 133:1 136:1 139:1 140:1 149:1 152:1 155:1 156:1 165:1 168:1 171:1 172:1 175:1 176:1 181:1 184:1 187:1 188:1 191:1 192:1 197:1 200:1 205:1 206:1 207:1 212:1 213:1 216:1 217:1 218:1 219:1 220:1 221:1 222:1 223:1 228:1 229:1 232:1 233:1 234:1 235:1 
0.009103720541451537 37:1 46:1 47:1 53:1 56:1 57:1 58:1 61:1 62:1 63:1 69:1 71:1 72:1 73:1 74:1 75:1 76:1 77:1 85:1 86:1 87:1 88:1 89:1 90:1 91:1 92:1 93:1 100:1 101:1 102:1 103:1 105:1 106:1 108:1 111:1 114:1 115:1 116:1 117:1 121:1 122:1 127:1 128:1 130:1 131:1 133:1 135:1 136:1 137:1 138:1 139:1 140:1 141:1 142:1 143:1 149:1 151:1 152:1 153:1 154:1 155:1 156:1 157:1 158:1 159:1 165:1 169:1 170:1 181:1 185:1 186:1 188:1 197:1 201:1 202:1 203:1 204:1 205:1 213:1 217:1 218:1 220:1 221:1 222:1 229:1 233:1 234:1 237:1 238:1 239:1 254:1 
0.1690790071323154 46:1 57:1 61:1 72:1 73:1 76:1 77:1 86:1 87:1 88:1 89:1 91:1 92:1 100:1 101:1 102:1 105:1 106:1 107:1 111:1 114:1 115:1 116:1 117:1 121:1 127:1 130:1 134:1 135:1 136:1 137:1 138:1 139:1 140:1 141:1 142:1 143:1 144:1 151:1 153:1 169:1 185:1 187:1 200:1 201:1 203:1 204:1 212:1 217:1 220:1 221:1 228:1 237:1 238:1 
0.2077010841801336 31:1 40:1 41:1 44:1 47:1 54:1 55:1 56:1 59:1 60:1 61:1 63:1 67:1 68:1 69:1 70:1 72:1 74:1 75:1 76:1 77:1 79:1 83:1 84:1 88:1 89:1 90:1 92:1 93:1 95:1 99:1 103:1 104:1 108:1 111:1 117:1 118:1 119:1 124:1 127:1 134:1 136:1 137:1 140:1 143:1 151:1 152:1 153:1 155:1 156:1 157:1 159:1 165:1 166:1 167:1 168:1 170:1 171:1 172:1 175:1 179:1 180:1 181:1 184:1 185:1 186:1 188:1 191:1 195:1 199:1 200:1 201:1 204:1 207:1 214:1 215:1 219:1 220:1 223:1 229:1 230:1 235:1 236:1 239:1 246:1 255:1 
0.03103060957013644 23:1 30:1 31:1 39:1 40:1 43:1 44:1 46:1 47:1 53:1 54:1 55:1 56:1 59:1 60:1 62:1 63:1 67:1 68:1 69:1 71:1 73:1 74:1 75:1 76:1 78:1 79:1 82:1 83:1 84:1 87:1 88:1 89:1 90:1 91:1 92:1 94:1 95:1 99:1 102:1 103:1 104:1 107:1 108:1 110:1 111:1 117:1 118:1 119:1 123:1 126:1 127:1 134:1 135:1 136:1 139:1 142:1 143:1 150:1 151:1 152:1 155:1 156:1 158:1 159:1 165:1 166:1 167:1 168:1 170:1 171:1 172:1 174:1 175:1 178:1 179:1 180:1 181:1 183:1 184:1 185:1 186:1 187:1 188:1 190:1 191:1 194:1 195:1 199:1 200:1 201:1 203:1 204:1 206:1 207:1 213:1 214:1 215:1 219:1 222:1 223:1 230:1 231:1 235:1 238:1 239:1 254:1 255:1 
0.008102053882348541 35:1 36:1 38:1 39:1 40:1 41:1 42:1 47:1 51:1 52:1 55:1 56:1 57:1 58:1 62:1 63:1 64:1 67:1 71:1 74:1 78:1 79:1 83:1 87:1 90:1 92:1 93:1 94:1 99:1 103:1 104:1 105:1 106:1 107:1 108:1 109:1 115:1 116:1 117:1 118:1 119:1 120:1 121:1 122:1 123:1 131:1 147:1 148:1 149:1 150:1 151:1 152:1 153:1 154:1 155:1 156:1 157:1 158:1 159:1 163:1 164:1 165:1 166:1 167:1 168:1 169:1 170:1 171:1 172:1 173:1 174:1 175:1 179:1 183:1 186:1 195:1 199:1 202:1 211:1 215:1 216:1 217:1 218:1 227:1 228:1 230:1 231:1 232:1 233:1 234:1 243:1 244:1 
0.434178572470512 69:1 85:1 87:1 88:1 89:1 90:1 91:1 92:1 93:1 101:1 103:1 106:1 107:1 117:1 118:1 119:1 120:1 121:1 133:1 135:1 137:1 138:1 139:1 149:1 151:1 152:1 153:1 154:1 165:1 167:1 170:1 173:1 181:1 183:1 189:1 197:1 
0.4576013894754575 77:1 85:1 86:1 88:1 89:1 90:1 91:1 92:1 101:1 103:1 104:1 117:1 120:1 133:1 136:1 149:1 150:1 151:1 152:1 165:1 168:1 181:1 183:1 184:1 197:1 200:1 
0.07977918983240168 76:1 77:1 87:1 89:1 90:1 103:1 104:1 118:1 119:1 120:1 150:1 151:1 152:1 167:1 181:1 182:1 183:1 
0.1303365241863201 12:1 23:1 24:1 28:1 41:1 42:1 44:1 52:1 53:1 60:1 70:1 71:1 72:1 73:1 74:1 75:1 76:1 92:1 101:1 102:1 103:1 104:1 105:1 106:1 107:1 108:1 116:1 117:1 124:1 136:1 137:1 138:1 140:1 151:1 152:1 156:1 
0.5019466461910572 71:1 77:1 87:1 89:1 90:1 101:1 103:1 106:1 107:1 118:1 119:1 120:1 121:1 122:1 123:1 124:1 135:1 151:1 152:1 153:1 154:1 155:1 156:1 165:1 167:1 170:1 181:1 183:1 185:1 186:1 199:1 
0.1524713044194005 70:1 73:1 86:1 87:1 89:1 93:1 102:1 104:1 105:1 106:1 107:1 108:1 109:1 118:1 121:1 124:1 133:1 134:1 135:1 136:1 137:1 138:1 139:1 150:1 152:1 153:1 155:1 156:1 166:1 167:1 169:1 170:1 172:1 182:1 185:1 186:1 189:1 201:1 205:1 
0.898076250518015 8:1 21:1 24:1 37:1 38:1 40:1 41:1 42:1 43:1 44:1 45:1 53:1 54:1 55:1 56:1 60:1 69:1 72:1 76:1 84:1 85:1 86:1 87:1 88:1 89:1 90:1 91:1 92:1 101:1 104:1 106:1 107:1 117:1 119:1 120:1 122:1 123:1 124:1 133:1 134:1 136:1 137:1 138:1 140:1 149:1 152:1 156:1 
0.9085918584333819 70:1 73:1 86:1 87:1 89:1 90:1 91:1 92:1 93:1 102:1 104:1 105:1 109:1 118:1 121:1 124:1 133:1 134:1 135:1 136:1 137:1 138:1 139:1 150:1 153:1 155:1 156:1 166:1 167:1 168:1 169:1 170:1 171:1 172:1 182:1 183:1 185:1 186:1 188:1 189:1 198:1 201:1 205:1 
1.420480688461167 133:1 134:1 135:1 136:1 137:1 138:1 139:1 140:1 141:1 
0.5509955966323232 8:1 24:1 39:1 54:1 55:1 69:1 84:1 85:1 88:1 89:1 90:1 91:1 92:1 93:1 101:1 102:1 118:1 119:1 135:1 136:1 152:1 
0.1941539945062663 73:1 88:1 103:1 104:1 118:1 119:1 133:1 134:1 136:1 137:1 138:1 139:1 140:1 141:1 150:1 151:1 167:1 168:1 184:1 200:1 201:1 
0.1576649551314124 73:1 88:1 104:1 118:1 119:1 133:1 136:1 137:1 138:1 139:1 140:1 141:1 150:1 151:1 168:1 184:1 
0.2720882572515958 86:1 102:1 103:1 119:1 136:1 137:1 138:1 139:1 140:1 141:1 151:1 152:1 166:1 167:1 181:1 182:1 
2.755134383479271 87:1 88:1 89:1 90:1 106:1 122:1 133:1 134:1 135:1 136:1 137:1 138:1 139:1 140:1 141:1 154:1 170:1 183:1 184:1 185:1 186:1 
0.6154645758794172 22:1 23:1 24:1 25:1 26:1 38:1 41:1 54:1 57:1 70:1 73:1 84:1 85:1 86:1 87:1 88:1 89:1 90:1 91:1 92:1 93:1 102:1 105:1 118:1 121:1 134:1 137:1 150:1 151:1 152:1 153:1 154:1 
0.03168361070937696 87:1 88:1 89:1 90:1 103:1 106:1 119:1 122:1 133:1 134:1 135:1 136:1 137:1 138:1 139:1 140:1 141:1 151:1 154:1 167:1 170:1 183:1 184:1 185:1 186:1 
0.3610058874050757 69:1 72:1 74:1 88:1 90:1 104:1 106:1 118:1 119:1 120:1 121:1 122:1 123:1 124:1 125:1 136:1 138:1 152:1 154:1 165:1 166:1 167:1 168:1 169:1 170:1 171:1 187:1 188:1 189:1 204:1 205:1 
0.9011071622000959 70:1 71:1 75:1 86:1 87:1 88:1 91:1 102:1 103:1 107:1 118:1 119:1 123:1 133:1 134:1 135:1 136:1 137:1 138:1 139:1 140:1 141:1 150:1 151:1 155:1 166:1 167:1 168:1 171:1 182:1 183:1 184:1 187:1 203:1 
-1.764971306161282 76:1 88:1 90:1 92:1 106:1 108:1 119:1 121:1 123:1 124:1 133:1 134:1 135:1 136:1 137:1 138:1 139:1 140:1 141:1 150:1 152:1 155:1 165:1 168:1 170:1 181:1 183:1 185:1 186:1 201:1 
-3 38:1 39:1 41:1 43:1 44:1 54:1 57:1 59:1 70:1 72:1 75:1 84:1 85:1 86:1 87:1 88:1 89:1 90:1 91:1 92:1 93:1 101:1 104:1 106:1 116:1 117:1 119:1 121:1 122:1 134:1 135:1 137:1 152:1 153:1 
-2.6676899511105 72:1 76:1 87:1 89:1 90:1 92:1 103:1 105:1 107:1 108:1 119:1 121:1 123:1 133:1 134:1 135:1 136:1 137:1 138:1 139:1 140:1 141:1 150:1 152:1 155:1 166:1 168:1 170:1 181:1 183:1 184:1 186:1 201:1 
-1.97740316260395 76:1 88:1 90:1 92:1 119:1 121:1 123:1 133:1 134:1 135:1 136:1 137:1 138:1 139:1 140:1 141:1 150:1 152:1 166:1 168:1 170:1 183:1 185:1 186:1 
-2.580393958684663 76:1 88:1 90:1 92:1 119:1 121:1 123:1 133:1 134:1 135:1 136:1 137:1 138:1 139:1 140:1 141:1 150:1 152:1 166:1 168:1 170:1 183:1 185:1 186:1 
