svm_type c_svc
kernel_type rbf
gamma 0.015625
nr_class 2
total_sv 49
rho -1.36937
label -1 1
nr_sv 44 5
SV
0.7174288725604594 71:1 77:1 87:1 88:1 93:1 103:1 104:1 105:1 106:1 109:1 119:1 122:1 123:1 124:1 135:1 137:1 138:1 139:1 140:1 149:1 150:1 151:1 152:1 153:1 156:1 167:1 173:1 183:1 189:1 199:1 205:1 
0.1398743072758417 70:1 86:1 102:1 118:1 119:1 120:1 121:1 122:1 123:1 124:1 125:1 126:1 134:1 136:1 150:1 152:1 153:1 166:1 169:1 182:1 185:1 186:1 198:1 202:1 
0.09726354894822373 75:1 77:1 90:1 93:1 105:1 106:1 109:1 120:1 125:1 134:1 135:1 136:1 137:1 138:1 139:1 140:1 141:1 150:1 157:1 169:1 173:1 185:1 186:1 189:1 202:1 205:1 
1.030709380456572 70:1 73:1 86:1 87:1 89:1 90:1 91:1 92:1 93:1 94:1 102:1 104:1 105:1 109:1 118:1 121:1 122:1 125:1 133:1 134:1 135:1 136:1 137:1 138:1 139:1 141:1 150:1 153:1 155:1 156:1 166:1 168:1 169:1 171:1 173:1 182:1 183:1 184:1 185:1 187:1 189:1 198:1 201:1 205:1 
0.2492613569594171 73:1 86:1 102:1 103:1 104:1 105:1 106:1 107:1 108:1 109:1 118:1 124:1 133:1 134:1 135:1 136:1 138:1 139:1 140:1 150:1 155:1 156:1 166:1 167:1 170:1 172:1 182:1 183:1 186:1 189:1 198:1 
0.5409769197499298 70:1 71:1 72:1 73:1 74:1 75:1 76:1 101:1 102:1 103:1 104:1 105:1 106:1 107:1 108:1 109:1 119:1 120:1 133:1 134:1 137:1 141:1 150:1 151:1 153:1 166:1 167:1 168:1 169:1 182:1 185:1 198:1 201:1 202:1 203:1 204:1 205:1 
0.2712658175154494 70:1 71:1 74:1 77:1 86:1 87:1 90:1 92:1 93:1 101:1 102:1 103:1 104:1 105:1 106:1 107:1 108:1 119:1 122:1 135:1 136:1 137:1 138:1 151:1 154:1 165:1 166:1 167:1 168:1 169:1 170:1 171:1 172:1 173:1 182:1 183:1 186:1 198:1 199:1 202:1 
0.229283928027852 74:1 90:1 101:1 102:1 103:1 104:1 105:1 106:1 122:1 133:1 138:1 149:1 152:1 153:1 154:1 155:1 165:1 170:1 172:1 181:1 186:1 188:1 189:1 202:1 205:1 
0.317335548953475 71:1 75:1 77:1 87:1 90:1 93:1 103:1 104:1 105:1 106:1 107:1 108:1 119:1 122:1 123:1 133:1 134:1 135:1 136:1 137:1 138:1 139:1 140:1 141:1 142:1 149:1 151:1 155:1 165:1 167:1 168:1 169:1 170:1 171:1 172:1 181:1 183:1 185:1 187:1 189:1 197:1 199:1 200:1 201:1 202:1 203:1 205:1 
0.1498958184349357 71:1 73:1 74:1 77:1 85:1 87:1 90:1 92:1 101:1 103:1 104:1 105:1 106:1 107:1 108:1 117:1 119:1 122:1 123:1 133:1 134:1 135:1 136:1 137:1 138:1 139:1 140:1 141:1 149:1 151:1 154:1 155:1 165:1 167:1 168:1 169:1 170:1 171:1 172:1 181:1 183:1 184:1 186:1 188:1 199:1 202:1 205:1 
0.05761847530343354 86:1 87:1 88:1 89:1 90:1 91:1 92:1 102:1 104:1 108:1 109:1 120:1 125:1 133:1 134:1 135:1 136:1 137:1 138:1 139:1 141:1 157:1 167:1 171:1 173:1 183:1 184:1 185:1 186:1 187:1 189:1 203:1 204:1 
0.1568617357575556 71:1 92:1 101:1 102:1 103:1 104:1 105:1 106:1 107:1 108:1 119:1 120:1 121:1 122:1 123:1 124:1 149:1 150:1 151:1 152:1 153:1 154:1 155:1 156:1 157:1 173:1 189:1 203:1 204:1 
0.002148946862189525 76:1 92:1 101:1 102:1 103:1 104:1 105:1 106:1 107:1 108:1 119:1 120:1 121:1 122:1 123:1 124:1 149:1 150:1 151:1 152:1 153:1 154:1 155:1 156:1 157:1 173:1 189:1 204:1 205:1 
0.7476433866282672 73:1 85:1 88:1 90:1 92:1 93:1 102:1 103:1 105:1 106:1 108:1 109:1 118:1 119:1 121:1 122:1 123:1 125:1 133:1 134:1 136:1 138:1 139:1 141:1 150:1 151:1 152:1 154:1 155:1 157:1 166:1 168:1 170:1 173:1 182:1 183:1 185:1 186:1 189:1 201:1 204:1 205:1 
0.1165785408941382 70:1 77:1 86:1 87:1 88:1 89:1 92:1 93:1 102:1 103:1 104:1 105:1 108:1 109:1 118:1 119:1 120:1 121:1 124:1 125:1 133:1 134:1 135:1 136:1 137:1 139:1 140:1 150:1 151:1 152:1 153:1 155:1 165:1 166:1 167:1 168:1 169:1 171:1 173:1 181:1 182:1 183:1 184:1 185:1 187:1 189:1 198:1 204:1 205:1 
0.1166816308229922 70:1 71:1 72:1 73:1 74:1 75:1 76:1 77:1 85:1 86:1 87:1 88:1 89:1 90:1 91:1 92:1 101:1 102:1 103:1 104:1 105:1 106:1 107:1 108:1 119:1 120:1 121:1 122:1 123:1 136:1 137:1 138:1 139:1 150:1 151:1 152:1 153:1 155:1 166:1 167:1 168:1 169:1 170:1 171:1 172:1 184:1 187:1 188:1 198:1 200:1 201:1 203:1 204:1 205:1 
0.001406236104892486 72:1 86:1 88:1 92:1 93:1 101:1 102:1 103:1 104:1 105:1 106:1 107:1 108:1 109:1 119:1 120:1 121:1 122:1 123:1 125:1 135:1 136:1 137:1 138:1 141:1 149:1 150:1 151:1 152:1 157:1 165:1 167:1 168:1 169:1 172:1 173:1 181:1 182:1 183:1 184:1 185:1 186:1 187:1 188:1 189:1 200:1 203:1 204:1 205:1 
0.04797092240931161 70:1 75:1 76:1 86:1 87:1 90:1 92:1 101:1 102:1 103:1 106:1 107:1 108:1 109:1 118:1 119:1 122:1 124:1 134:1 139:1 140:1 149:1 150:1 151:1 152:1 153:1 154:1 155:1 156:1 173:1 189:1 204:1 205:1 
0.2761235659226057 73:1 85:1 86:1 87:1 88:1 90:1 92:1 93:1 101:1 102:1 104:1 106:1 108:1 109:1 117:1 118:1 119:1 120:1 122:1 123:1 125:1 136:1 137:1 138:1 139:1 141:1 149:1 150:1 151:1 152:1 154:1 157:1 165:1 167:1 170:1 173:1 181:1 183:1 184:1 185:1 186:1 189:1 199:1 204:1 205:1 
0.06923612222674008 70:1 71:1 74:1 75:1 86:1 90:1 91:1 101:1 102:1 103:1 106:1 107:1 108:1 109:1 118:1 119:1 122:1 123:1 135:1 136:1 139:1 149:1 150:1 151:1 152:1 155:1 156:1 157:1 166:1 168:1 169:1 170:1 173:1 182:1 184:1 189:1 198:1 204:1 205:1 
0.2222424315975061 70:1 74:1 87:1 88:1 89:1 91:1 92:1 103:1 104:1 105:1 108:1 119:1 120:1 121:1 124:1 125:1 133:1 134:1 135:1 136:1 137:1 138:1 139:1 140:1 141:1 151:1 152:1 153:1 156:1 167:1 168:1 169:1 172:1 183:1 184:1 185:1 186:1 187:1 188:1 198:1 202:1 
0.03405803787710597 74:1 77:1 90:1 91:1 93:1 105:1 106:1 107:1 109:1 119:1 121:1 123:1 125:1 135:1 137:1 139:1 141:1 149:1 150:1 151:1 152:1 153:1 155:1 157:1 167:1 170:1 171:1 173:1 183:1 186:1 187:1 189:1 198:1 201:1 202:1 205:1 
0.1092804819362175 71:1 77:1 87:1 92:1 93:1 103:1 104:1 105:1 106:1 107:1 108:1 119:1 120:1 133:1 134:1 135:1 136:1 151:1 152:1 167:1 168:1 169:1 170:1 171:1 172:1 173:1 183:1 189:1 199:1 204:1 205:1 
0.5332318016708396 70:1 73:1 76:1 86:1 88:1 89:1 91:1 92:1 94:1 102:1 104:1 105:1 107:1 109:1 117:1 118:1 119:1 121:1 122:1 125:1 133:1 134:1 137:1 138:1 140:1 150:1 152:1 153:1 155:1 156:1 166:1 168:1 170:1 171:1 172:1 173:1 182:1 185:1 186:1 189:1 198:1 205:1 206:1 
0.3548161690802061 70:1 72:1 87:1 89:1 90:1 104:1 105:1 106:1 116:1 118:1 119:1 122:1 133:1 137:1 138:1 150:1 151:1 152:1 153:1 154:1 167:1 170:1 171:1 172:1 183:1 188:1 189:1 198:1 200:1 205:1 
0.28782511974998 70:1 77:1 86:1 92:1 102:1 104:1 105:1 106:1 107:1 108:1 118:1 123:1 125:1 133:1 134:1 138:1 139:1 140:1 141:1 150:1 166:1 168:1 169:1 170:1 171:1 182:1 185:1 186:1 188:1 198:1 
0.4409071194402729 73:1 74:1 89:1 93:1 103:1 104:1 105:1 109:1 119:1 120:1 121:1 123:1 124:1 133:1 135:1 136:1 137:1 151:1 152:1 153:1 155:1 156:1 157:1 167:1 168:1 169:1 173:1 183:1 184:1 185:1 189:1 198:1 201:1 202:1 204:1 205:1 
0.3697572928695267 70:1 73:1 74:1 86:1 87:1 88:1 89:1 91:1 92:1 102:1 103:1 104:1 105:1 107:1 108:1 118:1 119:1 120:1 121:1 123:1 124:1 133:1 134:1 135:1 136:1 137:1 140:1 141:1 150:1 151:1 152:1 153:1 156:1 158:1 166:1 167:1 168:1 169:1 172:1 174:1 182:1 183:1 184:1 185:1 186:1 188:1 190:1 198:1 201:1 202:1 204:1 205:1 
1.421337703375368 73:1 74:1 76:1 89:1 90:1 92:1 103:1 104:1 105:1 106:1 108:1 119:1 120:1 121:1 122:1 124:1 133:1 135:1 136:1 137:1 138:1 139:1 140:1 141:1 151:1 152:1 153:1 154:1 156:1 157:1 167:1 168:1 169:1 170:1 171:1 172:1 173:1 185:1 186:1 187:1 189:1 201:1 202:1 203:1 205:1 
0.1574883742832176 73:1 74:1 76:1 78:1 87:1 88:1 90:1 92:1 94:1 106:1 108:1 109:1 122:1 123:1 124:1 133:1 137:1 138:1 140:1 154:1 156:1 170:1 172:1 173:1 183:1 184:1 186:1 201:1 202:1 205:1 
0.8516890967179487 70:1 77:1 87:1 88:1 89:1 90:1 91:1 92:1 93:1 105:1 106:1 107:1 108:1 109:1 117:1 120:1 121:1 122:1 123:1 124:1 125:1 133:1 136:1 137:1 138:1 139:1 140:1 141:1 152:1 153:1 154:1 155:1 156:1 157:1 169:1 170:1 171:1 172:1 173:1 183:1 184:1 185:1 186:1 187:1 188:1 189:1 198:1 205:1 
0.2609029626439375 70:1 72:1 73:1 74:1 75:1 76:1 77:1 86:1 88:1 90:1 91:1 93:1 102:1 103:1 104:1 105:1 106:1 107:1 109:1 118:1 119:1 120:1 121:1 122:1 123:1 124:1 125:1 126:1 133:1 134:1 136:1 137:1 138:1 139:1 150:1 152:1 153:1 154:1 155:1 156:1 157:1 158:1 166:1 167:1 168:1 169:1 170:1 171:1 172:1 182:1 184:1 185:1 186:1 187:1 189:1 198:1 200:1 202:1 205:1 
0.2425575531050218 69:1 76:1 77:1 85:1 87:1 88:1 89:1 90:1 93:1 103:1 104:1 105:1 106:1 107:1 108:1 109:1 118:1 119:1 120:1 121:1 122:1 123:1 124:1 125:1 133:1 135:1 139:1 151:1 152:1 153:1 154:1 155:1 156:1 157:1 166:1 167:1 171:1 172:1 181:1 183:1 185:1 186:1 187:1 188:1 189:1 197:1 201:1 202:1 205:1 
0.7706846984458649 70:1 74:1 87:1 88:1 89:1 90:1 102:1 106:1 107:1 108:1 109:1 119:1 120:1 121:1 122:1 133:1 136:1 138:1 152:1 154:1 167:1 170:1 183:1 184:1 185:1 186:1 201:1 202:1 205:1 
0.2638239799526886 73:1 87:1 88:1 93:1 101:1 102:1 108:1 109:1 119:1 125:1 135:1 137:1 138:1 149:1 151:1 155:1 156:1 165:1 167:1 170:1 171:1 172:1 183:1 184:1 185:1 186:1 189:1 199:1 205:1 
0.0349800936170616 72:1 73:1 86:1 87:1 88:1 89:1 90:1 91:1 92:1 93:1 94:1 101:1 102:1 109:1 120:1 125:1 133:1 136:1 140:1 149:1 150:1 151:1 152:1 153:1 154:1 155:1 156:1 165:1 168:1 171:1 172:1 173:1 182:1 183:1 186:1 189:1 190:1 198:1 199:1 201:1 202:1 204:1 205:1 206:1 
0.2768198972134194 73:1 87:1 88:1 89:1 90:1 91:1 92:1 93:1 101:1 102:1 108:1 109:1 119:1 135:1 137:1 138:1 140:1 149:1 150:1 151:1 152:1 156:1 167:1 171:1 172:1 173:1 183:1 186:1 187:1 189:1 199:1 200:1 
0.2728622851922479 72:1 73:1 87:1 88:1 89:1 90:1 91:1 92:1 93:1 101:1 102:1 107:1 109:1 119:1 122:1 123:1 125:1 136:1 137:1 149:1 150:1 151:1 153:1 169:1 170:1 171:1 172:1 185:1 199:1 201:1 205:1 
0.09476046869503314 73:1 87:1 88:1 89:1 90:1 91:1 92:1 93:1 101:1 102:1 106:1 119:1 120:1 121:1 122:1 125:1 138:1 139:1 140:1 149:1 150:1 151:1 152:1 153:1 154:1 170:1 171:1 172:1 182:1 183:1 184:1 185:1 186:1 188:1 189:1 202:1 205:1 
0.8957611604859682 73:1 77:1 88:1 90:1 92:1 103:1 104:1 107:1 108:1 118:1 120:1 125:1 133:1 136:1 137:1 138:1 139:1 140:1 141:1 150:1 152:1 167:1 168:1 171:1 184:1 185:1 188:1 200:1 
0.2114038133942414 72:1 73:1 85:1 86:1 87:1 102:1 106:1 109:1 110:1 118:1 119:1 121:1 122:1 123:1 124:1 125:1 134:1 136:1 137:1 149:1 150:1 152:1 153:1 166:1 167:1 168:1 169:1 170:1 171:1 172:1 173:1 174:1 182:1 183:1 185:1 198:1 201:1 202:1 
0.4413778769232756 72:1 77:1 87:1 93:1 103:1 105:1 106:1 107:1 108:1 109:1 117:1 118:1 119:1 125:1 133:1 135:1 137:1 138:1 150:1 151:1 153:1 156:1 167:1 173:1 183:1 184:1 185:1 186:1 187:1 188:1 189:1 200:1 
0.1435539839892383 73:1 86:1 87:1 88:1 89:1 90:1 91:1 92:1 93:1 101:1 102:1 106:1 119:1 123:1 125:1 137:1 138:1 141:1 151:1 156:1 168:1 171:1 172:1 181:1 183:1 186:1 201:1 205:1 
0.4452154145711872 72:1 88:1 89:1 90:1 91:1 92:1 93:1 103:1 104:1 106:1 107:1 118:1 119:1 120:1 122:1 123:1 125:1 133:1 136:1 137:1 138:1 139:1 140:1 141:1 150:1 167:1 169:1 172:1 173:1 183:1 184:1 185:1 186:1 187:1 188:1 189:1 200:1 
-3 70:1 71:1 90:1 92:1 102:1 103:1 104:1 105:1 106:1 107:1 108:1 119:1 120:1 122:1 125:1 133:1 136:1 137:1 138:1 140:1 149:1 152:1 153:1 155:1 167:1 169:1 171:1 172:1 183:1 184:1 185:1 186:1 189:1 198:1 201:1 205:1 
-3 70:1 73:1 75:1 77:1 86:1 87:1 88:1 89:1 90:1 91:1 92:1 102:1 105:1 108:1 109:1 110:1 118:1 122:1 123:1 124:1 125:1 133:1 134:1 137:1 139:1 140:1 141:1 150:1 151:1 152:1 153:1 156:1 166:1 170:1 172:1 173:1 182:1 184:1 185:1 186:1 187:1 188:1 189:1 198:1 201:1 202:1 205:1 
-2.942245568259197 70:1 71:1 73:1 77:1 87:1 89:1 90:1 92:1 102:1 103:1 104:1 105:1 106:1 107:1 108:1 109:1 119:1 122:1 123:1 125:1 133:1 135:1 136:1 137:1 138:1 150:1 151:1 152:1 153:1 155:1 156:1 167:1 171:1 172:1 183:1 184:1 185:1 186:1 187:1 189:1 198:1 201:1 202:1 205:1 
-2.638419589653679 73:1 90:1 92:1 102:1 103:1 104:1 105:1 106:1 108:1 109:1 119:1 120:1 122:1 123:1 125:1 133:1 136:1 137:1 138:1 139:1 150:1 151:1 152:1 156:1 167:1 168:1 169:1 171:1 173:1 183:1 185:1 186:1 189:1 202:1 205:1 
-2.89223772072878 73:1 90:1 92:1 102:1 103:1 104:1 105:1 106:1 108:1 109:1 119:1 120:1 122:1 123:1 125:1 133:1 136:1 137:1 138:1 139:1 150:1 151:1 152:1 156:1 167:1 168:1 169:1 171:1 173:1 183:1 185:1 186:1 189:1 202:1 205:1 
