svm_type c_svc
kernel_type rbf
gamma 0.015625
nr_class 2
total_sv 29
rho -1.47563
label -1 1
nr_sv 24 5
SV
0.2493938572044924 73:1 133:1 136:1 152:1 199:1 203:1 204:1 
0.5348393752174822 70:1 71:1 77:1 93:1 104:1 105:1 122:1 123:1 124:1 133:1 134:1 135:1 136:1 137:1 138:1 139:1 149:1 150:1 155:1 156:1 172:1 198:1 199:1 205:1 
0.4117744982131981 70:1 77:1 78:1 86:1 91:1 92:1 93:1 102:1 103:1 104:1 105:1 106:1 107:1 108:1 118:1 134:1 150:1 166:1 167:1 168:1 169:1 170:1 171:1 172:1 173:1 182:1 198:1 
0.09711914873773281 70:1 71:1 72:1 73:1 74:1 75:1 76:1 77:1 101:1 102:1 103:1 104:1 105:1 106:1 107:1 108:1 109:1 110:1 119:1 120:1 133:1 134:1 135:1 137:1 141:1 149:1 150:1 153:1 157:1 166:1 168:1 169:1 170:1 171:1 172:1 173:1 182:1 184:1 185:1 189:1 198:1 201:1 202:1 203:1 204:1 205:1 206:1 
0.7400908216112226 77:1 78:1 91:1 92:1 93:1 102:1 103:1 104:1 105:1 106:1 107:1 141:1 152:1 157:1 166:1 167:1 168:1 173:1 182:1 189:1 201:1 202:1 203:1 204:1 205:1 
1.536892523965685 77:1 92:1 107:1 117:1 118:1 119:1 120:1 173:1 189:1 203:1 204:1 205:1 
0.5303095667093976 71:1 72:1 86:1 87:1 88:1 92:1 93:1 101:1 102:1 104:1 107:1 108:1 109:1 118:1 120:1 122:1 123:1 134:1 136:1 138:1 150:1 152:1 153:1 154:1 166:1 168:1 169:1 173:1 182:1 189:1 198:1 203:1 204:1 205:1 
0.1094242787019234 70:1 73:1 77:1 86:1 87:1 89:1 92:1 93:1 102:1 103:1 104:1 105:1 107:1 108:1 118:1 121:1 123:1 137:1 138:1 152:1 153:1 154:1 165:1 167:1 169:1 173:1 181:1 183:1 185:1 189:1 197:1 203:1 204:1 205:1 
0.3125978929502863 70:1 72:1 86:1 88:1 90:1 102:1 103:1 104:1 105:1 106:1 117:1 120:1 122:1 133:1 136:1 138:1 141:1 173:1 189:1 204:1 205:1 
0.6754616886553542 70:1 73:1 75:1 86:1 87:1 101:1 102:1 104:1 105:1 106:1 107:1 108:1 109:1 118:1 119:1 120:1 134:1 135:1 137:1 149:1 173:1 189:1 204:1 205:1 
0.7617081416329042 71:1 88:1 92:1 93:1 104:1 105:1 106:1 108:1 109:1 123:1 125:1 133:1 134:1 135:1 139:1 141:1 151:1 155:1 157:1 166:1 170:1 173:1 181:1 185:1 186:1 189:1 198:1 204:1 205:1 
0.06673233283905004 69:1 74:1 77:1 85:1 87:1 88:1 89:1 90:1 91:1 92:1 93:1 101:1 102:1 104:1 105:1 106:1 107:1 108:1 109:1 117:1 119:1 122:1 123:1 133:1 134:1 138:1 140:1 141:1 149:1 173:1 189:1 204:1 205:1 
0.3833030899733866 77:1 86:1 93:1 102:1 104:1 105:1 106:1 109:1 118:1 119:1 120:1 125:1 134:1 136:1 141:1 150:1 152:1 157:1 166:1 168:1 169:1 170:1 171:1 172:1 173:1 182:1 189:1 198:1 205:1 
1.174048634285972 78:1 86:1 93:1 102:1 105:1 106:1 107:1 108:1 118:1 134:1 150:1 166:1 169:1 170:1 171:1 172:1 173:1 174:1 182:1 198:1 
0.3471972421297657 72:1 77:1 85:1 88:1 92:1 104:1 106:1 107:1 108:1 120:1 136:1 152:1 168:1 173:1 181:1 184:1 200:1 
2.727876128592881 71:1 77:1 92:1 103:1 105:1 106:1 107:1 108:1 117:1 133:1 134:1 151:1 152:1 153:1 154:1 155:1 156:1 157:1 198:1 199:1 
2.49067841894083 71:1 77:1 87:1 92:1 93:1 103:1 104:1 105:1 106:1 107:1 108:1 119:1 133:1 134:1 135:1 151:1 167:1 168:1 169:1 170:1 171:1 172:1 173:1 183:1 199:1 
0.5123065849639332 70:1 74:1 86:1 93:1 102:1 103:1 104:1 106:1 107:1 108:1 118:1 119:1 120:1 133:1 134:1 135:1 136:1 150:1 151:1 152:1 155:1 156:1 157:1 166:1 167:1 168:1 173:1 182:1 186:1 189:1 198:1 201:1 204:1 205:1 
0.2561115042887389 70:1 71:1 90:1 92:1 102:1 103:1 104:1 105:1 106:1 107:1 108:1 119:1 120:1 122:1 125:1 133:1 136:1 137:1 138:1 140:1 149:1 152:1 153:1 155:1 167:1 169:1 171:1 172:1 183:1 184:1 185:1 186:1 189:1 198:1 201:1 205:1 
0.03063303332890529 70:1 77:1 87:1 88:1 89:1 93:1 105:1 106:1 107:1 108:1 109:1 121:1 123:1 125:1 133:1 137:1 139:1 141:1 152:1 153:1 155:1 157:1 169:1 170:1 171:1 172:1 173:1 182:1 183:1 184:1 185:1 189:1 205:1 
0.2141038143293341 77:1 78:1 92:1 93:1 107:1 108:1 121:1 122:1 123:1 133:1 134:1 135:1 136:1 153:1 154:1 171:1 172:1 188:1 189:1 205:1 
0.2912713385980665 75:1 77:1 91:1 106:1 120:1 121:1 133:1 134:1 135:1 136:1 152:1 153:1 170:1 187:1 203:1 205:1 
0.4803588096201609 76:1 77:1 91:1 93:1 106:1 109:1 120:1 121:1 125:1 133:1 134:1 135:1 136:1 141:1 152:1 153:1 154:1 157:1 170:1 171:1 173:1 187:1 188:1 189:1 204:1 205:1 
0.06576727450929573 86:1 93:1 107:1 108:1 122:1 133:1 134:1 135:1 136:1 149:1 151:1 152:1 153:1 170:1 187:1 204:1 205:1 
-3 70:1 71:1 77:1 92:1 93:1 104:1 105:1 106:1 107:1 108:1 117:1 120:1 133:1 134:1 136:1 152:1 153:1 154:1 155:1 156:1 157:1 173:1 189:1 198:1 199:1 204:1 
-3 70:1 77:1 78:1 86:1 92:1 93:1 102:1 105:1 106:1 107:1 108:1 118:1 133:1 134:1 150:1 166:1 169:1 170:1 171:1 172:1 173:1 182:1 198:1 205:1 
-3 71:1 77:1 87:1 92:1 93:1 103:1 104:1 105:1 106:1 107:1 108:1 119:1 120:1 133:1 134:1 135:1 136:1 151:1 152:1 167:1 168:1 169:1 170:1 171:1 172:1 173:1 183:1 189:1 199:1 204:1 205:1 
-3 71:1 77:1 104:1 105:1 106:1 107:1 108:1 133:1 134:1 152:1 173:1 189:1 198:1 203:1 204:1 205:1 
-3 71:1 77:1 104:1 105:1 106:1 107:1 108:1 133:1 134:1 152:1 173:1 189:1 198:1 203:1 204:1 205:1 
