svm_type c_svc
kernel_type rbf
gamma 0.015625
nr_class 2
total_sv 43
rho -1.30119
label -1 1
nr_sv 38 5
SV
0.5180765514516939 70:1 73:1 74:1 77:1 86:1 87:1 88:1 89:1 90:1 91:1 92:1 101:1 102:1 103:1 106:1 107:1 109:1 117:1 118:1 122:1 126:1 134:1 135:1 136:1 137:1 138:1 139:1 140:1 141:1 150:1 154:1 166:1 170:1 171:1 182:1 186:1 187:1 188:1 198:1 202:1 205:1 
0.07106539442404548 86:1 91:1 102:1 103:1 104:1 105:1 106:1 107:1 138:1 154:1 165:1 166:1 167:1 168:1 169:1 170:1 171:1 172:1 173:1 
0.2504450064994832 71:1 72:1 73:1 74:1 75:1 87:1 90:1 103:1 106:1 119:1 122:1 133:1 134:1 135:1 136:1 137:1 138:1 139:1 140:1 141:1 142:1 151:1 154:1 167:1 170:1 183:1 186:1 199:1 200:1 201:1 202:1 203:1 
0.2219117027893518 70:1 71:1 75:1 86:1 87:1 88:1 91:1 102:1 103:1 107:1 118:1 119:1 123:1 133:1 134:1 135:1 136:1 137:1 138:1 139:1 140:1 141:1 150:1 151:1 155:1 166:1 167:1 168:1 171:1 182:1 183:1 184:1 187:1 203:1 
0.538415475384634 73:1 77:1 91:1 92:1 101:1 102:1 103:1 104:1 105:1 106:1 107:1 117:1 118:1 133:1 135:1 136:1 149:1 157:1 165:1 166:1 167:1 168:1 169:1 170:1 171:1 172:1 173:1 201:1 
0.3049065432009878 70:1 71:1 74:1 77:1 86:1 87:1 90:1 92:1 93:1 101:1 102:1 103:1 104:1 105:1 106:1 107:1 108:1 119:1 122:1 135:1 136:1 137:1 138:1 151:1 154:1 165:1 166:1 167:1 168:1 169:1 170:1 171:1 172:1 173:1 182:1 183:1 186:1 198:1 199:1 202:1 
0.34457649696983 71:1 74:1 85:1 86:1 87:1 89:1 90:1 91:1 92:1 102:1 103:1 104:1 105:1 106:1 108:1 119:1 120:1 122:1 124:1 133:1 134:1 135:1 136:1 137:1 138:1 139:1 140:1 141:1 151:1 154:1 156:1 165:1 166:1 167:1 168:1 169:1 170:1 172:1 181:1 183:1 185:1 187:1 188:1 199:1 201:1 202:1 
0.1019518189566447 77:1 78:1 91:1 92:1 93:1 102:1 103:1 104:1 105:1 106:1 107:1 141:1 152:1 157:1 166:1 167:1 168:1 173:1 182:1 189:1 201:1 202:1 203:1 204:1 205:1 
0.4885414936245404 73:1 74:1 88:1 89:1 92:1 103:1 104:1 107:1 108:1 118:1 119:1 122:1 124:1 133:1 136:1 137:1 140:1 151:1 152:1 156:1 170:1 172:1 187:1 188:1 204:1 205:1 
0.1257303587185731 77:1 86:1 88:1 92:1 102:1 107:1 108:1 118:1 123:1 125:1 134:1 135:1 136:1 138:1 141:1 153:1 154:1 157:1 165:1 169:1 173:1 181:1 185:1 189:1 205:1 
0.02501425931211462 70:1 73:1 74:1 76:1 77:1 86:1 88:1 89:1 91:1 92:1 102:1 104:1 107:1 118:1 119:1 122:1 134:1 135:1 136:1 137:1 138:1 139:1 140:1 141:1 142:1 150:1 152:1 153:1 169:1 170:1 181:1 184:1 187:1 188:1 197:1 200:1 204:1 
0.6094717124540872 73:1 74:1 76:1 86:1 88:1 89:1 91:1 92:1 102:1 103:1 104:1 106:1 107:1 118:1 121:1 122:1 133:1 134:1 135:1 136:1 137:1 138:1 139:1 140:1 141:1 149:1 152:1 153:1 154:1 165:1 167:1 168:1 170:1 171:1 181:1 183:1 187:1 188:1 204:1 
1.499553106827606 77:1 92:1 107:1 117:1 118:1 119:1 120:1 173:1 189:1 203:1 204:1 205:1 
0.0724191275023361 71:1 72:1 73:1 74:1 75:1 76:1 92:1 101:1 102:1 103:1 104:1 105:1 106:1 107:1 108:1 124:1 149:1 150:1 151:1 152:1 153:1 154:1 155:1 156:1 157:1 173:1 189:1 204:1 205:1 
2.188715838810695 71:1 72:1 74:1 75:1 76:1 77:1 78:1 85:1 86:1 87:1 88:1 90:1 93:1 101:1 104:1 106:1 109:1 118:1 119:1 120:1 122:1 125:1 136:1 137:1 173:1 203:1 204:1 205:1 
0.4117304990579919 73:1 74:1 75:1 76:1 77:1 89:1 92:1 101:1 102:1 103:1 104:1 105:1 108:1 119:1 121:1 124:1 135:1 137:1 138:1 140:1 141:1 173:1 189:1 204:1 205:1 
0.5198254431401234 69:1 72:1 74:1 77:1 85:1 87:1 88:1 89:1 90:1 92:1 93:1 101:1 102:1 103:1 106:1 108:1 117:1 119:1 122:1 123:1 124:1 133:1 135:1 138:1 139:1 149:1 151:1 154:1 155:1 165:1 167:1 170:1 173:1 181:1 183:1 184:1 185:1 189:1 197:1 204:1 205:1 
0.6532906690781928 70:1 72:1 86:1 88:1 90:1 93:1 104:1 106:1 117:1 120:1 122:1 136:1 138:1 141:1 165:1 166:1 167:1 168:1 169:1 170:1 171:1 172:1 173:1 189:1 204:1 205:1 
0.01737942804747922 70:1 72:1 86:1 88:1 90:1 102:1 103:1 104:1 105:1 106:1 117:1 120:1 122:1 133:1 136:1 138:1 141:1 173:1 189:1 204:1 205:1 
0.2734200420436473 69:1 70:1 71:1 72:1 75:1 76:1 85:1 88:1 91:1 94:1 101:1 102:1 103:1 104:1 106:1 107:1 108:1 109:1 117:1 120:1 121:1 122:1 123:1 133:1 134:1 135:1 136:1 137:1 139:1 173:1 203:1 204:1 205:1 
0.0697312186578318 70:1 71:1 72:1 73:1 74:1 75:1 76:1 77:1 85:1 86:1 87:1 88:1 89:1 90:1 91:1 92:1 101:1 102:1 103:1 104:1 105:1 106:1 107:1 108:1 119:1 120:1 121:1 122:1 123:1 136:1 137:1 138:1 139:1 150:1 151:1 152:1 153:1 155:1 166:1 167:1 168:1 169:1 170:1 171:1 172:1 184:1 187:1 188:1 198:1 200:1 201:1 203:1 204:1 205:1 
0.5570165137221069 70:1 71:1 74:1 75:1 86:1 90:1 91:1 101:1 102:1 103:1 106:1 107:1 108:1 109:1 118:1 119:1 122:1 123:1 135:1 136:1 139:1 149:1 150:1 151:1 152:1 155:1 156:1 157:1 166:1 168:1 169:1 170:1 173:1 182:1 184:1 189:1 198:1 204:1 205:1 
0.991841421590354 77:1 87:1 88:1 89:1 90:1 91:1 92:1 101:1 102:1 104:1 105:1 109:1 117:1 119:1 123:1 133:1 134:1 136:1 138:1 139:1 141:1 149:1 165:1 173:1 189:1 203:1 204:1 205:1 
0.08910805932651682 70:1 71:1 72:1 73:1 74:1 75:1 76:1 86:1 87:1 88:1 90:1 91:1 92:1 101:1 102:1 103:1 104:1 106:1 107:1 108:1 109:1 110:1 118:1 119:1 120:1 121:1 122:1 123:1 124:1 136:1 150:1 151:1 156:1 157:1 166:1 170:1 171:1 182:1 185:1 186:1 198:1 201:1 204:1 205:1 
0.9129092202866695 69:1 71:1 73:1 77:1 85:1 87:1 88:1 90:1 91:1 101:1 102:1 103:1 104:1 105:1 106:1 107:1 108:1 117:1 119:1 120:1 121:1 122:1 123:1 124:1 133:1 134:1 135:1 138:1 141:1 149:1 165:1 166:1 167:1 168:1 169:1 170:1 171:1 172:1 173:1 189:1 204:1 205:1 
1.244103054105529 71:1 85:1 86:1 87:1 90:1 101:1 102:1 103:1 104:1 105:1 106:1 108:1 117:1 119:1 122:1 123:1 124:1 133:1 135:1 136:1 137:1 138:1 139:1 140:1 141:1 165:1 173:1 189:1 203:1 204:1 205:1 
0.2699908691965263 70:1 71:1 72:1 73:1 75:1 76:1 78:1 86:1 87:1 88:1 89:1 92:1 93:1 101:1 102:1 103:1 104:1 105:1 109:1 118:1 119:1 120:1 121:1 125:1 134:1 135:1 136:1 137:1 139:1 140:1 141:1 150:1 152:1 157:1 165:1 166:1 167:1 168:1 169:1 170:1 171:1 172:1 173:1 189:1 203:1 204:1 205:1 
0.05893832625810636 70:1 72:1 77:1 87:1 88:1 89:1 90:1 91:1 92:1 93:1 101:1 102:1 103:1 104:1 105:1 106:1 107:1 109:1 119:1 120:1 121:1 122:1 123:1 124:1 125:1 134:1 136:1 173:1 189:1 204:1 205:1 
0.1428444896602186 70:1 72:1 77:1 86:1 87:1 90:1 91:1 93:1 101:1 102:1 103:1 108:1 109:1 118:1 119:1 124:1 134:1 135:1 136:1 138:1 152:1 165:1 173:1 189:1 203:1 204:1 205:1 
0.0553905841535239 71:1 77:1 87:1 92:1 93:1 103:1 104:1 105:1 106:1 107:1 108:1 119:1 120:1 133:1 134:1 135:1 136:1 151:1 152:1 167:1 168:1 169:1 170:1 171:1 172:1 173:1 183:1 189:1 199:1 204:1 205:1 
0.1261589885442171 72:1 73:1 86:1 87:1 88:1 89:1 90:1 91:1 92:1 93:1 94:1 101:1 103:1 110:1 119:1 120:1 121:1 125:1 135:1 138:1 139:1 140:1 141:1 151:1 155:1 156:1 165:1 166:1 167:1 168:1 169:1 170:1 172:1 173:1 183:1 189:1 199:1 205:1 206:1 
0.1261949401022762 72:1 73:1 86:1 87:1 88:1 89:1 90:1 91:1 92:1 93:1 101:1 102:1 117:1 118:1 119:1 120:1 121:1 122:1 123:1 124:1 125:1 136:1 140:1 152:1 156:1 165:1 166:1 167:1 168:1 169:1 170:1 171:1 172:1 173:1 184:1 189:1 204:1 205:1 
0.01552069591092481 72:1 77:1 78:1 87:1 88:1 91:1 92:1 93:1 103:1 105:1 106:1 107:1 118:1 123:1 124:1 126:1 133:1 140:1 141:1 150:1 154:1 155:1 156:1 167:1 168:1 169:1 170:1 171:1 172:1 183:1 184:1 188:1 189:1 200:1 205:1 206:1 
0.4177410017239862 77:1 88:1 91:1 92:1 103:1 104:1 105:1 106:1 107:1 118:1 119:1 123:1 125:1 133:1 134:1 140:1 141:1 151:1 153:1 154:1 155:1 156:1 168:1 170:1 171:1 172:1 184:1 188:1 205:1 
0.1308919282178222 72:1 73:1 86:1 87:1 88:1 89:1 90:1 91:1 92:1 93:1 101:1 103:1 109:1 124:1 133:1 136:1 137:1 138:1 139:1 149:1 150:1 151:1 165:1 169:1 173:1 182:1 189:1 199:1 204:1 205:1 
0.2598191297345161 87:1 88:1 89:1 90:1 91:1 92:1 93:1 101:1 102:1 118:1 119:1 136:1 137:1 138:1 139:1 140:1 141:1 149:1 154:1 157:1 169:1 173:1 185:1 189:1 198:1 203:1 204:1 205:1 
0.2493409372602488 72:1 85:1 86:1 87:1 88:1 89:1 90:1 91:1 92:1 93:1 101:1 106:1 109:1 119:1 120:1 121:1 122:1 124:1 133:1 134:1 135:1 136:1 137:1 138:1 139:1 165:1 166:1 167:1 168:1 169:1 170:1 171:1 172:1 173:1 183:1 184:1 186:1 189:1 198:1 202:1 204:1 205:1 
0.0460176532545677 72:1 73:1 85:1 86:1 87:1 88:1 89:1 90:1 91:1 92:1 93:1 94:1 101:1 107:1 110:1 119:1 120:1 122:1 124:1 125:1 133:1 134:1 135:1 136:1 137:1 138:1 139:1 140:1 165:1 166:1 167:1 168:1 169:1 170:1 171:1 172:1 173:1 184:1 186:1 189:1 198:1 199:1 202:1 203:1 205:1 
-3 70:1 71:1 72:1 74:1 75:1 77:1 85:1 88:1 89:1 91:1 92:1 101:1 103:1 106:1 119:1 122:1 133:1 134:1 136:1 137:1 138:1 141:1 154:1 156:1 165:1 166:1 167:1 168:1 169:1 170:1 171:1 172:1 173:1 189:1 204:1 205:1 
-3 69:1 71:1 73:1 74:1 75:1 77:1 78:1 86:1 87:1 88:1 90:1 92:1 93:1 103:1 106:1 107:1 119:1 120:1 122:1 123:1 124:1 133:1 134:1 135:1 136:1 138:1 139:1 140:1 141:1 142:1 151:1 154:1 156:1 165:1 166:1 167:1 168:1 169:1 170:1 171:1 172:1 173:1 203:1 204:1 205:1 
-3 71:1 72:1 74:1 75:1 77:1 85:1 86:1 87:1 88:1 89:1 90:1 91:1 92:1 101:1 102:1 103:1 104:1 106:1 118:1 119:1 120:1 122:1 124:1 133:1 135:1 136:1 137:1 138:1 140:1 141:1 173:1 189:1 204:1 205:1 
-3 71:1 74:1 77:1 86:1 88:1 91:1 92:1 101:1 102:1 103:1 104:1 106:1 107:1 117:1 118:1 119:1 136:1 139:1 165:1 173:1 189:1 203:1 204:1 205:1 
-3 71:1 74:1 77:1 86:1 88:1 91:1 92:1 101:1 102:1 103:1 104:1 106:1 107:1 117:1 118:1 119:1 136:1 139:1 165:1 173:1 189:1 203:1 204:1 205:1 
