svm_type c_svc
kernel_type rbf
gamma 0.015625
nr_class 2
total_sv 36
rho -1.49466
label -1 1
nr_sv 31 5
SV
0.6598207305514602 69:1 85:1 87:1 88:1 89:1 101:1 105:1 117:1 121:1 133:1 134:1 135:1 136:1 137:1 149:1 151:1 153:1 157:1 165:1 167:1 169:1 173:1 181:1 183:1 185:1 186:1 187:1 188:1 189:1 197:1 201:1 202:1 
0.1400414296492746 69:1 85:1 87:1 88:1 89:1 90:1 91:1 92:1 93:1 101:1 103:1 107:1 117:1 119:1 121:1 122:1 133:1 134:1 135:1 136:1 137:1 149:1 151:1 153:1 154:1 165:1 167:1 170:1 171:1 173:1 181:1 183:1 184:1 185:1 186:1 187:1 188:1 189:1 197:1 
1.051795254582737 105:1 107:1 123:1 134:1 135:1 136:1 137:1 138:1 139:1 155:1 169:1 170:1 171:1 173:1 181:1 183:1 189:1 197:1 
0.2495519750537508 93:1 105:1 108:1 117:1 118:1 119:1 120:1 121:1 122:1 138:1 151:1 167:1 168:1 169:1 170:1 171:1 172:1 173:1 189:1 203:1 204:1 205:1 
0.3535736273099592 71:1 77:1 87:1 89:1 93:1 103:1 105:1 109:1 117:1 119:1 121:1 125:1 133:1 134:1 135:1 136:1 137:1 138:1 139:1 140:1 141:1 150:1 151:1 153:1 157:1 167:1 169:1 173:1 183:1 185:1 189:1 205:1 
0.5871110472847692 77:1 86:1 88:1 92:1 102:1 107:1 108:1 118:1 123:1 125:1 134:1 135:1 136:1 138:1 141:1 153:1 154:1 157:1 165:1 169:1 173:1 181:1 185:1 189:1 205:1 
0.06700265519192079 86:1 92:1 102:1 107:1 108:1 118:1 135:1 136:1 138:1 141:1 153:1 157:1 165:1 168:1 169:1 173:1 181:1 184:1 189:1 
0.2934802342197056 69:1 76:1 91:1 93:1 106:1 109:1 120:1 121:1 125:1 135:1 136:1 141:1 150:1 151:1 157:1 166:1 173:1 181:1 189:1 203:1 204:1 
0.1349662683839761 73:1 86:1 102:1 104:1 108:1 109:1 120:1 125:1 133:1 134:1 135:1 136:1 137:1 138:1 139:1 141:1 151:1 154:1 157:1 167:1 170:1 173:1 182:1 183:1 184:1 185:1 186:1 189:1 204:1 205:1 
1.136544782409127 85:1 92:1 93:1 101:1 102:1 103:1 107:1 108:1 109:1 117:1 123:1 125:1 133:1 138:1 141:1 149:1 152:1 153:1 154:1 157:1 165:1 166:1 167:1 169:1 173:1 181:1 182:1 189:1 203:1 204:1 
1.280508214615731 86:1 89:1 92:1 93:1 103:1 104:1 105:1 107:1 109:1 121:1 123:1 125:1 133:1 137:1 138:1 141:1 149:1 152:1 153:1 154:1 157:1 165:1 166:1 167:1 169:1 173:1 181:1 182:1 185:1 189:1 204:1 205:1 
0.4266947407223319 92:1 93:1 103:1 107:1 109:1 119:1 120:1 125:1 138:1 141:1 149:1 152:1 154:1 157:1 165:1 166:1 167:1 169:1 173:1 181:1 185:1 189:1 204:1 205:1 
0.3441360010445974 72:1 86:1 88:1 89:1 92:1 93:1 102:1 105:1 108:1 109:1 117:1 119:1 121:1 123:1 125:1 137:1 141:1 149:1 150:1 151:1 152:1 153:1 154:1 157:1 169:1 170:1 173:1 185:1 189:1 199:1 203:1 204:1 205:1 
0.7048147307846139 70:1 73:1 87:1 88:1 92:1 93:1 101:1 102:1 107:1 109:1 120:1 121:1 123:1 125:1 134:1 138:1 141:1 150:1 151:1 152:1 154:1 157:1 168:1 169:1 173:1 184:1 189:1 204:1 205:1 
0.8937802947316773 69:1 72:1 85:1 87:1 89:1 92:1 93:1 101:1 102:1 103:1 104:1 105:1 107:1 108:1 109:1 117:1 120:1 121:1 123:1 125:1 133:1 136:1 137:1 141:1 149:1 152:1 153:1 154:1 157:1 165:1 168:1 169:1 170:1 173:1 181:1 182:1 183:1 184:1 185:1 189:1 197:1 203:1 204:1 
2.357307762732879 72:1 92:1 93:1 103:1 104:1 105:1 107:1 108:1 109:1 118:1 123:1 125:1 141:1 154:1 157:1 169:1 170:1 173:1 181:1 183:1 184:1 189:1 204:1 205:1 
0.5098322812171229 86:1 87:1 89:1 90:1 92:1 93:1 105:1 107:1 109:1 117:1 118:1 119:1 120:1 123:1 125:1 141:1 149:1 150:1 151:1 152:1 153:1 154:1 157:1 169:1 170:1 173:1 184:1 189:1 204:1 205:1 
0.2061982435550585 77:1 86:1 90:1 92:1 93:1 103:1 105:1 106:1 108:1 121:1 122:1 123:1 124:1 134:1 135:1 136:1 137:1 138:1 139:1 149:1 154:1 155:1 165:1 167:1 170:1 173:1 181:1 182:1 183:1 189:1 197:1 204:1 205:1 
0.04872739940713478 70:1 87:1 89:1 90:1 92:1 93:1 101:1 102:1 103:1 104:1 105:1 106:1 108:1 109:1 118:1 119:1 121:1 122:1 123:1 125:1 133:1 134:1 135:1 136:1 138:1 139:1 141:1 149:1 154:1 157:1 165:1 167:1 168:1 169:1 170:1 173:1 181:1 185:1 186:1 189:1 197:1 198:1 199:1 203:1 204:1 
0.2121972388030673 70:1 87:1 88:1 89:1 90:1 92:1 93:1 106:1 108:1 109:1 122:1 123:1 125:1 133:1 134:1 135:1 136:1 137:1 138:1 139:1 141:1 154:1 155:1 157:1 165:1 170:1 173:1 183:1 184:1 185:1 186:1 189:1 198:1 204:1 205:1 
1.005470898918604 73:1 74:1 85:1 86:1 87:1 88:1 90:1 92:1 93:1 101:1 106:1 108:1 109:1 117:1 122:1 123:1 125:1 133:1 136:1 137:1 138:1 139:1 141:1 149:1 150:1 151:1 152:1 154:1 157:1 165:1 167:1 170:1 173:1 181:1 183:1 184:1 185:1 189:1 197:1 199:1 205:1 
0.07095439705511202 77:1 85:1 87:1 101:1 117:1 119:1 124:1 133:1 134:1 135:1 136:1 137:1 138:1 139:1 140:1 149:1 150:1 151:1 155:1 165:1 167:1 169:1 170:1 181:1 183:1 184:1 185:1 186:1 203:1 205:1 
0.268444353430249 69:1 77:1 85:1 87:1 88:1 89:1 93:1 105:1 106:1 107:1 108:1 109:1 120:1 121:1 122:1 123:1 124:1 125:1 133:1 136:1 137:1 138:1 139:1 140:1 141:1 152:1 153:1 154:1 155:1 156:1 157:1 169:1 170:1 171:1 172:1 173:1 181:1 183:1 184:1 185:1 189:1 197:1 205:1 
0.4968696281819049 77:1 92:1 93:1 107:1 108:1 121:1 122:1 123:1 133:1 134:1 135:1 136:1 137:1 153:1 154:1 171:1 172:1 188:1 189:1 205:1 
0.5457309746946061 70:1 71:1 72:1 73:1 74:1 75:1 76:1 77:1 92:1 93:1 108:1 109:1 123:1 125:1 135:1 136:1 137:1 138:1 141:1 149:1 150:1 151:1 152:1 157:1 169:1 170:1 173:1 187:1 189:1 204:1 205:1 
0.1989017633154504 73:1 87:1 88:1 89:1 90:1 91:1 92:1 93:1 101:1 102:1 109:1 124:1 133:1 134:1 135:1 136:1 137:1 138:1 167:1 168:1 169:1 170:1 171:1 172:1 173:1 189:1 203:1 204:1 205:1 
0.2316027609891737 72:1 77:1 88:1 89:1 93:1 103:1 105:1 109:1 118:1 121:1 125:1 133:1 137:1 138:1 139:1 140:1 141:1 150:1 153:1 157:1 167:1 169:1 173:1 184:1 185:1 189:1 200:1 205:1 
0.01906820832140271 73:1 86:1 87:1 88:1 89:1 90:1 91:1 92:1 93:1 101:1 102:1 109:1 121:1 122:1 123:1 124:1 125:1 136:1 141:1 154:1 156:1 170:1 171:1 172:1 181:1 184:1 185:1 189:1 197:1 205:1 
0.1231960924313122 72:1 73:1 86:1 87:1 88:1 89:1 90:1 91:1 92:1 93:1 101:1 102:1 117:1 121:1 135:1 136:1 138:1 150:1 151:1 154:1 169:1 170:1 184:1 185:1 186:1 198:1 202:1 204:1 205:1 
0.2027822514057603 72:1 73:1 85:1 86:1 87:1 88:1 89:1 90:1 91:1 92:1 93:1 101:1 117:1 123:1 124:1 125:1 133:1 134:1 135:1 136:1 137:1 141:1 149:1 153:1 154:1 156:1 165:1 170:1 171:1 172:1 173:1 181:1 184:1 185:1 186:1 187:1 188:1 189:1 197:1 204:1 205:1 
0.1788937590055318 73:1 87:1 88:1 89:1 90:1 91:1 92:1 93:1 101:1 102:1 109:1 120:1 121:1 123:1 125:1 134:1 135:1 141:1 149:1 153:1 154:1 155:1 156:1 157:1 167:1 173:1 184:1 189:1 200:1 205:1 
-3 85:1 89:1 92:1 93:1 101:1 105:1 108:1 109:1 117:1 121:1 123:1 125:1 133:1 134:1 136:1 137:1 141:1 149:1 150:1 151:1 153:1 154:1 157:1 165:1 167:1 169:1 173:1 181:1 184:1 185:1 189:1 197:1 203:1 204:1 
-3 77:1 89:1 92:1 93:1 105:1 107:1 108:1 121:1 123:1 135:1 137:1 138:1 151:1 153:1 154:1 157:1 167:1 169:1 170:1 173:1 184:1 185:1 189:1 203:1 204:1 205:1 
-3 69:1 73:1 85:1 89:1 92:1 93:1 101:1 105:1 107:1 108:1 109:1 117:1 121:1 123:1 125:1 133:1 134:1 135:1 136:1 137:1 138:1 141:1 149:1 150:1 153:1 154:1 157:1 165:1 167:1 169:1 170:1 173:1 181:1 183:1 184:1 185:1 189:1 197:1 204:1 205:1 
-3 92:1 93:1 107:1 109:1 123:1 125:1 136:1 138:1 141:1 154:1 157:1 167:1 169:1 170:1 173:1 181:1 184:1 189:1 197:1 204:1 205:1 
-3 92:1 93:1 107:1 109:1 123:1 125:1 136:1 138:1 141:1 154:1 157:1 167:1 169:1 170:1 173:1 181:1 184:1 189:1 197:1 204:1 205:1 
