svm_type c_svc
kernel_type rbf
gamma 0.015625
nr_class 2
total_sv 34
rho -1.29295
label -1 1
nr_sv 29 5
SV
0.1897507645185435 69:1 85:1 87:1 88:1 89:1 90:1 101:1 106:1 117:1 122:1 133:1 134:1 135:1 136:1 137:1 138:1 149:1 154:1 157:1 165:1 170:1 173:1 181:1 185:1 186:1 187:1 188:1 189:1 197:1 200:1 
0.420528000253645 87:1 88:1 89:1 90:1 103:1 157:1 173:1 181:1 183:1 184:1 185:1 186:1 187:1 188:1 197:1 
0.08264210009040979 75:1 77:1 85:1 91:1 93:1 101:1 104:1 106:1 107:1 109:1 117:1 119:1 120:1 121:1 125:1 133:1 134:1 137:1 138:1 141:1 149:1 154:1 155:1 157:1 165:1 171:1 172:1 173:1 181:1 182:1 183:1 184:1 185:1 186:1 187:1 189:1 197:1 205:1 
0.1435416043769784 86:1 102:1 103:1 104:1 105:1 106:1 107:1 108:1 153:1 154:1 155:1 156:1 165:1 181:1 184:1 
0.4130754107396362 69:1 77:1 85:1 90:1 93:1 101:1 106:1 108:1 117:1 118:1 119:1 120:1 121:1 122:1 123:1 133:1 149:1 150:1 151:1 152:1 153:1 154:1 155:1 156:1 157:1 165:1 170:1 181:1 186:1 197:1 200:1 201:1 202:1 
2.209366292480521 77:1 85:1 86:1 88:1 89:1 90:1 91:1 92:1 101:1 103:1 104:1 117:1 120:1 133:1 136:1 149:1 150:1 151:1 152:1 165:1 168:1 181:1 183:1 184:1 197:1 200:1 
0.4393219962835897 71:1 77:1 87:1 89:1 90:1 101:1 103:1 106:1 107:1 118:1 119:1 120:1 121:1 122:1 123:1 124:1 135:1 151:1 152:1 153:1 154:1 155:1 156:1 165:1 167:1 170:1 181:1 183:1 185:1 186:1 199:1 
0.2095119123319621 69:1 85:1 87:1 88:1 93:1 101:1 103:1 105:1 106:1 109:1 117:1 119:1 120:1 121:1 122:1 123:1 124:1 125:1 133:1 135:1 141:1 149:1 151:1 152:1 153:1 154:1 155:1 156:1 157:1 165:1 167:1 169:1 170:1 173:1 181:1 183:1 184:1 185:1 186:1 187:1 188:1 189:1 197:1 
1.13167535652441 77:1 85:1 87:1 90:1 92:1 101:1 103:1 104:1 105:1 106:1 107:1 108:1 117:1 119:1 122:1 123:1 133:1 134:1 135:1 136:1 137:1 138:1 139:1 140:1 141:1 149:1 151:1 154:1 155:1 165:1 167:1 170:1 172:1 181:1 183:1 186:1 188:1 200:1 205:1 
0.9689750775650953 71:1 74:1 75:1 76:1 77:1 86:1 87:1 88:1 89:1 90:1 91:1 101:1 103:1 104:1 105:1 106:1 107:1 119:1 120:1 121:1 122:1 123:1 135:1 136:1 137:1 138:1 139:1 141:1 150:1 151:1 152:1 153:1 154:1 155:1 166:1 167:1 168:1 169:1 170:1 171:1 183:1 184:1 185:1 186:1 187:1 188:1 204:1 205:1 
0.5825921583824707 70:1 76:1 87:1 101:1 102:1 103:1 107:1 108:1 109:1 119:1 120:1 121:1 122:1 136:1 149:1 150:1 151:1 155:1 156:1 157:1 165:1 169:1 170:1 173:1 184:1 185:1 189:1 203:1 204:1 205:1 
0.3574300694461912 71:1 77:1 87:1 103:1 107:1 108:1 117:1 118:1 119:1 120:1 135:1 149:1 151:1 157:1 165:1 167:1 183:1 199:1 201:1 
0.4148887749862589 69:1 87:1 88:1 89:1 90:1 91:1 103:1 119:1 135:1 151:1 167:1 183:1 184:1 185:1 186:1 187:1 
0.2548644752497647 77:1 85:1 87:1 91:1 93:1 101:1 103:1 104:1 105:1 106:1 107:1 109:1 117:1 119:1 121:1 123:1 125:1 133:1 135:1 137:1 139:1 141:1 149:1 151:1 153:1 155:1 157:1 165:1 167:1 168:1 169:1 170:1 171:1 173:1 181:1 183:1 184:1 186:1 187:1 189:1 197:1 205:1 
0.04036120774621459 74:1 77:1 90:1 91:1 107:1 117:1 119:1 121:1 123:1 135:1 137:1 139:1 149:1 150:1 151:1 152:1 153:1 155:1 167:1 171:1 183:1 187:1 198:1 200:1 201:1 
0.01999856920982263 70:1 74:1 76:1 86:1 87:1 88:1 89:1 90:1 92:1 102:1 103:1 106:1 108:1 110:1 117:1 118:1 119:1 122:1 124:1 126:1 133:1 134:1 135:1 138:1 139:1 140:1 141:1 150:1 151:1 154:1 155:1 156:1 166:1 167:1 170:1 171:1 172:1 182:1 183:1 184:1 185:1 186:1 188:1 198:1 204:1 
1.090796094986323 69:1 76:1 77:1 85:1 87:1 88:1 89:1 90:1 93:1 103:1 104:1 105:1 106:1 107:1 108:1 109:1 118:1 119:1 120:1 121:1 122:1 123:1 124:1 125:1 133:1 135:1 139:1 151:1 152:1 153:1 154:1 155:1 156:1 157:1 166:1 167:1 171:1 172:1 181:1 183:1 185:1 186:1 187:1 188:1 189:1 197:1 201:1 202:1 205:1 
0.143074845759248 77:1 87:1 88:1 89:1 90:1 91:1 93:1 106:1 107:1 108:1 118:1 119:1 123:1 133:1 151:1 152:1 153:1 154:1 155:1 156:1 157:1 166:1 172:1 183:1 184:1 185:1 186:1 187:1 189:1 205:1 
0.1365386247220765 74:1 88:1 102:1 103:1 104:1 105:1 106:1 107:1 108:1 109:1 117:1 149:1 150:1 151:1 152:1 153:1 154:1 155:1 156:1 157:1 168:1 184:1 185:1 201:1 202:1 
0.2663487135629754 73:1 88:1 103:1 104:1 105:1 106:1 107:1 108:1 109:1 118:1 125:1 133:1 141:1 150:1 151:1 152:1 155:1 157:1 167:1 168:1 173:1 184:1 187:1 188:1 189:1 200:1 
0.8366072427301998 73:1 86:1 87:1 88:1 89:1 90:1 91:1 92:1 93:1 101:1 103:1 108:1 119:1 122:1 135:1 136:1 149:1 150:1 151:1 152:1 153:1 154:1 155:1 156:1 157:1 167:1 169:1 170:1 183:1 186:1 187:1 199:1 203:1 
0.1693493237017999 72:1 73:1 85:1 86:1 87:1 88:1 89:1 90:1 91:1 92:1 93:1 94:1 101:1 103:1 107:1 108:1 119:1 122:1 123:1 135:1 136:1 137:1 140:1 149:1 150:1 151:1 152:1 153:1 154:1 155:1 156:1 157:1 158:1 167:1 168:1 169:1 172:1 183:1 185:1 186:1 188:1 199:1 203:1 204:1 
0.4488664683303769 72:1 73:1 85:1 86:1 87:1 88:1 89:1 90:1 91:1 92:1 93:1 101:1 107:1 108:1 109:1 117:1 133:1 135:1 140:1 149:1 151:1 152:1 153:1 154:1 155:1 156:1 157:1 165:1 167:1 168:1 169:1 170:1 171:1 181:1 183:1 184:1 185:1 186:1 204:1 205:1 
0.6094834529831624 71:1 72:1 85:1 86:1 87:1 88:1 89:1 90:1 91:1 92:1 93:1 106:1 107:1 108:1 109:1 117:1 120:1 124:1 133:1 134:1 135:1 136:1 149:1 151:1 152:1 153:1 154:1 155:1 156:1 157:1 165:1 166:1 167:1 168:1 169:1 170:1 171:1 172:1 181:1 182:1 183:1 184:1 185:1 186:1 187:1 188:1 203:1 204:1 205:1 
1.496495421013821 72:1 77:1 87:1 93:1 103:1 105:1 106:1 107:1 108:1 109:1 117:1 118:1 119:1 125:1 133:1 135:1 137:1 138:1 150:1 151:1 153:1 156:1 167:1 173:1 183:1 184:1 185:1 186:1 187:1 188:1 189:1 200:1 
0.7728201601599001 72:1 86:1 87:1 88:1 89:1 90:1 91:1 92:1 93:1 101:1 102:1 119:1 120:1 123:1 135:1 137:1 138:1 141:1 149:1 150:1 151:1 152:1 153:1 154:1 155:1 156:1 157:1 165:1 167:1 169:1 170:1 181:1 182:1 183:1 184:1 185:1 187:1 188:1 199:1 200:1 204:1 
0.7983973656714219 72:1 73:1 85:1 86:1 87:1 88:1 89:1 90:1 91:1 92:1 93:1 94:1 101:1 103:1 104:1 108:1 119:1 121:1 122:1 123:1 124:1 135:1 139:1 142:1 149:1 150:1 151:1 152:1 153:1 154:1 155:1 156:1 157:1 165:1 167:1 169:1 170:1 171:1 181:1 183:1 185:1 186:1 187:1 188:1 199:1 200:1 201:1 204:1 
0.148979803124357 72:1 76:1 77:1 85:1 86:1 87:1 89:1 90:1 91:1 101:1 102:1 103:1 105:1 107:1 119:1 124:1 125:1 133:1 134:1 135:1 136:1 137:1 138:1 139:1 140:1 141:1 149:1 152:1 154:1 157:1 165:1 168:1 170:1 173:1 181:1 182:1 183:1 184:1 185:1 186:1 187:1 188:1 189:1 205:1 
0.203718713068823 72:1 73:1 85:1 86:1 87:1 117:1 120:1 122:1 124:1 133:1 135:1 136:1 138:1 140:1 149:1 151:1 152:1 153:1 154:1 155:1 156:1 157:1 165:1 166:1 167:1 168:1 170:1 172:1 174:1 181:1 182:1 184:1 186:1 188:1 190:1 197:1 200:1 201:1 202:1 203:1 204:1 205:1 206:1 
-3 76:1 77:1 85:1 86:1 87:1 88:1 89:1 90:1 91:1 101:1 103:1 104:1 117:1 119:1 120:1 122:1 133:1 135:1 136:1 138:1 149:1 150:1 151:1 152:1 153:1 154:1 155:1 156:1 157:1 165:1 167:1 168:1 170:1 172:1 181:1 183:1 184:1 186:1 188:1 200:1 
-3 75:1 76:1 77:1 101:1 103:1 105:1 107:1 108:1 109:1 117:1 119:1 121:1 123:1 133:1 135:1 137:1 139:1 149:1 150:1 151:1 152:1 153:1 154:1 155:1 156:1 157:1 158:1 165:1 167:1 169:1 171:1 173:1 181:1 183:1 185:1 187:1 189:1 197:1 199:1 201:1 203:1 204:1 205:1 
-3 75:1 76:1 77:1 85:1 86:1 87:1 88:1 89:1 90:1 101:1 103:1 104:1 106:1 107:1 108:1 117:1 119:1 120:1 122:1 133:1 135:1 136:1 138:1 141:1 149:1 150:1 151:1 152:1 153:1 154:1 155:1 156:1 157:1 165:1 167:1 168:1 170:1 172:1 181:1 183:1 184:1 186:1 187:1 188:1 197:1 200:1 
-3 77:1 85:1 86:1 87:1 88:1 89:1 90:1 91:1 103:1 106:1 107:1 108:1 109:1 119:1 135:1 150:1 151:1 155:1 156:1 157:1 165:1 167:1 181:1 183:1 184:1 185:1 186:1 187:1 188:1 200:1 
-3 77:1 85:1 86:1 87:1 88:1 89:1 90:1 91:1 103:1 106:1 107:1 108:1 109:1 119:1 135:1 150:1 151:1 155:1 156:1 157:1 165:1 167:1 181:1 183:1 184:1 185:1 186:1 187:1 188:1 200:1 
