svm_type c_svc
kernel_type rbf
gamma 0.015625
nr_class 2
total_sv 32
rho -1.52867
label -1 1
nr_sv 27 5
SV
0.5832704876156357 77:1 87:1 88:1 105:1 106:1 117:1 118:1 119:1 120:1 121:1 122:1 123:1 124:1 149:1 150:1 151:1 152:1 153:1 154:1 155:1 156:1 169:1 170:1 183:1 184:1 205:1 
0.1225023797439694 86:1 87:1 89:1 92:1 102:1 103:1 104:1 105:1 107:1 108:1 117:1 118:1 119:1 121:1 125:1 133:1 134:1 135:1 136:1 137:1 138:1 139:1 140:1 141:1 150:1 151:1 152:1 153:1 166:1 167:1 169:1 171:1 182:1 183:1 185:1 187:1 188:1 204:1 
1.689126184741723 85:1 89:1 92:1 93:1 105:1 107:1 108:1 117:1 118:1 119:1 120:1 121:1 122:1 149:1 150:1 151:1 152:1 153:1 154:1 155:1 156:1 157:1 169:1 185:1 197:1 202:1 
0.8079360635000864 70:1 71:1 72:1 73:1 77:1 86:1 89:1 92:1 93:1 105:1 108:1 117:1 118:1 119:1 120:1 121:1 122:1 123:1 149:1 150:1 151:1 152:1 153:1 154:1 155:1 156:1 157:1 169:1 185:1 198:1 199:1 200:1 201:1 
0.2709830166764707 86:1 90:1 93:1 108:1 117:1 118:1 119:1 120:1 121:1 122:1 123:1 149:1 150:1 151:1 152:1 153:1 154:1 155:1 156:1 157:1 198:1 200:1 201:1 
0.3110604914767401 86:1 87:1 88:1 89:1 91:1 92:1 102:1 104:1 105:1 107:1 118:1 120:1 121:1 123:1 133:1 134:1 135:1 136:1 137:1 138:1 139:1 140:1 141:1 150:1 152:1 153:1 155:1 166:1 168:1 169:1 171:1 182:1 183:1 184:1 185:1 187:1 188:1 
0.733119415552658 86:1 87:1 88:1 89:1 91:1 102:1 105:1 107:1 118:1 121:1 123:1 133:1 134:1 137:1 139:1 140:1 141:1 150:1 153:1 155:1 166:1 169:1 171:1 182:1 183:1 184:1 185:1 186:1 187:1 
0.5173532996354946 71:1 75:1 85:1 86:1 89:1 91:1 102:1 104:1 105:1 107:1 117:1 118:1 119:1 121:1 123:1 137:1 138:1 139:1 140:1 141:1 149:1 150:1 151:1 153:1 155:1 166:1 168:1 169:1 171:1 181:1 182:1 185:1 187:1 199:1 203:1 
0.02499257180309406 71:1 75:1 85:1 86:1 87:1 89:1 90:1 91:1 102:1 103:1 104:1 105:1 106:1 107:1 117:1 118:1 119:1 121:1 122:1 123:1 135:1 137:1 138:1 139:1 140:1 141:1 149:1 150:1 151:1 153:1 154:1 155:1 166:1 167:1 168:1 169:1 170:1 171:1 181:1 182:1 183:1 185:1 186:1 187:1 199:1 203:1 
0.1774707981609704 75:1 86:1 87:1 88:1 89:1 91:1 102:1 105:1 107:1 117:1 118:1 121:1 123:1 134:1 136:1 137:1 139:1 150:1 152:1 153:1 155:1 157:1 166:1 167:1 168:1 169:1 171:1 173:1 185:1 186:1 187:1 188:1 189:1 
0.6976158671599062 74:1 75:1 76:1 88:1 89:1 90:1 93:1 102:1 103:1 109:1 118:1 119:1 120:1 121:1 122:1 123:1 125:1 134:1 139:1 141:1 150:1 151:1 152:1 153:1 154:1 155:1 157:1 166:1 171:1 173:1 182:1 183:1 184:1 185:1 186:1 187:1 189:1 204:1 
0.9061549669673298 70:1 73:1 75:1 86:1 87:1 88:1 89:1 91:1 101:1 102:1 105:1 106:1 107:1 108:1 109:1 118:1 119:1 120:1 121:1 123:1 134:1 137:1 139:1 149:1 150:1 151:1 152:1 153:1 154:1 155:1 156:1 157:1 173:1 189:1 204:1 205:1 
0.07824611393702778 70:1 75:1 86:1 87:1 88:1 89:1 91:1 102:1 103:1 104:1 105:1 107:1 118:1 119:1 120:1 121:1 123:1 125:1 133:1 134:1 135:1 136:1 137:1 139:1 140:1 141:1 150:1 151:1 152:1 153:1 154:1 155:1 166:1 167:1 168:1 169:1 170:1 171:1 182:1 183:1 184:1 185:1 186:1 187:1 198:1 203:1 
1.209656614150655 76:1 77:1 87:1 88:1 89:1 90:1 93:1 103:1 104:1 105:1 108:1 117:1 118:1 119:1 120:1 121:1 123:1 133:1 135:1 136:1 137:1 151:1 152:1 153:1 154:1 155:1 156:1 157:1 166:1 167:1 168:1 169:1 171:1 183:1 184:1 185:1 186:1 188:1 199:1 201:1 
0.08782825673865263 70:1 72:1 73:1 74:1 75:1 76:1 77:1 86:1 88:1 90:1 91:1 93:1 102:1 103:1 104:1 105:1 106:1 107:1 109:1 118:1 119:1 120:1 121:1 122:1 123:1 124:1 125:1 126:1 133:1 134:1 136:1 137:1 138:1 139:1 150:1 152:1 153:1 154:1 155:1 156:1 157:1 158:1 166:1 167:1 168:1 169:1 170:1 171:1 172:1 182:1 184:1 185:1 186:1 187:1 189:1 198:1 200:1 202:1 205:1 
0.7751111456419886 74:1 75:1 77:1 86:1 87:1 88:1 89:1 93:1 102:1 107:1 108:1 109:1 118:1 119:1 120:1 121:1 123:1 124:1 125:1 133:1 134:1 135:1 136:1 139:1 140:1 141:1 150:1 151:1 152:1 153:1 155:1 156:1 157:1 166:1 171:1 172:1 173:1 182:1 183:1 184:1 185:1 189:1 202:1 203:1 205:1 
0.331639350786532 73:1 74:1 77:1 86:1 87:1 88:1 89:1 93:1 102:1 104:1 105:1 106:1 107:1 108:1 109:1 118:1 121:1 122:1 123:1 124:1 125:1 133:1 134:1 135:1 136:1 137:1 138:1 139:1 140:1 141:1 150:1 153:1 154:1 155:1 156:1 157:1 166:1 168:1 169:1 170:1 171:1 172:1 173:1 183:1 184:1 185:1 189:1 201:1 202:1 205:1 
0.3525343074838342 74:1 88:1 102:1 103:1 104:1 105:1 106:1 107:1 108:1 109:1 117:1 149:1 150:1 151:1 152:1 153:1 154:1 155:1 156:1 157:1 168:1 184:1 185:1 201:1 202:1 
0.1130716549102765 72:1 73:1 85:1 86:1 87:1 105:1 108:1 109:1 110:1 118:1 119:1 120:1 121:1 122:1 123:1 134:1 135:1 136:1 137:1 138:1 139:1 140:1 141:1 142:1 150:1 151:1 152:1 153:1 154:1 155:1 156:1 157:1 158:1 166:1 167:1 168:1 169:1 170:1 171:1 172:1 182:1 183:1 184:1 185:1 186:1 187:1 188:1 190:1 197:1 198:1 199:1 200:1 201:1 202:1 203:1 204:1 205:1 206:1 
1.279213970720823 72:1 85:1 86:1 87:1 88:1 89:1 90:1 91:1 92:1 93:1 101:1 117:1 118:1 119:1 120:1 121:1 123:1 124:1 134:1 137:1 138:1 139:1 149:1 150:1 151:1 152:1 153:1 154:1 155:1 156:1 157:1 166:1 169:1 170:1 182:1 183:1 185:1 187:1 198:1 201:1 204:1 
0.3921515121121921 72:1 73:1 86:1 87:1 88:1 89:1 90:1 91:1 92:1 93:1 101:1 118:1 119:1 120:1 121:1 122:1 123:1 133:1 134:1 135:1 137:1 139:1 149:1 151:1 152:1 153:1 154:1 155:1 156:1 157:1 167:1 169:1 171:1 182:1 183:1 185:1 187:1 199:1 203:1 
1.412651819434895 73:1 86:1 87:1 88:1 89:1 90:1 91:1 92:1 93:1 101:1 102:1 105:1 109:1 118:1 121:1 122:1 123:1 124:1 134:1 137:1 149:1 150:1 151:1 153:1 154:1 155:1 166:1 169:1 173:1 182:1 183:1 184:1 185:1 186:1 187:1 188:1 189:1 201:1 
0.0538898619097804 72:1 73:1 86:1 87:1 88:1 89:1 90:1 91:1 92:1 93:1 101:1 118:1 119:1 120:1 121:1 122:1 123:1 124:1 125:1 134:1 136:1 137:1 139:1 149:1 150:1 151:1 152:1 153:1 154:1 155:1 156:1 157:1 166:1 168:1 169:1 171:1 181:1 182:1 183:1 184:1 185:1 187:1 188:1 189:1 198:1 199:1 
1.14438514897673 72:1 73:1 85:1 86:1 87:1 88:1 89:1 90:1 91:1 92:1 93:1 94:1 101:1 102:1 108:1 118:1 120:1 121:1 122:1 123:1 124:1 134:1 137:1 140:1 149:1 150:1 151:1 152:1 153:1 154:1 155:1 156:1 157:1 158:1 166:1 169:1 172:1 182:1 185:1 188:1 198:1 200:1 201:1 202:1 203:1 204:1 
0.13026023004676 72:1 73:1 85:1 86:1 87:1 88:1 89:1 90:1 91:1 92:1 93:1 94:1 101:1 105:1 106:1 109:1 118:1 120:1 121:1 122:1 124:1 134:1 137:1 138:1 139:1 149:1 150:1 151:1 152:1 153:1 154:1 155:1 156:1 157:1 158:1 166:1 169:1 170:1 171:1 182:1 184:1 185:1 186:1 187:1 188:1 198:1 201:1 202:1 205:1 
0.7227106417976112 73:1 86:1 87:1 88:1 89:1 90:1 91:1 92:1 93:1 101:1 102:1 109:1 118:1 119:1 121:1 124:1 134:1 136:1 137:1 138:1 149:1 150:1 151:1 152:1 153:1 154:1 155:1 156:1 157:1 166:1 168:1 169:1 170:1 171:1 182:1 183:1 185:1 187:1 188:1 198:1 201:1 
0.07506382831816386 72:1 73:1 85:1 86:1 87:1 88:1 89:1 90:1 91:1 92:1 93:1 94:1 102:1 103:1 104:1 105:1 106:1 107:1 108:1 119:1 121:1 124:1 126:1 134:1 135:1 137:1 138:1 140:1 141:1 149:1 150:1 151:1 152:1 154:1 156:1 157:1 166:1 168:1 169:1 170:1 171:1 173:1 182:1 183:1 184:1 186:1 187:1 188:1 198:1 201:1 203:1 204:1 
-3 86:1 87:1 88:1 89:1 91:1 92:1 93:1 102:1 105:1 107:1 108:1 109:1 117:1 118:1 119:1 120:1 121:1 122:1 123:1 134:1 137:1 139:1 149:1 150:1 151:1 152:1 153:1 154:1 155:1 156:1 157:1 166:1 169:1 171:1 182:1 183:1 184:1 185:1 187:1 188:1 
-3 73:1 74:1 75:1 76:1 86:1 88:1 89:1 90:1 91:1 92:1 93:1 94:1 102:1 104:1 105:1 106:1 107:1 108:1 109:1 117:1 118:1 119:1 120:1 121:1 122:1 123:1 124:1 134:1 136:1 137:1 138:1 139:1 140:1 149:1 150:1 151:1 152:1 153:1 154:1 155:1 156:1 157:1 158:1 166:1 168:1 169:1 170:1 171:1 172:1 182:1 184:1 185:1 186:1 187:1 188:1 201:1 202:1 203:1 204:1 
-3 73:1 74:1 75:1 77:1 86:1 87:1 89:1 91:1 93:1 102:1 105:1 107:1 108:1 117:1 118:1 119:1 120:1 121:1 122:1 123:1 134:1 137:1 139:1 149:1 150:1 151:1 152:1 153:1 154:1 155:1 156:1 157:1 166:1 169:1 171:1 182:1 183:1 185:1 187:1 201:1 203:1 
-3 86:1 87:1 88:1 89:1 93:1 102:1 105:1 108:1 117:1 118:1 119:1 120:1 121:1 122:1 123:1 134:1 137:1 149:1 150:1 151:1 152:1 153:1 154:1 155:1 156:1 157:1 166:1 169:1 182:1 183:1 184:1 185:1 201:1 
-3 86:1 87:1 88:1 89:1 93:1 102:1 105:1 108:1 117:1 118:1 119:1 120:1 121:1 122:1 123:1 134:1 137:1 149:1 150:1 151:1 152:1 153:1 154:1 155:1 156:1 157:1 166:1 169:1 182:1 183:1 184:1 185:1 201:1 
