svm_type c_svc
kernel_type rbf
gamma 0.015625
nr_class 2
total_sv 45
rho -1.24361
label -1 1
nr_sv 40 5
SV
0.1473305508128036 73:1 89:1 105:1 117:1 118:1 119:1 120:1 121:1 122:1 123:1 124:1 125:1 136:1 141:1 152:1 157:1 168:1 173:1 184:1 189:1 199:1 
0.04983512984770631 70:1 75:1 90:1 105:1 106:1 119:1 120:1 134:1 
0.1026915497969041 69:1 85:1 87:1 88:1 89:1 101:1 105:1 117:1 121:1 133:1 134:1 135:1 136:1 137:1 149:1 151:1 153:1 157:1 165:1 167:1 169:1 173:1 181:1 183:1 185:1 186:1 187:1 188:1 189:1 197:1 201:1 202:1 
0.5931496556747355 77:1 87:1 88:1 105:1 106:1 117:1 118:1 119:1 120:1 121:1 122:1 123:1 124:1 149:1 150:1 151:1 152:1 153:1 154:1 155:1 156:1 169:1 170:1 183:1 184:1 205:1 
0.03704771014512707 69:1 85:1 87:1 101:1 103:1 105:1 106:1 107:1 117:1 119:1 123:1 133:1 134:1 135:1 136:1 137:1 138:1 139:1 149:1 151:1 155:1 165:1 167:1 169:1 170:1 171:1 172:1 181:1 183:1 189:1 197:1 199:1 200:1 201:1 202:1 203:1 204:1 205:1 
0.006013130065065845 106:1 107:1 118:1 119:1 120:1 121:1 124:1 138:1 139:1 150:1 151:1 152:1 153:1 154:1 170:1 173:1 189:1 197:1 
0.1255988298092239 71:1 77:1 87:1 88:1 89:1 93:1 101:1 103:1 106:1 109:1 118:1 119:1 120:1 121:1 122:1 123:1 124:1 125:1 135:1 141:1 150:1 151:1 152:1 153:1 154:1 155:1 156:1 157:1 165:1 167:1 170:1 173:1 183:1 184:1 185:1 186:1 189:1 199:1 205:1 
0.6405782630393532 71:1 77:1 87:1 89:1 90:1 101:1 103:1 106:1 107:1 118:1 119:1 120:1 121:1 122:1 123:1 124:1 135:1 151:1 152:1 153:1 154:1 155:1 156:1 165:1 167:1 170:1 181:1 183:1 185:1 186:1 199:1 
0.8474132778766189 69:1 72:1 74:1 88:1 90:1 104:1 106:1 118:1 119:1 120:1 121:1 122:1 123:1 124:1 125:1 136:1 138:1 152:1 154:1 165:1 166:1 167:1 168:1 169:1 170:1 171:1 187:1 188:1 189:1 204:1 205:1 
0.733497955319201 88:1 89:1 105:1 106:1 122:1 123:1 
0.5673664010154851 87:1 88:1 104:1 105:1 106:1 121:1 122:1 154:1 155:1 168:1 169:1 170:1 183:1 184:1 
0.09009142107504987 87:1 103:1 105:1 119:1 122:1 135:1 151:1 154:1 167:1 169:1 182:1 183:1 184:1 
0.2822447650954882 88:1 103:1 105:1 119:1 122:1 135:1 151:1 167:1 169:1 182:1 183:1 184:1 
0.6069891698978223 72:1 87:1 88:1 101:1 102:1 103:1 117:1 119:1 120:1 121:1 122:1 123:1 124:1 125:1 135:1 137:1 139:1 151:1 153:1 155:1 167:1 169:1 171:1 183:1 185:1 187:1 198:1 199:1 203:1 
0.6688238866650256 117:1 118:1 119:1 120:1 121:1 122:1 123:1 124:1 125:1 141:1 189:1 203:1 204:1 205:1 
0.6568423783724735 73:1 101:1 102:1 103:1 104:1 105:1 106:1 107:1 108:1 120:1 125:1 141:1 151:1 155:1 157:1 167:1 168:1 169:1 170:1 173:1 189:1 204:1 205:1 
0.3242088049584378 71:1 92:1 101:1 102:1 103:1 104:1 105:1 106:1 107:1 108:1 119:1 120:1 121:1 122:1 123:1 124:1 149:1 150:1 151:1 152:1 153:1 154:1 155:1 156:1 157:1 173:1 189:1 203:1 204:1 
0.1707469246709522 71:1 72:1 73:1 74:1 75:1 76:1 77:1 93:1 101:1 102:1 103:1 104:1 105:1 106:1 107:1 108:1 109:1 119:1 120:1 121:1 122:1 123:1 124:1 125:1 149:1 150:1 151:1 152:1 153:1 154:1 155:1 156:1 157:1 203:1 204:1 205:1 
0.4231905503508116 71:1 73:1 87:1 89:1 103:1 105:1 117:1 118:1 119:1 120:1 121:1 122:1 123:1 124:1 125:1 126:1 135:1 137:1 151:1 153:1 156:1 165:1 167:1 169:1 181:1 183:1 184:1 185:1 188:1 198:1 201:1 202:1 203:1 204:1 
0.02595041686514878 73:1 74:1 87:1 89:1 103:1 105:1 117:1 118:1 119:1 120:1 121:1 122:1 123:1 124:1 125:1 135:1 137:1 151:1 153:1 165:1 167:1 168:1 169:1 172:1 181:1 182:1 185:1 186:1 187:1 188:1 198:1 201:1 
0.03925925204781886 73:1 87:1 89:1 105:1 117:1 118:1 119:1 120:1 121:1 122:1 123:1 124:1 125:1 137:1 153:1 165:1 166:1 167:1 168:1 169:1 172:1 182:1 185:1 188:1 201:1 
0.2456277401133621 75:1 78:1 87:1 89:1 91:1 93:1 94:1 103:1 105:1 107:1 109:1 120:1 123:1 124:1 125:1 139:1 140:1 151:1 152:1 153:1 154:1 155:1 156:1 171:1 173:1 183:1 184:1 187:1 189:1 198:1 199:1 203:1 206:1 
0.09893524067556621 77:1 120:1 121:1 122:1 123:1 124:1 168:1 169:1 170:1 171:1 172:1 181:1 
0.2757201750218959 77:1 85:1 87:1 91:1 93:1 101:1 103:1 104:1 105:1 106:1 107:1 109:1 117:1 119:1 121:1 123:1 125:1 133:1 135:1 137:1 139:1 141:1 149:1 151:1 153:1 155:1 157:1 165:1 167:1 168:1 169:1 170:1 171:1 173:1 181:1 183:1 184:1 186:1 187:1 189:1 197:1 205:1 
0.8173325166990829 69:1 88:1 89:1 105:1 106:1 118:1 119:1 120:1 121:1 122:1 123:1 124:1 150:1 151:1 152:1 153:1 154:1 155:1 156:1 170:1 184:1 185:1 197:1 
0.5219420445329976 77:1 85:1 88:1 89:1 93:1 105:1 106:1 109:1 118:1 119:1 120:1 121:1 122:1 123:1 124:1 125:1 141:1 150:1 151:1 152:1 153:1 154:1 155:1 156:1 157:1 169:1 170:1 173:1 181:1 184:1 185:1 186:1 189:1 205:1 
0.7741021575599296 77:1 88:1 89:1 105:1 106:1 118:1 119:1 120:1 121:1 122:1 123:1 124:1 150:1 151:1 152:1 153:1 154:1 155:1 156:1 169:1 170:1 181:1 183:1 184:1 
0.4848280278011036 69:1 77:1 90:1 93:1 106:1 109:1 118:1 119:1 120:1 121:1 122:1 123:1 124:1 125:1 138:1 141:1 150:1 151:1 152:1 153:1 154:1 155:1 156:1 157:1 170:1 173:1 186:1 189:1 197:1 202:1 205:1 
0.2330561702284903 71:1 73:1 74:1 75:1 77:1 78:1 87:1 93:1 103:1 107:1 108:1 119:1 120:1 121:1 122:1 125:1 133:1 134:1 135:1 141:1 151:1 157:1 167:1 183:1 184:1 185:1 199:1 201:1 202:1 203:1 
0.5058858618774121 69:1 77:1 85:1 87:1 88:1 89:1 93:1 105:1 106:1 107:1 108:1 109:1 120:1 121:1 122:1 123:1 124:1 125:1 133:1 136:1 137:1 138:1 139:1 140:1 141:1 152:1 153:1 154:1 155:1 156:1 157:1 169:1 170:1 171:1 172:1 173:1 181:1 183:1 184:1 185:1 189:1 197:1 205:1 
0.3330154977044926 69:1 76:1 77:1 85:1 87:1 88:1 89:1 90:1 93:1 103:1 104:1 105:1 106:1 107:1 108:1 109:1 118:1 119:1 120:1 121:1 122:1 123:1 124:1 125:1 133:1 135:1 139:1 151:1 152:1 153:1 154:1 155:1 156:1 157:1 166:1 167:1 171:1 172:1 181:1 183:1 185:1 186:1 187:1 188:1 189:1 197:1 201:1 202:1 205:1 
0.3113918787585086 75:1 76:1 77:1 91:1 93:1 106:1 109:1 120:1 121:1 125:1 133:1 134:1 135:1 141:1 152:1 153:1 157:1 169:1 170:1 173:1 186:1 187:1 189:1 203:1 205:1 
0.6267076337155926 91:1 106:1 119:1 120:1 121:1 133:1 134:1 152:1 169:1 170:1 186:1 187:1 203:1 204:1 
0.01611215011581881 72:1 73:1 85:1 86:1 87:1 88:1 89:1 90:1 91:1 92:1 93:1 94:1 101:1 119:1 120:1 121:1 122:1 123:1 124:1 125:1 126:1 135:1 138:1 141:1 151:1 154:1 157:1 167:1 170:1 173:1 183:1 186:1 189:1 199:1 200:1 201:1 202:1 203:1 204:1 205:1 206:1 
0.4926071139842495 72:1 73:1 85:1 86:1 87:1 102:1 103:1 104:1 105:1 106:1 107:1 108:1 109:1 119:1 121:1 122:1 123:1 124:1 135:1 151:1 152:1 153:1 154:1 155:1 156:1 157:1 167:1 169:1 170:1 171:1 172:1 205:1 
0.7630885856493384 73:1 85:1 86:1 87:1 88:1 89:1 90:1 91:1 92:1 93:1 101:1 109:1 118:1 119:1 120:1 121:1 122:1 123:1 124:1 149:1 167:1 168:1 169:1 170:1 183:1 189:1 197:1 
0.3727971748258268 72:1 87:1 89:1 91:1 102:1 103:1 105:1 107:1 117:1 118:1 121:1 122:1 123:1 124:1 125:1 133:1 137:1 139:1 150:1 153:1 154:1 155:1 156:1 157:1 166:1 167:1 169:1 171:1 174:1 183:1 185:1 187:1 189:1 190:1 200:1 
0.3842953454135992 71:1 72:1 85:1 86:1 87:1 88:1 89:1 90:1 91:1 92:1 93:1 106:1 117:1 119:1 120:1 121:1 122:1 123:1 124:1 125:1 133:1 135:1 149:1 150:1 151:1 152:1 153:1 154:1 165:1 167:1 173:1 181:1 183:1 184:1 185:1 186:1 187:1 188:1 189:1 197:1 
0.3164121522101832 71:1 72:1 73:1 85:1 86:1 102:1 103:1 104:1 105:1 106:1 107:1 109:1 110:1 119:1 120:1 121:1 122:1 123:1 124:1 140:1 141:1 150:1 151:1 152:1 153:1 154:1 155:1 157:1 166:1 167:1 168:1 169:1 170:1 171:1 172:1 174:1 190:1 197:1 198:1 199:1 200:1 201:1 202:1 203:1 204:1 205:1 
0.2872725097112966 72:1 73:1 85:1 86:1 87:1 88:1 89:1 90:1 91:1 92:1 93:1 94:1 101:1 110:1 119:1 120:1 121:1 122:1 123:1 124:1 125:1 135:1 138:1 140:1 141:1 150:1 151:1 152:1 153:1 154:1 155:1 156:1 157:1 167:1 170:1 173:1 183:1 186:1 189:1 199:1 200:1 201:1 202:1 205:1 
-3 69:1 85:1 87:1 88:1 93:1 101:1 103:1 105:1 106:1 109:1 117:1 119:1 120:1 121:1 122:1 123:1 124:1 125:1 133:1 135:1 141:1 149:1 151:1 152:1 153:1 154:1 155:1 156:1 157:1 165:1 167:1 169:1 170:1 173:1 181:1 183:1 184:1 185:1 186:1 187:1 188:1 189:1 197:1 
-3 71:1 72:1 73:1 74:1 75:1 76:1 77:1 78:1 87:1 89:1 90:1 94:1 103:1 106:1 107:1 110:1 119:1 120:1 121:1 122:1 123:1 124:1 125:1 151:1 152:1 153:1 154:1 155:1 156:1 157:1 158:1 167:1 169:1 170:1 174:1 183:1 187:1 190:1 199:1 200:1 201:1 202:1 203:1 204:1 205:1 
-3 87:1 89:1 103:1 105:1 106:1 107:1 119:1 120:1 121:1 122:1 123:1 124:1 125:1 151:1 152:1 153:1 154:1 155:1 156:1 157:1 167:1 169:1 170:1 183:1 189:1 
-3 88:1 105:1 106:1 119:1 120:1 121:1 122:1 123:1 124:1 125:1 169:1 170:1 189:1 197:1 
-3 88:1 105:1 106:1 119:1 120:1 121:1 122:1 123:1 124:1 125:1 169:1 170:1 189:1 197:1 
