svm_type c_svc
kernel_type rbf
gamma 0.015625
nr_class 2
total_sv 31
rho -1.56282
label -1 1
nr_sv 26 5
SV
0.4382793182489347 70:1 77:1 86:1 93:1 102:1 108:1 109:1 118:1 122:1 123:1 124:1 134:1 135:1 136:1 137:1 138:1 150:1 166:1 182:1 198:1 
0.2542746201098597 70:1 71:1 77:1 93:1 104:1 105:1 122:1 123:1 124:1 133:1 134:1 135:1 136:1 137:1 138:1 139:1 149:1 150:1 155:1 156:1 172:1 198:1 199:1 205:1 
0.02215205780810506 71:1 87:1 93:1 104:1 105:1 109:1 122:1 124:1 133:1 136:1 137:1 138:1 139:1 140:1 149:1 150:1 151:1 156:1 172:1 173:1 189:1 
0.04592401731979734 102:1 107:1 108:1 119:1 120:1 123:1 138:1 149:1 150:1 151:1 152:1 153:1 154:1 155:1 156:1 157:1 158:1 
0.04305055454277829 88:1 93:1 101:1 104:1 108:1 118:1 119:1 122:1 123:1 133:1 134:1 135:1 136:1 137:1 138:1 149:1 154:1 173:1 186:1 187:1 188:1 189:1 
0.3520169361328306 71:1 77:1 78:1 87:1 92:1 93:1 101:1 102:1 103:1 104:1 105:1 106:1 107:1 108:1 119:1 120:1 135:1 136:1 137:1 151:1 153:1 165:1 166:1 167:1 168:1 169:1 170:1 171:1 172:1 173:1 174:1 183:1 199:1 
0.6997246666089989 72:1 87:1 102:1 103:1 118:1 119:1 136:1 137:1 138:1 153:1 154:1 155:1 171:1 172:1 188:1 205:1 
1.125356758564307 77:1 85:1 86:1 92:1 93:1 101:1 102:1 103:1 104:1 108:1 120:1 121:1 122:1 123:1 137:1 138:1 139:1 152:1 153:1 155:1 156:1 165:1 166:1 167:1 172:1 188:1 189:1 205:1 
3 77:1 88:1 89:1 92:1 93:1 103:1 104:1 108:1 117:1 123:1 137:1 138:1 151:1 152:1 153:1 154:1 171:1 172:1 188:1 205:1 
1.685273669591265 73:1 77:1 78:1 87:1 88:1 93:1 101:1 102:1 103:1 108:1 109:1 117:1 118:1 123:1 124:1 134:1 137:1 138:1 150:1 151:1 152:1 153:1 154:1 155:1 166:1 167:1 171:1 172:1 188:1 189:1 205:1 206:1 
0.3286919398351124 77:1 88:1 89:1 92:1 93:1 103:1 104:1 108:1 117:1 118:1 119:1 123:1 135:1 137:1 138:1 151:1 152:1 153:1 154:1 167:1 171:1 172:1 188:1 205:1 
0.1306708820008974 74:1 77:1 93:1 102:1 103:1 104:1 105:1 106:1 108:1 118:1 120:1 136:1 149:1 152:1 165:1 168:1 184:1 202:1 
0.02235731286949081 72:1 86:1 87:1 88:1 89:1 93:1 101:1 104:1 118:1 119:1 120:1 136:1 137:1 138:1 141:1 149:1 150:1 151:1 152:1 153:1 154:1 155:1 156:1 173:1 189:1 203:1 204:1 205:1 
0.2155940772353091 72:1 86:1 88:1 92:1 93:1 101:1 102:1 103:1 104:1 105:1 106:1 107:1 108:1 109:1 119:1 120:1 121:1 122:1 123:1 125:1 135:1 136:1 137:1 138:1 141:1 149:1 150:1 151:1 152:1 157:1 165:1 167:1 168:1 169:1 172:1 173:1 181:1 182:1 183:1 184:1 185:1 186:1 187:1 188:1 189:1 200:1 203:1 204:1 205:1 
0.03839743234519304 71:1 73:1 86:1 87:1 89:1 101:1 102:1 103:1 105:1 118:1 121:1 125:1 134:1 135:1 136:1 137:1 138:1 139:1 140:1 141:1 150:1 151:1 153:1 169:1 184:1 185:1 186:1 187:1 201:1 
0.240888282868635 77:1 86:1 88:1 93:1 102:1 104:1 118:1 120:1 121:1 122:1 123:1 124:1 134:1 136:1 150:1 152:1 166:1 168:1 169:1 170:1 171:1 172:1 182:1 184:1 205:1 
1.040970401264781 77:1 92:1 93:1 107:1 108:1 121:1 122:1 123:1 133:1 134:1 135:1 136:1 137:1 153:1 154:1 171:1 172:1 188:1 189:1 205:1 
0.8114462836315651 77:1 85:1 86:1 87:1 88:1 89:1 90:1 91:1 93:1 123:1 124:1 134:1 135:1 136:1 137:1 138:1 151:1 152:1 153:1 171:1 181:1 188:1 197:1 
0.1213997438173926 76:1 77:1 85:1 86:1 87:1 88:1 89:1 90:1 91:1 92:1 101:1 102:1 103:1 105:1 122:1 123:1 125:1 139:1 140:1 149:1 150:1 151:1 152:1 153:1 154:1 155:1 169:1 170:1 171:1 187:1 188:1 205:1 
2.654223958970349 73:1 87:1 88:1 101:1 102:1 104:1 105:1 106:1 107:1 108:1 109:1 120:1 136:1 149:1 150:1 151:1 152:1 153:1 154:1 171:1 172:1 182:1 188:1 189:1 204:1 205:1 
0.3743994264968454 73:1 87:1 88:1 93:1 101:1 102:1 108:1 109:1 119:1 125:1 136:1 137:1 138:1 139:1 149:1 151:1 173:1 185:1 186:1 187:1 188:1 189:1 198:1 
0.436809961470239 73:1 86:1 87:1 88:1 89:1 90:1 91:1 92:1 93:1 101:1 102:1 120:1 121:1 125:1 138:1 139:1 149:1 150:1 151:1 152:1 153:1 168:1 171:1 183:1 184:1 188:1 205:1 
0.2958786754625434 72:1 73:1 87:1 88:1 89:1 90:1 91:1 92:1 93:1 101:1 102:1 107:1 109:1 119:1 122:1 123:1 125:1 136:1 137:1 149:1 150:1 151:1 153:1 169:1 170:1 171:1 172:1 185:1 199:1 201:1 205:1 
0.3461636357662742 73:1 87:1 88:1 93:1 101:1 102:1 103:1 109:1 117:1 121:1 122:1 123:1 124:1 125:1 149:1 150:1 151:1 152:1 153:1 199:1 
0.01295544147260857 87:1 88:1 89:1 90:1 91:1 92:1 93:1 101:1 102:1 106:1 121:1 135:1 136:1 137:1 138:1 139:1 140:1 141:1 149:1 150:1 153:1 169:1 173:1 185:1 189:1 198:1 
0.2630999455658901 73:1 86:1 87:1 88:1 89:1 90:1 91:1 92:1 93:1 101:1 102:1 119:1 120:1 121:1 137:1 138:1 139:1 140:1 149:1 150:1 151:1 152:1 153:1 154:1 170:1 171:1 184:1 185:1 188:1 201:1 202:1 205:1 
-3 77:1 88:1 93:1 101:1 102:1 103:1 104:1 108:1 120:1 123:1 136:1 137:1 138:1 149:1 150:1 151:1 153:1 154:1 171:1 172:1 188:1 
-3 73:1 77:1 78:1 86:1 87:1 88:1 89:1 93:1 101:1 102:1 103:1 105:1 108:1 109:1 121:1 123:1 124:1 136:1 137:1 138:1 149:1 150:1 151:1 152:1 153:1 154:1 171:1 172:1 188:1 189:1 205:1 
-3 77:1 86:1 87:1 88:1 89:1 92:1 93:1 102:1 103:1 105:1 107:1 108:1 121:1 122:1 123:1 135:1 136:1 137:1 138:1 149:1 150:1 151:1 152:1 153:1 154:1 171:1 172:1 188:1 189:1 205:1 
-3 77:1 88:1 93:1 101:1 102:1 103:1 104:1 108:1 120:1 123:1 136:1 137:1 138:1 150:1 151:1 153:1 171:1 172:1 188:1 205:1 
-3 77:1 88:1 93:1 101:1 102:1 103:1 104:1 108:1 120:1 123:1 136:1 137:1 138:1 150:1 151:1 153:1 171:1 172:1 188:1 205:1 
