svm_type c_svc
kernel_type rbf
gamma 0.015625
nr_class 2
total_sv 33
rho -1.3693
label -1 1
nr_sv 28 5
SV
1.866137943839792 69:1 85:1 101:1 103:1 104:1 117:1 118:1 119:1 120:1 133:1 136:1 149:1 152:1 157:1 165:1 168:1 171:1 172:1 173:1 181:1 184:1 185:1 186:1 187:1 188:1 197:1 
1.375208582962185 104:1 118:1 157:1 170:1 171:1 172:1 173:1 181:1 184:1 185:1 186:1 197:1 
0.4880937039229455 73:1 89:1 105:1 117:1 118:1 119:1 120:1 121:1 122:1 123:1 124:1 125:1 136:1 141:1 152:1 157:1 168:1 173:1 184:1 189:1 199:1 
0.3699647154065774 70:1 77:1 78:1 86:1 92:1 93:1 102:1 105:1 106:1 107:1 108:1 118:1 119:1 120:1 121:1 122:1 134:1 141:1 150:1 157:1 166:1 173:1 182:1 185:1 186:1 187:1 188:1 189:1 198:1 
0.3093562669642305 118:1 119:1 120:1 121:1 122:1 124:1 133:1 138:1 140:1 154:1 156:1 157:1 166:1 170:1 171:1 182:1 186:1 200:1 
0.342821065660421 71:1 72:1 77:1 89:1 90:1 91:1 93:1 109:1 117:1 118:1 119:1 120:1 121:1 122:1 123:1 124:1 125:1 141:1 149:1 150:1 151:1 152:1 153:1 154:1 155:1 156:1 157:1 173:1 185:1 186:1 187:1 189:1 199:1 200:1 205:1 
0.03609876066033714 71:1 75:1 77:1 87:1 91:1 93:1 103:1 106:1 109:1 117:1 118:1 119:1 120:1 121:1 122:1 123:1 125:1 141:1 149:1 150:1 151:1 152:1 153:1 154:1 155:1 157:1 168:1 171:1 173:1 183:1 187:1 189:1 199:1 203:1 205:1 
0.2331391349003038 71:1 77:1 87:1 89:1 90:1 101:1 103:1 106:1 107:1 118:1 119:1 120:1 121:1 122:1 123:1 124:1 135:1 151:1 152:1 153:1 154:1 155:1 156:1 165:1 167:1 170:1 181:1 183:1 185:1 186:1 199:1 
0.2922109824181741 85:1 102:1 118:1 119:1 136:1 137:1 138:1 139:1 140:1 141:1 151:1 166:1 181:1 
0.5541828554894354 70:1 71:1 72:1 73:1 74:1 78:1 90:1 93:1 105:1 106:1 107:1 108:1 117:1 118:1 119:1 120:1 121:1 122:1 170:1 186:1 198:1 199:1 200:1 201:1 202:1 
0.03796677517541443 71:1 75:1 85:1 86:1 87:1 89:1 90:1 91:1 102:1 103:1 104:1 105:1 106:1 107:1 117:1 118:1 119:1 121:1 122:1 123:1 135:1 137:1 138:1 139:1 140:1 141:1 149:1 150:1 151:1 153:1 154:1 155:1 166:1 167:1 168:1 169:1 170:1 171:1 181:1 182:1 183:1 185:1 186:1 187:1 199:1 203:1 
0.007596271761597563 71:1 86:1 87:1 102:1 117:1 118:1 119:1 120:1 136:1 137:1 138:1 154:1 155:1 171:1 172:1 188:1 
0.07455628139525065 73:1 86:1 89:1 102:1 105:1 118:1 119:1 120:1 121:1 122:1 123:1 124:1 134:1 137:1 140:1 141:1 149:1 153:1 157:1 165:1 169:1 173:1 181:1 189:1 200:1 203:1 204:1 205:1 
0.1968548089713434 117:1 118:1 119:1 120:1 121:1 122:1 123:1 124:1 125:1 141:1 189:1 203:1 204:1 205:1 
0.1989473870419015 75:1 91:1 107:1 119:1 120:1 122:1 138:1 140:1 153:1 173:1 181:1 182:1 183:1 184:1 185:1 186:1 187:1 188:1 
1.620886997911194 72:1 85:1 101:1 105:1 106:1 117:1 133:1 141:1 149:1 157:1 165:1 172:1 181:1 186:1 187:1 188:1 200:1 
0.2319715394168922 72:1 86:1 88:1 89:1 90:1 102:1 104:1 105:1 106:1 118:1 120:1 122:1 134:1 136:1 138:1 141:1 142:1 150:1 152:1 154:1 158:1 166:1 168:1 170:1 173:1 182:1 184:1 186:1 187:1 188:1 189:1 200:1 
1.289660806425959 72:1 85:1 88:1 101:1 104:1 105:1 106:1 120:1 122:1 136:1 138:1 141:1 152:1 154:1 157:1 168:1 170:1 171:1 172:1 173:1 181:1 184:1 186:1 200:1 
0.07166426973952335 105:1 120:1 141:1 157:1 165:1 169:1 170:1 171:1 172:1 185:1 199:1 
3 105:1 120:1 141:1 157:1 165:1 169:1 170:1 171:1 172:1 185:1 199:1 
0.6401960630445197 77:1 85:1 101:1 105:1 106:1 117:1 118:1 119:1 122:1 133:1 138:1 149:1 154:1 165:1 168:1 169:1 170:1 171:1 172:1 181:1 
0.1199304592520702 77:1 105:1 106:1 118:1 119:1 168:1 169:1 181:1 
0.9508460867192264 73:1 77:1 89:1 93:1 105:1 106:1 107:1 108:1 109:1 118:1 119:1 120:1 121:1 125:1 137:1 141:1 153:1 157:1 169:1 173:1 185:1 186:1 187:1 188:1 189:1 205:1 
0.2222375379698699 73:1 88:1 104:1 106:1 118:1 119:1 120:1 122:1 133:1 136:1 137:1 138:1 141:1 150:1 151:1 154:1 156:1 157:1 167:1 168:1 170:1 171:1 172:1 184:1 186:1 201:1 
0.275382959167028 72:1 86:1 87:1 88:1 89:1 90:1 91:1 92:1 93:1 101:1 102:1 118:1 119:1 120:1 121:1 122:1 123:1 124:1 133:1 139:1 141:1 149:1 150:1 154:1 157:1 167:1 172:1 181:1 182:1 183:1 184:1 185:1 186:1 187:1 204:1 
0.007787424417677593 72:1 86:1 87:1 88:1 89:1 90:1 91:1 92:1 93:1 101:1 118:1 119:1 120:1 136:1 137:1 138:1 139:1 140:1 141:1 149:1 154:1 157:1 170:1 173:1 185:1 189:1 198:1 199:1 200:1 201:1 204:1 205:1 
0.07203195480189342 72:1 73:1 85:1 86:1 87:1 88:1 89:1 90:1 91:1 92:1 93:1 94:1 101:1 106:1 107:1 117:1 118:1 119:1 120:1 121:1 122:1 124:1 133:1 136:1 138:1 141:1 149:1 152:1 155:1 157:1 165:1 168:1 169:1 171:1 173:1 181:1 184:1 185:1 186:1 187:1 189:1 190:1 197:1 198:1 199:1 200:1 202:1 
0.114268364564237 72:1 73:1 85:1 86:1 87:1 88:1 89:1 90:1 91:1 92:1 93:1 94:1 101:1 107:1 110:1 117:1 118:1 119:1 120:1 121:1 123:1 125:1 133:1 137:1 139:1 140:1 141:1 149:1 153:1 154:1 155:1 156:1 165:1 169:1 171:1 172:1 173:1 181:1 185:1 187:1 189:1 201:1 203:1 206:1 
-3 72:1 85:1 101:1 106:1 117:1 118:1 119:1 120:1 121:1 133:1 141:1 149:1 157:1 165:1 171:1 172:1 181:1 185:1 186:1 
-3 72:1 88:1 90:1 103:1 104:1 105:1 106:1 118:1 119:1 120:1 122:1 136:1 138:1 141:1 142:1 152:1 154:1 158:1 168:1 170:1 173:1 184:1 186:1 187:1 188:1 189:1 200:1 
-3 71:1 85:1 101:1 105:1 106:1 117:1 118:1 119:1 120:1 121:1 122:1 133:1 137:1 141:1 149:1 153:1 157:1 165:1 169:1 170:1 171:1 172:1 173:1 181:1 185:1 186:1 187:1 199:1 
-3 105:1 118:1 119:1 120:1 141:1 157:1 171:1 172:1 173:1 181:1 185:1 186:1 199:1 
-3 105:1 118:1 119:1 120:1 141:1 157:1 171:1 172:1 173:1 181:1 185:1 186:1 199:1 
