svm_type c_svc
kernel_type rbf
gamma 0.015625
nr_class 2
total_sv 45
rho -1.37804
label -1 1
nr_sv 40 5
SV
0.7861226889023261 71:1 77:1 78:1 87:1 88:1 93:1 103:1 104:1 105:1 106:1 109:1 119:1 122:1 123:1 124:1 135:1 139:1 140:1 149:1 150:1 151:1 152:1 153:1 154:1 156:1 167:1 173:1 183:1 189:1 199:1 205:1 
0.08264781083906908 71:1 77:1 87:1 88:1 93:1 103:1 104:1 105:1 106:1 109:1 119:1 122:1 123:1 124:1 135:1 137:1 138:1 139:1 140:1 149:1 150:1 151:1 152:1 153:1 156:1 167:1 173:1 183:1 189:1 199:1 205:1 
0.2109415005609901 71:1 87:1 93:1 104:1 105:1 109:1 122:1 124:1 133:1 136:1 137:1 138:1 139:1 140:1 149:1 150:1 151:1 156:1 172:1 173:1 189:1 
0.4762158350763543 76:1 88:1 91:1 93:1 105:1 106:1 120:1 124:1 135:1 136:1 137:1 138:1 139:1 140:1 150:1 151:1 152:1 165:1 170:1 181:1 184:1 186:1 187:1 203:1 
0.09614702090106458 77:1 90:1 93:1 106:1 117:1 118:1 119:1 120:1 121:1 122:1 123:1 124:1 149:1 150:1 151:1 152:1 153:1 154:1 155:1 171:1 183:1 187:1 199:1 202:1 203:1 
0.4388780906680183 72:1 73:1 74:1 88:1 90:1 93:1 104:1 106:1 107:1 108:1 109:1 118:1 119:1 120:1 121:1 122:1 123:1 150:1 151:1 152:1 153:1 154:1 155:1 156:1 157:1 158:1 168:1 170:1 184:1 186:1 200:1 201:1 202:1 203:1 
0.0881986078136346 73:1 86:1 102:1 103:1 104:1 105:1 106:1 107:1 108:1 109:1 118:1 124:1 133:1 134:1 135:1 136:1 138:1 139:1 140:1 150:1 155:1 156:1 166:1 167:1 170:1 172:1 182:1 183:1 186:1 189:1 198:1 
0.05130870412721007 72:1 75:1 88:1 91:1 104:1 107:1 120:1 123:1 136:1 139:1 152:1 155:1 182:1 183:1 184:1 185:1 186:1 187:1 188:1 189:1 204:1 205:1 206:1 
0.007467710236214831 74:1 75:1 76:1 86:1 88:1 90:1 92:1 102:1 104:1 106:1 108:1 118:1 120:1 122:1 124:1 133:1 134:1 135:1 136:1 137:1 138:1 139:1 140:1 141:1 142:1 150:1 152:1 154:1 156:1 166:1 168:1 170:1 172:1 182:1 184:1 186:1 188:1 202:1 203:1 204:1 
0.3335436328135945 73:1 74:1 75:1 76:1 86:1 88:1 89:1 90:1 91:1 92:1 93:1 94:1 102:1 104:1 105:1 106:1 107:1 108:1 109:1 117:1 118:1 119:1 120:1 121:1 122:1 123:1 124:1 134:1 136:1 137:1 138:1 139:1 140:1 149:1 150:1 151:1 152:1 153:1 154:1 155:1 156:1 157:1 158:1 166:1 168:1 169:1 170:1 171:1 172:1 182:1 184:1 185:1 186:1 187:1 188:1 201:1 202:1 203:1 204:1 
0.04311397704050999 71:1 74:1 76:1 86:1 87:1 90:1 92:1 103:1 104:1 105:1 106:1 108:1 117:1 118:1 119:1 121:1 122:1 124:1 135:1 138:1 139:1 140:1 141:1 142:1 149:1 150:1 151:1 153:1 154:1 156:1 167:1 168:1 169:1 170:1 172:1 182:1 183:1 186:1 188:1 199:1 202:1 204:1 
0.3363848792328162 71:1 74:1 87:1 90:1 93:1 103:1 106:1 107:1 108:1 117:1 119:1 122:1 135:1 136:1 137:1 138:1 151:1 154:1 165:1 167:1 170:1 171:1 172:1 173:1 183:1 186:1 199:1 202:1 
0.1522751232527786 75:1 76:1 77:1 94:1 104:1 109:1 120:1 121:1 124:1 125:1 137:1 138:1 139:1 140:1 150:1 151:1 152:1 153:1 154:1 165:1 171:1 187:1 188:1 204:1 
0.279162282038773 77:1 78:1 86:1 87:1 93:1 104:1 105:1 109:1 117:1 122:1 123:1 124:1 134:1 135:1 139:1 140:1 151:1 154:1 155:1 156:1 168:1 169:1 173:1 182:1 183:1 189:1 205:1 206:1 
1.898038370410517 74:1 90:1 101:1 102:1 103:1 104:1 105:1 106:1 122:1 133:1 138:1 149:1 152:1 153:1 154:1 155:1 165:1 170:1 172:1 181:1 186:1 188:1 189:1 202:1 205:1 
0.1410923986758253 102:1 103:1 104:1 105:1 106:1 149:1 152:1 153:1 154:1 155:1 165:1 172:1 188:1 189:1 202:1 
0.4019490789830589 77:1 88:1 90:1 93:1 103:1 104:1 106:1 109:1 117:1 118:1 120:1 121:1 122:1 125:1 133:1 136:1 138:1 140:1 151:1 152:1 154:1 155:1 156:1 166:1 167:1 170:1 171:1 182:1 185:1 186:1 
0.4687315441299452 74:1 75:1 76:1 77:1 87:1 88:1 89:1 93:1 102:1 103:1 109:1 125:1 136:1 139:1 141:1 150:1 151:1 152:1 153:1 154:1 155:1 157:1 168:1 171:1 173:1 182:1 183:1 184:1 185:1 186:1 187:1 188:1 189:1 203:1 204:1 205:1 
0.04839017494308515 72:1 85:1 88:1 90:1 92:1 93:1 102:1 103:1 105:1 106:1 108:1 109:1 118:1 119:1 120:1 122:1 123:1 125:1 133:1 136:1 138:1 139:1 141:1 150:1 151:1 154:1 157:1 168:1 170:1 173:1 182:1 183:1 184:1 186:1 189:1 201:1 203:1 204:1 
0.1003449704424153 73:1 85:1 88:1 90:1 92:1 93:1 102:1 103:1 105:1 106:1 108:1 109:1 118:1 119:1 121:1 122:1 123:1 125:1 133:1 134:1 136:1 138:1 139:1 141:1 150:1 151:1 152:1 154:1 155:1 157:1 166:1 168:1 170:1 173:1 182:1 183:1 185:1 186:1 189:1 201:1 204:1 205:1 
0.07236331097988978 70:1 85:1 86:1 87:1 88:1 89:1 90:1 92:1 93:1 101:1 103:1 104:1 105:1 106:1 108:1 109:1 119:1 121:1 122:1 123:1 125:1 137:1 138:1 139:1 141:1 149:1 150:1 151:1 152:1 154:1 157:1 168:1 170:1 173:1 182:1 184:1 186:1 189:1 199:1 203:1 204:1 
0.6456202804904764 70:1 71:1 73:1 77:1 85:1 87:1 88:1 90:1 92:1 93:1 102:1 104:1 106:1 108:1 118:1 119:1 121:1 122:1 123:1 124:1 134:1 137:1 138:1 139:1 149:1 150:1 151:1 152:1 154:1 155:1 168:1 170:1 173:1 182:1 184:1 189:1 198:1 199:1 204:1 205:1 
0.2776430936922845 70:1 72:1 74:1 76:1 86:1 87:1 88:1 90:1 92:1 102:1 103:1 104:1 106:1 108:1 109:1 118:1 120:1 122:1 124:1 126:1 133:1 134:1 135:1 136:1 137:1 138:1 139:1 140:1 141:1 150:1 152:1 154:1 156:1 166:1 167:1 168:1 170:1 172:1 182:1 183:1 184:1 186:1 188:1 198:1 202:1 
0.464263402171671 77:1 88:1 89:1 105:1 106:1 118:1 119:1 120:1 121:1 122:1 123:1 124:1 150:1 151:1 152:1 153:1 154:1 155:1 156:1 169:1 170:1 181:1 183:1 184:1 
0.3653883481110866 74:1 77:1 90:1 91:1 93:1 105:1 106:1 107:1 109:1 119:1 121:1 123:1 125:1 135:1 137:1 139:1 141:1 149:1 150:1 151:1 152:1 153:1 155:1 157:1 167:1 170:1 171:1 173:1 183:1 186:1 187:1 189:1 198:1 201:1 202:1 205:1 
1.029706445273425 69:1 77:1 90:1 93:1 106:1 109:1 118:1 119:1 120:1 121:1 122:1 123:1 124:1 125:1 138:1 141:1 150:1 151:1 152:1 153:1 154:1 155:1 156:1 157:1 170:1 173:1 186:1 189:1 197:1 202:1 205:1 
1.190052412432285 70:1 76:1 86:1 91:1 93:1 102:1 104:1 105:1 107:1 118:1 119:1 122:1 124:1 133:1 134:1 137:1 139:1 150:1 152:1 155:1 166:1 169:1 170:1 172:1 182:1 185:1 188:1 198:1 
0.4657451045978477 70:1 74:1 75:1 78:1 86:1 87:1 88:1 89:1 90:1 93:1 102:1 103:1 106:1 107:1 108:1 109:1 118:1 119:1 122:1 123:1 133:1 134:1 135:1 138:1 139:1 150:1 151:1 154:1 155:1 166:1 167:1 170:1 171:1 172:1 173:1 182:1 183:1 184:1 185:1 186:1 198:1 202:1 203:1 205:1 
0.5200637825888214 74:1 87:1 90:1 91:1 92:1 93:1 102:1 106:1 108:1 119:1 122:1 124:1 133:1 135:1 136:1 137:1 138:1 140:1 151:1 152:1 153:1 154:1 156:1 167:1 170:1 172:1 183:1 186:1 187:1 188:1 189:1 199:1 200:1 201:1 202:1 
1.153035744775909 77:1 86:1 87:1 88:1 89:1 90:1 91:1 93:1 109:1 124:1 134:1 136:1 137:1 138:1 139:1 151:1 152:1 153:1 154:1 171:1 172:1 188:1 205:1 
0.4830886778951224 74:1 75:1 76:1 77:1 109:1 124:1 125:1 135:1 136:1 137:1 138:1 139:1 151:1 152:1 153:1 154:1 171:1 172:1 188:1 189:1 205:1 206:1 
0.1529417454392988 74:1 88:1 102:1 103:1 104:1 105:1 106:1 107:1 108:1 109:1 117:1 149:1 150:1 151:1 152:1 153:1 154:1 155:1 156:1 157:1 168:1 184:1 185:1 201:1 202:1 
0.1297683301451656 72:1 73:1 87:1 88:1 93:1 101:1 102:1 103:1 104:1 105:1 106:1 107:1 108:1 109:1 117:1 124:1 125:1 137:1 138:1 139:1 140:1 150:1 151:1 152:1 153:1 156:1 165:1 166:1 172:1 185:1 186:1 187:1 188:1 203:1 204:1 205:1 
0.1280305864329619 73:1 87:1 88:1 89:1 90:1 91:1 92:1 93:1 101:1 102:1 103:1 109:1 124:1 137:1 138:1 140:1 150:1 151:1 152:1 156:1 169:1 172:1 186:1 187:1 188:1 204:1 205:1 
0.2531827401785936 72:1 74:1 88:1 90:1 103:1 106:1 118:1 122:1 133:1 134:1 136:1 137:1 138:1 139:1 140:1 141:1 150:1 151:1 154:1 167:1 170:1 184:1 186:1 200:1 202:1 
0.01236028501909469 72:1 86:1 87:1 88:1 89:1 90:1 91:1 92:1 93:1 101:1 102:1 109:1 119:1 125:1 133:1 136:1 137:1 138:1 140:1 150:1 151:1 154:1 155:1 156:1 169:1 170:1 171:1 172:1 182:1 183:1 184:1 188:1 205:1 
0.04134355920785206 73:1 74:1 88:1 90:1 93:1 103:1 106:1 108:1 109:1 118:1 122:1 123:1 125:1 133:1 138:1 141:1 150:1 151:1 152:1 154:1 155:1 157:1 168:1 170:1 172:1 184:1 186:1 189:1 200:1 202:1 
0.5139698016874077 73:1 87:1 88:1 89:1 90:1 91:1 92:1 93:1 101:1 102:1 106:1 119:1 120:1 121:1 122:1 125:1 138:1 139:1 140:1 149:1 150:1 151:1 152:1 153:1 154:1 170:1 171:1 172:1 182:1 183:1 184:1 185:1 186:1 188:1 189:1 202:1 205:1 
0.2630884886836636 72:1 73:1 85:1 86:1 87:1 88:1 89:1 90:1 91:1 92:1 93:1 101:1 102:1 109:1 118:1 119:1 121:1 122:1 125:1 134:1 138:1 139:1 140:1 149:1 150:1 151:1 152:1 153:1 154:1 155:1 166:1 170:1 171:1 172:1 182:1 186:1 187:1 188:1 189:1 198:1 202:1 203:1 205:1 
0.07674719011845116 72:1 73:1 85:1 86:1 87:1 88:1 89:1 90:1 91:1 92:1 93:1 94:1 101:1 103:1 106:1 118:1 119:1 120:1 121:1 122:1 123:1 124:1 133:1 134:1 135:1 138:1 140:1 150:1 151:1 152:1 154:1 155:1 156:1 166:1 167:1 170:1 172:1 174:1 182:1 183:1 186:1 188:1 189:1 198:1 199:1 200:1 202:1 204:1 
-3 74:1 77:1 85:1 88:1 90:1 93:1 103:1 104:1 106:1 119:1 121:1 122:1 124:1 134:1 137:1 138:1 139:1 150:1 151:1 152:1 154:1 155:1 170:1 172:1 182:1 183:1 186:1 188:1 197:1 202:1 205:1 
-3 75:1 78:1 87:1 89:1 91:1 93:1 94:1 103:1 105:1 107:1 109:1 120:1 123:1 124:1 125:1 139:1 140:1 151:1 152:1 153:1 154:1 155:1 156:1 171:1 173:1 183:1 184:1 187:1 189:1 198:1 199:1 203:1 206:1 
-3 74:1 77:1 85:1 88:1 90:1 93:1 102:1 103:1 104:1 105:1 106:1 109:1 119:1 121:1 122:1 124:1 138:1 139:1 150:1 151:1 152:1 153:1 154:1 155:1 156:1 170:1 172:1 182:1 183:1 186:1 188:1 189:1 198:1 202:1 205:1 
-2.679357731009509 74:1 88:1 90:1 93:1 102:1 104:1 105:1 106:1 109:1 119:1 122:1 124:1 136:1 137:1 138:1 139:1 150:1 151:1 152:1 154:1 155:1 170:1 172:1 182:1 186:1 188:1 202:1 
-3 74:1 88:1 90:1 93:1 102:1 104:1 105:1 106:1 109:1 119:1 122:1 124:1 136:1 137:1 138:1 139:1 150:1 151:1 152:1 154:1 155:1 170:1 172:1 182:1 186:1 188:1 202:1 
