svm_type c_svc
kernel_type rbf
gamma 0.015625
nr_class 2
total_sv 32
rho -1.49197
label -1 1
nr_sv 27 5
SV
0.1232180446760653 93:1 108:1 109:1 123:1 125:1 133:1 134:1 135:1 136:1 137:1 138:1 149:1 165:1 172:1 181:1 183:1 188:1 189:1 201:1 
0.0812301562986425 77:1 85:1 92:1 102:1 103:1 107:1 108:1 121:1 122:1 133:1 134:1 135:1 136:1 137:1 153:1 170:1 171:1 173:1 188:1 189:1 199:1 200:1 201:1 202:1 
1.608512868113345 71:1 77:1 87:1 90:1 93:1 103:1 106:1 109:1 117:1 119:1 122:1 125:1 133:1 134:1 135:1 136:1 137:1 138:1 139:1 140:1 141:1 151:1 154:1 157:1 167:1 170:1 173:1 183:1 186:1 189:1 199:1 202:1 205:1 
0.3342315346523757 71:1 74:1 87:1 90:1 93:1 103:1 106:1 107:1 108:1 117:1 119:1 122:1 135:1 136:1 137:1 138:1 151:1 154:1 165:1 167:1 170:1 171:1 172:1 173:1 183:1 186:1 199:1 202:1 
0.398699508355183 77:1 86:1 87:1 93:1 103:1 104:1 108:1 117:1 121:1 122:1 123:1 124:1 134:1 135:1 138:1 139:1 153:1 154:1 155:1 156:1 166:1 167:1 168:1 172:1 182:1 189:1 205:1 
0.1765115495541001 74:1 76:1 90:1 91:1 92:1 105:1 106:1 107:1 108:1 134:1 135:1 136:1 137:1 138:1 139:1 140:1 141:1 142:1 149:1 165:1 169:1 170:1 171:1 172:1 181:1 186:1 188:1 197:1 201:1 203:1 204:1 
0.7298050644162086 77:1 87:1 90:1 103:1 106:1 108:1 119:1 122:1 123:1 134:1 135:1 136:1 137:1 138:1 139:1 140:1 141:1 149:1 151:1 154:1 155:1 165:1 167:1 168:1 169:1 170:1 172:1 181:1 183:1 186:1 189:1 205:1 
1.622148431860041 85:1 92:1 93:1 101:1 102:1 103:1 107:1 108:1 109:1 117:1 123:1 125:1 133:1 138:1 141:1 149:1 152:1 153:1 154:1 157:1 165:1 166:1 167:1 169:1 173:1 181:1 182:1 189:1 203:1 204:1 
0.09080544445608554 86:1 89:1 92:1 93:1 103:1 104:1 105:1 107:1 109:1 121:1 123:1 125:1 133:1 137:1 138:1 141:1 149:1 152:1 153:1 154:1 157:1 165:1 166:1 167:1 169:1 173:1 181:1 182:1 185:1 189:1 204:1 205:1 
0.1792476708209945 85:1 86:1 87:1 88:1 92:1 93:1 101:1 102:1 107:1 108:1 109:1 117:1 118:1 123:1 125:1 133:1 134:1 141:1 149:1 150:1 154:1 157:1 165:1 166:1 170:1 173:1 181:1 182:1 183:1 189:1 203:1 204:1 
1.194909384133831 74:1 85:1 86:1 87:1 88:1 89:1 90:1 92:1 93:1 101:1 102:1 105:1 106:1 107:1 108:1 109:1 117:1 118:1 121:1 122:1 123:1 125:1 133:1 134:1 137:1 138:1 139:1 141:1 149:1 150:1 153:1 154:1 155:1 157:1 165:1 166:1 167:1 169:1 170:1 173:1 181:1 185:1 186:1 189:1 204:1 205:1 
0.7675819508492755 69:1 72:1 85:1 87:1 90:1 92:1 93:1 101:1 102:1 103:1 104:1 106:1 107:1 108:1 109:1 117:1 119:1 122:1 123:1 125:1 133:1 135:1 138:1 139:1 141:1 149:1 151:1 154:1 157:1 165:1 167:1 170:1 173:1 181:1 183:1 184:1 186:1 189:1 197:1 204:1 205:1 
0.4686977254045344 69:1 73:1 77:1 86:1 88:1 90:1 92:1 93:1 106:1 108:1 118:1 119:1 121:1 122:1 123:1 124:1 133:1 134:1 136:1 138:1 139:1 150:1 151:1 152:1 154:1 155:1 166:1 168:1 170:1 173:1 182:1 184:1 189:1 198:1 199:1 201:1 204:1 205:1 
0.2523048554926069 73:1 85:1 88:1 90:1 92:1 93:1 102:1 103:1 105:1 106:1 108:1 109:1 118:1 119:1 121:1 122:1 123:1 125:1 133:1 134:1 136:1 138:1 139:1 141:1 150:1 151:1 152:1 154:1 155:1 157:1 166:1 168:1 170:1 173:1 182:1 183:1 185:1 186:1 189:1 201:1 204:1 205:1 
0.1021776712805154 71:1 73:1 75:1 87:1 89:1 91:1 93:1 101:1 102:1 103:1 105:1 106:1 107:1 108:1 109:1 117:1 121:1 122:1 123:1 133:1 134:1 135:1 136:1 137:1 139:1 150:1 165:1 166:1 167:1 168:1 169:1 170:1 171:1 172:1 173:1 189:1 203:1 204:1 205:1 
0.3756255656089115 75:1 87:1 91:1 102:1 103:1 109:1 117:1 120:1 121:1 133:1 134:1 135:1 136:1 149:1 165:1 173:1 189:1 203:1 204:1 205:1 
0.7050652742185682 70:1 87:1 89:1 90:1 92:1 93:1 101:1 102:1 103:1 104:1 105:1 106:1 108:1 109:1 118:1 119:1 121:1 122:1 123:1 125:1 133:1 134:1 135:1 136:1 138:1 139:1 141:1 149:1 154:1 157:1 165:1 167:1 168:1 169:1 170:1 173:1 181:1 185:1 186:1 189:1 197:1 198:1 199:1 203:1 204:1 
2.381616026793675 70:1 72:1 74:1 86:1 89:1 90:1 92:1 93:1 101:1 102:1 103:1 104:1 105:1 106:1 108:1 109:1 118:1 119:1 121:1 122:1 123:1 125:1 133:1 134:1 135:1 136:1 138:1 139:1 141:1 154:1 157:1 165:1 170:1 173:1 181:1 189:1 204:1 205:1 
0.1372635511526577 87:1 88:1 89:1 90:1 92:1 93:1 103:1 106:1 108:1 109:1 119:1 122:1 123:1 125:1 133:1 134:1 135:1 136:1 137:1 138:1 139:1 141:1 154:1 157:1 165:1 170:1 173:1 183:1 184:1 185:1 186:1 189:1 203:1 204:1 
0.3361960014283559 70:1 74:1 87:1 88:1 89:1 90:1 92:1 93:1 106:1 108:1 109:1 122:1 123:1 125:1 133:1 134:1 135:1 136:1 137:1 138:1 139:1 141:1 154:1 157:1 165:1 170:1 173:1 182:1 183:1 184:1 185:1 186:1 189:1 205:1 
0.4125075761954498 70:1 71:1 72:1 73:1 77:1 86:1 87:1 88:1 90:1 92:1 93:1 103:1 104:1 106:1 108:1 117:1 119:1 120:1 122:1 123:1 124:1 134:1 135:1 136:1 137:1 138:1 139:1 150:1 151:1 154:1 155:1 166:1 167:1 170:1 173:1 183:1 184:1 185:1 189:1 197:1 199:1 204:1 205:1 
0.4145495387662709 73:1 74:1 85:1 86:1 87:1 88:1 90:1 92:1 93:1 101:1 106:1 108:1 109:1 117:1 122:1 123:1 125:1 133:1 136:1 137:1 138:1 139:1 141:1 149:1 150:1 151:1 152:1 154:1 157:1 165:1 167:1 170:1 173:1 181:1 183:1 184:1 185:1 189:1 197:1 199:1 205:1 
0.1844927851458481 70:1 73:1 74:1 86:1 87:1 88:1 90:1 92:1 93:1 101:1 103:1 105:1 106:1 108:1 109:1 119:1 120:1 121:1 122:1 123:1 125:1 135:1 138:1 139:1 141:1 150:1 152:1 154:1 157:1 165:1 167:1 170:1 173:1 182:1 183:1 185:1 186:1 189:1 199:1 204:1 205:1 
0.02332264653746894 70:1 85:1 87:1 88:1 90:1 92:1 93:1 103:1 106:1 107:1 108:1 109:1 118:1 119:1 122:1 123:1 125:1 134:1 135:1 138:1 139:1 141:1 149:1 150:1 151:1 152:1 154:1 155:1 157:1 166:1 167:1 170:1 173:1 182:1 183:1 186:1 189:1 198:1 201:1 204:1 205:1 
0.7458714380721255 77:1 85:1 90:1 93:1 101:1 106:1 109:1 117:1 120:1 121:1 122:1 124:1 125:1 133:1 134:1 135:1 136:1 137:1 138:1 139:1 140:1 141:1 149:1 150:1 155:1 157:1 165:1 166:1 169:1 170:1 173:1 181:1 184:1 185:1 186:1 189:1 205:1 
0.2058211820101436 77:1 92:1 93:1 108:1 122:1 123:1 133:1 134:1 135:1 136:1 138:1 139:1 150:1 155:1 156:1 166:1 167:1 172:1 182:1 183:1 188:1 189:1 200:1 205:1 
0.1351345015741517 72:1 73:1 85:1 86:1 87:1 88:1 89:1 90:1 91:1 92:1 93:1 101:1 117:1 120:1 121:1 122:1 123:1 124:1 125:1 133:1 134:1 135:1 136:1 137:1 138:1 139:1 149:1 153:1 154:1 155:1 165:1 166:1 167:1 168:1 169:1 170:1 181:1 186:1 187:1 189:1 197:1 200:1 201:1 202:1 203:1 204:1 205:1 
-3 71:1 85:1 86:1 90:1 92:1 93:1 101:1 102:1 103:1 106:1 108:1 109:1 117:1 121:1 122:1 123:1 125:1 133:1 134:1 135:1 136:1 138:1 139:1 141:1 149:1 154:1 157:1 165:1 166:1 170:1 173:1 181:1 189:1 199:1 203:1 204:1 
-3 77:1 86:1 90:1 92:1 93:1 103:1 105:1 106:1 108:1 121:1 122:1 123:1 124:1 134:1 135:1 136:1 137:1 138:1 139:1 149:1 154:1 155:1 165:1 167:1 170:1 173:1 181:1 182:1 183:1 189:1 197:1 204:1 205:1 
-3 71:1 86:1 87:1 90:1 92:1 93:1 102:1 103:1 106:1 107:1 108:1 109:1 117:1 119:1 121:1 122:1 123:1 125:1 133:1 134:1 135:1 136:1 137:1 138:1 139:1 141:1 149:1 151:1 154:1 155:1 157:1 165:1 166:1 167:1 170:1 173:1 181:1 182:1 183:1 186:1 189:1 199:1 204:1 205:1 
-2.19488068783172 74:1 90:1 92:1 93:1 102:1 103:1 106:1 108:1 109:1 117:1 121:1 122:1 123:1 125:1 133:1 134:1 135:1 136:1 137:1 138:1 139:1 141:1 149:1 154:1 157:1 165:1 166:1 167:1 170:1 173:1 181:1 182:1 186:1 189:1 199:1 204:1 205:1 
-2.99266726003571 74:1 90:1 92:1 93:1 102:1 103:1 106:1 108:1 109:1 117:1 121:1 122:1 123:1 125:1 133:1 134:1 135:1 136:1 137:1 138:1 139:1 141:1 149:1 154:1 157:1 165:1 166:1 167:1 170:1 173:1 181:1 182:1 186:1 189:1 199:1 204:1 205:1 
