svm_type c_svc
kernel_type rbf
gamma 0.015625
nr_class 2
total_sv 32
rho -1.37372
label -1 1
nr_sv 27 5
SV
0.1888736620844878 72:1 86:1 88:1 102:1 104:1 106:1 107:1 108:1 118:1 119:1 120:1 121:1 122:1 124:1 133:1 134:1 136:1 138:1 140:1 150:1 152:1 154:1 155:1 156:1 157:1 166:1 168:1 170:1 173:1 182:1 184:1 200:1 
0.01306668619157327 70:1 72:1 86:1 88:1 102:1 104:1 105:1 106:1 108:1 117:1 118:1 119:1 120:1 122:1 124:1 133:1 134:1 136:1 138:1 141:1 150:1 152:1 154:1 156:1 157:1 166:1 168:1 170:1 171:1 172:1 174:1 182:1 184:1 186:1 187:1 198:1 200:1 
0.6338889519681972 70:1 72:1 74:1 77:1 86:1 88:1 90:1 93:1 102:1 104:1 106:1 108:1 109:1 118:1 120:1 122:1 123:1 125:1 134:1 135:1 136:1 137:1 138:1 141:1 150:1 152:1 154:1 157:1 166:1 168:1 170:1 172:1 173:1 182:1 184:1 186:1 189:1 198:1 200:1 202:1 206:1 
0.5640331154092746 70:1 72:1 74:1 77:1 86:1 88:1 90:1 93:1 102:1 104:1 106:1 108:1 109:1 120:1 122:1 123:1 125:1 134:1 135:1 136:1 137:1 138:1 141:1 149:1 152:1 154:1 157:1 165:1 168:1 170:1 172:1 173:1 181:1 184:1 186:1 189:1 200:1 202:1 
0.1611791471269126 69:1 86:1 102:1 103:1 119:1 137:1 138:1 139:1 140:1 141:1 142:1 151:1 166:1 167:1 182:1 197:1 
0.5816894618834815 86:1 102:1 103:1 119:1 136:1 137:1 138:1 139:1 140:1 141:1 151:1 152:1 166:1 167:1 181:1 182:1 
1.352005357385948 74:1 75:1 76:1 86:1 88:1 90:1 92:1 102:1 104:1 106:1 108:1 118:1 120:1 122:1 124:1 133:1 134:1 135:1 136:1 137:1 138:1 139:1 140:1 141:1 142:1 150:1 152:1 154:1 156:1 166:1 168:1 170:1 172:1 182:1 184:1 186:1 188:1 202:1 203:1 204:1 
0.01850131983991804 74:1 89:1 92:1 104:1 108:1 118:1 119:1 123:1 124:1 133:1 137:1 138:1 140:1 152:1 156:1 171:1 172:1 187:1 188:1 
0.3579830787655747 77:1 86:1 87:1 92:1 93:1 103:1 104:1 108:1 117:1 121:1 122:1 123:1 134:1 138:1 139:1 153:1 155:1 166:1 167:1 168:1 172:1 182:1 188:1 205:1 
0.3698011915085616 72:1 74:1 77:1 85:1 87:1 88:1 90:1 92:1 101:1 103:1 104:1 105:1 106:1 107:1 108:1 117:1 119:1 120:1 122:1 123:1 133:1 134:1 135:1 136:1 137:1 138:1 139:1 140:1 141:1 149:1 151:1 152:1 154:1 155:1 165:1 167:1 168:1 169:1 170:1 171:1 172:1 181:1 183:1 184:1 186:1 188:1 200:1 202:1 205:1 
0.03941970055469483 70:1 74:1 86:1 87:1 88:1 90:1 91:1 102:1 103:1 104:1 106:1 107:1 118:1 120:1 122:1 123:1 125:1 133:1 134:1 135:1 136:1 137:1 138:1 139:1 140:1 141:1 150:1 152:1 154:1 155:1 166:1 167:1 168:1 170:1 171:1 182:1 183:1 184:1 185:1 186:1 187:1 188:1 198:1 202:1 
0.03838596154326183 72:1 88:1 92:1 101:1 104:1 107:1 108:1 120:1 122:1 124:1 136:1 137:1 140:1 152:1 156:1 168:1 171:1 172:1 181:1 184:1 188:1 200:1 
1.113220747078337 70:1 77:1 86:1 88:1 89:1 90:1 92:1 102:1 104:1 106:1 108:1 117:1 118:1 120:1 122:1 126:1 133:1 134:1 136:1 138:1 139:1 140:1 141:1 150:1 152:1 154:1 166:1 168:1 170:1 172:1 182:1 184:1 185:1 186:1 188:1 198:1 205:1 
1.043940372833524 70:1 77:1 86:1 92:1 102:1 104:1 105:1 106:1 107:1 108:1 118:1 123:1 125:1 133:1 134:1 138:1 139:1 140:1 141:1 150:1 166:1 168:1 169:1 170:1 171:1 182:1 185:1 186:1 188:1 198:1 
0.3909808772746886 70:1 77:1 86:1 92:1 102:1 104:1 105:1 106:1 107:1 118:1 122:1 125:1 133:1 134:1 138:1 139:1 140:1 141:1 150:1 154:1 166:1 167:1 168:1 169:1 170:1 171:1 182:1 188:1 198:1 
0.409980048262319 72:1 77:1 87:1 88:1 90:1 92:1 93:1 102:1 103:1 104:1 106:1 107:1 108:1 117:1 118:1 120:1 122:1 125:1 133:1 136:1 138:1 139:1 140:1 141:1 150:1 152:1 154:1 167:1 168:1 170:1 171:1 172:1 183:1 186:1 188:1 200:1 202:1 
3 72:1 77:1 88:1 90:1 92:1 103:1 104:1 106:1 107:1 108:1 118:1 120:1 122:1 125:1 133:1 136:1 137:1 138:1 139:1 140:1 141:1 150:1 152:1 154:1 167:1 168:1 170:1 171:1 172:1 183:1 184:1 186:1 188:1 200:1 
1.359127556674635 72:1 74:1 77:1 87:1 88:1 90:1 92:1 103:1 104:1 106:1 107:1 108:1 110:1 118:1 120:1 122:1 126:1 133:1 136:1 137:1 138:1 139:1 140:1 141:1 150:1 152:1 154:1 167:1 168:1 170:1 171:1 172:1 183:1 184:1 186:1 188:1 200:1 202:1 205:1 
1.703174252882344 72:1 88:1 90:1 92:1 93:1 103:1 104:1 106:1 107:1 108:1 118:1 119:1 120:1 122:1 125:1 133:1 136:1 137:1 138:1 139:1 140:1 141:1 150:1 152:1 154:1 167:1 168:1 170:1 171:1 172:1 183:1 184:1 186:1 188:1 189:1 200:1 
0.2822083980428012 73:1 77:1 88:1 90:1 92:1 103:1 104:1 107:1 108:1 118:1 120:1 125:1 133:1 136:1 137:1 138:1 139:1 140:1 141:1 150:1 152:1 167:1 168:1 171:1 184:1 185:1 188:1 200:1 
0.09903819034609215 72:1 73:1 86:1 87:1 88:1 89:1 90:1 91:1 92:1 93:1 101:1 102:1 109:1 118:1 119:1 120:1 121:1 122:1 125:1 133:1 134:1 135:1 136:1 137:1 138:1 139:1 140:1 150:1 152:1 154:1 165:1 166:1 167:1 168:1 169:1 170:1 171:1 172:1 173:1 182:1 184:1 186:1 188:1 198:1 199:1 200:1 202:1 203:1 204:1 
0.2696228500003777 74:1 77:1 89:1 92:1 103:1 104:1 107:1 108:1 121:1 122:1 133:1 134:1 135:1 136:1 137:1 138:1 139:1 140:1 141:1 154:1 167:1 168:1 171:1 172:1 182:1 185:1 188:1 
0.3713108107034919 72:1 73:1 85:1 86:1 87:1 88:1 89:1 90:1 91:1 92:1 93:1 101:1 106:1 119:1 120:1 122:1 125:1 133:1 134:1 138:1 139:1 141:1 149:1 154:1 157:1 167:1 168:1 170:1 171:1 172:1 184:1 186:1 188:1 189:1 200:1 202:1 
0.4379033856191111 72:1 86:1 87:1 88:1 89:1 90:1 91:1 92:1 93:1 101:1 105:1 106:1 118:1 119:1 120:1 123:1 125:1 134:1 136:1 137:1 138:1 139:1 141:1 149:1 150:1 152:1 153:1 155:1 156:1 166:1 168:1 171:1 172:1 182:1 184:1 186:1 188:1 198:1 200:1 202:1 205:1 
0.08623979321229167 72:1 73:1 85:1 86:1 87:1 101:1 102:1 104:1 107:1 118:1 119:1 120:1 121:1 122:1 123:1 124:1 125:1 134:1 136:1 138:1 152:1 154:1 157:1 165:1 166:1 167:1 168:1 169:1 170:1 171:1 172:1 184:1 187:1 188:1 189:1 198:1 199:1 200:1 201:1 202:1 205:1 206:1 
0.1120928763569953 72:1 73:1 85:1 86:1 87:1 88:1 89:1 90:1 91:1 92:1 93:1 101:1 103:1 104:1 105:1 106:1 107:1 108:1 119:1 121:1 122:1 125:1 133:1 134:1 135:1 136:1 138:1 139:1 140:1 141:1 151:1 152:1 153:1 155:1 157:1 166:1 167:1 168:1 170:1 172:1 182:1 184:1 186:1 187:1 188:1 200:1 203:1 
0.002332206451106916 72:1 73:1 85:1 86:1 87:1 88:1 89:1 90:1 91:1 92:1 93:1 94:1 102:1 104:1 107:1 108:1 120:1 121:1 122:1 133:1 136:1 137:1 138:1 149:1 152:1 154:1 166:1 167:1 168:1 169:1 170:1 171:1 172:1 173:1 182:1 198:1 199:1 200:1 201:1 202:1 203:1 204:1 205:1 
-3 72:1 77:1 86:1 88:1 90:1 92:1 102:1 103:1 104:1 106:1 107:1 108:1 117:1 118:1 120:1 122:1 125:1 133:1 134:1 136:1 137:1 138:1 139:1 140:1 141:1 150:1 152:1 154:1 166:1 167:1 168:1 170:1 171:1 172:1 182:1 184:1 186:1 188:1 200:1 
-3 70:1 77:1 86:1 87:1 92:1 93:1 102:1 103:1 104:1 108:1 110:1 118:1 126:1 133:1 134:1 137:1 138:1 139:1 140:1 141:1 142:1 150:1 152:1 166:1 167:1 168:1 172:1 182:1 188:1 189:1 198:1 205:1 
-3 72:1 86:1 88:1 90:1 92:1 102:1 103:1 104:1 106:1 107:1 108:1 118:1 119:1 120:1 122:1 125:1 133:1 134:1 136:1 137:1 138:1 139:1 140:1 141:1 150:1 152:1 154:1 166:1 167:1 168:1 170:1 171:1 172:1 182:1 184:1 186:1 188:1 200:1 202:1 
-3 72:1 74:1 77:1 86:1 88:1 90:1 92:1 104:1 106:1 107:1 108:1 119:1 120:1 122:1 123:1 125:1 133:1 136:1 137:1 138:1 139:1 140:1 141:1 152:1 154:1 168:1 170:1 171:1 172:1 184:1 186:1 188:1 200:1 202:1 
-3 72:1 74:1 77:1 86:1 88:1 90:1 92:1 104:1 106:1 107:1 108:1 119:1 120:1 122:1 123:1 125:1 133:1 136:1 137:1 138:1 139:1 140:1 141:1 152:1 154:1 168:1 170:1 171:1 172:1 184:1 186:1 188:1 200:1 202:1 
