svm_type c_svc
kernel_type rbf
gamma 0.015625
nr_class 2
total_sv 30
rho -1.77544
label -1 1
nr_sv 25 5
SV
1.579407715713048 200:1 
0.7733852377851347 69:1 103:1 104:1 141:1 157:1 168:1 169:1 170:1 171:1 172:1 173:1 184:1 197:1 
0.02094031233745639 69:1 75:1 90:1 105:1 106:1 120:1 134:1 135:1 150:1 197:1 
0.04761472393414653 69:1 76:1 77:1 85:1 92:1 101:1 106:1 107:1 117:1 133:1 149:1 165:1 166:1 167:1 168:1 169:1 170:1 171:1 172:1 181:1 197:1 
0.1687431326685084 106:1 107:1 118:1 119:1 120:1 121:1 124:1 138:1 139:1 150:1 151:1 152:1 153:1 154:1 170:1 173:1 189:1 197:1 
0.4408572987633219 102:1 107:1 123:1 138:1 149:1 150:1 151:1 152:1 153:1 154:1 155:1 156:1 157:1 
1.269007265831499 109:1 110:1 125:1 139:1 140:1 149:1 150:1 151:1 152:1 153:1 154:1 155:1 
0.03947626284240319 77:1 88:1 93:1 101:1 102:1 103:1 104:1 108:1 120:1 123:1 136:1 137:1 138:1 150:1 151:1 153:1 171:1 172:1 188:1 205:1 
0.6681867173350546 74:1 89:1 93:1 104:1 108:1 118:1 119:1 123:1 133:1 137:1 138:1 152:1 153:1 156:1 167:1 170:1 171:1 172:1 187:1 188:1 205:1 
0.4279516864006945 77:1 92:1 107:1 108:1 117:1 118:1 119:1 120:1 121:1 122:1 151:1 167:1 168:1 169:1 170:1 171:1 172:1 173:1 189:1 204:1 205:1 
0.9068743071402435 141:1 142:1 157:1 158:1 165:1 166:1 167:1 168:1 169:1 170:1 171:1 172:1 173:1 
1.951139003905852 87:1 182:1 188:1 204:1 
0.9341969889312833 105:1 120:1 141:1 157:1 165:1 169:1 170:1 171:1 172:1 185:1 199:1 
0.4836709563078926 77:1 88:1 120:1 121:1 122:1 123:1 124:1 136:1 152:1 168:1 169:1 170:1 171:1 172:1 184:1 
0.2394858827039537 77:1 120:1 121:1 122:1 123:1 124:1 168:1 169:1 170:1 171:1 172:1 181:1 
0.3098048308366104 77:1 103:1 104:1 105:1 106:1 107:1 167:1 168:1 169:1 170:1 171:1 181:1 
0.7634394794348274 70:1 72:1 87:1 89:1 90:1 104:1 105:1 106:1 116:1 118:1 119:1 122:1 133:1 137:1 138:1 150:1 151:1 152:1 153:1 154:1 167:1 170:1 171:1 172:1 183:1 188:1 189:1 198:1 200:1 205:1 
0.4825250292644652 86:1 93:1 107:1 108:1 122:1 133:1 134:1 135:1 136:1 149:1 151:1 152:1 153:1 170:1 187:1 204:1 205:1 
0.3258832748763264 86:1 93:1 108:1 109:1 122:1 123:1 125:1 134:1 135:1 136:1 137:1 141:1 149:1 150:1 151:1 152:1 157:1 169:1 170:1 173:1 187:1 189:1 203:1 205:1 
0.4496782340326263 74:1 75:1 76:1 77:1 109:1 124:1 125:1 135:1 136:1 137:1 138:1 139:1 151:1 152:1 153:1 154:1 171:1 172:1 188:1 189:1 205:1 206:1 
0.4182474016057237 76:1 77:1 90:1 91:1 92:1 101:1 102:1 103:1 104:1 105:1 106:1 121:1 122:1 125:1 139:1 140:1 149:1 150:1 151:1 152:1 153:1 154:1 169:1 170:1 171:1 187:1 188:1 205:1 
0.01544827811234021 73:1 87:1 88:1 93:1 101:1 102:1 108:1 109:1 125:1 137:1 140:1 150:1 151:1 154:1 155:1 168:1 169:1 170:1 171:1 172:1 182:1 183:1 184:1 188:1 189:1 205:1 
1.883969299414366 73:1 87:1 88:1 93:1 101:1 102:1 139:1 140:1 150:1 151:1 152:1 153:1 154:1 171:1 181:1 188:1 205:1 
0.05541071352256853 72:1 77:1 88:1 92:1 104:1 105:1 106:1 107:1 119:1 123:1 125:1 133:1 140:1 141:1 150:1 151:1 155:1 156:1 167:1 169:1 170:1 171:1 184:1 188:1 200:1 205:1 
0.3446559662996548 87:1 88:1 89:1 90:1 91:1 92:1 93:1 101:1 102:1 117:1 119:1 138:1 149:1 150:1 151:1 152:1 154:1 170:1 184:1 186:1 187:1 188:1 189:1 
-3 150:1 151:1 152:1 153:1 170:1 171:1 188:1 205:1 
-3 150:1 167:1 168:1 169:1 170:1 171:1 172:1 188:1 189:1 205:1 
-3 69:1 85:1 150:1 151:1 152:1 153:1 169:1 170:1 171:1 172:1 188:1 189:1 205:1 
-3 149:1 150:1 151:1 152:1 170:1 171:1 188:1 
-3 149:1 150:1 151:1 152:1 170:1 171:1 188:1 
