svm_type c_svc
kernel_type rbf
gamma 0.015625
nr_class 2
total_sv 26
rho -1.44965
label -1 1
nr_sv 21 5
SV
0.36459500738359 70:1 75:1 90:1 105:1 106:1 119:1 120:1 134:1 
0.1867907236566923 77:1 85:1 91:1 92:1 101:1 105:1 106:1 107:1 117:1 118:1 119:1 120:1 133:1 149:1 157:1 165:1 166:1 167:1 168:1 173:1 184:1 187:1 188:1 189:1 200:1 201:1 202:1 
0.2560325480571171 77:1 92:1 107:1 117:1 118:1 119:1 120:1 173:1 189:1 203:1 204:1 205:1 
1.627201445273215 72:1 73:1 76:1 86:1 87:1 88:1 89:1 91:1 92:1 101:1 102:1 105:1 106:1 108:1 119:1 120:1 123:1 124:1 135:1 140:1 149:1 150:1 151:1 152:1 153:1 154:1 155:1 156:1 173:1 189:1 204:1 205:1 
0.8812752370812931 72:1 86:1 87:1 88:1 89:1 93:1 101:1 104:1 118:1 119:1 120:1 136:1 137:1 138:1 141:1 149:1 150:1 151:1 152:1 153:1 154:1 155:1 156:1 173:1 189:1 203:1 204:1 205:1 
0.18009659971104 71:1 72:1 74:1 75:1 76:1 77:1 78:1 85:1 86:1 87:1 88:1 90:1 93:1 101:1 104:1 106:1 109:1 118:1 119:1 120:1 122:1 125:1 136:1 137:1 173:1 203:1 204:1 205:1 
0.1857971998759069 86:1 87:1 89:1 90:1 92:1 93:1 105:1 107:1 109:1 117:1 118:1 119:1 120:1 123:1 125:1 141:1 149:1 150:1 151:1 152:1 153:1 154:1 157:1 169:1 170:1 173:1 184:1 189:1 204:1 205:1 
0.05547774964687585 69:1 70:1 71:1 72:1 75:1 76:1 85:1 88:1 91:1 94:1 101:1 102:1 103:1 104:1 106:1 107:1 108:1 109:1 117:1 120:1 121:1 122:1 123:1 133:1 134:1 135:1 136:1 137:1 139:1 173:1 203:1 204:1 205:1 
0.1228928199197646 70:1 75:1 87:1 88:1 90:1 91:1 101:1 102:1 103:1 106:1 107:1 108:1 109:1 119:1 122:1 123:1 134:1 135:1 138:1 139:1 149:1 150:1 151:1 152:1 153:1 154:1 155:1 156:1 173:1 189:1 203:1 204:1 205:1 
0.6048196836459154 70:1 72:1 73:1 74:1 75:1 76:1 86:1 89:1 92:1 101:1 102:1 103:1 105:1 107:1 108:1 109:1 110:1 118:1 121:1 124:1 134:1 136:1 137:1 138:1 139:1 140:1 173:1 203:1 204:1 205:1 
1.05094058076706 70:1 75:1 86:1 90:1 91:1 101:1 102:1 103:1 106:1 107:1 108:1 109:1 118:1 119:1 120:1 121:1 122:1 123:1 134:1 139:1 149:1 150:1 151:1 152:1 153:1 154:1 155:1 156:1 157:1 173:1 189:1 203:1 204:1 205:1 
3 70:1 75:1 86:1 90:1 91:1 101:1 102:1 103:1 106:1 107:1 108:1 109:1 118:1 119:1 120:1 121:1 122:1 123:1 134:1 139:1 149:1 150:1 151:1 152:1 153:1 154:1 155:1 156:1 157:1 173:1 189:1 203:1 204:1 205:1 
0.01504067485269925 71:1 73:1 76:1 87:1 88:1 89:1 101:1 102:1 103:1 104:1 105:1 107:1 108:1 109:1 119:1 120:1 121:1 136:1 139:1 140:1 149:1 150:1 151:1 152:1 155:1 156:1 157:1 166:1 168:1 169:1 170:1 173:1 182:1 184:1 189:1 198:1 204:1 205:1 
0.4811449525793683 70:1 71:1 72:1 73:1 74:1 75:1 86:1 87:1 88:1 89:1 90:1 101:1 102:1 103:1 104:1 105:1 106:1 107:1 108:1 109:1 118:1 119:1 120:1 121:1 122:1 135:1 136:1 150:1 151:1 152:1 155:1 156:1 157:1 165:1 166:1 170:1 173:1 182:1 185:1 189:1 198:1 204:1 205:1 
1.059146481146497 73:1 77:1 89:1 93:1 105:1 106:1 107:1 108:1 109:1 118:1 119:1 120:1 121:1 125:1 137:1 141:1 153:1 157:1 169:1 173:1 185:1 186:1 187:1 188:1 189:1 205:1 
0.2804208001770156 71:1 77:1 104:1 105:1 106:1 107:1 108:1 133:1 134:1 152:1 173:1 189:1 198:1 203:1 204:1 205:1 
1.649062052945788 73:1 87:1 88:1 101:1 102:1 104:1 105:1 106:1 107:1 108:1 109:1 182:1 204:1 
0.3479762357139098 73:1 87:1 88:1 101:1 102:1 103:1 104:1 105:1 106:1 107:1 108:1 109:1 119:1 125:1 135:1 139:1 140:1 149:1 150:1 151:1 152:1 153:1 154:1 155:1 167:1 173:1 183:1 189:1 199:1 200:1 201:1 202:1 203:1 204:1 
1.341846079911045 73:1 87:1 88:1 93:1 101:1 102:1 108:1 109:1 117:1 118:1 121:1 134:1 137:1 150:1 151:1 152:1 153:1 154:1 155:1 156:1 157:1 173:1 181:1 189:1 203:1 204:1 205:1 
1.023262226176097 73:1 87:1 88:1 101:1 102:1 104:1 105:1 106:1 107:1 108:1 109:1 120:1 136:1 149:1 150:1 151:1 152:1 153:1 154:1 171:1 172:1 182:1 188:1 189:1 204:1 205:1 
0.2861809014791097 73:1 88:1 104:1 105:1 106:1 107:1 108:1 109:1 118:1 119:1 121:1 123:1 125:1 133:1 137:1 139:1 141:1 151:1 153:1 155:1 157:1 168:1 169:1 171:1 173:1 184:1 185:1 189:1 200:1 
-3 70:1 73:1 75:1 86:1 87:1 101:1 102:1 104:1 105:1 106:1 107:1 108:1 109:1 118:1 119:1 120:1 134:1 135:1 137:1 149:1 173:1 189:1 204:1 205:1 
-3 70:1 71:1 73:1 75:1 85:1 86:1 88:1 89:1 91:1 101:1 102:1 105:1 106:1 107:1 108:1 109:1 110:1 118:1 119:1 120:1 121:1 123:1 134:1 137:1 139:1 173:1 203:1 204:1 205:1 
-3 70:1 73:1 75:1 86:1 87:1 88:1 89:1 91:1 101:1 102:1 105:1 106:1 107:1 108:1 109:1 118:1 119:1 120:1 121:1 123:1 134:1 137:1 139:1 149:1 150:1 151:1 152:1 153:1 154:1 155:1 156:1 157:1 173:1 189:1 204:1 205:1 
-3 87:1 88:1 101:1 105:1 106:1 107:1 108:1 109:1 118:1 119:1 120:1 149:1 150:1 151:1 152:1 153:1 154:1 155:1 156:1 157:1 173:1 189:1 203:1 204:1 205:1 
-3 87:1 88:1 101:1 105:1 106:1 107:1 108:1 109:1 118:1 119:1 120:1 149:1 150:1 151:1 152:1 153:1 154:1 155:1 156:1 157:1 173:1 189:1 203:1 204:1 205:1 
