svm_type c_svc
kernel_type rbf
gamma 0.015625
nr_class 2
total_sv 35
rho -1.51922
label -1 1
nr_sv 30 5
SV
0.1354767227155782 69:1 103:1 104:1 141:1 157:1 168:1 169:1 170:1 171:1 172:1 173:1 184:1 197:1 
0.1732105126957818 71:1 77:1 78:1 87:1 88:1 93:1 103:1 104:1 105:1 106:1 109:1 119:1 122:1 123:1 124:1 135:1 139:1 140:1 149:1 150:1 151:1 152:1 153:1 154:1 156:1 167:1 173:1 183:1 189:1 199:1 205:1 
0.09555580806375302 86:1 89:1 102:1 105:1 118:1 121:1 134:1 137:1 150:1 153:1 166:1 169:1 182:1 185:1 198:1 204:1 
0.2725229142312725 77:1 86:1 89:1 118:1 119:1 120:1 121:1 122:1 123:1 169:1 170:1 171:1 172:1 182:1 183:1 184:1 185:1 
0.4092942521645578 76:1 77:1 87:1 89:1 90:1 103:1 104:1 118:1 119:1 120:1 150:1 151:1 152:1 167:1 181:1 182:1 183:1 
0.4765924707001458 69:1 86:1 102:1 103:1 119:1 137:1 138:1 139:1 140:1 141:1 142:1 151:1 166:1 167:1 182:1 197:1 
0.1794421404258849 86:1 102:1 103:1 119:1 136:1 137:1 138:1 139:1 140:1 141:1 151:1 152:1 166:1 167:1 181:1 182:1 
0.2535895678950105 86:1 87:1 88:1 89:1 93:1 102:1 105:1 108:1 117:1 118:1 119:1 120:1 121:1 122:1 123:1 134:1 137:1 149:1 150:1 151:1 152:1 153:1 154:1 155:1 156:1 157:1 166:1 169:1 182:1 183:1 184:1 185:1 201:1 
3 87:1 88:1 104:1 105:1 106:1 121:1 122:1 154:1 155:1 168:1 169:1 170:1 183:1 184:1 
0.4856269189168341 71:1 77:1 87:1 88:1 92:1 103:1 105:1 107:1 108:1 117:1 118:1 119:1 120:1 121:1 122:1 135:1 138:1 166:1 167:1 168:1 203:1 204:1 
0.2706952154448241 88:1 105:1 106:1 119:1 120:1 121:1 122:1 123:1 124:1 125:1 169:1 170:1 189:1 197:1 
0.2859279505949843 77:1 78:1 86:1 87:1 93:1 104:1 105:1 109:1 117:1 122:1 123:1 124:1 134:1 135:1 139:1 140:1 151:1 154:1 155:1 156:1 168:1 169:1 173:1 182:1 183:1 189:1 205:1 206:1 
2.234586739611662 70:1 86:1 102:1 118:1 134:1 150:1 166:1 168:1 182:1 183:1 184:1 198:1 
0.1586075176544566 70:1 86:1 102:1 118:1 134:1 150:1 166:1 182:1 183:1 184:1 198:1 199:1 
0.2808758112987778 72:1 88:1 101:1 102:1 103:1 104:1 105:1 106:1 107:1 108:1 135:1 141:1 151:1 154:1 157:1 167:1 168:1 169:1 170:1 203:1 204:1 
0.5975722484217304 71:1 73:1 87:1 89:1 103:1 105:1 117:1 118:1 119:1 120:1 121:1 122:1 123:1 124:1 125:1 126:1 135:1 137:1 151:1 153:1 156:1 165:1 167:1 169:1 181:1 183:1 184:1 185:1 188:1 198:1 201:1 202:1 203:1 204:1 
0.1605340329814614 73:1 74:1 87:1 89:1 103:1 105:1 117:1 118:1 119:1 120:1 121:1 122:1 123:1 124:1 125:1 135:1 137:1 151:1 153:1 165:1 167:1 168:1 169:1 172:1 181:1 182:1 185:1 186:1 187:1 188:1 198:1 201:1 
0.004500091723314297 73:1 89:1 93:1 102:1 103:1 105:1 110:1 119:1 120:1 121:1 125:1 135:1 136:1 137:1 138:1 139:1 140:1 141:1 151:1 153:1 166:1 167:1 169:1 182:1 185:1 186:1 187:1 201:1 202:1 
0.2838862626494823 76:1 86:1 87:1 92:1 102:1 103:1 108:1 118:1 119:1 124:1 134:1 135:1 140:1 150:1 151:1 156:1 166:1 167:1 172:1 182:1 183:1 188:1 204:1 
0.9001812212162148 77:1 105:1 106:1 118:1 119:1 168:1 169:1 181:1 
0.3800972923700077 77:1 86:1 87:1 88:1 133:1 134:1 135:1 136:1 170:1 182:1 183:1 184:1 186:1 
1.740626624651094 69:1 87:1 88:1 89:1 90:1 91:1 103:1 119:1 135:1 151:1 167:1 183:1 184:1 185:1 186:1 187:1 
1.004283567030258 71:1 87:1 103:1 104:1 105:1 106:1 107:1 108:1 119:1 133:1 134:1 135:1 150:1 151:1 167:1 183:1 188:1 199:1 
0.2384991822820814 71:1 87:1 103:1 104:1 105:1 106:1 107:1 108:1 119:1 133:1 134:1 135:1 151:1 167:1 183:1 188:1 199:1 
0.1384281814521944 87:1 91:1 92:1 93:1 103:1 119:1 133:1 135:1 151:1 167:1 183:1 187:1 188:1 189:1 
0.01426854882502808 73:1 88:1 93:1 103:1 104:1 105:1 106:1 107:1 108:1 109:1 118:1 119:1 133:1 150:1 151:1 167:1 168:1 169:1 170:1 171:1 172:1 173:1 174:1 184:1 200:1 201:1 
0.3927389932373435 73:1 88:1 103:1 105:1 106:1 107:1 108:1 109:1 118:1 122:1 125:1 133:1 134:1 138:1 141:1 150:1 151:1 153:1 154:1 157:1 167:1 169:1 173:1 184:1 188:1 189:1 200:1 
0.2137355683737151 73:1 87:1 88:1 93:1 101:1 102:1 103:1 105:1 117:1 120:1 122:1 134:1 135:1 138:1 149:1 150:1 152:1 154:1 157:1 167:1 170:1 171:1 172:1 184:1 186:1 187:1 200:1 
0.148186328698845 73:1 75:1 88:1 91:1 103:1 105:1 107:1 118:1 119:1 123:1 133:1 135:1 136:1 137:1 138:1 139:1 140:1 141:1 150:1 151:1 155:1 167:1 168:1 169:1 171:1 184:1 187:1 200:1 203:1 
0.07045731367370567 73:1 87:1 88:1 89:1 90:1 91:1 92:1 93:1 101:1 102:1 119:1 121:1 122:1 123:1 134:1 135:1 136:1 137:1 149:1 151:1 153:1 157:1 167:1 169:1 182:1 183:1 185:1 199:1 201:1 
-3 87:1 103:1 105:1 119:1 122:1 135:1 151:1 154:1 167:1 169:1 182:1 183:1 184:1 
-3 70:1 86:1 87:1 102:1 104:1 105:1 118:1 121:1 134:1 150:1 153:1 166:1 168:1 169:1 181:1 183:1 184:1 197:1 
-3 71:1 87:1 88:1 103:1 104:1 105:1 118:1 119:1 122:1 134:1 135:1 150:1 154:1 166:1 168:1 169:1 170:1 182:1 184:1 198:1 
-3 88:1 103:1 105:1 119:1 122:1 135:1 151:1 167:1 169:1 182:1 183:1 184:1 
-3 88:1 103:1 105:1 119:1 122:1 135:1 151:1 167:1 169:1 182:1 183:1 184:1 
