svm_type c_svc
kernel_type rbf
gamma 0.015625
nr_class 2
total_sv 23
rho -1.64911
label -1 1
nr_sv 18 5
SV
2.115094041882703 200:1 
1.291329362856143 70:1 86:1 102:1 118:1 134:1 135:1 136:1 137:1 138:1 139:1 140:1 141:1 142:1 150:1 166:1 182:1 198:1 
0.1695645770073321 70:1 77:1 86:1 93:1 102:1 108:1 109:1 118:1 122:1 123:1 124:1 134:1 135:1 136:1 137:1 138:1 150:1 166:1 182:1 198:1 
1.27755120186186 70:1 75:1 86:1 90:1 102:1 105:1 106:1 118:1 119:1 120:1 134:1 150:1 166:1 182:1 
0.1004815603810458 86:1 89:1 102:1 105:1 118:1 121:1 134:1 137:1 150:1 153:1 166:1 169:1 182:1 185:1 198:1 204:1 
0.2282123061811957 119:1 120:1 121:1 122:1 123:1 124:1 182:1 183:1 184:1 185:1 186:1 187:1 188:1 
0.3176880901367752 118:1 122:1 138:1 165:1 
1.57830246656872 86:1 102:1 103:1 104:1 120:1 152:1 167:1 168:1 182:1 183:1 
1.467833383905749 87:1 104:1 121:1 153:1 154:1 168:1 182:1 183:1 
1.351583030867928 70:1 86:1 87:1 102:1 104:1 105:1 118:1 121:1 134:1 150:1 153:1 166:1 168:1 169:1 181:1 183:1 184:1 197:1 
1.579153889063165 87:1 102:1 117:1 125:1 182:1 184:1 198:1 
0.361245172189359 70:1 86:1 93:1 102:1 109:1 118:1 125:1 126:1 134:1 136:1 137:1 138:1 139:1 140:1 141:1 150:1 152:1 166:1 167:1 182:1 183:1 198:1 
0.2542456201932584 72:1 87:1 88:1 101:1 102:1 103:1 117:1 118:1 125:1 134:1 136:1 137:1 138:1 139:1 140:1 141:1 150:1 166:1 182:1 183:1 184:1 198:1 199:1 
0.4831062892752367 76:1 86:1 92:1 102:1 108:1 118:1 124:1 134:1 140:1 150:1 156:1 166:1 172:1 182:1 188:1 204:1 
0.6652834180435175 70:1 77:1 86:1 93:1 102:1 109:1 118:1 125:1 134:1 141:1 150:1 157:1 166:1 173:1 182:1 189:1 205:1 
0.2900770932646198 78:1 86:1 93:1 102:1 105:1 106:1 107:1 108:1 118:1 134:1 150:1 166:1 169:1 170:1 171:1 172:1 173:1 174:1 182:1 198:1 
0.5499006680188758 77:1 86:1 87:1 88:1 133:1 134:1 135:1 136:1 170:1 182:1 183:1 184:1 186:1 
0.9193478283025154 76:1 77:1 86:1 89:1 90:1 91:1 92:1 102:1 103:1 118:1 119:1 120:1 133:1 134:1 150:1 166:1 167:1 168:1 182:1 183:1 198:1 201:1 
-3 70:1 86:1 102:1 118:1 134:1 150:1 166:1 168:1 182:1 183:1 184:1 198:1 
-3 70:1 86:1 102:1 118:1 134:1 150:1 166:1 182:1 183:1 184:1 198:1 199:1 
-3 70:1 86:1 102:1 118:1 134:1 150:1 166:1 182:1 183:1 198:1 199:1 
-3 168:1 182:1 183:1 
-3 168:1 182:1 183:1 
