svm_type c_svc
kernel_type rbf
gamma 0.015625
nr_class 2
total_sv 32
rho -1.04436
label -1 1
nr_sv 28 4
SV
0.227052068550706 19:1 35:1 51:1 67:1 72:1 83:1 85:1 86:1 87:1 88:1 99:1 100:1 101:1 102:1 115:1 126:1 131:1 142:1 147:1 158:1 159:1 163:1 174:1 175:1 179:1 189:1 190:1 191:1 195:1 199:1 200:1 201:1 202:1 203:1 204:1 205:1 210:1 211:1 216:1 226:1 227:1 243:1 
0.04458151177269447 25:1 26:1 40:1 41:1 56:1 57:1 72:1 73:1 88:1 89:1 98:1 99:1 100:1 101:1 102:1 103:1 104:1 105:1 106:1 107:1 108:1 109:1 114:1 115:1 116:1 117:1 118:1 119:1 120:1 121:1 122:1 123:1 124:1 125:1 126:1 127:1 135:1 136:1 142:1 143:1 151:1 152:1 158:1 159:1 167:1 174:1 175:1 183:1 190:1 191:1 198:1 199:1 206:1 207:1 214:1 215:1 222:1 223:1 230:1 231:1 237:1 238:1 239:1 245:1 246:1 247:1 253:1 254:1 
0.04328438179382475 30:1 31:1 47:1 63:1 79:1 95:1 111:1 127:1 131:1 132:1 133:1 134:1 135:1 136:1 137:1 138:1 139:1 140:1 141:1 142:1 143:1 159:1 175:1 191:1 207:1 223:1 239:1 254:1 255:1 
0.4861883628636132 19:1 35:1 51:1 67:1 83:1 99:1 115:1 131:1 132:1 133:1 134:1 135:1 136:1 137:1 138:1 139:1 140:1 141:1 142:1 143:1 147:1 163:1 179:1 195:1 211:1 226:1 227:1 243:1 
0.07468786730746775 31:1 37:1 38:1 47:1 48:1 53:1 54:1 63:1 64:1 69:1 70:1 72:1 73:1 78:1 79:1 85:1 86:1 88:1 89:1 90:1 94:1 95:1 101:1 102:1 106:1 107:1 108:1 109:1 110:1 117:1 118:1 123:1 124:1 125:1 126:1 133:1 134:1 136:1 137:1 138:1 139:1 140:1 141:1 146:1 147:1 148:1 149:1 150:1 151:1 152:1 153:1 154:1 155:1 157:1 158:1 162:1 163:1 164:1 165:1 166:1 174:1 181:1 182:1 190:1 191:1 197:1 198:1 206:1 207:1 213:1 214:1 222:1 223:1 229:1 230:1 238:1 239:1 240:1 
0.02020681584095005 30:1 46:1 57:1 62:1 73:1 78:1 89:1 94:1 105:1 110:1 121:1 126:1 137:1 142:1 153:1 158:1 169:1 174:1 185:1 190:1 196:1 200:1 201:1 206:1 211:1 212:1 217:1 222:1 228:1 237:1 238:1 254:1 
0.7708467849455949 19:1 35:1 41:1 42:1 51:1 53:1 54:1 55:1 56:1 57:1 58:1 67:1 73:1 74:1 83:1 89:1 90:1 99:1 105:1 106:1 115:1 121:1 122:1 131:1 132:1 133:1 134:1 135:1 136:1 137:1 138:1 147:1 150:1 153:1 154:1 158:1 163:1 166:1 169:1 170:1 174:1 175:1 176:1 179:1 182:1 185:1 186:1 190:1 191:1 195:1 198:1 201:1 202:1 205:1 206:1 207:1 211:1 214:1 217:1 218:1 219:1 220:1 221:1 222:1 223:1 227:1 233:1 234:1 235:1 236:1 237:1 243:1 
0.2032312827397936 19:1 35:1 41:1 51:1 53:1 54:1 55:1 56:1 57:1 58:1 67:1 69:1 83:1 99:1 115:1 131:1 132:1 133:1 134:1 135:1 136:1 137:1 142:1 147:1 150:1 158:1 163:1 166:1 175:1 179:1 182:1 191:1 192:1 195:1 198:1 206:1 207:1 211:1 213:1 214:1 217:1 218:1 219:1 220:1 221:1 222:1 226:1 227:1 230:1 233:1 234:1 243:1 
0.06240370040846757 30:1 31:1 46:1 47:1 51:1 52:1 56:1 57:1 62:1 63:1 67:1 68:1 72:1 73:1 78:1 79:1 83:1 84:1 88:1 89:1 94:1 95:1 99:1 100:1 104:1 105:1 106:1 107:1 108:1 109:1 110:1 111:1 115:1 116:1 117:1 118:1 119:1 120:1 121:1 122:1 123:1 124:1 125:1 126:1 127:1 131:1 132:1 136:1 137:1 142:1 143:1 147:1 148:1 152:1 153:1 158:1 159:1 163:1 164:1 168:1 169:1 174:1 175:1 179:1 180:1 184:1 185:1 190:1 191:1 195:1 196:1 197:1 198:1 199:1 200:1 201:1 202:1 203:1 204:1 205:1 206:1 207:1 211:1 212:1 213:1 214:1 215:1 216:1 217:1 218:1 222:1 223:1 238:1 239:1 254:1 255:1 
0.162997070877249 30:1 31:1 35:1 36:1 44:1 46:1 47:1 51:1 52:1 55:1 59:1 60:1 61:1 62:1 63:1 67:1 68:1 70:1 71:1 75:1 76:1 78:1 79:1 83:1 87:1 88:1 89:1 90:1 91:1 94:1 95:1 99:1 103:1 104:1 105:1 106:1 110:1 111:1 115:1 116:1 117:1 118:1 119:1 120:1 121:1 126:1 127:1 131:1 132:1 136:1 137:1 138:1 142:1 143:1 147:1 153:1 154:1 156:1 158:1 159:1 163:1 170:1 172:1 173:1 174:1 175:1 179:1 188:1 189:1 190:1 191:1 195:1 202:1 203:1 204:1 205:1 206:1 207:1 211:1 212:1 213:1 214:1 215:1 216:1 217:1 218:1 219:1 220:1 222:1 223:1 227:1 228:1 229:1 230:1 231:1 232:1 238:1 239:1 254:1 255:1 
0.1409995474808939 45:1 47:1 51:1 61:1 63:1 67:1 70:1 75:1 76:1 83:1 86:1 87:1 90:1 91:1 99:1 103:1 104:1 105:1 106:1 115:1 116:1 117:1 118:1 119:1 120:1 121:1 131:1 132:1 136:1 137:1 147:1 152:1 153:1 154:1 156:1 163:1 169:1 170:1 172:1 173:1 179:1 188:1 189:1 195:1 198:1 199:1 200:1 201:1 202:1 203:1 204:1 205:1 210:1 211:1 212:1 213:1 214:1 215:1 216:1 217:1 218:1 219:1 222:1 227:1 238:1 
0.05543106888494678 30:1 31:1 46:1 47:1 63:1 67:1 68:1 69:1 70:1 71:1 72:1 73:1 74:1 75:1 76:1 77:1 78:1 79:1 83:1 84:1 85:1 86:1 87:1 88:1 89:1 90:1 91:1 92:1 93:1 94:1 95:1 100:1 107:1 111:1 116:1 123:1 127:1 132:1 139:1 143:1 148:1 155:1 159:1 164:1 171:1 175:1 179:1 180:1 187:1 191:1 195:1 196:1 197:1 198:1 199:1 200:1 201:1 202:1 203:1 204:1 205:1 206:1 207:1 223:1 238:1 239:1 254:1 255:1 
0.2792108735624193 27:1 30:1 31:1 35:1 36:1 42:1 43:1 46:1 47:1 51:1 52:1 57:1 58:1 59:1 62:1 63:1 67:1 68:1 72:1 73:1 74:1 78:1 79:1 83:1 84:1 88:1 89:1 94:1 95:1 99:1 100:1 102:1 103:1 104:1 110:1 111:1 115:1 116:1 117:1 118:1 119:1 125:1 126:1 127:1 131:1 132:1 133:1 134:1 135:1 136:1 137:1 138:1 139:1 140:1 141:1 142:1 143:1 147:1 148:1 158:1 159:1 163:1 164:1 167:1 174:1 175:1 179:1 180:1 183:1 184:1 190:1 191:1 195:1 196:1 200:1 201:1 206:1 207:1 211:1 212:1 216:1 217:1 218:1 222:1 223:1 227:1 228:1 233:1 234:1 238:1 239:1 250:1 254:1 255:1 
0.09284195260061193 23:1 24:1 39:1 51:1 52:1 63:1 64:1 68:1 69:1 70:1 71:1 72:1 73:1 74:1 75:1 76:1 77:1 78:1 79:1 95:1 111:1 115:1 116:1 117:1 118:1 119:1 120:1 121:1 122:1 123:1 124:1 125:1 127:1 140:1 143:1 156:1 159:1 172:1 175:1 179:1 180:1 181:1 182:1 183:1 184:1 185:1 186:1 187:1 188:1 191:1 195:1 196:1 197:1 198:1 199:1 200:1 201:1 202:1 203:1 204:1 205:1 207:1 223:1 239:1 247:1 248:1 
0.05673995941176808 23:1 39:1 51:1 55:1 62:1 63:1 67:1 68:1 69:1 70:1 71:1 72:1 73:1 74:1 75:1 76:1 77:1 78:1 79:1 87:1 94:1 95:1 103:1 110:1 111:1 119:1 126:1 127:1 130:1 131:1 132:1 133:1 134:1 135:1 136:1 137:1 138:1 139:1 140:1 141:1 142:1 143:1 146:1 147:1 151:1 158:1 159:1 167:1 174:1 175:1 183:1 190:1 191:1 195:1 196:1 197:1 198:1 199:1 200:1 201:1 202:1 203:1 204:1 205:1 206:1 207:1 211:1 212:1 213:1 214:1 215:1 216:1 217:1 218:1 219:1 220:1 221:1 222:1 223:1 231:1 247:1 
0.0211043756140904 30:1 31:1 46:1 47:1 62:1 63:1 68:1 69:1 70:1 71:1 72:1 73:1 74:1 75:1 76:1 77:1 78:1 79:1 84:1 88:1 94:1 95:1 99:1 100:1 104:1 110:1 111:1 115:1 116:1 120:1 126:1 127:1 131:1 132:1 136:1 142:1 143:1 147:1 148:1 152:1 158:1 159:1 163:1 164:1 168:1 169:1 170:1 171:1 172:1 173:1 174:1 175:1 179:1 184:1 185:1 186:1 187:1 188:1 189:1 190:1 191:1 194:1 195:1 200:1 206:1 207:1 211:1 216:1 222:1 223:1 232:1 238:1 239:1 254:1 255:1 
0.1798339778400457 19:1 35:1 51:1 54:1 55:1 56:1 57:1 58:1 59:1 60:1 61:1 62:1 63:1 67:1 70:1 76:1 77:1 83:1 86:1 91:1 92:1 99:1 102:1 106:1 107:1 115:1 118:1 119:1 120:1 121:1 122:1 131:1 132:1 133:1 134:1 135:1 137:1 147:1 150:1 154:1 163:1 166:1 170:1 171:1 174:1 179:1 182:1 187:1 188:1 190:1 191:1 195:1 198:1 206:1 207:1 208:1 210:1 211:1 213:1 214:1 215:1 216:1 217:1 218:1 219:1 220:1 221:1 222:1 223:1 226:1 227:1 230:1 243:1 
0.002265398791693652 27:1 30:1 31:1 38:1 43:1 44:1 46:1 47:1 54:1 59:1 60:1 62:1 63:1 70:1 75:1 78:1 79:1 86:1 91:1 94:1 95:1 98:1 99:1 100:1 101:1 102:1 103:1 104:1 105:1 106:1 107:1 108:1 109:1 110:1 111:1 114:1 115:1 116:1 117:1 118:1 119:1 120:1 121:1 122:1 123:1 124:1 125:1 126:1 127:1 142:1 143:1 146:1 147:1 148:1 149:1 150:1 151:1 152:1 153:1 154:1 155:1 156:1 158:1 159:1 162:1 163:1 164:1 165:1 166:1 167:1 168:1 169:1 170:1 171:1 172:1 173:1 174:1 175:1 182:1 183:1 188:1 189:1 190:1 191:1 197:1 198:1 199:1 204:1 205:1 206:1 207:1 213:1 214:1 220:1 221:1 222:1 223:1 229:1 230:1 235:1 236:1 237:1 238:1 239:1 251:1 252:1 254:1 255:1 
0.009455360534781158 19:1 20:1 35:1 38:1 39:1 47:1 51:1 54:1 55:1 56:1 57:1 58:1 59:1 60:1 61:1 62:1 63:1 67:1 70:1 72:1 73:1 76:1 77:1 83:1 86:1 88:1 89:1 90:1 91:1 92:1 93:1 99:1 102:1 108:1 115:1 118:1 124:1 131:1 132:1 133:1 134:1 135:1 136:1 137:1 138:1 139:1 140:1 147:1 150:1 156:1 163:1 166:1 168:1 172:1 173:1 179:1 182:1 184:1 185:1 186:1 187:1 188:1 189:1 191:1 192:1 195:1 198:1 199:1 200:1 201:1 202:1 203:1 204:1 205:1 206:1 207:1 211:1 214:1 215:1 216:1 217:1 218:1 219:1 220:1 221:1 222:1 223:1 227:1 230:1 243:1 244:1 
0.03443406612044817 19:1 20:1 35:1 36:1 38:1 39:1 40:1 41:1 42:1 43:1 44:1 45:1 46:1 47:1 51:1 52:1 54:1 55:1 56:1 57:1 58:1 59:1 60:1 61:1 62:1 63:1 67:1 68:1 70:1 83:1 84:1 86:1 88:1 89:1 90:1 91:1 92:1 93:1 99:1 100:1 102:1 104:1 105:1 106:1 108:1 109:1 115:1 116:1 118:1 124:1 125:1 131:1 132:1 133:1 134:1 135:1 136:1 137:1 138:1 139:1 140:1 141:1 147:1 148:1 150:1 156:1 163:1 164:1 166:1 172:1 179:1 180:1 182:1 184:1 185:1 186:1 187:1 188:1 189:1 195:1 196:1 198:1 206:1 207:1 211:1 212:1 214:1 222:1 223:1 227:1 228:1 230:1 231:1 232:1 233:1 234:1 235:1 236:1 237:1 238:1 239:1 243:1 244:1 
0.1477605348068117 19:1 35:1 51:1 54:1 55:1 56:1 57:1 58:1 59:1 60:1 61:1 62:1 63:1 67:1 70:1 83:1 86:1 88:1 89:1 90:1 91:1 92:1 99:1 102:1 104:1 108:1 115:1 118:1 124:1 131:1 132:1 133:1 134:1 135:1 136:1 137:1 138:1 139:1 140:1 147:1 150:1 156:1 163:1 166:1 172:1 174:1 179:1 182:1 184:1 185:1 186:1 187:1 188:1 189:1 190:1 195:1 198:1 206:1 207:1 208:1 211:1 213:1 214:1 215:1 216:1 217:1 218:1 219:1 220:1 221:1 222:1 223:1 226:1 227:1 230:1 231:1 232:1 233:1 234:1 235:1 236:1 237:1 238:1 243:1 
2.299967124191005 26:1 42:1 51:1 52:1 54:1 55:1 58:1 62:1 67:1 68:1 71:1 74:1 78:1 79:1 83:1 84:1 87:1 90:1 93:1 94:1 95:1 99:1 100:1 103:1 106:1 108:1 109:1 110:1 111:1 115:1 116:1 119:1 122:1 123:1 124:1 126:1 127:1 131:1 132:1 133:1 134:1 135:1 136:1 137:1 138:1 139:1 142:1 143:1 147:1 148:1 151:1 154:1 158:1 159:1 163:1 164:1 167:1 170:1 171:1 172:1 174:1 179:1 180:1 183:1 186:1 188:1 189:1 190:1 195:1 199:1 202:1 206:1 207:1 210:1 211:1 214:1 215:1 218:1 222:1 223:1 224:1 227:1 234:1 239:1 250:1 
1.804318773080362 25:1 26:1 41:1 42:1 51:1 52:1 54:1 55:1 57:1 58:1 62:1 67:1 68:1 70:1 71:1 73:1 74:1 77:1 78:1 79:1 83:1 84:1 86:1 87:1 89:1 90:1 92:1 93:1 94:1 95:1 99:1 100:1 102:1 103:1 105:1 106:1 107:1 108:1 109:1 110:1 111:1 115:1 116:1 118:1 119:1 121:1 122:1 123:1 124:1 126:1 127:1 131:1 132:1 133:1 134:1 135:1 136:1 137:1 138:1 142:1 143:1 147:1 148:1 150:1 151:1 153:1 154:1 158:1 159:1 163:1 164:1 166:1 167:1 169:1 170:1 172:1 174:1 175:1 179:1 180:1 182:1 183:1 185:1 186:1 187:1 188:1 189:1 190:1 195:1 198:1 199:1 201:1 202:1 205:1 206:1 210:1 211:1 214:1 215:1 217:1 218:1 222:1 223:1 224:1 233:1 234:1 239:1 249:1 250:1 
0.3304503735035325 26:1 42:1 52:1 54:1 62:1 63:1 68:1 70:1 78:1 79:1 83:1 84:1 86:1 93:1 94:1 95:1 99:1 102:1 107:1 108:1 109:1 110:1 111:1 115:1 118:1 122:1 123:1 124:1 126:1 127:1 131:1 132:1 133:1 134:1 135:1 136:1 137:1 138:1 142:1 147:1 150:1 158:1 163:1 166:1 174:1 178:1 179:1 182:1 188:1 189:1 190:1 194:1 195:1 197:1 198:1 205:1 206:1 214:1 217:1 222:1 223:1 224:1 233:1 239:1 
2.997436846048336 26:1 42:1 52:1 54:1 62:1 63:1 68:1 70:1 78:1 79:1 83:1 84:1 86:1 93:1 94:1 95:1 99:1 102:1 107:1 108:1 109:1 110:1 111:1 115:1 118:1 122:1 123:1 124:1 126:1 127:1 131:1 132:1 133:1 134:1 135:1 136:1 137:1 138:1 142:1 147:1 150:1 158:1 163:1 166:1 174:1 178:1 179:1 182:1 188:1 189:1 190:1 194:1 195:1 197:1 198:1 205:1 206:1 214:1 217:1 222:1 223:1 224:1 233:1 239:1 
0.01277164142981687 35:1 36:1 38:1 39:1 40:1 41:1 42:1 47:1 51:1 52:1 55:1 56:1 57:1 58:1 62:1 63:1 64:1 67:1 71:1 74:1 78:1 79:1 83:1 87:1 90:1 92:1 93:1 94:1 99:1 103:1 104:1 105:1 106:1 107:1 108:1 109:1 115:1 116:1 117:1 118:1 119:1 120:1 121:1 122:1 123:1 131:1 147:1 148:1 149:1 150:1 151:1 152:1 153:1 154:1 155:1 156:1 157:1 158:1 159:1 163:1 164:1 165:1 166:1 167:1 168:1 169:1 170:1 171:1 172:1 173:1 174:1 175:1 179:1 183:1 186:1 195:1 199:1 202:1 211:1 215:1 216:1 217:1 218:1 227:1 228:1 230:1 231:1 232:1 233:1 234:1 243:1 244:1 
0.01192634836910442 18:1 19:1 34:1 35:1 38:1 39:1 40:1 41:1 42:1 46:1 47:1 48:1 50:1 51:1 54:1 55:1 56:1 57:1 58:1 62:1 63:1 67:1 70:1 71:1 74:1 77:1 78:1 79:1 83:1 86:1 87:1 90:1 92:1 93:1 94:1 99:1 100:1 101:1 102:1 103:1 104:1 105:1 106:1 107:1 108:1 109:1 115:1 116:1 117:1 118:1 119:1 120:1 121:1 122:1 123:1 124:1 131:1 147:1 163:1 164:1 165:1 166:1 167:1 168:1 169:1 170:1 171:1 172:1 173:1 174:1 175:1 176:1 179:1 182:1 183:1 186:1 195:1 198:1 199:1 202:1 210:1 211:1 214:1 215:1 218:1 226:1 227:1 230:1 231:1 232:1 233:1 234:1 242:1 243:1 
0.1923134835909436 70:1 73:1 86:1 87:1 89:1 90:1 91:1 92:1 93:1 102:1 104:1 105:1 109:1 118:1 121:1 124:1 133:1 134:1 135:1 136:1 137:1 138:1 139:1 150:1 153:1 155:1 156:1 166:1 167:1 168:1 169:1 170:1 171:1 172:1 182:1 183:1 185:1 186:1 188:1 189:1 198:1 201:1 205:1 
-3 26:1 35:1 36:1 42:1 51:1 52:1 54:1 55:1 58:1 63:1 67:1 68:1 71:1 74:1 78:1 79:1 83:1 84:1 87:1 90:1 93:1 94:1 95:1 99:1 100:1 103:1 106:1 108:1 109:1 110:1 111:1 115:1 116:1 119:1 122:1 123:1 124:1 126:1 127:1 131:1 132:1 133:1 134:1 135:1 136:1 137:1 138:1 139:1 142:1 143:1 147:1 148:1 151:1 154:1 158:1 159:1 163:1 164:1 167:1 170:1 171:1 172:1 174:1 175:1 179:1 180:1 183:1 186:1 188:1 189:1 190:1 191:1 195:1 196:1 198:1 199:1 202:1 206:1 207:1 211:1 212:1 214:1 215:1 218:1 222:1 223:1 224:1 227:1 228:1 234:1 250:1 
-3 25:1 26:1 35:1 41:1 42:1 51:1 54:1 57:1 58:1 62:1 67:1 70:1 73:1 74:1 77:1 78:1 79:1 83:1 86:1 89:1 90:1 92:1 93:1 94:1 95:1 99:1 102:1 105:1 106:1 107:1 108:1 109:1 110:1 111:1 115:1 118:1 121:1 122:1 123:1 126:1 127:1 131:1 132:1 133:1 134:1 135:1 136:1 137:1 138:1 142:1 143:1 147:1 150:1 153:1 154:1 158:1 163:1 166:1 169:1 170:1 172:1 174:1 179:1 182:1 185:1 186:1 187:1 188:1 189:1 190:1 195:1 198:1 201:1 202:1 205:1 206:1 207:1 211:1 214:1 217:1 218:1 222:1 223:1 224:1 233:1 234:1 239:1 249:1 250:1 
-1.767304706913636 42:1 51:1 67:1 70:1 78:1 79:1 83:1 86:1 93:1 94:1 95:1 99:1 102:1 108:1 109:1 111:1 115:1 118:1 122:1 123:1 124:1 127:1 131:1 132:1 133:1 134:1 135:1 136:1 137:1 142:1 143:1 147:1 150:1 158:1 159:1 163:1 166:1 174:1 179:1 182:1 188:1 189:1 190:1 194:1 195:1 197:1 198:1 205:1 206:1 210:1 211:1 214:1 217:1 222:1 223:1 224:1 227:1 233:1 238:1 239:1 
-2.997436846048336 42:1 51:1 67:1 70:1 78:1 79:1 83:1 86:1 93:1 94:1 95:1 99:1 102:1 108:1 109:1 111:1 115:1 118:1 122:1 123:1 124:1 127:1 131:1 132:1 133:1 134:1 135:1 136:1 137:1 142:1 143:1 147:1 150:1 158:1 159:1 163:1 166:1 174:1 179:1 182:1 188:1 189:1 190:1 194:1 195:1 197:1 198:1 205:1 206:1 210:1 211:1 214:1 217:1 222:1 223:1 224:1 227:1 233:1 238:1 239:1 
