svm_type c_svc
kernel_type rbf
gamma 0.015625
nr_class 2
total_sv 32
rho -1.33872
label -1 1
nr_sv 27 5
SV
0.2586235866296812 70:1 77:1 86:1 93:1 102:1 108:1 109:1 118:1 122:1 123:1 124:1 134:1 135:1 136:1 137:1 138:1 150:1 166:1 182:1 198:1 
0.7449780588886527 70:1 75:1 76:1 86:1 90:1 91:1 102:1 105:1 106:1 118:1 120:1 121:1 134:1 135:1 136:1 137:1 138:1 139:1 140:1 141:1 142:1 150:1 151:1 153:1 166:1 169:1 170:1 182:1 186:1 198:1 202:1 203:1 
0.4065910307657951 73:1 86:1 102:1 103:1 104:1 105:1 106:1 107:1 108:1 109:1 118:1 124:1 133:1 134:1 135:1 136:1 138:1 139:1 140:1 150:1 155:1 156:1 166:1 167:1 170:1 172:1 182:1 183:1 186:1 189:1 198:1 
0.3487022957309653 70:1 72:1 73:1 86:1 87:1 88:1 89:1 90:1 92:1 93:1 101:1 102:1 103:1 106:1 107:1 108:1 109:1 118:1 120:1 122:1 123:1 125:1 134:1 135:1 138:1 139:1 141:1 150:1 151:1 152:1 154:1 157:1 166:1 168:1 170:1 173:1 182:1 184:1 189:1 198:1 199:1 200:1 204:1 205:1 
0.1167342816073517 71:1 73:1 75:1 87:1 89:1 91:1 93:1 101:1 102:1 103:1 105:1 106:1 107:1 108:1 109:1 117:1 121:1 122:1 123:1 133:1 134:1 135:1 136:1 137:1 139:1 150:1 165:1 166:1 167:1 168:1 169:1 170:1 171:1 172:1 173:1 189:1 203:1 204:1 205:1 
0.09448780421496862 70:1 87:1 88:1 89:1 90:1 92:1 93:1 106:1 108:1 109:1 122:1 123:1 125:1 133:1 134:1 135:1 136:1 137:1 138:1 139:1 141:1 154:1 155:1 157:1 165:1 170:1 173:1 183:1 184:1 185:1 186:1 189:1 198:1 204:1 205:1 
0.5487549972767422 70:1 75:1 76:1 86:1 87:1 90:1 92:1 101:1 102:1 103:1 106:1 107:1 108:1 109:1 118:1 119:1 122:1 124:1 134:1 139:1 140:1 149:1 150:1 151:1 152:1 153:1 154:1 155:1 156:1 173:1 189:1 204:1 205:1 
2.636578287891096 70:1 75:1 86:1 90:1 91:1 101:1 102:1 103:1 106:1 107:1 108:1 109:1 118:1 119:1 120:1 121:1 122:1 123:1 134:1 139:1 149:1 150:1 151:1 152:1 153:1 154:1 155:1 156:1 157:1 173:1 189:1 203:1 204:1 205:1 
0.9711495587861678 70:1 71:1 72:1 73:1 74:1 75:1 76:1 86:1 87:1 88:1 90:1 91:1 92:1 101:1 102:1 103:1 104:1 106:1 107:1 108:1 109:1 110:1 118:1 119:1 120:1 121:1 122:1 123:1 124:1 136:1 150:1 151:1 156:1 157:1 166:1 170:1 171:1 182:1 185:1 186:1 198:1 201:1 204:1 205:1 
1.811826053910136 70:1 71:1 72:1 73:1 74:1 75:1 86:1 87:1 88:1 89:1 90:1 101:1 102:1 103:1 104:1 105:1 106:1 107:1 108:1 109:1 118:1 119:1 120:1 121:1 122:1 135:1 136:1 150:1 151:1 152:1 155:1 156:1 157:1 165:1 166:1 170:1 173:1 182:1 185:1 189:1 198:1 204:1 205:1 
2.944094687149371 70:1 76:1 87:1 101:1 102:1 103:1 107:1 108:1 109:1 119:1 120:1 121:1 122:1 136:1 149:1 150:1 151:1 155:1 156:1 157:1 165:1 169:1 170:1 173:1 184:1 185:1 189:1 203:1 204:1 205:1 
0.07112582968140327 78:1 86:1 93:1 102:1 105:1 106:1 107:1 108:1 118:1 134:1 150:1 166:1 169:1 170:1 171:1 172:1 173:1 174:1 182:1 198:1 
0.1653889986285091 72:1 73:1 74:1 75:1 77:1 88:1 91:1 93:1 104:1 105:1 106:1 107:1 108:1 109:1 124:1 125:1 135:1 136:1 137:1 138:1 139:1 140:1 141:1 151:1 155:1 156:1 157:1 166:1 168:1 169:1 170:1 171:1 173:1 182:1 184:1 185:1 186:1 189:1 200:1 203:1 204:1 205:1 
0.02382678768151466 77:1 90:1 106:1 124:1 135:1 136:1 137:1 138:1 139:1 140:1 150:1 155:1 165:1 169:1 170:1 181:1 184:1 185:1 186:1 203:1 
0.4726809225355316 70:1 77:1 78:1 86:1 92:1 93:1 102:1 105:1 106:1 107:1 108:1 118:1 133:1 134:1 150:1 166:1 169:1 170:1 171:1 172:1 173:1 182:1 198:1 205:1 
0.4530093905432879 70:1 73:1 74:1 78:1 86:1 89:1 93:1 102:1 104:1 105:1 106:1 109:1 118:1 122:1 123:1 124:1 125:1 133:1 134:1 139:1 140:1 150:1 154:1 155:1 156:1 157:1 166:1 168:1 169:1 173:1 182:1 184:1 185:1 189:1 198:1 201:1 202:1 206:1 
0.5432790636416354 70:1 74:1 86:1 93:1 102:1 103:1 104:1 106:1 107:1 108:1 118:1 119:1 120:1 133:1 134:1 135:1 136:1 150:1 151:1 152:1 155:1 156:1 157:1 166:1 167:1 168:1 173:1 182:1 186:1 189:1 198:1 201:1 204:1 205:1 
0.8951535989814388 74:1 86:1 90:1 102:1 103:1 104:1 106:1 118:1 120:1 122:1 123:1 133:1 134:1 136:1 138:1 139:1 141:1 150:1 152:1 154:1 155:1 157:1 166:1 167:1 168:1 169:1 170:1 171:1 173:1 182:1 186:1 187:1 189:1 198:1 201:1 203:1 204:1 205:1 
0.1052697505529204 86:1 93:1 108:1 109:1 122:1 123:1 125:1 134:1 135:1 136:1 137:1 141:1 149:1 150:1 151:1 152:1 157:1 169:1 170:1 173:1 187:1 189:1 203:1 205:1 
0.2581999364628387 85:1 86:1 87:1 88:1 89:1 90:1 91:1 92:1 93:1 107:1 108:1 118:1 122:1 125:1 135:1 136:1 140:1 152:1 155:1 156:1 169:1 170:1 171:1 181:1 182:1 183:1 184:1 185:1 187:1 188:1 205:1 
0.570138882571074 72:1 73:1 85:1 86:1 87:1 88:1 89:1 90:1 91:1 92:1 93:1 94:1 101:1 118:1 121:1 122:1 125:1 134:1 135:1 136:1 138:1 139:1 140:1 141:1 149:1 150:1 151:1 154:1 155:1 157:1 166:1 169:1 170:1 173:1 182:1 184:1 185:1 187:1 188:1 189:1 198:1 200:1 204:1 205:1 206:1 
0.1016749933245899 72:1 86:1 87:1 88:1 89:1 90:1 91:1 92:1 93:1 101:1 102:1 107:1 119:1 122:1 123:1 125:1 136:1 138:1 140:1 141:1 150:1 151:1 155:1 156:1 165:1 168:1 169:1 170:1 187:1 188:1 198:1 199:1 205:1 
0.1422287580545494 72:1 73:1 85:1 86:1 87:1 88:1 89:1 90:1 91:1 92:1 93:1 94:1 101:1 108:1 109:1 118:1 119:1 121:1 122:1 123:1 124:1 136:1 141:1 142:1 150:1 151:1 152:1 156:1 157:1 165:1 166:1 168:1 169:1 170:1 171:1 172:1 182:1 186:1 187:1 188:1 198:1 199:1 200:1 205:1 
0.03065903741504929 72:1 73:1 85:1 86:1 87:1 88:1 89:1 90:1 91:1 92:1 93:1 94:1 108:1 109:1 110:1 118:1 134:1 136:1 139:1 149:1 150:1 152:1 155:1 166:1 168:1 173:1 182:1 184:1 186:1 198:1 200:1 202:1 204:1 205:1 
0.06129918411089252 72:1 73:1 85:1 86:1 87:1 88:1 89:1 90:1 91:1 92:1 93:1 94:1 101:1 107:1 118:1 120:1 123:1 134:1 136:1 139:1 149:1 150:1 152:1 153:1 154:1 155:1 156:1 157:1 166:1 168:1 170:1 182:1 184:1 186:1 198:1 199:1 202:1 204:1 205:1 
0.06571538200947874 72:1 73:1 85:1 86:1 87:1 93:1 101:1 102:1 105:1 106:1 109:1 117:1 118:1 120:1 122:1 124:1 125:1 134:1 136:1 138:1 139:1 140:1 150:1 151:1 152:1 153:1 154:1 155:1 156:1 157:1 158:1 165:1 166:1 168:1 170:1 173:1 181:1 182:1 184:1 186:1 189:1 198:1 199:1 200:1 202:1 203:1 204:1 
0.157828840954358 73:1 87:1 88:1 89:1 90:1 91:1 92:1 93:1 101:1 102:1 108:1 118:1 122:1 134:1 136:1 137:1 139:1 140:1 149:1 150:1 151:1 166:1 169:1 173:1 182:1 198:1 202:1 
-3 70:1 71:1 74:1 75:1 86:1 90:1 91:1 101:1 102:1 103:1 106:1 107:1 108:1 109:1 118:1 119:1 122:1 123:1 135:1 136:1 139:1 149:1 150:1 151:1 152:1 155:1 156:1 157:1 166:1 168:1 169:1 170:1 173:1 182:1 184:1 189:1 198:1 204:1 205:1 
-3 70:1 72:1 73:1 74:1 75:1 76:1 85:1 86:1 87:1 89:1 91:1 92:1 93:1 94:1 102:1 105:1 108:1 118:1 120:1 121:1 122:1 123:1 124:1 135:1 136:1 140:1 141:1 149:1 150:1 151:1 155:1 156:1 157:1 166:1 170:1 171:1 182:1 185:1 186:1 198:1 201:1 204:1 205:1 
-3 70:1 75:1 76:1 86:1 90:1 91:1 101:1 102:1 103:1 106:1 107:1 108:1 109:1 118:1 120:1 121:1 122:1 123:1 134:1 136:1 139:1 140:1 150:1 151:1 152:1 155:1 156:1 157:1 165:1 166:1 169:1 170:1 173:1 182:1 185:1 189:1 198:1 204:1 205:1 
-3 70:1 86:1 90:1 101:1 102:1 103:1 106:1 107:1 108:1 109:1 118:1 122:1 134:1 136:1 139:1 150:1 151:1 155:1 156:1 157:1 165:1 169:1 170:1 173:1 184:1 189:1 198:1 203:1 204:1 205:1 
-3 70:1 86:1 90:1 101:1 102:1 103:1 106:1 107:1 108:1 109:1 118:1 122:1 134:1 136:1 139:1 150:1 151:1 155:1 156:1 157:1 165:1 169:1 170:1 173:1 184:1 189:1 198:1 203:1 204:1 205:1 
