svm_type c_svc
kernel_type rbf
gamma 0.015625
nr_class 2
total_sv 31
rho -1.23714
label -1 1
nr_sv 26 5
SV
0.5555216354213199 69:1 125:1 134:1 135:1 136:1 137:1 138:1 139:1 140:1 141:1 
0.1591439125219642 70:1 86:1 102:1 109:1 118:1 125:1 126:1 134:1 135:1 136:1 137:1 138:1 139:1 140:1 141:1 150:1 151:1 152:1 153:1 154:1 155:1 156:1 166:1 182:1 198:1 
0.5660173910709383 125:1 134:1 135:1 136:1 137:1 138:1 139:1 140:1 141:1 197:1 
0.0387819064889167 70:1 86:1 102:1 118:1 134:1 135:1 136:1 137:1 138:1 139:1 140:1 141:1 142:1 150:1 166:1 182:1 198:1 
1.179771879612399 69:1 134:1 135:1 136:1 137:1 138:1 139:1 140:1 141:1 181:1 197:1 198:1 
0.1234435476794964 70:1 86:1 89:1 92:1 102:1 103:1 104:1 105:1 107:1 117:1 118:1 121:1 125:1 134:1 135:1 136:1 137:1 138:1 139:1 140:1 141:1 150:1 153:1 166:1 169:1 171:1 182:1 185:1 187:1 188:1 198:1 204:1 
0.09368646156055578 73:1 85:1 87:1 93:1 101:1 108:1 117:1 123:1 133:1 134:1 135:1 136:1 137:1 138:1 149:1 165:1 171:1 172:1 181:1 183:1 188:1 189:1 201:1 
0.8315071582506938 73:1 74:1 86:1 89:1 102:1 105:1 121:1 134:1 135:1 136:1 137:1 138:1 139:1 140:1 141:1 149:1 153:1 157:1 165:1 169:1 173:1 181:1 185:1 189:1 201:1 204:1 
0.1398442041276799 73:1 85:1 87:1 89:1 101:1 103:1 104:1 105:1 117:1 120:1 121:1 125:1 133:1 134:1 135:1 136:1 137:1 138:1 139:1 140:1 141:1 149:1 153:1 165:1 167:1 168:1 169:1 181:1 182:1 183:1 185:1 201:1 
0.515234739094542 73:1 89:1 103:1 104:1 105:1 121:1 125:1 134:1 135:1 136:1 137:1 138:1 139:1 140:1 141:1 149:1 153:1 165:1 167:1 168:1 169:1 181:1 183:1 185:1 201:1 
0.1564022808544323 73:1 76:1 77:1 86:1 87:1 88:1 89:1 91:1 92:1 102:1 105:1 107:1 109:1 118:1 121:1 126:1 134:1 135:1 136:1 137:1 138:1 139:1 140:1 141:1 150:1 153:1 169:1 171:1 181:1 185:1 187:1 188:1 201:1 204:1 205:1 
0.2965785104936176 73:1 87:1 89:1 105:1 121:1 133:1 134:1 135:1 136:1 137:1 138:1 139:1 140:1 141:1 153:1 165:1 169:1 172:1 181:1 183:1 184:1 185:1 188:1 198:1 201:1 202:1 
0.8834394645902415 125:1 133:1 134:1 135:1 136:1 137:1 138:1 139:1 140:1 141:1 
3 125:1 133:1 134:1 135:1 136:1 137:1 138:1 139:1 140:1 141:1 
1.322644398318351 85:1 101:1 117:1 125:1 133:1 136:1 137:1 138:1 139:1 140:1 141:1 149:1 151:1 165:1 166:1 181:1 
1.449914379834016 72:1 86:1 87:1 101:1 102:1 109:1 118:1 134:1 135:1 136:1 137:1 138:1 139:1 140:1 141:1 150:1 166:1 182:1 184:1 198:1 199:1 200:1 
0.06166285126814745 72:1 85:1 88:1 101:1 104:1 117:1 118:1 120:1 125:1 133:1 135:1 136:1 137:1 138:1 139:1 140:1 141:1 149:1 150:1 151:1 152:1 165:1 168:1 181:1 184:1 200:1 
0.3859163254283345 73:1 85:1 101:1 117:1 119:1 125:1 133:1 135:1 136:1 137:1 138:1 139:1 140:1 141:1 149:1 150:1 151:1 165:1 166:1 181:1 186:1 201:1 
1.127122138180425 125:1 135:1 136:1 137:1 138:1 139:1 140:1 141:1 150:1 152:1 165:1 166:1 181:1 185:1 200:1 
0.08857815594941218 71:1 73:1 86:1 87:1 89:1 101:1 102:1 103:1 105:1 118:1 121:1 125:1 134:1 135:1 136:1 137:1 138:1 139:1 140:1 141:1 150:1 151:1 153:1 169:1 184:1 185:1 186:1 187:1 201:1 
1.340355218385958 72:1 85:1 88:1 101:1 104:1 117:1 120:1 125:1 133:1 136:1 137:1 138:1 139:1 140:1 141:1 149:1 152:1 165:1 168:1 181:1 184:1 200:1 
0.1964620161492539 72:1 85:1 101:1 105:1 106:1 117:1 133:1 141:1 149:1 157:1 165:1 172:1 181:1 186:1 187:1 188:1 200:1 
0.1348749514631434 77:1 85:1 90:1 93:1 101:1 106:1 109:1 117:1 120:1 121:1 122:1 124:1 125:1 133:1 134:1 135:1 136:1 137:1 138:1 139:1 140:1 141:1 149:1 150:1 155:1 157:1 165:1 166:1 169:1 170:1 173:1 181:1 184:1 185:1 186:1 189:1 205:1 
0.1078816932963379 73:1 87:1 93:1 101:1 102:1 109:1 124:1 134:1 135:1 136:1 137:1 138:1 168:1 181:1 182:1 183:1 189:1 200:1 201:1 202:1 203:1 
0.2313613889332561 72:1 85:1 86:1 87:1 88:1 89:1 90:1 91:1 92:1 93:1 101:1 104:1 109:1 117:1 122:1 124:1 134:1 135:1 136:1 137:1 138:1 139:1 154:1 170:1 181:1 182:1 183:1 184:1 185:1 186:1 187:1 200:1 
0.01385339102656782 73:1 87:1 88:1 93:1 101:1 102:1 108:1 109:1 117:1 123:1 124:1 134:1 135:1 136:1 137:1 152:1 168:1 169:1 170:1 171:1 172:1 173:1 181:1 184:1 200:1 
-3 85:1 101:1 117:1 125:1 133:1 134:1 135:1 136:1 137:1 138:1 139:1 140:1 141:1 149:1 165:1 181:1 
-3 70:1 73:1 86:1 89:1 102:1 105:1 109:1 110:1 118:1 121:1 126:1 134:1 135:1 136:1 137:1 138:1 139:1 140:1 141:1 150:1 153:1 166:1 169:1 182:1 185:1 198:1 201:1 
-3 72:1 85:1 101:1 117:1 125:1 133:1 134:1 135:1 136:1 137:1 138:1 139:1 140:1 141:1 149:1 165:1 181:1 200:1 
-3 125:1 134:1 135:1 136:1 137:1 138:1 139:1 140:1 141:1 181:1 184:1 200:1 
-3 125:1 134:1 135:1 136:1 137:1 138:1 139:1 140:1 141:1 181:1 184:1 200:1 
