svm_type c_svc
kernel_type rbf
gamma 0.015625
nr_class 2
total_sv 35
rho -1.41586
label -1 1
nr_sv 30 5
SV
0.4226954735064595 71:1 77:1 87:1 88:1 93:1 103:1 104:1 105:1 106:1 109:1 119:1 122:1 123:1 124:1 135:1 137:1 138:1 139:1 140:1 149:1 150:1 151:1 152:1 153:1 156:1 167:1 173:1 183:1 189:1 199:1 205:1 
0.004840464929760468 77:1 101:1 102:1 103:1 104:1 105:1 106:1 107:1 108:1 165:1 166:1 167:1 168:1 169:1 170:1 171:1 172:1 
0.2137538390301746 86:1 102:1 103:1 104:1 105:1 106:1 107:1 108:1 153:1 154:1 155:1 156:1 165:1 181:1 184:1 
0.534887466971664 75:1 77:1 89:1 90:1 101:1 102:1 103:1 104:1 105:1 121:1 122:1 123:1 124:1 139:1 152:1 153:1 154:1 165:1 168:1 169:1 186:1 187:1 203:1 205:1 
0.1320017517304149 86:1 102:1 103:1 119:1 136:1 137:1 138:1 139:1 140:1 141:1 151:1 152:1 166:1 167:1 181:1 182:1 
0.1374502718135373 102:1 107:1 108:1 119:1 120:1 123:1 138:1 149:1 150:1 151:1 152:1 153:1 154:1 155:1 156:1 157:1 158:1 
0.223606549015353 69:1 85:1 150:1 151:1 152:1 153:1 169:1 170:1 171:1 172:1 188:1 189:1 205:1 
0.3111876974181986 77:1 92:1 93:1 107:1 108:1 118:1 119:1 120:1 121:1 122:1 153:1 157:1 166:1 167:1 168:1 173:1 181:1 188:1 189:1 201:1 
0.006703578005638082 77:1 92:1 107:1 118:1 119:1 120:1 121:1 165:1 166:1 167:1 168:1 173:1 181:1 188:1 189:1 200:1 201:1 202:1 
0.541977345354362 76:1 87:1 93:1 103:1 104:1 108:1 109:1 120:1 123:1 124:1 136:1 137:1 138:1 151:1 152:1 153:1 165:1 166:1 167:1 169:1 170:1 186:1 
0.08529386462460542 77:1 88:1 93:1 101:1 102:1 103:1 104:1 108:1 120:1 123:1 136:1 137:1 138:1 150:1 151:1 153:1 171:1 172:1 188:1 205:1 
0.490339954502566 74:1 89:1 93:1 104:1 108:1 118:1 119:1 123:1 133:1 137:1 138:1 152:1 153:1 156:1 167:1 170:1 171:1 172:1 187:1 188:1 205:1 
3 77:1 86:1 87:1 92:1 93:1 103:1 104:1 108:1 117:1 121:1 122:1 123:1 134:1 138:1 139:1 153:1 155:1 166:1 167:1 168:1 172:1 182:1 188:1 205:1 
2.386903166322125 77:1 86:1 87:1 93:1 103:1 104:1 108:1 117:1 121:1 122:1 123:1 124:1 134:1 135:1 138:1 139:1 153:1 154:1 155:1 156:1 166:1 167:1 168:1 172:1 182:1 189:1 205:1 
0.9398833663319887 93:1 103:1 117:1 121:1 124:1 134:1 138:1 139:1 153:1 154:1 155:1 156:1 166:1 167:1 168:1 172:1 182:1 189:1 205:1 
0.6069308625543685 77:1 102:1 103:1 104:1 105:1 106:1 108:1 123:1 149:1 152:1 153:1 154:1 165:1 202:1 
0.6531476684069711 102:1 103:1 104:1 105:1 106:1 149:1 152:1 153:1 154:1 155:1 165:1 172:1 188:1 189:1 202:1 
0.5850493490951977 70:1 73:1 77:1 86:1 87:1 89:1 92:1 93:1 102:1 103:1 104:1 105:1 107:1 108:1 118:1 121:1 123:1 137:1 138:1 152:1 153:1 154:1 165:1 167:1 169:1 173:1 181:1 183:1 185:1 189:1 197:1 203:1 204:1 205:1 
0.001222689322850742 75:1 78:1 87:1 89:1 91:1 93:1 94:1 103:1 105:1 107:1 109:1 120:1 123:1 124:1 125:1 139:1 140:1 151:1 152:1 153:1 154:1 155:1 156:1 171:1 173:1 183:1 184:1 187:1 189:1 198:1 199:1 203:1 206:1 
0.06820209486948391 70:1 75:1 76:1 86:1 90:1 91:1 101:1 102:1 103:1 106:1 107:1 108:1 109:1 118:1 120:1 121:1 122:1 123:1 134:1 136:1 139:1 140:1 150:1 151:1 152:1 155:1 156:1 157:1 165:1 166:1 169:1 170:1 173:1 182:1 185:1 189:1 198:1 204:1 205:1 
0.7300178609408521 72:1 77:1 92:1 93:1 101:1 102:1 109:1 123:1 124:1 135:1 138:1 139:1 165:1 173:1 189:1 204:1 205:1 
0.05154690729860432 77:1 92:1 93:1 107:1 108:1 109:1 121:1 122:1 125:1 141:1 157:1 171:1 172:1 173:1 188:1 189:1 205:1 
0.1466540751933881 77:1 85:1 91:1 101:1 104:1 105:1 106:1 107:1 117:1 118:1 122:1 133:1 137:1 139:1 149:1 155:1 156:1 165:1 167:1 168:1 169:1 181:1 205:1 
0.08747822997999244 69:1 77:1 85:1 87:1 88:1 89:1 93:1 105:1 106:1 107:1 108:1 109:1 120:1 121:1 122:1 123:1 124:1 125:1 133:1 136:1 137:1 138:1 139:1 140:1 141:1 152:1 153:1 154:1 155:1 156:1 157:1 169:1 170:1 171:1 172:1 173:1 181:1 183:1 184:1 185:1 189:1 197:1 205:1 
0.1434840629891733 70:1 77:1 87:1 88:1 89:1 93:1 105:1 106:1 107:1 108:1 109:1 121:1 123:1 125:1 133:1 137:1 139:1 141:1 152:1 153:1 155:1 157:1 169:1 170:1 171:1 172:1 173:1 182:1 183:1 184:1 185:1 189:1 205:1 
0.3122793834184342 76:1 77:1 89:1 90:1 91:1 101:1 102:1 103:1 104:1 105:1 122:1 125:1 139:1 140:1 153:1 154:1 155:1 165:1 166:1 167:1 168:1 169:1 170:1 187:1 188:1 204:1 205:1 
0.3059643577478586 72:1 73:1 86:1 87:1 88:1 89:1 90:1 91:1 92:1 93:1 94:1 101:1 103:1 110:1 119:1 120:1 121:1 125:1 135:1 138:1 139:1 140:1 141:1 151:1 155:1 156:1 165:1 166:1 167:1 168:1 169:1 170:1 172:1 173:1 183:1 189:1 199:1 205:1 206:1 
1.377244552967703 77:1 92:1 93:1 108:1 122:1 123:1 133:1 134:1 135:1 136:1 138:1 139:1 150:1 155:1 156:1 166:1 167:1 172:1 182:1 183:1 188:1 189:1 200:1 205:1 
0.1296924913228537 73:1 86:1 87:1 88:1 89:1 90:1 91:1 92:1 93:1 101:1 120:1 125:1 139:1 140:1 153:1 154:1 165:1 166:1 167:1 172:1 184:1 189:1 199:1 202:1 205:1 
0.369560624335421 72:1 73:1 85:1 86:1 87:1 104:1 109:1 119:1 120:1 121:1 122:1 123:1 125:1 136:1 139:1 141:1 151:1 152:1 153:1 155:1 156:1 157:1 167:1 170:1 171:1 173:1 184:1 185:1 187:1 189:1 199:1 201:1 202:1 203:1 205:1 
-3 77:1 86:1 87:1 92:1 93:1 103:1 104:1 108:1 121:1 122:1 123:1 138:1 139:1 153:1 155:1 166:1 167:1 168:1 172:1 182:1 188:1 205:1 
-3 77:1 78:1 86:1 87:1 93:1 104:1 105:1 109:1 122:1 123:1 124:1 139:1 140:1 153:1 154:1 155:1 156:1 167:1 168:1 169:1 173:1 182:1 183:1 189:1 205:1 206:1 
-3 77:1 85:1 86:1 92:1 93:1 101:1 102:1 103:1 104:1 108:1 120:1 121:1 122:1 123:1 137:1 138:1 139:1 152:1 153:1 155:1 156:1 165:1 166:1 167:1 172:1 188:1 189:1 205:1 
-3 77:1 103:1 108:1 121:1 123:1 138:1 139:1 152:1 153:1 155:1 156:1 165:1 166:1 167:1 172:1 189:1 205:1 
-3 77:1 103:1 108:1 121:1 123:1 138:1 139:1 152:1 153:1 155:1 156:1 165:1 166:1 167:1 172:1 189:1 205:1 
