svm_type c_svc
kernel_type rbf
gamma 0.015625
nr_class 2
total_sv 31
rho -1.59061
label -1 1
nr_sv 26 5
SV
0.1223363507535676 70:1 77:1 86:1 93:1 102:1 108:1 109:1 118:1 122:1 123:1 124:1 134:1 135:1 136:1 137:1 138:1 150:1 166:1 182:1 198:1 
0.8554677813191388 71:1 72:1 73:1 74:1 90:1 106:1 122:1 134:1 135:1 136:1 137:1 138:1 152:1 154:1 158:1 168:1 170:1 174:1 184:1 186:1 189:1 200:1 201:1 202:1 203:1 204:1 
0.5411209316915824 73:1 85:1 87:1 93:1 101:1 108:1 109:1 117:1 123:1 133:1 134:1 135:1 136:1 137:1 138:1 149:1 155:1 165:1 171:1 172:1 181:1 183:1 188:1 189:1 201:1 
1.376363153348893 93:1 108:1 109:1 123:1 125:1 134:1 135:1 136:1 137:1 138:1 141:1 172:1 181:1 183:1 185:1 188:1 189:1 201:1 
0.1131693222066764 72:1 86:1 87:1 101:1 102:1 109:1 118:1 134:1 135:1 136:1 137:1 138:1 139:1 140:1 141:1 150:1 166:1 182:1 184:1 198:1 199:1 200:1 
1.301852633674006 73:1 87:1 88:1 89:1 90:1 91:1 92:1 93:1 101:1 102:1 109:1 118:1 124:1 138:1 139:1 153:1 167:1 168:1 182:1 183:1 203:1 204:1 
1.073252942753195 73:1 87:1 88:1 89:1 90:1 91:1 92:1 93:1 101:1 102:1 123:1 124:1 134:1 135:1 136:1 182:1 189:1 203:1 204:1 205:1 
0.6999431389689876 72:1 73:1 86:1 87:1 88:1 89:1 90:1 91:1 92:1 93:1 101:1 102:1 109:1 119:1 120:1 133:1 134:1 135:1 137:1 149:1 150:1 151:1 153:1 154:1 166:1 167:1 173:1 182:1 183:1 189:1 198:1 199:1 200:1 201:1 202:1 203:1 204:1 
0.4859627647256813 73:1 87:1 88:1 93:1 101:1 102:1 109:1 121:1 122:1 135:1 136:1 141:1 157:1 184:1 201:1 202:1 203:1 
0.5533094828034187 72:1 73:1 86:1 87:1 88:1 89:1 90:1 91:1 92:1 93:1 101:1 117:1 119:1 120:1 121:1 122:1 123:1 124:1 125:1 134:1 166:1 173:1 182:1 189:1 198:1 199:1 200:1 201:1 202:1 203:1 204:1 205:1 
0.06604973277036859 73:1 87:1 88:1 93:1 101:1 102:1 103:1 117:1 124:1 125:1 134:1 135:1 136:1 137:1 138:1 139:1 154:1 170:1 173:1 186:1 189:1 
0.5116609703241024 72:1 73:1 85:1 86:1 87:1 88:1 89:1 90:1 91:1 92:1 93:1 94:1 101:1 103:1 109:1 110:1 119:1 123:1 124:1 125:1 135:1 136:1 137:1 138:1 139:1 149:1 151:1 153:1 157:1 167:1 169:1 173:1 183:1 185:1 189:1 199:1 201:1 202:1 203:1 204:1 205:1 
0.5365833904890215 72:1 85:1 86:1 87:1 88:1 89:1 90:1 91:1 92:1 93:1 101:1 104:1 109:1 117:1 122:1 124:1 134:1 135:1 136:1 137:1 138:1 139:1 154:1 170:1 181:1 182:1 183:1 184:1 185:1 186:1 187:1 200:1 
0.5277524816951191 72:1 73:1 85:1 86:1 87:1 88:1 89:1 90:1 91:1 92:1 93:1 94:1 101:1 109:1 110:1 118:1 122:1 123:1 124:1 134:1 135:1 136:1 137:1 141:1 142:1 150:1 153:1 154:1 155:1 157:1 166:1 168:1 171:1 172:1 182:1 183:1 184:1 187:1 188:1 189:1 200:1 201:1 202:1 205:1 206:1 
0.9540363109883704 73:1 87:1 88:1 93:1 101:1 102:1 108:1 109:1 117:1 123:1 124:1 134:1 135:1 136:1 137:1 152:1 168:1 169:1 170:1 171:1 172:1 173:1 181:1 184:1 200:1 
1.075589751998561 72:1 73:1 86:1 87:1 88:1 89:1 90:1 91:1 92:1 93:1 94:1 101:1 109:1 110:1 123:1 124:1 125:1 133:1 134:1 135:1 136:1 137:1 138:1 139:1 165:1 173:1 182:1 203:1 204:1 205:1 
1.300827833097479 72:1 86:1 87:1 88:1 89:1 90:1 91:1 92:1 93:1 101:1 109:1 124:1 133:1 134:1 135:1 136:1 137:1 138:1 149:1 165:1 173:1 182:1 189:1 203:1 204:1 205:1 
0.03484736194773114 72:1 87:1 93:1 101:1 102:1 109:1 118:1 120:1 134:1 136:1 137:1 138:1 140:1 150:1 151:1 152:1 154:1 156:1 165:1 166:1 168:1 170:1 172:1 173:1 182:1 184:1 186:1 187:1 189:1 198:1 200:1 202:1 
0.01421830770409912 72:1 86:1 87:1 88:1 89:1 90:1 91:1 92:1 93:1 101:1 117:1 124:1 134:1 138:1 139:1 150:1 151:1 152:1 153:1 154:1 170:1 171:1 173:1 183:1 189:1 199:1 200:1 201:1 202:1 203:1 204:1 
0.4029781082101831 72:1 73:1 85:1 86:1 87:1 88:1 89:1 90:1 91:1 92:1 93:1 94:1 101:1 109:1 110:1 118:1 119:1 124:1 125:1 135:1 136:1 137:1 138:1 139:1 149:1 150:1 151:1 152:1 157:1 170:1 171:1 173:1 189:1 200:1 201:1 202:1 203:1 204:1 205:1 
0.4522130987854152 72:1 73:1 85:1 86:1 87:1 88:1 89:1 90:1 91:1 92:1 93:1 94:1 123:1 125:1 134:1 135:1 136:1 137:1 138:1 141:1 157:1 166:1 167:1 168:1 169:1 170:1 173:1 187:1 189:1 198:1 199:1 200:1 201:1 202:1 203:1 204:1 205:1 206:1 
1.365545542558808 72:1 73:1 86:1 87:1 88:1 89:1 90:1 91:1 92:1 93:1 101:1 102:1 120:1 121:1 124:1 135:1 136:1 137:1 138:1 139:1 140:1 141:1 150:1 154:1 155:1 157:1 167:1 168:1 169:1 173:1 181:1 182:1 183:1 184:1 188:1 189:1 201:1 202:1 204:1 
0.1601946580606533 73:1 87:1 88:1 89:1 90:1 91:1 92:1 93:1 101:1 102:1 109:1 117:1 118:1 119:1 120:1 121:1 122:1 123:1 124:1 137:1 138:1 139:1 140:1 169:1 170:1 171:1 172:1 173:1 181:1 182:1 183:1 189:1 201:1 202:1 
0.1111941789807575 73:1 87:1 88:1 89:1 90:1 91:1 92:1 93:1 101:1 102:1 109:1 121:1 122:1 123:1 124:1 136:1 140:1 152:1 168:1 170:1 173:1 182:1 183:1 184:1 186:1 189:1 202:1 205:1 
0.03483062164565379 72:1 73:1 85:1 86:1 87:1 88:1 89:1 90:1 91:1 92:1 93:1 94:1 101:1 104:1 105:1 106:1 107:1 108:1 109:1 110:1 123:1 124:1 134:1 135:1 136:1 137:1 138:1 154:1 156:1 166:1 167:1 168:1 169:1 170:1 171:1 186:1 187:1 190:1 200:1 201:1 202:1 203:1 204:1 205:1 
0.3286991484985306 72:1 85:1 86:1 87:1 88:1 89:1 90:1 91:1 92:1 93:1 101:1 102:1 105:1 109:1 117:1 118:1 120:1 121:1 122:1 123:1 124:1 134:1 137:1 138:1 139:1 150:1 152:1 153:1 156:1 157:1 167:1 171:1 172:1 181:1 182:1 183:1 184:1 185:1 186:1 189:1 199:1 200:1 201:1 202:1 203:1 204:1 205:1 
-3 72:1 86:1 87:1 88:1 89:1 90:1 91:1 92:1 93:1 101:1 109:1 117:1 123:1 124:1 134:1 135:1 136:1 137:1 138:1 168:1 173:1 181:1 182:1 183:1 184:1 189:1 201:1 202:1 203:1 204:1 
-3 72:1 73:1 85:1 86:1 87:1 88:1 89:1 90:1 91:1 92:1 93:1 94:1 101:1 109:1 110:1 118:1 123:1 124:1 125:1 134:1 135:1 136:1 137:1 138:1 150:1 157:1 166:1 167:1 168:1 173:1 182:1 183:1 189:1 201:1 202:1 203:1 204:1 205:1 
-3 72:1 73:1 86:1 87:1 88:1 89:1 90:1 91:1 92:1 93:1 101:1 102:1 109:1 117:1 123:1 124:1 125:1 134:1 135:1 136:1 137:1 138:1 139:1 173:1 182:1 183:1 184:1 189:1 200:1 201:1 202:1 203:1 204:1 
-3 73:1 87:1 93:1 101:1 102:1 109:1 124:1 134:1 135:1 136:1 137:1 138:1 168:1 181:1 182:1 183:1 189:1 200:1 201:1 202:1 203:1 
-3 73:1 87:1 93:1 101:1 102:1 109:1 124:1 134:1 135:1 136:1 137:1 138:1 168:1 181:1 182:1 183:1 189:1 200:1 201:1 202:1 203:1 
