svm_type c_svc
kernel_type rbf
gamma 0.015625
nr_class 2
total_sv 25
rho -1.60317
label -1 1
nr_sv 20 5
SV
0.3728263660464318 73:1 89:1 105:1 117:1 118:1 119:1 120:1 121:1 122:1 123:1 124:1 125:1 136:1 141:1 152:1 157:1 168:1 173:1 184:1 189:1 199:1 
0.3903582072183508 75:1 101:1 102:1 103:1 104:1 118:1 134:1 141:1 150:1 157:1 166:1 171:1 173:1 182:1 185:1 186:1 187:1 188:1 198:1 
2.963901047889746 75:1 101:1 102:1 103:1 104:1 105:1 173:1 185:1 186:1 187:1 188:1 189:1 
1.471005300728934 77:1 86:1 93:1 102:1 103:1 104:1 105:1 106:1 107:1 108:1 109:1 118:1 125:1 141:1 149:1 157:1 165:1 173:1 181:1 184:1 189:1 200:1 205:1 
0.174465378176116 69:1 76:1 91:1 93:1 106:1 109:1 120:1 121:1 125:1 135:1 136:1 141:1 150:1 151:1 157:1 166:1 173:1 181:1 189:1 203:1 204:1 
0.1407457665754369 72:1 88:1 101:1 102:1 103:1 104:1 105:1 106:1 107:1 108:1 135:1 141:1 151:1 154:1 157:1 167:1 168:1 169:1 170:1 203:1 204:1 
2.524150153104614 73:1 101:1 102:1 103:1 104:1 105:1 106:1 107:1 108:1 120:1 125:1 141:1 151:1 155:1 157:1 167:1 168:1 169:1 170:1 173:1 189:1 204:1 205:1 
0.0204310356363667 72:1 87:1 88:1 101:1 102:1 103:1 104:1 107:1 108:1 109:1 117:1 118:1 120:1 122:1 123:1 125:1 134:1 136:1 137:1 138:1 141:1 150:1 152:1 153:1 157:1 166:1 168:1 173:1 182:1 189:1 204:1 205:1 
0.323303783787036 73:1 87:1 88:1 102:1 103:1 108:1 109:1 117:1 122:1 123:1 125:1 137:1 141:1 152:1 153:1 157:1 173:1 182:1 189:1 204:1 205:1 
0.4786297466918382 71:1 92:1 101:1 102:1 103:1 104:1 105:1 106:1 107:1 108:1 119:1 120:1 121:1 122:1 123:1 124:1 149:1 150:1 151:1 152:1 153:1 154:1 155:1 156:1 157:1 173:1 189:1 203:1 204:1 
0.04809976857888849 74:1 75:1 76:1 77:1 78:1 90:1 93:1 101:1 102:1 103:1 104:1 105:1 106:1 109:1 119:1 122:1 125:1 135:1 173:1 203:1 204:1 205:1 
0.1409565336538433 89:1 92:1 101:1 102:1 103:1 104:1 105:1 108:1 119:1 121:1 124:1 135:1 137:1 165:1 173:1 189:1 203:1 204:1 205:1 
0.2615502503100192 71:1 85:1 86:1 87:1 90:1 101:1 102:1 103:1 104:1 105:1 106:1 108:1 117:1 119:1 122:1 123:1 124:1 133:1 135:1 136:1 137:1 138:1 139:1 140:1 141:1 165:1 173:1 189:1 203:1 204:1 205:1 
0.560967368931753 109:1 125:1 137:1 138:1 139:1 140:1 141:1 
0.3091712946686304 72:1 85:1 101:1 105:1 106:1 117:1 133:1 141:1 149:1 157:1 165:1 172:1 181:1 186:1 187:1 188:1 200:1 
1.825891946074124 77:1 92:1 93:1 107:1 108:1 109:1 121:1 122:1 125:1 141:1 157:1 171:1 172:1 173:1 188:1 189:1 205:1 
1.734576410522084 88:1 103:1 104:1 105:1 106:1 107:1 108:1 109:1 117:1 
0.5875958653616165 73:1 87:1 88:1 101:1 102:1 104:1 105:1 106:1 107:1 108:1 109:1 182:1 204:1 
0.5900258678108098 73:1 88:1 104:1 105:1 106:1 107:1 108:1 118:1 119:1 125:1 133:1 138:1 141:1 150:1 151:1 154:1 157:1 168:1 169:1 173:1 184:1 187:1 188:1 189:1 201:1 
0.08134790823336084 72:1 88:1 103:1 104:1 105:1 106:1 107:1 108:1 109:1 118:1 125:1 133:1 141:1 150:1 155:1 157:1 167:1 168:1 169:1 170:1 171:1 173:1 183:1 188:1 189:1 200:1 
-3 101:1 102:1 103:1 104:1 105:1 106:1 107:1 108:1 125:1 141:1 157:1 173:1 187:1 188:1 
-3 117:1 118:1 119:1 120:1 121:1 122:1 123:1 124:1 125:1 141:1 189:1 203:1 204:1 205:1 
-3 101:1 102:1 103:1 104:1 105:1 106:1 107:1 108:1 125:1 141:1 157:1 173:1 187:1 188:1 189:1 204:1 
-3 101:1 102:1 103:1 104:1 105:1 106:1 107:1 108:1 109:1 125:1 141:1 157:1 173:1 188:1 189:1 
-3 101:1 102:1 103:1 104:1 105:1 106:1 107:1 108:1 109:1 125:1 141:1 157:1 173:1 188:1 189:1 
