svm_type c_svc
kernel_type rbf
gamma 0.015625
nr_class 2
total_sv 31
rho -1.43347
label -1 1
nr_sv 26 5
SV
0.1298421390383593 77:1 86:1 89:1 93:1 105:1 109:1 119:1 120:1 121:1 122:1 123:1 124:1 125:1 137:1 141:1 153:1 157:1 169:1 171:1 172:1 173:1 182:1 183:1 184:1 185:1 186:1 187:1 188:1 189:1 205:1 
0.4225009720184402 77:1 86:1 89:1 118:1 119:1 120:1 121:1 122:1 123:1 169:1 170:1 171:1 172:1 182:1 183:1 184:1 185:1 
3 77:1 87:1 88:1 105:1 106:1 117:1 118:1 119:1 120:1 121:1 122:1 123:1 124:1 149:1 150:1 151:1 152:1 153:1 154:1 155:1 156:1 169:1 170:1 183:1 184:1 205:1 
0.05402028449975454 71:1 72:1 77:1 89:1 90:1 91:1 93:1 109:1 117:1 118:1 119:1 120:1 121:1 122:1 123:1 124:1 125:1 141:1 149:1 150:1 151:1 152:1 153:1 154:1 155:1 156:1 157:1 173:1 185:1 186:1 187:1 189:1 199:1 200:1 205:1 
0.009821512068438272 71:1 77:1 88:1 89:1 90:1 93:1 106:1 109:1 117:1 118:1 119:1 120:1 121:1 122:1 123:1 124:1 125:1 141:1 149:1 150:1 151:1 152:1 153:1 154:1 155:1 156:1 157:1 170:1 173:1 184:1 185:1 186:1 189:1 199:1 200:1 205:1 
1.14686635805765 71:1 77:1 88:1 89:1 90:1 106:1 117:1 118:1 119:1 120:1 121:1 122:1 123:1 124:1 149:1 150:1 151:1 152:1 153:1 154:1 155:1 156:1 170:1 184:1 185:1 199:1 204:1 
0.05118738368143408 72:1 73:1 74:1 88:1 90:1 93:1 104:1 106:1 107:1 108:1 109:1 118:1 119:1 120:1 121:1 122:1 123:1 150:1 151:1 152:1 153:1 154:1 155:1 156:1 157:1 158:1 168:1 170:1 184:1 186:1 200:1 201:1 202:1 203:1 
0.6371807196665601 90:1 93:1 106:1 108:1 118:1 119:1 120:1 121:1 122:1 150:1 151:1 152:1 153:1 154:1 155:1 156:1 157:1 170:1 181:1 186:1 197:1 
0.0385348275682172 106:1 107:1 118:1 119:1 120:1 121:1 124:1 138:1 139:1 150:1 151:1 152:1 153:1 154:1 170:1 173:1 189:1 197:1 
0.3199740661693166 74:1 75:1 76:1 77:1 87:1 88:1 89:1 105:1 118:1 119:1 120:1 121:1 137:1 150:1 151:1 152:1 153:1 169:1 183:1 184:1 185:1 199:1 201:1 
0.0442333695935021 70:1 71:1 72:1 73:1 77:1 86:1 89:1 92:1 93:1 105:1 108:1 117:1 118:1 119:1 120:1 121:1 122:1 123:1 149:1 150:1 151:1 152:1 153:1 154:1 155:1 156:1 157:1 169:1 185:1 198:1 199:1 200:1 201:1 
1.516258652730074 87:1 89:1 103:1 105:1 106:1 107:1 119:1 120:1 121:1 122:1 123:1 124:1 125:1 151:1 152:1 153:1 154:1 155:1 156:1 157:1 167:1 169:1 170:1 183:1 189:1 
0.06149503408802146 72:1 85:1 88:1 101:1 104:1 105:1 106:1 120:1 122:1 136:1 138:1 141:1 152:1 154:1 157:1 168:1 170:1 171:1 172:1 173:1 181:1 184:1 186:1 200:1 
0.06642091664930543 73:1 77:1 89:1 93:1 105:1 106:1 107:1 108:1 109:1 118:1 119:1 120:1 121:1 125:1 137:1 141:1 153:1 157:1 169:1 173:1 185:1 186:1 187:1 188:1 189:1 205:1 
0.5738464938122713 77:1 88:1 91:1 93:1 104:1 107:1 109:1 118:1 119:1 120:1 121:1 122:1 123:1 124:1 125:1 136:1 139:1 141:1 150:1 151:1 152:1 153:1 154:1 155:1 156:1 157:1 168:1 171:1 173:1 184:1 187:1 189:1 200:1 201:1 202:1 203:1 205:1 
0.4756160667061414 69:1 77:1 85:1 88:1 89:1 90:1 93:1 101:1 106:1 109:1 117:1 118:1 119:1 120:1 121:1 122:1 123:1 124:1 125:1 133:1 138:1 141:1 149:1 150:1 151:1 152:1 153:1 154:1 155:1 156:1 157:1 165:1 170:1 173:1 181:1 184:1 185:1 186:1 189:1 197:1 205:1 
2.357596886356795 77:1 88:1 89:1 90:1 93:1 109:1 118:1 119:1 120:1 121:1 122:1 123:1 124:1 125:1 141:1 150:1 151:1 152:1 153:1 154:1 155:1 156:1 157:1 173:1 181:1 189:1 197:1 205:1 
1.428500504380363 69:1 76:1 88:1 89:1 90:1 106:1 118:1 119:1 120:1 122:1 123:1 124:1 150:1 151:1 154:1 155:1 156:1 170:1 184:1 185:1 186:1 197:1 204:1 
1.080987197889519 77:1 88:1 89:1 90:1 93:1 109:1 118:1 119:1 122:1 123:1 124:1 125:1 141:1 150:1 151:1 152:1 154:1 155:1 156:1 157:1 173:1 181:1 183:1 184:1 185:1 186:1 189:1 205:1 
0.1275061280007162 70:1 74:1 86:1 88:1 89:1 90:1 102:1 105:1 106:1 110:1 118:1 121:1 122:1 126:1 133:1 134:1 137:1 138:1 140:1 141:1 142:1 150:1 153:1 154:1 155:1 156:1 166:1 169:1 170:1 171:1 182:1 184:1 185:1 186:1 187:1 198:1 
0.3523105036378222 69:1 77:1 85:1 87:1 88:1 89:1 93:1 105:1 106:1 107:1 108:1 109:1 120:1 121:1 122:1 123:1 124:1 125:1 133:1 136:1 137:1 138:1 139:1 140:1 141:1 152:1 153:1 154:1 155:1 156:1 157:1 169:1 170:1 171:1 172:1 173:1 181:1 183:1 184:1 185:1 189:1 197:1 205:1 
0.426233875296296 72:1 88:1 89:1 103:1 105:1 118:1 119:1 121:1 124:1 133:1 136:1 137:1 140:1 141:1 150:1 153:1 155:1 156:1 157:1 167:1 169:1 170:1 184:1 185:1 200:1 
0.09089296077536503 72:1 86:1 87:1 88:1 89:1 90:1 91:1 92:1 93:1 101:1 102:1 105:1 118:1 121:1 134:1 137:1 150:1 151:1 152:1 153:1 154:1 155:1 156:1 166:1 169:1 181:1 185:1 201:1 
0.3325336617488012 88:1 89:1 90:1 91:1 92:1 93:1 103:1 105:1 118:1 120:1 121:1 122:1 123:1 124:1 133:1 137:1 150:1 153:1 154:1 155:1 156:1 157:1 167:1 169:1 173:1 184:1 185:1 200:1 
0.2455852292657525 72:1 77:1 87:1 89:1 91:1 93:1 102:1 103:1 105:1 106:1 107:1 108:1 109:1 117:1 118:1 119:1 121:1 122:1 123:1 124:1 125:1 133:1 135:1 141:1 150:1 151:1 153:1 154:1 155:1 167:1 173:1 183:1 184:1 185:1 186:1 187:1 188:1 189:1 200:1 
0.01005425630108401 72:1 73:1 85:1 86:1 87:1 88:1 89:1 90:1 91:1 92:1 93:1 94:1 101:1 105:1 106:1 109:1 118:1 120:1 121:1 122:1 124:1 134:1 137:1 138:1 139:1 149:1 150:1 151:1 152:1 153:1 154:1 155:1 156:1 157:1 158:1 166:1 169:1 170:1 171:1 182:1 184:1 185:1 186:1 187:1 188:1 198:1 201:1 202:1 205:1 
-3 69:1 88:1 89:1 105:1 106:1 118:1 119:1 120:1 121:1 122:1 123:1 124:1 150:1 151:1 152:1 153:1 154:1 155:1 156:1 170:1 184:1 185:1 197:1 
-3 72:1 77:1 89:1 90:1 91:1 93:1 107:1 109:1 118:1 119:1 120:1 121:1 122:1 123:1 124:1 125:1 141:1 150:1 151:1 152:1 153:1 154:1 155:1 156:1 157:1 171:1 173:1 185:1 186:1 187:1 189:1 200:1 205:1 
-3 77:1 85:1 88:1 89:1 93:1 105:1 106:1 109:1 118:1 119:1 120:1 121:1 122:1 123:1 124:1 125:1 141:1 150:1 151:1 152:1 153:1 154:1 155:1 156:1 157:1 169:1 170:1 173:1 181:1 184:1 185:1 186:1 189:1 205:1 
-3 77:1 88:1 89:1 105:1 106:1 118:1 119:1 120:1 121:1 122:1 123:1 124:1 150:1 151:1 152:1 153:1 154:1 155:1 156:1 169:1 170:1 181:1 183:1 184:1 
-3 77:1 88:1 89:1 105:1 106:1 118:1 119:1 120:1 121:1 122:1 123:1 124:1 150:1 151:1 152:1 153:1 154:1 155:1 156:1 169:1 170:1 181:1 183:1 184:1 
