svm_type c_svc
kernel_type rbf
gamma 0.015625
nr_class 2
total_sv 38
rho -1.42843
label -1 1
nr_sv 33 5
SV
0.4308965230397837 70:1 75:1 76:1 86:1 90:1 91:1 102:1 105:1 106:1 118:1 120:1 121:1 134:1 135:1 136:1 137:1 138:1 139:1 140:1 141:1 142:1 150:1 151:1 153:1 166:1 169:1 170:1 182:1 186:1 198:1 202:1 203:1 
0.2380130363398978 71:1 77:1 88:1 89:1 90:1 106:1 117:1 118:1 119:1 120:1 121:1 122:1 123:1 124:1 149:1 150:1 151:1 152:1 153:1 154:1 155:1 156:1 170:1 184:1 185:1 199:1 204:1 
0.8755305493202514 76:1 77:1 91:1 101:1 102:1 103:1 104:1 105:1 106:1 117:1 121:1 138:1 139:1 149:1 150:1 151:1 152:1 153:1 154:1 165:1 168:1 169:1 170:1 186:1 187:1 204:1 
0.5476138563348364 70:1 86:1 89:1 92:1 102:1 103:1 104:1 105:1 107:1 117:1 118:1 121:1 125:1 134:1 135:1 136:1 137:1 138:1 139:1 140:1 141:1 150:1 153:1 166:1 169:1 171:1 182:1 185:1 187:1 188:1 198:1 204:1 
0.07220766360577302 86:1 87:1 89:1 92:1 102:1 103:1 104:1 105:1 107:1 108:1 117:1 118:1 119:1 121:1 125:1 133:1 134:1 135:1 136:1 137:1 138:1 139:1 140:1 141:1 150:1 151:1 152:1 153:1 166:1 167:1 169:1 171:1 182:1 183:1 185:1 187:1 188:1 204:1 
0.9613484989825556 71:1 75:1 77:1 87:1 91:1 93:1 103:1 106:1 109:1 117:1 118:1 119:1 120:1 121:1 122:1 123:1 125:1 141:1 149:1 150:1 151:1 152:1 153:1 154:1 155:1 157:1 168:1 171:1 173:1 183:1 187:1 189:1 199:1 203:1 205:1 
0.374622134670742 77:1 90:1 93:1 106:1 117:1 118:1 119:1 120:1 121:1 122:1 123:1 124:1 149:1 150:1 151:1 152:1 153:1 154:1 155:1 171:1 183:1 187:1 199:1 202:1 203:1 
0.3542508528930263 69:1 86:1 102:1 103:1 119:1 137:1 138:1 139:1 140:1 141:1 142:1 151:1 166:1 167:1 182:1 197:1 
0.6645203639270544 71:1 75:1 87:1 89:1 91:1 103:1 105:1 107:1 119:1 121:1 123:1 133:1 134:1 135:1 136:1 137:1 138:1 139:1 140:1 141:1 142:1 151:1 153:1 155:1 167:1 169:1 171:1 183:1 185:1 187:1 199:1 203:1 
0.4131715192278601 70:1 71:1 75:1 86:1 87:1 88:1 91:1 102:1 103:1 107:1 118:1 119:1 123:1 133:1 134:1 135:1 136:1 137:1 138:1 139:1 140:1 141:1 150:1 151:1 155:1 166:1 167:1 168:1 171:1 182:1 183:1 184:1 187:1 203:1 
0.04382820414426256 86:1 87:1 88:1 89:1 90:1 91:1 92:1 102:1 104:1 105:1 107:1 118:1 120:1 121:1 123:1 133:1 134:1 135:1 136:1 137:1 138:1 139:1 140:1 141:1 150:1 152:1 153:1 155:1 166:1 168:1 169:1 171:1 182:1 183:1 184:1 185:1 186:1 187:1 188:1 
0.4139193917352654 86:1 87:1 88:1 89:1 91:1 102:1 105:1 107:1 118:1 121:1 123:1 133:1 134:1 137:1 139:1 140:1 141:1 150:1 153:1 155:1 166:1 169:1 171:1 182:1 183:1 184:1 185:1 186:1 187:1 
0.6007415800910713 73:1 74:1 75:1 76:1 86:1 88:1 89:1 90:1 91:1 92:1 93:1 94:1 102:1 104:1 105:1 106:1 107:1 108:1 109:1 117:1 118:1 119:1 120:1 121:1 122:1 123:1 124:1 134:1 136:1 137:1 138:1 139:1 140:1 149:1 150:1 151:1 152:1 153:1 154:1 155:1 156:1 157:1 158:1 166:1 168:1 169:1 170:1 171:1 172:1 182:1 184:1 185:1 186:1 187:1 188:1 201:1 202:1 203:1 204:1 
0.9071164497240677 73:1 74:1 75:1 77:1 86:1 87:1 89:1 91:1 93:1 102:1 105:1 107:1 108:1 117:1 118:1 119:1 120:1 121:1 122:1 123:1 134:1 137:1 139:1 149:1 150:1 151:1 152:1 153:1 154:1 155:1 156:1 157:1 166:1 169:1 171:1 182:1 183:1 185:1 187:1 201:1 203:1 
0.03641372867227764 71:1 77:1 87:1 88:1 92:1 103:1 105:1 107:1 108:1 117:1 118:1 119:1 120:1 121:1 122:1 135:1 138:1 166:1 167:1 168:1 203:1 204:1 
1.140568707374883 74:1 75:1 85:1 89:1 90:1 91:1 102:1 103:1 105:1 106:1 107:1 117:1 120:1 123:1 134:1 137:1 138:1 139:1 140:1 141:1 151:1 152:1 155:1 166:1 168:1 169:1 171:1 181:1 185:1 187:1 199:1 201:1 202:1 203:1 
1.274628374136398 71:1 74:1 76:1 85:1 86:1 87:1 89:1 92:1 102:1 103:1 104:1 106:1 108:1 117:1 119:1 122:1 124:1 134:1 135:1 137:1 138:1 139:1 140:1 141:1 142:1 151:1 154:1 156:1 166:1 167:1 168:1 169:1 170:1 172:1 181:1 182:1 183:1 185:1 186:1 188:1 199:1 202:1 204:1 
0.2161561434746427 74:1 75:1 85:1 89:1 91:1 102:1 103:1 104:1 107:1 123:1 134:1 136:1 137:1 138:1 139:1 140:1 141:1 155:1 166:1 168:1 169:1 171:1 181:1 185:1 187:1 199:1 202:1 203:1 
0.1059004595139733 77:1 86:1 87:1 92:1 93:1 103:1 104:1 108:1 121:1 122:1 123:1 138:1 139:1 153:1 155:1 166:1 167:1 168:1 172:1 182:1 188:1 205:1 
0.08866272190562162 75:1 91:1 102:1 103:1 104:1 105:1 107:1 117:1 118:1 123:1 134:1 139:1 150:1 153:1 155:1 166:1 167:1 171:1 173:1 186:1 187:1 188:1 189:1 
0.1869107909094248 75:1 91:1 107:1 119:1 120:1 122:1 138:1 140:1 153:1 173:1 181:1 182:1 183:1 184:1 185:1 186:1 187:1 188:1 
0.1471572814825687 71:1 74:1 75:1 76:1 77:1 86:1 87:1 88:1 89:1 90:1 91:1 101:1 103:1 104:1 105:1 106:1 107:1 119:1 120:1 121:1 122:1 123:1 135:1 136:1 137:1 138:1 139:1 141:1 150:1 151:1 152:1 153:1 154:1 155:1 166:1 167:1 168:1 169:1 170:1 171:1 183:1 184:1 185:1 186:1 187:1 188:1 204:1 205:1 
0.4989705523079821 71:1 85:1 101:1 105:1 106:1 117:1 118:1 119:1 120:1 121:1 122:1 133:1 137:1 141:1 149:1 153:1 157:1 165:1 169:1 170:1 171:1 172:1 173:1 181:1 185:1 186:1 187:1 199:1 
1.191428459955272 70:1 75:1 86:1 87:1 88:1 90:1 91:1 102:1 103:1 107:1 117:1 118:1 119:1 123:1 125:1 133:1 134:1 135:1 139:1 140:1 141:1 150:1 151:1 154:1 155:1 166:1 167:1 168:1 171:1 182:1 187:1 203:1 
1.766248544525755 70:1 75:1 86:1 91:1 102:1 103:1 104:1 107:1 118:1 119:1 123:1 125:1 133:1 134:1 135:1 138:1 139:1 140:1 141:1 150:1 151:1 154:1 155:1 166:1 167:1 168:1 169:1 170:1 171:1 182:1 183:1 185:1 187:1 198:1 203:1 
0.137274044039175 70:1 71:1 72:1 73:1 75:1 85:1 86:1 87:1 88:1 89:1 91:1 93:1 101:1 102:1 103:1 104:1 105:1 106:1 107:1 108:1 109:1 118:1 119:1 120:1 121:1 122:1 123:1 135:1 136:1 137:1 138:1 139:1 149:1 150:1 152:1 154:1 155:1 167:1 168:1 169:1 170:1 171:1 172:1 173:1 181:1 182:1 184:1 186:1 187:1 199:1 200:1 201:1 202:1 203:1 
0.3154730107823808 73:1 89:1 93:1 104:1 105:1 118:1 119:1 121:1 133:1 137:1 138:1 139:1 140:1 150:1 151:1 153:1 168:1 169:1 184:1 185:1 
0.2012335929583173 71:1 72:1 85:1 86:1 87:1 88:1 89:1 90:1 91:1 92:1 93:1 103:1 105:1 106:1 109:1 117:1 118:1 119:1 122:1 123:1 124:1 135:1 136:1 137:1 138:1 139:1 141:1 150:1 157:1 166:1 168:1 169:1 170:1 171:1 172:1 182:1 185:1 186:1 187:1 188:1 198:1 199:1 205:1 
0.07369368107835619 72:1 73:1 85:1 86:1 87:1 103:1 108:1 109:1 117:1 118:1 119:1 120:1 121:1 122:1 123:1 135:1 136:1 137:1 138:1 139:1 140:1 141:1 151:1 152:1 153:1 154:1 155:1 156:1 166:1 167:1 168:1 169:1 170:1 171:1 172:1 173:1 182:1 189:1 198:1 199:1 200:1 201:1 202:1 203:1 204:1 205:1 
0.1125812942813683 72:1 86:1 87:1 88:1 89:1 90:1 91:1 92:1 93:1 101:1 103:1 109:1 117:1 118:1 119:1 120:1 121:1 122:1 123:1 138:1 139:1 140:1 141:1 151:1 152:1 153:1 204:1 205:1 
0.1196298414194199 71:1 72:1 73:1 85:1 86:1 102:1 103:1 104:1 105:1 106:1 107:1 109:1 110:1 119:1 120:1 121:1 122:1 123:1 124:1 140:1 141:1 150:1 151:1 152:1 153:1 154:1 155:1 157:1 166:1 167:1 168:1 169:1 170:1 171:1 172:1 174:1 190:1 197:1 198:1 199:1 200:1 201:1 202:1 203:1 204:1 205:1 
0.334472511658785 72:1 73:1 85:1 86:1 87:1 102:1 105:1 108:1 109:1 118:1 121:1 122:1 123:1 134:1 135:1 136:1 137:1 139:1 140:1 141:1 149:1 150:1 151:1 153:1 155:1 158:1 166:1 169:1 171:1 174:1 182:1 185:1 186:1 187:1 188:1 189:1 198:1 201:1 203:1 
0.1548156354869502 72:1 85:1 86:1 87:1 88:1 89:1 90:1 91:1 92:1 93:1 101:1 107:1 117:1 118:1 119:1 120:1 121:1 122:1 123:1 124:1 125:1 133:1 135:1 136:1 137:1 139:1 140:1 149:1 151:1 152:1 153:1 155:1 165:1 167:1 168:1 169:1 171:1 172:1 181:1 182:1 183:1 184:1 185:1 186:1 187:1 188:1 203:1 205:1 
-3 71:1 75:1 85:1 86:1 89:1 91:1 102:1 104:1 105:1 107:1 117:1 118:1 119:1 121:1 123:1 137:1 138:1 139:1 140:1 141:1 149:1 150:1 151:1 153:1 155:1 166:1 168:1 169:1 171:1 181:1 182:1 185:1 187:1 199:1 203:1 
-3 71:1 74:1 76:1 86:1 87:1 90:1 92:1 103:1 104:1 105:1 106:1 108:1 117:1 118:1 119:1 121:1 122:1 124:1 135:1 138:1 139:1 140:1 141:1 142:1 149:1 150:1 151:1 153:1 154:1 156:1 167:1 168:1 169:1 170:1 172:1 182:1 183:1 186:1 188:1 199:1 202:1 204:1 
-3 71:1 75:1 85:1 86:1 87:1 89:1 90:1 91:1 102:1 103:1 104:1 105:1 106:1 107:1 117:1 118:1 119:1 121:1 122:1 123:1 135:1 137:1 138:1 139:1 140:1 141:1 149:1 150:1 151:1 153:1 154:1 155:1 166:1 167:1 168:1 169:1 170:1 171:1 181:1 182:1 183:1 185:1 186:1 187:1 199:1 203:1 
-3 75:1 86:1 91:1 102:1 103:1 107:1 117:1 118:1 119:1 120:1 121:1 123:1 138:1 139:1 140:1 141:1 149:1 150:1 151:1 153:1 155:1 166:1 168:1 171:1 182:1 185:1 187:1 203:1 
-3 75:1 86:1 91:1 102:1 103:1 107:1 117:1 118:1 119:1 120:1 121:1 123:1 138:1 139:1 140:1 141:1 149:1 150:1 151:1 153:1 155:1 166:1 168:1 171:1 182:1 185:1 187:1 203:1 
