svm_type c_svc
kernel_type rbf
gamma 0.015625
nr_class 2
total_sv 45
rho -1.39224
label -1 1
nr_sv 40 5
SV
0.4849952834101372 70:1 77:1 86:1 93:1 102:1 108:1 109:1 118:1 122:1 123:1 124:1 134:1 135:1 136:1 137:1 138:1 150:1 166:1 182:1 198:1 
0.05064923141382153 72:1 75:1 77:1 86:1 87:1 88:1 90:1 91:1 93:1 101:1 102:1 104:1 105:1 106:1 107:1 109:1 119:1 120:1 123:1 125:1 135:1 136:1 141:1 151:1 152:1 154:1 155:1 157:1 165:1 166:1 168:1 169:1 171:1 173:1 181:1 183:1 184:1 189:1 202:1 205:1 
0.2418346815758788 71:1 72:1 73:1 77:1 87:1 90:1 91:1 92:1 93:1 101:1 102:1 103:1 109:1 119:1 120:1 121:1 122:1 123:1 124:1 125:1 135:1 141:1 150:1 151:1 152:1 153:1 154:1 155:1 156:1 157:1 165:1 166:1 167:1 173:1 181:1 183:1 186:1 187:1 188:1 189:1 199:1 200:1 201:1 205:1 
0.1809378452900692 73:1 77:1 78:1 87:1 88:1 93:1 101:1 102:1 103:1 108:1 109:1 117:1 118:1 123:1 124:1 134:1 137:1 138:1 150:1 151:1 152:1 153:1 154:1 155:1 166:1 167:1 171:1 172:1 188:1 189:1 205:1 206:1 
0.1163068770963777 70:1 77:1 86:1 92:1 102:1 108:1 109:1 118:1 119:1 123:1 125:1 134:1 135:1 136:1 139:1 150:1 154:1 169:1 170:1 185:1 197:1 205:1 
0.6513927435278183 70:1 76:1 77:1 86:1 91:1 93:1 102:1 106:1 109:1 118:1 121:1 125:1 134:1 136:1 141:1 150:1 151:1 152:1 157:1 166:1 167:1 173:1 182:1 189:1 203:1 204:1 205:1 
0.08173428731901432 71:1 72:1 86:1 87:1 88:1 92:1 93:1 101:1 102:1 104:1 107:1 108:1 109:1 118:1 120:1 122:1 123:1 134:1 136:1 138:1 150:1 152:1 153:1 154:1 166:1 168:1 169:1 173:1 182:1 189:1 198:1 203:1 204:1 205:1 
0.7083683305581162 72:1 73:1 76:1 77:1 86:1 87:1 89:1 91:1 92:1 93:1 101:1 102:1 105:1 106:1 109:1 120:1 121:1 123:1 124:1 125:1 141:1 173:1 203:1 204:1 205:1 
0.01540062828819185 70:1 73:1 77:1 86:1 87:1 89:1 92:1 93:1 102:1 103:1 104:1 105:1 107:1 108:1 118:1 121:1 123:1 137:1 138:1 152:1 153:1 154:1 165:1 167:1 169:1 173:1 181:1 183:1 185:1 189:1 197:1 203:1 204:1 205:1 
0.7686532593320476 72:1 77:1 85:1 87:1 88:1 90:1 92:1 93:1 101:1 103:1 104:1 106:1 108:1 109:1 118:1 119:1 120:1 122:1 123:1 124:1 125:1 136:1 138:1 139:1 141:1 152:1 154:1 155:1 157:1 168:1 170:1 173:1 184:1 189:1 200:1 204:1 205:1 
0.7075631756285267 74:1 75:1 76:1 77:1 78:1 90:1 93:1 101:1 102:1 103:1 104:1 105:1 106:1 109:1 119:1 122:1 125:1 135:1 173:1 203:1 204:1 205:1 
0.6071287337997412 89:1 92:1 101:1 102:1 103:1 104:1 105:1 108:1 119:1 121:1 124:1 135:1 137:1 165:1 173:1 189:1 203:1 204:1 205:1 
0.8212691941998334 72:1 90:1 91:1 92:1 93:1 102:1 103:1 104:1 105:1 117:1 138:1 141:1 165:1 173:1 189:1 203:1 204:1 205:1 
0.2516817013635176 75:1 87:1 91:1 102:1 103:1 109:1 117:1 120:1 121:1 133:1 134:1 135:1 136:1 149:1 165:1 173:1 189:1 203:1 204:1 205:1 
0.1652158153810903 70:1 72:1 86:1 87:1 89:1 90:1 92:1 93:1 101:1 102:1 103:1 104:1 105:1 106:1 107:1 108:1 109:1 118:1 119:1 121:1 122:1 123:1 125:1 134:1 135:1 136:1 138:1 139:1 141:1 151:1 154:1 157:1 165:1 167:1 170:1 173:1 181:1 183:1 184:1 185:1 186:1 189:1 199:1 204:1 205:1 
0.9648267383424105 70:1 72:1 74:1 86:1 89:1 90:1 92:1 93:1 101:1 102:1 103:1 104:1 105:1 106:1 108:1 109:1 118:1 119:1 121:1 122:1 123:1 125:1 133:1 134:1 135:1 136:1 138:1 139:1 141:1 154:1 157:1 165:1 170:1 173:1 181:1 189:1 204:1 205:1 
0.5552271915036213 70:1 73:1 75:1 86:1 87:1 101:1 102:1 104:1 105:1 106:1 107:1 108:1 109:1 118:1 119:1 120:1 134:1 135:1 137:1 149:1 173:1 189:1 204:1 205:1 
0.3650056506559887 70:1 77:1 86:1 87:1 88:1 89:1 92:1 93:1 102:1 103:1 104:1 105:1 108:1 109:1 118:1 119:1 120:1 121:1 124:1 125:1 133:1 134:1 135:1 136:1 137:1 139:1 140:1 150:1 151:1 152:1 153:1 155:1 165:1 166:1 167:1 168:1 169:1 171:1 173:1 181:1 182:1 183:1 184:1 185:1 187:1 189:1 198:1 204:1 205:1 
0.5240083196347364 70:1 75:1 87:1 88:1 90:1 91:1 101:1 102:1 103:1 106:1 107:1 108:1 109:1 119:1 122:1 123:1 134:1 135:1 138:1 139:1 149:1 150:1 151:1 152:1 153:1 154:1 155:1 156:1 173:1 189:1 203:1 204:1 205:1 
0.7838788808150904 70:1 72:1 73:1 74:1 75:1 76:1 86:1 89:1 92:1 101:1 102:1 103:1 105:1 107:1 108:1 109:1 110:1 118:1 121:1 124:1 134:1 136:1 137:1 138:1 139:1 140:1 173:1 203:1 204:1 205:1 
0.07418253463210185 69:1 70:1 73:1 75:1 76:1 77:1 85:1 87:1 88:1 89:1 90:1 91:1 92:1 94:1 101:1 102:1 103:1 104:1 105:1 107:1 108:1 109:1 117:1 121:1 133:1 134:1 135:1 136:1 138:1 139:1 140:1 141:1 155:1 157:1 165:1 166:1 167:1 168:1 169:1 170:1 171:1 172:1 173:1 203:1 204:1 205:1 
0.04553276370757134 77:1 87:1 88:1 89:1 90:1 91:1 92:1 101:1 102:1 104:1 105:1 109:1 117:1 119:1 123:1 133:1 134:1 136:1 138:1 139:1 141:1 149:1 165:1 173:1 189:1 203:1 204:1 205:1 
0.1202056151611381 70:1 71:1 72:1 73:1 74:1 75:1 86:1 87:1 88:1 89:1 90:1 101:1 102:1 103:1 104:1 105:1 106:1 107:1 108:1 109:1 118:1 119:1 120:1 121:1 122:1 135:1 136:1 150:1 151:1 152:1 155:1 156:1 157:1 165:1 166:1 170:1 173:1 182:1 185:1 189:1 198:1 204:1 205:1 
0.1860306055745236 71:1 72:1 74:1 75:1 77:1 85:1 86:1 87:1 88:1 89:1 90:1 91:1 92:1 101:1 102:1 103:1 104:1 106:1 118:1 119:1 120:1 122:1 124:1 133:1 135:1 136:1 137:1 138:1 140:1 141:1 173:1 189:1 204:1 205:1 
0.5076285213528705 71:1 74:1 77:1 86:1 88:1 91:1 92:1 101:1 102:1 103:1 104:1 106:1 107:1 117:1 118:1 119:1 136:1 139:1 165:1 173:1 189:1 203:1 204:1 205:1 
0.1930358423149429 70:1 72:1 75:1 77:1 86:1 88:1 91:1 93:1 102:1 104:1 107:1 109:1 118:1 120:1 123:1 125:1 134:1 136:1 139:1 141:1 150:1 152:1 155:1 157:1 166:1 168:1 171:1 173:1 182:1 184:1 187:1 189:1 200:1 203:1 205:1 
0.2060443024934822 71:1 77:1 87:1 92:1 93:1 103:1 104:1 105:1 106:1 107:1 108:1 119:1 120:1 133:1 134:1 135:1 136:1 151:1 152:1 167:1 168:1 169:1 170:1 171:1 172:1 173:1 183:1 189:1 199:1 204:1 205:1 
0.0166551207368569 70:1 71:1 72:1 73:1 74:1 75:1 76:1 77:1 92:1 93:1 108:1 109:1 123:1 125:1 135:1 136:1 137:1 138:1 141:1 149:1 150:1 151:1 152:1 157:1 169:1 170:1 173:1 187:1 189:1 204:1 205:1 
0.04792794461931086 73:1 87:1 88:1 89:1 90:1 91:1 92:1 93:1 101:1 102:1 109:1 124:1 133:1 134:1 135:1 136:1 137:1 138:1 167:1 168:1 169:1 170:1 171:1 172:1 173:1 189:1 203:1 204:1 205:1 
0.1286174663193298 73:1 87:1 88:1 93:1 101:1 102:1 109:1 124:1 134:1 135:1 136:1 137:1 138:1 139:1 150:1 165:1 166:1 167:1 168:1 169:1 170:1 187:1 188:1 205:1 
0.1454895078866069 73:1 87:1 88:1 89:1 90:1 91:1 92:1 93:1 101:1 102:1 123:1 124:1 134:1 135:1 136:1 182:1 189:1 203:1 204:1 205:1 
0.4026867359827976 73:1 87:1 88:1 93:1 101:1 102:1 108:1 109:1 119:1 120:1 121:1 122:1 123:1 124:1 165:1 204:1 
0.4439838879940553 72:1 86:1 87:1 88:1 89:1 90:1 91:1 92:1 93:1 101:1 102:1 109:1 118:1 134:1 165:1 173:1 181:1 197:1 
0.05274693411170481 72:1 73:1 86:1 87:1 88:1 89:1 90:1 91:1 92:1 93:1 101:1 102:1 117:1 118:1 119:1 120:1 121:1 122:1 123:1 124:1 125:1 136:1 140:1 152:1 156:1 165:1 166:1 167:1 168:1 169:1 170:1 171:1 172:1 173:1 184:1 189:1 204:1 205:1 
0.7198026025457586 72:1 86:1 87:1 88:1 89:1 90:1 91:1 92:1 93:1 101:1 102:1 117:1 118:1 119:1 120:1 121:1 122:1 123:1 124:1 125:1 136:1 140:1 152:1 165:1 166:1 167:1 168:1 169:1 170:1 171:1 172:1 173:1 184:1 189:1 199:1 203:1 204:1 205:1 
0.2347362207255487 72:1 73:1 85:1 86:1 87:1 88:1 89:1 90:1 91:1 92:1 93:1 101:1 109:1 118:1 119:1 124:1 125:1 134:1 136:1 137:1 138:1 139:1 150:1 152:1 166:1 168:1 169:1 170:1 171:1 172:1 173:1 182:1 189:1 198:1 199:1 204:1 205:1 
1.718586581430484 72:1 86:1 87:1 88:1 89:1 90:1 91:1 92:1 93:1 101:1 109:1 124:1 133:1 134:1 135:1 136:1 137:1 138:1 149:1 165:1 173:1 182:1 189:1 203:1 204:1 205:1 
0.05393969240789539 72:1 73:1 85:1 86:1 87:1 88:1 89:1 90:1 91:1 92:1 93:1 94:1 101:1 109:1 110:1 118:1 119:1 124:1 125:1 135:1 136:1 137:1 138:1 139:1 149:1 150:1 151:1 152:1 157:1 170:1 171:1 173:1 189:1 200:1 201:1 202:1 203:1 204:1 205:1 
0.3512937450669418 72:1 86:1 87:1 88:1 89:1 90:1 91:1 92:1 93:1 101:1 109:1 119:1 120:1 121:1 122:1 123:1 124:1 125:1 133:1 134:1 135:1 136:1 137:1 138:1 139:1 140:1 152:1 156:1 165:1 166:1 167:1 168:1 169:1 170:1 171:1 172:1 173:1 184:1 189:1 199:1 204:1 205:1 
0.3047948058000499 72:1 76:1 77:1 86:1 87:1 89:1 90:1 91:1 101:1 102:1 103:1 105:1 106:1 119:1 120:1 123:1 124:1 125:1 133:1 134:1 135:1 136:1 137:1 138:1 139:1 140:1 141:1 152:1 154:1 157:1 168:1 170:1 173:1 184:1 186:1 189:1 205:1 
-3 72:1 77:1 92:1 93:1 101:1 102:1 109:1 123:1 124:1 135:1 138:1 139:1 165:1 173:1 189:1 204:1 205:1 
-3 70:1 71:1 72:1 73:1 75:1 76:1 78:1 86:1 87:1 88:1 89:1 92:1 93:1 101:1 102:1 103:1 104:1 105:1 109:1 118:1 119:1 120:1 121:1 125:1 134:1 135:1 136:1 137:1 139:1 140:1 141:1 150:1 152:1 157:1 165:1 166:1 167:1 168:1 169:1 170:1 171:1 172:1 173:1 189:1 203:1 204:1 205:1 
-3 70:1 72:1 77:1 87:1 88:1 89:1 90:1 91:1 92:1 93:1 101:1 102:1 103:1 104:1 105:1 106:1 107:1 109:1 119:1 120:1 121:1 122:1 123:1 124:1 125:1 134:1 136:1 173:1 189:1 204:1 205:1 
-3 70:1 72:1 77:1 86:1 87:1 90:1 91:1 93:1 101:1 102:1 103:1 108:1 109:1 118:1 119:1 124:1 134:1 135:1 136:1 138:1 152:1 165:1 173:1 189:1 203:1 204:1 205:1 
-3 70:1 72:1 77:1 86:1 87:1 90:1 91:1 93:1 101:1 102:1 103:1 108:1 109:1 118:1 119:1 124:1 134:1 135:1 136:1 138:1 152:1 165:1 173:1 189:1 203:1 204:1 205:1 
