svm_type c_svc
kernel_type rbf
gamma 0.015625
nr_class 2
total_sv 35
rho -1.43023
label -1 1
nr_sv 30 5
SV
0.4016904302110937 71:1 75:1 77:1 87:1 90:1 93:1 103:1 106:1 109:1 117:1 118:1 119:1 120:1 121:1 122:1 123:1 124:1 125:1 141:1 149:1 150:1 151:1 152:1 153:1 154:1 155:1 157:1 167:1 168:1 171:1 173:1 183:1 187:1 189:1 198:1 199:1 201:1 202:1 203:1 205:1 
0.06687670589880368 69:1 85:1 93:1 101:1 108:1 117:1 118:1 119:1 120:1 121:1 122:1 123:1 133:1 149:1 150:1 151:1 152:1 153:1 154:1 155:1 156:1 157:1 165:1 181:1 197:1 199:1 201:1 202:1 
0.1848992123480634 69:1 77:1 85:1 90:1 93:1 101:1 106:1 108:1 117:1 118:1 119:1 120:1 121:1 122:1 123:1 133:1 149:1 150:1 151:1 152:1 153:1 154:1 155:1 156:1 157:1 165:1 170:1 181:1 186:1 197:1 200:1 201:1 202:1 
0.1886584880530527 76:1 77:1 87:1 89:1 90:1 103:1 104:1 118:1 119:1 120:1 150:1 151:1 152:1 167:1 181:1 182:1 183:1 
0.8637832233477476 71:1 77:1 87:1 89:1 90:1 101:1 103:1 106:1 107:1 118:1 119:1 120:1 121:1 122:1 123:1 124:1 135:1 151:1 152:1 153:1 154:1 155:1 156:1 165:1 167:1 170:1 181:1 183:1 185:1 186:1 199:1 
0.5528061395875049 102:1 107:1 108:1 119:1 120:1 123:1 138:1 149:1 150:1 151:1 152:1 153:1 154:1 155:1 156:1 157:1 158:1 
0.01790854572369319 86:1 90:1 93:1 108:1 117:1 118:1 119:1 120:1 121:1 122:1 123:1 149:1 150:1 151:1 152:1 153:1 154:1 155:1 156:1 157:1 198:1 200:1 201:1 
0.05688990616798072 71:1 74:1 76:1 86:1 87:1 90:1 92:1 103:1 104:1 105:1 106:1 108:1 117:1 118:1 119:1 121:1 122:1 124:1 135:1 138:1 139:1 140:1 141:1 142:1 149:1 150:1 151:1 153:1 154:1 156:1 167:1 168:1 169:1 170:1 172:1 182:1 183:1 186:1 188:1 199:1 202:1 204:1 
0.4278986530832847 71:1 77:1 87:1 88:1 92:1 103:1 105:1 107:1 108:1 117:1 118:1 119:1 120:1 121:1 122:1 135:1 138:1 166:1 167:1 168:1 203:1 204:1 
0.1849401917294988 73:1 77:1 91:1 92:1 101:1 102:1 103:1 104:1 105:1 106:1 107:1 117:1 118:1 133:1 135:1 136:1 149:1 157:1 165:1 166:1 167:1 168:1 169:1 170:1 171:1 172:1 173:1 201:1 
1.101933399551347 71:1 77:1 78:1 87:1 92:1 93:1 101:1 102:1 103:1 104:1 105:1 106:1 107:1 108:1 119:1 120:1 135:1 136:1 137:1 151:1 153:1 165:1 166:1 167:1 168:1 169:1 170:1 171:1 172:1 173:1 174:1 183:1 199:1 
0.1926890313801974 70:1 71:1 74:1 77:1 86:1 87:1 90:1 92:1 93:1 101:1 102:1 103:1 104:1 105:1 106:1 107:1 108:1 119:1 122:1 135:1 136:1 137:1 138:1 151:1 154:1 165:1 166:1 167:1 168:1 169:1 170:1 171:1 172:1 173:1 182:1 183:1 186:1 198:1 199:1 202:1 
2.453355930410075 71:1 74:1 87:1 90:1 93:1 103:1 106:1 107:1 108:1 117:1 119:1 122:1 135:1 136:1 137:1 138:1 151:1 154:1 165:1 167:1 170:1 171:1 172:1 173:1 183:1 186:1 199:1 202:1 
0.3266870049323905 77:1 92:1 93:1 107:1 108:1 118:1 119:1 120:1 121:1 122:1 153:1 157:1 166:1 167:1 168:1 173:1 181:1 188:1 189:1 201:1 
0.2610703737254746 77:1 85:1 91:1 92:1 101:1 105:1 106:1 107:1 117:1 118:1 119:1 120:1 133:1 149:1 157:1 165:1 166:1 167:1 168:1 173:1 184:1 187:1 188:1 189:1 200:1 201:1 202:1 
0.06070077651232134 77:1 86:1 92:1 102:1 107:1 108:1 118:1 119:1 123:1 124:1 135:1 136:1 138:1 141:1 149:1 153:1 154:1 157:1 165:1 169:1 173:1 181:1 189:1 205:1 
0.4953880205423603 74:1 77:1 90:1 93:1 101:1 102:1 103:1 104:1 105:1 106:1 108:1 117:1 119:1 122:1 123:1 133:1 135:1 138:1 149:1 151:1 154:1 165:1 167:1 170:1 181:1 183:1 186:1 202:1 
0.1932248104609763 74:1 77:1 93:1 102:1 103:1 104:1 105:1 106:1 108:1 118:1 120:1 136:1 149:1 152:1 165:1 168:1 184:1 202:1 
0.6598466035036366 71:1 73:1 74:1 85:1 87:1 89:1 93:1 101:1 103:1 105:1 108:1 109:1 117:1 119:1 120:1 121:1 133:1 135:1 149:1 151:1 152:1 165:1 167:1 168:1 169:1 170:1 173:1 181:1 183:1 185:1 199:1 201:1 202:1 
0.03066077428986143 77:1 85:1 86:1 87:1 88:1 89:1 90:1 91:1 103:1 106:1 107:1 108:1 109:1 119:1 135:1 150:1 151:1 155:1 156:1 157:1 165:1 167:1 181:1 183:1 184:1 185:1 186:1 187:1 188:1 200:1 
0.3632028027111154 71:1 77:1 78:1 87:1 92:1 93:1 103:1 107:1 108:1 117:1 118:1 119:1 120:1 121:1 122:1 135:1 151:1 167:1 168:1 169:1 170:1 171:1 172:1 173:1 203:1 204:1 205:1 
0.03045181802981749 70:1 85:1 87:1 88:1 90:1 92:1 93:1 103:1 106:1 107:1 108:1 109:1 118:1 119:1 122:1 123:1 125:1 134:1 135:1 138:1 139:1 141:1 149:1 150:1 151:1 152:1 154:1 155:1 157:1 166:1 167:1 170:1 173:1 182:1 183:1 186:1 189:1 198:1 201:1 204:1 205:1 
0.1073787020486812 74:1 77:1 90:1 91:1 107:1 117:1 119:1 121:1 123:1 135:1 137:1 139:1 149:1 150:1 151:1 152:1 153:1 155:1 167:1 171:1 183:1 187:1 198:1 200:1 201:1 
2.630206294382657 71:1 77:1 87:1 92:1 103:1 105:1 106:1 107:1 108:1 117:1 119:1 133:1 134:1 135:1 151:1 167:1 183:1 199:1 
1.44377967217126 71:1 73:1 74:1 75:1 77:1 78:1 87:1 93:1 103:1 107:1 108:1 119:1 120:1 121:1 122:1 125:1 133:1 134:1 135:1 141:1 151:1 157:1 167:1 183:1 184:1 185:1 199:1 201:1 202:1 203:1 
0.3178333233975668 73:1 74:1 88:1 101:1 102:1 103:1 104:1 105:1 106:1 107:1 108:1 109:1 117:1 149:1 150:1 151:1 152:1 153:1 154:1 155:1 156:1 157:1 168:1 184:1 201:1 202:1 
0.6449656146711346 72:1 86:1 87:1 88:1 89:1 90:1 91:1 92:1 93:1 101:1 106:1 118:1 119:1 120:1 122:1 135:1 138:1 149:1 151:1 154:1 157:1 167:1 170:1 183:1 186:1 199:1 202:1 
0.5256094131272575 73:1 86:1 87:1 88:1 89:1 90:1 91:1 92:1 93:1 101:1 102:1 119:1 120:1 149:1 157:1 165:1 183:1 201:1 
0.1455125751277221 72:1 86:1 87:1 88:1 89:1 90:1 91:1 92:1 93:1 101:1 102:1 107:1 108:1 118:1 119:1 122:1 135:1 138:1 149:1 150:1 151:1 152:1 153:1 154:1 155:1 156:1 157:1 167:1 170:1 182:1 183:1 184:1 186:1 199:1 202:1 203:1 
0.06915156287342428 72:1 87:1 90:1 92:1 102:1 103:1 106:1 108:1 118:1 119:1 122:1 124:1 126:1 133:1 135:1 149:1 150:1 151:1 166:1 167:1 174:1 183:1 189:1 190:1 199:1 200:1 
-3 71:1 74:1 77:1 87:1 92:1 93:1 101:1 103:1 106:1 107:1 108:1 119:1 135:1 149:1 151:1 157:1 167:1 183:1 202:1 
-3 71:1 74:1 77:1 78:1 87:1 90:1 93:1 101:1 102:1 103:1 104:1 105:1 106:1 107:1 108:1 119:1 122:1 135:1 138:1 151:1 154:1 165:1 166:1 167:1 168:1 169:1 170:1 171:1 172:1 173:1 174:1 183:1 186:1 199:1 202:1 
-3 71:1 73:1 74:1 77:1 87:1 90:1 92:1 93:1 103:1 106:1 107:1 108:1 117:1 118:1 119:1 120:1 121:1 122:1 135:1 138:1 149:1 150:1 151:1 152:1 153:1 154:1 155:1 156:1 157:1 165:1 167:1 170:1 173:1 183:1 186:1 199:1 201:1 202:1 
-3 71:1 77:1 87:1 103:1 107:1 108:1 117:1 118:1 119:1 120:1 135:1 149:1 151:1 157:1 165:1 167:1 183:1 199:1 201:1 
-3 71:1 77:1 87:1 103:1 107:1 108:1 117:1 118:1 119:1 120:1 135:1 149:1 151:1 157:1 165:1 167:1 183:1 199:1 201:1 
