svm_type c_svc
kernel_type rbf
gamma 0.015625
nr_class 2
total_sv 28
rho -1.30367
label -1 1
nr_sv 23 5
SV
0.8526434752291793 69:1 72:1 74:1 85:1 88:1 90:1 101:1 104:1 106:1 117:1 118:1 119:1 120:1 121:1 122:1 123:1 124:1 125:1 133:1 136:1 138:1 149:1 152:1 154:1 165:1 166:1 167:1 168:1 169:1 170:1 171:1 172:1 188:1 189:1 204:1 205:1 
0.08240758731799854 73:1 77:1 85:1 86:1 89:1 90:1 91:1 92:1 101:1 102:1 103:1 104:1 105:1 106:1 107:1 117:1 121:1 133:1 135:1 136:1 137:1 149:1 153:1 157:1 165:1 166:1 167:1 168:1 169:1 170:1 171:1 172:1 173:1 185:1 201:1 
0.2052199492009056 73:1 86:1 89:1 102:1 105:1 118:1 119:1 120:1 121:1 122:1 123:1 124:1 134:1 137:1 140:1 141:1 149:1 153:1 157:1 165:1 169:1 173:1 181:1 189:1 200:1 203:1 204:1 205:1 
0.2463218875529085 77:1 86:1 87:1 93:1 103:1 104:1 108:1 117:1 121:1 122:1 123:1 124:1 134:1 135:1 138:1 139:1 153:1 154:1 155:1 156:1 166:1 167:1 168:1 172:1 182:1 189:1 205:1 
0.5204620860321965 77:1 85:1 87:1 90:1 92:1 101:1 103:1 104:1 105:1 106:1 107:1 108:1 117:1 119:1 122:1 123:1 133:1 134:1 135:1 136:1 137:1 138:1 139:1 140:1 141:1 149:1 151:1 154:1 155:1 165:1 167:1 170:1 172:1 181:1 183:1 186:1 188:1 200:1 205:1 
0.4888826277669819 71:1 73:1 75:1 77:1 87:1 89:1 91:1 93:1 101:1 103:1 104:1 105:1 106:1 107:1 108:1 117:1 119:1 121:1 123:1 124:1 133:1 134:1 135:1 136:1 137:1 138:1 139:1 140:1 141:1 142:1 149:1 151:1 153:1 155:1 156:1 165:1 167:1 169:1 171:1 172:1 181:1 183:1 184:1 185:1 186:1 187:1 189:1 197:1 199:1 201:1 203:1 205:1 
0.3269364680253179 71:1 73:1 74:1 77:1 85:1 87:1 90:1 92:1 101:1 103:1 104:1 105:1 106:1 107:1 108:1 117:1 119:1 122:1 123:1 133:1 134:1 135:1 136:1 137:1 138:1 139:1 140:1 141:1 149:1 151:1 154:1 155:1 165:1 167:1 168:1 169:1 170:1 171:1 172:1 181:1 183:1 184:1 186:1 188:1 199:1 202:1 205:1 
0.002339210330693404 74:1 75:1 76:1 77:1 78:1 90:1 93:1 101:1 102:1 103:1 104:1 105:1 106:1 109:1 119:1 122:1 125:1 135:1 173:1 203:1 204:1 205:1 
0.6059459346587584 73:1 74:1 75:1 76:1 77:1 89:1 92:1 101:1 102:1 103:1 104:1 105:1 108:1 119:1 121:1 124:1 135:1 137:1 138:1 140:1 141:1 173:1 189:1 204:1 205:1 
0.9127762221731534 89:1 92:1 101:1 102:1 103:1 104:1 105:1 108:1 119:1 121:1 124:1 135:1 137:1 165:1 173:1 189:1 203:1 204:1 205:1 
1.409003329681923 71:1 85:1 86:1 90:1 92:1 93:1 101:1 102:1 103:1 106:1 108:1 109:1 117:1 121:1 122:1 123:1 125:1 133:1 134:1 135:1 136:1 138:1 139:1 141:1 149:1 154:1 157:1 165:1 166:1 170:1 173:1 181:1 189:1 199:1 203:1 204:1 
0.4719010815872828 70:1 72:1 86:1 88:1 90:1 102:1 103:1 104:1 105:1 106:1 117:1 120:1 122:1 133:1 136:1 138:1 141:1 173:1 189:1 204:1 205:1 
0.6427389259771486 69:1 70:1 71:1 72:1 75:1 76:1 85:1 88:1 91:1 94:1 101:1 102:1 103:1 104:1 106:1 107:1 108:1 109:1 117:1 120:1 121:1 122:1 123:1 133:1 134:1 135:1 136:1 137:1 139:1 173:1 203:1 204:1 205:1 
1.711646442778555 71:1 73:1 75:1 87:1 89:1 91:1 93:1 101:1 102:1 103:1 105:1 106:1 107:1 108:1 109:1 117:1 121:1 122:1 123:1 133:1 134:1 135:1 136:1 137:1 139:1 150:1 165:1 166:1 167:1 168:1 169:1 170:1 171:1 172:1 173:1 189:1 203:1 204:1 205:1 
1.516232532772266 69:1 74:1 77:1 85:1 87:1 88:1 89:1 90:1 91:1 92:1 93:1 101:1 102:1 104:1 105:1 106:1 107:1 108:1 109:1 117:1 119:1 122:1 123:1 133:1 134:1 138:1 140:1 141:1 149:1 173:1 189:1 204:1 205:1 
0.8637871858980384 69:1 70:1 73:1 75:1 76:1 77:1 85:1 87:1 88:1 89:1 90:1 91:1 92:1 94:1 101:1 102:1 103:1 104:1 105:1 107:1 108:1 109:1 117:1 121:1 133:1 134:1 135:1 136:1 138:1 139:1 140:1 141:1 155:1 157:1 165:1 166:1 167:1 168:1 169:1 170:1 171:1 172:1 173:1 203:1 204:1 205:1 
0.7564667555331222 69:1 73:1 74:1 76:1 77:1 85:1 87:1 88:1 90:1 91:1 92:1 93:1 101:1 102:1 103:1 105:1 106:1 107:1 108:1 109:1 117:1 119:1 120:1 122:1 123:1 124:1 133:1 134:1 138:1 140:1 149:1 150:1 151:1 152:1 153:1 154:1 155:1 156:1 173:1 189:1 204:1 205:1 
0.7269069242500996 69:1 71:1 73:1 74:1 75:1 77:1 78:1 86:1 87:1 88:1 90:1 92:1 93:1 103:1 106:1 107:1 119:1 120:1 122:1 123:1 124:1 133:1 134:1 135:1 136:1 138:1 139:1 140:1 141:1 142:1 151:1 154:1 156:1 165:1 166:1 167:1 168:1 169:1 170:1 171:1 172:1 173:1 203:1 204:1 205:1 
1.671123804896372 71:1 72:1 74:1 75:1 77:1 85:1 86:1 87:1 88:1 89:1 90:1 91:1 92:1 101:1 102:1 103:1 104:1 106:1 118:1 119:1 120:1 122:1 124:1 133:1 135:1 136:1 137:1 138:1 140:1 141:1 173:1 189:1 204:1 205:1 
0.06976289073945814 77:1 85:1 87:1 91:1 93:1 101:1 103:1 104:1 105:1 106:1 107:1 109:1 117:1 119:1 121:1 123:1 125:1 133:1 135:1 137:1 139:1 141:1 149:1 151:1 153:1 155:1 157:1 165:1 167:1 168:1 169:1 170:1 171:1 173:1 181:1 183:1 184:1 186:1 187:1 189:1 197:1 205:1 
0.2299069954951066 72:1 73:1 85:1 86:1 87:1 88:1 89:1 90:1 91:1 92:1 93:1 94:1 101:1 105:1 117:1 119:1 121:1 123:1 124:1 125:1 126:1 133:1 134:1 135:1 136:1 137:1 139:1 141:1 149:1 151:1 153:1 155:1 157:1 165:1 167:1 169:1 171:1 173:1 181:1 183:1 185:1 187:1 189:1 197:1 201:1 203:1 204:1 205:1 206:1 
0.08019865338600149 72:1 86:1 87:1 93:1 101:1 102:1 103:1 104:1 105:1 106:1 107:1 108:1 109:1 118:1 120:1 121:1 122:1 123:1 124:1 125:1 134:1 137:1 139:1 150:1 153:1 155:1 165:1 166:1 169:1 171:1 173:1 181:1 182:1 185:1 187:1 189:1 198:1 200:1 201:1 202:1 203:1 204:1 205:1 
0.606389028716534 72:1 76:1 77:1 86:1 87:1 89:1 90:1 91:1 101:1 102:1 103:1 105:1 106:1 119:1 120:1 123:1 124:1 125:1 133:1 134:1 135:1 136:1 137:1 138:1 139:1 140:1 141:1 152:1 154:1 157:1 168:1 170:1 173:1 184:1 186:1 189:1 205:1 
-3 69:1 71:1 73:1 77:1 85:1 87:1 88:1 90:1 91:1 101:1 102:1 103:1 104:1 105:1 106:1 107:1 108:1 117:1 119:1 120:1 121:1 122:1 123:1 124:1 133:1 134:1 135:1 138:1 141:1 149:1 165:1 166:1 167:1 168:1 169:1 170:1 171:1 172:1 173:1 189:1 204:1 205:1 
-3 70:1 73:1 74:1 75:1 76:1 77:1 78:1 85:1 88:1 89:1 90:1 91:1 92:1 93:1 101:1 102:1 104:1 105:1 106:1 107:1 108:1 109:1 117:1 120:1 121:1 122:1 123:1 124:1 125:1 126:1 133:1 134:1 135:1 136:1 137:1 142:1 149:1 153:1 154:1 155:1 156:1 157:1 165:1 166:1 167:1 168:1 169:1 170:1 171:1 172:1 173:1 189:1 203:1 204:1 205:1 
-3 69:1 73:1 74:1 75:1 76:1 77:1 85:1 86:1 87:1 90:1 91:1 93:1 101:1 102:1 103:1 104:1 105:1 106:1 108:1 117:1 119:1 121:1 122:1 123:1 124:1 125:1 133:1 134:1 135:1 137:1 138:1 139:1 140:1 141:1 165:1 173:1 189:1 204:1 205:1 
-3 71:1 85:1 86:1 87:1 90:1 101:1 102:1 103:1 104:1 105:1 106:1 108:1 117:1 119:1 122:1 123:1 124:1 133:1 135:1 136:1 137:1 138:1 139:1 140:1 141:1 165:1 173:1 189:1 203:1 204:1 205:1 
-3 71:1 85:1 86:1 87:1 90:1 101:1 102:1 103:1 104:1 105:1 106:1 108:1 117:1 119:1 122:1 123:1 124:1 133:1 135:1 136:1 137:1 138:1 139:1 140:1 141:1 165:1 173:1 189:1 203:1 204:1 205:1 
