svm_type c_svc
kernel_type rbf
gamma 0.015625
nr_class 2
total_sv 29
rho -1.01688
label -1 1
nr_sv 25 4
SV
0.03125821393800097 19:1 20:1 35:1 36:1 51:1 52:1 67:1 68:1 83:1 84:1 94:1 95:1 99:1 100:1 110:1 111:1 115:1 116:1 125:1 126:1 127:1 131:1 132:1 133:1 134:1 135:1 136:1 137:1 138:1 139:1 140:1 141:1 142:1 147:1 148:1 163:1 164:1 179:1 180:1 195:1 196:1 211:1 212:1 227:1 228:1 243:1 244:1 
0.1595663389941519 14:1 15:1 30:1 46:1 62:1 78:1 94:1 110:1 114:1 115:1 126:1 130:1 131:1 132:1 133:1 134:1 135:1 136:1 137:1 138:1 139:1 140:1 141:1 142:1 158:1 174:1 190:1 206:1 222:1 238:1 254:1 255:1 
0.1668403626461581 31:1 37:1 38:1 47:1 48:1 53:1 54:1 63:1 64:1 69:1 70:1 72:1 73:1 78:1 79:1 85:1 86:1 88:1 89:1 90:1 94:1 95:1 101:1 102:1 106:1 107:1 108:1 109:1 110:1 117:1 118:1 123:1 124:1 125:1 126:1 133:1 134:1 136:1 137:1 138:1 139:1 140:1 141:1 146:1 147:1 148:1 149:1 150:1 151:1 152:1 153:1 154:1 155:1 157:1 158:1 162:1 163:1 164:1 165:1 166:1 174:1 181:1 182:1 190:1 191:1 197:1 198:1 206:1 207:1 213:1 214:1 222:1 223:1 229:1 230:1 238:1 239:1 240:1 
0.08068363151007854 30:1 36:1 46:1 52:1 62:1 68:1 72:1 73:1 78:1 84:1 89:1 94:1 100:1 105:1 110:1 116:1 121:1 126:1 132:1 137:1 142:1 148:1 153:1 158:1 164:1 169:1 174:1 180:1 185:1 190:1 196:1 200:1 201:1 206:1 212:1 222:1 238:1 254:1 
0.00559575104454567 30:1 46:1 52:1 62:1 68:1 72:1 73:1 78:1 84:1 88:1 89:1 94:1 100:1 104:1 105:1 110:1 116:1 120:1 121:1 126:1 132:1 136:1 137:1 142:1 148:1 152:1 153:1 158:1 164:1 168:1 169:1 174:1 180:1 184:1 185:1 190:1 196:1 200:1 201:1 206:1 212:1 222:1 238:1 254:1 
0.0648596005837324 30:1 31:1 46:1 47:1 62:1 63:1 78:1 79:1 94:1 95:1 110:1 111:1 114:1 115:1 116:1 117:1 118:1 119:1 120:1 121:1 122:1 123:1 124:1 125:1 126:1 127:1 130:1 131:1 132:1 133:1 134:1 135:1 136:1 137:1 138:1 139:1 140:1 141:1 142:1 143:1 151:1 158:1 159:1 167:1 174:1 175:1 183:1 190:1 191:1 199:1 206:1 207:1 215:1 222:1 223:1 231:1 238:1 239:1 254:1 255:1 
0.1473395740022963 30:1 31:1 46:1 47:1 51:1 52:1 56:1 57:1 62:1 63:1 67:1 68:1 72:1 73:1 78:1 79:1 83:1 84:1 88:1 89:1 94:1 95:1 99:1 100:1 104:1 105:1 106:1 107:1 108:1 109:1 110:1 111:1 115:1 116:1 117:1 118:1 119:1 120:1 121:1 122:1 123:1 124:1 125:1 126:1 127:1 131:1 132:1 136:1 137:1 142:1 143:1 147:1 148:1 152:1 153:1 158:1 159:1 163:1 164:1 168:1 169:1 174:1 175:1 179:1 180:1 184:1 185:1 190:1 191:1 195:1 196:1 197:1 198:1 199:1 200:1 201:1 202:1 203:1 204:1 205:1 206:1 207:1 211:1 212:1 213:1 214:1 215:1 216:1 217:1 218:1 222:1 223:1 238:1 239:1 254:1 255:1 
0.09786291932348924 31:1 36:1 47:1 52:1 57:1 68:1 84:1 92:1 93:1 94:1 100:1 101:1 102:1 103:1 104:1 105:1 106:1 107:1 108:1 109:1 110:1 116:1 117:1 118:1 119:1 132:1 148:1 164:1 180:1 190:1 195:1 196:1 197:1 198:1 199:1 200:1 201:1 202:1 203:1 204:1 205:1 206:1 212:1 222:1 238:1 
0.06136189804673346 45:1 47:1 48:1 51:1 52:1 61:1 62:1 63:1 68:1 70:1 71:1 75:1 76:1 77:1 79:1 84:1 86:1 87:1 91:1 92:1 95:1 100:1 103:1 106:1 107:1 111:1 116:1 119:1 120:1 121:1 122:1 127:1 132:1 133:1 134:1 135:1 136:1 137:1 143:1 148:1 149:1 150:1 153:1 154:1 159:1 164:1 169:1 170:1 173:1 175:1 180:1 186:1 189:1 191:1 196:1 204:1 205:1 207:1 212:1 213:1 214:1 215:1 216:1 217:1 218:1 219:1 220:1 221:1 223:1 227:1 228:1 229:1 230:1 231:1 232:1 233:1 239:1 255:1 256:1 
0.3426746067926506 30:1 31:1 46:1 47:1 62:1 63:1 67:1 68:1 69:1 70:1 71:1 72:1 73:1 74:1 75:1 76:1 77:1 78:1 79:1 83:1 84:1 85:1 86:1 87:1 88:1 89:1 90:1 91:1 92:1 93:1 94:1 95:1 99:1 100:1 103:1 106:1 107:1 110:1 111:1 115:1 116:1 119:1 122:1 123:1 126:1 127:1 131:1 132:1 135:1 138:1 139:1 142:1 143:1 147:1 148:1 151:1 154:1 155:1 158:1 159:1 163:1 164:1 167:1 170:1 171:1 174:1 175:1 179:1 180:1 183:1 186:1 187:1 190:1 191:1 195:1 196:1 197:1 198:1 199:1 200:1 201:1 202:1 203:1 204:1 205:1 206:1 207:1 222:1 223:1 238:1 239:1 254:1 255:1 
0.02602991283847649 31:1 47:1 63:1 66:1 67:1 68:1 69:1 70:1 71:1 72:1 73:1 74:1 75:1 76:1 77:1 78:1 83:1 84:1 85:1 86:1 87:1 88:1 89:1 90:1 91:1 92:1 93:1 94:1 99:1 103:1 115:1 119:1 131:1 135:1 147:1 151:1 163:1 167:1 179:1 180:1 181:1 182:1 183:1 184:1 185:1 186:1 187:1 188:1 189:1 190:1 195:1 222:1 238:1 254:1 
0.4016460399609289 23:1 39:1 51:1 52:1 53:1 54:1 55:1 56:1 57:1 58:1 59:1 60:1 61:1 62:1 63:1 67:1 68:1 71:1 78:1 79:1 87:1 94:1 95:1 98:1 99:1 103:1 107:1 108:1 110:1 111:1 114:1 115:1 116:1 117:1 118:1 119:1 120:1 121:1 122:1 123:1 124:1 126:1 127:1 135:1 139:1 140:1 142:1 143:1 151:1 155:1 156:1 158:1 159:1 167:1 171:1 172:1 174:1 175:1 178:1 179:1 180:1 181:1 182:1 183:1 184:1 185:1 186:1 187:1 188:1 190:1 191:1 199:1 206:1 207:1 215:1 222:1 223:1 231:1 238:1 239:1 247:1 
0.213872260986655 19:1 20:1 35:1 36:1 38:1 39:1 40:1 41:1 42:1 43:1 44:1 45:1 46:1 47:1 51:1 52:1 54:1 55:1 56:1 57:1 58:1 59:1 60:1 61:1 62:1 63:1 67:1 68:1 70:1 71:1 76:1 77:1 83:1 84:1 86:1 87:1 91:1 92:1 93:1 99:1 100:1 102:1 103:1 106:1 107:1 108:1 115:1 116:1 118:1 119:1 121:1 122:1 123:1 131:1 132:1 133:1 134:1 135:1 136:1 137:1 138:1 147:1 148:1 149:1 150:1 151:1 153:1 154:1 163:1 164:1 166:1 167:1 170:1 171:1 179:1 180:1 182:1 183:1 187:1 188:1 189:1 190:1 191:1 195:1 196:1 198:1 199:1 204:1 206:1 207:1 211:1 212:1 214:1 215:1 216:1 217:1 218:1 219:1 220:1 221:1 222:1 223:1 227:1 228:1 230:1 231:1 232:1 233:1 234:1 235:1 236:1 237:1 238:1 239:1 243:1 244:1 
0.05598678705353186 30:1 31:1 38:1 39:1 46:1 47:1 53:1 54:1 55:1 56:1 57:1 58:1 62:1 63:1 73:1 74:1 78:1 79:1 94:1 95:1 98:1 99:1 100:1 101:1 102:1 103:1 104:1 105:1 106:1 107:1 108:1 109:1 110:1 111:1 114:1 115:1 116:1 117:1 118:1 119:1 120:1 121:1 122:1 123:1 124:1 125:1 126:1 127:1 142:1 143:1 146:1 147:1 148:1 158:1 159:1 162:1 163:1 164:1 165:1 166:1 167:1 168:1 169:1 170:1 171:1 172:1 173:1 174:1 175:1 178:1 179:1 190:1 191:1 201:1 202:1 203:1 206:1 207:1 214:1 215:1 216:1 217:1 218:1 222:1 223:1 229:1 230:1 231:1 232:1 238:1 239:1 246:1 254:1 255:1 
0.0548597814098418 23:1 30:1 31:1 39:1 40:1 43:1 44:1 46:1 47:1 53:1 54:1 55:1 56:1 59:1 60:1 62:1 63:1 67:1 68:1 69:1 71:1 73:1 74:1 75:1 76:1 78:1 79:1 82:1 83:1 84:1 87:1 88:1 89:1 90:1 91:1 92:1 94:1 95:1 99:1 102:1 103:1 104:1 107:1 108:1 110:1 111:1 117:1 118:1 119:1 123:1 126:1 127:1 134:1 135:1 136:1 139:1 142:1 143:1 150:1 151:1 152:1 155:1 156:1 158:1 159:1 165:1 166:1 167:1 168:1 170:1 171:1 172:1 174:1 175:1 178:1 179:1 180:1 181:1 183:1 184:1 185:1 186:1 187:1 188:1 190:1 191:1 194:1 195:1 199:1 200:1 201:1 203:1 204:1 206:1 207:1 213:1 214:1 215:1 219:1 222:1 223:1 230:1 231:1 235:1 238:1 239:1 254:1 255:1 
0.04027288425139852 30:1 39:1 40:1 43:1 44:1 46:1 54:1 55:1 56:1 59:1 60:1 62:1 66:1 67:1 68:1 69:1 73:1 74:1 75:1 78:1 82:1 83:1 88:1 89:1 91:1 94:1 102:1 103:1 107:1 110:1 117:1 118:1 123:1 126:1 135:1 136:1 139:1 142:1 149:1 150:1 151:1 155:1 156:1 158:1 163:1 164:1 165:1 169:1 170:1 171:1 172:1 174:1 178:1 179:1 180:1 184:1 185:1 187:1 190:1 197:1 198:1 199:1 203:1 206:1 213:1 214:1 219:1 222:1 235:1 237:1 238:1 254:1 
3 26:1 35:1 36:1 42:1 51:1 52:1 54:1 55:1 58:1 63:1 67:1 68:1 71:1 74:1 78:1 79:1 83:1 84:1 87:1 90:1 93:1 94:1 95:1 99:1 100:1 103:1 106:1 108:1 109:1 110:1 111:1 115:1 116:1 119:1 122:1 123:1 124:1 126:1 127:1 131:1 132:1 133:1 134:1 135:1 136:1 137:1 138:1 139:1 142:1 143:1 147:1 148:1 151:1 154:1 158:1 159:1 163:1 164:1 167:1 170:1 171:1 172:1 174:1 175:1 179:1 180:1 183:1 186:1 188:1 189:1 190:1 191:1 195:1 196:1 198:1 199:1 202:1 206:1 207:1 211:1 212:1 214:1 215:1 218:1 222:1 223:1 224:1 227:1 228:1 234:1 250:1 
2.607877408148693 25:1 26:1 35:1 41:1 42:1 51:1 54:1 57:1 58:1 62:1 67:1 70:1 73:1 74:1 77:1 78:1 79:1 83:1 86:1 89:1 90:1 92:1 93:1 94:1 95:1 99:1 102:1 105:1 106:1 107:1 108:1 109:1 110:1 111:1 115:1 118:1 121:1 122:1 123:1 126:1 127:1 131:1 132:1 133:1 134:1 135:1 136:1 137:1 138:1 142:1 143:1 147:1 150:1 153:1 154:1 158:1 163:1 166:1 169:1 170:1 172:1 174:1 179:1 182:1 185:1 186:1 187:1 188:1 189:1 190:1 195:1 198:1 201:1 202:1 205:1 206:1 207:1 211:1 214:1 217:1 218:1 222:1 223:1 224:1 233:1 234:1 239:1 249:1 250:1 
2.815307348433292 42:1 51:1 67:1 70:1 78:1 79:1 83:1 86:1 93:1 94:1 95:1 99:1 102:1 108:1 109:1 111:1 115:1 118:1 122:1 123:1 124:1 127:1 131:1 132:1 133:1 134:1 135:1 136:1 137:1 142:1 143:1 147:1 150:1 158:1 159:1 163:1 166:1 174:1 179:1 182:1 188:1 189:1 190:1 194:1 195:1 197:1 198:1 205:1 206:1 210:1 211:1 214:1 217:1 222:1 223:1 224:1 227:1 233:1 238:1 239:1 
0.0580123505898065 27:1 30:1 31:1 38:1 43:1 44:1 46:1 47:1 54:1 59:1 60:1 62:1 63:1 70:1 75:1 78:1 79:1 86:1 91:1 94:1 95:1 98:1 99:1 100:1 101:1 102:1 103:1 104:1 105:1 106:1 107:1 108:1 109:1 110:1 111:1 114:1 115:1 116:1 117:1 118:1 119:1 120:1 121:1 122:1 123:1 124:1 125:1 126:1 127:1 142:1 143:1 146:1 147:1 148:1 149:1 150:1 151:1 152:1 153:1 154:1 155:1 156:1 158:1 159:1 162:1 163:1 164:1 165:1 166:1 167:1 168:1 169:1 170:1 171:1 172:1 173:1 174:1 175:1 182:1 183:1 188:1 189:1 190:1 191:1 197:1 198:1 199:1 204:1 205:1 206:1 207:1 213:1 214:1 220:1 221:1 222:1 223:1 229:1 230:1 235:1 236:1 237:1 238:1 239:1 251:1 252:1 254:1 255:1 
0.1260249405861489 18:1 19:1 34:1 35:1 38:1 39:1 40:1 41:1 42:1 46:1 47:1 48:1 50:1 51:1 54:1 55:1 56:1 57:1 58:1 62:1 63:1 67:1 70:1 71:1 74:1 77:1 78:1 79:1 83:1 86:1 87:1 90:1 92:1 93:1 94:1 99:1 100:1 101:1 102:1 103:1 104:1 105:1 106:1 107:1 108:1 109:1 115:1 116:1 117:1 118:1 119:1 120:1 121:1 122:1 123:1 124:1 131:1 147:1 163:1 164:1 165:1 166:1 167:1 168:1 169:1 170:1 171:1 172:1 173:1 174:1 175:1 176:1 179:1 182:1 183:1 186:1 195:1 198:1 199:1 202:1 210:1 211:1 214:1 215:1 218:1 226:1 227:1 230:1 231:1 232:1 233:1 234:1 242:1 243:1 
0.04470852654222052 70:1 73:1 86:1 87:1 89:1 93:1 102:1 104:1 105:1 106:1 107:1 108:1 109:1 118:1 121:1 124:1 133:1 134:1 135:1 136:1 137:1 138:1 139:1 150:1 152:1 153:1 155:1 156:1 166:1 167:1 169:1 170:1 172:1 182:1 185:1 186:1 189:1 201:1 205:1 
0.01410495947839357 8:1 21:1 24:1 37:1 38:1 40:1 41:1 42:1 43:1 44:1 45:1 53:1 54:1 55:1 56:1 60:1 69:1 72:1 76:1 84:1 85:1 86:1 87:1 88:1 89:1 90:1 91:1 92:1 101:1 104:1 106:1 107:1 117:1 119:1 120:1 122:1 123:1 124:1 133:1 134:1 136:1 137:1 138:1 140:1 149:1 152:1 156:1 
0.05194307060148059 73:1 86:1 102:1 103:1 104:1 105:1 106:1 107:1 108:1 109:1 118:1 124:1 133:1 134:1 135:1 136:1 138:1 139:1 140:1 150:1 155:1 156:1 166:1 167:1 170:1 172:1 182:1 183:1 186:1 189:1 198:1 
0.07072096643235135 70:1 71:1 75:1 86:1 87:1 88:1 91:1 102:1 103:1 107:1 118:1 119:1 123:1 133:1 134:1 135:1 136:1 137:1 138:1 139:1 140:1 141:1 150:1 151:1 155:1 166:1 167:1 168:1 171:1 182:1 183:1 184:1 187:1 203:1 
-3 26:1 42:1 51:1 52:1 54:1 55:1 58:1 62:1 67:1 68:1 71:1 74:1 78:1 79:1 83:1 84:1 87:1 90:1 93:1 94:1 95:1 99:1 100:1 103:1 106:1 108:1 109:1 110:1 111:1 115:1 116:1 119:1 122:1 123:1 124:1 126:1 127:1 131:1 132:1 133:1 134:1 135:1 136:1 137:1 138:1 139:1 142:1 143:1 147:1 148:1 151:1 154:1 158:1 159:1 163:1 164:1 167:1 170:1 171:1 172:1 174:1 179:1 180:1 183:1 186:1 188:1 189:1 190:1 195:1 199:1 202:1 206:1 207:1 210:1 211:1 214:1 215:1 218:1 222:1 223:1 224:1 227:1 234:1 239:1 250:1 
-3 25:1 26:1 41:1 42:1 51:1 52:1 54:1 55:1 57:1 58:1 62:1 67:1 68:1 70:1 71:1 73:1 74:1 77:1 78:1 79:1 83:1 84:1 86:1 87:1 89:1 90:1 92:1 93:1 94:1 95:1 99:1 100:1 102:1 103:1 105:1 106:1 107:1 108:1 109:1 110:1 111:1 115:1 116:1 118:1 119:1 121:1 122:1 123:1 124:1 126:1 127:1 131:1 132:1 133:1 134:1 135:1 136:1 137:1 138:1 142:1 143:1 147:1 148:1 150:1 151:1 153:1 154:1 158:1 159:1 163:1 164:1 166:1 167:1 169:1 170:1 172:1 174:1 175:1 179:1 180:1 182:1 183:1 185:1 186:1 187:1 188:1 189:1 190:1 195:1 198:1 199:1 201:1 202:1 205:1 206:1 210:1 211:1 214:1 215:1 217:1 218:1 222:1 223:1 224:1 233:1 234:1 239:1 249:1 250:1 
-1.747554409041212 26:1 42:1 52:1 54:1 62:1 63:1 68:1 70:1 78:1 79:1 83:1 84:1 86:1 93:1 94:1 95:1 99:1 102:1 107:1 108:1 109:1 110:1 111:1 115:1 118:1 122:1 123:1 124:1 126:1 127:1 131:1 132:1 133:1 134:1 135:1 136:1 137:1 138:1 142:1 147:1 150:1 158:1 163:1 166:1 174:1 178:1 179:1 182:1 188:1 189:1 190:1 194:1 195:1 197:1 198:1 205:1 206:1 214:1 217:1 222:1 223:1 224:1 233:1 239:1 
-2.991855725153844 26:1 42:1 52:1 54:1 62:1 63:1 68:1 70:1 78:1 79:1 83:1 84:1 86:1 93:1 94:1 95:1 99:1 102:1 107:1 108:1 109:1 110:1 111:1 115:1 118:1 122:1 123:1 124:1 126:1 127:1 131:1 132:1 133:1 134:1 135:1 136:1 137:1 138:1 142:1 147:1 150:1 158:1 163:1 166:1 174:1 178:1 179:1 182:1 188:1 189:1 190:1 194:1 195:1 197:1 198:1 205:1 206:1 214:1 217:1 222:1 223:1 224:1 233:1 239:1 
