svm_type c_svc
kernel_type rbf
gamma 0.015625
nr_class 2
total_sv 35
rho -1.01908
label -1 1
nr_sv 32 3
SV
0.04548503757719515 126:1 127:1 162:1 163:1 198:1 199:1 234:1 235:1 270:1 271:1 306:1 307:1 342:1 343:1 378:1 379:1 414:1 415:1 450:1 451:1 486:1 487:1 522:1 523:1 558:1 559:1 594:1 595:1 630:1 631:1 666:1 667:1 702:1 703:1 738:1 739:1 774:1 775:1 810:1 811:1 846:1 847:1 882:1 883:1 918:1 919:1 954:1 955:1 990:1 991:1 1026:1 1027:1 1062:1 1063:1 1098:1 1099:1 1134:1 1135:1 1170:1 1171:1 1206:1 1207:1 
0.1053859645637169 89:1 125:1 126:1 161:1 162:1 197:1 198:1 233:1 269:1 305:1 341:1 377:1 413:1 449:1 485:1 521:1 557:1 593:1 629:1 665:1 701:1 737:1 773:1 809:1 845:1 881:1 917:1 953:1 989:1 1025:1 1061:1 1096:1 1097:1 1131:1 1132:1 1133:1 1168:1 1169:1 1205:1 
0.1801416154146135 114:1 115:1 150:1 151:1 186:1 187:1 222:1 223:1 258:1 259:1 294:1 295:1 330:1 331:1 366:1 367:1 402:1 403:1 438:1 439:1 474:1 475:1 500:1 510:1 511:1 536:1 537:1 538:1 546:1 547:1 572:1 573:1 574:1 582:1 583:1 608:1 609:1 610:1 618:1 619:1 644:1 645:1 646:1 654:1 655:1 680:1 681:1 682:1 690:1 691:1 692:1 693:1 694:1 695:1 696:1 697:1 698:1 699:1 700:1 701:1 702:1 703:1 704:1 705:1 706:1 707:1 708:1 709:1 710:1 711:1 712:1 713:1 714:1 715:1 716:1 717:1 726:1 727:1 728:1 729:1 730:1 731:1 732:1 733:1 734:1 735:1 736:1 737:1 738:1 739:1 740:1 741:1 742:1 743:1 744:1 745:1 746:1 747:1 748:1 749:1 750:1 751:1 752:1 753:1 762:1 763:1 798:1 799:1 834:1 835:1 870:1 871:1 906:1 907:1 942:1 943:1 978:1 979:1 1014:1 1015:1 1050:1 1051:1 1086:1 1087:1 1122:1 1123:1 1158:1 1159:1 1194:1 1195:1 
0.4907569546316395 78:1 79:1 80:1 114:1 115:1 116:1 150:1 151:1 152:1 186:1 187:1 188:1 222:1 223:1 224:1 258:1 259:1 260:1 294:1 295:1 296:1 330:1 331:1 332:1 366:1 367:1 368:1 402:1 403:1 404:1 428:1 438:1 439:1 440:1 464:1 465:1 466:1 467:1 474:1 475:1 476:1 500:1 501:1 502:1 503:1 510:1 511:1 512:1 536:1 537:1 538:1 546:1 547:1 548:1 572:1 573:1 574:1 582:1 583:1 584:1 607:1 608:1 609:1 610:1 618:1 619:1 620:1 621:1 622:1 623:1 624:1 625:1 626:1 627:1 628:1 629:1 630:1 631:1 632:1 633:1 634:1 635:1 636:1 637:1 638:1 639:1 640:1 641:1 642:1 643:1 644:1 645:1 646:1 654:1 655:1 656:1 657:1 658:1 659:1 660:1 661:1 662:1 663:1 664:1 665:1 666:1 667:1 668:1 669:1 670:1 671:1 672:1 673:1 674:1 675:1 676:1 677:1 678:1 679:1 680:1 681:1 690:1 691:1 692:1 693:1 694:1 695:1 696:1 697:1 698:1 699:1 700:1 701:1 702:1 703:1 704:1 705:1 706:1 707:1 708:1 709:1 710:1 711:1 712:1 713:1 714:1 715:1 716:1 726:1 727:1 728:1 762:1 763:1 764:1 798:1 799:1 800:1 834:1 835:1 836:1 870:1 871:1 872:1 906:1 907:1 908:1 942:1 943:1 944:1 978:1 979:1 980:1 1014:1 1015:1 1016:1 1050:1 1051:1 1052:1 1086:1 1087:1 1088:1 1122:1 1123:1 1124:1 1158:1 1159:1 1160:1 1194:1 1195:1 1196:1 1230:1 1231:1 1232:1 
0.5797060073662578 115:1 151:1 187:1 223:1 259:1 295:1 331:1 367:1 403:1 428:1 439:1 464:1 475:1 500:1 511:1 536:1 537:1 547:1 572:1 573:1 574:1 583:1 608:1 609:1 610:1 611:1 619:1 620:1 621:1 622:1 623:1 624:1 625:1 626:1 627:1 628:1 629:1 630:1 631:1 632:1 633:1 634:1 635:1 636:1 637:1 638:1 639:1 640:1 641:1 642:1 643:1 644:1 645:1 646:1 655:1 656:1 657:1 658:1 659:1 660:1 661:1 662:1 663:1 664:1 665:1 666:1 667:1 668:1 669:1 670:1 671:1 672:1 673:1 674:1 675:1 676:1 677:1 678:1 679:1 680:1 681:1 682:1 691:1 692:1 693:1 694:1 695:1 696:1 697:1 698:1 699:1 700:1 701:1 702:1 703:1 704:1 705:1 706:1 707:1 708:1 709:1 710:1 711:1 712:1 713:1 714:1 715:1 716:1 727:1 763:1 799:1 835:1 871:1 907:1 943:1 979:1 1015:1 1051:1 1086:1 1087:1 1121:1 1122:1 1123:1 1157:1 1158:1 1159:1 1194:1 1195:1 
0.03911361636874705 113:1 114:1 115:1 150:1 151:1 186:1 222:1 258:1 294:1 330:1 340:1 341:1 342:1 366:1 373:1 374:1 375:1 376:1 377:1 378:1 402:1 406:1 407:1 408:1 409:1 410:1 411:1 412:1 413:1 438:1 439:1 440:1 441:1 442:1 443:1 444:1 445:1 448:1 449:1 474:1 475:1 476:1 477:1 478:1 484:1 485:1 510:1 511:1 520:1 521:1 546:1 556:1 557:1 582:1 592:1 593:1 618:1 628:1 629:1 654:1 664:1 665:1 680:1 690:1 700:1 701:1 716:1 717:1 718:1 726:1 736:1 737:1 752:1 753:1 754:1 762:1 772:1 773:1 788:1 789:1 790:1 798:1 808:1 809:1 824:1 825:1 826:1 834:1 844:1 845:1 860:1 861:1 870:1 880:1 881:1 895:1 896:1 897:1 906:1 916:1 917:1 926:1 927:1 928:1 929:1 930:1 931:1 932:1 933:1 942:1 952:1 953:1 954:1 955:1 956:1 957:1 958:1 959:1 960:1 961:1 962:1 963:1 964:1 965:1 966:1 967:1 968:1 978:1 988:1 989:1 990:1 991:1 992:1 993:1 994:1 995:1 996:1 997:1 998:1 1014:1 1024:1 1050:1 1086:1 1122:1 1123:1 1157:1 1158:1 1159:1 
0.08036281704706655 114:1 150:1 186:1 222:1 258:1 294:1 330:1 366:1 376:1 377:1 402:1 409:1 410:1 411:1 412:1 413:1 414:1 438:1 442:1 443:1 444:1 445:1 446:1 447:1 448:1 449:1 474:1 475:1 476:1 477:1 478:1 479:1 480:1 481:1 485:1 510:1 511:1 512:1 513:1 514:1 521:1 546:1 557:1 571:1 582:1 593:1 607:1 618:1 629:1 643:1 654:1 665:1 679:1 680:1 690:1 701:1 716:1 726:1 737:1 752:1 753:1 762:1 773:1 788:1 789:1 790:1 798:1 809:1 824:1 825:1 826:1 834:1 845:1 860:1 861:1 862:1 870:1 881:1 895:1 896:1 897:1 898:1 906:1 917:1 929:1 930:1 931:1 932:1 933:1 942:1 953:1 958:1 959:1 960:1 961:1 962:1 963:1 964:1 965:1 966:1 967:1 968:1 978:1 988:1 989:1 990:1 991:1 992:1 993:1 994:1 995:1 996:1 997:1 998:1 999:1 1000:1 1001:1 1002:1 1014:1 1023:1 1024:1 1025:1 1026:1 1027:1 1028:1 1029:1 1030:1 1031:1 1032:1 1033:1 1049:1 1050:1 1060:1 1061:1 1084:1 1085:1 1086:1 1120:1 1121:1 1122:1 1157:1 1158:1 1194:1 
0.01293631431181679 92:1 128:1 164:1 199:1 235:1 271:1 307:1 342:1 378:1 414:1 450:1 485:1 521:1 543:1 544:1 557:1 580:1 581:1 582:1 583:1 584:1 585:1 586:1 587:1 588:1 589:1 590:1 591:1 592:1 593:1 594:1 595:1 596:1 597:1 598:1 599:1 600:1 601:1 602:1 603:1 604:1 605:1 606:1 607:1 608:1 616:1 617:1 618:1 619:1 620:1 621:1 622:1 623:1 624:1 625:1 626:1 627:1 628:1 629:1 630:1 631:1 632:1 633:1 634:1 635:1 636:1 637:1 638:1 639:1 640:1 641:1 642:1 643:1 644:1 664:1 679:1 680:1 681:1 700:1 716:1 717:1 736:1 752:1 753:1 771:1 788:1 789:1 807:1 824:1 825:1 843:1 860:1 861:1 879:1 896:1 897:1 914:1 932:1 933:1 950:1 968:1 969:1 986:1 1004:1 1005:1 1022:1 1040:1 1041:1 1057:1 1076:1 1077:1 1091:1 1092:1 1093:1 1112:1 1113:1 1127:1 1128:1 1129:1 1145:1 1146:1 1147:1 1148:1 1149:1 1164:1 1165:1 1176:1 1177:1 1178:1 1179:1 1180:1 1181:1 1182:1 1183:1 1184:1 1185:1 1219:1 1220:1 1255:1 
0.2323085443914445 140:1 141:1 176:1 177:1 212:1 213:1 248:1 249:1 284:1 285:1 320:1 321:1 356:1 357:1 392:1 393:1 428:1 429:1 464:1 465:1 500:1 501:1 536:1 537:1 572:1 573:1 608:1 609:1 616:1 617:1 618:1 619:1 620:1 621:1 622:1 623:1 624:1 625:1 626:1 627:1 628:1 629:1 630:1 631:1 632:1 633:1 634:1 635:1 636:1 637:1 638:1 639:1 640:1 641:1 642:1 643:1 644:1 645:1 652:1 653:1 654:1 655:1 656:1 657:1 658:1 659:1 660:1 661:1 662:1 663:1 664:1 665:1 666:1 667:1 668:1 669:1 670:1 671:1 672:1 673:1 674:1 675:1 676:1 677:1 678:1 679:1 680:1 681:1 688:1 689:1 716:1 717:1 752:1 753:1 788:1 789:1 824:1 825:1 860:1 861:1 896:1 897:1 932:1 933:1 968:1 969:1 1004:1 1005:1 1040:1 1041:1 1076:1 1077:1 1112:1 1113:1 1148:1 1149:1 1184:1 1185:1 1220:1 1221:1 
0.4743137757172282 141:1 177:1 213:1 249:1 615:1 616:1 617:1 618:1 619:1 620:1 621:1 622:1 623:1 624:1 625:1 626:1 627:1 628:1 629:1 630:1 631:1 632:1 633:1 634:1 635:1 636:1 637:1 638:1 639:1 640:1 641:1 642:1 643:1 644:1 652:1 653:1 654:1 655:1 656:1 657:1 658:1 659:1 660:1 661:1 662:1 663:1 664:1 665:1 666:1 667:1 668:1 669:1 670:1 671:1 672:1 673:1 674:1 675:1 676:1 677:1 678:1 679:1 680:1 688:1 689:1 690:1 691:1 692:1 693:1 694:1 695:1 696:1 697:1 698:1 699:1 700:1 701:1 702:1 703:1 704:1 705:1 706:1 707:1 708:1 709:1 710:1 711:1 712:1 713:1 714:1 715:1 716:1 1076:1 1111:1 1112:1 1146:1 1147:1 1148:1 1183:1 1184:1 1220:1 
0.3299495576918194 96:1 113:1 114:1 132:1 133:1 149:1 150:1 167:1 168:1 169:1 170:1 185:1 186:1 203:1 204:1 205:1 221:1 222:1 238:1 239:1 240:1 257:1 258:1 274:1 275:1 276:1 293:1 294:1 309:1 310:1 311:1 329:1 330:1 344:1 345:1 346:1 365:1 366:1 380:1 381:1 382:1 401:1 402:1 415:1 416:1 417:1 437:1 438:1 450:1 451:1 452:1 473:1 474:1 485:1 486:1 487:1 509:1 510:1 519:1 520:1 521:1 522:1 545:1 546:1 554:1 555:1 556:1 557:1 581:1 582:1 589:1 590:1 591:1 592:1 617:1 618:1 623:1 624:1 625:1 626:1 627:1 653:1 654:1 658:1 659:1 660:1 661:1 689:1 690:1 692:1 693:1 694:1 695:1 696:1 725:1 726:1 727:1 728:1 729:1 730:1 761:1 762:1 763:1 764:1 765:1 797:1 798:1 799:1 833:1 834:1 869:1 870:1 905:1 906:1 941:1 942:1 977:1 978:1 1013:1 1014:1 1049:1 1050:1 1085:1 1086:1 1121:1 1122:1 1157:1 1158:1 1193:1 1194:1 1229:1 1230:1 
0.01781200813167752 133:1 134:1 150:1 151:1 152:1 168:1 169:1 170:1 186:1 187:1 188:1 203:1 204:1 205:1 206:1 207:1 222:1 223:1 224:1 239:1 240:1 241:1 242:1 258:1 259:1 260:1 274:1 275:1 276:1 277:1 294:1 295:1 296:1 309:1 310:1 311:1 312:1 330:1 331:1 332:1 343:1 344:1 345:1 346:1 347:1 366:1 367:1 368:1 378:1 379:1 380:1 381:1 382:1 402:1 403:1 404:1 413:1 414:1 415:1 416:1 417:1 438:1 439:1 440:1 447:1 448:1 449:1 450:1 451:1 452:1 474:1 475:1 476:1 481:1 482:1 483:1 484:1 485:1 486:1 510:1 511:1 512:1 514:1 515:1 516:1 517:1 518:1 519:1 520:1 521:1 546:1 547:1 548:1 549:1 550:1 551:1 552:1 553:1 554:1 555:1 582:1 583:1 584:1 585:1 586:1 587:1 588:1 589:1 618:1 619:1 620:1 621:1 622:1 654:1 655:1 656:1 690:1 691:1 692:1 726:1 727:1 728:1 762:1 763:1 764:1 798:1 799:1 800:1 834:1 835:1 836:1 870:1 871:1 872:1 906:1 907:1 908:1 942:1 943:1 944:1 978:1 979:1 980:1 1014:1 1015:1 1016:1 1050:1 1051:1 1052:1 1086:1 1087:1 1088:1 1122:1 1123:1 1124:1 1158:1 1159:1 1160:1 
0.001524080663325066 98:1 134:1 152:1 169:1 188:1 205:1 224:1 240:1 260:1 275:1 276:1 296:1 311:1 332:1 346:1 347:1 368:1 381:1 382:1 404:1 416:1 417:1 440:1 450:1 451:1 452:1 476:1 485:1 486:1 487:1 512:1 519:1 520:1 521:1 522:1 548:1 551:1 552:1 553:1 554:1 555:1 556:1 557:1 584:1 585:1 586:1 587:1 588:1 589:1 590:1 591:1 620:1 621:1 622:1 623:1 624:1 656:1 692:1 728:1 764:1 800:1 836:1 872:1 908:1 944:1 980:1 1016:1 1051:1 1052:1 1086:1 1087:1 1088:1 1122:1 1123:1 1124:1 1159:1 1160:1 1196:1 
0.00275993830360518 103:1 139:1 140:1 175:1 188:1 211:1 224:1 247:1 260:1 271:1 283:1 296:1 307:1 308:1 319:1 332:1 343:1 344:1 355:1 368:1 379:1 391:1 404:1 415:1 427:1 440:1 451:1 463:1 476:1 487:1 499:1 512:1 523:1 535:1 548:1 559:1 571:1 584:1 595:1 607:1 620:1 631:1 643:1 656:1 667:1 679:1 692:1 703:1 715:1 728:1 739:1 751:1 764:1 775:1 787:1 800:1 811:1 823:1 836:1 847:1 859:1 872:1 883:1 895:1 908:1 919:1 931:1 944:1 954:1 955:1 967:1 980:1 990:1 991:1 1003:1 1016:1 1027:1 1039:1 1051:1 1052:1 1075:1 1087:1 1088:1 1111:1 1124:1 1146:1 1147:1 1182:1 1183:1 1219:1 
0.04774867301865431 104:1 140:1 141:1 176:1 212:1 248:1 284:1 320:1 356:1 392:1 428:1 464:1 500:1 536:1 572:1 580:1 581:1 582:1 583:1 584:1 585:1 586:1 587:1 588:1 589:1 590:1 591:1 592:1 593:1 594:1 595:1 596:1 597:1 598:1 599:1 600:1 601:1 602:1 603:1 604:1 605:1 606:1 607:1 608:1 616:1 617:1 618:1 619:1 620:1 621:1 622:1 623:1 624:1 625:1 626:1 627:1 628:1 629:1 630:1 631:1 632:1 633:1 634:1 635:1 636:1 637:1 638:1 639:1 640:1 641:1 642:1 643:1 644:1 652:1 653:1 680:1 716:1 752:1 788:1 824:1 860:1 896:1 932:1 951:1 968:1 986:1 987:1 1004:1 1021:1 1022:1 1023:1 1040:1 1058:1 1059:1 1076:1 1095:1 1111:1 1112:1 1146:1 1147:1 1148:1 1183:1 1184:1 1220:1 
1.910024969126913 113:1 114:1 115:1 149:1 150:1 151:1 185:1 186:1 187:1 221:1 222:1 257:1 258:1 293:1 294:1 329:1 330:1 365:1 366:1 401:1 402:1 437:1 438:1 473:1 474:1 509:1 510:1 545:1 546:1 581:1 582:1 610:1 617:1 618:1 619:1 620:1 621:1 622:1 623:1 624:1 625:1 626:1 627:1 628:1 629:1 630:1 631:1 632:1 633:1 634:1 635:1 636:1 637:1 638:1 639:1 640:1 641:1 642:1 643:1 644:1 645:1 646:1 653:1 654:1 655:1 656:1 657:1 658:1 659:1 660:1 661:1 662:1 663:1 664:1 665:1 666:1 667:1 668:1 669:1 670:1 671:1 672:1 673:1 674:1 675:1 676:1 677:1 678:1 679:1 680:1 681:1 682:1 689:1 690:1 725:1 726:1 761:1 762:1 771:1 797:1 798:1 806:1 807:1 808:1 833:1 834:1 842:1 843:1 844:1 869:1 870:1 879:1 880:1 881:1 905:1 906:1 916:1 917:1 918:1 941:1 942:1 953:1 954:1 955:1 977:1 978:1 990:1 991:1 992:1 1013:1 1014:1 1027:1 1028:1 1029:1 1030:1 1049:1 1050:1 1064:1 1065:1 1066:1 1067:1 1085:1 1086:1 1087:1 1101:1 1102:1 1103:1 1121:1 1122:1 1123:1 1138:1 1157:1 1158:1 1159:1 1193:1 1194:1 1195:1 
0.1775138389807167 114:1 115:1 116:1 150:1 151:1 152:1 186:1 187:1 188:1 222:1 223:1 224:1 258:1 259:1 260:1 294:1 295:1 296:1 330:1 331:1 332:1 366:1 367:1 368:1 402:1 403:1 404:1 438:1 439:1 440:1 474:1 475:1 476:1 510:1 511:1 512:1 546:1 547:1 548:1 582:1 583:1 584:1 585:1 586:1 587:1 588:1 589:1 590:1 591:1 592:1 593:1 594:1 595:1 596:1 597:1 598:1 599:1 600:1 601:1 602:1 603:1 604:1 605:1 606:1 607:1 608:1 609:1 610:1 618:1 619:1 620:1 621:1 622:1 623:1 624:1 625:1 626:1 627:1 628:1 629:1 630:1 631:1 632:1 633:1 634:1 635:1 636:1 637:1 638:1 639:1 640:1 641:1 642:1 643:1 644:1 645:1 646:1 654:1 655:1 656:1 657:1 658:1 659:1 660:1 661:1 662:1 663:1 664:1 665:1 666:1 667:1 668:1 669:1 670:1 671:1 672:1 673:1 674:1 675:1 676:1 677:1 678:1 679:1 680:1 681:1 682:1 690:1 691:1 692:1 726:1 727:1 728:1 762:1 763:1 764:1 773:1 774:1 798:1 799:1 800:1 808:1 809:1 810:1 834:1 835:1 836:1 844:1 845:1 846:1 847:1 870:1 871:1 872:1 881:1 882:1 883:1 884:1 906:1 907:1 908:1 918:1 919:1 920:1 921:1 942:1 943:1 944:1 955:1 956:1 957:1 958:1 978:1 979:1 980:1 992:1 993:1 994:1 995:1 1014:1 1015:1 1016:1 1029:1 1030:1 1031:1 1032:1 1033:1 1050:1 1051:1 1052:1 1066:1 1067:1 1068:1 1069:1 1070:1 1086:1 1087:1 1088:1 1103:1 1104:1 1105:1 1122:1 1123:1 1124:1 1140:1 1158:1 1159:1 1160:1 1194:1 1195:1 1196:1 
0.05258095940611969 77:1 78:1 113:1 114:1 139:1 140:1 149:1 150:1 175:1 176:1 177:1 185:1 186:1 210:1 211:1 212:1 221:1 222:1 245:1 246:1 247:1 248:1 257:1 258:1 281:1 282:1 283:1 293:1 294:1 316:1 317:1 318:1 329:1 330:1 350:1 351:1 352:1 353:1 354:1 365:1 366:1 385:1 386:1 387:1 388:1 389:1 401:1 402:1 418:1 419:1 420:1 421:1 422:1 423:1 437:1 438:1 439:1 440:1 441:1 442:1 443:1 444:1 445:1 446:1 447:1 448:1 449:1 450:1 451:1 452:1 453:1 454:1 455:1 456:1 457:1 458:1 473:1 474:1 475:1 476:1 477:1 478:1 479:1 480:1 481:1 482:1 483:1 484:1 485:1 486:1 487:1 488:1 489:1 490:1 491:1 509:1 510:1 545:1 546:1 581:1 582:1 617:1 618:1 653:1 654:1 689:1 690:1 725:1 726:1 761:1 762:1 797:1 798:1 833:1 834:1 860:1 861:1 869:1 870:1 871:1 872:1 873:1 874:1 875:1 876:1 877:1 878:1 879:1 880:1 881:1 882:1 883:1 884:1 885:1 886:1 887:1 888:1 889:1 890:1 891:1 892:1 893:1 894:1 895:1 896:1 897:1 905:1 906:1 907:1 908:1 909:1 910:1 911:1 912:1 913:1 914:1 915:1 916:1 917:1 918:1 919:1 920:1 921:1 922:1 923:1 924:1 925:1 926:1 927:1 928:1 929:1 930:1 931:1 932:1 933:1 941:1 942:1 977:1 978:1 1013:1 1014:1 1049:1 1050:1 1085:1 1086:1 1121:1 1122:1 1157:1 1158:1 1193:1 1194:1 
0.4623926977415051 114:1 134:1 150:1 169:1 170:1 186:1 205:1 222:1 240:1 258:1 275:1 276:1 294:1 310:1 311:1 330:1 345:1 346:1 366:1 380:1 381:1 402:1 414:1 415:1 416:1 438:1 449:1 450:1 451:1 474:1 484:1 485:1 486:1 510:1 518:1 519:1 520:1 521:1 546:1 552:1 553:1 554:1 555:1 556:1 582:1 587:1 588:1 589:1 590:1 618:1 620:1 621:1 622:1 623:1 624:1 625:1 626:1 627:1 628:1 629:1 630:1 631:1 632:1 633:1 634:1 635:1 636:1 637:1 638:1 639:1 640:1 641:1 642:1 643:1 644:1 645:1 646:1 654:1 655:1 656:1 657:1 658:1 659:1 660:1 661:1 662:1 663:1 664:1 665:1 666:1 667:1 668:1 669:1 670:1 671:1 672:1 673:1 674:1 675:1 676:1 677:1 678:1 679:1 680:1 681:1 682:1 690:1 691:1 692:1 693:1 697:1 698:1 712:1 713:1 714:1 715:1 716:1 717:1 718:1 726:1 727:1 733:1 762:1 798:1 834:1 843:1 870:1 880:1 906:1 916:1 917:1 942:1 953:1 954:1 978:1 990:1 991:1 1014:1 1026:1 1027:1 1028:1 1050:1 1063:1 1064:1 1065:1 1085:1 1086:1 1100:1 1101:1 1102:1 1103:1 1120:1 1121:1 1122:1 1137:1 1138:1 1139:1 1140:1 1156:1 1157:1 1158:1 1174:1 1175:1 1176:1 1177:1 1193:1 1194:1 1211:1 1212:1 1230:1 
0.05367493679938749 114:1 150:1 186:1 201:1 222:1 236:1 237:1 258:1 263:1 264:1 265:1 266:1 267:1 268:1 269:1 270:1 271:1 272:1 273:1 274:1 294:1 299:1 300:1 301:1 302:1 303:1 304:1 305:1 306:1 307:1 308:1 309:1 330:1 336:1 345:1 366:1 372:1 381:1 402:1 417:1 438:1 453:1 474:1 489:1 510:1 525:1 546:1 561:1 582:1 583:1 584:1 585:1 586:1 587:1 588:1 589:1 590:1 591:1 592:1 593:1 594:1 595:1 596:1 597:1 618:1 619:1 620:1 621:1 622:1 623:1 624:1 625:1 626:1 627:1 628:1 629:1 630:1 631:1 632:1 633:1 654:1 661:1 669:1 679:1 690:1 697:1 705:1 716:1 726:1 733:1 741:1 752:1 762:1 769:1 777:1 788:1 789:1 798:1 805:1 813:1 824:1 825:1 834:1 841:1 849:1 860:1 861:1 862:1 870:1 877:1 885:1 896:1 897:1 898:1 899:1 906:1 913:1 921:1 932:1 933:1 934:1 942:1 949:1 957:1 967:1 968:1 969:1 970:1 978:1 985:1 993:1 1000:1 1001:1 1002:1 1003:1 1004:1 1005:1 1014:1 1021:1 1022:1 1023:1 1024:1 1025:1 1026:1 1027:1 1028:1 1029:1 1030:1 1031:1 1032:1 1033:1 1034:1 1035:1 1036:1 1037:1 1038:1 1039:1 1040:1 1049:1 1050:1 1056:1 1057:1 1058:1 1059:1 1060:1 1061:1 1062:1 1063:1 1064:1 1065:1 1066:1 1067:1 1068:1 1069:1 1070:1 1071:1 1072:1 1073:1 1084:1 1085:1 1086:1 1093:1 1094:1 1095:1 1096:1 1120:1 1121:1 1122:1 1129:1 1157:1 1158:1 1194:1 
0.0407867549943728 113:1 114:1 115:1 150:1 151:1 186:1 187:1 222:1 223:1 237:1 258:1 259:1 268:1 269:1 270:1 271:1 272:1 273:1 294:1 295:1 298:1 299:1 300:1 301:1 302:1 303:1 304:1 305:1 306:1 307:1 308:1 309:1 330:1 331:1 334:1 335:1 336:1 337:1 338:1 339:1 340:1 344:1 345:1 366:1 367:1 370:1 380:1 381:1 402:1 403:1 416:1 417:1 438:1 439:1 452:1 453:1 474:1 475:1 488:1 489:1 510:1 511:1 524:1 525:1 546:1 547:1 560:1 561:1 582:1 583:1 596:1 597:1 618:1 619:1 620:1 621:1 622:1 623:1 624:1 625:1 626:1 627:1 628:1 629:1 630:1 631:1 632:1 633:1 654:1 655:1 656:1 657:1 658:1 659:1 660:1 661:1 662:1 663:1 664:1 665:1 666:1 667:1 668:1 669:1 690:1 691:1 696:1 697:1 704:1 705:1 726:1 727:1 732:1 733:1 740:1 741:1 762:1 763:1 768:1 769:1 776:1 777:1 788:1 798:1 799:1 804:1 805:1 812:1 813:1 824:1 825:1 826:1 834:1 835:1 840:1 841:1 848:1 849:1 860:1 861:1 862:1 870:1 871:1 876:1 877:1 884:1 885:1 896:1 897:1 898:1 906:1 907:1 912:1 913:1 920:1 921:1 932:1 933:1 934:1 942:1 943:1 948:1 949:1 956:1 957:1 968:1 969:1 970:1 978:1 979:1 984:1 985:1 992:1 993:1 1003:1 1004:1 1005:1 1014:1 1015:1 1020:1 1021:1 1028:1 1029:1 1030:1 1031:1 1032:1 1033:1 1034:1 1035:1 1036:1 1037:1 1038:1 1039:1 1040:1 1041:1 1050:1 1051:1 1056:1 1057:1 1064:1 1065:1 1066:1 1067:1 1068:1 1069:1 1070:1 1071:1 1072:1 1073:1 1074:1 1075:1 1086:1 1087:1 1100:1 1101:1 1102:1 1103:1 1104:1 1105:1 1122:1 1123:1 1158:1 1159:1 1193:1 1194:1 1195:1 
0.02044871813711321 113:1 114:1 149:1 150:1 185:1 186:1 195:1 196:1 197:1 198:1 199:1 200:1 201:1 221:1 222:1 227:1 228:1 229:1 230:1 231:1 232:1 233:1 234:1 235:1 236:1 237:1 257:1 258:1 263:1 264:1 265:1 266:1 267:1 268:1 269:1 270:1 271:1 272:1 273:1 293:1 294:1 299:1 300:1 301:1 302:1 308:1 309:1 329:1 330:1 344:1 345:1 365:1 366:1 380:1 381:1 401:1 402:1 416:1 417:1 437:1 438:1 452:1 453:1 473:1 474:1 488:1 489:1 509:1 510:1 524:1 525:1 545:1 546:1 560:1 561:1 581:1 582:1 583:1 584:1 585:1 586:1 587:1 588:1 589:1 590:1 591:1 592:1 593:1 594:1 595:1 596:1 597:1 617:1 618:1 619:1 620:1 621:1 622:1 623:1 624:1 625:1 626:1 627:1 628:1 629:1 630:1 631:1 632:1 633:1 653:1 654:1 655:1 656:1 657:1 658:1 659:1 660:1 661:1 662:1 663:1 664:1 665:1 666:1 667:1 668:1 669:1 689:1 690:1 696:1 697:1 704:1 705:1 725:1 726:1 732:1 733:1 740:1 741:1 761:1 762:1 768:1 769:1 776:1 777:1 789:1 797:1 798:1 804:1 805:1 812:1 813:1 825:1 826:1 827:1 833:1 834:1 840:1 841:1 848:1 849:1 861:1 862:1 863:1 869:1 870:1 876:1 877:1 884:1 885:1 897:1 898:1 899:1 905:1 906:1 912:1 913:1 920:1 921:1 932:1 933:1 934:1 935:1 941:1 942:1 948:1 949:1 956:1 957:1 968:1 969:1 970:1 977:1 978:1 984:1 985:1 992:1 993:1 1003:1 1004:1 1005:1 1006:1 1013:1 1014:1 1020:1 1021:1 1028:1 1029:1 1035:1 1036:1 1037:1 1038:1 1039:1 1040:1 1041:1 1042:1 1049:1 1050:1 1056:1 1057:1 1064:1 1065:1 1066:1 1067:1 1068:1 1069:1 1070:1 1071:1 1072:1 1073:1 1074:1 1075:1 1076:1 1077:1 1085:1 1086:1 1092:1 1093:1 1100:1 1101:1 1102:1 1103:1 1104:1 1105:1 1106:1 1107:1 1108:1 1109:1 1110:1 1111:1 1121:1 1122:1 1136:1 1137:1 1138:1 1139:1 1140:1 1141:1 1142:1 1143:1 1157:1 1158:1 1172:1 1173:1 1193:1 1194:1 1229:1 1230:1 
0.01722885725250931 150:1 186:1 200:1 222:1 226:1 227:1 228:1 229:1 230:1 231:1 232:1 233:1 234:1 235:1 236:1 237:1 262:1 263:1 264:1 265:1 266:1 267:1 268:1 269:1 270:1 271:1 272:1 273:1 299:1 300:1 301:1 302:1 308:1 335:1 344:1 380:1 416:1 452:1 488:1 524:1 560:1 582:1 583:1 584:1 585:1 586:1 587:1 588:1 589:1 590:1 591:1 592:1 593:1 594:1 595:1 596:1 618:1 619:1 620:1 621:1 622:1 623:1 624:1 625:1 626:1 627:1 628:1 629:1 630:1 631:1 632:1 654:1 655:1 656:1 657:1 658:1 659:1 660:1 661:1 662:1 663:1 664:1 665:1 666:1 667:1 668:1 696:1 704:1 715:1 732:1 740:1 752:1 768:1 776:1 788:1 804:1 812:1 824:1 840:1 848:1 860:1 861:1 876:1 884:1 896:1 897:1 898:1 912:1 920:1 932:1 933:1 934:1 935:1 948:1 956:1 968:1 969:1 970:1 984:1 992:1 1003:1 1004:1 1005:1 1006:1 1020:1 1028:1 1036:1 1037:1 1038:1 1039:1 1040:1 1041:1 1055:1 1056:1 1064:1 1067:1 1068:1 1069:1 1070:1 1071:1 1072:1 1073:1 1074:1 1075:1 1076:1 1085:1 1091:1 1092:1 1099:1 1100:1 1101:1 1102:1 1103:1 1104:1 1105:1 1106:1 1107:1 1108:1 1109:1 1120:1 1121:1 1128:1 1135:1 1136:1 1137:1 1138:1 1139:1 1157:1 1172:1 
0.01641231321161723 177:1 209:1 213:1 222:1 244:1 249:1 258:1 280:1 285:1 294:1 300:1 315:1 321:1 330:1 336:1 350:1 351:1 357:1 366:1 373:1 385:1 386:1 393:1 402:1 409:1 419:1 420:1 421:1 429:1 438:1 446:1 454:1 455:1 456:1 465:1 474:1 482:1 483:1 488:1 489:1 490:1 491:1 501:1 510:1 519:1 522:1 523:1 524:1 525:1 537:1 546:1 555:1 556:1 557:1 558:1 559:1 560:1 573:1 582:1 583:1 584:1 585:1 586:1 587:1 588:1 589:1 590:1 591:1 592:1 593:1 594:1 609:1 618:1 619:1 620:1 621:1 622:1 623:1 624:1 625:1 626:1 627:1 628:1 629:1 645:1 654:1 655:1 656:1 664:1 665:1 666:1 681:1 690:1 701:1 702:1 703:1 717:1 726:1 738:1 739:1 740:1 747:1 753:1 762:1 774:1 775:1 776:1 777:1 778:1 783:1 789:1 798:1 811:1 812:1 813:1 814:1 819:1 825:1 834:1 855:1 856:1 861:1 870:1 891:1 892:1 893:1 897:1 906:1 927:1 928:1 929:1 930:1 933:1 942:1 963:1 964:1 965:1 969:1 978:1 997:1 998:1 999:1 1000:1 1001:1 1005:1 1014:1 1025:1 1026:1 1027:1 1028:1 1029:1 1030:1 1031:1 1032:1 1033:1 1034:1 1035:1 1036:1 1041:1 1049:1 1050:1 1051:1 1052:1 1053:1 1054:1 1055:1 1056:1 1057:1 1058:1 1059:1 1060:1 1061:1 1062:1 1063:1 1064:1 1065:1 1066:1 1067:1 1068:1 1069:1 1070:1 1076:1 1077:1 1085:1 1086:1 1087:1 1088:1 1089:1 1090:1 1091:1 1092:1 1093:1 1094:1 1095:1 1096:1 1097:1 1098:1 1099:1 1100:1 1111:1 1112:1 1113:1 1121:1 1122:1 1147:1 1148:1 1149:1 1184:1 1185:1 1221:1 
0.05576384072319211 124:1 160:1 257:1 258:1 284:1 285:1 293:1 294:1 295:1 296:1 297:1 298:1 299:1 300:1 301:1 302:1 303:1 304:1 305:1 306:1 307:1 308:1 309:1 310:1 311:1 312:1 313:1 314:1 315:1 316:1 317:1 318:1 319:1 320:1 321:1 322:1 330:1 331:1 332:1 333:1 334:1 335:1 336:1 337:1 338:1 339:1 340:1 341:1 342:1 343:1 344:1 345:1 346:1 347:1 348:1 349:1 350:1 351:1 352:1 353:1 354:1 355:1 356:1 357:1 366:1 393:1 429:1 465:1 501:1 537:1 573:1 609:1 616:1 617:1 618:1 619:1 620:1 621:1 622:1 623:1 624:1 625:1 626:1 627:1 628:1 629:1 630:1 631:1 632:1 633:1 634:1 635:1 636:1 637:1 638:1 639:1 640:1 641:1 642:1 643:1 644:1 645:1 652:1 653:1 654:1 655:1 656:1 657:1 658:1 659:1 660:1 661:1 662:1 663:1 664:1 665:1 666:1 667:1 668:1 669:1 670:1 671:1 672:1 673:1 674:1 675:1 676:1 677:1 678:1 679:1 680:1 681:1 688:1 689:1 717:1 753:1 789:1 825:1 861:1 897:1 933:1 969:1 977:1 978:1 979:1 980:1 981:1 982:1 983:1 984:1 985:1 986:1 987:1 988:1 989:1 990:1 991:1 992:1 993:1 994:1 995:1 996:1 997:1 998:1 999:1 1000:1 1001:1 1002:1 1003:1 1004:1 1005:1 1006:1 1014:1 1015:1 1016:1 1017:1 1018:1 1019:1 1020:1 1021:1 1022:1 1023:1 1024:1 1025:1 1026:1 1027:1 1028:1 1029:1 1030:1 1031:1 1032:1 1033:1 1034:1 1035:1 1036:1 1037:1 1038:1 1039:1 1040:1 1041:1 1042:1 1050:1 1051:1 1095:1 1130:1 1131:1 1166:1 1167:1 1203:1 
0.002376910124991563 113:1 114:1 149:1 150:1 185:1 186:1 221:1 222:1 228:1 229:1 230:1 231:1 232:1 233:1 234:1 235:1 236:1 237:1 238:1 239:1 240:1 241:1 242:1 243:1 244:1 245:1 246:1 247:1 248:1 249:1 250:1 257:1 258:1 264:1 265:1 266:1 267:1 268:1 269:1 270:1 271:1 272:1 273:1 274:1 275:1 276:1 277:1 278:1 279:1 280:1 281:1 282:1 283:1 284:1 285:1 286:1 293:1 294:1 300:1 301:1 329:1 330:1 336:1 337:1 350:1 351:1 365:1 366:1 372:1 373:1 386:1 387:1 388:1 401:1 402:1 408:1 409:1 421:1 422:1 423:1 437:1 438:1 444:1 445:1 456:1 457:1 458:1 459:1 473:1 474:1 480:1 481:1 491:1 492:1 493:1 494:1 509:1 510:1 516:1 517:1 526:1 527:1 528:1 529:1 545:1 546:1 552:1 553:1 560:1 561:1 562:1 563:1 581:1 582:1 588:1 589:1 594:1 595:1 596:1 597:1 598:1 617:1 618:1 621:1 622:1 623:1 624:1 625:1 626:1 627:1 628:1 629:1 630:1 631:1 632:1 653:1 654:1 655:1 656:1 657:1 658:1 659:1 660:1 661:1 662:1 663:1 664:1 665:1 666:1 667:1 689:1 690:1 691:1 692:1 693:1 694:1 695:1 696:1 697:1 702:1 703:1 725:1 726:1 732:1 733:1 738:1 739:1 740:1 761:1 762:1 768:1 769:1 775:1 776:1 777:1 797:1 798:1 804:1 805:1 812:1 813:1 814:1 833:1 834:1 840:1 841:1 849:1 850:1 851:1 869:1 870:1 876:1 877:1 886:1 887:1 888:1 896:1 905:1 906:1 912:1 913:1 923:1 924:1 925:1 932:1 933:1 934:1 941:1 942:1 948:1 949:1 960:1 961:1 962:1 963:1 968:1 969:1 970:1 977:1 978:1 984:1 985:1 997:1 998:1 1004:1 1005:1 1006:1 1013:1 1014:1 1020:1 1021:1 1040:1 1041:1 1042:1 1049:1 1050:1 1056:1 1057:1 1058:1 1059:1 1060:1 1061:1 1062:1 1063:1 1064:1 1065:1 1066:1 1067:1 1068:1 1069:1 1070:1 1071:1 1072:1 1073:1 1074:1 1075:1 1076:1 1077:1 1085:1 1086:1 1092:1 1093:1 1094:1 1095:1 1096:1 1097:1 1098:1 1099:1 1100:1 1101:1 1102:1 1103:1 1104:1 1105:1 1106:1 1107:1 1108:1 1109:1 1110:1 1111:1 1112:1 1113:1 1121:1 1122:1 1128:1 1157:1 1158:1 1193:1 1194:1 1228:1 1229:1 1230:1 
0.04723665248646235 114:1 150:1 186:1 222:1 228:1 229:1 230:1 231:1 232:1 233:1 234:1 235:1 236:1 237:1 238:1 239:1 240:1 241:1 242:1 243:1 244:1 245:1 246:1 247:1 248:1 249:1 250:1 251:1 258:1 264:1 265:1 266:1 267:1 268:1 269:1 270:1 271:1 272:1 273:1 274:1 275:1 276:1 277:1 278:1 279:1 280:1 281:1 282:1 283:1 284:1 285:1 286:1 294:1 301:1 330:1 337:1 366:1 373:1 388:1 402:1 409:1 423:1 438:1 445:1 458:1 474:1 481:1 492:1 493:1 510:1 517:1 527:1 528:1 546:1 553:1 561:1 562:1 563:1 582:1 589:1 594:1 595:1 596:1 597:1 598:1 618:1 619:1 620:1 621:1 622:1 623:1 624:1 625:1 626:1 627:1 628:1 629:1 630:1 631:1 632:1 654:1 655:1 656:1 657:1 658:1 659:1 660:1 661:1 662:1 663:1 664:1 665:1 666:1 667:1 690:1 697:1 704:1 726:1 733:1 740:1 741:1 762:1 769:1 777:1 778:1 798:1 805:1 814:1 815:1 834:1 841:1 850:1 851:1 852:1 853:1 860:1 870:1 877:1 887:1 888:1 889:1 890:1 891:1 896:1 906:1 913:1 924:1 925:1 926:1 927:1 932:1 942:1 949:1 968:1 969:1 978:1 985:1 1004:1 1005:1 1006:1 1014:1 1021:1 1040:1 1041:1 1042:1 1043:1 1049:1 1050:1 1056:1 1057:1 1058:1 1059:1 1060:1 1061:1 1062:1 1063:1 1064:1 1065:1 1066:1 1067:1 1068:1 1069:1 1070:1 1071:1 1072:1 1073:1 1074:1 1075:1 1076:1 1077:1 1078:1 1084:1 1085:1 1086:1 1091:1 1092:1 1093:1 1094:1 1095:1 1096:1 1097:1 1098:1 1099:1 1100:1 1101:1 1102:1 1103:1 1104:1 1105:1 1106:1 1107:1 1108:1 1109:1 1110:1 1111:1 1112:1 1113:1 1120:1 1121:1 1122:1 1128:1 1129:1 1157:1 1158:1 1194:1 
0.001351946149061308 137:1 172:1 177:1 194:1 207:1 213:1 230:1 231:1 242:1 249:1 266:1 276:1 277:1 278:1 285:1 293:1 302:1 311:1 312:1 313:1 321:1 329:1 330:1 338:1 346:1 347:1 357:1 365:1 366:1 374:1 380:1 381:1 382:1 393:1 401:1 410:1 414:1 415:1 416:1 417:1 429:1 437:1 446:1 447:1 448:1 449:1 450:1 451:1 465:1 473:1 481:1 482:1 483:1 484:1 485:1 486:1 496:1 501:1 509:1 517:1 518:1 519:1 520:1 533:1 537:1 545:1 554:1 555:1 569:1 573:1 581:1 605:1 606:1 609:1 617:1 641:1 642:1 643:1 645:1 653:1 658:1 659:1 660:1 661:1 662:1 663:1 664:1 665:1 666:1 667:1 668:1 669:1 670:1 671:1 672:1 673:1 674:1 675:1 676:1 677:1 678:1 681:1 689:1 695:1 696:1 697:1 698:1 699:1 700:1 701:1 702:1 703:1 704:1 705:1 706:1 707:1 708:1 709:1 710:1 711:1 712:1 713:1 714:1 717:1 725:1 730:1 732:1 733:1 734:1 735:1 753:1 761:1 765:1 766:1 771:1 772:1 773:1 789:1 797:1 801:1 809:1 810:1 811:1 825:1 833:1 836:1 847:1 848:1 861:1 869:1 871:1 872:1 882:1 884:1 885:1 886:1 897:1 905:1 906:1 907:1 917:1 921:1 922:1 923:1 933:1 940:1 941:1 942:1 943:1 952:1 953:1 958:1 959:1 960:1 969:1 976:1 977:1 978:1 987:1 988:1 995:1 996:1 997:1 1005:1 1013:1 1014:1 1022:1 1023:1 1032:1 1033:1 1034:1 1040:1 1041:1 1057:1 1058:1 1059:1 1068:1 1069:1 1070:1 1071:1 1075:1 1076:1 1077:1 1093:1 1094:1 1105:1 1106:1 1107:1 1108:1 1111:1 1112:1 1113:1 1130:1 1142:1 1143:1 1144:1 1148:1 1149:1 1178:1 1179:1 1185:1 1214:1 
0.01892640334489175 128:1 129:1 164:1 165:1 185:1 186:1 200:1 201:1 221:1 222:1 236:1 237:1 257:1 258:1 264:1 265:1 266:1 272:1 273:1 284:1 285:1 293:1 294:1 301:1 302:1 308:1 309:1 320:1 321:1 322:1 329:1 330:1 337:1 338:1 344:1 345:1 355:1 356:1 357:1 358:1 365:1 366:1 373:1 380:1 381:1 390:1 391:1 392:1 393:1 394:1 401:1 402:1 409:1 416:1 417:1 425:1 426:1 427:1 428:1 429:1 437:1 438:1 445:1 452:1 453:1 460:1 461:1 462:1 464:1 465:1 473:1 474:1 481:1 488:1 489:1 495:1 496:1 497:1 500:1 501:1 509:1 510:1 517:1 524:1 525:1 530:1 531:1 532:1 536:1 537:1 545:1 546:1 553:1 560:1 561:1 564:1 565:1 566:1 567:1 572:1 573:1 581:1 582:1 589:1 596:1 597:1 599:1 600:1 601:1 602:1 608:1 609:1 617:1 618:1 625:1 632:1 633:1 634:1 635:1 636:1 637:1 644:1 645:1 653:1 654:1 655:1 656:1 657:1 658:1 659:1 660:1 661:1 662:1 663:1 664:1 665:1 666:1 667:1 668:1 669:1 671:1 672:1 680:1 681:1 689:1 690:1 691:1 692:1 693:1 694:1 695:1 696:1 697:1 698:1 699:1 700:1 701:1 702:1 703:1 704:1 705:1 707:1 716:1 725:1 726:1 733:1 740:1 741:1 752:1 761:1 762:1 769:1 776:1 777:1 788:1 797:1 798:1 805:1 812:1 813:1 817:1 824:1 833:1 834:1 841:1 848:1 849:1 852:1 853:1 854:1 855:1 860:1 869:1 870:1 877:1 884:1 885:1 889:1 890:1 891:1 892:1 895:1 896:1 905:1 906:1 913:1 920:1 921:1 926:1 927:1 928:1 929:1 931:1 932:1 941:1 942:1 949:1 956:1 957:1 964:1 965:1 966:1 967:1 968:1 977:1 978:1 985:1 986:1 992:1 993:1 1001:1 1002:1 1003:1 1004:1 1013:1 1014:1 1021:1 1022:1 1028:1 1029:1 1038:1 1039:1 1040:1 1041:1 1049:1 1050:1 1056:1 1057:1 1058:1 1064:1 1065:1 1075:1 1076:1 1077:1 1078:1 1079:1 1085:1 1086:1 1100:1 1101:1 1113:1 1114:1 1121:1 1122:1 1136:1 1137:1 1150:1 1157:1 1158:1 1159:1 1172:1 1173:1 1208:1 1209:1 
0.0852563106031394 128:1 164:1 200:1 222:1 236:1 258:1 272:1 294:1 300:1 308:1 320:1 321:1 330:1 336:1 337:1 344:1 355:1 356:1 357:1 358:1 366:1 372:1 373:1 380:1 390:1 391:1 392:1 393:1 394:1 402:1 408:1 416:1 425:1 426:1 428:1 429:1 438:1 444:1 452:1 460:1 461:1 464:1 465:1 474:1 480:1 488:1 495:1 496:1 500:1 501:1 510:1 516:1 524:1 529:1 530:1 531:1 536:1 537:1 546:1 552:1 560:1 563:1 564:1 565:1 566:1 572:1 573:1 582:1 588:1 596:1 597:1 598:1 599:1 600:1 601:1 608:1 609:1 618:1 619:1 620:1 621:1 622:1 623:1 624:1 625:1 626:1 627:1 628:1 629:1 630:1 631:1 632:1 633:1 634:1 635:1 644:1 654:1 655:1 656:1 657:1 658:1 659:1 660:1 661:1 662:1 663:1 664:1 665:1 666:1 667:1 668:1 670:1 671:1 680:1 690:1 696:1 704:1 716:1 726:1 732:1 740:1 752:1 762:1 768:1 776:1 788:1 798:1 804:1 812:1 824:1 834:1 840:1 848:1 860:1 870:1 876:1 884:1 891:1 896:1 906:1 912:1 920:1 927:1 928:1 932:1 942:1 948:1 956:1 964:1 965:1 968:1 977:1 978:1 984:1 992:1 1001:1 1002:1 1004:1 1012:1 1013:1 1014:1 1019:1 1020:1 1028:1 1037:1 1038:1 1039:1 1040:1 1049:1 1050:1 1056:1 1064:1 1074:1 1075:1 1076:1 1077:1 1086:1 1099:1 1100:1 1111:1 1112:1 1113:1 1114:1 1134:1 1135:1 1136:1 1148:1 1149:1 1150:1 1171:1 1172:1 1208:1 
0.008735084507295569 113:1 114:1 149:1 150:1 185:1 186:1 221:1 222:1 228:1 229:1 230:1 231:1 232:1 233:1 234:1 235:1 236:1 237:1 238:1 239:1 240:1 241:1 242:1 243:1 244:1 245:1 246:1 247:1 248:1 249:1 250:1 257:1 258:1 264:1 265:1 266:1 267:1 268:1 269:1 270:1 271:1 272:1 273:1 274:1 275:1 276:1 277:1 278:1 279:1 280:1 281:1 282:1 283:1 284:1 285:1 286:1 293:1 294:1 300:1 301:1 329:1 330:1 336:1 337:1 365:1 366:1 372:1 373:1 401:1 402:1 408:1 409:1 412:1 413:1 414:1 415:1 416:1 417:1 418:1 419:1 420:1 421:1 422:1 423:1 437:1 438:1 444:1 445:1 449:1 450:1 451:1 452:1 453:1 454:1 455:1 456:1 457:1 458:1 459:1 473:1 474:1 480:1 481:1 494:1 495:1 509:1 510:1 516:1 517:1 530:1 531:1 545:1 546:1 552:1 553:1 566:1 567:1 581:1 582:1 588:1 589:1 602:1 603:1 617:1 618:1 619:1 620:1 621:1 622:1 623:1 624:1 625:1 626:1 627:1 628:1 629:1 630:1 631:1 632:1 633:1 634:1 635:1 636:1 637:1 638:1 639:1 653:1 654:1 655:1 656:1 657:1 658:1 659:1 660:1 661:1 662:1 663:1 664:1 665:1 666:1 667:1 668:1 669:1 670:1 671:1 672:1 673:1 674:1 675:1 689:1 690:1 696:1 697:1 710:1 711:1 725:1 726:1 732:1 733:1 746:1 747:1 761:1 762:1 768:1 769:1 782:1 783:1 797:1 798:1 804:1 805:1 818:1 819:1 833:1 834:1 840:1 841:1 854:1 855:1 869:1 870:1 876:1 877:1 880:1 881:1 882:1 883:1 884:1 885:1 886:1 887:1 888:1 889:1 890:1 891:1 896:1 905:1 906:1 912:1 913:1 916:1 917:1 918:1 919:1 920:1 921:1 922:1 923:1 924:1 925:1 926:1 927:1 932:1 933:1 934:1 941:1 942:1 948:1 949:1 952:1 968:1 969:1 970:1 977:1 978:1 984:1 985:1 1004:1 1005:1 1006:1 1013:1 1014:1 1020:1 1021:1 1040:1 1041:1 1042:1 1049:1 1050:1 1056:1 1057:1 1058:1 1059:1 1060:1 1061:1 1062:1 1063:1 1064:1 1065:1 1066:1 1067:1 1068:1 1069:1 1070:1 1071:1 1072:1 1073:1 1074:1 1075:1 1076:1 1077:1 1085:1 1086:1 1092:1 1093:1 1094:1 1095:1 1096:1 1097:1 1098:1 1099:1 1100:1 1101:1 1102:1 1103:1 1104:1 1105:1 1106:1 1107:1 1108:1 1109:1 1110:1 1111:1 1112:1 1113:1 1121:1 1122:1 1128:1 1157:1 1158:1 1193:1 1194:1 1228:1 1229:1 1230:1 
0.01852192839423515 113:1 149:1 185:1 191:1 192:1 214:1 221:1 228:1 229:1 230:1 231:1 232:1 233:1 234:1 235:1 236:1 237:1 238:1 239:1 240:1 241:1 242:1 243:1 244:1 245:1 246:1 247:1 248:1 249:1 250:1 257:1 264:1 293:1 300:1 329:1 336:1 365:1 372:1 386:1 401:1 408:1 413:1 414:1 415:1 416:1 417:1 418:1 419:1 420:1 421:1 422:1 423:1 437:1 444:1 449:1 450:1 451:1 452:1 453:1 454:1 455:1 456:1 457:1 458:1 459:1 473:1 480:1 486:1 494:1 509:1 516:1 530:1 545:1 552:1 566:1 581:1 588:1 602:1 617:1 618:1 619:1 620:1 621:1 622:1 623:1 624:1 625:1 626:1 627:1 628:1 629:1 630:1 631:1 632:1 633:1 634:1 635:1 636:1 637:1 638:1 653:1 654:1 655:1 656:1 657:1 658:1 659:1 660:1 661:1 662:1 663:1 664:1 665:1 666:1 667:1 668:1 669:1 670:1 671:1 672:1 673:1 674:1 689:1 696:1 710:1 725:1 732:1 746:1 761:1 768:1 782:1 797:1 804:1 818:1 833:1 840:1 854:1 869:1 876:1 881:1 882:1 883:1 884:1 885:1 886:1 887:1 888:1 889:1 890:1 891:1 892:1 896:1 905:1 912:1 917:1 918:1 919:1 920:1 921:1 922:1 923:1 924:1 925:1 926:1 927:1 932:1 941:1 948:1 968:1 977:1 984:1 1004:1 1005:1 1013:1 1020:1 1040:1 1041:1 1042:1 1049:1 1056:1 1075:1 1076:1 1077:1 1078:1 1084:1 1085:1 1091:1 1092:1 1093:1 1094:1 1095:1 1096:1 1097:1 1098:1 1099:1 1100:1 1101:1 1102:1 1103:1 1104:1 1105:1 1106:1 1107:1 1108:1 1109:1 1110:1 1111:1 1112:1 1113:1 1119:1 1120:1 1121:1 1128:1 1129:1 1130:1 1131:1 1132:1 1133:1 1134:1 1135:1 1136:1 1137:1 1138:1 1139:1 1140:1 1141:1 1142:1 1143:1 1144:1 1145:1 1146:1 1147:1 1156:1 1157:1 1193:1 
-1.932312242500012 113:1 114:1 115:1 149:1 150:1 151:1 185:1 186:1 187:1 221:1 222:1 257:1 258:1 293:1 294:1 329:1 330:1 365:1 366:1 401:1 402:1 437:1 438:1 473:1 474:1 509:1 510:1 545:1 546:1 581:1 582:1 610:1 617:1 618:1 619:1 620:1 621:1 622:1 623:1 624:1 625:1 626:1 627:1 628:1 629:1 630:1 631:1 632:1 633:1 634:1 635:1 636:1 637:1 638:1 639:1 640:1 641:1 642:1 643:1 644:1 645:1 646:1 653:1 654:1 655:1 656:1 657:1 658:1 659:1 660:1 661:1 662:1 663:1 664:1 665:1 666:1 667:1 668:1 669:1 670:1 671:1 672:1 673:1 674:1 675:1 676:1 677:1 678:1 679:1 680:1 681:1 682:1 689:1 690:1 725:1 726:1 761:1 762:1 797:1 798:1 833:1 834:1 869:1 870:1 905:1 906:1 941:1 942:1 977:1 978:1 1013:1 1014:1 1049:1 1050:1 1085:1 1086:1 1087:1 1121:1 1122:1 1123:1 1157:1 1158:1 1159:1 1193:1 1194:1 1195:1 
-1.833532130085042 77:1 78:1 79:1 80:1 113:1 114:1 115:1 149:1 150:1 151:1 185:1 186:1 187:1 221:1 222:1 223:1 257:1 258:1 259:1 293:1 294:1 295:1 329:1 330:1 331:1 365:1 366:1 367:1 401:1 402:1 403:1 437:1 438:1 439:1 473:1 474:1 475:1 509:1 510:1 511:1 545:1 546:1 547:1 581:1 582:1 583:1 611:1 617:1 618:1 619:1 620:1 621:1 622:1 623:1 624:1 625:1 626:1 627:1 628:1 629:1 630:1 631:1 632:1 633:1 634:1 635:1 636:1 637:1 638:1 639:1 640:1 641:1 642:1 643:1 644:1 645:1 646:1 647:1 653:1 654:1 655:1 656:1 657:1 658:1 659:1 660:1 661:1 662:1 663:1 664:1 665:1 666:1 667:1 668:1 669:1 670:1 671:1 672:1 673:1 674:1 675:1 676:1 677:1 678:1 679:1 680:1 681:1 682:1 683:1 689:1 690:1 691:1 692:1 693:1 694:1 695:1 696:1 697:1 698:1 699:1 700:1 701:1 702:1 703:1 704:1 705:1 706:1 707:1 708:1 709:1 710:1 711:1 712:1 713:1 714:1 715:1 716:1 717:1 718:1 719:1 725:1 726:1 727:1 761:1 762:1 763:1 797:1 798:1 799:1 833:1 834:1 835:1 869:1 870:1 871:1 905:1 906:1 907:1 941:1 942:1 943:1 977:1 978:1 979:1 1013:1 1014:1 1015:1 1049:1 1050:1 1051:1 1085:1 1086:1 1087:1 1121:1 1122:1 1123:1 1157:1 1158:1 1159:1 1193:1 1194:1 1195:1 1229:1 1230:1 1231:1 1232:1 
-1.863693654597277 114:1 150:1 186:1 222:1 258:1 294:1 330:1 366:1 402:1 438:1 474:1 510:1 546:1 582:1 618:1 619:1 620:1 621:1 622:1 623:1 624:1 625:1 626:1 627:1 628:1 629:1 630:1 631:1 632:1 633:1 634:1 635:1 636:1 637:1 638:1 639:1 640:1 641:1 642:1 643:1 644:1 645:1 646:1 654:1 655:1 656:1 657:1 658:1 659:1 660:1 661:1 662:1 663:1 664:1 665:1 666:1 667:1 668:1 669:1 670:1 671:1 672:1 673:1 674:1 675:1 676:1 677:1 678:1 679:1 680:1 681:1 682:1 690:1 726:1 762:1 798:1 834:1 870:1 906:1 942:1 978:1 1014:1 1050:1 1085:1 1086:1 1120:1 1121:1 1122:1 1157:1 1158:1 1194:1 
