svm_type c_svc
kernel_type rbf
gamma 0.015625
nr_class 2
total_sv 37
rho -0.872433
label -1 1
nr_sv 34 3
SV
0.08258455780833478 25:1 26:1 40:1 41:1 56:1 57:1 72:1 73:1 88:1 89:1 98:1 99:1 100:1 101:1 102:1 103:1 104:1 105:1 106:1 107:1 108:1 109:1 114:1 115:1 116:1 117:1 118:1 119:1 120:1 121:1 122:1 123:1 124:1 125:1 126:1 127:1 135:1 136:1 142:1 143:1 151:1 152:1 158:1 159:1 167:1 174:1 175:1 183:1 190:1 191:1 198:1 199:1 206:1 207:1 214:1 215:1 222:1 223:1 230:1 231:1 237:1 238:1 239:1 245:1 246:1 247:1 253:1 254:1 
0.2189811699103035 25:1 41:1 57:1 72:1 88:1 104:1 114:1 115:1 116:1 117:1 118:1 119:1 120:1 121:1 122:1 123:1 124:1 125:1 126:1 142:1 151:1 158:1 167:1 174:1 183:1 190:1 198:1 206:1 213:1 214:1 222:1 229:1 230:1 235:1 236:1 237:1 238:1 246:1 254:1 
0.2325872256163081 31:1 37:1 38:1 47:1 48:1 53:1 54:1 63:1 64:1 69:1 70:1 72:1 73:1 78:1 79:1 85:1 86:1 88:1 89:1 90:1 94:1 95:1 101:1 102:1 106:1 107:1 108:1 109:1 110:1 117:1 118:1 123:1 124:1 125:1 126:1 133:1 134:1 136:1 137:1 138:1 139:1 140:1 141:1 146:1 147:1 148:1 149:1 150:1 151:1 152:1 153:1 154:1 155:1 157:1 158:1 162:1 163:1 164:1 165:1 166:1 174:1 181:1 182:1 190:1 191:1 197:1 198:1 206:1 207:1 213:1 214:1 222:1 223:1 229:1 230:1 238:1 239:1 240:1 
0.1349866510504753 20:1 32:1 36:1 47:1 52:1 62:1 68:1 75:1 76:1 77:1 84:1 86:1 87:1 88:1 89:1 90:1 91:1 92:1 100:1 101:1 102:1 103:1 104:1 105:1 106:1 116:1 132:1 148:1 164:1 165:1 166:1 167:1 168:1 169:1 170:1 171:1 172:1 173:1 174:1 175:1 176:1 180:1 181:1 182:1 183:1 184:1 185:1 186:1 187:1 188:1 189:1 190:1 191:1 196:1 212:1 227:1 228:1 244:1 
0.02142217278733929 27:1 28:1 43:1 44:1 60:1 66:1 67:1 68:1 69:1 70:1 71:1 72:1 73:1 76:1 82:1 83:1 84:1 85:1 86:1 87:1 88:1 89:1 92:1 101:1 104:1 108:1 117:1 120:1 124:1 133:1 136:1 140:1 143:1 144:1 149:1 152:1 156:1 159:1 160:1 165:1 168:1 171:1 172:1 175:1 176:1 181:1 184:1 187:1 188:1 191:1 192:1 197:1 200:1 203:1 204:1 205:1 206:1 207:1 213:1 216:1 217:1 218:1 219:1 220:1 221:1 222:1 229:1 
0.222446627440401 43:1 44:1 56:1 59:1 60:1 66:1 67:1 68:1 69:1 70:1 71:1 72:1 75:1 76:1 82:1 83:1 85:1 88:1 91:1 92:1 101:1 104:1 107:1 108:1 117:1 120:1 123:1 124:1 133:1 136:1 139:1 140:1 149:1 152:1 155:1 156:1 165:1 168:1 171:1 172:1 175:1 176:1 181:1 184:1 187:1 188:1 191:1 192:1 197:1 200:1 205:1 206:1 207:1 212:1 213:1 216:1 217:1 218:1 219:1 220:1 221:1 222:1 223:1 228:1 229:1 232:1 233:1 234:1 235:1 
0.1383100660771308 31:1 36:1 47:1 52:1 57:1 68:1 84:1 92:1 93:1 94:1 100:1 101:1 102:1 103:1 104:1 105:1 106:1 107:1 108:1 109:1 110:1 116:1 117:1 118:1 119:1 132:1 148:1 164:1 180:1 190:1 195:1 196:1 197:1 198:1 199:1 200:1 201:1 202:1 203:1 204:1 205:1 206:1 212:1 222:1 238:1 
0.1454265454955834 45:1 47:1 48:1 51:1 52:1 61:1 62:1 63:1 68:1 70:1 71:1 75:1 76:1 77:1 79:1 84:1 86:1 87:1 91:1 92:1 95:1 100:1 103:1 106:1 107:1 111:1 116:1 119:1 120:1 121:1 122:1 127:1 132:1 133:1 134:1 135:1 136:1 137:1 143:1 148:1 149:1 150:1 153:1 154:1 159:1 164:1 169:1 170:1 173:1 175:1 180:1 186:1 189:1 191:1 196:1 204:1 205:1 207:1 212:1 213:1 214:1 215:1 216:1 217:1 218:1 219:1 220:1 221:1 223:1 227:1 228:1 229:1 230:1 231:1 232:1 233:1 239:1 255:1 256:1 
0.1075211617010964 30:1 31:1 35:1 36:1 44:1 46:1 47:1 51:1 52:1 55:1 59:1 60:1 61:1 62:1 63:1 67:1 68:1 70:1 71:1 75:1 76:1 78:1 79:1 83:1 87:1 88:1 89:1 90:1 91:1 94:1 95:1 99:1 103:1 104:1 105:1 106:1 110:1 111:1 115:1 116:1 117:1 118:1 119:1 120:1 121:1 126:1 127:1 131:1 132:1 136:1 137:1 138:1 142:1 143:1 147:1 153:1 154:1 156:1 158:1 159:1 163:1 170:1 172:1 173:1 174:1 175:1 179:1 188:1 189:1 190:1 191:1 195:1 202:1 203:1 204:1 205:1 206:1 207:1 211:1 212:1 213:1 214:1 215:1 216:1 217:1 218:1 219:1 220:1 222:1 223:1 227:1 228:1 229:1 230:1 231:1 232:1 238:1 239:1 254:1 255:1 
0.03429494041839379 45:1 47:1 51:1 61:1 63:1 67:1 70:1 75:1 76:1 83:1 86:1 87:1 90:1 91:1 99:1 103:1 104:1 105:1 106:1 115:1 116:1 117:1 118:1 119:1 120:1 121:1 131:1 132:1 136:1 137:1 147:1 152:1 153:1 154:1 156:1 163:1 169:1 170:1 172:1 173:1 179:1 188:1 189:1 195:1 198:1 199:1 200:1 201:1 202:1 203:1 204:1 205:1 210:1 211:1 212:1 213:1 214:1 215:1 216:1 217:1 218:1 219:1 222:1 227:1 238:1 
0.3083484927719993 19:1 20:1 35:1 36:1 38:1 39:1 40:1 41:1 42:1 43:1 44:1 45:1 46:1 47:1 51:1 52:1 54:1 55:1 56:1 57:1 58:1 59:1 60:1 61:1 62:1 63:1 67:1 68:1 70:1 71:1 76:1 77:1 83:1 84:1 86:1 87:1 91:1 92:1 93:1 99:1 100:1 102:1 103:1 106:1 107:1 108:1 115:1 116:1 118:1 119:1 121:1 122:1 123:1 131:1 132:1 133:1 134:1 135:1 136:1 137:1 138:1 147:1 148:1 149:1 150:1 151:1 153:1 154:1 163:1 164:1 166:1 167:1 170:1 171:1 179:1 180:1 182:1 183:1 187:1 188:1 189:1 190:1 191:1 195:1 196:1 198:1 199:1 204:1 206:1 207:1 211:1 212:1 214:1 215:1 216:1 217:1 218:1 219:1 220:1 221:1 222:1 223:1 227:1 228:1 230:1 231:1 232:1 233:1 234:1 235:1 236:1 237:1 238:1 239:1 243:1 244:1 
0.8411022035856209 30:1 31:1 38:1 47:1 53:1 54:1 55:1 63:1 72:1 73:1 74:1 75:1 79:1 90:1 91:1 95:1 98:1 99:1 100:1 101:1 102:1 103:1 104:1 105:1 106:1 107:1 108:1 109:1 110:1 111:1 115:1 116:1 117:1 118:1 119:1 120:1 121:1 122:1 123:1 124:1 125:1 126:1 127:1 143:1 147:1 148:1 149:1 150:1 151:1 152:1 153:1 154:1 155:1 156:1 157:1 158:1 159:1 163:1 164:1 165:1 166:1 167:1 168:1 169:1 170:1 171:1 172:1 173:1 174:1 175:1 186:1 187:1 191:1 199:1 200:1 201:1 202:1 207:1 214:1 215:1 216:1 223:1 230:1 239:1 254:1 255:1 
0.4963238960265555 30:1 31:1 38:1 39:1 46:1 47:1 53:1 54:1 55:1 56:1 57:1 58:1 62:1 63:1 73:1 74:1 78:1 79:1 94:1 95:1 98:1 99:1 100:1 101:1 102:1 103:1 104:1 105:1 106:1 107:1 108:1 109:1 110:1 111:1 114:1 115:1 116:1 117:1 118:1 119:1 120:1 121:1 122:1 123:1 124:1 125:1 126:1 127:1 142:1 143:1 146:1 147:1 148:1 158:1 159:1 162:1 163:1 164:1 165:1 166:1 167:1 168:1 169:1 170:1 171:1 172:1 173:1 174:1 175:1 178:1 179:1 190:1 191:1 201:1 202:1 203:1 206:1 207:1 214:1 215:1 216:1 217:1 218:1 222:1 223:1 229:1 230:1 231:1 232:1 238:1 239:1 246:1 254:1 255:1 
0.2433172486377741 31:1 38:1 39:1 55:1 56:1 57:1 73:1 74:1 75:1 76:1 98:1 99:1 100:1 101:1 102:1 103:1 104:1 105:1 106:1 107:1 108:1 109:1 110:1 115:1 116:1 117:1 118:1 119:1 120:1 121:1 122:1 123:1 124:1 125:1 126:1 146:1 147:1 162:1 163:1 164:1 165:1 166:1 167:1 168:1 169:1 170:1 171:1 172:1 173:1 174:1 179:1 187:1 188:1 200:1 201:1 202:1 214:1 215:1 216:1 217:1 222:1 230:1 231:1 238:1 246:1 254:1 
0.2194874504358421 29:1 30:1 31:1 44:1 45:1 47:1 59:1 60:1 63:1 66:1 67:1 68:1 69:1 70:1 71:1 72:1 73:1 74:1 79:1 83:1 84:1 85:1 86:1 87:1 88:1 89:1 95:1 104:1 105:1 106:1 109:1 111:1 122:1 123:1 124:1 125:1 127:1 139:1 140:1 141:1 143:1 154:1 155:1 156:1 159:1 162:1 163:1 164:1 165:1 166:1 167:1 168:1 169:1 170:1 175:1 178:1 179:1 180:1 181:1 182:1 183:1 184:1 185:1 191:1 201:1 202:1 203:1 207:1 219:1 220:1 221:1 223:1 236:1 237:1 239:1 253:1 254:1 255:1 
0.1038024429182002 28:1 30:1 31:1 43:1 44:1 45:1 46:1 47:1 58:1 59:1 60:1 62:1 63:1 66:1 67:1 68:1 69:1 70:1 71:1 72:1 73:1 74:1 78:1 79:1 82:1 83:1 84:1 85:1 86:1 87:1 88:1 89:1 94:1 95:1 104:1 105:1 106:1 110:1 111:1 121:1 122:1 124:1 125:1 126:1 127:1 138:1 139:1 140:1 141:1 142:1 143:1 153:1 154:1 155:1 156:1 158:1 159:1 166:1 167:1 168:1 169:1 170:1 174:1 175:1 178:1 179:1 180:1 181:1 182:1 183:1 184:1 190:1 191:1 200:1 201:1 202:1 203:1 206:1 207:1 218:1 219:1 220:1 222:1 223:1 235:1 236:1 237:1 238:1 239:1 252:1 254:1 255:1 
0.1407771785762951 31:1 45:1 47:1 60:1 61:1 73:1 74:1 75:1 82:1 83:1 84:1 85:1 86:1 87:1 88:1 89:1 90:1 99:1 100:1 104:1 120:1 121:1 122:1 125:1 138:1 139:1 140:1 152:1 153:1 154:1 155:1 162:1 163:1 164:1 165:1 166:1 167:1 168:1 169:1 178:1 179:1 180:1 181:1 182:1 183:1 184:1 202:1 203:1 204:1 219:1 220:1 221:1 222:1 236:1 237:1 238:1 253:1 254:1 
0.07842439725582696 20:1 21:1 37:1 46:1 47:1 57:1 62:1 63:1 71:1 72:1 73:1 77:1 85:1 86:1 87:1 89:1 91:1 92:1 93:1 99:1 100:1 101:1 102:1 105:1 108:1 111:1 114:1 115:1 116:1 121:1 127:1 128:1 134:1 135:1 136:1 137:1 138:1 139:1 140:1 141:1 142:1 143:1 144:1 151:1 153:1 169:1 185:1 187:1 188:1 201:1 204:1 205:1 217:1 221:1 222:1 229:1 238:1 239:1 244:1 245:1 254:1 
0.1163215018051746 31:1 40:1 41:1 44:1 47:1 54:1 55:1 56:1 59:1 60:1 61:1 63:1 67:1 68:1 69:1 70:1 72:1 74:1 75:1 76:1 77:1 79:1 83:1 84:1 88:1 89:1 90:1 92:1 93:1 95:1 99:1 103:1 104:1 108:1 111:1 117:1 118:1 119:1 124:1 127:1 134:1 136:1 137:1 140:1 143:1 151:1 152:1 153:1 155:1 156:1 157:1 159:1 165:1 166:1 167:1 168:1 170:1 171:1 172:1 175:1 179:1 180:1 181:1 184:1 185:1 186:1 188:1 191:1 195:1 199:1 200:1 201:1 204:1 207:1 214:1 215:1 219:1 220:1 223:1 229:1 230:1 235:1 236:1 239:1 246:1 255:1 
0.06462423651424631 23:1 30:1 31:1 39:1 40:1 43:1 44:1 46:1 47:1 53:1 54:1 55:1 56:1 59:1 60:1 62:1 63:1 67:1 68:1 69:1 71:1 73:1 74:1 75:1 76:1 78:1 79:1 82:1 83:1 84:1 87:1 88:1 89:1 90:1 91:1 92:1 94:1 95:1 99:1 102:1 103:1 104:1 107:1 108:1 110:1 111:1 117:1 118:1 119:1 123:1 126:1 127:1 134:1 135:1 136:1 139:1 142:1 143:1 150:1 151:1 152:1 155:1 156:1 158:1 159:1 165:1 166:1 167:1 168:1 170:1 171:1 172:1 174:1 175:1 178:1 179:1 180:1 181:1 183:1 184:1 185:1 186:1 187:1 188:1 190:1 191:1 194:1 195:1 199:1 200:1 201:1 203:1 204:1 206:1 207:1 213:1 214:1 215:1 219:1 222:1 223:1 230:1 231:1 235:1 238:1 239:1 254:1 255:1 
0.1500167754789228 30:1 39:1 40:1 43:1 44:1 46:1 54:1 55:1 56:1 59:1 60:1 62:1 66:1 67:1 68:1 69:1 73:1 74:1 75:1 78:1 82:1 83:1 88:1 89:1 91:1 94:1 102:1 103:1 107:1 110:1 117:1 118:1 123:1 126:1 135:1 136:1 139:1 142:1 149:1 150:1 151:1 155:1 156:1 158:1 163:1 164:1 165:1 169:1 170:1 171:1 172:1 174:1 178:1 179:1 180:1 184:1 185:1 187:1 190:1 197:1 198:1 199:1 203:1 206:1 213:1 214:1 219:1 222:1 235:1 237:1 238:1 254:1 
0.3843177676903757 29:1 39:1 44:1 45:1 47:1 51:1 52:1 55:1 59:1 60:1 61:1 63:1 67:1 71:1 74:1 75:1 79:1 83:1 87:1 88:1 89:1 90:1 95:1 99:1 103:1 104:1 105:1 109:1 111:1 115:1 125:1 126:1 127:1 131:1 133:1 134:1 135:1 136:1 137:1 138:1 139:1 140:1 141:1 143:1 147:1 149:1 150:1 151:1 152:1 153:1 159:1 163:1 164:1 165:1 168:1 169:1 170:1 175:1 179:1 180:1 184:1 185:1 186:1 191:1 195:1 198:1 199:1 203:1 204:1 207:1 214:1 215:1 219:1 220:1 223:1 230:1 236:1 237:1 239:1 252:1 254:1 255:1 
0.002529341140054838 22:1 23:1 28:1 30:1 31:1 38:1 39:1 44:1 45:1 46:1 47:1 54:1 55:1 59:1 60:1 62:1 63:1 67:1 71:1 73:1 74:1 75:1 79:1 83:1 87:1 88:1 89:1 90:1 95:1 99:1 103:1 104:1 109:1 111:1 115:1 125:1 127:1 131:1 133:1 134:1 135:1 136:1 137:1 138:1 139:1 140:1 141:1 143:1 147:1 149:1 150:1 151:1 152:1 159:1 163:1 164:1 165:1 168:1 169:1 170:1 175:1 179:1 180:1 184:1 185:1 186:1 191:1 195:1 196:1 199:1 200:1 202:1 203:1 207:1 211:1 212:1 214:1 215:1 219:1 223:1 231:1 235:1 236:1 238:1 239:1 251:1 252:1 254:1 255:1 
0.07636543235036596 29:1 44:1 45:1 47:1 55:1 59:1 60:1 63:1 67:1 71:1 74:1 75:1 83:1 87:1 88:1 89:1 90:1 99:1 102:1 103:1 104:1 109:1 115:1 119:1 125:1 131:1 133:1 134:1 135:1 136:1 137:1 138:1 139:1 140:1 141:1 147:1 149:1 150:1 151:1 163:1 164:1 168:1 169:1 179:1 180:1 184:1 185:1 186:1 194:1 195:1 199:1 203:1 211:1 214:1 215:1 219:1 220:1 222:1 231:1 235:1 236:1 237:1 238:1 252:1 
0.1030233459238774 42:1 51:1 67:1 70:1 78:1 79:1 83:1 86:1 93:1 94:1 95:1 99:1 102:1 108:1 109:1 111:1 115:1 118:1 122:1 123:1 124:1 127:1 131:1 132:1 133:1 134:1 135:1 136:1 137:1 142:1 143:1 147:1 150:1 158:1 159:1 163:1 166:1 174:1 179:1 182:1 188:1 189:1 190:1 194:1 195:1 197:1 198:1 205:1 206:1 210:1 211:1 214:1 217:1 222:1 223:1 224:1 227:1 233:1 238:1 239:1 
0.06857235378855281 19:1 20:1 35:1 36:1 38:1 39:1 40:1 41:1 42:1 43:1 44:1 45:1 46:1 47:1 51:1 52:1 54:1 55:1 56:1 57:1 58:1 59:1 60:1 61:1 62:1 63:1 67:1 68:1 70:1 83:1 84:1 86:1 88:1 89:1 90:1 91:1 92:1 93:1 99:1 100:1 102:1 104:1 105:1 106:1 108:1 109:1 115:1 116:1 118:1 124:1 125:1 131:1 132:1 133:1 134:1 135:1 136:1 137:1 138:1 139:1 140:1 141:1 147:1 148:1 150:1 156:1 163:1 164:1 166:1 172:1 179:1 180:1 182:1 184:1 185:1 186:1 187:1 188:1 189:1 195:1 196:1 198:1 206:1 207:1 211:1 212:1 214:1 222:1 223:1 227:1 228:1 230:1 231:1 232:1 233:1 234:1 235:1 236:1 237:1 238:1 239:1 243:1 244:1 
0.03666111036669785 26:1 42:1 52:1 54:1 62:1 63:1 68:1 70:1 78:1 79:1 83:1 84:1 86:1 93:1 94:1 95:1 99:1 102:1 107:1 108:1 109:1 110:1 111:1 115:1 118:1 122:1 123:1 124:1 126:1 127:1 131:1 132:1 133:1 134:1 135:1 136:1 137:1 138:1 142:1 147:1 150:1 158:1 163:1 166:1 174:1 178:1 179:1 182:1 188:1 189:1 190:1 194:1 195:1 197:1 198:1 205:1 206:1 214:1 217:1 222:1 223:1 224:1 233:1 239:1 
0.1156610539324334 18:1 19:1 34:1 35:1 38:1 39:1 40:1 41:1 42:1 46:1 47:1 48:1 50:1 51:1 54:1 55:1 56:1 57:1 58:1 62:1 63:1 67:1 70:1 71:1 74:1 77:1 78:1 79:1 83:1 86:1 87:1 90:1 92:1 93:1 94:1 99:1 100:1 101:1 102:1 103:1 104:1 105:1 106:1 107:1 108:1 109:1 115:1 116:1 117:1 118:1 119:1 120:1 121:1 122:1 123:1 124:1 131:1 147:1 163:1 164:1 165:1 166:1 167:1 168:1 169:1 170:1 171:1 172:1 173:1 174:1 175:1 176:1 179:1 182:1 183:1 186:1 195:1 198:1 199:1 202:1 210:1 211:1 214:1 215:1 218:1 226:1 227:1 230:1 231:1 232:1 233:1 234:1 242:1 243:1 
0.141887388549301 19:1 32:1 35:1 38:1 39:1 42:1 47:1 51:1 55:1 56:1 57:1 58:1 63:1 67:1 71:1 77:1 78:1 83:1 87:1 92:1 93:1 99:1 100:1 101:1 102:1 103:1 104:1 105:1 106:1 107:1 108:1 115:1 116:1 117:1 118:1 119:1 120:1 121:1 131:1 147:1 159:1 160:1 163:1 164:1 165:1 166:1 167:1 168:1 169:1 170:1 171:1 172:1 173:1 174:1 175:1 179:1 195:1 210:1 211:1 214:1 215:1 216:1 217:1 218:1 219:1 226:1 227:1 230:1 231:1 233:1 234:1 243:1 
0.02769194377017641 71:1 77:1 87:1 88:1 89:1 93:1 101:1 103:1 106:1 109:1 118:1 119:1 120:1 121:1 122:1 123:1 124:1 125:1 135:1 141:1 150:1 151:1 152:1 153:1 154:1 155:1 156:1 157:1 165:1 167:1 170:1 173:1 183:1 184:1 185:1 186:1 189:1 199:1 205:1 
0.07323788342969047 71:1 73:1 77:1 85:1 87:1 89:1 90:1 91:1 93:1 101:1 102:1 103:1 109:1 119:1 120:1 121:1 122:1 123:1 124:1 125:1 135:1 141:1 150:1 151:1 152:1 153:1 154:1 155:1 156:1 157:1 165:1 167:1 171:1 173:1 183:1 185:1 186:1 189:1 199:1 205:1 
0.1333828462499319 73:1 86:1 102:1 103:1 104:1 105:1 106:1 107:1 108:1 109:1 118:1 124:1 133:1 134:1 135:1 136:1 138:1 139:1 140:1 150:1 155:1 156:1 166:1 167:1 170:1 172:1 182:1 183:1 186:1 189:1 198:1 
0.7186200741270352 86:1 91:1 102:1 103:1 104:1 105:1 106:1 107:1 138:1 154:1 165:1 166:1 167:1 168:1 169:1 170:1 171:1 172:1 173:1 
0.02307039010467018 53:1 58:1 59:1 70:1 71:1 73:1 74:1 89:1 100:1 101:1 102:1 103:1 104:1 105:1 106:1 107:1 108:1 109:1 
-1.773900999289313 27:1 31:1 32:1 38:1 39:1 43:1 44:1 47:1 48:1 55:1 59:1 60:1 63:1 71:1 75:1 79:1 83:1 84:1 87:1 91:1 93:1 95:1 99:1 100:1 101:1 102:1 103:1 104:1 105:1 106:1 107:1 108:1 109:1 111:1 115:1 127:1 143:1 147:1 148:1 149:1 150:1 151:1 152:1 153:1 154:1 155:1 156:1 159:1 163:1 164:1 165:1 166:1 167:1 168:1 169:1 170:1 171:1 172:1 173:1 175:1 183:1 189:1 191:1 198:1 199:1 205:1 207:1 214:1 215:1 221:1 223:1 229:1 230:1 235:1 236:1 237:1 239:1 251:1 252:1 255:1 256:1 
-1.87599153452617 27:1 30:1 31:1 38:1 43:1 44:1 46:1 47:1 54:1 59:1 60:1 62:1 63:1 70:1 75:1 78:1 79:1 86:1 91:1 94:1 95:1 98:1 99:1 100:1 101:1 102:1 103:1 104:1 105:1 106:1 107:1 108:1 109:1 110:1 111:1 114:1 115:1 116:1 117:1 118:1 119:1 120:1 121:1 122:1 123:1 124:1 125:1 126:1 127:1 142:1 143:1 146:1 147:1 148:1 149:1 150:1 151:1 152:1 153:1 154:1 155:1 156:1 158:1 159:1 162:1 163:1 164:1 165:1 166:1 167:1 168:1 169:1 170:1 171:1 172:1 173:1 174:1 175:1 182:1 183:1 188:1 189:1 190:1 191:1 197:1 198:1 199:1 204:1 205:1 206:1 207:1 213:1 214:1 220:1 221:1 222:1 223:1 229:1 230:1 235:1 236:1 237:1 238:1 239:1 251:1 252:1 254:1 255:1 
-2.356235339919505 39:1 43:1 44:1 47:1 59:1 63:1 98:1 99:1 100:1 101:1 102:1 103:1 104:1 105:1 106:1 107:1 108:1 109:1 115:1 124:1 125:1 162:1 163:1 164:1 165:1 166:1 167:1 168:1 169:1 170:1 171:1 172:1 173:1 179:1 183:1 188:1 189:1 198:1 204:1 205:1 213:1 214:1 220:1 221:1 222:1 229:1 234:1 235:1 236:1 237:1 238:1 252:1 
