svm_type c_svc
kernel_type rbf
gamma 0.015625
nr_class 2
total_sv 24
rho -1.67548
label -1 1
nr_sv 19 5
SV
0.03535038688376792 77:1 93:1 109:1 125:1 133:1 134:1 135:1 136:1 137:1 138:1 139:1 140:1 141:1 152:1 157:1 168:1 173:1 184:1 189:1 205:1 
0.6197234245490676 120:1 137:1 138:1 
0.353283784866244 85:1 125:1 136:1 137:1 138:1 139:1 140:1 141:1 151:1 166:1 167:1 182:1 
1.015170209542312 125:1 136:1 137:1 138:1 139:1 140:1 141:1 151:1 166:1 181:1 
2.554013691606675 72:1 87:1 102:1 117:1 125:1 136:1 137:1 138:1 139:1 140:1 141:1 183:1 
3 72:1 85:1 88:1 101:1 104:1 117:1 118:1 120:1 125:1 133:1 135:1 136:1 137:1 138:1 139:1 140:1 141:1 149:1 150:1 151:1 152:1 165:1 168:1 181:1 184:1 200:1 
0.06625178356194457 70:1 89:1 92:1 104:1 105:1 120:1 121:1 125:1 133:1 134:1 135:1 136:1 137:1 138:1 139:1 140:1 141:1 152:1 153:1 168:1 169:1 183:1 184:1 185:1 188:1 202:1 
1.587836727304675 125:1 134:1 135:1 136:1 137:1 138:1 139:1 140:1 141:1 181:1 184:1 200:1 
0.4330731607562081 72:1 88:1 92:1 101:1 104:1 107:1 108:1 120:1 122:1 124:1 136:1 137:1 140:1 152:1 156:1 168:1 171:1 172:1 181:1 184:1 188:1 200:1 
0.4049336371522845 72:1 77:1 86:1 88:1 90:1 104:1 106:1 120:1 122:1 136:1 138:1 152:1 154:1 168:1 170:1 184:1 186:1 200:1 
0.3003572805147126 72:1 77:1 85:1 88:1 90:1 93:1 101:1 104:1 106:1 109:1 120:1 122:1 125:1 136:1 138:1 141:1 152:1 154:1 157:1 168:1 170:1 173:1 181:1 184:1 186:1 189:1 200:1 205:1 
2.165044244195497 72:1 88:1 104:1 120:1 134:1 135:1 136:1 152:1 168:1 184:1 200:1 
0.05549934959401483 70:1 88:1 89:1 90:1 91:1 92:1 93:1 104:1 117:1 120:1 134:1 136:1 137:1 138:1 139:1 140:1 152:1 168:1 184:1 185:1 186:1 187:1 188:1 189:1 198:1 
0.38256887791764 70:1 86:1 88:1 93:1 102:1 104:1 109:1 118:1 120:1 125:1 133:1 134:1 136:1 137:1 138:1 139:1 140:1 141:1 150:1 152:1 157:1 166:1 168:1 173:1 182:1 184:1 189:1 198:1 
0.572919689774992 72:1 74:1 77:1 86:1 88:1 90:1 92:1 104:1 106:1 107:1 108:1 119:1 120:1 122:1 123:1 125:1 133:1 136:1 137:1 138:1 139:1 140:1 141:1 152:1 154:1 168:1 170:1 171:1 172:1 184:1 186:1 188:1 200:1 202:1 
0.4469317619590935 73:1 88:1 104:1 118:1 119:1 133:1 137:1 138:1 139:1 140:1 141:1 150:1 151:1 168:1 184:1 186:1 200:1 202:1 
0.767545598511781 77:1 88:1 92:1 103:1 104:1 107:1 118:1 120:1 125:1 133:1 136:1 138:1 139:1 140:1 141:1 150:1 152:1 167:1 168:1 171:1 184:1 185:1 188:1 200:1 
0.02760926125398731 73:1 77:1 88:1 90:1 92:1 103:1 104:1 107:1 108:1 118:1 120:1 125:1 133:1 136:1 137:1 138:1 139:1 140:1 141:1 150:1 152:1 167:1 168:1 171:1 184:1 185:1 188:1 200:1 
0.2118871300551023 72:1 77:1 88:1 89:1 93:1 103:1 104:1 107:1 108:1 109:1 118:1 120:1 125:1 133:1 136:1 138:1 139:1 140:1 141:1 150:1 152:1 155:1 157:1 167:1 168:1 171:1 173:1 184:1 187:1 189:1 200:1 205:1 
-3 72:1 85:1 88:1 101:1 104:1 117:1 120:1 125:1 133:1 136:1 137:1 138:1 139:1 140:1 141:1 149:1 152:1 165:1 168:1 181:1 184:1 200:1 
-3 109:1 125:1 137:1 138:1 139:1 140:1 141:1 
-3 72:1 88:1 104:1 120:1 125:1 136:1 137:1 138:1 139:1 140:1 141:1 152:1 168:1 184:1 200:1 
-3 72:1 88:1 104:1 120:1 125:1 136:1 137:1 138:1 139:1 140:1 141:1 152:1 168:1 184:1 200:1 
-3 72:1 88:1 104:1 120:1 125:1 136:1 137:1 138:1 139:1 140:1 141:1 152:1 168:1 184:1 200:1 
