svm_type c_svc
kernel_type rbf
gamma 0.015625
nr_class 2
total_sv 38
rho -1.4262
label -1 1
nr_sv 33 5
SV
0.1918973920651013 75:1 77:1 85:1 91:1 93:1 101:1 104:1 106:1 107:1 109:1 117:1 119:1 120:1 121:1 125:1 133:1 134:1 137:1 138:1 141:1 149:1 154:1 155:1 157:1 165:1 171:1 172:1 173:1 181:1 182:1 183:1 184:1 185:1 186:1 187:1 189:1 197:1 205:1 
0.5781741378309898 75:1 77:1 90:1 93:1 105:1 106:1 109:1 120:1 125:1 134:1 135:1 136:1 137:1 138:1 139:1 140:1 141:1 150:1 157:1 169:1 173:1 185:1 186:1 189:1 202:1 205:1 
1.209807575665164 75:1 77:1 90:1 105:1 106:1 120:1 134:1 135:1 136:1 137:1 138:1 139:1 140:1 169:1 185:1 186:1 202:1 
0.8593437111719385 72:1 75:1 77:1 85:1 90:1 91:1 101:1 105:1 106:1 117:1 120:1 124:1 133:1 135:1 136:1 137:1 138:1 139:1 140:1 149:1 150:1 152:1 153:1 165:1 168:1 169:1 170:1 181:1 183:1 186:1 187:1 203:1 205:1 
0.5733427662707993 72:1 75:1 76:1 77:1 88:1 90:1 93:1 104:1 105:1 106:1 108:1 109:1 124:1 125:1 135:1 136:1 137:1 138:1 139:1 140:1 141:1 151:1 152:1 157:1 166:1 169:1 170:1 173:1 182:1 184:1 186:1 187:1 189:1 200:1 203:1 204:1 205:1 
1.803929277742566 72:1 75:1 77:1 85:1 88:1 90:1 91:1 93:1 101:1 104:1 105:1 106:1 109:1 117:1 120:1 124:1 125:1 133:1 135:1 136:1 137:1 138:1 139:1 140:1 141:1 149:1 150:1 151:1 152:1 153:1 157:1 165:1 166:1 168:1 169:1 170:1 173:1 181:1 184:1 186:1 189:1 203:1 205:1 
0.9531790339259041 76:1 88:1 91:1 93:1 105:1 106:1 120:1 124:1 135:1 136:1 137:1 138:1 139:1 140:1 150:1 151:1 152:1 165:1 170:1 181:1 184:1 186:1 187:1 203:1 
0.6193191229657518 72:1 73:1 74:1 75:1 76:1 77:1 78:1 105:1 106:1 107:1 108:1 123:1 124:1 134:1 135:1 136:1 137:1 138:1 139:1 140:1 155:1 156:1 169:1 170:1 171:1 172:1 174:1 190:1 200:1 201:1 202:1 203:1 204:1 205:1 
0.02286324209677755 105:1 107:1 123:1 134:1 135:1 136:1 137:1 138:1 139:1 155:1 169:1 170:1 171:1 173:1 181:1 183:1 189:1 197:1 
0.1217221014602679 87:1 88:1 89:1 90:1 106:1 122:1 133:1 134:1 135:1 136:1 137:1 138:1 139:1 140:1 141:1 154:1 170:1 183:1 184:1 185:1 186:1 
0.615536755639458 76:1 88:1 90:1 92:1 106:1 108:1 119:1 121:1 123:1 124:1 133:1 134:1 135:1 136:1 137:1 138:1 139:1 140:1 141:1 150:1 152:1 155:1 165:1 168:1 170:1 181:1 183:1 185:1 186:1 201:1 
0.2680667872174837 88:1 90:1 93:1 103:1 106:1 108:1 119:1 121:1 122:1 124:1 133:1 134:1 135:1 136:1 137:1 138:1 139:1 140:1 141:1 142:1 150:1 153:1 155:1 165:1 166:1 168:1 171:1 181:1 184:1 186:1 201:1 202:1 
0.3185692906716456 71:1 77:1 87:1 89:1 90:1 93:1 103:1 106:1 109:1 117:1 119:1 122:1 125:1 134:1 135:1 136:1 137:1 138:1 139:1 140:1 141:1 151:1 154:1 157:1 167:1 169:1 170:1 173:1 183:1 185:1 186:1 189:1 199:1 205:1 
0.009485332792434999 77:1 85:1 86:1 87:1 88:1 89:1 90:1 91:1 103:1 106:1 107:1 108:1 109:1 119:1 135:1 150:1 151:1 155:1 156:1 157:1 165:1 167:1 181:1 183:1 184:1 185:1 186:1 187:1 188:1 200:1 
0.1330863628948412 71:1 73:1 75:1 77:1 87:1 89:1 91:1 93:1 101:1 103:1 104:1 105:1 106:1 107:1 108:1 117:1 119:1 121:1 123:1 124:1 133:1 134:1 135:1 136:1 137:1 138:1 139:1 140:1 141:1 142:1 149:1 151:1 153:1 155:1 156:1 165:1 167:1 169:1 171:1 172:1 181:1 183:1 184:1 185:1 186:1 187:1 189:1 197:1 199:1 201:1 203:1 205:1 
0.8292485847494625 77:1 87:1 90:1 103:1 106:1 108:1 119:1 122:1 123:1 134:1 135:1 136:1 137:1 138:1 139:1 140:1 141:1 149:1 151:1 154:1 155:1 165:1 167:1 168:1 169:1 170:1 172:1 181:1 183:1 186:1 189:1 205:1 
0.3458563757180349 69:1 72:1 74:1 77:1 85:1 87:1 88:1 89:1 90:1 92:1 93:1 101:1 102:1 103:1 106:1 108:1 117:1 119:1 122:1 123:1 124:1 133:1 135:1 138:1 139:1 149:1 151:1 154:1 155:1 165:1 167:1 170:1 173:1 181:1 183:1 184:1 185:1 189:1 197:1 204:1 205:1 
0.03229622655420011 77:1 86:1 90:1 92:1 93:1 103:1 105:1 106:1 108:1 121:1 122:1 123:1 124:1 134:1 135:1 136:1 137:1 138:1 139:1 149:1 154:1 155:1 165:1 167:1 170:1 173:1 181:1 182:1 183:1 189:1 197:1 204:1 205:1 
0.2784955923308475 70:1 71:1 73:1 77:1 85:1 87:1 88:1 90:1 92:1 93:1 104:1 106:1 108:1 118:1 121:1 122:1 124:1 134:1 137:1 138:1 139:1 149:1 150:1 153:1 154:1 155:1 166:1 169:1 170:1 171:1 173:1 182:1 185:1 189:1 198:1 201:1 204:1 205:1 
0.4429696049686319 70:1 86:1 90:1 101:1 102:1 103:1 106:1 107:1 108:1 109:1 118:1 122:1 134:1 136:1 139:1 150:1 151:1 155:1 156:1 157:1 165:1 169:1 170:1 173:1 184:1 189:1 198:1 203:1 204:1 205:1 
0.3979894499462853 70:1 76:1 87:1 101:1 102:1 103:1 107:1 108:1 109:1 119:1 120:1 121:1 122:1 136:1 149:1 150:1 151:1 155:1 156:1 157:1 165:1 169:1 170:1 173:1 184:1 185:1 189:1 203:1 204:1 205:1 
1.061838947083366 125:1 135:1 136:1 137:1 138:1 139:1 140:1 141:1 150:1 152:1 165:1 166:1 181:1 185:1 200:1 
0.5808670715387003 72:1 73:1 87:1 102:1 117:1 125:1 135:1 136:1 137:1 138:1 139:1 140:1 141:1 150:1 183:1 184:1 185:1 186:1 
0.01837023783888875 85:1 101:1 117:1 125:1 133:1 134:1 135:1 136:1 137:1 138:1 139:1 140:1 141:1 149:1 165:1 181:1 
0.2498038565594851 77:1 90:1 106:1 122:1 138:1 154:1 170:1 184:1 186:1 200:1 
0.005376586572325343 77:1 85:1 91:1 101:1 104:1 105:1 106:1 107:1 117:1 118:1 122:1 133:1 137:1 139:1 149:1 155:1 156:1 165:1 167:1 168:1 169:1 181:1 205:1 
0.2005794906999079 69:1 77:1 85:1 88:1 89:1 90:1 93:1 101:1 106:1 109:1 117:1 118:1 119:1 120:1 121:1 122:1 123:1 124:1 125:1 133:1 138:1 141:1 149:1 150:1 151:1 152:1 153:1 154:1 155:1 156:1 157:1 165:1 170:1 173:1 181:1 184:1 185:1 186:1 189:1 197:1 205:1 
0.02794481668849284 70:1 73:1 90:1 91:1 93:1 102:1 103:1 105:1 106:1 107:1 109:1 121:1 122:1 123:1 124:1 133:1 137:1 138:1 139:1 153:1 154:1 155:1 166:1 167:1 169:1 170:1 171:1 173:1 185:1 186:1 189:1 200:1 204:1 205:1 
0.0844538182352427 73:1 87:1 88:1 93:1 101:1 102:1 109:1 124:1 134:1 135:1 136:1 137:1 138:1 139:1 150:1 165:1 166:1 167:1 168:1 169:1 170:1 187:1 188:1 205:1 
1.125026652577576 73:1 104:1 107:1 118:1 119:1 124:1 133:1 136:1 137:1 140:1 141:1 150:1 151:1 155:1 157:1 168:1 169:1 170:1 184:1 186:1 201:1 
0.1222207037123926 73:1 87:1 88:1 93:1 101:1 102:1 108:1 109:1 119:1 125:1 135:1 137:1 138:1 149:1 151:1 155:1 156:1 165:1 167:1 170:1 171:1 172:1 183:1 184:1 185:1 186:1 189:1 199:1 205:1 
0.6925978192343056 72:1 85:1 86:1 87:1 88:1 89:1 90:1 91:1 92:1 93:1 101:1 108:1 117:1 124:1 133:1 135:1 137:1 139:1 140:1 149:1 151:1 153:1 155:1 156:1 165:1 167:1 169:1 171:1 181:1 182:1 183:1 184:1 185:1 186:1 187:1 188:1 189:1 197:1 203:1 
0.2257412745807301 72:1 85:1 86:1 87:1 88:1 89:1 90:1 91:1 92:1 93:1 101:1 109:1 118:1 120:1 121:1 125:1 134:1 135:1 136:1 137:1 138:1 139:1 140:1 141:1 149:1 150:1 155:1 156:1 166:1 169:1 170:1 171:1 172:1 182:1 183:1 184:1 185:1 186:1 189:1 198:1 201:1 205:1 
-3 77:1 85:1 87:1 101:1 117:1 119:1 124:1 133:1 134:1 135:1 136:1 137:1 138:1 139:1 140:1 149:1 150:1 151:1 155:1 165:1 167:1 169:1 170:1 181:1 183:1 184:1 185:1 186:1 203:1 205:1 
-3 72:1 73:1 74:1 75:1 77:1 88:1 91:1 93:1 104:1 105:1 106:1 107:1 108:1 109:1 124:1 125:1 135:1 136:1 137:1 138:1 139:1 140:1 141:1 151:1 155:1 156:1 157:1 166:1 168:1 169:1 170:1 171:1 173:1 182:1 184:1 185:1 186:1 189:1 200:1 203:1 204:1 205:1 
-3 77:1 85:1 90:1 93:1 101:1 106:1 109:1 117:1 120:1 121:1 122:1 124:1 125:1 133:1 134:1 135:1 136:1 137:1 138:1 139:1 140:1 141:1 149:1 150:1 155:1 157:1 165:1 166:1 169:1 170:1 173:1 181:1 184:1 185:1 186:1 189:1 205:1 
-3 77:1 90:1 106:1 124:1 135:1 136:1 137:1 138:1 139:1 140:1 150:1 155:1 165:1 169:1 170:1 181:1 184:1 185:1 186:1 203:1 
-3 77:1 90:1 106:1 124:1 135:1 136:1 137:1 138:1 139:1 140:1 150:1 155:1 165:1 169:1 170:1 181:1 184:1 185:1 186:1 203:1 
