svm_type c_svc
kernel_type rbf
gamma 0.015625
nr_class 2
total_sv 35
rho -1.51387
label -1 1
nr_sv 30 5
SV
0.4520117462742004 76:1 86:1 87:1 88:1 89:1 90:1 92:1 102:1 106:1 108:1 117:1 118:1 122:1 124:1 133:1 134:1 136:1 138:1 140:1 141:1 150:1 152:1 154:1 156:1 157:1 166:1 168:1 170:1 172:1 174:1 182:1 183:1 184:1 186:1 189:1 202:1 203:1 204:1 205:1 
0.08238769163299758 72:1 77:1 85:1 87:1 88:1 90:1 92:1 93:1 101:1 103:1 104:1 106:1 108:1 109:1 118:1 119:1 120:1 122:1 123:1 124:1 125:1 136:1 138:1 139:1 141:1 152:1 154:1 155:1 157:1 168:1 170:1 173:1 184:1 189:1 200:1 204:1 205:1 
0.2774314853297412 74:1 75:1 76:1 88:1 89:1 90:1 93:1 102:1 103:1 109:1 118:1 119:1 120:1 121:1 122:1 123:1 125:1 134:1 139:1 141:1 150:1 151:1 152:1 153:1 154:1 155:1 157:1 166:1 171:1 173:1 182:1 183:1 184:1 185:1 186:1 187:1 189:1 204:1 
1.917874527294376 70:1 72:1 73:1 77:1 85:1 86:1 87:1 88:1 90:1 92:1 93:1 102:1 105:1 106:1 108:1 118:1 119:1 120:1 121:1 122:1 123:1 124:1 138:1 139:1 150:1 151:1 152:1 153:1 154:1 155:1 166:1 168:1 170:1 173:1 182:1 184:1 189:1 198:1 199:1 200:1 201:1 204:1 205:1 
0.1565144867503692 71:1 86:1 87:1 90:1 92:1 93:1 102:1 103:1 106:1 107:1 108:1 109:1 117:1 119:1 121:1 122:1 123:1 125:1 133:1 134:1 135:1 136:1 137:1 138:1 139:1 141:1 149:1 151:1 154:1 155:1 157:1 165:1 166:1 167:1 170:1 173:1 181:1 182:1 183:1 186:1 189:1 199:1 204:1 205:1 
0.6898388945706225 74:1 90:1 92:1 93:1 102:1 103:1 106:1 108:1 109:1 117:1 121:1 122:1 123:1 125:1 133:1 134:1 135:1 136:1 137:1 138:1 139:1 141:1 149:1 154:1 157:1 165:1 166:1 167:1 170:1 173:1 181:1 182:1 186:1 189:1 199:1 204:1 205:1 
0.885395181191421 70:1 72:1 73:1 74:1 77:1 85:1 86:1 87:1 88:1 89:1 90:1 92:1 93:1 102:1 103:1 106:1 108:1 109:1 118:1 119:1 121:1 122:1 123:1 124:1 125:1 134:1 135:1 136:1 138:1 139:1 141:1 150:1 151:1 154:1 155:1 157:1 167:1 170:1 173:1 183:1 184:1 185:1 189:1 197:1 199:1 204:1 205:1 
0.3903298973677645 70:1 72:1 74:1 86:1 89:1 90:1 92:1 93:1 101:1 102:1 103:1 104:1 105:1 106:1 108:1 109:1 118:1 119:1 121:1 122:1 123:1 125:1 133:1 134:1 135:1 136:1 138:1 139:1 141:1 154:1 157:1 165:1 170:1 173:1 181:1 189:1 204:1 205:1 
0.7556894671359883 87:1 88:1 89:1 90:1 92:1 93:1 103:1 106:1 108:1 109:1 119:1 122:1 123:1 125:1 133:1 134:1 135:1 136:1 137:1 138:1 139:1 141:1 154:1 157:1 165:1 170:1 173:1 183:1 184:1 185:1 186:1 189:1 203:1 204:1 
0.6345328717200979 70:1 74:1 87:1 88:1 89:1 90:1 92:1 93:1 106:1 108:1 109:1 122:1 123:1 125:1 133:1 134:1 135:1 136:1 137:1 138:1 139:1 141:1 154:1 157:1 165:1 170:1 173:1 182:1 183:1 184:1 185:1 186:1 189:1 205:1 
0.07721374344618037 70:1 85:1 86:1 87:1 88:1 89:1 90:1 92:1 93:1 101:1 103:1 104:1 105:1 106:1 108:1 109:1 119:1 121:1 122:1 123:1 125:1 137:1 138:1 139:1 141:1 149:1 150:1 151:1 152:1 154:1 157:1 168:1 170:1 173:1 182:1 184:1 186:1 189:1 199:1 203:1 204:1 
0.2680255969118605 70:1 73:1 85:1 87:1 88:1 90:1 92:1 93:1 101:1 102:1 104:1 106:1 108:1 109:1 119:1 121:1 122:1 123:1 125:1 134:1 137:1 138:1 139:1 141:1 149:1 150:1 151:1 154:1 155:1 157:1 168:1 170:1 173:1 182:1 184:1 186:1 189:1 198:1 199:1 204:1 205:1 
0.4164883629172773 70:1 73:1 85:1 86:1 87:1 88:1 90:1 92:1 93:1 101:1 102:1 103:1 105:1 106:1 107:1 108:1 109:1 118:1 119:1 120:1 121:1 122:1 123:1 125:1 135:1 138:1 139:1 141:1 150:1 152:1 154:1 155:1 157:1 165:1 167:1 168:1 170:1 173:1 182:1 183:1 185:1 186:1 189:1 199:1 204:1 205:1 
0.2374726869533537 70:1 85:1 86:1 88:1 90:1 92:1 93:1 101:1 103:1 105:1 106:1 108:1 109:1 119:1 122:1 123:1 125:1 135:1 138:1 139:1 141:1 149:1 150:1 151:1 152:1 154:1 157:1 167:1 170:1 173:1 183:1 186:1 189:1 201:1 203:1 204:1 
0.5160196324774626 70:1 85:1 87:1 88:1 90:1 92:1 93:1 103:1 106:1 107:1 108:1 109:1 118:1 119:1 122:1 123:1 125:1 134:1 135:1 138:1 139:1 141:1 149:1 150:1 151:1 152:1 154:1 155:1 157:1 166:1 167:1 170:1 173:1 182:1 183:1 186:1 189:1 198:1 201:1 204:1 205:1 
0.332138809215375 70:1 72:1 85:1 88:1 89:1 90:1 92:1 93:1 103:1 106:1 109:1 118:1 121:1 122:1 123:1 125:1 134:1 137:1 138:1 139:1 141:1 149:1 150:1 153:1 154:1 157:1 166:1 169:1 170:1 173:1 182:1 183:1 185:1 186:1 189:1 198:1 201:1 204:1 205:1 
0.4262528599272204 70:1 72:1 74:1 86:1 88:1 90:1 92:1 93:1 101:1 102:1 104:1 105:1 106:1 108:1 109:1 118:1 119:1 120:1 121:1 122:1 123:1 125:1 133:1 134:1 135:1 136:1 137:1 138:1 139:1 141:1 150:1 152:1 153:1 154:1 155:1 157:1 166:1 168:1 169:1 170:1 173:1 181:1 182:1 184:1 185:1 186:1 189:1 198:1 204:1 205:1 
0.3155578543194587 71:1 88:1 92:1 93:1 104:1 105:1 106:1 108:1 109:1 123:1 125:1 133:1 134:1 135:1 139:1 141:1 151:1 155:1 157:1 166:1 170:1 173:1 181:1 185:1 186:1 189:1 198:1 204:1 205:1 
0.05241109811119627 69:1 77:1 90:1 93:1 106:1 109:1 118:1 119:1 120:1 121:1 122:1 123:1 124:1 125:1 138:1 141:1 150:1 151:1 152:1 153:1 154:1 155:1 156:1 157:1 170:1 173:1 186:1 189:1 197:1 202:1 205:1 
1.136085734087423 74:1 86:1 90:1 102:1 103:1 104:1 106:1 118:1 120:1 122:1 123:1 133:1 134:1 136:1 138:1 139:1 141:1 150:1 152:1 154:1 155:1 157:1 166:1 167:1 168:1 169:1 170:1 171:1 173:1 182:1 186:1 187:1 189:1 198:1 201:1 203:1 204:1 205:1 
0.2071527034472784 73:1 90:1 92:1 102:1 103:1 104:1 105:1 106:1 108:1 109:1 119:1 120:1 122:1 123:1 125:1 133:1 136:1 137:1 138:1 139:1 150:1 151:1 152:1 156:1 167:1 168:1 169:1 171:1 173:1 183:1 185:1 186:1 189:1 202:1 205:1 
0.02811101292190326 73:1 74:1 77:1 86:1 87:1 88:1 89:1 93:1 102:1 104:1 105:1 106:1 107:1 108:1 109:1 118:1 121:1 122:1 123:1 124:1 125:1 133:1 134:1 135:1 136:1 137:1 138:1 139:1 140:1 141:1 150:1 153:1 154:1 155:1 156:1 157:1 166:1 168:1 169:1 170:1 171:1 172:1 173:1 183:1 184:1 185:1 189:1 201:1 202:1 205:1 
0.1553488944698042 73:1 88:1 104:1 105:1 106:1 107:1 108:1 118:1 119:1 125:1 133:1 138:1 141:1 150:1 151:1 154:1 157:1 168:1 169:1 173:1 184:1 187:1 188:1 189:1 201:1 
0.641088923221975 73:1 77:1 88:1 90:1 93:1 103:1 104:1 106:1 109:1 118:1 119:1 122:1 125:1 133:1 138:1 139:1 140:1 141:1 150:1 151:1 154:1 157:1 167:1 168:1 170:1 173:1 184:1 186:1 189:1 200:1 201:1 205:1 
0.4414010226555071 72:1 77:1 88:1 93:1 103:1 105:1 106:1 107:1 108:1 109:1 117:1 118:1 125:1 133:1 134:1 136:1 137:1 138:1 139:1 140:1 141:1 150:1 151:1 154:1 157:1 168:1 170:1 173:1 184:1 189:1 205:1 
0.769061479319571 73:1 74:1 88:1 90:1 93:1 103:1 106:1 108:1 109:1 118:1 122:1 123:1 125:1 133:1 138:1 141:1 150:1 151:1 152:1 154:1 155:1 157:1 168:1 170:1 172:1 184:1 186:1 189:1 200:1 202:1 
0.1183680790436612 72:1 73:1 85:1 86:1 87:1 88:1 89:1 90:1 91:1 92:1 93:1 94:1 101:1 118:1 120:1 121:1 122:1 123:1 124:1 125:1 126:1 134:1 136:1 138:1 141:1 150:1 151:1 152:1 154:1 157:1 166:1 168:1 170:1 173:1 182:1 184:1 186:1 189:1 198:1 200:1 201:1 202:1 203:1 204:1 205:1 206:1 
0.9957884787575225 73:1 87:1 88:1 89:1 90:1 91:1 92:1 93:1 101:1 102:1 105:1 121:1 122:1 125:1 133:1 134:1 138:1 139:1 140:1 150:1 151:1 152:1 154:1 166:1 168:1 170:1 173:1 182:1 183:1 185:1 186:1 189:1 198:1 200:1 201:1 203:1 204:1 205:1 
0.09221734249767193 72:1 73:1 86:1 87:1 88:1 89:1 90:1 91:1 92:1 93:1 94:1 101:1 106:1 118:1 119:1 121:1 122:1 123:1 124:1 125:1 126:1 133:1 134:1 136:1 137:1 141:1 151:1 152:1 157:1 168:1 173:1 182:1 185:1 189:1 199:1 202:1 218:1 
1.531789436030719 72:1 86:1 87:1 88:1 89:1 90:1 91:1 92:1 93:1 101:1 118:1 119:1 121:1 122:1 133:1 136:1 138:1 151:1 154:1 168:1 170:1 182:1 185:1 186:1 189:1 
-3 72:1 85:1 88:1 90:1 92:1 93:1 102:1 103:1 105:1 106:1 108:1 109:1 118:1 119:1 120:1 122:1 123:1 125:1 133:1 136:1 138:1 139:1 141:1 150:1 151:1 154:1 157:1 168:1 170:1 173:1 182:1 183:1 184:1 186:1 189:1 201:1 203:1 204:1 
-3 69:1 73:1 77:1 86:1 88:1 90:1 92:1 93:1 106:1 108:1 118:1 119:1 121:1 122:1 123:1 124:1 133:1 134:1 136:1 138:1 139:1 150:1 151:1 152:1 154:1 155:1 166:1 168:1 170:1 173:1 182:1 184:1 189:1 198:1 199:1 201:1 204:1 205:1 
-3 73:1 85:1 88:1 90:1 92:1 93:1 102:1 103:1 105:1 106:1 108:1 109:1 118:1 119:1 121:1 122:1 123:1 125:1 133:1 134:1 136:1 138:1 139:1 141:1 150:1 151:1 152:1 154:1 155:1 157:1 166:1 168:1 170:1 173:1 182:1 183:1 185:1 186:1 189:1 201:1 204:1 205:1 
-3 69:1 74:1 86:1 87:1 88:1 89:1 90:1 92:1 93:1 102:1 106:1 108:1 109:1 118:1 121:1 122:1 123:1 125:1 133:1 136:1 138:1 139:1 141:1 151:1 154:1 157:1 168:1 170:1 173:1 182:1 185:1 186:1 189:1 201:1 204:1 205:1 
-3 69:1 74:1 86:1 87:1 88:1 89:1 90:1 92:1 93:1 102:1 106:1 108:1 109:1 118:1 121:1 122:1 123:1 125:1 133:1 136:1 138:1 139:1 141:1 151:1 154:1 157:1 168:1 170:1 173:1 182:1 185:1 186:1 189:1 201:1 204:1 205:1 
