svm_type c_svc
kernel_type rbf
gamma 0.015625
nr_class 2
total_sv 25
rho -1.43406
label -1 1
nr_sv 20 5
SV
0.07463642768683518 69:1 85:1 87:1 101:1 103:1 105:1 106:1 107:1 117:1 119:1 123:1 133:1 134:1 135:1 136:1 137:1 138:1 139:1 149:1 151:1 155:1 165:1 167:1 169:1 170:1 171:1 172:1 181:1 183:1 189:1 197:1 199:1 200:1 201:1 202:1 203:1 204:1 205:1 
1.402277967335627 71:1 72:1 73:1 74:1 75:1 87:1 90:1 103:1 106:1 119:1 122:1 133:1 134:1 135:1 136:1 137:1 138:1 139:1 140:1 141:1 142:1 151:1 154:1 167:1 170:1 183:1 186:1 199:1 200:1 201:1 202:1 203:1 
0.0233051238876093 71:1 74:1 76:1 86:1 87:1 90:1 92:1 103:1 104:1 105:1 106:1 108:1 117:1 118:1 119:1 121:1 122:1 124:1 135:1 138:1 139:1 140:1 141:1 142:1 149:1 150:1 151:1 153:1 154:1 156:1 167:1 168:1 169:1 170:1 172:1 182:1 183:1 186:1 188:1 199:1 202:1 204:1 
0.005355814664706508 71:1 77:1 87:1 90:1 93:1 103:1 106:1 109:1 117:1 119:1 122:1 125:1 133:1 134:1 135:1 136:1 137:1 138:1 139:1 140:1 141:1 151:1 154:1 157:1 167:1 170:1 173:1 183:1 186:1 189:1 199:1 202:1 205:1 
0.8025802760552135 70:1 71:1 74:1 77:1 86:1 87:1 90:1 92:1 93:1 101:1 102:1 103:1 104:1 105:1 106:1 107:1 108:1 119:1 122:1 135:1 136:1 137:1 138:1 151:1 154:1 165:1 166:1 167:1 168:1 169:1 170:1 171:1 172:1 173:1 182:1 183:1 186:1 198:1 199:1 202:1 
0.3297923923686363 71:1 74:1 87:1 90:1 93:1 103:1 106:1 107:1 108:1 117:1 119:1 122:1 135:1 136:1 137:1 138:1 151:1 154:1 165:1 167:1 170:1 171:1 172:1 173:1 183:1 186:1 199:1 202:1 
1.307201855861896 71:1 74:1 85:1 86:1 87:1 89:1 90:1 91:1 92:1 102:1 103:1 104:1 105:1 106:1 108:1 119:1 120:1 122:1 124:1 133:1 134:1 135:1 136:1 137:1 138:1 139:1 140:1 141:1 151:1 154:1 156:1 165:1 166:1 167:1 168:1 169:1 170:1 172:1 181:1 183:1 185:1 187:1 188:1 199:1 201:1 202:1 
0.6102718695550161 74:1 76:1 90:1 91:1 92:1 105:1 106:1 107:1 108:1 134:1 135:1 136:1 137:1 138:1 139:1 140:1 141:1 142:1 149:1 165:1 169:1 170:1 171:1 172:1 181:1 186:1 188:1 197:1 201:1 203:1 204:1 
1.17272489457526 71:1 75:1 85:1 87:1 89:1 91:1 101:1 103:1 105:1 107:1 117:1 119:1 133:1 134:1 135:1 136:1 137:1 138:1 139:1 140:1 141:1 149:1 151:1 165:1 167:1 168:1 169:1 170:1 171:1 172:1 181:1 183:1 185:1 188:1 199:1 201:1 203:1 204:1 
3 77:1 85:1 87:1 90:1 92:1 101:1 103:1 104:1 105:1 106:1 107:1 108:1 117:1 119:1 122:1 123:1 133:1 134:1 135:1 136:1 137:1 138:1 139:1 140:1 141:1 149:1 151:1 154:1 155:1 165:1 167:1 170:1 172:1 181:1 183:1 186:1 188:1 200:1 205:1 
1.431000798892824 71:1 73:1 75:1 77:1 87:1 89:1 91:1 93:1 101:1 103:1 104:1 105:1 106:1 107:1 108:1 117:1 119:1 121:1 123:1 124:1 133:1 134:1 135:1 136:1 137:1 138:1 139:1 140:1 141:1 142:1 149:1 151:1 153:1 155:1 156:1 165:1 167:1 169:1 171:1 172:1 181:1 183:1 184:1 185:1 186:1 187:1 189:1 197:1 199:1 201:1 203:1 205:1 
3 72:1 74:1 77:1 85:1 87:1 88:1 90:1 92:1 101:1 103:1 104:1 105:1 106:1 107:1 108:1 117:1 119:1 120:1 122:1 123:1 133:1 134:1 135:1 136:1 137:1 138:1 139:1 140:1 141:1 149:1 151:1 152:1 154:1 155:1 165:1 167:1 168:1 169:1 170:1 171:1 172:1 181:1 183:1 184:1 186:1 188:1 200:1 202:1 205:1 
0.2203937594492466 77:1 87:1 90:1 103:1 106:1 108:1 119:1 122:1 123:1 134:1 135:1 136:1 137:1 138:1 139:1 140:1 141:1 149:1 151:1 154:1 155:1 165:1 167:1 168:1 169:1 170:1 172:1 181:1 183:1 186:1 189:1 205:1 
0.3286076471452519 71:1 74:1 77:1 78:1 87:1 90:1 93:1 101:1 102:1 103:1 104:1 105:1 106:1 107:1 108:1 119:1 122:1 135:1 138:1 151:1 154:1 165:1 166:1 167:1 168:1 169:1 170:1 171:1 172:1 173:1 174:1 183:1 186:1 199:1 202:1 
0.6147950640602007 71:1 77:1 87:1 92:1 93:1 103:1 104:1 105:1 106:1 107:1 108:1 119:1 133:1 134:1 135:1 151:1 167:1 168:1 169:1 170:1 171:1 172:1 173:1 183:1 199:1 
0.1841025248198885 71:1 73:1 74:1 75:1 77:1 78:1 87:1 93:1 103:1 107:1 108:1 119:1 120:1 121:1 122:1 125:1 133:1 134:1 135:1 141:1 151:1 157:1 167:1 183:1 184:1 185:1 199:1 201:1 202:1 203:1 
0.1334036023600407 72:1 74:1 77:1 86:1 88:1 90:1 92:1 104:1 106:1 107:1 108:1 119:1 120:1 122:1 123:1 125:1 133:1 136:1 137:1 138:1 139:1 140:1 141:1 152:1 154:1 168:1 170:1 171:1 172:1 184:1 186:1 188:1 200:1 202:1 
0.06014733308232871 70:1 71:1 90:1 92:1 102:1 103:1 104:1 105:1 106:1 107:1 108:1 119:1 120:1 122:1 125:1 133:1 136:1 137:1 138:1 140:1 149:1 152:1 153:1 155:1 167:1 169:1 171:1 172:1 183:1 184:1 185:1 186:1 189:1 198:1 201:1 205:1 
0.004781246426853935 70:1 71:1 73:1 77:1 87:1 89:1 90:1 92:1 102:1 103:1 104:1 105:1 106:1 107:1 108:1 109:1 119:1 122:1 123:1 125:1 133:1 135:1 136:1 137:1 138:1 150:1 151:1 152:1 153:1 155:1 156:1 167:1 171:1 172:1 183:1 184:1 185:1 186:1 187:1 189:1 198:1 201:1 202:1 205:1 
0.2946214017725661 72:1 74:1 77:1 87:1 88:1 90:1 92:1 103:1 104:1 106:1 107:1 108:1 110:1 118:1 120:1 122:1 126:1 133:1 136:1 137:1 138:1 139:1 140:1 141:1 150:1 152:1 154:1 167:1 168:1 170:1 171:1 172:1 183:1 184:1 186:1 188:1 200:1 202:1 205:1 
-3 71:1 77:1 85:1 87:1 88:1 90:1 92:1 101:1 103:1 104:1 105:1 107:1 108:1 117:1 119:1 120:1 122:1 123:1 133:1 134:1 135:1 136:1 137:1 138:1 139:1 140:1 141:1 149:1 151:1 154:1 165:1 167:1 168:1 169:1 170:1 171:1 181:1 183:1 184:1 186:1 188:1 199:1 201:1 204:1 
-3 71:1 75:1 77:1 87:1 90:1 93:1 103:1 104:1 105:1 106:1 107:1 108:1 119:1 122:1 123:1 133:1 134:1 135:1 136:1 137:1 138:1 139:1 140:1 141:1 142:1 149:1 151:1 155:1 165:1 167:1 168:1 169:1 170:1 171:1 172:1 181:1 183:1 185:1 187:1 189:1 197:1 199:1 200:1 201:1 202:1 203:1 205:1 
-3 71:1 73:1 74:1 77:1 85:1 87:1 90:1 92:1 101:1 103:1 104:1 105:1 106:1 107:1 108:1 117:1 119:1 122:1 123:1 133:1 134:1 135:1 136:1 137:1 138:1 139:1 140:1 141:1 149:1 151:1 154:1 155:1 165:1 167:1 168:1 169:1 170:1 171:1 172:1 181:1 183:1 184:1 186:1 188:1 199:1 202:1 205:1 
-3 71:1 74:1 77:1 87:1 90:1 92:1 103:1 104:1 105:1 106:1 107:1 108:1 119:1 122:1 133:1 134:1 135:1 136:1 137:1 138:1 139:1 140:1 141:1 149:1 151:1 154:1 165:1 167:1 170:1 171:1 172:1 181:1 183:1 184:1 186:1 188:1 199:1 200:1 201:1 202:1 
-3 71:1 74:1 77:1 87:1 90:1 92:1 103:1 104:1 105:1 106:1 107:1 108:1 119:1 122:1 133:1 134:1 135:1 136:1 137:1 138:1 139:1 140:1 141:1 149:1 151:1 154:1 165:1 167:1 170:1 171:1 172:1 181:1 183:1 184:1 186:1 188:1 199:1 200:1 201:1 202:1 
