svm_type c_svc
kernel_type rbf
gamma 0.015625
nr_class 2
total_sv 42
rho -1.54653
label -1 1
nr_sv 37 5
SV
0.7210253906876337 200:1 
1.277544242234627 77:1 92:1 93:1 106:1 107:1 108:1 118:1 119:1 120:1 121:1 122:1 136:1 152:1 157:1 168:1 170:1 171:1 172:1 173:1 184:1 185:1 186:1 187:1 188:1 
0.552736694791979 71:1 87:1 93:1 104:1 105:1 109:1 122:1 124:1 133:1 136:1 137:1 138:1 139:1 140:1 149:1 150:1 151:1 156:1 172:1 173:1 189:1 
0.05672405674867689 77:1 93:1 109:1 117:1 118:1 119:1 120:1 121:1 122:1 123:1 124:1 125:1 136:1 141:1 152:1 157:1 168:1 173:1 184:1 189:1 200:1 205:1 
0.08597641487424429 77:1 86:1 89:1 93:1 105:1 109:1 119:1 120:1 121:1 122:1 123:1 124:1 125:1 137:1 141:1 153:1 157:1 169:1 171:1 172:1 173:1 182:1 183:1 184:1 185:1 186:1 187:1 188:1 189:1 205:1 
0.04513895314607042 118:1 119:1 120:1 121:1 122:1 124:1 133:1 138:1 140:1 154:1 156:1 157:1 166:1 170:1 171:1 182:1 186:1 200:1 
0.05615808787484074 77:1 86:1 93:1 102:1 103:1 104:1 105:1 106:1 107:1 108:1 109:1 118:1 125:1 141:1 149:1 157:1 165:1 173:1 181:1 184:1 189:1 200:1 205:1 
0.3715058100651567 88:1 104:1 107:1 108:1 120:1 122:1 123:1 134:1 135:1 136:1 137:1 152:1 154:1 157:1 168:1 171:1 172:1 174:1 184:1 189:1 
0.7437280544824241 88:1 89:1 90:1 91:1 92:1 93:1 107:1 121:1 122:1 134:1 135:1 137:1 154:1 171:1 173:1 181:1 183:1 184:1 185:1 186:1 187:1 188:1 189:1 197:1 
0.4580622385020245 77:1 85:1 88:1 92:1 93:1 102:1 103:1 104:1 107:1 108:1 120:1 121:1 122:1 133:1 134:1 135:1 136:1 138:1 152:1 154:1 157:1 168:1 171:1 173:1 184:1 186:1 187:1 188:1 189:1 200:1 201:1 
0.4083410751812855 150:1 167:1 168:1 169:1 170:1 171:1 172:1 188:1 189:1 205:1 
0.1002888414373791 77:1 85:1 86:1 92:1 93:1 101:1 102:1 103:1 104:1 108:1 120:1 121:1 122:1 123:1 137:1 138:1 139:1 152:1 153:1 155:1 156:1 165:1 166:1 167:1 172:1 188:1 189:1 205:1 
0.180277900105817 77:1 92:1 107:1 118:1 119:1 120:1 121:1 165:1 166:1 167:1 168:1 173:1 181:1 188:1 189:1 200:1 201:1 202:1 
0.7109125491827625 74:1 89:1 92:1 104:1 108:1 118:1 119:1 123:1 124:1 133:1 137:1 138:1 140:1 152:1 156:1 171:1 172:1 187:1 188:1 
0.1842038346726867 101:1 102:1 103:1 104:1 105:1 106:1 107:1 108:1 109:1 125:1 141:1 157:1 173:1 188:1 189:1 
0.7738129824793771 76:1 86:1 92:1 102:1 108:1 118:1 124:1 134:1 140:1 150:1 156:1 166:1 172:1 182:1 188:1 204:1 
0.4297321667341363 72:1 88:1 104:1 120:1 125:1 136:1 137:1 138:1 139:1 140:1 141:1 152:1 168:1 184:1 200:1 
0.667774299530465 72:1 77:1 85:1 88:1 92:1 104:1 106:1 107:1 108:1 120:1 136:1 152:1 168:1 173:1 181:1 184:1 200:1 
0.1672600269845021 72:1 77:1 92:1 107:1 108:1 181:1 
0.3165540139893411 77:1 88:1 120:1 121:1 122:1 123:1 124:1 136:1 152:1 168:1 169:1 170:1 171:1 172:1 184:1 
0.2158461390285772 77:1 88:1 91:1 93:1 104:1 107:1 109:1 118:1 119:1 120:1 121:1 122:1 123:1 124:1 125:1 136:1 139:1 141:1 150:1 151:1 152:1 153:1 154:1 155:1 156:1 157:1 168:1 171:1 173:1 184:1 187:1 189:1 200:1 201:1 202:1 203:1 205:1 
0.3062981791954659 73:1 88:1 93:1 104:1 109:1 122:1 124:1 133:1 134:1 139:1 140:1 151:1 153:1 154:1 156:1 168:1 173:1 182:1 184:1 189:1 198:1 205:1 
0.3106052266770927 77:1 78:1 92:1 93:1 107:1 108:1 121:1 122:1 123:1 133:1 134:1 135:1 136:1 153:1 154:1 171:1 172:1 188:1 189:1 205:1 
0.3142239000438761 77:1 92:1 93:1 107:1 108:1 121:1 122:1 123:1 133:1 134:1 135:1 136:1 137:1 153:1 154:1 171:1 172:1 188:1 189:1 205:1 
1.919967351041767 77:1 92:1 107:1 108:1 120:1 121:1 122:1 133:1 134:1 135:1 136:1 153:1 154:1 171:1 172:1 188:1 189:1 
0.2261882214190947 72:1 88:1 93:1 103:1 104:1 107:1 108:1 109:1 118:1 120:1 133:1 150:1 152:1 153:1 154:1 155:1 156:1 157:1 167:1 184:1 200:1 
0.8062774381860459 73:1 86:1 87:1 88:1 89:1 90:1 91:1 92:1 93:1 101:1 102:1 109:1 121:1 122:1 123:1 124:1 125:1 136:1 141:1 154:1 156:1 170:1 171:1 172:1 181:1 184:1 185:1 189:1 197:1 205:1 
0.2875034264058223 72:1 73:1 85:1 86:1 87:1 88:1 89:1 90:1 91:1 92:1 93:1 94:1 101:1 104:1 110:1 119:1 120:1 121:1 122:1 125:1 137:1 139:1 140:1 141:1 153:1 156:1 157:1 169:1 171:1 172:1 173:1 182:1 183:1 184:1 185:1 186:1 187:1 189:1 200:1 206:1 
0.243934140462956 72:1 73:1 86:1 87:1 88:1 89:1 90:1 91:1 92:1 93:1 101:1 102:1 109:1 122:1 123:1 124:1 125:1 136:1 149:1 152:1 165:1 168:1 169:1 170:1 171:1 172:1 173:1 181:1 184:1 189:1 200:1 
0.1327558558065212 72:1 77:1 88:1 92:1 104:1 105:1 106:1 107:1 119:1 123:1 125:1 133:1 140:1 141:1 150:1 151:1 155:1 156:1 167:1 169:1 170:1 171:1 184:1 188:1 200:1 205:1 
0.4445153206341805 72:1 77:1 78:1 87:1 88:1 91:1 92:1 93:1 103:1 105:1 106:1 107:1 118:1 123:1 124:1 126:1 133:1 140:1 141:1 150:1 154:1 155:1 156:1 167:1 168:1 169:1 170:1 171:1 172:1 183:1 184:1 188:1 189:1 200:1 205:1 206:1 
0.3712504986251715 72:1 86:1 87:1 88:1 89:1 90:1 91:1 92:1 93:1 101:1 109:1 117:1 121:1 122:1 123:1 124:1 136:1 152:1 153:1 168:1 170:1 171:1 184:1 187:1 188:1 205:1 
0.2527150634014403 72:1 86:1 87:1 88:1 89:1 90:1 91:1 92:1 93:1 101:1 117:1 118:1 119:1 120:1 121:1 122:1 123:1 124:1 125:1 140:1 156:1 172:1 188:1 197:1 198:1 199:1 200:1 201:1 202:1 203:1 204:1 205:1 
0.1187460747729423 72:1 88:1 90:1 92:1 93:1 103:1 104:1 106:1 107:1 108:1 118:1 119:1 120:1 122:1 125:1 133:1 136:1 137:1 138:1 139:1 140:1 141:1 150:1 152:1 154:1 167:1 168:1 170:1 171:1 172:1 183:1 184:1 186:1 188:1 189:1 200:1 
0.03513062958290418 73:1 86:1 87:1 88:1 89:1 90:1 91:1 92:1 93:1 101:1 121:1 122:1 136:1 137:1 141:1 149:1 150:1 151:1 152:1 156:1 169:1 171:1 184:1 185:1 188:1 198:1 
0.128576842036656 72:1 86:1 87:1 88:1 89:1 90:1 91:1 92:1 93:1 101:1 118:1 119:1 122:1 124:1 138:1 140:1 154:1 156:1 157:1 170:1 172:1 186:1 188:1 198:1 199:1 200:1 201:1 202:1 204:1 
0.5777080589740564 72:1 86:1 87:1 88:1 89:1 90:1 91:1 92:1 93:1 101:1 107:1 117:1 118:1 119:1 120:1 121:1 122:1 125:1 136:1 140:1 152:1 168:1 172:1 188:1 205:1 
-3 72:1 88:1 92:1 101:1 104:1 107:1 108:1 120:1 122:1 124:1 136:1 137:1 140:1 152:1 156:1 168:1 171:1 172:1 181:1 184:1 188:1 200:1 
-3 77:1 92:1 93:1 107:1 108:1 109:1 121:1 122:1 125:1 141:1 157:1 171:1 172:1 173:1 188:1 189:1 205:1 
-3 72:1 88:1 92:1 93:1 104:1 107:1 109:1 120:1 121:1 122:1 136:1 152:1 156:1 168:1 171:1 172:1 184:1 188:1 189:1 200:1 
-3 86:1 92:1 93:1 107:1 121:1 122:1 124:1 140:1 154:1 156:1 171:1 172:1 184:1 187:1 188:1 189:1 200:1 
-3 86:1 92:1 93:1 107:1 121:1 122:1 124:1 140:1 154:1 156:1 171:1 172:1 184:1 187:1 188:1 189:1 200:1 
