svm_type c_svc
kernel_type rbf
gamma 0.015625
nr_class 2
total_sv 34
rho -1.5284
label -1 1
nr_sv 29 5
SV
3 200:1 
3 200:1 
0.3087624603909051 73:1 89:1 104:1 117:1 118:1 119:1 120:1 121:1 122:1 123:1 124:1 125:1 136:1 141:1 152:1 168:1 184:1 189:1 200:1 203:1 204:1 205:1 
0.08349999541969756 134:1 135:1 136:1 137:1 138:1 139:1 140:1 141:1 197:1 
0.05515511156749754 69:1 75:1 90:1 105:1 106:1 120:1 134:1 135:1 150:1 197:1 
0.8113747225486608 77:1 133:1 136:1 152:1 168:1 184:1 
0.05805956158706134 87:1 88:1 89:1 134:1 135:1 136:1 137:1 157:1 173:1 183:1 187:1 188:1 189:1 197:1 201:1 
0.6505149065420732 88:1 104:1 107:1 108:1 120:1 122:1 123:1 134:1 135:1 136:1 137:1 152:1 154:1 157:1 168:1 171:1 172:1 174:1 184:1 189:1 
0.1913950375022538 120:1 136:1 137:1 153:1 154:1 
1.596020681632343 124:1 133:1 134:1 135:1 136:1 137:1 138:1 
0.4652620366578579 71:1 87:1 88:1 103:1 104:1 105:1 118:1 119:1 122:1 134:1 135:1 150:1 154:1 166:1 168:1 169:1 170:1 182:1 184:1 198:1 
0.2660467009658281 74:1 77:1 93:1 102:1 103:1 104:1 105:1 106:1 108:1 118:1 120:1 136:1 149:1 152:1 165:1 168:1 184:1 202:1 
0.3906546914482046 86:1 90:1 91:1 92:1 102:1 105:1 106:1 118:1 120:1 121:1 134:1 135:1 136:1 150:1 151:1 166:1 188:1 203:1 204:1 
0.04074278728930413 72:1 86:1 87:1 101:1 102:1 109:1 118:1 134:1 135:1 136:1 137:1 138:1 139:1 140:1 141:1 150:1 166:1 182:1 184:1 198:1 199:1 200:1 
0.237198663332735 72:1 85:1 88:1 101:1 104:1 117:1 118:1 120:1 125:1 133:1 135:1 136:1 137:1 138:1 139:1 140:1 141:1 149:1 150:1 151:1 152:1 165:1 168:1 181:1 184:1 200:1 
1.122454570657689 72:1 88:1 104:1 120:1 125:1 136:1 137:1 138:1 139:1 140:1 141:1 152:1 168:1 184:1 200:1 
0.0343478113874606 125:1 134:1 135:1 136:1 137:1 138:1 139:1 140:1 141:1 181:1 184:1 200:1 
0.05361600299711324 72:1 88:1 90:1 103:1 104:1 105:1 106:1 118:1 119:1 120:1 122:1 136:1 138:1 141:1 142:1 152:1 154:1 158:1 168:1 170:1 173:1 184:1 186:1 187:1 188:1 189:1 200:1 
0.2016565424682211 72:1 88:1 92:1 93:1 104:1 107:1 109:1 120:1 121:1 122:1 136:1 152:1 156:1 168:1 171:1 172:1 184:1 188:1 189:1 200:1 
0.8197053174674061 72:1 77:1 85:1 88:1 92:1 104:1 106:1 107:1 108:1 120:1 136:1 152:1 168:1 173:1 181:1 184:1 200:1 
0.4773504977255932 77:1 86:1 87:1 88:1 133:1 134:1 135:1 136:1 170:1 182:1 183:1 184:1 186:1 
0.09242759372000423 77:1 86:1 88:1 89:1 90:1 91:1 92:1 102:1 104:1 118:1 119:1 120:1 133:1 134:1 136:1 149:1 150:1 152:1 166:1 167:1 168:1 182:1 184:1 200:1 
0.2466463240521177 73:1 74:1 88:1 89:1 103:1 104:1 118:1 119:1 133:1 
0.05849190050784477 75:1 77:1 91:1 106:1 120:1 121:1 133:1 134:1 135:1 136:1 152:1 153:1 170:1 187:1 203:1 205:1 
0.007171206879192551 73:1 74:1 89:1 104:1 118:1 119:1 122:1 123:1 133:1 134:1 135:1 139:1 140:1 151:1 152:1 156:1 168:1 169:1 185:1 201:1 202:1 
0.3033549347549235 72:1 86:1 87:1 88:1 89:1 90:1 91:1 92:1 93:1 101:1 117:1 118:1 119:1 120:1 121:1 122:1 136:1 152:1 168:1 184:1 
0.3123641854924088 72:1 86:1 87:1 88:1 89:1 90:1 91:1 92:1 93:1 101:1 106:1 118:1 121:1 134:1 135:1 136:1 140:1 149:1 150:1 168:1 173:1 188:1 198:1 200:1 
0.006654014886523058 73:1 86:1 87:1 88:1 89:1 90:1 91:1 92:1 93:1 101:1 102:1 118:1 121:1 135:1 136:1 150:1 151:1 
0.10907174011908 72:1 86:1 87:1 88:1 89:1 90:1 91:1 92:1 93:1 101:1 109:1 120:1 134:1 135:1 136:1 152:1 153:1 154:1 155:1 156:1 167:1 168:1 181:1 184:1 186:1 
-3 119:1 136:1 
-3 72:1 88:1 104:1 120:1 134:1 135:1 136:1 152:1 168:1 184:1 200:1 
-3 72:1 88:1 104:1 118:1 120:1 134:1 135:1 136:1 152:1 168:1 184:1 200:1 
-3 118:1 135:1 136:1 200:1 
-3 118:1 135:1 136:1 200:1 
