svm_type c_svc
kernel_type rbf
gamma 0.015625
nr_class 2
total_sv 39
rho -1.48583
label -1 1
nr_sv 34 5
SV
0.4449301494514341 70:1 72:1 86:1 88:1 102:1 104:1 105:1 106:1 108:1 117:1 118:1 119:1 120:1 122:1 124:1 133:1 134:1 136:1 138:1 141:1 150:1 152:1 154:1 156:1 157:1 166:1 168:1 170:1 171:1 172:1 174:1 182:1 184:1 186:1 187:1 198:1 200:1 
0.03064717339287356 77:1 87:1 88:1 105:1 106:1 117:1 118:1 119:1 120:1 121:1 122:1 123:1 124:1 149:1 150:1 151:1 152:1 153:1 154:1 155:1 156:1 169:1 170:1 183:1 184:1 205:1 
0.008630005908324068 74:1 75:1 76:1 77:1 87:1 88:1 89:1 105:1 118:1 119:1 120:1 121:1 137:1 150:1 151:1 152:1 153:1 169:1 183:1 184:1 185:1 199:1 201:1 
0.967544634325897 72:1 87:1 102:1 103:1 118:1 119:1 136:1 137:1 138:1 153:1 154:1 155:1 171:1 172:1 188:1 205:1 
0.3217413204206827 69:1 85:1 150:1 151:1 152:1 153:1 169:1 170:1 171:1 172:1 188:1 189:1 205:1 
0.1770065911675667 89:1 93:1 104:1 108:1 117:1 118:1 119:1 123:1 135:1 136:1 137:1 138:1 151:1 152:1 153:1 154:1 171:1 172:1 188:1 189:1 205:1 
0.8090589124353009 70:1 73:1 74:1 86:1 89:1 90:1 102:1 105:1 106:1 118:1 121:1 134:1 137:1 141:1 150:1 153:1 166:1 169:1 182:1 185:1 189:1 198:1 201:1 203:1 204:1 205:1 
0.551644848239587 74:1 89:1 93:1 104:1 108:1 118:1 119:1 123:1 133:1 137:1 138:1 152:1 153:1 156:1 167:1 170:1 171:1 172:1 187:1 188:1 205:1 
0.6289888150509713 70:1 72:1 73:1 77:1 85:1 86:1 87:1 88:1 90:1 92:1 93:1 102:1 105:1 106:1 108:1 118:1 119:1 120:1 121:1 122:1 123:1 124:1 138:1 139:1 150:1 151:1 152:1 153:1 154:1 155:1 166:1 168:1 170:1 173:1 182:1 184:1 189:1 198:1 199:1 200:1 201:1 204:1 205:1 
0.07990398167444103 70:1 71:1 72:1 73:1 74:1 75:1 76:1 77:1 85:1 86:1 87:1 88:1 89:1 90:1 91:1 92:1 101:1 102:1 103:1 104:1 105:1 106:1 107:1 108:1 119:1 120:1 121:1 122:1 123:1 136:1 137:1 138:1 139:1 150:1 151:1 152:1 153:1 155:1 166:1 167:1 168:1 169:1 170:1 171:1 172:1 184:1 187:1 188:1 198:1 200:1 201:1 203:1 204:1 205:1 
1.003868550329097 72:1 86:1 88:1 89:1 90:1 102:1 104:1 105:1 106:1 118:1 120:1 122:1 134:1 136:1 138:1 141:1 142:1 150:1 152:1 154:1 158:1 166:1 168:1 170:1 173:1 182:1 184:1 186:1 187:1 188:1 189:1 200:1 
0.02375067644934527 71:1 87:1 103:1 104:1 105:1 106:1 107:1 108:1 119:1 133:1 134:1 135:1 150:1 151:1 167:1 183:1 188:1 199:1 
0.1035371117302985 70:1 77:1 86:1 89:1 91:1 93:1 102:1 104:1 105:1 107:1 109:1 118:1 119:1 122:1 124:1 133:1 134:1 137:1 138:1 139:1 140:1 150:1 152:1 153:1 155:1 166:1 168:1 169:1 170:1 172:1 182:1 185:1 189:1 198:1 205:1 
1.657944683128942 70:1 77:1 86:1 89:1 90:1 91:1 102:1 118:1 119:1 120:1 133:1 134:1 150:1 152:1 166:1 167:1 182:1 198:1 200:1 
0.1584114729164889 70:1 86:1 87:1 89:1 90:1 92:1 102:1 104:1 105:1 106:1 107:1 118:1 125:1 133:1 134:1 138:1 139:1 140:1 141:1 149:1 150:1 166:1 170:1 171:1 182:1 183:1 185:1 186:1 187:1 188:1 198:1 
0.02087372064017717 70:1 74:1 75:1 78:1 86:1 87:1 88:1 89:1 90:1 93:1 102:1 103:1 106:1 107:1 108:1 109:1 118:1 119:1 122:1 123:1 133:1 134:1 135:1 138:1 139:1 150:1 151:1 154:1 155:1 166:1 167:1 170:1 171:1 172:1 173:1 182:1 183:1 184:1 185:1 186:1 198:1 202:1 203:1 205:1 
1.075099344720301 70:1 86:1 87:1 88:1 89:1 90:1 92:1 93:1 102:1 103:1 105:1 106:1 108:1 109:1 118:1 119:1 121:1 122:1 124:1 125:1 133:1 134:1 135:1 137:1 138:1 140:1 141:1 150:1 151:1 153:1 154:1 156:1 157:1 166:1 167:1 169:1 170:1 172:1 173:1 182:1 183:1 184:1 185:1 186:1 188:1 189:1 198:1 
0.05499385148889995 70:1 86:1 87:1 88:1 89:1 90:1 92:1 102:1 103:1 106:1 107:1 108:1 118:1 119:1 122:1 123:1 125:1 133:1 134:1 135:1 138:1 139:1 140:1 141:1 150:1 151:1 154:1 166:1 167:1 170:1 171:1 182:1 183:1 184:1 185:1 186:1 187:1 188:1 198:1 204:1 
0.4419647618681222 70:1 71:1 73:1 77:1 87:1 89:1 90:1 92:1 102:1 103:1 104:1 105:1 106:1 107:1 108:1 109:1 119:1 122:1 123:1 125:1 133:1 135:1 136:1 137:1 138:1 150:1 151:1 152:1 153:1 155:1 156:1 167:1 171:1 172:1 183:1 184:1 185:1 186:1 187:1 189:1 198:1 201:1 202:1 205:1 
0.7270600275586083 72:1 73:1 88:1 90:1 103:1 106:1 118:1 120:1 122:1 133:1 136:1 137:1 138:1 150:1 151:1 154:1 157:1 167:1 170:1 171:1 172:1 184:1 186:1 187:1 200:1 201:1 
0.01613142955760468 77:1 88:1 92:1 104:1 108:1 118:1 119:1 122:1 123:1 133:1 134:1 137:1 138:1 151:1 155:1 168:1 172:1 184:1 188:1 189:1 205:1 
0.01394994867647217 72:1 73:1 88:1 103:1 104:1 105:1 106:1 107:1 108:1 109:1 118:1 119:1 122:1 125:1 133:1 134:1 138:1 141:1 150:1 151:1 153:1 154:1 157:1 167:1 168:1 169:1 173:1 184:1 187:1 188:1 189:1 200:1 
0.3867292477468837 72:1 73:1 86:1 87:1 88:1 89:1 90:1 91:1 92:1 93:1 101:1 102:1 109:1 119:1 120:1 133:1 134:1 135:1 137:1 149:1 150:1 151:1 153:1 154:1 166:1 167:1 173:1 182:1 183:1 189:1 198:1 199:1 200:1 201:1 202:1 203:1 204:1 
0.1395516755181259 73:1 87:1 88:1 101:1 102:1 104:1 105:1 106:1 107:1 108:1 109:1 120:1 136:1 149:1 150:1 151:1 152:1 153:1 154:1 171:1 172:1 182:1 188:1 189:1 204:1 205:1 
0.1626874176307734 72:1 86:1 87:1 88:1 89:1 90:1 91:1 92:1 93:1 101:1 102:1 109:1 119:1 125:1 133:1 136:1 137:1 138:1 140:1 150:1 151:1 154:1 155:1 156:1 169:1 170:1 171:1 172:1 182:1 183:1 184:1 188:1 205:1 
0.1707563383201115 72:1 73:1 87:1 88:1 89:1 90:1 91:1 92:1 93:1 101:1 102:1 119:1 120:1 121:1 125:1 139:1 140:1 149:1 150:1 151:1 152:1 153:1 154:1 170:1 171:1 172:1 183:1 184:1 188:1 189:1 199:1 205:1 
0.1383154127273033 72:1 73:1 85:1 86:1 87:1 88:1 89:1 90:1 91:1 92:1 93:1 94:1 101:1 109:1 110:1 118:1 119:1 120:1 121:1 122:1 123:1 124:1 134:1 137:1 150:1 153:1 154:1 166:1 169:1 171:1 172:1 182:1 185:1 188:1 189:1 198:1 199:1 200:1 201:1 205:1 206:1 
0.2604109894626196 73:1 87:1 88:1 89:1 90:1 91:1 92:1 93:1 101:1 102:1 109:1 118:1 120:1 121:1 122:1 124:1 134:1 138:1 139:1 149:1 150:1 151:1 152:1 153:1 154:1 166:1 171:1 172:1 182:1 183:1 184:1 187:1 189:1 198:1 205:1 
0.008893157252099111 86:1 87:1 88:1 89:1 90:1 91:1 92:1 93:1 101:1 102:1 118:1 119:1 124:1 137:1 138:1 139:1 149:1 150:1 151:1 152:1 168:1 169:1 170:1 171:1 172:1 173:1 182:1 183:1 189:1 200:1 203:1 204:1 205:1 
0.8230656699711167 72:1 73:1 86:1 87:1 88:1 89:1 90:1 91:1 92:1 93:1 94:1 101:1 102:1 106:1 110:1 118:1 120:1 122:1 125:1 134:1 138:1 139:1 140:1 149:1 150:1 151:1 152:1 153:1 154:1 155:1 166:1 170:1 171:1 172:1 182:1 184:1 185:1 186:1 188:1 189:1 198:1 200:1 202:1 205:1 
0.1313358672338819 72:1 86:1 87:1 88:1 89:1 90:1 91:1 92:1 93:1 101:1 118:1 122:1 133:1 134:1 137:1 139:1 149:1 150:1 151:1 152:1 153:1 154:1 155:1 157:1 166:1 167:1 169:1 171:1 173:1 181:1 182:1 185:1 187:1 188:1 189:1 200:1 
0.01087799116016707 72:1 86:1 87:1 88:1 89:1 90:1 91:1 92:1 93:1 101:1 105:1 106:1 118:1 119:1 120:1 123:1 125:1 134:1 136:1 137:1 138:1 139:1 141:1 149:1 150:1 152:1 153:1 155:1 156:1 166:1 168:1 171:1 172:1 182:1 184:1 186:1 188:1 198:1 200:1 202:1 205:1 
0.395013214297515 72:1 86:1 87:1 88:1 89:1 90:1 91:1 92:1 93:1 101:1 104:1 105:1 118:1 119:1 120:1 121:1 122:1 123:1 133:1 134:1 137:1 150:1 152:1 153:1 154:1 155:1 166:1 169:1 172:1 173:1 182:1 183:1 184:1 185:1 186:1 187:1 188:1 198:1 201:1 
0.03468337275319838 72:1 87:1 90:1 92:1 102:1 103:1 106:1 108:1 118:1 119:1 122:1 124:1 126:1 133:1 135:1 149:1 150:1 151:1 166:1 167:1 174:1 183:1 189:1 190:1 199:1 200:1 
-3 70:1 72:1 87:1 89:1 90:1 104:1 105:1 106:1 116:1 118:1 119:1 122:1 133:1 137:1 138:1 150:1 151:1 152:1 153:1 154:1 167:1 170:1 171:1 172:1 183:1 188:1 189:1 198:1 200:1 205:1 
-3 70:1 72:1 73:1 86:1 87:1 88:1 89:1 90:1 102:1 105:1 118:1 119:1 120:1 133:1 134:1 137:1 150:1 153:1 166:1 182:1 183:1 184:1 187:1 188:1 189:1 198:1 200:1 201:1 205:1 
-2.458896330943544 72:1 86:1 87:1 88:1 89:1 90:1 102:1 105:1 106:1 118:1 119:1 120:1 122:1 133:1 134:1 137:1 138:1 150:1 151:1 152:1 153:1 154:1 166:1 170:1 171:1 172:1 182:1 183:1 184:1 188:1 189:1 198:1 200:1 205:1 
-0.7913924647165165 70:1 86:1 87:1 88:1 89:1 90:1 102:1 105:1 106:1 118:1 119:1 122:1 133:1 134:1 137:1 138:1 150:1 151:1 152:1 153:1 154:1 166:1 167:1 170:1 171:1 172:1 182:1 184:1 188:1 189:1 198:1 200:1 205:1 
-2.72971356954517 70:1 86:1 87:1 88:1 89:1 90:1 102:1 105:1 106:1 118:1 119:1 122:1 133:1 134:1 137:1 138:1 150:1 151:1 152:1 153:1 154:1 166:1 167:1 170:1 171:1 172:1 182:1 184:1 188:1 189:1 198:1 200:1 205:1 
