svm_type c_svc
kernel_type rbf
gamma 0.015625
nr_class 2
total_sv 45
rho -1.44111
label -1 1
nr_sv 40 5
SV
0.09846257544905342 77:1 85:1 88:1 92:1 93:1 102:1 103:1 104:1 107:1 108:1 120:1 121:1 122:1 133:1 134:1 135:1 136:1 138:1 152:1 154:1 157:1 168:1 171:1 173:1 184:1 186:1 187:1 188:1 189:1 200:1 201:1 
0.02280724973411364 73:1 101:1 102:1 103:1 104:1 105:1 106:1 107:1 108:1 120:1 125:1 141:1 151:1 155:1 157:1 167:1 168:1 169:1 170:1 173:1 189:1 204:1 205:1 
0.2361570096178416 72:1 87:1 101:1 102:1 104:1 108:1 109:1 117:1 118:1 120:1 123:1 125:1 134:1 136:1 138:1 141:1 150:1 152:1 153:1 157:1 166:1 168:1 173:1 182:1 184:1 189:1 198:1 204:1 205:1 
1.276625383851544 71:1 72:1 86:1 87:1 88:1 92:1 93:1 101:1 102:1 104:1 107:1 108:1 109:1 118:1 120:1 122:1 123:1 134:1 136:1 138:1 150:1 152:1 153:1 154:1 166:1 168:1 169:1 173:1 182:1 189:1 198:1 203:1 204:1 205:1 
0.06592221400780288 72:1 73:1 76:1 77:1 86:1 87:1 89:1 91:1 92:1 93:1 101:1 102:1 105:1 106:1 109:1 120:1 121:1 123:1 124:1 125:1 141:1 173:1 203:1 204:1 205:1 
0.2294149806266262 92:1 93:1 107:1 109:1 123:1 125:1 136:1 138:1 141:1 154:1 157:1 167:1 169:1 170:1 173:1 181:1 184:1 189:1 197:1 204:1 205:1 
0.1924063171612818 70:1 73:1 77:1 86:1 87:1 89:1 92:1 93:1 102:1 103:1 104:1 105:1 107:1 108:1 118:1 121:1 123:1 137:1 138:1 152:1 153:1 154:1 165:1 167:1 169:1 173:1 181:1 183:1 185:1 189:1 197:1 203:1 204:1 205:1 
0.1215381772314594 72:1 86:1 88:1 89:1 92:1 93:1 101:1 102:1 103:1 104:1 105:1 107:1 108:1 109:1 117:1 118:1 120:1 121:1 123:1 125:1 134:1 137:1 139:1 141:1 149:1 150:1 151:1 152:1 153:1 154:1 157:1 169:1 170:1 173:1 183:1 185:1 186:1 189:1 199:1 204:1 205:1 
0.5778707540954479 72:1 86:1 88:1 92:1 93:1 102:1 103:1 104:1 107:1 109:1 117:1 118:1 123:1 125:1 138:1 141:1 149:1 150:1 151:1 152:1 153:1 154:1 157:1 169:1 170:1 173:1 189:1 199:1 204:1 205:1 
0.1672108298135215 69:1 72:1 85:1 87:1 89:1 92:1 93:1 101:1 102:1 103:1 104:1 105:1 107:1 108:1 109:1 117:1 120:1 121:1 123:1 125:1 133:1 136:1 137:1 141:1 149:1 152:1 153:1 154:1 157:1 165:1 168:1 169:1 170:1 173:1 181:1 182:1 183:1 184:1 185:1 189:1 197:1 203:1 204:1 
0.722068691044136 70:1 71:1 72:1 73:1 77:1 87:1 89:1 90:1 92:1 93:1 101:1 103:1 104:1 105:1 106:1 108:1 117:1 118:1 119:1 120:1 122:1 123:1 124:1 138:1 139:1 150:1 151:1 152:1 153:1 154:1 155:1 166:1 168:1 170:1 173:1 182:1 184:1 189:1 198:1 199:1 200:1 204:1 205:1 
0.3239340796266771 86:1 87:1 89:1 90:1 92:1 93:1 105:1 107:1 109:1 117:1 118:1 119:1 120:1 123:1 125:1 141:1 149:1 150:1 151:1 152:1 153:1 154:1 157:1 169:1 170:1 173:1 184:1 189:1 204:1 205:1 
0.07559026351269824 70:1 71:1 73:1 75:1 76:1 91:1 93:1 102:1 103:1 106:1 107:1 108:1 109:1 117:1 119:1 120:1 121:1 133:1 134:1 138:1 149:1 150:1 151:1 152:1 153:1 154:1 155:1 156:1 173:1 189:1 204:1 
0.1444912002716199 70:1 72:1 73:1 74:1 77:1 85:1 86:1 87:1 88:1 89:1 90:1 92:1 93:1 102:1 103:1 106:1 108:1 109:1 118:1 119:1 121:1 122:1 123:1 124:1 125:1 134:1 135:1 136:1 138:1 139:1 141:1 150:1 151:1 154:1 155:1 157:1 167:1 170:1 173:1 183:1 184:1 185:1 189:1 197:1 199:1 204:1 205:1 
0.8724956843330244 70:1 73:1 75:1 86:1 87:1 88:1 89:1 91:1 101:1 102:1 105:1 106:1 107:1 108:1 109:1 118:1 119:1 120:1 121:1 123:1 134:1 137:1 139:1 149:1 150:1 151:1 152:1 153:1 154:1 155:1 156:1 157:1 173:1 189:1 204:1 205:1 
0.3661639280308799 70:1 71:1 73:1 77:1 85:1 87:1 88:1 90:1 92:1 93:1 102:1 104:1 106:1 108:1 118:1 119:1 121:1 122:1 123:1 124:1 134:1 137:1 138:1 139:1 149:1 150:1 151:1 152:1 154:1 155:1 168:1 170:1 173:1 182:1 184:1 189:1 198:1 199:1 204:1 205:1 
0.7995787043536127 70:1 73:1 85:1 87:1 88:1 90:1 92:1 93:1 101:1 102:1 104:1 106:1 108:1 109:1 119:1 121:1 122:1 123:1 125:1 134:1 137:1 138:1 139:1 141:1 149:1 150:1 151:1 154:1 155:1 157:1 168:1 170:1 173:1 182:1 184:1 186:1 189:1 198:1 199:1 204:1 205:1 
1.460042367367878 70:1 72:1 74:1 85:1 87:1 88:1 89:1 90:1 92:1 93:1 101:1 103:1 106:1 108:1 109:1 119:1 121:1 122:1 123:1 125:1 134:1 137:1 138:1 139:1 141:1 149:1 150:1 151:1 152:1 154:1 157:1 168:1 170:1 173:1 182:1 184:1 186:1 189:1 198:1 199:1 204:1 205:1 
0.4903594381820939 70:1 73:1 86:1 87:1 88:1 90:1 92:1 93:1 101:1 103:1 105:1 106:1 108:1 109:1 119:1 120:1 122:1 123:1 125:1 135:1 138:1 139:1 141:1 150:1 151:1 154:1 157:1 165:1 167:1 169:1 170:1 173:1 182:1 184:1 185:1 186:1 189:1 199:1 204:1 205:1 
0.08866864962826482 70:1 72:1 73:1 74:1 77:1 85:1 86:1 87:1 89:1 90:1 92:1 93:1 102:1 103:1 105:1 106:1 108:1 118:1 119:1 120:1 122:1 123:1 124:1 134:1 135:1 138:1 139:1 150:1 151:1 153:1 154:1 155:1 165:1 169:1 170:1 171:1 173:1 182:1 184:1 185:1 189:1 199:1 204:1 205:1 
1.001205527164544 70:1 73:1 85:1 86:1 87:1 88:1 90:1 92:1 93:1 101:1 102:1 103:1 105:1 106:1 107:1 108:1 109:1 118:1 119:1 120:1 121:1 122:1 123:1 125:1 135:1 138:1 139:1 141:1 150:1 152:1 154:1 155:1 157:1 165:1 167:1 168:1 170:1 173:1 182:1 183:1 185:1 186:1 189:1 199:1 204:1 205:1 
0.2377345577553186 70:1 72:1 75:1 77:1 86:1 88:1 91:1 93:1 102:1 104:1 107:1 109:1 118:1 120:1 123:1 125:1 134:1 136:1 139:1 141:1 150:1 152:1 155:1 157:1 166:1 168:1 171:1 173:1 182:1 184:1 187:1 189:1 200:1 203:1 205:1 
0.02174864770198321 70:1 86:1 88:1 93:1 102:1 104:1 109:1 118:1 120:1 125:1 133:1 134:1 136:1 137:1 138:1 139:1 140:1 141:1 150:1 152:1 157:1 166:1 168:1 173:1 182:1 184:1 189:1 198:1 
0.2191855831230493 70:1 71:1 72:1 73:1 74:1 75:1 76:1 77:1 92:1 93:1 108:1 109:1 123:1 125:1 135:1 136:1 137:1 138:1 141:1 149:1 150:1 151:1 152:1 157:1 169:1 170:1 173:1 187:1 189:1 204:1 205:1 
0.2702058624270525 73:1 87:1 88:1 93:1 101:1 102:1 108:1 109:1 120:1 136:1 149:1 152:1 157:1 165:1 168:1 184:1 200:1 
0.5627734492985175 73:1 88:1 103:1 105:1 106:1 107:1 108:1 109:1 118:1 122:1 125:1 133:1 134:1 138:1 141:1 150:1 151:1 153:1 154:1 157:1 167:1 169:1 173:1 184:1 188:1 189:1 200:1 
0.1447629627099364 73:1 87:1 88:1 93:1 101:1 102:1 109:1 121:1 137:1 141:1 151:1 152:1 153:1 157:1 167:1 169:1 182:1 185:1 201:1 
0.3045391488997072 73:1 74:1 86:1 87:1 88:1 89:1 90:1 91:1 92:1 93:1 94:1 101:1 102:1 120:1 125:1 136:1 141:1 152:1 157:1 168:1 173:1 184:1 189:1 200:1 205:1 
0.00530190427594112 73:1 87:1 88:1 93:1 101:1 102:1 108:1 109:1 117:1 118:1 121:1 134:1 137:1 150:1 151:1 152:1 153:1 154:1 155:1 156:1 157:1 173:1 181:1 189:1 203:1 204:1 205:1 
0.3700389178368879 72:1 73:1 77:1 88:1 89:1 93:1 103:1 105:1 109:1 117:1 118:1 121:1 125:1 133:1 134:1 137:1 138:1 139:1 140:1 141:1 150:1 151:1 153:1 157:1 167:1 168:1 169:1 173:1 184:1 189:1 200:1 205:1 
0.2460552200040623 73:1 87:1 88:1 89:1 90:1 91:1 92:1 93:1 101:1 102:1 121:1 125:1 135:1 136:1 139:1 149:1 150:1 151:1 154:1 168:1 169:1 184:1 187:1 204:1 205:1 
0.2008006824716783 73:1 87:1 88:1 101:1 102:1 103:1 104:1 105:1 106:1 107:1 108:1 109:1 120:1 121:1 124:1 125:1 134:1 135:1 138:1 139:1 140:1 141:1 152:1 153:1 154:1 165:1 166:1 167:1 171:1 172:1 183:1 184:1 187:1 188:1 200:1 201:1 205:1 
0.4569043279851059 72:1 73:1 85:1 86:1 87:1 88:1 89:1 90:1 91:1 92:1 93:1 94:1 101:1 118:1 120:1 121:1 122:1 123:1 124:1 125:1 126:1 134:1 136:1 138:1 141:1 150:1 151:1 152:1 154:1 157:1 166:1 168:1 170:1 173:1 182:1 184:1 186:1 189:1 198:1 200:1 201:1 202:1 203:1 204:1 205:1 206:1 
0.9753578828495038 72:1 73:1 86:1 87:1 88:1 89:1 90:1 91:1 92:1 93:1 101:1 102:1 109:1 118:1 120:1 123:1 125:1 134:1 136:1 141:1 149:1 150:1 151:1 152:1 153:1 154:1 155:1 156:1 157:1 166:1 168:1 173:1 182:1 184:1 189:1 198:1 200:1 205:1 
0.04961406464488417 73:1 87:1 88:1 89:1 90:1 91:1 92:1 93:1 101:1 102:1 109:1 120:1 121:1 123:1 125:1 134:1 135:1 141:1 149:1 153:1 154:1 155:1 156:1 157:1 167:1 173:1 184:1 189:1 200:1 205:1 
0.03846647415973187 73:1 87:1 88:1 89:1 90:1 91:1 92:1 93:1 101:1 102:1 109:1 119:1 121:1 123:1 125:1 134:1 137:1 141:1 149:1 151:1 152:1 154:1 157:1 167:1 168:1 169:1 171:1 172:1 182:1 183:1 184:1 185:1 187:1 188:1 197:1 201:1 202:1 
0.7026247954313738 72:1 73:1 86:1 87:1 88:1 89:1 90:1 91:1 92:1 93:1 101:1 102:1 120:1 121:1 122:1 123:1 124:1 125:1 136:1 150:1 151:1 152:1 153:1 154:1 155:1 156:1 157:1 168:1 169:1 170:1 171:1 172:1 173:1 184:1 189:1 200:1 201:1 202:1 203:1 204:1 205:1 
0.3534449153071113 73:1 86:1 87:1 88:1 89:1 90:1 91:1 92:1 93:1 101:1 102:1 120:1 121:1 122:1 123:1 124:1 125:1 150:1 151:1 168:1 169:1 170:1 171:1 172:1 173:1 189:1 200:1 
0.1604089273769198 73:1 87:1 88:1 89:1 90:1 91:1 92:1 93:1 101:1 102:1 105:1 121:1 122:1 125:1 133:1 134:1 138:1 139:1 140:1 150:1 151:1 152:1 154:1 166:1 168:1 170:1 173:1 182:1 183:1 185:1 186:1 189:1 198:1 200:1 201:1 203:1 204:1 205:1 
0.3470176506371136 73:1 86:1 87:1 88:1 89:1 90:1 91:1 92:1 93:1 101:1 102:1 105:1 120:1 122:1 123:1 124:1 125:1 135:1 141:1 150:1 151:1 152:1 153:1 154:1 157:1 167:1 173:1 184:1 186:1 189:1 197:1 200:1 
-3 70:1 72:1 73:1 74:1 87:1 88:1 89:1 92:1 93:1 101:1 102:1 103:1 105:1 107:1 108:1 109:1 120:1 121:1 123:1 125:1 134:1 137:1 141:1 149:1 150:1 151:1 152:1 153:1 154:1 157:1 168:1 169:1 173:1 184:1 185:1 189:1 197:1 200:1 203:1 204:1 
-3 70:1 72:1 73:1 77:1 85:1 86:1 87:1 88:1 90:1 92:1 93:1 102:1 105:1 106:1 108:1 118:1 119:1 120:1 121:1 122:1 123:1 124:1 138:1 139:1 150:1 151:1 152:1 153:1 154:1 155:1 166:1 168:1 170:1 173:1 182:1 184:1 189:1 198:1 199:1 200:1 201:1 204:1 205:1 
-3 70:1 72:1 73:1 86:1 87:1 88:1 89:1 90:1 92:1 93:1 101:1 102:1 103:1 106:1 107:1 108:1 109:1 118:1 120:1 122:1 123:1 125:1 134:1 135:1 138:1 139:1 141:1 150:1 151:1 152:1 154:1 157:1 166:1 168:1 170:1 173:1 182:1 184:1 189:1 198:1 199:1 200:1 204:1 205:1 
-3 70:1 73:1 87:1 88:1 92:1 93:1 101:1 102:1 107:1 109:1 120:1 121:1 123:1 125:1 134:1 138:1 141:1 150:1 151:1 152:1 154:1 157:1 168:1 169:1 173:1 184:1 189:1 204:1 205:1 
-3 70:1 73:1 87:1 88:1 92:1 93:1 101:1 102:1 107:1 109:1 120:1 121:1 123:1 125:1 134:1 138:1 141:1 150:1 151:1 152:1 154:1 157:1 168:1 169:1 173:1 184:1 189:1 204:1 205:1 
