svm_type c_svc
kernel_type rbf
gamma 0.015625
nr_class 2
total_sv 40
rho -1.35712
label -1 1
nr_sv 35 5
SV
0.3809620868712231 77:1 86:1 89:1 93:1 105:1 109:1 119:1 120:1 121:1 122:1 123:1 124:1 125:1 137:1 141:1 153:1 157:1 169:1 171:1 172:1 173:1 182:1 183:1 184:1 185:1 186:1 187:1 188:1 189:1 205:1 
0.6525969215490666 77:1 93:1 101:1 102:1 103:1 104:1 105:1 106:1 107:1 108:1 109:1 117:1 120:1 122:1 125:1 133:1 136:1 138:1 141:1 149:1 152:1 154:1 157:1 165:1 166:1 167:1 168:1 169:1 170:1 171:1 172:1 173:1 189:1 205:1 
0.3882293168251382 72:1 75:1 76:1 77:1 88:1 90:1 93:1 104:1 105:1 106:1 108:1 109:1 124:1 125:1 135:1 136:1 137:1 138:1 139:1 140:1 141:1 151:1 152:1 157:1 166:1 169:1 170:1 173:1 182:1 184:1 186:1 187:1 189:1 200:1 203:1 204:1 205:1 
0.03209693948248166 71:1 72:1 73:1 77:1 87:1 90:1 91:1 92:1 93:1 101:1 102:1 103:1 109:1 119:1 120:1 121:1 122:1 123:1 124:1 125:1 135:1 141:1 150:1 151:1 152:1 153:1 154:1 155:1 156:1 157:1 165:1 166:1 167:1 173:1 181:1 183:1 186:1 187:1 188:1 189:1 199:1 200:1 201:1 205:1 
0.01285697574792614 70:1 71:1 72:1 73:1 74:1 75:1 76:1 101:1 102:1 103:1 104:1 105:1 106:1 107:1 108:1 109:1 119:1 120:1 133:1 134:1 137:1 141:1 150:1 151:1 153:1 166:1 167:1 168:1 169:1 182:1 185:1 198:1 201:1 202:1 203:1 204:1 205:1 
0.6391083642565708 73:1 88:1 101:1 102:1 103:1 104:1 105:1 106:1 107:1 108:1 120:1 125:1 136:1 141:1 151:1 154:1 155:1 157:1 167:1 168:1 169:1 170:1 173:1 183:1 184:1 185:1 186:1 189:1 204:1 205:1 
0.293165390359147 71:1 72:1 73:1 74:1 75:1 76:1 77:1 93:1 101:1 102:1 103:1 104:1 105:1 106:1 107:1 108:1 109:1 119:1 120:1 121:1 122:1 123:1 124:1 125:1 149:1 150:1 151:1 152:1 153:1 154:1 155:1 156:1 157:1 203:1 204:1 205:1 
0.05925986614838578 86:1 89:1 92:1 93:1 103:1 104:1 105:1 107:1 109:1 121:1 123:1 125:1 133:1 137:1 138:1 141:1 149:1 152:1 153:1 154:1 157:1 165:1 166:1 167:1 169:1 173:1 181:1 182:1 185:1 189:1 204:1 205:1 
0.06653722961500191 92:1 93:1 103:1 107:1 109:1 119:1 120:1 125:1 138:1 141:1 149:1 152:1 154:1 157:1 165:1 166:1 167:1 169:1 173:1 181:1 185:1 189:1 204:1 205:1 
0.1393699768333238 70:1 72:1 73:1 74:1 87:1 88:1 89:1 92:1 93:1 101:1 102:1 103:1 105:1 107:1 108:1 109:1 120:1 121:1 123:1 125:1 134:1 137:1 141:1 149:1 150:1 151:1 152:1 153:1 154:1 157:1 168:1 169:1 173:1 184:1 185:1 189:1 197:1 200:1 203:1 204:1 
0.5046824962771963 69:1 72:1 85:1 87:1 89:1 92:1 93:1 101:1 102:1 103:1 104:1 105:1 107:1 108:1 109:1 117:1 120:1 121:1 123:1 125:1 133:1 136:1 137:1 141:1 149:1 152:1 153:1 154:1 157:1 165:1 168:1 169:1 170:1 173:1 181:1 182:1 183:1 184:1 185:1 189:1 197:1 203:1 204:1 
0.1251219424673295 72:1 85:1 88:1 90:1 92:1 93:1 102:1 103:1 105:1 106:1 108:1 109:1 118:1 119:1 120:1 122:1 123:1 125:1 133:1 136:1 138:1 139:1 141:1 150:1 151:1 154:1 157:1 168:1 170:1 173:1 182:1 183:1 184:1 186:1 189:1 201:1 203:1 204:1 
0.9243215063928015 70:1 72:1 86:1 87:1 89:1 90:1 92:1 93:1 101:1 102:1 103:1 104:1 105:1 106:1 107:1 108:1 109:1 118:1 119:1 121:1 122:1 123:1 125:1 134:1 135:1 136:1 138:1 139:1 141:1 151:1 154:1 157:1 165:1 167:1 170:1 173:1 181:1 183:1 184:1 185:1 186:1 189:1 199:1 204:1 205:1 
0.2017258157230071 73:1 85:1 86:1 87:1 88:1 90:1 92:1 93:1 101:1 102:1 104:1 106:1 108:1 109:1 117:1 118:1 119:1 120:1 122:1 123:1 125:1 136:1 137:1 138:1 139:1 141:1 149:1 150:1 151:1 152:1 154:1 157:1 165:1 167:1 170:1 173:1 181:1 183:1 184:1 185:1 186:1 189:1 199:1 204:1 205:1 
0.4777671760622327 70:1 72:1 85:1 88:1 90:1 92:1 93:1 104:1 105:1 106:1 108:1 109:1 119:1 120:1 121:1 122:1 123:1 125:1 133:1 135:1 136:1 137:1 138:1 139:1 141:1 150:1 152:1 153:1 154:1 157:1 165:1 166:1 167:1 168:1 169:1 170:1 173:1 181:1 183:1 185:1 186:1 189:1 198:1 203:1 204:1 
0.1746088809855023 70:1 72:1 74:1 86:1 88:1 90:1 92:1 93:1 101:1 102:1 104:1 105:1 106:1 108:1 109:1 118:1 119:1 120:1 121:1 122:1 123:1 125:1 133:1 134:1 135:1 136:1 137:1 138:1 139:1 141:1 150:1 152:1 153:1 154:1 155:1 157:1 166:1 168:1 169:1 170:1 173:1 181:1 182:1 184:1 185:1 186:1 189:1 198:1 204:1 205:1 
1.100257140766246 71:1 74:1 75:1 76:1 77:1 86:1 87:1 88:1 89:1 90:1 91:1 101:1 103:1 104:1 105:1 106:1 107:1 119:1 120:1 121:1 122:1 123:1 135:1 136:1 137:1 138:1 139:1 141:1 150:1 151:1 152:1 153:1 154:1 155:1 166:1 167:1 168:1 169:1 170:1 171:1 183:1 184:1 185:1 186:1 187:1 188:1 204:1 205:1 
0.5940772108712408 70:1 76:1 87:1 101:1 102:1 103:1 107:1 108:1 109:1 119:1 120:1 121:1 122:1 136:1 149:1 150:1 151:1 155:1 156:1 157:1 165:1 169:1 170:1 173:1 184:1 185:1 189:1 203:1 204:1 205:1 
0.555912459126524 72:1 73:1 77:1 88:1 90:1 91:1 93:1 102:1 103:1 104:1 105:1 106:1 107:1 109:1 118:1 119:1 120:1 121:1 122:1 123:1 124:1 133:1 134:1 135:1 136:1 137:1 138:1 139:1 149:1 150:1 151:1 152:1 153:1 154:1 155:1 166:1 167:1 168:1 169:1 170:1 171:1 172:1 173:1 182:1 184:1 185:1 186:1 189:1 200:1 201:1 204:1 205:1 
0.0946812612579557 70:1 72:1 73:1 74:1 75:1 76:1 77:1 86:1 88:1 90:1 91:1 93:1 102:1 103:1 104:1 105:1 106:1 107:1 109:1 118:1 119:1 120:1 121:1 122:1 123:1 124:1 125:1 126:1 133:1 134:1 136:1 137:1 138:1 139:1 150:1 152:1 153:1 154:1 155:1 156:1 157:1 158:1 166:1 167:1 168:1 169:1 170:1 171:1 172:1 182:1 184:1 185:1 186:1 187:1 189:1 198:1 200:1 202:1 205:1 
1.184175425044181 70:1 71:1 72:1 73:1 75:1 85:1 86:1 87:1 88:1 89:1 91:1 93:1 101:1 102:1 103:1 104:1 105:1 106:1 107:1 108:1 109:1 118:1 119:1 120:1 121:1 122:1 123:1 135:1 136:1 137:1 138:1 139:1 149:1 150:1 152:1 154:1 155:1 167:1 168:1 169:1 170:1 171:1 172:1 173:1 181:1 182:1 184:1 186:1 187:1 199:1 200:1 201:1 202:1 203:1 
0.1084035503580878 72:1 73:1 87:1 88:1 93:1 101:1 102:1 103:1 104:1 105:1 106:1 107:1 108:1 109:1 117:1 124:1 125:1 137:1 138:1 139:1 140:1 150:1 151:1 152:1 153:1 156:1 165:1 166:1 172:1 185:1 186:1 187:1 188:1 203:1 204:1 205:1 
0.04174724575296854 72:1 73:1 85:1 86:1 87:1 88:1 89:1 90:1 91:1 92:1 93:1 101:1 104:1 118:1 119:1 120:1 121:1 122:1 123:1 124:1 125:1 136:1 141:1 149:1 150:1 151:1 152:1 153:1 154:1 155:1 157:1 168:1 171:1 173:1 181:1 182:1 183:1 184:1 185:1 186:1 187:1 189:1 200:1 205:1 
0.02760155869559127 72:1 73:1 85:1 86:1 87:1 91:1 101:1 102:1 103:1 106:1 107:1 118:1 119:1 121:1 122:1 123:1 124:1 125:1 126:1 133:1 134:1 135:1 136:1 141:1 149:1 150:1 151:1 152:1 153:1 157:1 166:1 167:1 170:1 171:1 182:1 183:1 185:1 187:1 188:1 198:1 199:1 200:1 205:1 
0.1784385526888714 72:1 73:1 86:1 87:1 88:1 89:1 90:1 91:1 92:1 93:1 101:1 102:1 107:1 118:1 122:1 123:1 134:1 136:1 137:1 138:1 139:1 140:1 141:1 149:1 150:1 151:1 152:1 157:1 166:1 168:1 169:1 170:1 172:1 182:1 185:1 186:1 187:1 188:1 198:1 200:1 205:1 
0.5529887357732602 71:1 72:1 73:1 85:1 86:1 102:1 103:1 104:1 105:1 106:1 107:1 109:1 110:1 119:1 120:1 121:1 122:1 123:1 124:1 140:1 141:1 150:1 151:1 152:1 153:1 154:1 155:1 157:1 166:1 167:1 168:1 169:1 170:1 171:1 172:1 174:1 190:1 197:1 198:1 199:1 200:1 201:1 202:1 203:1 204:1 205:1 
0.09306470377774966 72:1 73:1 85:1 86:1 87:1 105:1 106:1 110:1 117:1 119:1 120:1 121:1 123:1 133:1 135:1 136:1 137:1 140:1 141:1 149:1 151:1 152:1 153:1 157:1 165:1 167:1 168:1 169:1 172:1 173:1 181:1 183:1 184:1 185:1 187:1 188:1 189:1 201:1 202:1 206:1 
0.2944444262826547 72:1 73:1 85:1 86:1 87:1 101:1 102:1 104:1 107:1 118:1 119:1 120:1 121:1 122:1 123:1 124:1 125:1 134:1 136:1 138:1 152:1 154:1 157:1 165:1 166:1 167:1 168:1 169:1 170:1 171:1 172:1 184:1 187:1 188:1 189:1 198:1 199:1 200:1 201:1 202:1 205:1 206:1 
0.3932591038493313 72:1 86:1 87:1 88:1 89:1 90:1 91:1 92:1 93:1 101:1 102:1 119:1 120:1 123:1 135:1 137:1 138:1 141:1 149:1 150:1 151:1 152:1 153:1 154:1 155:1 156:1 157:1 165:1 167:1 169:1 170:1 181:1 182:1 183:1 184:1 185:1 187:1 188:1 199:1 200:1 204:1 
0.516311308732845 72:1 86:1 87:1 93:1 101:1 102:1 103:1 104:1 105:1 106:1 107:1 108:1 109:1 118:1 120:1 121:1 122:1 123:1 124:1 125:1 134:1 137:1 139:1 150:1 153:1 155:1 165:1 166:1 169:1 171:1 173:1 181:1 182:1 185:1 187:1 189:1 198:1 200:1 201:1 202:1 203:1 204:1 205:1 
0.09903127096894664 72:1 73:1 85:1 86:1 87:1 101:1 117:1 118:1 120:1 121:1 122:1 123:1 124:1 125:1 126:1 136:1 138:1 140:1 149:1 150:1 151:1 152:1 154:1 156:1 168:1 170:1 172:1 182:1 183:1 184:1 186:1 188:1 190:1 197:1 198:1 200:1 201:1 202:1 203:1 204:1 205:1 
0.07117688375989925 72:1 73:1 86:1 87:1 88:1 89:1 90:1 91:1 92:1 93:1 101:1 102:1 107:1 119:1 120:1 122:1 123:1 133:1 135:1 136:1 137:1 138:1 150:1 151:1 152:1 154:1 166:1 168:1 169:1 170:1 171:1 172:1 173:1 181:1 183:1 184:1 186:1 188:1 199:1 200:1 202:1 203:1 204:1 
0.7998197077585673 72:1 88:1 89:1 90:1 91:1 92:1 93:1 103:1 104:1 106:1 107:1 118:1 119:1 120:1 122:1 123:1 125:1 133:1 136:1 137:1 138:1 139:1 140:1 141:1 150:1 167:1 169:1 172:1 173:1 183:1 184:1 185:1 186:1 187:1 188:1 189:1 200:1 
0.4163531467068926 72:1 73:1 85:1 86:1 87:1 88:1 89:1 90:1 91:1 92:1 93:1 101:1 103:1 104:1 105:1 106:1 107:1 108:1 119:1 121:1 122:1 125:1 133:1 134:1 135:1 136:1 138:1 139:1 140:1 141:1 151:1 152:1 153:1 155:1 157:1 166:1 167:1 168:1 170:1 172:1 182:1 184:1 186:1 187:1 188:1 200:1 203:1 
0.08058177289450749 72:1 73:1 85:1 86:1 87:1 88:1 89:1 90:1 91:1 92:1 93:1 94:1 103:1 104:1 105:1 106:1 109:1 117:1 119:1 122:1 123:1 124:1 135:1 136:1 137:1 138:1 139:1 140:1 151:1 152:1 157:1 158:1 165:1 166:1 167:1 168:1 169:1 170:1 171:1 172:1 181:1 182:1 183:1 184:1 185:1 190:1 199:1 200:1 201:1 202:1 203:1 204:1 205:1 
-3 72:1 86:1 93:1 101:1 102:1 103:1 104:1 105:1 106:1 107:1 109:1 119:1 120:1 121:1 122:1 123:1 125:1 136:1 138:1 141:1 149:1 150:1 151:1 152:1 154:1 157:1 165:1 166:1 167:1 169:1 170:1 172:1 173:1 181:1 182:1 183:1 184:1 185:1 186:1 187:1 189:1 200:1 204:1 205:1 
-3 70:1 71:1 72:1 73:1 74:1 75:1 76:1 77:1 85:1 86:1 87:1 88:1 89:1 90:1 91:1 92:1 101:1 102:1 103:1 104:1 105:1 106:1 107:1 108:1 119:1 120:1 121:1 122:1 123:1 136:1 137:1 138:1 139:1 150:1 151:1 152:1 153:1 155:1 166:1 167:1 168:1 169:1 170:1 171:1 172:1 184:1 187:1 188:1 198:1 200:1 201:1 203:1 204:1 205:1 
-3 72:1 86:1 88:1 92:1 93:1 101:1 102:1 103:1 104:1 105:1 106:1 107:1 108:1 109:1 119:1 120:1 121:1 122:1 123:1 125:1 135:1 136:1 137:1 138:1 141:1 149:1 150:1 151:1 152:1 157:1 165:1 167:1 168:1 169:1 172:1 173:1 181:1 182:1 183:1 184:1 185:1 186:1 187:1 188:1 189:1 200:1 203:1 204:1 205:1 
-0.2987934716185239 72:1 93:1 101:1 102:1 103:1 104:1 105:1 106:1 107:1 109:1 119:1 120:1 121:1 122:1 123:1 125:1 136:1 138:1 141:1 150:1 151:1 152:1 157:1 167:1 168:1 169:1 170:1 172:1 173:1 181:1 182:1 183:1 184:1 185:1 186:1 187:1 189:1 200:1 203:1 204:1 205:1 
-2.975942879044131 72:1 93:1 101:1 102:1 103:1 104:1 105:1 106:1 107:1 109:1 119:1 120:1 121:1 122:1 123:1 125:1 136:1 138:1 141:1 150:1 151:1 152:1 157:1 167:1 168:1 169:1 170:1 172:1 173:1 181:1 182:1 183:1 184:1 185:1 186:1 187:1 189:1 200:1 203:1 204:1 205:1 
