svm_type c_svc
kernel_type rbf
gamma 0.015625
nr_class 2
total_sv 29
rho -1.65811
label -1 1
nr_sv 24 5
SV
1.209228240514418 77:1 133:1 136:1 152:1 168:1 184:1 
0.1149856417601984 69:1 87:1 88:1 89:1 103:1 134:1 135:1 136:1 137:1 157:1 173:1 183:1 184:1 185:1 186:1 187:1 188:1 189:1 197:1 
0.01589972912534245 87:1 88:1 89:1 90:1 106:1 122:1 134:1 135:1 136:1 137:1 138:1 141:1 152:1 154:1 158:1 168:1 170:1 174:1 184:1 186:1 189:1 202:1 203:1 204:1 205:1 
0.22643628388321 77:1 86:1 87:1 88:1 89:1 90:1 91:1 92:1 93:1 104:1 107:1 109:1 120:1 123:1 125:1 136:1 139:1 141:1 152:1 155:1 157:1 168:1 171:1 173:1 182:1 183:1 184:1 185:1 186:1 187:1 188:1 189:1 205:1 
0.3256049056159027 70:1 72:1 74:1 77:1 86:1 88:1 90:1 93:1 102:1 104:1 106:1 108:1 109:1 118:1 120:1 122:1 123:1 125:1 134:1 135:1 136:1 137:1 138:1 141:1 150:1 152:1 154:1 157:1 166:1 168:1 170:1 172:1 173:1 182:1 184:1 186:1 189:1 198:1 200:1 202:1 206:1 
1.371959553994294 87:1 88:1 89:1 90:1 106:1 122:1 133:1 134:1 135:1 136:1 137:1 138:1 139:1 140:1 141:1 154:1 170:1 183:1 184:1 185:1 186:1 
1.571504976045157 86:1 88:1 133:1 134:1 135:1 136:1 137:1 138:1 139:1 140:1 141:1 182:1 184:1 
0.7017035507712776 74:1 77:1 78:1 85:1 86:1 87:1 88:1 89:1 90:1 91:1 92:1 93:1 101:1 106:1 117:1 119:1 122:1 133:1 135:1 136:1 138:1 149:1 152:1 154:1 165:1 170:1 174:1 181:1 182:1 183:1 184:1 185:1 186:1 187:1 188:1 189:1 202:1 
0.0849007670785687 77:1 85:1 88:1 92:1 93:1 102:1 103:1 104:1 107:1 108:1 120:1 121:1 122:1 133:1 134:1 135:1 136:1 138:1 152:1 154:1 157:1 168:1 171:1 173:1 184:1 186:1 187:1 188:1 189:1 200:1 201:1 
0.2380013707914085 71:1 77:1 87:1 90:1 93:1 103:1 106:1 109:1 117:1 119:1 122:1 125:1 133:1 134:1 135:1 136:1 137:1 138:1 139:1 140:1 141:1 151:1 154:1 157:1 167:1 170:1 173:1 183:1 186:1 189:1 199:1 202:1 205:1 
0.1851952524870704 77:1 78:1 86:1 87:1 93:1 104:1 105:1 109:1 117:1 122:1 123:1 124:1 134:1 135:1 139:1 140:1 151:1 154:1 155:1 156:1 168:1 169:1 173:1 182:1 183:1 189:1 205:1 206:1 
0.579678989085244 71:1 87:1 88:1 103:1 104:1 105:1 118:1 119:1 122:1 134:1 135:1 150:1 154:1 166:1 168:1 169:1 170:1 182:1 184:1 198:1 
1.075135134540396 73:1 86:1 102:1 104:1 108:1 109:1 120:1 125:1 133:1 134:1 135:1 136:1 137:1 138:1 139:1 141:1 151:1 154:1 157:1 167:1 170:1 173:1 182:1 183:1 184:1 185:1 186:1 189:1 204:1 205:1 
1.062327223707074 70:1 74:1 87:1 88:1 89:1 90:1 92:1 93:1 106:1 108:1 109:1 122:1 123:1 125:1 133:1 134:1 135:1 136:1 137:1 138:1 139:1 141:1 154:1 157:1 165:1 170:1 173:1 182:1 183:1 184:1 185:1 186:1 189:1 205:1 
0.5399226801715586 77:1 86:1 88:1 93:1 102:1 104:1 118:1 120:1 121:1 122:1 123:1 124:1 134:1 136:1 150:1 152:1 166:1 168:1 169:1 170:1 171:1 172:1 182:1 184:1 205:1 
3 72:1 77:1 86:1 88:1 90:1 104:1 106:1 120:1 122:1 136:1 138:1 152:1 154:1 168:1 170:1 184:1 186:1 200:1 
0.6708577568600525 72:1 77:1 85:1 88:1 90:1 93:1 101:1 104:1 106:1 109:1 120:1 122:1 125:1 136:1 138:1 141:1 152:1 154:1 157:1 168:1 170:1 173:1 181:1 184:1 186:1 189:1 200:1 205:1 
0.330668337168363 71:1 77:1 87:1 92:1 93:1 103:1 104:1 105:1 106:1 107:1 108:1 119:1 120:1 133:1 134:1 135:1 136:1 151:1 152:1 167:1 168:1 169:1 170:1 171:1 172:1 173:1 183:1 189:1 199:1 204:1 205:1 
0.4032745233843841 75:1 77:1 91:1 106:1 120:1 121:1 133:1 134:1 135:1 136:1 152:1 153:1 170:1 187:1 203:1 205:1 
0.04337041853669218 76:1 77:1 91:1 93:1 106:1 109:1 120:1 121:1 125:1 133:1 134:1 135:1 136:1 141:1 152:1 153:1 154:1 157:1 170:1 171:1 173:1 187:1 188:1 189:1 204:1 205:1 
0.899125009987421 75:1 76:1 77:1 91:1 93:1 106:1 109:1 120:1 121:1 125:1 133:1 134:1 135:1 141:1 152:1 153:1 157:1 169:1 170:1 173:1 186:1 187:1 189:1 203:1 205:1 
0.2413972552463157 72:1 73:1 85:1 86:1 87:1 88:1 89:1 90:1 91:1 92:1 93:1 94:1 101:1 104:1 119:1 120:1 122:1 123:1 124:1 125:1 126:1 133:1 134:1 136:1 138:1 141:1 149:1 152:1 154:1 157:1 166:1 168:1 170:1 173:1 182:1 183:1 184:1 186:1 189:1 200:1 201:1 
0.01107368786292726 72:1 73:1 85:1 86:1 87:1 118:1 120:1 122:1 125:1 133:1 134:1 136:1 138:1 141:1 149:1 150:1 152:1 154:1 155:1 156:1 157:1 166:1 168:1 170:1 172:1 173:1 182:1 184:1 186:1 187:1 188:1 189:1 203:1 205:1 
0.09774871138272459 73:1 86:1 87:1 88:1 89:1 90:1 91:1 92:1 93:1 101:1 102:1 120:1 125:1 134:1 136:1 151:1 153:1 155:1 156:1 168:1 182:1 183:1 185:1 186:1 
-3 77:1 86:1 88:1 90:1 104:1 106:1 120:1 122:1 133:1 134:1 135:1 136:1 138:1 152:1 154:1 168:1 170:1 182:1 183:1 184:1 186:1 
-3 74:1 77:1 88:1 90:1 93:1 104:1 106:1 109:1 120:1 122:1 125:1 133:1 134:1 135:1 136:1 138:1 141:1 152:1 154:1 157:1 168:1 170:1 173:1 184:1 186:1 189:1 205:1 
-3 77:1 86:1 87:1 88:1 90:1 93:1 104:1 106:1 109:1 120:1 122:1 125:1 133:1 134:1 135:1 136:1 138:1 141:1 152:1 154:1 157:1 168:1 170:1 173:1 182:1 183:1 184:1 186:1 189:1 205:1 
-3 77:1 86:1 87:1 88:1 133:1 134:1 135:1 136:1 170:1 182:1 183:1 184:1 186:1 
-3 77:1 86:1 87:1 88:1 133:1 134:1 135:1 136:1 170:1 182:1 183:1 184:1 186:1 
