svm_type c_svc
kernel_type rbf
gamma 0.015625
nr_class 2
total_sv 35
rho -1.37995
label -1 1
nr_sv 30 5
SV
0.8415699127149454 69:1 74:1 75:1 85:1 89:1 90:1 101:1 105:1 117:1 120:1 133:1 134:1 135:1 136:1 137:1 138:1 139:1 140:1 141:1 149:1 152:1 165:1 168:1 169:1 181:1 185:1 186:1 197:1 202:1 
0.7783178632503364 69:1 85:1 87:1 88:1 89:1 101:1 105:1 117:1 121:1 133:1 134:1 135:1 136:1 137:1 149:1 151:1 153:1 157:1 165:1 167:1 169:1 173:1 181:1 183:1 185:1 186:1 187:1 188:1 189:1 197:1 201:1 202:1 
0.2062601040558157 73:1 85:1 87:1 89:1 92:1 93:1 101:1 103:1 105:1 107:1 108:1 109:1 117:1 119:1 121:1 122:1 123:1 125:1 133:1 134:1 135:1 136:1 137:1 141:1 149:1 151:1 153:1 165:1 167:1 169:1 171:1 172:1 181:1 183:1 185:1 188:1 189:1 201:1 
0.0527661954723435 69:1 85:1 93:1 101:1 108:1 117:1 118:1 119:1 120:1 121:1 122:1 123:1 133:1 149:1 150:1 151:1 152:1 153:1 154:1 155:1 156:1 157:1 165:1 181:1 197:1 199:1 201:1 202:1 
0.3603850396724551 74:1 75:1 76:1 77:1 87:1 88:1 89:1 105:1 118:1 119:1 120:1 121:1 137:1 150:1 151:1 152:1 153:1 169:1 183:1 184:1 185:1 199:1 201:1 
1.6991238061188 85:1 89:1 92:1 93:1 105:1 107:1 108:1 117:1 118:1 119:1 120:1 121:1 122:1 149:1 150:1 151:1 152:1 153:1 154:1 155:1 156:1 157:1 169:1 185:1 197:1 202:1 
0.759459173723941 70:1 71:1 72:1 73:1 74:1 78:1 90:1 93:1 105:1 106:1 107:1 108:1 117:1 118:1 119:1 120:1 121:1 122:1 170:1 186:1 198:1 199:1 200:1 201:1 202:1 
0.2233097136134437 70:1 71:1 72:1 73:1 74:1 75:1 76:1 101:1 102:1 103:1 104:1 105:1 106:1 107:1 108:1 109:1 120:1 133:1 134:1 135:1 149:1 168:1 169:1 185:1 
0.06614782289841971 74:1 77:1 78:1 85:1 86:1 87:1 88:1 89:1 90:1 91:1 92:1 93:1 101:1 106:1 117:1 119:1 122:1 133:1 135:1 136:1 138:1 149:1 152:1 154:1 165:1 170:1 174:1 181:1 182:1 183:1 184:1 185:1 186:1 187:1 188:1 189:1 202:1 
0.01265331097517237 69:1 85:1 87:1 88:1 93:1 101:1 103:1 105:1 106:1 109:1 117:1 119:1 120:1 121:1 122:1 123:1 124:1 125:1 133:1 135:1 141:1 149:1 151:1 152:1 153:1 154:1 155:1 156:1 157:1 165:1 167:1 169:1 170:1 173:1 181:1 183:1 184:1 185:1 186:1 187:1 188:1 189:1 197:1 
1.594760877489104 74:1 77:1 90:1 93:1 101:1 102:1 103:1 104:1 105:1 106:1 108:1 117:1 119:1 122:1 123:1 133:1 135:1 138:1 149:1 151:1 154:1 165:1 167:1 170:1 181:1 183:1 186:1 202:1 
1.158826225935022 74:1 77:1 93:1 102:1 103:1 104:1 105:1 106:1 108:1 118:1 120:1 136:1 149:1 152:1 165:1 168:1 184:1 202:1 
0.08369391676793221 86:1 89:1 92:1 93:1 103:1 104:1 105:1 107:1 109:1 121:1 123:1 125:1 133:1 137:1 138:1 141:1 149:1 152:1 153:1 154:1 157:1 165:1 166:1 167:1 169:1 173:1 181:1 182:1 185:1 189:1 204:1 205:1 
0.2563835273876335 69:1 72:1 85:1 87:1 89:1 92:1 93:1 101:1 102:1 103:1 104:1 105:1 107:1 108:1 109:1 117:1 120:1 121:1 123:1 125:1 133:1 136:1 137:1 141:1 149:1 152:1 153:1 154:1 157:1 165:1 168:1 169:1 170:1 173:1 181:1 182:1 183:1 184:1 185:1 189:1 197:1 203:1 204:1 
0.149816395003476 70:1 73:1 74:1 86:1 87:1 88:1 90:1 92:1 93:1 101:1 103:1 105:1 106:1 108:1 109:1 119:1 120:1 121:1 122:1 123:1 125:1 135:1 138:1 139:1 141:1 150:1 152:1 154:1 157:1 165:1 167:1 170:1 173:1 182:1 183:1 185:1 186:1 189:1 199:1 204:1 205:1 
1.087779677438352 71:1 85:1 101:1 105:1 106:1 117:1 118:1 119:1 120:1 121:1 122:1 133:1 137:1 141:1 149:1 153:1 157:1 165:1 169:1 170:1 171:1 172:1 173:1 181:1 185:1 186:1 187:1 199:1 
0.8072970368977799 71:1 74:1 77:1 78:1 87:1 90:1 93:1 101:1 102:1 103:1 104:1 105:1 106:1 107:1 108:1 119:1 122:1 135:1 138:1 151:1 154:1 165:1 166:1 167:1 168:1 169:1 170:1 171:1 172:1 173:1 174:1 183:1 186:1 199:1 202:1 
0.002640628589622126 73:1 74:1 77:1 86:1 87:1 88:1 89:1 91:1 93:1 101:1 105:1 109:1 119:1 121:1 125:1 135:1 141:1 149:1 150:1 151:1 152:1 153:1 157:1 167:1 169:1 170:1 171:1 173:1 182:1 185:1 189:1 198:1 200:1 201:1 205:1 
0.3384334865106052 71:1 73:1 74:1 75:1 77:1 78:1 87:1 93:1 103:1 107:1 108:1 119:1 120:1 121:1 122:1 125:1 133:1 134:1 135:1 141:1 151:1 157:1 167:1 183:1 184:1 185:1 199:1 201:1 202:1 203:1 
0.3030564562419328 70:1 71:1 74:1 77:1 86:1 87:1 89:1 90:1 92:1 93:1 103:1 107:1 108:1 119:1 120:1 121:1 122:1 123:1 133:1 134:1 135:1 141:1 151:1 152:1 153:1 154:1 155:1 156:1 157:1 167:1 183:1 185:1 186:1 198:1 199:1 202:1 203:1 
0.8616452744368904 73:1 74:1 89:1 93:1 103:1 104:1 105:1 109:1 119:1 120:1 121:1 123:1 124:1 133:1 135:1 136:1 137:1 151:1 152:1 153:1 155:1 156:1 157:1 167:1 168:1 169:1 173:1 183:1 184:1 185:1 189:1 198:1 201:1 202:1 204:1 205:1 
0.5786188910656369 70:1 74:1 87:1 88:1 89:1 90:1 102:1 106:1 107:1 108:1 109:1 119:1 120:1 121:1 122:1 133:1 136:1 138:1 152:1 154:1 167:1 170:1 183:1 184:1 185:1 186:1 201:1 202:1 205:1 
0.662622771572387 73:1 74:1 89:1 104:1 118:1 119:1 122:1 123:1 133:1 134:1 135:1 139:1 140:1 151:1 152:1 156:1 168:1 169:1 185:1 201:1 202:1 
0.513015547210829 72:1 87:1 88:1 93:1 101:1 102:1 103:1 104:1 105:1 106:1 107:1 108:1 109:1 120:1 122:1 134:1 135:1 138:1 151:1 154:1 165:1 166:1 167:1 168:1 169:1 170:1 171:1 172:1 173:1 183:1 186:1 199:1 202:1 
0.7534033543487936 72:1 86:1 87:1 88:1 89:1 90:1 91:1 92:1 93:1 101:1 109:1 123:1 124:1 125:1 133:1 134:1 135:1 136:1 149:1 152:1 165:1 168:1 169:1 170:1 171:1 172:1 173:1 181:1 184:1 200:1 
0.02826795184039091 72:1 86:1 87:1 88:1 89:1 90:1 91:1 92:1 93:1 101:1 109:1 117:1 118:1 119:1 120:1 121:1 122:1 123:1 124:1 133:1 149:1 153:1 154:1 155:1 156:1 157:1 165:1 170:1 173:1 181:1 182:1 183:1 185:1 186:1 189:1 204:1 
0.502264297298713 71:1 72:1 85:1 86:1 87:1 88:1 89:1 90:1 91:1 92:1 93:1 101:1 104:1 119:1 121:1 133:1 134:1 137:1 139:1 140:1 149:1 152:1 153:1 156:1 166:1 167:1 169:1 170:1 171:1 173:1 183:1 185:1 186:1 200:1 
0.198871279755172 72:1 73:1 85:1 86:1 87:1 88:1 89:1 90:1 91:1 92:1 93:1 101:1 107:1 108:1 109:1 117:1 133:1 135:1 140:1 149:1 151:1 152:1 153:1 154:1 155:1 156:1 157:1 165:1 167:1 168:1 169:1 170:1 171:1 181:1 183:1 184:1 185:1 186:1 204:1 205:1 
0.1056194851792713 72:1 73:1 86:1 87:1 88:1 89:1 90:1 91:1 92:1 93:1 101:1 117:1 119:1 121:1 125:1 133:1 135:1 136:1 138:1 139:1 140:1 149:1 150:1 151:1 152:1 165:1 167:1 168:1 169:1 170:1 173:1 181:1 183:1 185:1 186:1 189:1 199:1 201:1 
0.01298997653478316 72:1 73:1 85:1 86:1 87:1 88:1 89:1 90:1 91:1 92:1 93:1 94:1 101:1 103:1 104:1 108:1 119:1 121:1 122:1 123:1 124:1 135:1 139:1 142:1 149:1 150:1 151:1 152:1 153:1 154:1 155:1 156:1 157:1 165:1 167:1 169:1 170:1 171:1 181:1 183:1 185:1 186:1 187:1 188:1 199:1 200:1 201:1 204:1 
-3 71:1 73:1 74:1 85:1 87:1 89:1 93:1 101:1 103:1 105:1 108:1 109:1 117:1 119:1 120:1 121:1 133:1 135:1 149:1 151:1 152:1 165:1 167:1 168:1 169:1 170:1 173:1 181:1 183:1 185:1 199:1 201:1 202:1 
-3 72:1 74:1 75:1 78:1 86:1 88:1 90:1 93:1 104:1 105:1 106:1 107:1 108:1 109:1 120:1 121:1 134:1 135:1 136:1 152:1 165:1 168:1 169:1 170:1 171:1 172:1 173:1 174:1 181:1 184:1 186:1 197:1 200:1 202:1 
-3 71:1 74:1 85:1 87:1 89:1 90:1 93:1 101:1 103:1 105:1 108:1 109:1 117:1 119:1 120:1 122:1 123:1 133:1 134:1 135:1 149:1 151:1 152:1 165:1 167:1 169:1 170:1 173:1 181:1 183:1 185:1 186:1 199:1 202:1 
-3 74:1 89:1 93:1 104:1 105:1 108:1 118:1 119:1 121:1 122:1 133:1 149:1 152:1 153:1 154:1 157:1 165:1 169:1 183:1 185:1 186:1 202:1 
-3 74:1 89:1 93:1 104:1 105:1 108:1 118:1 119:1 121:1 122:1 133:1 149:1 152:1 153:1 154:1 157:1 165:1 169:1 183:1 185:1 186:1 202:1 
