svm_type c_svc
kernel_type rbf
gamma 0.015625
nr_class 2
total_sv 36
rho -1.29728
label -1 1
nr_sv 31 5
SV
0.1843751355565821 70:1 86:1 102:1 109:1 118:1 125:1 126:1 134:1 135:1 136:1 137:1 138:1 139:1 140:1 141:1 150:1 151:1 152:1 153:1 154:1 155:1 156:1 166:1 182:1 198:1 
0.3522719854032005 69:1 75:1 90:1 105:1 106:1 120:1 134:1 135:1 136:1 137:1 138:1 139:1 140:1 141:1 150:1 152:1 168:1 169:1 185:1 186:1 197:1 202:1 
0.7297384141193193 76:1 88:1 91:1 93:1 105:1 106:1 120:1 124:1 135:1 136:1 137:1 138:1 139:1 140:1 150:1 151:1 152:1 165:1 170:1 181:1 184:1 186:1 187:1 203:1 
0.03720078242314174 69:1 85:1 101:1 106:1 107:1 117:1 118:1 119:1 120:1 121:1 122:1 133:1 138:1 139:1 140:1 149:1 150:1 151:1 152:1 153:1 154:1 165:1 170:1 173:1 181:1 189:1 197:1 200:1 201:1 202:1 203:1 204:1 205:1 
0.1040309006492889 71:1 72:1 73:1 77:1 87:1 90:1 91:1 92:1 93:1 101:1 102:1 103:1 109:1 119:1 120:1 121:1 122:1 123:1 124:1 125:1 135:1 141:1 150:1 151:1 152:1 153:1 154:1 155:1 156:1 157:1 165:1 166:1 167:1 173:1 181:1 183:1 186:1 187:1 188:1 189:1 199:1 200:1 201:1 205:1 
0.5926598635514688 86:1 102:1 103:1 119:1 136:1 137:1 138:1 139:1 140:1 141:1 151:1 152:1 166:1 167:1 181:1 182:1 
0.2406192356075095 88:1 90:1 93:1 103:1 106:1 108:1 119:1 121:1 122:1 124:1 133:1 134:1 135:1 136:1 137:1 138:1 139:1 140:1 141:1 142:1 150:1 153:1 155:1 165:1 166:1 168:1 171:1 181:1 184:1 186:1 201:1 202:1 
0.2653809262351364 76:1 88:1 90:1 92:1 119:1 121:1 123:1 133:1 134:1 135:1 136:1 137:1 138:1 139:1 140:1 141:1 150:1 152:1 166:1 168:1 170:1 183:1 185:1 186:1 
0.3029232160251091 73:1 89:1 103:1 104:1 105:1 121:1 125:1 134:1 135:1 136:1 137:1 138:1 139:1 140:1 141:1 149:1 153:1 165:1 167:1 168:1 169:1 181:1 183:1 185:1 201:1 
0.03581540548261732 69:1 76:1 91:1 93:1 106:1 109:1 120:1 121:1 125:1 135:1 136:1 141:1 150:1 151:1 157:1 166:1 173:1 181:1 189:1 203:1 204:1 
0.3521962750043831 92:1 93:1 103:1 107:1 109:1 119:1 120:1 125:1 138:1 141:1 149:1 152:1 154:1 157:1 165:1 166:1 167:1 169:1 173:1 181:1 185:1 189:1 204:1 205:1 
0.09894324649885539 73:1 74:1 87:1 89:1 103:1 105:1 117:1 118:1 119:1 120:1 121:1 122:1 123:1 124:1 125:1 135:1 137:1 151:1 153:1 165:1 167:1 168:1 169:1 172:1 181:1 182:1 185:1 186:1 187:1 188:1 198:1 201:1 
2.244814577791343 85:1 101:1 117:1 125:1 133:1 136:1 137:1 138:1 139:1 140:1 141:1 149:1 151:1 165:1 166:1 181:1 
1.606486877161657 125:1 136:1 137:1 138:1 139:1 140:1 141:1 151:1 166:1 181:1 
0.8324566913390944 73:1 86:1 87:1 89:1 91:1 101:1 102:1 105:1 121:1 125:1 135:1 136:1 137:1 138:1 139:1 140:1 141:1 150:1 151:1 153:1 165:1 169:1 183:1 184:1 185:1 186:1 187:1 201:1 
0.8655341944511908 72:1 73:1 87:1 102:1 117:1 125:1 135:1 136:1 137:1 138:1 139:1 140:1 141:1 150:1 183:1 184:1 185:1 186:1 
0.1615618657666869 70:1 74:1 91:1 102:1 103:1 107:1 125:1 133:1 134:1 135:1 136:1 137:1 138:1 139:1 140:1 141:1 152:1 166:1 167:1 184:1 185:1 186:1 187:1 201:1 
1.127789047336312 72:1 85:1 88:1 101:1 104:1 117:1 120:1 125:1 133:1 136:1 137:1 138:1 139:1 140:1 141:1 149:1 152:1 165:1 168:1 181:1 184:1 200:1 
0.6953582249928221 70:1 73:1 86:1 89:1 102:1 105:1 109:1 110:1 118:1 121:1 126:1 134:1 135:1 136:1 137:1 138:1 139:1 140:1 141:1 150:1 153:1 166:1 169:1 182:1 185:1 198:1 201:1 
1.861254320591719 72:1 85:1 101:1 117:1 125:1 133:1 134:1 135:1 136:1 137:1 138:1 139:1 140:1 141:1 149:1 165:1 181:1 200:1 
0.1695492129466443 125:1 134:1 135:1 136:1 137:1 138:1 139:1 140:1 141:1 181:1 184:1 200:1 
0.1142667724572173 77:1 90:1 106:1 124:1 135:1 136:1 137:1 138:1 139:1 140:1 150:1 155:1 165:1 169:1 170:1 181:1 184:1 185:1 186:1 203:1 
0.8445673353385572 70:1 73:1 74:1 87:1 88:1 89:1 103:1 104:1 105:1 119:1 120:1 121:1 125:1 133:1 135:1 136:1 137:1 139:1 140:1 141:1 151:1 152:1 153:1 167:1 168:1 169:1 185:1 186:1 201:1 202:1 
0.2596386680660429 73:1 88:1 104:1 118:1 119:1 133:1 137:1 138:1 139:1 140:1 141:1 150:1 151:1 168:1 184:1 186:1 200:1 202:1 
0.126031024327023 72:1 73:1 86:1 87:1 88:1 89:1 90:1 91:1 92:1 93:1 94:1 101:1 104:1 118:1 120:1 125:1 134:1 135:1 136:1 137:1 138:1 139:1 140:1 150:1 152:1 166:1 168:1 182:1 184:1 200:1 
0.1687300679321093 72:1 73:1 85:1 86:1 87:1 101:1 103:1 106:1 109:1 110:1 117:1 118:1 119:1 120:1 123:1 124:1 125:1 135:1 136:1 137:1 138:1 139:1 140:1 150:1 157:1 158:1 166:1 167:1 168:1 169:1 170:1 171:1 172:1 173:1 182:1 186:1 187:1 188:1 198:1 199:1 200:1 201:1 205:1 
0.3274848677321641 77:1 88:1 92:1 103:1 104:1 107:1 118:1 120:1 125:1 133:1 136:1 138:1 139:1 140:1 141:1 150:1 152:1 167:1 168:1 171:1 184:1 185:1 188:1 200:1 
0.03259858135308189 73:1 77:1 88:1 90:1 92:1 103:1 104:1 107:1 108:1 118:1 120:1 125:1 133:1 136:1 137:1 138:1 139:1 140:1 141:1 150:1 152:1 167:1 168:1 171:1 184:1 185:1 188:1 200:1 
0.08665092199783626 73:1 77:1 88:1 90:1 93:1 104:1 107:1 108:1 109:1 118:1 119:1 125:1 133:1 138:1 139:1 140:1 141:1 150:1 151:1 152:1 157:1 168:1 173:1 184:1 185:1 187:1 189:1 200:1 205:1 
0.04747233648489606 72:1 73:1 85:1 86:1 87:1 88:1 89:1 90:1 91:1 92:1 93:1 94:1 101:1 107:1 110:1 117:1 118:1 119:1 120:1 121:1 123:1 125:1 133:1 135:1 137:1 139:1 140:1 141:1 149:1 150:1 151:1 152:1 153:1 154:1 155:1 156:1 165:1 167:1 169:1 171:1 181:1 183:1 185:1 187:1 189:1 197:1 198:1 199:1 200:1 201:1 203:1 204:1 205:1 
0.1315990253769915 73:1 86:1 87:1 88:1 89:1 90:1 91:1 92:1 93:1 101:1 102:1 104:1 117:1 119:1 120:1 121:1 122:1 135:1 136:1 138:1 150:1 151:1 152:1 154:1 165:1 166:1 168:1 170:1 181:1 183:1 184:1 186:1 200:1 202:1 
-3 72:1 85:1 88:1 101:1 104:1 117:1 118:1 120:1 125:1 133:1 135:1 136:1 137:1 138:1 139:1 140:1 141:1 149:1 150:1 151:1 152:1 165:1 168:1 181:1 184:1 200:1 
-3 73:1 89:1 93:1 102:1 103:1 105:1 110:1 119:1 120:1 121:1 125:1 135:1 136:1 137:1 138:1 139:1 140:1 141:1 151:1 153:1 166:1 167:1 169:1 182:1 185:1 186:1 187:1 201:1 202:1 
-3 73:1 85:1 101:1 117:1 119:1 125:1 133:1 135:1 136:1 137:1 138:1 139:1 140:1 141:1 149:1 150:1 151:1 165:1 166:1 181:1 186:1 201:1 
-3 125:1 135:1 136:1 137:1 138:1 139:1 140:1 141:1 150:1 152:1 165:1 166:1 181:1 185:1 200:1 
-3 125:1 135:1 136:1 137:1 138:1 139:1 140:1 141:1 150:1 152:1 165:1 166:1 181:1 185:1 200:1 
