svm_type c_svc
kernel_type rbf
gamma 0.015625
nr_class 2
total_sv 36
rho -1.46902
label -1 1
nr_sv 31 5
SV
0.4373625861831434 73:1 89:1 105:1 121:1 137:1 153:1 169:1 185:1 201:1 
0.5766121416020279 70:1 77:1 78:1 86:1 92:1 93:1 102:1 105:1 106:1 107:1 108:1 118:1 119:1 120:1 121:1 122:1 134:1 141:1 150:1 157:1 166:1 173:1 182:1 185:1 186:1 187:1 188:1 189:1 198:1 
0.1067650982373388 70:1 77:1 86:1 92:1 93:1 102:1 106:1 107:1 108:1 118:1 119:1 120:1 121:1 122:1 134:1 150:1 166:1 167:1 168:1 169:1 170:1 171:1 172:1 173:1 182:1 198:1 
0.7460756297337812 71:1 72:1 77:1 89:1 90:1 91:1 93:1 109:1 117:1 118:1 119:1 120:1 121:1 122:1 123:1 124:1 125:1 141:1 149:1 150:1 151:1 152:1 153:1 154:1 155:1 156:1 157:1 173:1 185:1 186:1 187:1 189:1 199:1 200:1 205:1 
0.01841560533036503 71:1 77:1 88:1 89:1 90:1 106:1 117:1 118:1 119:1 120:1 121:1 122:1 123:1 124:1 149:1 150:1 151:1 152:1 153:1 154:1 155:1 156:1 170:1 184:1 185:1 199:1 204:1 
1.508328642499014 69:1 85:1 93:1 101:1 108:1 117:1 118:1 119:1 120:1 121:1 122:1 123:1 133:1 149:1 150:1 151:1 152:1 153:1 154:1 155:1 156:1 157:1 165:1 181:1 197:1 199:1 201:1 202:1 
0.6781243347876476 72:1 73:1 74:1 88:1 90:1 93:1 104:1 106:1 107:1 108:1 109:1 118:1 119:1 120:1 121:1 122:1 123:1 150:1 151:1 152:1 153:1 154:1 155:1 156:1 157:1 158:1 168:1 170:1 184:1 186:1 200:1 201:1 202:1 203:1 
0.6559789122466198 69:1 77:1 85:1 90:1 93:1 101:1 106:1 108:1 117:1 118:1 119:1 120:1 121:1 122:1 123:1 133:1 149:1 150:1 151:1 152:1 153:1 154:1 155:1 156:1 157:1 165:1 170:1 181:1 186:1 197:1 200:1 201:1 202:1 
1.395357663497758 90:1 93:1 106:1 108:1 118:1 119:1 120:1 121:1 122:1 150:1 151:1 152:1 153:1 154:1 155:1 156:1 157:1 170:1 181:1 186:1 197:1 
0.2189271534723016 102:1 107:1 108:1 119:1 120:1 123:1 138:1 149:1 150:1 151:1 152:1 153:1 154:1 155:1 156:1 157:1 158:1 
1.660688537058462 86:1 87:1 88:1 89:1 93:1 102:1 105:1 108:1 117:1 118:1 119:1 120:1 121:1 122:1 123:1 134:1 137:1 149:1 150:1 151:1 152:1 153:1 154:1 155:1 156:1 157:1 166:1 169:1 182:1 183:1 184:1 185:1 201:1 
0.2347735730879516 93:1 105:1 108:1 117:1 118:1 119:1 120:1 121:1 122:1 138:1 151:1 167:1 168:1 169:1 170:1 171:1 172:1 173:1 189:1 203:1 204:1 205:1 
0.387385009974474 74:1 89:1 93:1 104:1 105:1 108:1 118:1 119:1 121:1 122:1 133:1 149:1 152:1 153:1 154:1 157:1 165:1 169:1 183:1 185:1 186:1 202:1 
0.1770176076289855 77:1 92:1 107:1 108:1 117:1 118:1 119:1 120:1 121:1 122:1 151:1 167:1 168:1 169:1 170:1 171:1 172:1 173:1 189:1 204:1 205:1 
0.2030421855496823 70:1 72:1 73:1 77:1 85:1 86:1 87:1 88:1 90:1 92:1 93:1 102:1 105:1 106:1 108:1 118:1 119:1 120:1 121:1 122:1 123:1 124:1 138:1 139:1 150:1 151:1 152:1 153:1 154:1 155:1 166:1 168:1 170:1 173:1 182:1 184:1 189:1 198:1 199:1 200:1 201:1 204:1 205:1 
0.0132093503400327 70:1 71:1 72:1 73:1 77:1 87:1 89:1 90:1 92:1 93:1 101:1 103:1 104:1 105:1 106:1 108:1 117:1 118:1 119:1 120:1 122:1 123:1 124:1 138:1 139:1 150:1 151:1 152:1 153:1 154:1 155:1 166:1 168:1 170:1 173:1 182:1 184:1 189:1 198:1 199:1 200:1 204:1 205:1 
0.1049964457818201 86:1 87:1 89:1 90:1 92:1 93:1 105:1 107:1 109:1 117:1 118:1 119:1 120:1 123:1 125:1 141:1 149:1 150:1 151:1 152:1 153:1 154:1 157:1 169:1 170:1 173:1 184:1 189:1 204:1 205:1 
0.1916285125361578 70:1 72:1 73:1 74:1 75:1 76:1 85:1 86:1 87:1 89:1 91:1 92:1 93:1 94:1 102:1 105:1 108:1 118:1 120:1 121:1 122:1 123:1 124:1 135:1 136:1 140:1 141:1 149:1 150:1 151:1 155:1 156:1 157:1 166:1 170:1 171:1 182:1 185:1 186:1 198:1 201:1 204:1 205:1 
0.5413875224907224 71:1 73:1 74:1 77:1 87:1 90:1 92:1 93:1 103:1 106:1 107:1 108:1 117:1 118:1 119:1 120:1 121:1 122:1 135:1 138:1 149:1 150:1 151:1 152:1 153:1 154:1 155:1 156:1 157:1 165:1 167:1 170:1 173:1 183:1 186:1 199:1 201:1 202:1 
0.1178251445963367 71:1 77:1 87:1 103:1 107:1 108:1 117:1 118:1 119:1 120:1 135:1 149:1 151:1 157:1 165:1 167:1 183:1 199:1 201:1 
0.6312100329674448 74:1 77:1 90:1 91:1 107:1 117:1 119:1 121:1 123:1 135:1 137:1 139:1 149:1 150:1 151:1 152:1 153:1 155:1 167:1 171:1 183:1 187:1 198:1 200:1 201:1 
0.2318295838629511 70:1 71:1 77:1 92:1 93:1 104:1 105:1 106:1 107:1 108:1 117:1 120:1 133:1 134:1 136:1 152:1 153:1 154:1 155:1 156:1 157:1 173:1 189:1 198:1 199:1 204:1 
0.4055174219645732 71:1 77:1 92:1 103:1 105:1 106:1 107:1 108:1 117:1 133:1 134:1 151:1 152:1 153:1 154:1 155:1 156:1 157:1 198:1 199:1 
1.253729428405924 70:1 71:1 75:1 89:1 90:1 93:1 108:1 117:1 119:1 120:1 121:1 122:1 123:1 133:1 134:1 141:1 151:1 152:1 153:1 154:1 155:1 156:1 157:1 185:1 198:1 199:1 202:1 203:1 
0.08411800357621981 73:1 74:1 88:1 102:1 103:1 104:1 105:1 106:1 107:1 108:1 109:1 117:1 118:1 
0.1886901562941853 72:1 73:1 86:1 87:1 88:1 89:1 90:1 91:1 92:1 93:1 101:1 102:1 118:1 119:1 120:1 149:1 166:1 198:1 199:1 200:1 
1.698787195863573 72:1 86:1 87:1 88:1 89:1 90:1 91:1 92:1 93:1 101:1 119:1 120:1 121:1 122:1 123:1 149:1 150:1 151:1 152:1 153:1 154:1 155:1 156:1 157:1 198:1 199:1 200:1 201:1 202:1 203:1 
0.2135941349223348 72:1 86:1 87:1 88:1 89:1 90:1 91:1 92:1 93:1 101:1 118:1 119:1 120:1 121:1 122:1 123:1 149:1 157:1 198:1 202:1 
0.02300984764044646 72:1 86:1 87:1 88:1 89:1 90:1 91:1 92:1 93:1 101:1 117:1 118:1 119:1 120:1 121:1 122:1 123:1 124:1 125:1 140:1 156:1 172:1 188:1 197:1 198:1 199:1 200:1 201:1 202:1 203:1 204:1 205:1 
0.2083408909669903 73:1 90:1 93:1 104:1 107:1 108:1 118:1 119:1 133:1 139:1 140:1 150:1 151:1 156:1 168:1 169:1 170:1 184:1 201:1 
0.0872716469007343 72:1 73:1 85:1 86:1 87:1 88:1 89:1 90:1 91:1 92:1 93:1 94:1 101:1 118:1 119:1 120:1 121:1 122:1 123:1 137:1 139:1 150:1 151:1 152:1 153:1 154:1 155:1 156:1 157:1 169:1 171:1 185:1 187:1 198:1 199:1 200:1 201:1 202:1 203:1 
-3 85:1 89:1 92:1 93:1 105:1 107:1 108:1 117:1 118:1 119:1 120:1 121:1 122:1 149:1 150:1 151:1 152:1 153:1 154:1 155:1 156:1 157:1 169:1 185:1 197:1 202:1 
-3 70:1 71:1 72:1 73:1 74:1 78:1 90:1 93:1 105:1 106:1 107:1 108:1 117:1 118:1 119:1 120:1 121:1 122:1 170:1 186:1 198:1 199:1 200:1 201:1 202:1 
-3 70:1 71:1 72:1 73:1 77:1 86:1 89:1 92:1 93:1 105:1 108:1 117:1 118:1 119:1 120:1 121:1 122:1 123:1 149:1 150:1 151:1 152:1 153:1 154:1 155:1 156:1 157:1 169:1 185:1 198:1 199:1 200:1 201:1 
-3 86:1 90:1 93:1 108:1 117:1 118:1 119:1 120:1 121:1 122:1 123:1 149:1 150:1 151:1 152:1 153:1 154:1 155:1 156:1 157:1 198:1 200:1 201:1 
-3 86:1 90:1 93:1 108:1 117:1 118:1 119:1 120:1 121:1 122:1 123:1 149:1 150:1 151:1 152:1 153:1 154:1 155:1 156:1 157:1 198:1 200:1 201:1 
