svm_type c_svc
kernel_type rbf
gamma 0.015625
nr_class 2
total_sv 37
rho -1.66416
label -1 1
nr_sv 32 5
SV
0.05107984304592098 70:1 77:1 86:1 93:1 102:1 108:1 109:1 118:1 122:1 123:1 124:1 134:1 135:1 136:1 137:1 138:1 150:1 166:1 182:1 198:1 
0.4039184943493006 93:1 109:1 124:1 133:1 134:1 135:1 136:1 137:1 138:1 
0.2610456113660661 93:1 108:1 109:1 123:1 124:1 133:1 134:1 135:1 136:1 137:1 138:1 
0.782539711609339 76:1 87:1 93:1 103:1 104:1 108:1 109:1 120:1 123:1 124:1 136:1 137:1 138:1 151:1 152:1 153:1 165:1 166:1 167:1 169:1 170:1 186:1 
0.05968140093049976 86:1 87:1 88:1 89:1 92:1 107:1 125:1 135:1 136:1 137:1 138:1 139:1 140:1 141:1 151:1 165:1 187:1 188:1 
0.303329283591504 77:1 85:1 87:1 101:1 117:1 119:1 124:1 133:1 134:1 135:1 136:1 137:1 138:1 139:1 140:1 149:1 150:1 151:1 155:1 165:1 167:1 169:1 170:1 181:1 183:1 184:1 185:1 186:1 203:1 205:1 
0.1850623430231163 72:1 86:1 87:1 88:1 89:1 90:1 91:1 92:1 93:1 101:1 109:1 119:1 124:1 125:1 133:1 134:1 135:1 136:1 137:1 138:1 139:1 149:1 151:1 167:1 172:1 183:1 184:1 185:1 186:1 187:1 188:1 189:1 203:1 204:1 205:1 
0.2505079630361508 73:1 87:1 88:1 89:1 90:1 91:1 92:1 93:1 101:1 102:1 109:1 124:1 133:1 134:1 135:1 136:1 137:1 138:1 167:1 168:1 169:1 170:1 171:1 172:1 173:1 189:1 203:1 204:1 205:1 
0.7788263711149353 72:1 73:1 86:1 87:1 88:1 89:1 90:1 91:1 92:1 93:1 101:1 102:1 109:1 123:1 124:1 133:1 165:1 166:1 167:1 168:1 169:1 170:1 171:1 172:1 181:1 189:1 204:1 205:1 
0.01720319939345026 72:1 73:1 85:1 86:1 87:1 88:1 89:1 90:1 91:1 92:1 93:1 94:1 101:1 109:1 110:1 118:1 123:1 124:1 125:1 134:1 135:1 136:1 137:1 138:1 150:1 157:1 166:1 167:1 168:1 173:1 182:1 183:1 189:1 201:1 202:1 203:1 204:1 205:1 
0.06041339897942447 72:1 73:1 86:1 87:1 88:1 89:1 90:1 91:1 92:1 93:1 94:1 101:1 102:1 109:1 123:1 124:1 125:1 136:1 137:1 138:1 141:1 149:1 150:1 151:1 152:1 157:1 169:1 173:1 185:1 186:1 187:1 188:1 189:1 204:1 205:1 206:1 
1.040266523856194 73:1 87:1 88:1 93:1 101:1 102:1 109:1 137:1 138:1 165:1 166:1 167:1 173:1 181:1 182:1 183:1 184:1 185:1 186:1 187:1 188:1 199:1 
0.3674523086364728 93:1 123:1 124:1 133:1 134:1 135:1 136:1 137:1 138:1 155:1 166:1 172:1 189:1 205:1 
0.5531741645025159 72:1 73:1 86:1 87:1 88:1 89:1 90:1 91:1 92:1 93:1 101:1 102:1 120:1 121:1 124:1 135:1 136:1 139:1 149:1 150:1 153:1 154:1 165:1 168:1 172:1 183:1 186:1 187:1 188:1 204:1 205:1 
0.4442063804551673 72:1 85:1 86:1 87:1 88:1 89:1 90:1 91:1 92:1 93:1 101:1 104:1 109:1 119:1 120:1 125:1 134:1 135:1 137:1 138:1 139:1 140:1 149:1 166:1 167:1 168:1 169:1 173:1 183:1 185:1 186:1 187:1 188:1 189:1 200:1 
0.2240144430106811 72:1 73:1 86:1 87:1 88:1 89:1 90:1 91:1 92:1 93:1 101:1 105:1 109:1 119:1 120:1 124:1 125:1 133:1 134:1 137:1 138:1 139:1 165:1 166:1 167:1 173:1 183:1 184:1 185:1 186:1 187:1 188:1 200:1 201:1 
0.4620173562703086 73:1 87:1 88:1 93:1 101:1 102:1 103:1 117:1 120:1 125:1 133:1 134:1 135:1 138:1 139:1 141:1 153:1 154:1 165:1 166:1 167:1 184:1 187:1 188:1 201:1 
1.104880618419714 72:1 73:1 86:1 87:1 88:1 89:1 90:1 91:1 92:1 93:1 94:1 101:1 102:1 110:1 118:1 124:1 125:1 134:1 136:1 137:1 138:1 139:1 149:1 150:1 152:1 166:1 168:1 182:1 184:1 185:1 186:1 187:1 188:1 189:1 198:1 205:1 
1.307846702224485 72:1 73:1 86:1 87:1 88:1 89:1 90:1 91:1 92:1 93:1 94:1 101:1 109:1 110:1 123:1 124:1 125:1 133:1 134:1 135:1 136:1 137:1 138:1 139:1 165:1 173:1 182:1 203:1 204:1 205:1 
1.113672085182959 72:1 73:1 86:1 87:1 88:1 89:1 90:1 91:1 92:1 93:1 101:1 102:1 109:1 133:1 134:1 135:1 136:1 137:1 138:1 139:1 140:1 141:1 156:1 167:1 169:1 170:1 171:1 181:1 182:1 187:1 188:1 197:1 205:1 
0.008317144166978992 72:1 73:1 86:1 87:1 88:1 89:1 90:1 91:1 92:1 93:1 101:1 102:1 133:1 134:1 135:1 136:1 137:1 138:1 139:1 140:1 141:1 156:1 157:1 167:1 169:1 170:1 171:1 182:1 183:1 187:1 188:1 204:1 205:1 
0.02655004406823289 72:1 73:1 85:1 86:1 87:1 101:1 103:1 106:1 109:1 110:1 117:1 118:1 119:1 120:1 123:1 124:1 125:1 135:1 136:1 137:1 138:1 139:1 140:1 150:1 157:1 158:1 166:1 167:1 168:1 169:1 170:1 171:1 172:1 173:1 182:1 186:1 187:1 188:1 198:1 199:1 200:1 201:1 205:1 
0.07512057052419255 72:1 73:1 85:1 86:1 87:1 88:1 89:1 90:1 91:1 92:1 93:1 94:1 123:1 125:1 134:1 135:1 136:1 137:1 138:1 141:1 157:1 166:1 167:1 168:1 169:1 170:1 173:1 187:1 189:1 198:1 199:1 200:1 201:1 202:1 203:1 204:1 205:1 206:1 
0.3165287189374956 72:1 73:1 85:1 86:1 87:1 88:1 89:1 90:1 91:1 92:1 93:1 101:1 118:1 119:1 120:1 121:1 122:1 123:1 124:1 125:1 134:1 135:1 136:1 137:1 138:1 139:1 150:1 166:1 167:1 168:1 169:1 170:1 182:1 187:1 198:1 199:1 200:1 201:1 202:1 203:1 204:1 205:1 
0.1842621631414102 73:1 87:1 88:1 89:1 90:1 91:1 92:1 93:1 101:1 102:1 118:1 119:1 120:1 121:1 122:1 123:1 124:1 125:1 136:1 137:1 138:1 166:1 167:1 168:1 169:1 170:1 198:1 204:1 205:1 
0.206580682970157 72:1 73:1 85:1 86:1 87:1 88:1 89:1 90:1 91:1 92:1 93:1 94:1 101:1 109:1 125:1 133:1 134:1 135:1 136:1 137:1 138:1 139:1 140:1 141:1 152:1 157:1 165:1 166:1 167:1 168:1 169:1 170:1 171:1 172:1 173:1 184:1 199:1 200:1 204:1 205:1 
0.8517148609701073 72:1 73:1 85:1 86:1 87:1 88:1 89:1 90:1 91:1 92:1 93:1 101:1 104:1 120:1 122:1 123:1 124:1 125:1 134:1 135:1 136:1 138:1 149:1 150:1 154:1 166:1 167:1 168:1 170:1 183:1 184:1 186:1 187:1 188:1 189:1 200:1 
0.3240171270596052 73:1 87:1 88:1 89:1 90:1 91:1 92:1 93:1 101:1 102:1 106:1 119:1 121:1 122:1 123:1 124:1 136:1 137:1 141:1 149:1 150:1 151:1 155:1 156:1 165:1 167:1 168:1 169:1 170:1 183:1 184:1 187:1 188:1 199:1 205:1 
0.1610983589142471 72:1 73:1 86:1 87:1 88:1 89:1 90:1 91:1 92:1 93:1 101:1 102:1 109:1 119:1 122:1 124:1 125:1 133:1 134:1 135:1 136:1 137:1 138:1 139:1 140:1 151:1 154:1 165:1 166:1 167:1 168:1 169:1 170:1 171:1 172:1 183:1 186:1 188:1 189:1 199:1 202:1 205:1 
2.069009230795374 73:1 87:1 88:1 89:1 90:1 91:1 92:1 93:1 101:1 102:1 106:1 122:1 124:1 133:1 134:1 135:1 136:1 137:1 138:1 139:1 154:1 165:1 166:1 167:1 168:1 169:1 170:1 171:1 181:1 186:1 188:1 199:1 202:1 205:1 
0.6183112164760355 73:1 86:1 87:1 88:1 89:1 90:1 91:1 92:1 93:1 101:1 102:1 105:1 118:1 121:1 123:1 124:1 125:1 134:1 135:1 136:1 137:1 153:1 168:1 169:1 185:1 186:1 187:1 188:1 189:1 201:1 
0.3873516789779593 72:1 73:1 85:1 86:1 87:1 88:1 89:1 90:1 91:1 92:1 93:1 94:1 101:1 104:1 105:1 106:1 107:1 108:1 109:1 110:1 123:1 124:1 134:1 135:1 136:1 137:1 138:1 154:1 156:1 166:1 167:1 168:1 169:1 170:1 171:1 186:1 187:1 190:1 200:1 201:1 202:1 203:1 204:1 205:1 
-3 72:1 86:1 87:1 88:1 89:1 90:1 91:1 92:1 93:1 101:1 123:1 124:1 133:1 134:1 135:1 136:1 137:1 138:1 149:1 165:1 166:1 167:1 168:1 169:1 186:1 187:1 204:1 205:1 
-3 72:1 73:1 85:1 86:1 87:1 88:1 89:1 90:1 91:1 92:1 93:1 94:1 101:1 109:1 123:1 124:1 125:1 133:1 134:1 135:1 136:1 137:1 138:1 165:1 166:1 167:1 168:1 182:1 183:1 184:1 185:1 186:1 187:1 188:1 205:1 206:1 
-3 72:1 73:1 86:1 87:1 88:1 89:1 90:1 91:1 92:1 93:1 101:1 102:1 109:1 123:1 124:1 125:1 134:1 135:1 136:1 137:1 138:1 139:1 165:1 166:1 167:1 168:1 169:1 170:1 186:1 187:1 188:1 205:1 
-3 73:1 87:1 88:1 93:1 101:1 102:1 109:1 124:1 134:1 135:1 136:1 137:1 138:1 139:1 150:1 165:1 166:1 167:1 168:1 169:1 170:1 187:1 188:1 205:1 
-3 73:1 87:1 88:1 93:1 101:1 102:1 109:1 124:1 134:1 135:1 136:1 137:1 138:1 139:1 150:1 165:1 166:1 167:1 168:1 169:1 170:1 187:1 188:1 205:1 
