svm_type c_svc
kernel_type rbf
gamma 0.015625
nr_class 2
total_sv 24
rho -1.45569
label -1 1
nr_sv 19 5
SV
0.6992696503645403 77:1 93:1 109:1 117:1 118:1 119:1 120:1 121:1 122:1 123:1 124:1 125:1 136:1 141:1 152:1 157:1 168:1 173:1 184:1 189:1 200:1 205:1 
0.6805543088263701 71:1 77:1 88:1 89:1 90:1 93:1 106:1 109:1 117:1 118:1 119:1 120:1 121:1 122:1 123:1 124:1 125:1 141:1 149:1 150:1 151:1 152:1 153:1 154:1 155:1 156:1 157:1 170:1 173:1 184:1 185:1 186:1 189:1 199:1 200:1 205:1 
1.179810180067299 71:1 75:1 77:1 90:1 93:1 106:1 109:1 117:1 118:1 119:1 120:1 121:1 122:1 123:1 124:1 125:1 141:1 149:1 150:1 151:1 152:1 153:1 154:1 155:1 157:1 171:1 173:1 183:1 187:1 188:1 189:1 199:1 202:1 203:1 205:1 
0.2814758234070661 69:1 85:1 93:1 101:1 108:1 117:1 118:1 119:1 120:1 121:1 122:1 123:1 133:1 149:1 150:1 151:1 152:1 153:1 154:1 155:1 156:1 157:1 165:1 181:1 197:1 199:1 201:1 202:1 
0.6709105219976052 69:1 77:1 85:1 90:1 93:1 101:1 106:1 108:1 117:1 118:1 119:1 120:1 121:1 122:1 123:1 133:1 149:1 150:1 151:1 152:1 153:1 154:1 155:1 156:1 157:1 165:1 170:1 181:1 186:1 197:1 200:1 201:1 202:1 
0.6078737791614922 90:1 93:1 106:1 108:1 118:1 119:1 120:1 121:1 122:1 150:1 151:1 152:1 153:1 154:1 155:1 156:1 157:1 170:1 181:1 186:1 197:1 
1.047851476868555 106:1 107:1 118:1 119:1 120:1 121:1 124:1 138:1 139:1 150:1 151:1 152:1 153:1 154:1 170:1 173:1 189:1 197:1 
0.03169699434938419 72:1 86:1 87:1 88:1 89:1 93:1 101:1 104:1 118:1 119:1 120:1 136:1 137:1 138:1 141:1 149:1 150:1 151:1 152:1 153:1 154:1 155:1 156:1 173:1 189:1 203:1 204:1 205:1 
0.01602142291401735 74:1 77:1 85:1 88:1 90:1 93:1 102:1 103:1 104:1 105:1 106:1 109:1 119:1 121:1 122:1 124:1 138:1 139:1 150:1 151:1 152:1 153:1 154:1 155:1 156:1 170:1 172:1 182:1 183:1 186:1 188:1 189:1 198:1 202:1 205:1 
2.039193521462527 72:1 77:1 89:1 90:1 91:1 93:1 107:1 109:1 118:1 119:1 120:1 121:1 122:1 123:1 124:1 125:1 141:1 150:1 151:1 152:1 153:1 154:1 155:1 156:1 157:1 171:1 173:1 185:1 186:1 187:1 189:1 200:1 205:1 
2.112847651589101 77:1 85:1 88:1 89:1 93:1 105:1 106:1 109:1 118:1 119:1 120:1 121:1 122:1 123:1 124:1 125:1 141:1 150:1 151:1 152:1 153:1 154:1 155:1 156:1 157:1 169:1 170:1 173:1 181:1 184:1 185:1 186:1 189:1 205:1 
0.5687319649754979 72:1 73:1 74:1 75:1 77:1 88:1 91:1 93:1 104:1 107:1 109:1 118:1 119:1 120:1 123:1 124:1 125:1 141:1 150:1 151:1 152:1 155:1 156:1 157:1 168:1 171:1 173:1 184:1 187:1 189:1 200:1 201:1 202:1 203:1 205:1 
1.187470500956608 69:1 77:1 85:1 88:1 89:1 90:1 93:1 101:1 104:1 106:1 109:1 117:1 118:1 119:1 120:1 122:1 123:1 124:1 125:1 133:1 141:1 149:1 150:1 151:1 152:1 154:1 155:1 156:1 157:1 165:1 168:1 170:1 173:1 181:1 184:1 185:1 186:1 189:1 205:1 
1.87013936725689 77:1 88:1 89:1 90:1 93:1 109:1 118:1 119:1 122:1 123:1 124:1 125:1 141:1 150:1 151:1 152:1 154:1 155:1 156:1 157:1 173:1 181:1 183:1 184:1 185:1 186:1 189:1 205:1 
0.4036379811822698 69:1 77:1 85:1 87:1 88:1 89:1 93:1 105:1 106:1 107:1 108:1 109:1 120:1 121:1 122:1 123:1 124:1 125:1 133:1 136:1 137:1 138:1 139:1 140:1 141:1 152:1 153:1 154:1 155:1 156:1 157:1 169:1 170:1 171:1 172:1 173:1 181:1 183:1 184:1 185:1 189:1 197:1 205:1 
0.1253349400373271 69:1 76:1 77:1 85:1 87:1 88:1 89:1 90:1 93:1 103:1 104:1 105:1 106:1 107:1 108:1 109:1 118:1 119:1 120:1 121:1 122:1 123:1 124:1 125:1 133:1 135:1 139:1 151:1 152:1 153:1 154:1 155:1 156:1 157:1 166:1 167:1 171:1 172:1 181:1 183:1 185:1 186:1 187:1 188:1 189:1 197:1 201:1 202:1 205:1 
0.7500070233041573 72:1 73:1 85:1 86:1 87:1 88:1 89:1 90:1 91:1 92:1 93:1 101:1 109:1 117:1 120:1 121:1 122:1 123:1 124:1 125:1 141:1 150:1 151:1 152:1 153:1 154:1 155:1 156:1 157:1 169:1 173:1 181:1 185:1 189:1 197:1 201:1 205:1 
0.3463124858877171 72:1 86:1 87:1 88:1 89:1 90:1 91:1 92:1 93:1 101:1 117:1 118:1 119:1 120:1 121:1 122:1 123:1 124:1 125:1 133:1 136:1 138:1 149:1 150:1 151:1 152:1 153:1 154:1 155:1 156:1 165:1 168:1 170:1 181:1 184:1 186:1 189:1 197:1 198:1 199:1 200:1 201:1 202:1 203:1 204:1 205:1 
0.380860405391575 73:1 87:1 88:1 89:1 90:1 91:1 92:1 93:1 101:1 102:1 109:1 117:1 118:1 119:1 120:1 121:1 122:1 123:1 125:1 139:1 141:1 155:1 157:1 171:1 173:1 187:1 189:1 197:1 203:1 205:1 
-3 69:1 77:1 90:1 93:1 106:1 109:1 118:1 119:1 120:1 121:1 122:1 123:1 124:1 125:1 138:1 141:1 150:1 151:1 152:1 153:1 154:1 155:1 156:1 157:1 170:1 173:1 186:1 189:1 197:1 202:1 205:1 
-3 77:1 88:1 91:1 93:1 104:1 107:1 109:1 118:1 119:1 120:1 121:1 122:1 123:1 124:1 125:1 136:1 139:1 141:1 150:1 151:1 152:1 153:1 154:1 155:1 156:1 157:1 168:1 171:1 173:1 184:1 187:1 189:1 200:1 201:1 202:1 203:1 205:1 
-3 69:1 77:1 85:1 88:1 89:1 90:1 93:1 101:1 106:1 109:1 117:1 118:1 119:1 120:1 121:1 122:1 123:1 124:1 125:1 133:1 138:1 141:1 149:1 150:1 151:1 152:1 153:1 154:1 155:1 156:1 157:1 165:1 170:1 173:1 181:1 184:1 185:1 186:1 189:1 197:1 205:1 
-3 77:1 88:1 89:1 90:1 93:1 109:1 118:1 119:1 120:1 121:1 122:1 123:1 124:1 125:1 141:1 150:1 151:1 152:1 153:1 154:1 155:1 156:1 157:1 173:1 181:1 189:1 197:1 205:1 
-3 77:1 88:1 89:1 90:1 93:1 109:1 118:1 119:1 120:1 121:1 122:1 123:1 124:1 125:1 141:1 150:1 151:1 152:1 153:1 154:1 155:1 156:1 157:1 173:1 181:1 189:1 197:1 205:1 
