svm_type c_svc
kernel_type rbf
gamma 0.015625
nr_class 2
total_sv 40
rho -1.56379
label -1 1
nr_sv 35 5
SV
0.36040300161061 70:1 86:1 102:1 118:1 134:1 135:1 136:1 137:1 138:1 139:1 140:1 141:1 142:1 150:1 166:1 182:1 198:1 
0.5292971279655896 70:1 77:1 86:1 93:1 102:1 108:1 109:1 118:1 122:1 123:1 124:1 134:1 135:1 136:1 137:1 138:1 150:1 166:1 182:1 198:1 
0.2347810071705551 69:1 77:1 92:1 107:1 108:1 118:1 119:1 120:1 121:1 122:1 136:1 152:1 157:1 168:1 171:1 172:1 184:1 185:1 186:1 187:1 197:1 
0.2935178698419373 70:1 77:1 92:1 107:1 108:1 118:1 119:1 120:1 121:1 122:1 136:1 152:1 168:1 172:1 173:1 184:1 185:1 186:1 187:1 188:1 
0.04619178790922978 70:1 86:1 102:1 118:1 119:1 120:1 121:1 122:1 123:1 124:1 125:1 126:1 134:1 136:1 150:1 152:1 153:1 166:1 169:1 182:1 185:1 186:1 198:1 202:1 
0.1383400602238012 70:1 77:1 92:1 106:1 107:1 118:1 119:1 173:1 
0.6089653354190255 86:1 102:1 103:1 104:1 105:1 106:1 107:1 108:1 153:1 154:1 155:1 156:1 165:1 181:1 184:1 
0.8562227997056929 77:1 86:1 87:1 88:1 89:1 90:1 91:1 92:1 93:1 102:1 109:1 118:1 125:1 134:1 141:1 150:1 157:1 165:1 173:1 181:1 189:1 205:1 
0.9461507051429047 77:1 86:1 93:1 102:1 103:1 104:1 105:1 106:1 107:1 108:1 109:1 118:1 125:1 141:1 149:1 157:1 165:1 173:1 181:1 184:1 189:1 200:1 205:1 
0.05875178415640583 105:1 107:1 123:1 134:1 135:1 136:1 137:1 138:1 139:1 155:1 169:1 170:1 171:1 173:1 181:1 183:1 189:1 197:1 
0.3050547223753575 73:1 86:1 89:1 93:1 102:1 105:1 108:1 109:1 121:1 122:1 123:1 125:1 134:1 135:1 136:1 137:1 141:1 153:1 157:1 165:1 169:1 171:1 172:1 181:1 185:1 188:1 189:1 201:1 205:1 
0.3385503294456104 102:1 107:1 108:1 119:1 120:1 123:1 138:1 149:1 150:1 151:1 152:1 153:1 154:1 155:1 156:1 157:1 158:1 
0.06625264429398779 78:1 85:1 86:1 93:1 102:1 107:1 108:1 120:1 121:1 122:1 123:1 133:1 134:1 135:1 136:1 141:1 153:1 154:1 157:1 171:1 173:1 189:1 200:1 201:1 202:1 203:1 204:1 205:1 
0.07976349315989739 77:1 92:1 93:1 107:1 108:1 118:1 119:1 120:1 121:1 122:1 153:1 157:1 166:1 167:1 168:1 173:1 181:1 188:1 189:1 201:1 
1.931748298920113 73:1 74:1 86:1 89:1 102:1 105:1 121:1 134:1 135:1 136:1 137:1 138:1 139:1 140:1 141:1 149:1 153:1 157:1 165:1 169:1 173:1 181:1 185:1 189:1 201:1 204:1 
0.5337893217833545 76:1 77:1 87:1 92:1 103:1 107:1 108:1 117:1 119:1 122:1 123:1 124:1 134:1 135:1 137:1 138:1 151:1 153:1 157:1 167:1 168:1 173:1 183:1 189:1 205:1 
0.5263340334037876 71:1 76:1 77:1 87:1 92:1 103:1 107:1 108:1 109:1 117:1 119:1 122:1 123:1 125:1 133:1 134:1 135:1 138:1 141:1 151:1 153:1 154:1 157:1 167:1 168:1 173:1 183:1 184:1 189:1 205:1 
0.1335082270225163 70:1 73:1 74:1 76:1 77:1 86:1 88:1 89:1 91:1 92:1 102:1 104:1 107:1 118:1 119:1 122:1 134:1 135:1 136:1 137:1 138:1 139:1 140:1 141:1 142:1 150:1 152:1 153:1 169:1 170:1 181:1 184:1 187:1 188:1 197:1 200:1 204:1 
0.1991969149360466 75:1 86:1 87:1 88:1 89:1 90:1 91:1 102:1 104:1 107:1 118:1 120:1 123:1 136:1 139:1 152:1 155:1 156:1 165:1 168:1 169:1 170:1 171:1 173:1 181:1 184:1 187:1 189:1 200:1 203:1 206:1 
0.3167411907846954 71:1 72:1 86:1 87:1 88:1 92:1 93:1 101:1 102:1 104:1 107:1 108:1 109:1 118:1 120:1 122:1 123:1 134:1 136:1 138:1 150:1 152:1 153:1 154:1 166:1 168:1 169:1 173:1 182:1 189:1 198:1 203:1 204:1 205:1 
2.179660883842725 92:1 93:1 107:1 109:1 123:1 125:1 136:1 138:1 141:1 154:1 157:1 167:1 169:1 170:1 173:1 181:1 184:1 189:1 197:1 204:1 205:1 
0.06349696056875359 85:1 92:1 93:1 101:1 102:1 103:1 107:1 108:1 109:1 117:1 123:1 125:1 133:1 138:1 141:1 149:1 152:1 153:1 154:1 157:1 165:1 166:1 167:1 169:1 173:1 181:1 182:1 189:1 203:1 204:1 
0.1784108223456928 70:1 73:1 77:1 86:1 87:1 89:1 92:1 93:1 102:1 103:1 104:1 105:1 107:1 108:1 118:1 121:1 123:1 137:1 138:1 152:1 153:1 154:1 165:1 167:1 169:1 173:1 181:1 183:1 185:1 189:1 197:1 203:1 204:1 205:1 
0.4512399178752098 72:1 86:1 88:1 92:1 93:1 102:1 103:1 104:1 107:1 109:1 117:1 118:1 123:1 125:1 138:1 141:1 149:1 150:1 151:1 152:1 153:1 154:1 157:1 169:1 170:1 173:1 189:1 199:1 204:1 205:1 
0.2053394587588933 71:1 74:1 77:1 86:1 88:1 91:1 92:1 101:1 102:1 103:1 104:1 106:1 107:1 117:1 118:1 119:1 136:1 139:1 165:1 173:1 189:1 203:1 204:1 205:1 
0.4696671288570187 70:1 72:1 77:1 86:1 87:1 90:1 91:1 93:1 101:1 102:1 103:1 108:1 109:1 118:1 119:1 124:1 134:1 135:1 136:1 138:1 152:1 165:1 173:1 189:1 203:1 204:1 205:1 
0.08385090043676109 72:1 77:1 85:1 92:1 101:1 107:1 108:1 117:1 120:1 133:1 149:1 165:1 168:1 169:1 170:1 171:1 172:1 173:1 181:1 200:1 
0.1676999348619077 72:1 77:1 92:1 107:1 108:1 181:1 
0.4231418890616473 118:1 135:1 136:1 200:1 
0.6854641470397449 70:1 77:1 86:1 92:1 102:1 104:1 105:1 106:1 107:1 108:1 118:1 123:1 125:1 133:1 134:1 138:1 139:1 140:1 141:1 150:1 166:1 168:1 169:1 170:1 171:1 182:1 185:1 186:1 188:1 198:1 
0.8139256215230027 77:1 92:1 107:1 108:1 121:1 122:1 133:1 134:1 135:1 136:1 153:1 154:1 171:1 172:1 188:1 205:1 
0.02469532338581809 77:1 92:1 107:1 108:1 120:1 121:1 122:1 133:1 134:1 135:1 136:1 153:1 154:1 171:1 172:1 188:1 189:1 
0.05979016121532341 73:1 88:1 104:1 105:1 106:1 107:1 108:1 118:1 119:1 125:1 133:1 138:1 141:1 150:1 151:1 154:1 157:1 168:1 169:1 173:1 184:1 187:1 188:1 189:1 201:1 
0.1994814816709637 73:1 87:1 88:1 93:1 101:1 102:1 108:1 109:1 119:1 125:1 141:1 149:1 153:1 157:1 165:1 169:1 173:1 189:1 200:1 205:1 
0.3511452357576883 73:1 86:1 87:1 88:1 89:1 90:1 91:1 92:1 93:1 101:1 102:1 118:1 141:1 150:1 151:1 153:1 157:1 165:1 169:1 181:1 183:1 184:1 198:1 202:1 
-2.860570522472269 77:1 86:1 92:1 102:1 107:1 108:1 118:1 119:1 123:1 124:1 135:1 136:1 138:1 141:1 149:1 153:1 154:1 157:1 165:1 169:1 173:1 181:1 189:1 205:1 
-3 70:1 77:1 86:1 92:1 102:1 108:1 109:1 118:1 119:1 123:1 125:1 134:1 135:1 136:1 139:1 150:1 154:1 169:1 170:1 185:1 197:1 205:1 
-3 77:1 86:1 88:1 92:1 102:1 107:1 108:1 118:1 123:1 125:1 134:1 135:1 136:1 138:1 141:1 153:1 154:1 157:1 165:1 169:1 173:1 181:1 185:1 189:1 205:1 
-3 86:1 92:1 102:1 107:1 108:1 118:1 135:1 136:1 138:1 141:1 153:1 157:1 165:1 168:1 169:1 173:1 181:1 184:1 189:1 
-3 86:1 92:1 102:1 107:1 108:1 118:1 135:1 136:1 138:1 141:1 153:1 157:1 165:1 168:1 169:1 173:1 181:1 184:1 189:1 
