svm_type c_svc
kernel_type rbf
gamma 0.015625
nr_class 2
total_sv 32
rho -1.63287
label -1 1
nr_sv 27 5
SV
0.9404720580310098 76:1 86:1 89:1 92:1 102:1 105:1 108:1 118:1 121:1 124:1 134:1 137:1 140:1 150:1 153:1 156:1 166:1 169:1 172:1 182:1 185:1 188:1 204:1 
0.2762076349674297 76:1 86:1 89:1 102:1 105:1 118:1 121:1 134:1 137:1 150:1 153:1 166:1 169:1 182:1 185:1 204:1 
0.2232187500873259 75:1 86:1 87:1 88:1 89:1 91:1 101:1 102:1 103:1 104:1 105:1 107:1 118:1 121:1 123:1 134:1 137:1 139:1 150:1 153:1 155:1 158:1 166:1 169:1 171:1 174:1 182:1 185:1 189:1 198:1 201:1 202:1 203:1 204:1 
0.05857672475822135 72:1 85:1 86:1 87:1 88:1 89:1 90:1 91:1 92:1 93:1 104:1 120:1 133:1 134:1 135:1 136:1 137:1 138:1 139:1 140:1 152:1 168:1 182:1 183:1 184:1 185:1 186:1 187:1 188:1 189:1 200:1 
0.2640205283187845 86:1 87:1 89:1 92:1 102:1 103:1 104:1 105:1 107:1 108:1 117:1 118:1 119:1 121:1 125:1 133:1 134:1 135:1 136:1 137:1 138:1 139:1 140:1 141:1 150:1 151:1 152:1 153:1 166:1 167:1 169:1 171:1 182:1 183:1 185:1 187:1 188:1 204:1 
0.610638786396615 76:1 88:1 90:1 92:1 119:1 121:1 123:1 133:1 134:1 135:1 136:1 137:1 138:1 139:1 140:1 141:1 150:1 152:1 166:1 168:1 170:1 183:1 185:1 186:1 
0.1573987654866916 86:1 88:1 133:1 134:1 135:1 136:1 137:1 138:1 139:1 140:1 141:1 182:1 184:1 
1.354347119154489 70:1 71:1 75:1 86:1 87:1 88:1 91:1 102:1 103:1 107:1 118:1 119:1 123:1 133:1 134:1 135:1 136:1 137:1 138:1 139:1 140:1 141:1 150:1 151:1 155:1 166:1 167:1 168:1 171:1 182:1 183:1 184:1 187:1 203:1 
0.8105239146579218 86:1 87:1 88:1 89:1 91:1 92:1 93:1 102:1 105:1 107:1 108:1 109:1 117:1 118:1 119:1 120:1 121:1 122:1 123:1 134:1 137:1 139:1 149:1 150:1 151:1 152:1 153:1 154:1 155:1 156:1 157:1 166:1 169:1 171:1 182:1 183:1 184:1 185:1 187:1 188:1 
0.1028333422242188 71:1 75:1 85:1 86:1 89:1 91:1 102:1 104:1 105:1 107:1 117:1 118:1 119:1 121:1 123:1 137:1 138:1 139:1 140:1 141:1 149:1 150:1 151:1 153:1 155:1 166:1 168:1 169:1 171:1 181:1 182:1 185:1 187:1 199:1 203:1 
0.1256821036763223 70:1 86:1 87:1 102:1 104:1 105:1 118:1 121:1 134:1 150:1 153:1 166:1 168:1 169:1 181:1 183:1 184:1 197:1 
0.8224387905394285 75:1 86:1 87:1 88:1 89:1 91:1 102:1 105:1 107:1 117:1 118:1 121:1 123:1 134:1 136:1 137:1 139:1 150:1 152:1 153:1 155:1 157:1 166:1 167:1 168:1 169:1 171:1 173:1 185:1 186:1 187:1 188:1 189:1 
0.2252374683731014 76:1 86:1 87:1 88:1 89:1 90:1 92:1 102:1 106:1 108:1 117:1 118:1 122:1 124:1 133:1 134:1 136:1 138:1 140:1 141:1 150:1 152:1 154:1 156:1 157:1 166:1 168:1 170:1 172:1 174:1 182:1 183:1 184:1 186:1 189:1 202:1 203:1 204:1 205:1 
0.05684365695455877 73:1 76:1 77:1 86:1 87:1 88:1 89:1 91:1 92:1 102:1 105:1 107:1 109:1 118:1 121:1 126:1 134:1 135:1 136:1 137:1 138:1 139:1 140:1 141:1 150:1 153:1 169:1 171:1 181:1 185:1 187:1 188:1 201:1 204:1 205:1 
0.7053537818442913 71:1 72:1 73:1 86:1 87:1 89:1 91:1 101:1 102:1 105:1 107:1 118:1 121:1 123:1 125:1 126:1 134:1 136:1 137:1 138:1 139:1 140:1 141:1 150:1 151:1 153:1 155:1 166:1 169:1 171:1 184:1 185:1 186:1 187:1 188:1 201:1 
2.678756843592821 74:1 86:1 87:1 88:1 89:1 90:1 91:1 104:1 105:1 106:1 107:1 120:1 121:1 122:1 123:1 125:1 133:1 134:1 135:1 136:1 137:1 138:1 139:1 140:1 141:1 152:1 153:1 154:1 155:1 168:1 169:1 170:1 171:1 182:1 183:1 184:1 185:1 186:1 187:1 188:1 202:1 
0.4112525031228485 70:1 74:1 86:1 88:1 89:1 90:1 102:1 105:1 106:1 110:1 118:1 121:1 122:1 126:1 133:1 134:1 137:1 138:1 140:1 141:1 142:1 150:1 153:1 154:1 155:1 156:1 166:1 169:1 170:1 171:1 182:1 184:1 185:1 186:1 187:1 198:1 
0.9536934602333524 70:1 75:1 86:1 87:1 88:1 89:1 91:1 102:1 103:1 104:1 105:1 107:1 118:1 119:1 120:1 121:1 123:1 125:1 133:1 134:1 135:1 136:1 137:1 139:1 140:1 141:1 150:1 151:1 152:1 153:1 154:1 155:1 166:1 167:1 168:1 169:1 170:1 171:1 182:1 183:1 184:1 185:1 186:1 187:1 198:1 203:1 
0.5970937736474071 70:1 86:1 87:1 89:1 90:1 92:1 102:1 104:1 105:1 106:1 107:1 118:1 125:1 133:1 134:1 138:1 139:1 140:1 141:1 149:1 150:1 166:1 170:1 171:1 182:1 183:1 185:1 186:1 187:1 188:1 198:1 
1.138046366501425 70:1 77:1 86:1 88:1 89:1 90:1 91:1 92:1 102:1 104:1 105:1 108:1 109:1 117:1 118:1 120:1 121:1 126:1 133:1 134:1 136:1 137:1 139:1 140:1 141:1 150:1 152:1 153:1 166:1 168:1 169:1 172:1 182:1 184:1 185:1 186:1 187:1 188:1 198:1 205:1 
0.3818212029061729 72:1 75:1 87:1 88:1 91:1 103:1 107:1 118:1 123:1 133:1 136:1 137:1 138:1 139:1 140:1 141:1 142:1 150:1 155:1 167:1 171:1 183:1 184:1 187:1 200:1 203:1 216:1 
0.05658296958541625 72:1 73:1 86:1 87:1 88:1 89:1 90:1 91:1 92:1 93:1 101:1 102:1 105:1 120:1 121:1 125:1 133:1 134:1 135:1 137:1 138:1 139:1 140:1 153:1 165:1 166:1 169:1 173:1 182:1 183:1 184:1 185:1 186:1 187:1 188:1 189:1 200:1 201:1 
0.2190077513002199 72:1 73:1 85:1 86:1 87:1 88:1 89:1 90:1 91:1 92:1 93:1 94:1 101:1 105:1 107:1 118:1 120:1 121:1 123:1 133:1 134:1 135:1 136:1 139:1 150:1 154:1 155:1 156:1 157:1 158:1 166:1 171:1 182:1 183:1 184:1 185:1 187:1 200:1 201:1 203:1 
0.0411143758245871 73:1 86:1 87:1 88:1 89:1 90:1 91:1 92:1 93:1 101:1 102:1 118:1 121:1 122:1 124:1 137:1 138:1 139:1 153:1 169:1 181:1 182:1 183:1 184:1 185:1 186:1 187:1 188:1 205:1 
0.2792044433781319 72:1 73:1 85:1 86:1 87:1 88:1 89:1 90:1 91:1 92:1 93:1 94:1 101:1 107:1 118:1 122:1 133:1 134:1 135:1 136:1 137:1 138:1 139:1 140:1 141:1 150:1 153:1 155:1 166:1 168:1 171:1 183:1 184:1 186:1 187:1 198:1 199:1 204:1 205:1 
0.6220685317509093 70:1 73:1 74:1 77:1 86:1 88:1 89:1 92:1 102:1 103:1 104:1 105:1 107:1 108:1 118:1 121:1 122:1 123:1 133:1 134:1 135:1 136:1 137:1 138:1 139:1 140:1 141:1 142:1 150:1 153:1 154:1 155:1 166:1 168:1 169:1 171:1 172:1 182:1 183:1 184:1 185:1 188:1 198:1 201:1 202:1 205:1 
0.8875643526862995 72:1 86:1 87:1 88:1 89:1 90:1 91:1 92:1 93:1 101:1 105:1 118:1 120:1 121:1 134:1 135:1 136:1 137:1 138:1 139:1 140:1 141:1 149:1 150:1 152:1 153:1 155:1 166:1 168:1 169:1 171:1 173:1 182:1 184:1 185:1 186:1 187:1 188:1 189:1 198:1 
-3 86:1 87:1 88:1 89:1 91:1 92:1 102:1 104:1 105:1 107:1 118:1 120:1 121:1 123:1 133:1 134:1 135:1 136:1 137:1 138:1 139:1 140:1 141:1 150:1 152:1 153:1 155:1 166:1 168:1 169:1 171:1 182:1 183:1 184:1 185:1 187:1 188:1 
-3 74:1 75:1 76:1 86:1 88:1 90:1 92:1 102:1 104:1 106:1 108:1 118:1 120:1 122:1 124:1 133:1 134:1 135:1 136:1 137:1 138:1 139:1 140:1 141:1 142:1 150:1 152:1 154:1 156:1 166:1 168:1 170:1 172:1 182:1 184:1 186:1 188:1 202:1 203:1 204:1 
-3 86:1 87:1 88:1 89:1 90:1 91:1 92:1 102:1 104:1 105:1 107:1 118:1 120:1 121:1 123:1 133:1 134:1 135:1 136:1 137:1 138:1 139:1 140:1 141:1 150:1 152:1 153:1 155:1 166:1 168:1 169:1 171:1 182:1 183:1 184:1 185:1 186:1 187:1 188:1 
-3 86:1 87:1 88:1 89:1 91:1 102:1 105:1 107:1 118:1 121:1 123:1 133:1 134:1 137:1 139:1 140:1 141:1 150:1 153:1 155:1 166:1 169:1 171:1 182:1 183:1 184:1 185:1 186:1 187:1 
-3 86:1 87:1 88:1 89:1 91:1 102:1 105:1 107:1 118:1 121:1 123:1 133:1 134:1 137:1 139:1 140:1 141:1 150:1 153:1 155:1 166:1 169:1 171:1 182:1 183:1 184:1 185:1 186:1 187:1 
