svm_type c_svc
kernel_type rbf
gamma 0.015625
nr_class 2
total_sv 38
rho -1.34982
label -1 1
nr_sv 33 5
SV
0.07756735633960241 101:1 102:1 103:1 104:1 105:1 106:1 107:1 108:1 120:1 122:1 136:1 138:1 152:1 154:1 165:1 166:1 167:1 168:1 169:1 170:1 171:1 172:1 
0.319782805481369 70:1 71:1 72:1 73:1 74:1 78:1 90:1 93:1 105:1 106:1 107:1 108:1 117:1 118:1 119:1 120:1 121:1 122:1 170:1 186:1 198:1 199:1 200:1 201:1 202:1 
0.1648284573510781 71:1 74:1 76:1 86:1 87:1 90:1 92:1 103:1 104:1 105:1 106:1 108:1 117:1 118:1 119:1 121:1 122:1 124:1 135:1 138:1 139:1 140:1 141:1 142:1 149:1 150:1 151:1 153:1 154:1 156:1 167:1 168:1 169:1 170:1 172:1 182:1 183:1 186:1 188:1 199:1 202:1 204:1 
0.02788732827413002 71:1 86:1 87:1 102:1 117:1 118:1 119:1 120:1 136:1 137:1 138:1 154:1 155:1 171:1 172:1 188:1 
0.006148678978880894 77:1 88:1 89:1 92:1 93:1 103:1 104:1 108:1 117:1 118:1 119:1 123:1 135:1 137:1 138:1 151:1 152:1 153:1 154:1 167:1 171:1 172:1 188:1 205:1 
0.2160088953314064 77:1 86:1 87:1 92:1 93:1 103:1 104:1 108:1 117:1 121:1 122:1 123:1 134:1 138:1 139:1 153:1 155:1 166:1 167:1 168:1 172:1 182:1 188:1 205:1 
0.1044808441393114 71:1 85:1 87:1 89:1 91:1 101:1 103:1 105:1 117:1 119:1 120:1 123:1 133:1 134:1 135:1 136:1 137:1 138:1 139:1 140:1 141:1 149:1 151:1 165:1 167:1 168:1 169:1 170:1 171:1 181:1 183:1 185:1 187:1 199:1 200:1 202:1 203:1 
0.685070166847094 117:1 118:1 119:1 120:1 121:1 122:1 123:1 124:1 125:1 141:1 189:1 203:1 204:1 205:1 
2.9690059518143 77:1 92:1 107:1 108:1 117:1 118:1 119:1 120:1 121:1 122:1 151:1 167:1 168:1 169:1 170:1 171:1 172:1 173:1 189:1 204:1 205:1 
3 71:1 77:1 78:1 87:1 92:1 93:1 103:1 107:1 108:1 117:1 118:1 119:1 120:1 121:1 122:1 135:1 151:1 167:1 168:1 169:1 170:1 171:1 172:1 173:1 203:1 204:1 205:1 
3 77:1 87:1 92:1 93:1 103:1 106:1 107:1 108:1 117:1 118:1 119:1 120:1 121:1 122:1 135:1 151:1 167:1 168:1 169:1 170:1 171:1 172:1 173:1 189:1 203:1 204:1 205:1 
0.6012417419223052 77:1 89:1 92:1 93:1 105:1 107:1 108:1 121:1 123:1 135:1 137:1 138:1 151:1 153:1 154:1 157:1 167:1 169:1 170:1 173:1 184:1 185:1 189:1 203:1 204:1 205:1 
0.2705349413512401 71:1 73:1 87:1 89:1 103:1 105:1 117:1 118:1 119:1 120:1 121:1 122:1 123:1 124:1 125:1 126:1 135:1 137:1 151:1 153:1 156:1 165:1 167:1 169:1 181:1 183:1 184:1 185:1 188:1 198:1 201:1 202:1 203:1 204:1 
0.005414098831140409 73:1 87:1 89:1 105:1 117:1 118:1 119:1 120:1 121:1 122:1 123:1 124:1 125:1 137:1 153:1 165:1 166:1 167:1 168:1 169:1 172:1 182:1 185:1 188:1 201:1 
0.08471131529675899 70:1 71:1 72:1 73:1 74:1 77:1 87:1 88:1 89:1 90:1 92:1 93:1 103:1 104:1 105:1 106:1 108:1 119:1 120:1 121:1 122:1 124:1 135:1 136:1 137:1 138:1 139:1 151:1 152:1 153:1 154:1 155:1 167:1 168:1 169:1 170:1 171:1 183:1 184:1 185:1 189:1 201:1 204:1 205:1 
0.2403864374737102 70:1 71:1 72:1 73:1 77:1 87:1 89:1 90:1 92:1 93:1 101:1 103:1 104:1 105:1 106:1 108:1 117:1 118:1 119:1 120:1 122:1 123:1 124:1 138:1 139:1 150:1 151:1 152:1 153:1 154:1 155:1 166:1 168:1 170:1 173:1 182:1 184:1 189:1 198:1 199:1 200:1 204:1 205:1 
0.07563735797818992 70:1 72:1 86:1 88:1 90:1 93:1 104:1 106:1 117:1 120:1 122:1 136:1 138:1 141:1 165:1 166:1 167:1 168:1 169:1 170:1 171:1 172:1 173:1 189:1 204:1 205:1 
0.2310891351837334 72:1 90:1 91:1 92:1 93:1 102:1 103:1 104:1 105:1 117:1 138:1 141:1 165:1 173:1 189:1 203:1 204:1 205:1 
0.09940492750772693 72:1 85:1 88:1 90:1 92:1 93:1 102:1 103:1 105:1 106:1 108:1 109:1 118:1 119:1 120:1 122:1 123:1 125:1 133:1 136:1 138:1 139:1 141:1 150:1 151:1 154:1 157:1 168:1 170:1 173:1 182:1 183:1 184:1 186:1 189:1 201:1 203:1 204:1 
0.630447464041043 71:1 73:1 75:1 87:1 89:1 91:1 93:1 101:1 102:1 103:1 105:1 106:1 107:1 108:1 109:1 117:1 121:1 122:1 123:1 133:1 134:1 135:1 136:1 137:1 139:1 150:1 165:1 166:1 167:1 168:1 169:1 170:1 171:1 172:1 173:1 189:1 203:1 204:1 205:1 
0.09990551482541359 70:1 71:1 73:1 75:1 85:1 86:1 88:1 89:1 91:1 101:1 102:1 105:1 106:1 107:1 108:1 109:1 110:1 118:1 119:1 120:1 121:1 123:1 134:1 137:1 139:1 173:1 203:1 204:1 205:1 
0.05305164369248391 71:1 72:1 77:1 87:1 88:1 89:1 90:1 91:1 93:1 103:1 104:1 105:1 106:1 107:1 108:1 119:1 120:1 122:1 123:1 124:1 135:1 136:1 138:1 139:1 140:1 151:1 152:1 154:1 155:1 156:1 166:1 167:1 168:1 170:1 171:1 173:1 182:1 183:1 184:1 185:1 186:1 189:1 199:1 204:1 205:1 
0.2324926754948797 69:1 71:1 73:1 77:1 85:1 87:1 88:1 90:1 91:1 101:1 102:1 103:1 104:1 105:1 106:1 107:1 108:1 117:1 119:1 120:1 121:1 122:1 123:1 124:1 133:1 134:1 135:1 138:1 141:1 149:1 165:1 166:1 167:1 168:1 169:1 170:1 171:1 172:1 173:1 189:1 204:1 205:1 
0.09426014409399371 77:1 85:1 101:1 105:1 106:1 117:1 118:1 119:1 122:1 133:1 138:1 149:1 154:1 165:1 168:1 169:1 170:1 171:1 172:1 181:1 
0.0357130434129944 71:1 74:1 77:1 78:1 87:1 90:1 93:1 101:1 102:1 103:1 104:1 105:1 106:1 107:1 108:1 119:1 122:1 135:1 138:1 151:1 154:1 165:1 166:1 167:1 168:1 169:1 170:1 171:1 172:1 173:1 174:1 183:1 186:1 199:1 202:1 
0.02174213609014672 73:1 87:1 88:1 89:1 90:1 91:1 92:1 93:1 101:1 102:1 109:1 118:1 124:1 138:1 139:1 153:1 167:1 168:1 182:1 183:1 203:1 204:1 
0.4558648898003431 73:1 89:1 93:1 104:1 105:1 118:1 119:1 121:1 133:1 137:1 138:1 139:1 140:1 150:1 151:1 153:1 168:1 169:1 184:1 185:1 
0.01864308717249748 73:1 87:1 88:1 93:1 101:1 102:1 103:1 105:1 117:1 120:1 122:1 134:1 135:1 138:1 149:1 150:1 152:1 154:1 157:1 167:1 170:1 171:1 172:1 184:1 186:1 187:1 200:1 
0.1410273101211246 73:1 75:1 88:1 91:1 103:1 105:1 107:1 118:1 119:1 123:1 133:1 135:1 136:1 137:1 138:1 139:1 140:1 141:1 150:1 151:1 155:1 167:1 168:1 169:1 171:1 184:1 187:1 200:1 203:1 
0.05569017128098103 72:1 73:1 85:1 86:1 87:1 103:1 108:1 109:1 117:1 118:1 119:1 120:1 121:1 122:1 123:1 135:1 136:1 137:1 138:1 139:1 140:1 141:1 151:1 152:1 153:1 154:1 155:1 156:1 166:1 167:1 168:1 169:1 170:1 171:1 172:1 173:1 182:1 189:1 198:1 199:1 200:1 201:1 202:1 203:1 204:1 205:1 
0.7347757719206188 72:1 85:1 86:1 87:1 88:1 89:1 90:1 91:1 92:1 93:1 101:1 105:1 109:1 118:1 119:1 120:1 121:1 122:1 124:1 138:1 139:1 152:1 153:1 167:1 168:1 169:1 170:1 171:1 173:1 189:1 197:1 
0.1831517188430439 73:1 87:1 88:1 89:1 90:1 91:1 92:1 93:1 101:1 102:1 119:1 120:1 121:1 122:1 125:1 134:1 135:1 138:1 139:1 140:1 151:1 165:1 166:1 167:1 170:1 171:1 172:1 173:1 181:1 183:1 184:1 185:1 186:1 189:1 203:1 204:1 205:1 
0.06403398910845842 73:1 86:1 87:1 88:1 89:1 90:1 91:1 92:1 93:1 101:1 102:1 117:1 118:1 119:1 120:1 121:1 122:1 125:1 136:1 138:1 139:1 140:1 152:1 168:1 173:1 181:1 182:1 183:1 184:1 185:1 186:1 189:1 203:1 204:1 205:1 
-3 71:1 77:1 87:1 88:1 92:1 103:1 105:1 107:1 108:1 117:1 118:1 119:1 120:1 121:1 122:1 135:1 138:1 166:1 167:1 168:1 203:1 204:1 
-3 71:1 73:1 77:1 78:1 87:1 89:1 90:1 92:1 93:1 103:1 106:1 107:1 108:1 117:1 118:1 119:1 120:1 121:1 122:1 123:1 135:1 139:1 151:1 167:1 168:1 169:1 170:1 171:1 172:1 173:1 203:1 204:1 205:1 
-3 71:1 77:1 87:1 89:1 92:1 93:1 103:1 105:1 107:1 108:1 117:1 118:1 119:1 120:1 121:1 122:1 135:1 138:1 139:1 151:1 167:1 168:1 169:1 170:1 171:1 172:1 173:1 189:1 203:1 204:1 205:1 
-3 93:1 105:1 108:1 117:1 118:1 119:1 120:1 121:1 122:1 138:1 151:1 167:1 168:1 169:1 170:1 171:1 172:1 173:1 189:1 203:1 204:1 205:1 
-3 93:1 105:1 108:1 117:1 118:1 119:1 120:1 121:1 122:1 138:1 151:1 167:1 168:1 169:1 170:1 171:1 172:1 173:1 189:1 203:1 204:1 205:1 
