svm_type c_svc
kernel_type rbf
gamma 0.015625
nr_class 2
total_sv 46
rho -1.3463
label -1 1
nr_sv 41 5
SV
0.1589065468867668 72:1 75:1 76:1 77:1 88:1 90:1 93:1 104:1 105:1 106:1 108:1 109:1 124:1 125:1 135:1 136:1 137:1 138:1 139:1 140:1 141:1 151:1 152:1 157:1 166:1 169:1 170:1 173:1 182:1 184:1 186:1 187:1 189:1 200:1 203:1 204:1 205:1 
0.7852242630432496 72:1 75:1 77:1 85:1 88:1 90:1 91:1 93:1 101:1 104:1 105:1 106:1 109:1 117:1 120:1 124:1 125:1 133:1 135:1 136:1 137:1 138:1 139:1 140:1 141:1 149:1 150:1 151:1 152:1 153:1 157:1 165:1 166:1 168:1 169:1 170:1 173:1 181:1 184:1 186:1 189:1 203:1 205:1 
0.4078938581468212 70:1 72:1 74:1 77:1 86:1 88:1 90:1 93:1 102:1 104:1 106:1 108:1 109:1 118:1 120:1 122:1 123:1 125:1 134:1 135:1 136:1 137:1 138:1 141:1 150:1 152:1 154:1 157:1 166:1 168:1 170:1 172:1 173:1 182:1 184:1 186:1 189:1 198:1 200:1 202:1 206:1 
0.1379378952197961 76:1 88:1 90:1 92:1 106:1 108:1 119:1 121:1 123:1 124:1 133:1 134:1 135:1 136:1 137:1 138:1 139:1 140:1 141:1 150:1 152:1 155:1 165:1 168:1 170:1 181:1 183:1 185:1 186:1 201:1 
0.1676687364379874 76:1 88:1 90:1 92:1 119:1 121:1 123:1 133:1 134:1 135:1 136:1 137:1 138:1 139:1 140:1 141:1 150:1 152:1 166:1 168:1 170:1 183:1 185:1 186:1 
0.07853983125087079 69:1 76:1 91:1 93:1 106:1 109:1 120:1 121:1 125:1 135:1 136:1 141:1 150:1 151:1 157:1 166:1 173:1 181:1 189:1 203:1 204:1 
0.1856435940475892 71:1 72:1 86:1 87:1 88:1 92:1 93:1 101:1 102:1 104:1 107:1 108:1 109:1 118:1 120:1 122:1 123:1 134:1 136:1 138:1 150:1 152:1 153:1 154:1 166:1 168:1 169:1 173:1 182:1 189:1 198:1 203:1 204:1 205:1 
0.1715530610152301 72:1 86:1 87:1 88:1 89:1 90:1 91:1 92:1 93:1 104:1 109:1 120:1 125:1 133:1 134:1 135:1 136:1 137:1 138:1 139:1 140:1 141:1 151:1 157:1 167:1 171:1 173:1 183:1 185:1 186:1 187:1 189:1 198:1 199:1 203:1 204:1 205:1 
0.1468644178645388 70:1 71:1 72:1 73:1 74:1 77:1 87:1 88:1 89:1 90:1 92:1 93:1 103:1 104:1 105:1 106:1 108:1 119:1 120:1 121:1 122:1 124:1 135:1 136:1 137:1 138:1 139:1 151:1 152:1 153:1 154:1 155:1 167:1 168:1 169:1 170:1 171:1 183:1 184:1 185:1 189:1 201:1 204:1 205:1 
0.2900150576870845 74:1 85:1 86:1 87:1 88:1 89:1 90:1 92:1 93:1 101:1 102:1 105:1 106:1 107:1 108:1 109:1 117:1 118:1 121:1 122:1 123:1 125:1 133:1 134:1 137:1 138:1 139:1 141:1 149:1 150:1 153:1 154:1 155:1 157:1 165:1 166:1 167:1 169:1 170:1 173:1 181:1 185:1 186:1 189:1 204:1 205:1 
0.3992547189804043 72:1 92:1 93:1 103:1 104:1 105:1 107:1 108:1 109:1 118:1 123:1 125:1 141:1 154:1 157:1 169:1 170:1 173:1 181:1 183:1 184:1 189:1 204:1 205:1 
0.1031070200622227 70:1 71:1 72:1 73:1 77:1 87:1 89:1 90:1 92:1 93:1 101:1 103:1 104:1 105:1 106:1 108:1 117:1 118:1 119:1 120:1 122:1 123:1 124:1 138:1 139:1 150:1 151:1 152:1 153:1 154:1 155:1 166:1 168:1 170:1 173:1 182:1 184:1 189:1 198:1 199:1 200:1 204:1 205:1 
0.1451800328429015 71:1 86:1 87:1 90:1 92:1 93:1 102:1 103:1 106:1 107:1 108:1 109:1 117:1 119:1 121:1 122:1 123:1 125:1 133:1 134:1 135:1 136:1 137:1 138:1 139:1 141:1 149:1 151:1 154:1 155:1 157:1 165:1 166:1 167:1 170:1 173:1 181:1 182:1 183:1 186:1 189:1 199:1 204:1 205:1 
0.03032928656186155 74:1 90:1 92:1 93:1 102:1 103:1 106:1 108:1 109:1 117:1 121:1 122:1 123:1 125:1 133:1 134:1 135:1 136:1 137:1 138:1 139:1 141:1 149:1 154:1 157:1 165:1 166:1 167:1 170:1 173:1 181:1 182:1 186:1 189:1 199:1 204:1 205:1 
1.571790232213111 73:1 85:1 88:1 90:1 92:1 93:1 102:1 103:1 105:1 106:1 108:1 109:1 118:1 119:1 121:1 122:1 123:1 125:1 133:1 134:1 136:1 138:1 139:1 141:1 150:1 151:1 152:1 154:1 155:1 157:1 166:1 168:1 170:1 173:1 182:1 183:1 185:1 186:1 189:1 201:1 204:1 205:1 
0.9247474750479049 70:1 87:1 89:1 90:1 92:1 93:1 101:1 102:1 103:1 104:1 105:1 106:1 108:1 109:1 118:1 119:1 121:1 122:1 123:1 125:1 133:1 134:1 135:1 136:1 138:1 139:1 141:1 149:1 154:1 157:1 165:1 167:1 168:1 169:1 170:1 173:1 181:1 185:1 186:1 189:1 197:1 198:1 199:1 203:1 204:1 
0.3770313034459674 70:1 72:1 74:1 86:1 89:1 90:1 92:1 93:1 101:1 102:1 103:1 104:1 105:1 106:1 108:1 109:1 118:1 119:1 121:1 122:1 123:1 125:1 133:1 134:1 135:1 136:1 138:1 139:1 141:1 154:1 157:1 165:1 170:1 173:1 181:1 189:1 204:1 205:1 
0.5590481369746077 70:1 77:1 86:1 87:1 88:1 89:1 92:1 93:1 102:1 103:1 104:1 105:1 108:1 109:1 118:1 119:1 120:1 121:1 124:1 125:1 133:1 134:1 135:1 136:1 137:1 139:1 140:1 150:1 151:1 152:1 153:1 155:1 165:1 166:1 167:1 168:1 169:1 171:1 173:1 181:1 182:1 183:1 184:1 185:1 187:1 189:1 198:1 204:1 205:1 
1.938025124390532 70:1 87:1 88:1 89:1 90:1 92:1 93:1 106:1 108:1 109:1 122:1 123:1 125:1 133:1 134:1 135:1 136:1 137:1 138:1 139:1 141:1 154:1 155:1 157:1 165:1 170:1 173:1 183:1 184:1 185:1 186:1 189:1 198:1 204:1 205:1 
0.3174972612218694 72:1 86:1 88:1 92:1 93:1 101:1 102:1 103:1 104:1 105:1 106:1 107:1 108:1 109:1 119:1 120:1 121:1 122:1 123:1 125:1 135:1 136:1 137:1 138:1 141:1 149:1 150:1 151:1 152:1 157:1 165:1 167:1 168:1 169:1 172:1 173:1 181:1 182:1 183:1 184:1 185:1 186:1 187:1 188:1 189:1 200:1 203:1 204:1 205:1 
0.6154518566880463 70:1 71:1 72:1 73:1 77:1 86:1 87:1 88:1 90:1 92:1 93:1 103:1 104:1 106:1 108:1 117:1 119:1 120:1 122:1 123:1 124:1 134:1 135:1 136:1 137:1 138:1 139:1 150:1 151:1 154:1 155:1 166:1 167:1 170:1 173:1 183:1 184:1 185:1 189:1 197:1 199:1 204:1 205:1 
0.258380516627851 70:1 73:1 74:1 86:1 87:1 88:1 90:1 92:1 93:1 101:1 103:1 105:1 106:1 108:1 109:1 119:1 120:1 121:1 122:1 123:1 125:1 135:1 138:1 139:1 141:1 150:1 152:1 154:1 157:1 165:1 167:1 170:1 173:1 182:1 183:1 185:1 186:1 189:1 199:1 204:1 205:1 
0.1194676379312513 70:1 85:1 87:1 88:1 90:1 92:1 93:1 103:1 106:1 107:1 108:1 109:1 118:1 119:1 122:1 123:1 125:1 134:1 135:1 138:1 139:1 141:1 149:1 150:1 151:1 152:1 154:1 155:1 157:1 166:1 167:1 170:1 173:1 182:1 183:1 186:1 189:1 198:1 201:1 204:1 205:1 
0.2201965590718768 71:1 74:1 75:1 76:1 77:1 86:1 87:1 88:1 89:1 90:1 91:1 101:1 103:1 104:1 105:1 106:1 107:1 119:1 120:1 121:1 122:1 123:1 135:1 136:1 137:1 138:1 139:1 141:1 150:1 151:1 152:1 153:1 154:1 155:1 166:1 167:1 168:1 169:1 170:1 171:1 183:1 184:1 185:1 186:1 187:1 188:1 204:1 205:1 
0.09887794634780373 70:1 71:1 72:1 73:1 74:1 75:1 86:1 87:1 88:1 89:1 90:1 101:1 102:1 103:1 104:1 105:1 106:1 107:1 108:1 109:1 118:1 119:1 120:1 121:1 122:1 135:1 136:1 150:1 151:1 152:1 155:1 156:1 157:1 165:1 166:1 170:1 173:1 182:1 185:1 189:1 198:1 204:1 205:1 
0.6430985004255952 77:1 85:1 88:1 89:1 93:1 105:1 106:1 109:1 118:1 119:1 120:1 121:1 122:1 123:1 124:1 125:1 141:1 150:1 151:1 152:1 153:1 154:1 155:1 156:1 157:1 169:1 170:1 173:1 181:1 184:1 185:1 186:1 189:1 205:1 
1.149445573537811 72:1 73:1 74:1 75:1 77:1 88:1 91:1 93:1 104:1 105:1 106:1 107:1 108:1 109:1 124:1 125:1 135:1 136:1 137:1 138:1 139:1 140:1 141:1 151:1 155:1 156:1 157:1 166:1 168:1 169:1 170:1 171:1 173:1 182:1 184:1 185:1 186:1 189:1 200:1 203:1 204:1 205:1 
0.6297173675975419 70:1 71:1 77:1 92:1 93:1 104:1 105:1 106:1 107:1 108:1 117:1 120:1 133:1 134:1 136:1 152:1 153:1 154:1 155:1 156:1 157:1 173:1 189:1 198:1 199:1 204:1 
0.08792981566426315 71:1 77:1 87:1 92:1 93:1 103:1 104:1 105:1 106:1 107:1 108:1 119:1 120:1 133:1 134:1 135:1 136:1 151:1 152:1 167:1 168:1 169:1 170:1 171:1 172:1 173:1 183:1 189:1 199:1 204:1 205:1 
0.3698652756873813 71:1 77:1 104:1 105:1 106:1 107:1 108:1 133:1 134:1 152:1 173:1 189:1 198:1 203:1 204:1 205:1 
0.3374448737149486 70:1 77:1 86:1 92:1 102:1 104:1 105:1 106:1 107:1 108:1 118:1 123:1 125:1 133:1 134:1 138:1 139:1 140:1 141:1 150:1 166:1 168:1 169:1 170:1 171:1 182:1 185:1 186:1 188:1 198:1 
0.1031402717904827 70:1 74:1 86:1 93:1 102:1 103:1 104:1 106:1 107:1 108:1 118:1 119:1 120:1 133:1 134:1 135:1 136:1 150:1 151:1 152:1 155:1 156:1 157:1 166:1 167:1 168:1 173:1 182:1 186:1 189:1 198:1 201:1 204:1 205:1 
0.2564761248921407 70:1 90:1 91:1 92:1 93:1 103:1 104:1 106:1 107:1 119:1 122:1 123:1 133:1 135:1 138:1 139:1 151:1 154:1 155:1 167:1 168:1 170:1 171:1 186:1 187:1 188:1 189:1 198:1 
0.04954057392429875 72:1 73:1 77:1 88:1 90:1 91:1 93:1 102:1 103:1 104:1 105:1 106:1 107:1 109:1 118:1 119:1 120:1 121:1 122:1 123:1 124:1 133:1 134:1 135:1 136:1 137:1 138:1 139:1 149:1 150:1 151:1 152:1 153:1 154:1 155:1 166:1 167:1 168:1 169:1 170:1 171:1 172:1 173:1 182:1 184:1 185:1 186:1 189:1 200:1 201:1 204:1 205:1 
0.3272420590846082 69:1 76:1 77:1 85:1 87:1 88:1 89:1 90:1 93:1 103:1 104:1 105:1 106:1 107:1 108:1 109:1 118:1 119:1 120:1 121:1 122:1 123:1 124:1 125:1 133:1 135:1 139:1 151:1 152:1 153:1 154:1 155:1 156:1 157:1 166:1 167:1 171:1 172:1 181:1 183:1 185:1 186:1 187:1 188:1 189:1 197:1 201:1 202:1 205:1 
0.5036944641706376 72:1 86:1 87:1 88:1 89:1 90:1 91:1 92:1 93:1 101:1 104:1 119:1 120:1 133:1 134:1 139:1 140:1 141:1 149:1 150:1 155:1 157:1 166:1 169:1 170:1 173:1 182:1 185:1 189:1 198:1 200:1 204:1 205:1 
0.1272125696172358 73:1 88:1 104:1 105:1 106:1 107:1 108:1 109:1 118:1 119:1 121:1 123:1 125:1 133:1 137:1 139:1 141:1 151:1 153:1 155:1 157:1 168:1 169:1 171:1 173:1 184:1 185:1 189:1 200:1 
0.03119827123384954 72:1 86:1 87:1 88:1 89:1 90:1 91:1 92:1 93:1 101:1 104:1 108:1 120:1 122:1 123:1 134:1 135:1 141:1 149:1 152:1 153:1 154:1 155:1 156:1 157:1 166:1 167:1 183:1 186:1 200:1 203:1 204:1 
0.02355291703578758 71:1 72:1 85:1 86:1 87:1 88:1 89:1 90:1 91:1 92:1 93:1 106:1 107:1 108:1 109:1 117:1 120:1 124:1 133:1 134:1 135:1 136:1 149:1 151:1 152:1 153:1 154:1 155:1 156:1 157:1 165:1 166:1 167:1 168:1 169:1 170:1 171:1 172:1 181:1 182:1 183:1 184:1 185:1 186:1 187:1 188:1 203:1 204:1 205:1 
0.0577586988064868 71:1 75:1 87:1 88:1 90:1 91:1 93:1 102:1 104:1 106:1 107:1 108:1 109:1 118:1 120:1 122:1 123:1 124:1 125:1 133:1 135:1 136:1 138:1 139:1 141:1 149:1 150:1 152:1 153:1 154:1 155:1 157:1 166:1 168:1 169:1 170:1 171:1 172:1 173:1 182:1 183:1 186:1 187:1 189:1 199:1 203:1 
0.09405027280878478 71:1 72:1 85:1 86:1 87:1 88:1 89:1 90:1 91:1 92:1 93:1 101:1 102:1 103:1 104:1 105:1 106:1 109:1 123:1 124:1 135:1 136:1 139:1 140:1 150:1 151:1 152:1 153:1 154:1 156:1 157:1 166:1 167:1 168:1 169:1 170:1 171:1 189:1 197:1 198:1 199:1 200:1 201:1 202:1 203:1 204:1 205:1 
-3 70:1 72:1 85:1 88:1 90:1 92:1 93:1 104:1 105:1 106:1 108:1 109:1 119:1 120:1 121:1 122:1 123:1 125:1 133:1 135:1 136:1 137:1 138:1 139:1 141:1 150:1 152:1 153:1 154:1 157:1 165:1 166:1 167:1 168:1 169:1 170:1 173:1 181:1 183:1 185:1 186:1 189:1 198:1 203:1 204:1 
-3 71:1 72:1 77:1 87:1 88:1 89:1 90:1 91:1 93:1 103:1 104:1 105:1 106:1 107:1 108:1 119:1 120:1 122:1 123:1 124:1 135:1 136:1 138:1 139:1 140:1 151:1 152:1 154:1 155:1 156:1 166:1 167:1 168:1 170:1 171:1 173:1 182:1 183:1 184:1 185:1 186:1 189:1 199:1 204:1 205:1 
-3 70:1 72:1 74:1 86:1 88:1 90:1 92:1 93:1 101:1 102:1 104:1 105:1 106:1 108:1 109:1 118:1 119:1 120:1 121:1 122:1 123:1 125:1 133:1 134:1 135:1 136:1 137:1 138:1 139:1 141:1 150:1 152:1 153:1 154:1 155:1 157:1 166:1 168:1 169:1 170:1 173:1 181:1 182:1 184:1 185:1 186:1 189:1 198:1 204:1 205:1 
-3 71:1 88:1 92:1 93:1 104:1 105:1 106:1 108:1 109:1 123:1 125:1 133:1 134:1 135:1 139:1 141:1 151:1 155:1 157:1 166:1 170:1 173:1 181:1 185:1 186:1 189:1 198:1 204:1 205:1 
-3 71:1 88:1 92:1 93:1 104:1 105:1 106:1 108:1 109:1 123:1 125:1 133:1 134:1 135:1 139:1 141:1 151:1 155:1 157:1 166:1 170:1 173:1 181:1 185:1 186:1 189:1 198:1 204:1 205:1 
