svm_type c_svc
kernel_type rbf
gamma 0.015625
nr_class 2
total_sv 34
rho -1.08682
label -1 1
nr_sv 29 5
SV
0.0233077308086667 31:1 37:1 38:1 47:1 48:1 53:1 63:1 64:1 69:1 71:1 72:1 73:1 78:1 79:1 85:1 88:1 89:1 90:1 94:1 95:1 101:1 106:1 107:1 109:1 110:1 117:1 123:1 124:1 125:1 130:1 131:1 132:1 133:1 134:1 135:1 136:1 137:1 138:1 139:1 140:1 141:1 146:1 147:1 148:1 149:1 150:1 151:1 152:1 153:1 154:1 156:1 157:1 165:1 173:1 174:1 181:1 190:1 197:1 206:1 207:1 213:1 222:1 223:1 229:1 238:1 239:1 245:1 246:1 255:1 
0.5605153062625229 21:1 32:1 37:1 48:1 53:1 63:1 69:1 71:1 72:1 78:1 79:1 85:1 88:1 89:1 90:1 94:1 101:1 106:1 107:1 109:1 110:1 117:1 123:1 124:1 125:1 130:1 131:1 133:1 134:1 135:1 136:1 137:1 138:1 139:1 140:1 141:1 146:1 147:1 148:1 149:1 150:1 151:1 152:1 153:1 154:1 157:1 165:1 173:1 174:1 181:1 190:1 197:1 206:1 207:1 213:1 222:1 223:1 229:1 238:1 239:1 245:1 254:1 
0.04642663302024584 30:1 31:1 47:1 63:1 79:1 95:1 111:1 115:1 116:1 117:1 118:1 119:1 120:1 121:1 122:1 123:1 124:1 125:1 126:1 127:1 131:1 132:1 133:1 134:1 135:1 136:1 137:1 138:1 139:1 140:1 141:1 142:1 143:1 159:1 175:1 191:1 207:1 216:1 223:1 239:1 254:1 255:1 
0.238272618612491 19:1 35:1 51:1 53:1 54:1 55:1 56:1 57:1 58:1 67:1 70:1 74:1 83:1 90:1 99:1 106:1 115:1 116:1 117:1 118:1 119:1 120:1 121:1 122:1 131:1 138:1 142:1 147:1 154:1 158:1 159:1 163:1 170:1 174:1 175:1 179:1 186:1 190:1 191:1 192:1 195:1 198:1 200:1 201:1 202:1 203:1 204:1 205:1 206:1 207:1 210:1 211:1 214:1 215:1 216:1 217:1 218:1 219:1 220:1 221:1 226:1 227:1 230:1 243:1 
0.06018271927038291 31:1 36:1 47:1 52:1 57:1 68:1 84:1 92:1 93:1 94:1 100:1 101:1 102:1 103:1 104:1 105:1 106:1 107:1 108:1 109:1 110:1 116:1 117:1 118:1 119:1 132:1 148:1 164:1 180:1 190:1 195:1 196:1 197:1 198:1 199:1 200:1 201:1 202:1 203:1 204:1 205:1 206:1 212:1 222:1 238:1 
0.04223729099190635 45:1 47:1 48:1 51:1 52:1 61:1 62:1 63:1 68:1 70:1 71:1 75:1 76:1 77:1 79:1 84:1 86:1 87:1 91:1 92:1 95:1 100:1 103:1 106:1 107:1 111:1 116:1 119:1 120:1 121:1 122:1 127:1 132:1 133:1 134:1 135:1 136:1 137:1 143:1 148:1 149:1 150:1 153:1 154:1 159:1 164:1 169:1 170:1 173:1 175:1 180:1 186:1 189:1 191:1 196:1 204:1 205:1 207:1 212:1 213:1 214:1 215:1 216:1 217:1 218:1 219:1 220:1 221:1 223:1 227:1 228:1 229:1 230:1 231:1 232:1 233:1 239:1 255:1 256:1 
0.1890616016675514 45:1 47:1 51:1 61:1 63:1 67:1 70:1 75:1 76:1 83:1 86:1 87:1 90:1 91:1 99:1 103:1 104:1 105:1 106:1 115:1 116:1 117:1 118:1 119:1 120:1 121:1 131:1 132:1 136:1 137:1 147:1 152:1 153:1 154:1 156:1 163:1 169:1 170:1 172:1 173:1 179:1 188:1 189:1 195:1 198:1 199:1 200:1 201:1 202:1 203:1 204:1 205:1 210:1 211:1 212:1 213:1 214:1 215:1 216:1 217:1 218:1 219:1 222:1 227:1 238:1 
0.1919244283250891 23:1 24:1 39:1 40:1 52:1 53:1 56:1 69:1 72:1 74:1 85:1 88:1 89:1 90:1 91:1 93:1 101:1 102:1 103:1 104:1 105:1 106:1 109:1 114:1 115:1 116:1 117:1 118:1 119:1 120:1 122:1 125:1 126:1 130:1 131:1 133:1 136:1 138:1 142:1 149:1 152:1 154:1 157:1 158:1 159:1 165:1 168:1 170:1 172:1 173:1 174:1 175:1 181:1 184:1 186:1 187:1 188:1 189:1 190:1 191:1 192:1 196:1 197:1 200:1 202:1 203:1 212:1 213:1 215:1 216:1 218:1 231:1 232:1 247:1 248:1 
0.02307585089465171 46:1 57:1 61:1 72:1 73:1 76:1 77:1 86:1 87:1 88:1 89:1 91:1 92:1 100:1 101:1 102:1 105:1 106:1 107:1 111:1 114:1 115:1 116:1 117:1 121:1 127:1 130:1 134:1 135:1 136:1 137:1 138:1 139:1 140:1 141:1 142:1 143:1 144:1 151:1 153:1 169:1 185:1 187:1 200:1 201:1 203:1 204:1 212:1 217:1 220:1 221:1 228:1 237:1 238:1 
0.014534518007756 27:1 30:1 31:1 38:1 43:1 44:1 46:1 47:1 54:1 59:1 60:1 62:1 63:1 70:1 75:1 78:1 79:1 86:1 91:1 94:1 95:1 98:1 99:1 100:1 101:1 102:1 103:1 104:1 105:1 106:1 107:1 108:1 109:1 110:1 111:1 114:1 115:1 116:1 117:1 118:1 119:1 120:1 121:1 122:1 123:1 124:1 125:1 126:1 127:1 142:1 143:1 146:1 147:1 148:1 149:1 150:1 151:1 152:1 153:1 154:1 155:1 156:1 158:1 159:1 162:1 163:1 164:1 165:1 166:1 167:1 168:1 169:1 170:1 171:1 172:1 173:1 174:1 175:1 182:1 183:1 188:1 189:1 190:1 191:1 197:1 198:1 199:1 204:1 205:1 206:1 207:1 213:1 214:1 220:1 221:1 222:1 223:1 229:1 230:1 235:1 236:1 237:1 238:1 239:1 251:1 252:1 254:1 255:1 
1.486612054921324 69:1 76:1 77:1 85:1 87:1 89:1 90:1 91:1 101:1 117:1 118:1 119:1 120:1 133:1 149:1 150:1 151:1 152:1 165:1 181:1 182:1 183:1 184:1 197:1 201:1 
0.8032417388717087 71:1 77:1 87:1 88:1 89:1 93:1 101:1 103:1 106:1 109:1 118:1 119:1 120:1 121:1 122:1 123:1 124:1 125:1 135:1 141:1 150:1 151:1 152:1 153:1 154:1 155:1 156:1 157:1 165:1 167:1 170:1 173:1 183:1 184:1 185:1 186:1 189:1 199:1 205:1 
0.1620398962208846 12:1 23:1 24:1 28:1 41:1 42:1 44:1 52:1 53:1 60:1 70:1 71:1 72:1 73:1 74:1 75:1 76:1 92:1 101:1 102:1 103:1 104:1 105:1 106:1 107:1 108:1 116:1 117:1 124:1 136:1 137:1 138:1 140:1 151:1 152:1 156:1 
1.33822329641924 71:1 77:1 87:1 89:1 90:1 101:1 103:1 106:1 107:1 118:1 119:1 120:1 121:1 122:1 123:1 124:1 135:1 151:1 152:1 153:1 154:1 155:1 156:1 165:1 167:1 170:1 181:1 183:1 185:1 186:1 199:1 
0.4364226505521384 70:1 73:1 86:1 87:1 89:1 93:1 102:1 104:1 105:1 106:1 107:1 108:1 109:1 118:1 121:1 124:1 133:1 134:1 135:1 136:1 137:1 138:1 139:1 150:1 152:1 153:1 155:1 156:1 166:1 167:1 169:1 170:1 172:1 182:1 185:1 186:1 189:1 201:1 205:1 
0.1616331019557699 73:1 86:1 102:1 103:1 104:1 105:1 106:1 107:1 108:1 109:1 118:1 124:1 133:1 134:1 135:1 136:1 138:1 139:1 140:1 150:1 155:1 156:1 166:1 167:1 170:1 172:1 182:1 183:1 186:1 189:1 198:1 
0.6636026763469383 102:1 107:1 123:1 138:1 149:1 150:1 151:1 152:1 153:1 154:1 155:1 156:1 157:1 
0.5946728727654002 86:1 91:1 102:1 103:1 104:1 105:1 106:1 107:1 138:1 154:1 165:1 166:1 167:1 168:1 169:1 170:1 171:1 172:1 173:1 
0.01897832468079016 118:1 122:1 138:1 165:1 
0.2754824589551986 73:1 88:1 103:1 104:1 118:1 119:1 133:1 134:1 136:1 137:1 138:1 139:1 140:1 141:1 150:1 151:1 167:1 184:1 200:1 201:1 
0.3685908273660889 73:1 88:1 104:1 118:1 119:1 133:1 136:1 137:1 138:1 139:1 140:1 141:1 150:1 151:1 168:1 184:1 
0.7136196538487545 85:1 102:1 118:1 119:1 136:1 137:1 138:1 139:1 140:1 141:1 151:1 166:1 181:1 
1.715526668593256 91:1 102:1 103:1 106:1 107:1 119:1 120:1 122:1 137:1 149:1 150:1 151:1 152:1 153:1 154:1 155:1 156:1 157:1 
1.494481158914336 22:1 23:1 24:1 25:1 26:1 38:1 41:1 54:1 57:1 70:1 73:1 84:1 85:1 86:1 87:1 88:1 89:1 90:1 91:1 92:1 93:1 102:1 105:1 118:1 121:1 134:1 137:1 150:1 151:1 152:1 153:1 154:1 
0.4798880919401935 69:1 72:1 74:1 88:1 90:1 104:1 106:1 118:1 119:1 120:1 121:1 122:1 123:1 124:1 125:1 136:1 138:1 152:1 154:1 165:1 166:1 167:1 168:1 169:1 170:1 171:1 187:1 188:1 189:1 204:1 205:1 
0.1530688858230924 7:1 23:1 26:1 39:1 42:1 55:1 58:1 71:1 74:1 87:1 90:1 103:1 106:1 138:1 139:1 140:1 141:1 155:1 156:1 157:1 
0.9479701456377135 69:1 72:1 74:1 85:1 88:1 90:1 101:1 104:1 106:1 117:1 118:1 119:1 120:1 121:1 122:1 123:1 124:1 125:1 133:1 136:1 138:1 149:1 152:1 154:1 165:1 166:1 167:1 168:1 169:1 170:1 171:1 172:1 188:1 189:1 204:1 205:1 
0.1029114888582251 76:1 88:1 90:1 92:1 106:1 108:1 119:1 121:1 123:1 124:1 133:1 134:1 135:1 136:1 137:1 138:1 139:1 140:1 141:1 150:1 152:1 155:1 165:1 168:1 170:1 181:1 183:1 185:1 186:1 201:1 
0.1436056037149497 38:1 39:1 41:1 43:1 44:1 54:1 57:1 59:1 70:1 72:1 75:1 84:1 85:1 86:1 87:1 88:1 89:1 90:1 91:1 92:1 93:1 101:1 104:1 106:1 116:1 117:1 119:1 121:1 122:1 134:1 135:1 137:1 152:1 153:1 
-3 69:1 85:1 87:1 88:1 89:1 90:1 91:1 92:1 93:1 101:1 103:1 106:1 107:1 117:1 118:1 119:1 120:1 121:1 133:1 135:1 137:1 138:1 139:1 149:1 151:1 152:1 153:1 154:1 165:1 167:1 170:1 173:1 181:1 183:1 189:1 197:1 
-3 22:1 23:1 24:1 25:1 26:1 27:1 28:1 29:1 38:1 42:1 43:1 54:1 56:1 57:1 58:1 69:1 70:1 71:1 73:1 75:1 86:1 89:1 90:1 91:1 101:1 102:1 103:1 104:1 105:1 106:1 118:1 121:1 122:1 125:1 134:1 138:1 140:1 141:1 150:1 151:1 152:1 153:1 154:1 155:1 156:1 
-2.058462671032419 69:1 85:1 101:1 106:1 107:1 117:1 118:1 119:1 120:1 121:1 122:1 133:1 138:1 139:1 140:1 149:1 150:1 151:1 152:1 153:1 154:1 165:1 170:1 173:1 181:1 189:1 197:1 200:1 201:1 202:1 203:1 204:1 205:1 
-2.391647623214848 106:1 107:1 118:1 119:1 120:1 121:1 124:1 138:1 139:1 150:1 151:1 152:1 153:1 154:1 170:1 173:1 189:1 197:1 
-3 106:1 107:1 118:1 119:1 120:1 121:1 124:1 138:1 139:1 150:1 151:1 152:1 153:1 154:1 170:1 173:1 189:1 197:1 
