svm_type c_svc
kernel_type rbf
gamma 0.015625
nr_class 2
total_sv 44
rho -1.36264
label -1 1
nr_sv 39 5
SV
0.4889086004805278 70:1 71:1 77:1 93:1 104:1 105:1 122:1 123:1 124:1 133:1 134:1 135:1 136:1 137:1 138:1 139:1 149:1 150:1 155:1 156:1 172:1 198:1 199:1 205:1 
0.233746092087833 71:1 87:1 93:1 104:1 105:1 109:1 122:1 124:1 133:1 136:1 137:1 138:1 139:1 140:1 149:1 150:1 151:1 156:1 172:1 173:1 189:1 
0.09026231183101588 70:1 72:1 76:1 77:1 86:1 88:1 91:1 93:1 102:1 104:1 106:1 107:1 109:1 118:1 119:1 120:1 121:1 125:1 134:1 137:1 139:1 140:1 141:1 150:1 153:1 154:1 155:1 156:1 157:1 166:1 171:1 172:1 173:1 182:1 185:1 186:1 187:1 188:1 189:1 198:1 199:1 200:1 205:1 
0.04447053202351659 77:1 86:1 87:1 88:1 89:1 90:1 91:1 92:1 93:1 104:1 107:1 109:1 120:1 123:1 125:1 136:1 139:1 141:1 152:1 155:1 157:1 168:1 171:1 173:1 182:1 183:1 184:1 185:1 186:1 187:1 188:1 189:1 205:1 
0.1417730738954306 77:1 93:1 101:1 102:1 103:1 104:1 105:1 106:1 107:1 108:1 109:1 117:1 120:1 122:1 125:1 133:1 136:1 138:1 141:1 149:1 152:1 154:1 157:1 165:1 166:1 167:1 168:1 169:1 170:1 171:1 172:1 173:1 189:1 205:1 
0.04658340644464389 74:1 77:1 89:1 90:1 93:1 105:1 109:1 119:1 120:1 125:1 134:1 135:1 136:1 137:1 138:1 139:1 140:1 141:1 152:1 157:1 168:1 173:1 185:1 189:1 202:1 205:1 
0.1415929792103941 75:1 77:1 90:1 105:1 106:1 120:1 134:1 135:1 136:1 137:1 138:1 139:1 140:1 169:1 185:1 186:1 202:1 
0.1008798528261952 77:1 86:1 93:1 102:1 103:1 104:1 105:1 106:1 107:1 108:1 109:1 118:1 125:1 141:1 149:1 157:1 165:1 173:1 181:1 184:1 189:1 200:1 205:1 
0.5851304286236612 75:1 77:1 89:1 90:1 91:1 93:1 101:1 102:1 103:1 104:1 105:1 109:1 121:1 122:1 125:1 139:1 141:1 153:1 154:1 157:1 165:1 166:1 167:1 168:1 169:1 173:1 185:1 186:1 189:1 203:1 205:1 
0.5883491613433601 91:1 102:1 103:1 106:1 107:1 119:1 120:1 122:1 137:1 149:1 150:1 151:1 152:1 153:1 154:1 155:1 156:1 157:1 
0.002112344438102084 71:1 73:1 77:1 78:1 87:1 89:1 90:1 92:1 93:1 103:1 106:1 107:1 108:1 117:1 118:1 119:1 120:1 121:1 122:1 123:1 135:1 139:1 151:1 167:1 168:1 169:1 170:1 171:1 172:1 173:1 203:1 204:1 205:1 
0.1609290199033875 71:1 77:1 87:1 89:1 92:1 93:1 103:1 105:1 107:1 108:1 117:1 118:1 119:1 120:1 121:1 122:1 135:1 138:1 139:1 151:1 167:1 168:1 169:1 170:1 171:1 172:1 173:1 189:1 203:1 204:1 205:1 
0.1851791134851722 73:1 77:1 91:1 92:1 101:1 102:1 103:1 104:1 105:1 106:1 107:1 117:1 118:1 133:1 135:1 136:1 149:1 157:1 165:1 166:1 167:1 168:1 169:1 170:1 171:1 172:1 173:1 201:1 
0.4518363844386006 77:1 78:1 86:1 87:1 93:1 104:1 105:1 109:1 122:1 123:1 124:1 139:1 140:1 153:1 154:1 155:1 156:1 167:1 168:1 169:1 173:1 182:1 183:1 189:1 205:1 206:1 
0.8869409900479786 77:1 85:1 86:1 92:1 93:1 101:1 102:1 103:1 104:1 108:1 120:1 121:1 122:1 123:1 137:1 138:1 139:1 152:1 153:1 155:1 156:1 165:1 166:1 167:1 172:1 188:1 189:1 205:1 
0.195276169721935 75:1 86:1 87:1 88:1 89:1 90:1 91:1 102:1 104:1 107:1 118:1 120:1 123:1 136:1 139:1 152:1 155:1 156:1 165:1 168:1 169:1 170:1 171:1 173:1 181:1 184:1 187:1 189:1 200:1 203:1 206:1 
0.08836832854925485 77:1 92:1 107:1 108:1 117:1 118:1 119:1 120:1 121:1 122:1 151:1 167:1 168:1 169:1 170:1 171:1 172:1 173:1 189:1 204:1 205:1 
0.1805414467512304 69:1 70:1 71:1 72:1 75:1 76:1 85:1 88:1 91:1 94:1 101:1 102:1 103:1 104:1 106:1 107:1 108:1 109:1 117:1 120:1 121:1 122:1 123:1 133:1 134:1 135:1 136:1 137:1 139:1 173:1 203:1 204:1 205:1 
0.02023573387332555 70:1 71:1 73:1 75:1 85:1 86:1 88:1 89:1 91:1 101:1 102:1 105:1 106:1 107:1 108:1 109:1 110:1 118:1 119:1 120:1 121:1 123:1 134:1 137:1 139:1 173:1 203:1 204:1 205:1 
0.03801054219353225 72:1 85:1 88:1 101:1 104:1 117:1 120:1 125:1 133:1 136:1 137:1 138:1 139:1 140:1 141:1 149:1 152:1 165:1 168:1 181:1 184:1 200:1 
0.5072733661500711 72:1 88:1 92:1 101:1 104:1 107:1 108:1 120:1 122:1 124:1 136:1 137:1 140:1 152:1 156:1 168:1 171:1 172:1 181:1 184:1 188:1 200:1 
0.07696080651024827 70:1 77:1 86:1 87:1 88:1 89:1 90:1 91:1 93:1 102:1 103:1 104:1 107:1 109:1 118:1 120:1 123:1 125:1 134:1 136:1 139:1 141:1 150:1 152:1 155:1 157:1 166:1 168:1 171:1 172:1 173:1 182:1 184:1 185:1 186:1 187:1 188:1 189:1 198:1 205:1 
1.814375677766908 77:1 105:1 106:1 118:1 119:1 168:1 169:1 181:1 
0.3230335917119787 73:1 77:1 89:1 93:1 105:1 106:1 107:1 108:1 109:1 118:1 119:1 120:1 121:1 125:1 137:1 141:1 153:1 157:1 169:1 173:1 185:1 186:1 187:1 188:1 189:1 205:1 
0.9282257291799341 77:1 85:1 87:1 91:1 93:1 101:1 103:1 104:1 105:1 106:1 107:1 109:1 117:1 119:1 121:1 123:1 125:1 133:1 135:1 137:1 139:1 141:1 149:1 151:1 153:1 155:1 157:1 165:1 167:1 168:1 169:1 170:1 171:1 173:1 181:1 183:1 184:1 186:1 187:1 189:1 197:1 205:1 
2.764793749466324 77:1 103:1 104:1 105:1 106:1 107:1 167:1 168:1 169:1 170:1 171:1 181:1 
0.3320276950076632 77:1 88:1 91:1 93:1 104:1 107:1 109:1 118:1 119:1 120:1 121:1 122:1 123:1 124:1 125:1 136:1 139:1 141:1 150:1 151:1 152:1 153:1 154:1 155:1 156:1 157:1 168:1 171:1 173:1 184:1 187:1 189:1 200:1 201:1 202:1 203:1 205:1 
0.6459944986776522 73:1 74:1 77:1 88:1 89:1 90:1 91:1 93:1 102:1 103:1 104:1 105:1 107:1 109:1 117:1 118:1 119:1 121:1 122:1 123:1 125:1 133:1 135:1 137:1 139:1 141:1 151:1 153:1 154:1 155:1 157:1 166:1 167:1 168:1 169:1 171:1 173:1 183:1 185:1 187:1 189:1 201:1 202:1 205:1 
0.245325994564049 70:1 77:1 86:1 92:1 102:1 104:1 105:1 106:1 107:1 118:1 122:1 125:1 133:1 134:1 138:1 139:1 140:1 141:1 150:1 154:1 166:1 167:1 168:1 169:1 170:1 171:1 182:1 188:1 198:1 
0.2361945007353871 73:1 90:1 92:1 102:1 103:1 104:1 105:1 106:1 108:1 109:1 119:1 120:1 122:1 123:1 125:1 133:1 136:1 137:1 138:1 139:1 150:1 151:1 152:1 156:1 167:1 168:1 169:1 171:1 173:1 183:1 185:1 186:1 189:1 202:1 205:1 
0.1598149772690669 69:1 77:1 85:1 87:1 88:1 89:1 93:1 105:1 106:1 107:1 108:1 109:1 120:1 121:1 122:1 123:1 124:1 125:1 133:1 136:1 137:1 138:1 139:1 140:1 141:1 152:1 153:1 154:1 155:1 156:1 157:1 169:1 170:1 171:1 172:1 173:1 181:1 183:1 184:1 185:1 189:1 197:1 205:1 
0.2262707109321064 73:1 88:1 104:1 106:1 118:1 119:1 120:1 122:1 133:1 136:1 137:1 138:1 141:1 150:1 151:1 154:1 156:1 157:1 167:1 168:1 170:1 171:1 172:1 184:1 186:1 201:1 
0.6683336690648931 86:1 87:1 88:1 89:1 90:1 91:1 92:1 107:1 109:1 118:1 122:1 125:1 135:1 137:1 140:1 155:1 156:1 165:1 166:1 167:1 168:1 169:1 170:1 171:1 181:1 182:1 187:1 204:1 205:1 
0.3728306084790266 73:1 77:1 104:1 105:1 106:1 107:1 108:1 118:1 119:1 133:1 136:1 137:1 138:1 139:1 140:1 150:1 152:1 154:1 167:1 168:1 170:1 184:1 186:1 
0.0270014503684798 77:1 88:1 91:1 92:1 103:1 104:1 105:1 106:1 107:1 118:1 119:1 123:1 125:1 133:1 134:1 140:1 141:1 151:1 153:1 154:1 155:1 156:1 168:1 170:1 171:1 172:1 184:1 188:1 205:1 
0.1459665436749385 72:1 77:1 88:1 90:1 93:1 103:1 104:1 106:1 107:1 108:1 109:1 118:1 120:1 121:1 125:1 133:1 134:1 136:1 138:1 139:1 141:1 150:1 152:1 156:1 157:1 167:1 168:1 169:1 170:1 173:1 184:1 185:1 189:1 200:1 
0.0344634031488084 74:1 77:1 89:1 92:1 103:1 104:1 107:1 108:1 121:1 122:1 133:1 134:1 135:1 136:1 137:1 138:1 139:1 140:1 141:1 154:1 167:1 168:1 171:1 172:1 182:1 185:1 188:1 
0.2402993777417066 72:1 87:1 88:1 89:1 90:1 91:1 92:1 93:1 103:1 104:1 105:1 107:1 117:1 118:1 120:1 121:1 122:1 123:1 124:1 125:1 133:1 136:1 137:1 139:1 150:1 152:1 153:1 154:1 155:1 156:1 157:1 167:1 168:1 169:1 171:1 173:1 183:1 185:1 186:1 187:1 188:1 189:1 200:1 
0.579687137381661 72:1 88:1 89:1 90:1 91:1 92:1 93:1 103:1 104:1 106:1 107:1 118:1 119:1 120:1 122:1 123:1 125:1 133:1 136:1 137:1 138:1 139:1 140:1 141:1 150:1 167:1 169:1 172:1 173:1 183:1 184:1 185:1 186:1 187:1 188:1 189:1 200:1 
-3 77:1 85:1 91:1 101:1 104:1 105:1 106:1 107:1 117:1 118:1 122:1 133:1 137:1 139:1 149:1 155:1 156:1 165:1 167:1 168:1 169:1 181:1 205:1 
-3 77:1 87:1 88:1 89:1 90:1 91:1 92:1 93:1 102:1 103:1 104:1 107:1 109:1 120:1 121:1 123:1 125:1 136:1 137:1 138:1 139:1 140:1 141:1 152:1 154:1 156:1 157:1 168:1 171:1 172:1 173:1 184:1 185:1 186:1 187:1 188:1 189:1 205:1 
-3 77:1 91:1 93:1 102:1 103:1 104:1 105:1 106:1 107:1 109:1 118:1 119:1 122:1 123:1 125:1 135:1 137:1 139:1 141:1 151:1 153:1 157:1 167:1 168:1 169:1 170:1 171:1 172:1 173:1 189:1 205:1 
-3 77:1 104:1 105:1 106:1 107:1 118:1 120:1 122:1 137:1 139:1 156:1 167:1 168:1 169:1 181:1 
-3 77:1 104:1 105:1 106:1 107:1 118:1 120:1 122:1 137:1 139:1 156:1 167:1 168:1 169:1 181:1 
