svm_type c_svc
kernel_type rbf
gamma 0.015625
nr_class 2
total_sv 37
rho -1.42662
label -1 1
nr_sv 32 5
SV
0.9321335939491782 75:1 101:1 102:1 103:1 104:1 118:1 134:1 141:1 150:1 157:1 166:1 171:1 173:1 182:1 185:1 186:1 187:1 188:1 198:1 
0.8556713113120463 85:1 86:1 87:1 88:1 89:1 90:1 91:1 92:1 93:1 109:1 125:1 139:1 141:1 155:1 157:1 171:1 173:1 181:1 182:1 183:1 184:1 185:1 186:1 187:1 189:1 205:1 
0.543754472685596 76:1 77:1 89:1 90:1 91:1 93:1 101:1 102:1 103:1 104:1 105:1 109:1 121:1 122:1 124:1 125:1 139:1 140:1 141:1 152:1 153:1 154:1 157:1 165:1 166:1 167:1 168:1 169:1 170:1 173:1 186:1 187:1 189:1 204:1 205:1 
0.1283419952036549 75:1 77:1 89:1 90:1 91:1 93:1 101:1 102:1 103:1 104:1 105:1 109:1 121:1 122:1 125:1 139:1 141:1 153:1 154:1 157:1 165:1 166:1 167:1 168:1 169:1 173:1 185:1 186:1 189:1 203:1 205:1 
0.05481723965212879 72:1 75:1 76:1 77:1 88:1 90:1 93:1 104:1 105:1 106:1 108:1 109:1 124:1 125:1 135:1 136:1 137:1 138:1 139:1 140:1 141:1 151:1 152:1 157:1 166:1 169:1 170:1 173:1 182:1 184:1 186:1 187:1 189:1 200:1 203:1 204:1 205:1 
0.0739142186798666 71:1 75:1 77:1 90:1 93:1 106:1 109:1 117:1 118:1 119:1 120:1 121:1 122:1 123:1 124:1 125:1 141:1 149:1 150:1 151:1 152:1 153:1 154:1 155:1 157:1 171:1 173:1 183:1 187:1 188:1 189:1 199:1 202:1 203:1 205:1 
0.6014163827124235 71:1 75:1 77:1 87:1 91:1 93:1 103:1 106:1 109:1 117:1 118:1 119:1 120:1 121:1 122:1 123:1 125:1 141:1 149:1 150:1 151:1 152:1 153:1 154:1 155:1 157:1 168:1 171:1 173:1 183:1 187:1 189:1 199:1 203:1 205:1 
0.02365089171832741 75:1 76:1 77:1 94:1 104:1 109:1 120:1 121:1 124:1 125:1 137:1 138:1 139:1 140:1 150:1 151:1 152:1 153:1 154:1 165:1 171:1 187:1 188:1 204:1 
0.1441825520598887 75:1 91:1 102:1 103:1 104:1 105:1 107:1 117:1 118:1 123:1 134:1 139:1 150:1 153:1 155:1 166:1 167:1 171:1 173:1 186:1 187:1 188:1 189:1 
0.3128019987389251 72:1 73:1 87:1 88:1 101:1 102:1 103:1 118:1 125:1 134:1 139:1 150:1 155:1 166:1 171:1 182:1 187:1 198:1 203:1 
0.2717523551440699 75:1 76:1 77:1 101:1 103:1 105:1 107:1 108:1 109:1 117:1 119:1 121:1 123:1 133:1 135:1 137:1 139:1 149:1 150:1 151:1 152:1 153:1 154:1 155:1 156:1 157:1 158:1 165:1 167:1 169:1 171:1 173:1 181:1 183:1 185:1 187:1 189:1 197:1 199:1 201:1 203:1 204:1 205:1 
0.02627508969846785 69:1 76:1 91:1 93:1 106:1 109:1 120:1 121:1 125:1 135:1 136:1 141:1 150:1 151:1 157:1 166:1 173:1 181:1 189:1 203:1 204:1 
0.1359111726054034 70:1 76:1 77:1 86:1 91:1 93:1 102:1 106:1 109:1 118:1 121:1 125:1 134:1 136:1 141:1 150:1 151:1 152:1 157:1 166:1 167:1 173:1 182:1 189:1 203:1 204:1 205:1 
0.3286974257203201 73:1 87:1 88:1 102:1 103:1 108:1 109:1 117:1 122:1 123:1 125:1 137:1 141:1 152:1 153:1 157:1 173:1 182:1 189:1 204:1 205:1 
0.1334021709033778 70:1 72:1 73:1 74:1 87:1 88:1 89:1 92:1 93:1 101:1 102:1 103:1 105:1 107:1 108:1 109:1 120:1 121:1 123:1 125:1 134:1 137:1 141:1 149:1 150:1 151:1 152:1 153:1 154:1 157:1 168:1 169:1 173:1 184:1 185:1 189:1 197:1 200:1 203:1 204:1 
0.3254720469059333 75:1 78:1 87:1 89:1 91:1 93:1 94:1 103:1 105:1 107:1 109:1 120:1 123:1 124:1 125:1 139:1 140:1 151:1 152:1 153:1 154:1 155:1 156:1 171:1 173:1 183:1 184:1 187:1 189:1 198:1 199:1 203:1 206:1 
0.9850466537493532 73:1 85:1 88:1 90:1 92:1 93:1 102:1 103:1 105:1 106:1 108:1 109:1 118:1 119:1 121:1 122:1 123:1 125:1 133:1 134:1 136:1 138:1 139:1 141:1 150:1 151:1 152:1 154:1 155:1 157:1 166:1 168:1 170:1 173:1 182:1 183:1 185:1 186:1 189:1 201:1 204:1 205:1 
0.3671996952228955 70:1 72:1 85:1 88:1 89:1 90:1 92:1 93:1 103:1 106:1 109:1 118:1 121:1 122:1 123:1 125:1 134:1 137:1 138:1 139:1 141:1 149:1 150:1 153:1 154:1 157:1 166:1 169:1 170:1 173:1 182:1 183:1 185:1 186:1 189:1 198:1 201:1 204:1 205:1 
0.0591668646421159 71:1 74:1 75:1 76:1 77:1 86:1 87:1 88:1 89:1 90:1 91:1 101:1 103:1 104:1 105:1 106:1 107:1 119:1 120:1 121:1 122:1 123:1 135:1 136:1 137:1 138:1 139:1 141:1 150:1 151:1 152:1 153:1 154:1 155:1 166:1 167:1 168:1 169:1 170:1 171:1 183:1 184:1 185:1 186:1 187:1 188:1 204:1 205:1 
0.6505672567379242 70:1 77:1 86:1 87:1 88:1 89:1 90:1 91:1 93:1 102:1 103:1 104:1 107:1 109:1 118:1 120:1 123:1 125:1 134:1 136:1 139:1 141:1 150:1 152:1 155:1 157:1 166:1 168:1 171:1 172:1 173:1 182:1 184:1 185:1 186:1 187:1 188:1 189:1 198:1 205:1 
0.7715894438486846 70:1 72:1 75:1 77:1 86:1 88:1 91:1 93:1 102:1 104:1 107:1 109:1 118:1 120:1 123:1 125:1 134:1 136:1 139:1 141:1 150:1 152:1 155:1 157:1 166:1 168:1 171:1 173:1 182:1 184:1 187:1 189:1 200:1 203:1 205:1 
0.8727268881193372 77:1 88:1 89:1 90:1 93:1 109:1 118:1 119:1 122:1 123:1 124:1 125:1 141:1 150:1 151:1 152:1 154:1 155:1 156:1 157:1 173:1 181:1 183:1 184:1 185:1 186:1 189:1 205:1 
0.06123557509845444 70:1 74:1 75:1 78:1 86:1 87:1 88:1 89:1 90:1 93:1 102:1 103:1 106:1 107:1 108:1 109:1 118:1 119:1 122:1 123:1 133:1 134:1 135:1 138:1 139:1 150:1 151:1 154:1 155:1 166:1 167:1 170:1 171:1 172:1 173:1 182:1 183:1 184:1 185:1 186:1 198:1 202:1 203:1 205:1 
0.3494505916652901 70:1 73:1 74:1 86:1 88:1 89:1 90:1 91:1 92:1 93:1 102:1 103:1 104:1 118:1 120:1 121:1 122:1 123:1 125:1 133:1 134:1 137:1 139:1 141:1 150:1 153:1 155:1 157:1 166:1 169:1 171:1 173:1 182:1 184:1 185:1 186:1 187:1 189:1 198:1 205:1 
0.2344454851425774 74:1 86:1 90:1 102:1 103:1 104:1 106:1 118:1 120:1 122:1 123:1 133:1 134:1 136:1 138:1 139:1 141:1 150:1 152:1 154:1 155:1 157:1 166:1 167:1 168:1 169:1 170:1 171:1 173:1 182:1 186:1 187:1 189:1 198:1 201:1 203:1 204:1 205:1 
1.211201682287579 74:1 75:1 77:1 86:1 87:1 88:1 89:1 93:1 102:1 107:1 108:1 109:1 118:1 119:1 120:1 121:1 123:1 124:1 125:1 133:1 134:1 135:1 136:1 139:1 140:1 141:1 150:1 151:1 152:1 153:1 155:1 156:1 157:1 166:1 171:1 172:1 173:1 182:1 183:1 184:1 185:1 189:1 202:1 203:1 205:1 
0.4471917834052441 72:1 86:1 87:1 88:1 89:1 90:1 91:1 92:1 93:1 101:1 102:1 118:1 119:1 120:1 125:1 137:1 139:1 140:1 150:1 151:1 152:1 153:1 154:1 171:1 173:1 182:1 183:1 184:1 185:1 186:1 187:1 188:1 189:1 204:1 
0.3970267356260326 73:1 87:1 88:1 93:1 101:1 102:1 103:1 117:1 118:1 120:1 124:1 134:1 136:1 137:1 138:1 139:1 154:1 157:1 171:1 173:1 182:1 183:1 184:1 185:1 186:1 187:1 188:1 204:1 
0.09617297448246992 73:1 87:1 88:1 93:1 101:1 102:1 103:1 109:1 117:1 120:1 125:1 139:1 140:1 149:1 150:1 151:1 152:1 153:1 154:1 169:1 170:1 171:1 182:1 187:1 188:1 205:1 
0.2750362583046128 73:1 87:1 88:1 93:1 101:1 102:1 103:1 104:1 108:1 109:1 117:1 125:1 134:1 139:1 153:1 154:1 187:1 200:1 204:1 205:1 
0.1536998544820327 73:1 87:1 88:1 89:1 90:1 91:1 92:1 93:1 101:1 102:1 125:1 138:1 139:1 140:1 151:1 152:1 153:1 154:1 173:1 181:1 182:1 183:1 184:1 185:1 189:1 203:1 204:1 205:1 
0.4808936232385635 72:1 86:1 87:1 88:1 89:1 90:1 91:1 92:1 93:1 101:1 102:1 104:1 125:1 141:1 149:1 150:1 151:1 152:1 153:1 154:1 155:1 157:1 171:1 173:1 181:1 182:1 183:1 184:1 185:1 186:1 187:1 189:1 200:1 205:1 
-3 69:1 85:1 88:1 89:1 90:1 93:1 101:1 102:1 103:1 104:1 109:1 117:1 118:1 123:1 125:1 134:1 139:1 141:1 150:1 155:1 157:1 166:1 171:1 173:1 182:1 187:1 189:1 203:1 204:1 205:1 
-3 74:1 75:1 76:1 77:1 87:1 88:1 89:1 93:1 102:1 103:1 109:1 125:1 136:1 139:1 141:1 150:1 151:1 152:1 153:1 154:1 155:1 157:1 168:1 171:1 173:1 182:1 183:1 184:1 185:1 186:1 187:1 188:1 189:1 203:1 204:1 205:1 
-3 74:1 75:1 76:1 88:1 89:1 90:1 93:1 102:1 103:1 109:1 118:1 119:1 120:1 121:1 122:1 123:1 125:1 134:1 139:1 141:1 150:1 151:1 152:1 153:1 154:1 155:1 157:1 166:1 171:1 173:1 182:1 183:1 184:1 185:1 186:1 187:1 189:1 204:1 
-0.3161236783477552 75:1 76:1 88:1 89:1 93:1 102:1 103:1 109:1 123:1 125:1 134:1 139:1 141:1 150:1 151:1 152:1 153:1 154:1 155:1 157:1 166:1 171:1 173:1 182:1 183:1 184:1 185:1 186:1 187:1 189:1 203:1 204:1 205:1 
-2.988722605395019 75:1 76:1 88:1 89:1 93:1 102:1 103:1 109:1 123:1 125:1 134:1 139:1 141:1 150:1 151:1 152:1 153:1 154:1 155:1 157:1 166:1 171:1 173:1 182:1 183:1 184:1 185:1 186:1 187:1 189:1 203:1 204:1 205:1 
