svm_type c_svc
kernel_type rbf
gamma 0.015625
nr_class 2
total_sv 33
rho -1.44139
label -1 1
nr_sv 28 5
SV
1.400959889981134 69:1 109:1 125:1 134:1 135:1 136:1 137:1 138:1 139:1 140:1 197:1 
0.1638311590113216 73:1 133:1 136:1 152:1 199:1 203:1 204:1 
0.6165830646478315 76:1 133:1 134:1 135:1 136:1 137:1 138:1 139:1 140:1 204:1 
1.174248722103619 77:1 133:1 134:1 135:1 136:1 137:1 138:1 139:1 140:1 
0.7677222474914209 70:1 77:1 86:1 93:1 102:1 108:1 109:1 118:1 122:1 123:1 124:1 134:1 135:1 136:1 137:1 138:1 150:1 166:1 182:1 198:1 
0.08635424336664699 71:1 87:1 93:1 104:1 105:1 109:1 122:1 124:1 133:1 136:1 137:1 138:1 139:1 140:1 149:1 150:1 151:1 156:1 172:1 173:1 189:1 
0.4253229186307102 77:1 133:1 136:1 152:1 168:1 184:1 
0.577218046412274 93:1 108:1 109:1 123:1 125:1 133:1 134:1 135:1 136:1 137:1 138:1 149:1 165:1 172:1 181:1 183:1 188:1 189:1 201:1 
2.084567747806999 133:1 134:1 135:1 136:1 137:1 138:1 139:1 140:1 141:1 
0.01843639721708945 102:1 107:1 123:1 138:1 149:1 150:1 151:1 152:1 153:1 154:1 155:1 156:1 157:1 
0.8221718624292562 107:1 108:1 123:1 124:1 139:1 154:1 
0.6017487945902755 120:1 137:1 138:1 
0.5247321864122437 119:1 120:1 136:1 137:1 138:1 153:1 154:1 
0.4040582150036819 120:1 136:1 137:1 153:1 154:1 
0.5377755600159369 149:1 150:1 151:1 152:1 170:1 171:1 188:1 
0.1611679163114342 76:1 87:1 93:1 103:1 104:1 108:1 109:1 120:1 123:1 124:1 136:1 137:1 138:1 151:1 152:1 153:1 165:1 166:1 167:1 169:1 170:1 186:1 
0.04511838616187697 125:1 133:1 134:1 135:1 136:1 137:1 138:1 139:1 140:1 141:1 
0.3544309215811219 118:1 135:1 136:1 200:1 
0.0661110681983368 71:1 87:1 103:1 104:1 105:1 106:1 107:1 108:1 109:1 117:1 119:1 133:1 134:1 135:1 150:1 151:1 167:1 183:1 189:1 199:1 
0.2442946443143051 86:1 93:1 107:1 108:1 122:1 133:1 134:1 135:1 136:1 149:1 151:1 152:1 153:1 170:1 187:1 204:1 205:1 
0.002387144463103947 77:1 85:1 86:1 87:1 88:1 89:1 90:1 91:1 93:1 123:1 124:1 134:1 135:1 136:1 137:1 138:1 151:1 152:1 153:1 171:1 181:1 188:1 197:1 
0.06857386336658963 72:1 88:1 93:1 103:1 104:1 107:1 108:1 109:1 118:1 120:1 133:1 150:1 152:1 153:1 154:1 155:1 156:1 157:1 167:1 184:1 200:1 
0.2963684429676171 73:1 87:1 93:1 101:1 102:1 109:1 124:1 134:1 135:1 136:1 137:1 138:1 168:1 181:1 182:1 183:1 189:1 200:1 201:1 202:1 203:1 
0.005963461100789717 73:1 88:1 92:1 103:1 104:1 108:1 118:1 119:1 121:1 124:1 133:1 134:1 137:1 138:1 141:1 150:1 151:1 154:1 157:1 167:1 168:1 170:1 173:1 184:1 201:1 
0.1918772096395033 73:1 104:1 107:1 118:1 119:1 121:1 124:1 133:1 137:1 140:1 151:1 153:1 154:1 157:1 168:1 184:1 
2.532106276389653 93:1 123:1 124:1 133:1 134:1 135:1 136:1 137:1 138:1 155:1 166:1 172:1 189:1 205:1 
0.3321314744344027 72:1 86:1 87:1 88:1 89:1 90:1 91:1 92:1 93:1 101:1 109:1 124:1 133:1 134:1 135:1 136:1 137:1 138:1 149:1 165:1 173:1 182:1 189:1 203:1 204:1 205:1 
0.4937381359508241 73:1 87:1 88:1 93:1 101:1 102:1 103:1 109:1 117:1 121:1 122:1 123:1 124:1 125:1 149:1 150:1 151:1 152:1 153:1 199:1 
-3 93:1 109:1 124:1 133:1 134:1 135:1 136:1 137:1 138:1 
-3 109:1 110:1 125:1 139:1 140:1 149:1 150:1 151:1 152:1 153:1 154:1 155:1 
-3 93:1 108:1 109:1 123:1 124:1 133:1 134:1 135:1 136:1 137:1 138:1 
-3 124:1 133:1 134:1 135:1 136:1 137:1 138:1 
-3 124:1 133:1 134:1 135:1 136:1 137:1 138:1 
