svm_type c_svc
kernel_type rbf
gamma 0.015625
nr_class 2
total_sv 33
rho -1.65072
label -1 1
nr_sv 28 5
SV
0.09795445221817281 73:1 89:1 104:1 117:1 118:1 119:1 120:1 121:1 122:1 123:1 124:1 125:1 136:1 141:1 152:1 168:1 184:1 189:1 200:1 203:1 204:1 205:1 
0.8541797836097433 73:1 89:1 105:1 117:1 118:1 119:1 120:1 121:1 122:1 123:1 124:1 125:1 136:1 141:1 152:1 157:1 168:1 173:1 184:1 189:1 199:1 204:1 205:1 
0.4821005772482335 88:1 104:1 107:1 108:1 120:1 122:1 123:1 134:1 135:1 136:1 137:1 152:1 154:1 157:1 168:1 171:1 172:1 174:1 184:1 189:1 
0.4745941029613768 70:1 72:1 74:1 77:1 86:1 88:1 90:1 93:1 102:1 104:1 106:1 108:1 109:1 118:1 120:1 122:1 123:1 125:1 134:1 135:1 136:1 137:1 138:1 141:1 150:1 152:1 154:1 157:1 166:1 168:1 170:1 172:1 173:1 182:1 184:1 186:1 189:1 198:1 200:1 202:1 206:1 
0.4237096868420527 71:1 76:1 77:1 87:1 92:1 103:1 107:1 108:1 109:1 117:1 119:1 122:1 123:1 125:1 133:1 134:1 135:1 138:1 141:1 151:1 153:1 154:1 157:1 167:1 168:1 173:1 183:1 184:1 189:1 205:1 
0.8514176515708329 87:1 92:1 103:1 107:1 108:1 117:1 119:1 122:1 124:1 134:1 135:1 137:1 138:1 141:1 151:1 152:1 153:1 157:1 167:1 168:1 173:1 183:1 189:1 205:1 
0.987680131727847 85:1 92:1 93:1 101:1 102:1 103:1 107:1 108:1 109:1 117:1 123:1 125:1 133:1 138:1 141:1 149:1 152:1 153:1 154:1 157:1 165:1 166:1 167:1 169:1 173:1 181:1 182:1 189:1 203:1 204:1 
0.3371922173134329 72:1 77:1 85:1 87:1 88:1 90:1 92:1 93:1 101:1 103:1 104:1 106:1 108:1 109:1 118:1 119:1 120:1 122:1 123:1 124:1 125:1 136:1 138:1 139:1 141:1 152:1 154:1 155:1 157:1 168:1 170:1 173:1 184:1 189:1 200:1 204:1 205:1 
0.7584099742833349 72:1 86:1 88:1 92:1 93:1 102:1 103:1 104:1 107:1 109:1 117:1 118:1 123:1 125:1 138:1 141:1 149:1 150:1 151:1 152:1 153:1 154:1 157:1 169:1 170:1 173:1 189:1 199:1 204:1 205:1 
0.3810009638511965 72:1 87:1 88:1 101:1 102:1 104:1 119:1 120:1 136:1 149:1 150:1 151:1 152:1 153:1 154:1 155:1 156:1 173:1 189:1 203:1 204:1 205:1 
0.4424327774089696 70:1 72:1 73:1 86:1 87:1 88:1 89:1 90:1 92:1 93:1 101:1 102:1 103:1 106:1 107:1 108:1 109:1 118:1 120:1 122:1 123:1 125:1 134:1 135:1 138:1 139:1 141:1 150:1 151:1 152:1 154:1 157:1 166:1 168:1 170:1 173:1 182:1 184:1 189:1 198:1 199:1 200:1 204:1 205:1 
0.1549294615363123 69:1 72:1 85:1 87:1 89:1 92:1 93:1 101:1 102:1 103:1 104:1 105:1 107:1 108:1 109:1 117:1 120:1 121:1 123:1 125:1 133:1 136:1 137:1 141:1 149:1 152:1 153:1 154:1 157:1 165:1 168:1 169:1 170:1 173:1 181:1 182:1 183:1 184:1 185:1 189:1 197:1 203:1 204:1 
0.3813244437980403 70:1 72:1 86:1 88:1 90:1 102:1 103:1 104:1 105:1 106:1 117:1 120:1 122:1 133:1 136:1 138:1 141:1 173:1 189:1 204:1 205:1 
0.4778179713321911 69:1 70:1 71:1 72:1 75:1 76:1 85:1 88:1 91:1 94:1 101:1 102:1 103:1 104:1 106:1 107:1 108:1 109:1 117:1 120:1 121:1 122:1 123:1 133:1 134:1 135:1 136:1 137:1 139:1 173:1 203:1 204:1 205:1 
0.2701127975918845 87:1 102:1 103:1 117:1 118:1 125:1 134:1 136:1 137:1 138:1 139:1 140:1 141:1 150:1 166:1 182:1 184:1 198:1 
0.2374273055099869 70:1 72:1 75:1 77:1 86:1 88:1 91:1 93:1 102:1 104:1 107:1 109:1 118:1 120:1 123:1 125:1 134:1 136:1 139:1 141:1 150:1 152:1 155:1 157:1 166:1 168:1 171:1 173:1 182:1 184:1 187:1 189:1 200:1 203:1 205:1 
0.4508790100314792 70:1 86:1 88:1 93:1 102:1 104:1 109:1 118:1 120:1 125:1 133:1 134:1 136:1 137:1 138:1 139:1 140:1 141:1 150:1 152:1 157:1 166:1 168:1 173:1 182:1 184:1 189:1 198:1 
1.278936411349228 72:1 73:1 86:1 87:1 88:1 89:1 90:1 91:1 92:1 93:1 101:1 102:1 109:1 118:1 123:1 124:1 125:1 134:1 137:1 138:1 141:1 150:1 152:1 153:1 157:1 166:1 167:1 173:1 182:1 189:1 204:1 
0.2001863465087377 73:1 87:1 88:1 89:1 90:1 91:1 92:1 93:1 101:1 102:1 109:1 118:1 123:1 124:1 125:1 137:1 138:1 141:1 152:1 157:1 166:1 167:1 173:1 182:1 189:1 203:1 204:1 205:1 
0.3667450551832188 73:1 87:1 88:1 101:1 102:1 104:1 105:1 106:1 107:1 108:1 109:1 182:1 204:1 
0.4283211419532176 73:1 87:1 88:1 93:1 101:1 102:1 108:1 109:1 117:1 118:1 121:1 134:1 137:1 150:1 151:1 152:1 153:1 154:1 155:1 156:1 157:1 173:1 181:1 189:1 203:1 204:1 205:1 
1.070638666824792 73:1 87:1 88:1 101:1 102:1 104:1 105:1 106:1 107:1 108:1 109:1 120:1 136:1 149:1 150:1 151:1 152:1 153:1 154:1 171:1 172:1 182:1 188:1 189:1 204:1 205:1 
2.119195818155642 73:1 87:1 88:1 93:1 101:1 102:1 103:1 109:1 117:1 118:1 121:1 125:1 134:1 137:1 141:1 150:1 153:1 157:1 166:1 169:1 173:1 182:1 185:1 189:1 198:1 201:1 205:1 
0.05335320495896392 72:1 74:1 87:1 90:1 93:1 103:1 104:1 106:1 108:1 109:1 117:1 118:1 120:1 122:1 123:1 125:1 133:1 136:1 138:1 141:1 150:1 152:1 154:1 155:1 157:1 167:1 168:1 170:1 172:1 173:1 183:1 186:1 189:1 200:1 
0.5975554608406639 73:1 87:1 88:1 93:1 101:1 102:1 103:1 104:1 108:1 109:1 117:1 125:1 134:1 139:1 153:1 154:1 187:1 200:1 204:1 205:1 
0.1268886903945397 72:1 73:1 85:1 86:1 87:1 103:1 108:1 109:1 117:1 118:1 119:1 120:1 121:1 122:1 123:1 135:1 136:1 137:1 138:1 139:1 140:1 141:1 151:1 152:1 153:1 154:1 155:1 156:1 166:1 167:1 168:1 169:1 170:1 171:1 172:1 173:1 182:1 189:1 198:1 199:1 200:1 201:1 202:1 203:1 204:1 205:1 
0.5086956565659739 72:1 86:1 87:1 88:1 89:1 90:1 91:1 92:1 93:1 101:1 102:1 109:1 118:1 120:1 122:1 123:1 134:1 136:1 137:1 138:1 139:1 140:1 141:1 149:1 150:1 151:1 152:1 153:1 157:1 166:1 168:1 170:1 173:1 182:1 183:1 184:1 186:1 189:1 200:1 202:1 204:1 205:1 
0.1863202384299355 72:1 86:1 87:1 93:1 101:1 102:1 103:1 104:1 105:1 106:1 107:1 108:1 109:1 118:1 120:1 121:1 122:1 123:1 124:1 125:1 134:1 137:1 139:1 150:1 153:1 155:1 165:1 166:1 169:1 171:1 173:1 181:1 182:1 185:1 187:1 189:1 198:1 200:1 201:1 202:1 203:1 204:1 205:1 
-3 72:1 87:1 101:1 102:1 104:1 108:1 109:1 117:1 118:1 120:1 123:1 125:1 134:1 136:1 138:1 141:1 150:1 152:1 153:1 157:1 166:1 168:1 173:1 182:1 184:1 189:1 198:1 204:1 205:1 
-3 71:1 72:1 86:1 87:1 88:1 92:1 93:1 101:1 102:1 104:1 107:1 108:1 109:1 118:1 120:1 122:1 123:1 134:1 136:1 138:1 150:1 152:1 153:1 154:1 166:1 168:1 169:1 173:1 182:1 189:1 198:1 203:1 204:1 205:1 
-3 72:1 87:1 88:1 101:1 102:1 103:1 104:1 107:1 108:1 109:1 117:1 118:1 120:1 122:1 123:1 125:1 134:1 136:1 137:1 138:1 141:1 150:1 152:1 153:1 157:1 166:1 168:1 173:1 182:1 189:1 204:1 205:1 
-3 73:1 87:1 88:1 102:1 103:1 108:1 109:1 117:1 122:1 123:1 125:1 137:1 141:1 152:1 153:1 157:1 173:1 182:1 189:1 204:1 205:1 
-3 73:1 87:1 88:1 102:1 103:1 108:1 109:1 117:1 122:1 123:1 125:1 137:1 141:1 152:1 153:1 157:1 173:1 182:1 189:1 204:1 205:1 
