svm_type c_svc
kernel_type rbf
gamma 0.015625
nr_class 2
total_sv 36
rho -1.53761
label -1 1
nr_sv 31 5
SV
0.02915143773175406 77:1 93:1 101:1 102:1 103:1 104:1 105:1 106:1 107:1 108:1 109:1 117:1 120:1 122:1 125:1 133:1 136:1 138:1 141:1 149:1 152:1 154:1 157:1 165:1 166:1 167:1 168:1 169:1 170:1 171:1 172:1 173:1 189:1 205:1 
0.3669697262112796 72:1 86:1 87:1 88:1 89:1 90:1 91:1 92:1 93:1 109:1 125:1 133:1 141:1 157:1 165:1 166:1 167:1 168:1 169:1 170:1 171:1 173:1 181:1 189:1 205:1 
0.8218414285707538 86:1 91:1 102:1 103:1 104:1 105:1 106:1 107:1 138:1 154:1 165:1 166:1 167:1 168:1 169:1 170:1 171:1 172:1 173:1 
0.01466893512027649 69:1 72:1 74:1 88:1 90:1 104:1 106:1 118:1 119:1 120:1 121:1 122:1 123:1 124:1 125:1 136:1 138:1 152:1 154:1 165:1 166:1 167:1 168:1 169:1 170:1 171:1 187:1 188:1 189:1 204:1 205:1 
1.170900457056989 93:1 105:1 108:1 117:1 118:1 119:1 120:1 121:1 122:1 138:1 151:1 167:1 168:1 169:1 170:1 171:1 172:1 173:1 189:1 203:1 204:1 205:1 
0.8047107516379187 77:1 78:1 91:1 92:1 93:1 102:1 103:1 104:1 105:1 106:1 107:1 141:1 152:1 157:1 166:1 167:1 168:1 173:1 182:1 189:1 201:1 202:1 203:1 204:1 205:1 
0.1518867559788141 70:1 73:1 74:1 86:1 89:1 90:1 102:1 105:1 106:1 118:1 121:1 134:1 137:1 141:1 150:1 153:1 166:1 169:1 182:1 185:1 189:1 198:1 201:1 203:1 204:1 205:1 
0.08297148269068598 86:1 90:1 91:1 92:1 105:1 106:1 120:1 135:1 150:1 151:1 166:1 204:1 
0.2091164911327934 72:1 85:1 86:1 87:1 88:1 89:1 90:1 91:1 92:1 93:1 104:1 109:1 120:1 135:1 138:1 151:1 167:1 170:1 183:1 184:1 185:1 186:1 189:1 203:1 204:1 205:1 
0.6654199821454718 72:1 86:1 88:1 92:1 93:1 102:1 103:1 104:1 107:1 109:1 117:1 118:1 123:1 125:1 138:1 141:1 149:1 150:1 151:1 152:1 153:1 154:1 157:1 169:1 170:1 173:1 189:1 199:1 204:1 205:1 
1.796250224168702 74:1 75:1 76:1 77:1 78:1 90:1 93:1 101:1 102:1 103:1 104:1 105:1 106:1 109:1 119:1 122:1 125:1 135:1 173:1 203:1 204:1 205:1 
0.1513551421256437 69:1 70:1 71:1 72:1 75:1 76:1 85:1 88:1 91:1 94:1 101:1 102:1 103:1 104:1 106:1 107:1 108:1 109:1 117:1 120:1 121:1 122:1 123:1 133:1 134:1 135:1 136:1 137:1 139:1 173:1 203:1 204:1 205:1 
0.8067908657837546 75:1 87:1 91:1 102:1 103:1 109:1 117:1 120:1 121:1 133:1 134:1 135:1 136:1 149:1 165:1 173:1 189:1 203:1 204:1 205:1 
0.2433320044621888 70:1 72:1 74:1 86:1 89:1 90:1 92:1 93:1 101:1 102:1 103:1 104:1 105:1 106:1 108:1 109:1 118:1 119:1 121:1 122:1 123:1 125:1 133:1 134:1 135:1 136:1 138:1 139:1 141:1 154:1 157:1 165:1 170:1 173:1 181:1 189:1 204:1 205:1 
0.5846038032899072 77:1 87:1 88:1 89:1 90:1 91:1 92:1 101:1 102:1 104:1 105:1 109:1 117:1 119:1 123:1 133:1 134:1 136:1 138:1 139:1 141:1 149:1 165:1 173:1 189:1 203:1 204:1 205:1 
1.346800505073209 71:1 85:1 86:1 87:1 90:1 101:1 102:1 103:1 104:1 105:1 106:1 108:1 117:1 119:1 122:1 123:1 124:1 133:1 135:1 136:1 137:1 138:1 139:1 140:1 141:1 165:1 173:1 189:1 203:1 204:1 205:1 
0.2747691496895041 70:1 71:1 72:1 74:1 75:1 77:1 85:1 88:1 89:1 91:1 92:1 101:1 103:1 106:1 119:1 122:1 133:1 134:1 136:1 137:1 138:1 141:1 154:1 156:1 165:1 166:1 167:1 168:1 169:1 170:1 171:1 172:1 173:1 189:1 204:1 205:1 
0.2422162916446735 71:1 74:1 77:1 86:1 88:1 91:1 92:1 101:1 102:1 103:1 104:1 106:1 107:1 117:1 118:1 119:1 136:1 139:1 165:1 173:1 189:1 203:1 204:1 205:1 
0.1043984552136986 72:1 77:1 92:1 93:1 101:1 102:1 109:1 123:1 124:1 135:1 138:1 139:1 165:1 173:1 189:1 204:1 205:1 
0.3062861879785774 70:1 72:1 77:1 87:1 88:1 89:1 90:1 91:1 92:1 93:1 101:1 102:1 103:1 104:1 105:1 106:1 107:1 109:1 119:1 120:1 121:1 122:1 123:1 124:1 125:1 134:1 136:1 173:1 189:1 204:1 205:1 
0.05231480586674542 70:1 72:1 77:1 86:1 87:1 90:1 91:1 93:1 101:1 102:1 103:1 108:1 109:1 118:1 119:1 124:1 134:1 135:1 136:1 138:1 152:1 165:1 173:1 189:1 203:1 204:1 205:1 
0.2295611076355997 72:1 87:1 102:1 117:1 125:1 136:1 137:1 138:1 139:1 140:1 141:1 183:1 
0.7451964572326493 72:1 88:1 90:1 103:1 104:1 105:1 106:1 118:1 119:1 120:1 122:1 136:1 138:1 141:1 142:1 152:1 154:1 158:1 168:1 170:1 173:1 184:1 186:1 187:1 188:1 189:1 200:1 
0.847063432265033 72:1 77:1 86:1 88:1 90:1 104:1 106:1 120:1 122:1 136:1 138:1 152:1 154:1 168:1 170:1 184:1 186:1 200:1 
0.02898345617824167 70:1 71:1 77:1 92:1 93:1 104:1 105:1 106:1 107:1 108:1 117:1 120:1 133:1 134:1 136:1 152:1 153:1 154:1 155:1 156:1 157:1 173:1 189:1 198:1 199:1 204:1 
0.04333071828099289 70:1 88:1 89:1 90:1 91:1 92:1 93:1 104:1 117:1 120:1 134:1 136:1 137:1 138:1 139:1 140:1 152:1 168:1 184:1 185:1 186:1 187:1 188:1 189:1 198:1 
0.02153131512995091 70:1 74:1 86:1 88:1 89:1 90:1 91:1 92:1 93:1 102:1 103:1 117:1 118:1 123:1 124:1 125:1 133:1 134:1 141:1 150:1 157:1 166:1 173:1 182:1 184:1 185:1 186:1 187:1 188:1 189:1 198:1 205:1 
0.5265743136286927 73:1 88:1 102:1 103:1 104:1 105:1 106:1 107:1 108:1 109:1 117:1 
1.077520423258409 72:1 86:1 87:1 88:1 89:1 90:1 91:1 92:1 93:1 101:1 102:1 104:1 117:1 120:1 136:1 141:1 149:1 155:1 157:1 173:1 183:1 189:1 199:1 200:1 201:1 202:1 204:1 205:1 
0.1009167120551901 72:1 88:1 90:1 91:1 92:1 93:1 103:1 109:1 117:1 118:1 125:1 133:1 136:1 137:1 138:1 139:1 140:1 150:1 167:1 184:1 186:1 187:1 188:1 189:1 200:1 
1.1525671807619 72:1 86:1 87:1 88:1 89:1 90:1 91:1 92:1 93:1 101:1 102:1 117:1 120:1 125:1 141:1 157:1 173:1 189:1 197:1 201:1 205:1 
-3 70:1 72:1 86:1 88:1 90:1 93:1 104:1 106:1 117:1 120:1 122:1 136:1 138:1 141:1 165:1 166:1 167:1 168:1 169:1 170:1 171:1 172:1 173:1 189:1 204:1 205:1 
-3 70:1 72:1 74:1 75:1 76:1 77:1 78:1 86:1 88:1 90:1 93:1 102:1 103:1 104:1 105:1 106:1 109:1 117:1 120:1 122:1 125:1 133:1 136:1 173:1 203:1 204:1 205:1 
-3 70:1 72:1 86:1 88:1 90:1 102:1 103:1 104:1 105:1 106:1 117:1 120:1 122:1 133:1 136:1 138:1 141:1 173:1 189:1 204:1 205:1 
-3 72:1 90:1 91:1 92:1 93:1 102:1 103:1 104:1 105:1 117:1 138:1 141:1 165:1 173:1 189:1 203:1 204:1 205:1 
-3 72:1 90:1 91:1 92:1 93:1 102:1 103:1 104:1 105:1 117:1 138:1 141:1 165:1 173:1 189:1 203:1 204:1 205:1 
