svm_type c_svc
kernel_type rbf
gamma 0.015625
nr_class 2
total_sv 97
rho -0.949313
label -1 1
nr_sv 93 4
SV
0.01403656395910531 126:1 127:1 162:1 163:1 198:1 199:1 234:1 235:1 270:1 271:1 306:1 307:1 342:1 343:1 378:1 379:1 414:1 415:1 450:1 451:1 486:1 487:1 522:1 523:1 558:1 559:1 594:1 595:1 630:1 631:1 666:1 667:1 702:1 703:1 738:1 739:1 774:1 775:1 810:1 811:1 846:1 847:1 882:1 883:1 918:1 919:1 954:1 955:1 990:1 991:1 1026:1 1027:1 1062:1 1063:1 1098:1 1099:1 1134:1 1135:1 1170:1 1171:1 1206:1 1207:1 
0.03317243794229186 89:1 90:1 91:1 92:1 125:1 126:1 127:1 128:1 161:1 162:1 163:1 164:1 197:1 198:1 199:1 200:1 233:1 234:1 235:1 236:1 269:1 270:1 271:1 272:1 305:1 306:1 307:1 308:1 341:1 342:1 343:1 344:1 377:1 378:1 379:1 380:1 413:1 414:1 415:1 416:1 449:1 450:1 451:1 452:1 485:1 486:1 487:1 488:1 521:1 522:1 523:1 524:1 557:1 558:1 559:1 560:1 593:1 594:1 595:1 596:1 629:1 630:1 631:1 632:1 665:1 666:1 667:1 668:1 701:1 702:1 703:1 704:1 737:1 738:1 739:1 740:1 773:1 774:1 775:1 776:1 809:1 810:1 811:1 812:1 845:1 846:1 847:1 848:1 881:1 882:1 883:1 884:1 917:1 918:1 919:1 920:1 953:1 954:1 955:1 956:1 989:1 990:1 991:1 992:1 1025:1 1026:1 1027:1 1028:1 1061:1 1062:1 1063:1 1064:1 1097:1 1098:1 1099:1 1100:1 1133:1 1134:1 1135:1 1136:1 1169:1 1170:1 1171:1 1172:1 1205:1 1206:1 1207:1 1208:1 1241:1 1242:1 1243:1 1244:1 
0.01494561301200353 89:1 125:1 126:1 161:1 162:1 197:1 198:1 233:1 269:1 305:1 341:1 377:1 413:1 449:1 485:1 521:1 557:1 593:1 629:1 665:1 701:1 737:1 773:1 809:1 845:1 881:1 917:1 953:1 989:1 1025:1 1061:1 1096:1 1097:1 1131:1 1132:1 1133:1 1168:1 1169:1 1205:1 
0.02995787435614315 114:1 115:1 150:1 151:1 186:1 187:1 222:1 223:1 258:1 259:1 294:1 295:1 330:1 331:1 366:1 367:1 402:1 403:1 438:1 439:1 474:1 475:1 500:1 510:1 511:1 536:1 537:1 538:1 546:1 547:1 572:1 573:1 574:1 582:1 583:1 608:1 609:1 610:1 618:1 619:1 644:1 645:1 646:1 654:1 655:1 680:1 681:1 682:1 690:1 691:1 692:1 693:1 694:1 695:1 696:1 697:1 698:1 699:1 700:1 701:1 702:1 703:1 704:1 705:1 706:1 707:1 708:1 709:1 710:1 711:1 712:1 713:1 714:1 715:1 716:1 717:1 726:1 727:1 728:1 729:1 730:1 731:1 732:1 733:1 734:1 735:1 736:1 737:1 738:1 739:1 740:1 741:1 742:1 743:1 744:1 745:1 746:1 747:1 748:1 749:1 750:1 751:1 752:1 753:1 762:1 763:1 798:1 799:1 834:1 835:1 870:1 871:1 906:1 907:1 942:1 943:1 978:1 979:1 1014:1 1015:1 1050:1 1051:1 1086:1 1087:1 1122:1 1123:1 1158:1 1159:1 1194:1 1195:1 
0.01380287977688836 78:1 79:1 80:1 114:1 115:1 116:1 150:1 151:1 152:1 186:1 187:1 188:1 222:1 223:1 224:1 258:1 259:1 260:1 294:1 295:1 296:1 330:1 331:1 332:1 366:1 367:1 368:1 402:1 403:1 404:1 428:1 438:1 439:1 440:1 464:1 465:1 466:1 467:1 474:1 475:1 476:1 500:1 501:1 502:1 503:1 510:1 511:1 512:1 536:1 537:1 538:1 546:1 547:1 548:1 572:1 573:1 574:1 582:1 583:1 584:1 607:1 608:1 609:1 610:1 618:1 619:1 620:1 621:1 622:1 623:1 624:1 625:1 626:1 627:1 628:1 629:1 630:1 631:1 632:1 633:1 634:1 635:1 636:1 637:1 638:1 639:1 640:1 641:1 642:1 643:1 644:1 645:1 646:1 654:1 655:1 656:1 657:1 658:1 659:1 660:1 661:1 662:1 663:1 664:1 665:1 666:1 667:1 668:1 669:1 670:1 671:1 672:1 673:1 674:1 675:1 676:1 677:1 678:1 679:1 680:1 681:1 690:1 691:1 692:1 693:1 694:1 695:1 696:1 697:1 698:1 699:1 700:1 701:1 702:1 703:1 704:1 705:1 706:1 707:1 708:1 709:1 710:1 711:1 712:1 713:1 714:1 715:1 716:1 726:1 727:1 728:1 762:1 763:1 764:1 798:1 799:1 800:1 834:1 835:1 836:1 870:1 871:1 872:1 906:1 907:1 908:1 942:1 943:1 944:1 978:1 979:1 980:1 1014:1 1015:1 1016:1 1050:1 1051:1 1052:1 1086:1 1087:1 1088:1 1122:1 1123:1 1124:1 1158:1 1159:1 1160:1 1194:1 1195:1 1196:1 1230:1 1231:1 1232:1 
0.01260632557776286 113:1 114:1 115:1 150:1 151:1 186:1 222:1 258:1 294:1 330:1 340:1 341:1 342:1 366:1 373:1 374:1 375:1 376:1 377:1 378:1 402:1 406:1 407:1 408:1 409:1 410:1 411:1 412:1 413:1 438:1 439:1 440:1 441:1 442:1 443:1 444:1 445:1 448:1 449:1 474:1 475:1 476:1 477:1 478:1 484:1 485:1 510:1 511:1 520:1 521:1 546:1 556:1 557:1 582:1 592:1 593:1 618:1 628:1 629:1 654:1 664:1 665:1 680:1 690:1 700:1 701:1 716:1 717:1 718:1 726:1 736:1 737:1 752:1 753:1 754:1 762:1 772:1 773:1 788:1 789:1 790:1 798:1 808:1 809:1 824:1 825:1 826:1 834:1 844:1 845:1 860:1 861:1 870:1 880:1 881:1 895:1 896:1 897:1 906:1 916:1 917:1 926:1 927:1 928:1 929:1 930:1 931:1 932:1 933:1 942:1 952:1 953:1 954:1 955:1 956:1 957:1 958:1 959:1 960:1 961:1 962:1 963:1 964:1 965:1 966:1 967:1 968:1 978:1 988:1 989:1 990:1 991:1 992:1 993:1 994:1 995:1 996:1 997:1 998:1 1014:1 1024:1 1050:1 1086:1 1122:1 1123:1 1157:1 1158:1 1159:1 
0.07805946743502837 113:1 114:1 115:1 149:1 150:1 185:1 186:1 221:1 222:1 257:1 258:1 293:1 294:1 329:1 330:1 365:1 366:1 376:1 377:1 378:1 401:1 402:1 406:1 407:1 408:1 409:1 410:1 411:1 412:1 413:1 414:1 437:1 438:1 439:1 440:1 441:1 442:1 443:1 444:1 445:1 446:1 447:1 448:1 449:1 450:1 473:1 474:1 475:1 476:1 477:1 478:1 479:1 480:1 481:1 482:1 483:1 484:1 485:1 486:1 509:1 510:1 511:1 512:1 513:1 514:1 515:1 516:1 517:1 520:1 521:1 522:1 545:1 546:1 547:1 556:1 557:1 558:1 581:1 582:1 592:1 593:1 594:1 617:1 618:1 628:1 629:1 630:1 653:1 654:1 664:1 665:1 666:1 689:1 690:1 700:1 701:1 702:1 716:1 725:1 726:1 736:1 737:1 738:1 752:1 753:1 754:1 755:1 761:1 762:1 772:1 773:1 774:1 788:1 789:1 790:1 791:1 797:1 798:1 808:1 809:1 810:1 824:1 825:1 826:1 833:1 834:1 844:1 845:1 846:1 860:1 861:1 862:1 869:1 870:1 880:1 881:1 882:1 895:1 896:1 897:1 898:1 905:1 906:1 916:1 917:1 918:1 930:1 931:1 932:1 933:1 934:1 941:1 942:1 952:1 953:1 954:1 963:1 964:1 965:1 966:1 967:1 968:1 969:1 970:1 977:1 978:1 988:1 989:1 990:1 991:1 992:1 993:1 994:1 995:1 996:1 997:1 998:1 999:1 1000:1 1001:1 1002:1 1003:1 1004:1 1005:1 1013:1 1014:1 1024:1 1025:1 1026:1 1027:1 1028:1 1029:1 1030:1 1031:1 1032:1 1033:1 1034:1 1035:1 1036:1 1037:1 1038:1 1039:1 1049:1 1050:1 1060:1 1061:1 1062:1 1063:1 1064:1 1065:1 1066:1 1067:1 1068:1 1069:1 1070:1 1071:1 1072:1 1085:1 1086:1 1096:1 1097:1 1098:1 1099:1 1100:1 1101:1 1121:1 1122:1 1157:1 1158:1 1192:1 1193:1 1194:1 1195:1 
0.08719972115218042 114:1 150:1 186:1 222:1 258:1 294:1 330:1 366:1 376:1 377:1 402:1 409:1 410:1 411:1 412:1 413:1 414:1 438:1 442:1 443:1 444:1 445:1 446:1 447:1 448:1 449:1 474:1 475:1 476:1 477:1 478:1 479:1 480:1 481:1 485:1 510:1 511:1 512:1 513:1 514:1 521:1 546:1 557:1 571:1 582:1 593:1 607:1 618:1 629:1 643:1 654:1 665:1 679:1 680:1 690:1 701:1 716:1 726:1 737:1 752:1 753:1 762:1 773:1 788:1 789:1 790:1 798:1 809:1 824:1 825:1 826:1 834:1 845:1 860:1 861:1 862:1 870:1 881:1 895:1 896:1 897:1 898:1 906:1 917:1 929:1 930:1 931:1 932:1 933:1 942:1 953:1 958:1 959:1 960:1 961:1 962:1 963:1 964:1 965:1 966:1 967:1 968:1 978:1 988:1 989:1 990:1 991:1 992:1 993:1 994:1 995:1 996:1 997:1 998:1 999:1 1000:1 1001:1 1002:1 1014:1 1023:1 1024:1 1025:1 1026:1 1027:1 1028:1 1029:1 1030:1 1031:1 1032:1 1033:1 1049:1 1050:1 1060:1 1061:1 1084:1 1085:1 1086:1 1120:1 1121:1 1122:1 1157:1 1158:1 1194:1 
0.03147055948291475 128:1 129:1 163:1 164:1 165:1 199:1 200:1 201:1 235:1 236:1 271:1 272:1 307:1 308:1 342:1 343:1 344:1 378:1 379:1 414:1 415:1 450:1 451:1 485:1 486:1 487:1 521:1 522:1 544:1 545:1 546:1 547:1 548:1 549:1 550:1 551:1 552:1 553:1 554:1 555:1 556:1 557:1 558:1 559:1 560:1 561:1 562:1 563:1 564:1 565:1 566:1 567:1 568:1 569:1 570:1 571:1 572:1 573:1 580:1 581:1 582:1 583:1 584:1 585:1 586:1 587:1 588:1 589:1 590:1 591:1 592:1 593:1 594:1 595:1 596:1 597:1 598:1 599:1 600:1 601:1 602:1 603:1 604:1 605:1 606:1 607:1 608:1 609:1 616:1 628:1 629:1 630:1 644:1 645:1 646:1 664:1 665:1 681:1 682:1 700:1 701:1 717:1 718:1 736:1 737:1 753:1 754:1 772:1 773:1 789:1 790:1 807:1 808:1 809:1 825:1 826:1 843:1 844:1 861:1 862:1 879:1 880:1 897:1 898:1 915:1 916:1 933:1 934:1 950:1 951:1 952:1 969:1 970:1 986:1 987:1 1005:1 1006:1 1022:1 1023:1 1041:1 1042:1 1058:1 1059:1 1076:1 1077:1 1094:1 1095:1 1108:1 1109:1 1110:1 1111:1 1112:1 1113:1 1129:1 1130:1 1145:1 1146:1 1147:1 1148:1 1165:1 1166:1 1181:1 1182:1 1201:1 1202:1 
0.03581348771691874 91:1 92:1 93:1 126:1 127:1 128:1 129:1 162:1 163:1 164:1 165:1 198:1 199:1 200:1 234:1 235:1 236:1 270:1 271:1 272:1 306:1 307:1 308:1 341:1 342:1 343:1 377:1 378:1 379:1 413:1 414:1 415:1 449:1 450:1 451:1 485:1 486:1 487:1 508:1 509:1 510:1 511:1 512:1 513:1 514:1 515:1 516:1 517:1 518:1 519:1 520:1 521:1 522:1 523:1 524:1 525:1 526:1 527:1 528:1 529:1 530:1 531:1 532:1 533:1 534:1 535:1 536:1 544:1 545:1 546:1 547:1 548:1 549:1 550:1 551:1 552:1 553:1 554:1 555:1 556:1 557:1 558:1 559:1 560:1 561:1 562:1 563:1 564:1 565:1 566:1 567:1 568:1 569:1 570:1 571:1 572:1 573:1 580:1 581:1 582:1 583:1 584:1 585:1 586:1 587:1 588:1 589:1 590:1 591:1 592:1 593:1 594:1 595:1 596:1 597:1 598:1 599:1 600:1 601:1 602:1 603:1 604:1 605:1 606:1 607:1 608:1 609:1 616:1 628:1 629:1 630:1 643:1 644:1 645:1 646:1 663:1 664:1 665:1 680:1 681:1 682:1 699:1 700:1 701:1 716:1 717:1 718:1 735:1 736:1 737:1 752:1 753:1 754:1 771:1 772:1 773:1 788:1 789:1 790:1 806:1 807:1 808:1 824:1 825:1 826:1 842:1 843:1 844:1 860:1 861:1 862:1 878:1 879:1 880:1 896:1 897:1 898:1 914:1 915:1 916:1 932:1 933:1 934:1 950:1 951:1 968:1 969:1 970:1 985:1 986:1 987:1 1004:1 1005:1 1006:1 1021:1 1022:1 1023:1 1040:1 1041:1 1042:1 1057:1 1058:1 1059:1 1076:1 1077:1 1078:1 1092:1 1093:1 1094:1 1110:1 1111:1 1112:1 1113:1 1114:1 1128:1 1129:1 1130:1 1144:1 1145:1 1146:1 1147:1 1148:1 1149:1 1164:1 1165:1 1166:1 1181:1 1182:1 1183:1 1184:1 1185:1 1199:1 1200:1 1201:1 1202:1 1217:1 1218:1 1219:1 
0.04335887306790983 92:1 128:1 164:1 199:1 235:1 271:1 307:1 342:1 378:1 414:1 450:1 485:1 521:1 543:1 544:1 557:1 580:1 581:1 582:1 583:1 584:1 585:1 586:1 587:1 588:1 589:1 590:1 591:1 592:1 593:1 594:1 595:1 596:1 597:1 598:1 599:1 600:1 601:1 602:1 603:1 604:1 605:1 606:1 607:1 608:1 616:1 617:1 618:1 619:1 620:1 621:1 622:1 623:1 624:1 625:1 626:1 627:1 628:1 629:1 630:1 631:1 632:1 633:1 634:1 635:1 636:1 637:1 638:1 639:1 640:1 641:1 642:1 643:1 644:1 664:1 679:1 680:1 681:1 700:1 716:1 717:1 736:1 752:1 753:1 771:1 788:1 789:1 807:1 824:1 825:1 843:1 860:1 861:1 879:1 896:1 897:1 914:1 932:1 933:1 950:1 968:1 969:1 986:1 1004:1 1005:1 1022:1 1040:1 1041:1 1057:1 1076:1 1077:1 1091:1 1092:1 1093:1 1112:1 1113:1 1127:1 1128:1 1129:1 1145:1 1146:1 1147:1 1148:1 1149:1 1164:1 1165:1 1176:1 1177:1 1178:1 1179:1 1180:1 1181:1 1182:1 1183:1 1184:1 1185:1 1219:1 1220:1 1255:1 
0.02184876417230924 102:1 103:1 104:1 105:1 138:1 139:1 140:1 174:1 175:1 176:1 210:1 211:1 212:1 246:1 247:1 248:1 282:1 283:1 284:1 318:1 319:1 320:1 354:1 355:1 356:1 390:1 391:1 392:1 426:1 427:1 428:1 462:1 463:1 464:1 498:1 499:1 500:1 534:1 535:1 536:1 570:1 571:1 572:1 606:1 607:1 608:1 616:1 617:1 618:1 619:1 620:1 621:1 622:1 623:1 624:1 625:1 626:1 627:1 628:1 629:1 630:1 631:1 632:1 633:1 634:1 635:1 636:1 637:1 638:1 639:1 640:1 641:1 642:1 643:1 644:1 652:1 653:1 654:1 655:1 656:1 657:1 658:1 659:1 660:1 661:1 662:1 663:1 664:1 665:1 666:1 667:1 668:1 669:1 670:1 671:1 672:1 673:1 674:1 675:1 676:1 677:1 678:1 679:1 680:1 688:1 689:1 690:1 691:1 692:1 693:1 694:1 695:1 696:1 697:1 698:1 699:1 700:1 701:1 702:1 703:1 704:1 705:1 706:1 707:1 708:1 709:1 710:1 711:1 712:1 713:1 714:1 715:1 716:1 750:1 751:1 752:1 786:1 787:1 788:1 822:1 823:1 824:1 858:1 859:1 860:1 894:1 895:1 896:1 930:1 931:1 932:1 966:1 967:1 968:1 1002:1 1003:1 1004:1 1038:1 1039:1 1040:1 1074:1 1075:1 1076:1 1110:1 1111:1 1112:1 1146:1 1147:1 1148:1 1182:1 1183:1 1184:1 1218:1 1219:1 1220:1 1254:1 1255:1 1256:1 1257:1 
0.0008576669333132675 113:1 114:1 115:1 149:1 150:1 151:1 185:1 186:1 187:1 221:1 222:1 257:1 258:1 293:1 294:1 329:1 330:1 365:1 366:1 401:1 402:1 437:1 438:1 473:1 474:1 509:1 510:1 545:1 546:1 581:1 582:1 610:1 617:1 618:1 619:1 620:1 621:1 622:1 623:1 624:1 625:1 626:1 627:1 628:1 629:1 630:1 631:1 632:1 633:1 634:1 635:1 636:1 637:1 638:1 639:1 640:1 641:1 642:1 643:1 644:1 645:1 646:1 653:1 654:1 655:1 656:1 657:1 658:1 659:1 660:1 661:1 662:1 663:1 664:1 665:1 666:1 667:1 668:1 669:1 670:1 671:1 672:1 673:1 674:1 675:1 676:1 677:1 678:1 679:1 680:1 681:1 682:1 689:1 690:1 725:1 726:1 761:1 762:1 797:1 798:1 833:1 834:1 869:1 870:1 905:1 906:1 941:1 942:1 977:1 978:1 1013:1 1014:1 1049:1 1050:1 1085:1 1086:1 1087:1 1121:1 1122:1 1123:1 1157:1 1158:1 1159:1 1193:1 1194:1 1195:1 
0.01816816679688385 77:1 78:1 79:1 80:1 113:1 114:1 115:1 149:1 150:1 151:1 185:1 186:1 187:1 221:1 222:1 223:1 257:1 258:1 259:1 293:1 294:1 295:1 329:1 330:1 331:1 365:1 366:1 367:1 401:1 402:1 403:1 437:1 438:1 439:1 473:1 474:1 475:1 509:1 510:1 511:1 545:1 546:1 547:1 581:1 582:1 583:1 611:1 617:1 618:1 619:1 620:1 621:1 622:1 623:1 624:1 625:1 626:1 627:1 628:1 629:1 630:1 631:1 632:1 633:1 634:1 635:1 636:1 637:1 638:1 639:1 640:1 641:1 642:1 643:1 644:1 645:1 646:1 647:1 653:1 654:1 655:1 656:1 657:1 658:1 659:1 660:1 661:1 662:1 663:1 664:1 665:1 666:1 667:1 668:1 669:1 670:1 671:1 672:1 673:1 674:1 675:1 676:1 677:1 678:1 679:1 680:1 681:1 682:1 683:1 689:1 690:1 691:1 692:1 693:1 694:1 695:1 696:1 697:1 698:1 699:1 700:1 701:1 702:1 703:1 704:1 705:1 706:1 707:1 708:1 709:1 710:1 711:1 712:1 713:1 714:1 715:1 716:1 717:1 718:1 719:1 725:1 726:1 727:1 761:1 762:1 763:1 797:1 798:1 799:1 833:1 834:1 835:1 869:1 870:1 871:1 905:1 906:1 907:1 941:1 942:1 943:1 977:1 978:1 979:1 1013:1 1014:1 1015:1 1049:1 1050:1 1051:1 1085:1 1086:1 1087:1 1121:1 1122:1 1123:1 1157:1 1158:1 1159:1 1193:1 1194:1 1195:1 1229:1 1230:1 1231:1 1232:1 
0.04844557192573182 114:1 150:1 186:1 222:1 258:1 294:1 330:1 366:1 402:1 438:1 474:1 510:1 546:1 582:1 618:1 619:1 620:1 621:1 622:1 623:1 624:1 625:1 626:1 627:1 628:1 629:1 630:1 631:1 632:1 633:1 634:1 635:1 636:1 637:1 638:1 639:1 640:1 641:1 642:1 643:1 644:1 645:1 646:1 654:1 655:1 656:1 657:1 658:1 659:1 660:1 661:1 662:1 663:1 664:1 665:1 666:1 667:1 668:1 669:1 670:1 671:1 672:1 673:1 674:1 675:1 676:1 677:1 678:1 679:1 680:1 681:1 682:1 690:1 726:1 762:1 798:1 834:1 870:1 906:1 942:1 978:1 1014:1 1050:1 1085:1 1086:1 1120:1 1121:1 1122:1 1157:1 1158:1 1194:1 
0.04337211527237826 96:1 113:1 114:1 132:1 133:1 149:1 150:1 167:1 168:1 169:1 170:1 185:1 186:1 203:1 204:1 205:1 221:1 222:1 238:1 239:1 240:1 257:1 258:1 274:1 275:1 276:1 293:1 294:1 309:1 310:1 311:1 329:1 330:1 344:1 345:1 346:1 365:1 366:1 380:1 381:1 382:1 401:1 402:1 415:1 416:1 417:1 437:1 438:1 450:1 451:1 452:1 473:1 474:1 485:1 486:1 487:1 509:1 510:1 519:1 520:1 521:1 522:1 545:1 546:1 554:1 555:1 556:1 557:1 581:1 582:1 589:1 590:1 591:1 592:1 617:1 618:1 623:1 624:1 625:1 626:1 627:1 653:1 654:1 658:1 659:1 660:1 661:1 689:1 690:1 692:1 693:1 694:1 695:1 696:1 725:1 726:1 727:1 728:1 729:1 730:1 761:1 762:1 763:1 764:1 765:1 797:1 798:1 799:1 833:1 834:1 869:1 870:1 905:1 906:1 941:1 942:1 977:1 978:1 1013:1 1014:1 1049:1 1050:1 1085:1 1086:1 1121:1 1122:1 1157:1 1158:1 1193:1 1194:1 1229:1 1230:1 
0.02780637674674842 133:1 134:1 150:1 151:1 152:1 168:1 169:1 170:1 186:1 187:1 188:1 203:1 204:1 205:1 206:1 207:1 222:1 223:1 224:1 239:1 240:1 241:1 242:1 258:1 259:1 260:1 274:1 275:1 276:1 277:1 294:1 295:1 296:1 309:1 310:1 311:1 312:1 330:1 331:1 332:1 343:1 344:1 345:1 346:1 347:1 366:1 367:1 368:1 378:1 379:1 380:1 381:1 382:1 402:1 403:1 404:1 413:1 414:1 415:1 416:1 417:1 438:1 439:1 440:1 447:1 448:1 449:1 450:1 451:1 452:1 474:1 475:1 476:1 481:1 482:1 483:1 484:1 485:1 486:1 510:1 511:1 512:1 514:1 515:1 516:1 517:1 518:1 519:1 520:1 521:1 546:1 547:1 548:1 549:1 550:1 551:1 552:1 553:1 554:1 555:1 582:1 583:1 584:1 585:1 586:1 587:1 588:1 589:1 618:1 619:1 620:1 621:1 622:1 654:1 655:1 656:1 690:1 691:1 692:1 726:1 727:1 728:1 762:1 763:1 764:1 798:1 799:1 800:1 834:1 835:1 836:1 870:1 871:1 872:1 906:1 907:1 908:1 942:1 943:1 944:1 978:1 979:1 980:1 1014:1 1015:1 1016:1 1050:1 1051:1 1052:1 1086:1 1087:1 1088:1 1122:1 1123:1 1124:1 1158:1 1159:1 1160:1 
0.008848995243894356 98:1 134:1 152:1 169:1 188:1 205:1 224:1 240:1 260:1 275:1 276:1 296:1 311:1 332:1 346:1 347:1 368:1 381:1 382:1 404:1 416:1 417:1 440:1 450:1 451:1 452:1 476:1 485:1 486:1 487:1 512:1 519:1 520:1 521:1 522:1 548:1 551:1 552:1 553:1 554:1 555:1 556:1 557:1 584:1 585:1 586:1 587:1 588:1 589:1 590:1 591:1 620:1 621:1 622:1 623:1 624:1 656:1 692:1 728:1 764:1 800:1 836:1 872:1 908:1 944:1 980:1 1016:1 1051:1 1052:1 1086:1 1087:1 1088:1 1122:1 1123:1 1124:1 1159:1 1160:1 1196:1 
0.03275208644978782 114:1 115:1 150:1 151:1 176:1 177:1 186:1 187:1 212:1 213:1 214:1 222:1 223:1 247:1 248:1 249:1 250:1 258:1 259:1 282:1 283:1 284:1 285:1 294:1 295:1 317:1 318:1 319:1 320:1 330:1 331:1 352:1 353:1 354:1 355:1 366:1 367:1 387:1 388:1 389:1 390:1 402:1 403:1 421:1 422:1 423:1 424:1 438:1 439:1 454:1 455:1 456:1 457:1 458:1 459:1 474:1 475:1 486:1 487:1 488:1 489:1 490:1 491:1 492:1 493:1 510:1 511:1 512:1 513:1 514:1 515:1 516:1 517:1 518:1 519:1 520:1 521:1 522:1 523:1 524:1 525:1 526:1 527:1 546:1 547:1 548:1 549:1 550:1 551:1 552:1 553:1 554:1 555:1 556:1 557:1 558:1 559:1 582:1 583:1 584:1 585:1 591:1 592:1 618:1 619:1 627:1 628:1 654:1 655:1 663:1 664:1 690:1 691:1 699:1 700:1 715:1 716:1 726:1 727:1 735:1 736:1 751:1 752:1 753:1 762:1 763:1 771:1 772:1 788:1 789:1 798:1 799:1 807:1 808:1 824:1 825:1 834:1 835:1 843:1 844:1 860:1 861:1 870:1 871:1 879:1 880:1 896:1 897:1 906:1 907:1 915:1 916:1 931:1 932:1 933:1 942:1 943:1 951:1 952:1 960:1 961:1 962:1 963:1 964:1 965:1 966:1 967:1 968:1 978:1 979:1 987:1 988:1 989:1 990:1 991:1 992:1 993:1 994:1 995:1 996:1 997:1 998:1 999:1 1000:1 1001:1 1002:1 1003:1 1014:1 1015:1 1023:1 1024:1 1025:1 1026:1 1027:1 1028:1 1029:1 1030:1 1031:1 1032:1 1033:1 1034:1 1035:1 1050:1 1051:1 1059:1 1086:1 1087:1 1122:1 1123:1 1158:1 1159:1 1194:1 1195:1 
0.03282121421665023 114:1 115:1 116:1 141:1 150:1 151:1 152:1 176:1 177:1 178:1 186:1 187:1 188:1 212:1 213:1 214:1 215:1 222:1 223:1 224:1 246:1 247:1 248:1 249:1 250:1 258:1 259:1 260:1 281:1 282:1 283:1 284:1 285:1 294:1 295:1 296:1 316:1 317:1 318:1 319:1 320:1 330:1 331:1 332:1 350:1 351:1 352:1 353:1 354:1 355:1 366:1 367:1 368:1 384:1 385:1 386:1 387:1 388:1 389:1 390:1 402:1 403:1 404:1 418:1 419:1 420:1 421:1 422:1 423:1 424:1 438:1 439:1 440:1 450:1 451:1 452:1 453:1 454:1 455:1 456:1 457:1 458:1 474:1 475:1 476:1 477:1 478:1 479:1 480:1 481:1 482:1 483:1 484:1 485:1 486:1 487:1 488:1 489:1 490:1 491:1 492:1 510:1 511:1 512:1 513:1 514:1 515:1 516:1 517:1 518:1 519:1 520:1 521:1 522:1 523:1 524:1 525:1 546:1 547:1 548:1 549:1 550:1 551:1 552:1 553:1 554:1 555:1 556:1 557:1 582:1 583:1 584:1 591:1 592:1 593:1 618:1 619:1 620:1 627:1 628:1 629:1 654:1 655:1 656:1 663:1 664:1 665:1 690:1 691:1 692:1 699:1 700:1 701:1 726:1 727:1 728:1 735:1 736:1 737:1 752:1 753:1 762:1 763:1 764:1 771:1 772:1 773:1 788:1 789:1 790:1 791:1 798:1 799:1 800:1 807:1 808:1 809:1 824:1 825:1 826:1 834:1 835:1 836:1 843:1 844:1 845:1 860:1 861:1 862:1 870:1 871:1 872:1 879:1 880:1 881:1 896:1 897:1 898:1 906:1 907:1 908:1 915:1 916:1 917:1 929:1 930:1 931:1 932:1 933:1 934:1 942:1 943:1 944:1 951:1 952:1 953:1 954:1 955:1 956:1 957:1 958:1 959:1 960:1 961:1 962:1 963:1 964:1 965:1 966:1 967:1 968:1 969:1 978:1 979:1 980:1 987:1 988:1 989:1 990:1 991:1 992:1 993:1 994:1 995:1 996:1 997:1 998:1 999:1 1000:1 1001:1 1002:1 1003:1 1004:1 1014:1 1015:1 1016:1 1023:1 1024:1 1025:1 1026:1 1027:1 1028:1 1029:1 1030:1 1031:1 1032:1 1033:1 1034:1 1035:1 1036:1 1050:1 1051:1 1052:1 1086:1 1087:1 1088:1 1122:1 1123:1 1124:1 1158:1 1159:1 1160:1 1194:1 1195:1 1196:1 
0.0671019900838512 115:1 143:1 151:1 178:1 187:1 213:1 214:1 223:1 248:1 249:1 259:1 283:1 284:1 295:1 318:1 319:1 331:1 352:1 353:1 354:1 367:1 386:1 387:1 388:1 389:1 403:1 420:1 421:1 422:1 423:1 424:1 439:1 454:1 455:1 456:1 457:1 458:1 475:1 486:1 487:1 488:1 489:1 490:1 491:1 492:1 511:1 512:1 513:1 514:1 515:1 516:1 517:1 518:1 519:1 520:1 521:1 522:1 523:1 524:1 525:1 526:1 547:1 548:1 549:1 550:1 551:1 552:1 553:1 554:1 555:1 556:1 557:1 558:1 559:1 583:1 584:1 585:1 586:1 587:1 588:1 589:1 590:1 591:1 619:1 627:1 655:1 663:1 691:1 699:1 715:1 727:1 735:1 751:1 763:1 771:1 787:1 788:1 799:1 807:1 823:1 824:1 835:1 843:1 859:1 860:1 861:1 871:1 879:1 895:1 896:1 897:1 898:1 907:1 915:1 931:1 932:1 933:1 943:1 951:1 965:1 966:1 967:1 968:1 969:1 979:1 987:1 991:1 992:1 993:1 994:1 995:1 996:1 997:1 998:1 999:1 1000:1 1001:1 1002:1 1003:1 1004:1 1015:1 1022:1 1023:1 1024:1 1025:1 1026:1 1027:1 1028:1 1029:1 1030:1 1031:1 1032:1 1033:1 1034:1 1035:1 1036:1 1037:1 1038:1 1039:1 1051:1 1058:1 1059:1 1060:1 1061:1 1062:1 1063:1 1064:1 1065:1 1066:1 1067:1 1068:1 1069:1 1086:1 1087:1 1095:1 1121:1 1122:1 1123:1 1158:1 1159:1 1195:1 
0.0342496715374617 117:1 118:1 119:1 141:1 153:1 154:1 155:1 177:1 178:1 190:1 191:1 213:1 214:1 215:1 226:1 227:1 249:1 250:1 262:1 263:1 284:1 285:1 286:1 298:1 299:1 303:1 320:1 321:1 322:1 334:1 335:1 338:1 339:1 340:1 341:1 355:1 356:1 357:1 370:1 371:1 375:1 376:1 377:1 378:1 391:1 392:1 393:1 406:1 407:1 413:1 414:1 415:1 416:1 426:1 427:1 428:1 442:1 443:1 450:1 451:1 452:1 453:1 462:1 463:1 464:1 478:1 479:1 488:1 489:1 490:1 497:1 498:1 499:1 514:1 515:1 525:1 526:1 527:1 532:1 533:1 534:1 550:1 551:1 562:1 563:1 564:1 567:1 568:1 569:1 586:1 587:1 599:1 600:1 601:1 602:1 603:1 604:1 622:1 623:1 635:1 636:1 637:1 638:1 639:1 658:1 659:1 668:1 669:1 670:1 671:1 672:1 673:1 674:1 675:1 687:1 688:1 689:1 690:1 691:1 692:1 693:1 694:1 695:1 696:1 697:1 698:1 699:1 700:1 701:1 702:1 703:1 704:1 705:1 706:1 707:1 710:1 711:1 712:1 723:1 724:1 725:1 726:1 727:1 728:1 729:1 730:1 731:1 732:1 733:1 734:1 735:1 736:1 737:1 738:1 739:1 747:1 748:1 759:1 766:1 767:1 783:1 784:1 785:1 802:1 803:1 820:1 821:1 822:1 838:1 839:1 856:1 857:1 858:1 874:1 875:1 893:1 894:1 895:1 910:1 911:1 929:1 930:1 931:1 946:1 947:1 966:1 967:1 968:1 982:1 983:1 1002:1 1003:1 1004:1 1018:1 1019:1 1039:1 1040:1 1054:1 1055:1 1075:1 1076:1 1077:1 1090:1 1091:1 1111:1 1112:1 1113:1 1126:1 1127:1 1148:1 1149:1 1161:1 1162:1 1163:1 1184:1 1185:1 1186:1 1220:1 
0.03933012538029523 141:1 142:1 155:1 156:1 177:1 178:1 179:1 191:1 192:1 213:1 214:1 215:1 227:1 228:1 249:1 250:1 251:1 263:1 264:1 284:1 285:1 286:1 287:1 299:1 300:1 304:1 320:1 321:1 322:1 335:1 336:1 340:1 341:1 342:1 356:1 357:1 358:1 371:1 372:1 375:1 376:1 377:1 378:1 379:1 380:1 391:1 392:1 393:1 407:1 408:1 413:1 414:1 415:1 416:1 417:1 418:1 427:1 428:1 429:1 443:1 444:1 451:1 452:1 453:1 454:1 455:1 456:1 462:1 463:1 464:1 465:1 479:1 480:1 489:1 490:1 491:1 492:1 493:1 498:1 499:1 500:1 515:1 516:1 526:1 527:1 528:1 529:1 530:1 533:1 534:1 535:1 551:1 552:1 563:1 564:1 565:1 566:1 567:1 568:1 569:1 570:1 571:1 587:1 588:1 601:1 602:1 603:1 604:1 605:1 606:1 623:1 624:1 637:1 638:1 639:1 640:1 641:1 659:1 660:1 671:1 672:1 673:1 674:1 675:1 676:1 677:1 678:1 695:1 696:1 700:1 701:1 702:1 703:1 704:1 705:1 706:1 707:1 708:1 709:1 710:1 711:1 712:1 713:1 714:1 724:1 725:1 726:1 727:1 728:1 729:1 730:1 731:1 732:1 733:1 734:1 735:1 736:1 737:1 738:1 739:1 740:1 741:1 742:1 743:1 744:1 745:1 748:1 749:1 750:1 751:1 760:1 761:1 762:1 763:1 764:1 765:1 766:1 767:1 768:1 769:1 770:1 771:1 772:1 773:1 774:1 775:1 776:1 777:1 785:1 786:1 787:1 788:1 796:1 797:1 798:1 799:1 800:1 801:1 802:1 803:1 804:1 805:1 806:1 822:1 823:1 824:1 839:1 840:1 858:1 859:1 860:1 875:1 876:1 895:1 896:1 897:1 911:1 912:1 931:1 932:1 933:1 947:1 948:1 967:1 968:1 969:1 970:1 983:1 984:1 1004:1 1005:1 1006:1 1019:1 1020:1 1040:1 1041:1 1042:1 1055:1 1056:1 1076:1 1077:1 1078:1 1091:1 1092:1 1112:1 1113:1 1114:1 1115:1 1127:1 1128:1 1148:1 1149:1 1150:1 1151:1 1163:1 1164:1 1184:1 1185:1 1186:1 1220:1 
0.02810020810567416 143:1 155:1 179:1 191:1 215:1 227:1 250:1 263:1 286:1 299:1 321:1 322:1 335:1 338:1 339:1 357:1 371:1 376:1 377:1 392:1 393:1 407:1 413:1 414:1 415:1 427:1 428:1 443:1 451:1 452:1 453:1 463:1 464:1 479:1 488:1 489:1 490:1 491:1 498:1 499:1 515:1 526:1 527:1 528:1 533:1 534:1 551:1 563:1 564:1 565:1 568:1 569:1 570:1 587:1 600:1 601:1 602:1 603:1 604:1 605:1 623:1 636:1 637:1 638:1 639:1 640:1 659:1 669:1 670:1 671:1 672:1 673:1 674:1 675:1 676:1 687:1 688:1 689:1 690:1 691:1 692:1 693:1 694:1 695:1 696:1 697:1 698:1 699:1 700:1 701:1 702:1 703:1 704:1 705:1 706:1 707:1 708:1 709:1 711:1 712:1 713:1 724:1 725:1 726:1 727:1 728:1 729:1 730:1 731:1 732:1 733:1 734:1 735:1 736:1 737:1 738:1 739:1 740:1 741:1 747:1 748:1 749:1 750:1 760:1 761:1 762:1 763:1 764:1 765:1 766:1 767:1 768:1 769:1 770:1 784:1 785:1 786:1 796:1 803:1 821:1 822:1 823:1 839:1 857:1 858:1 859:1 875:1 894:1 895:1 896:1 911:1 930:1 931:1 932:1 947:1 967:1 968:1 969:1 983:1 1003:1 1004:1 1005:1 1019:1 1039:1 1040:1 1041:1 1042:1 1054:1 1055:1 1075:1 1076:1 1077:1 1078:1 1089:1 1090:1 1091:1 1112:1 1113:1 1114:1 1125:1 1126:1 1127:1 1148:1 1149:1 1162:1 1163:1 1184:1 1199:1 1220:1 
0.02238854039823652 102:1 103:1 138:1 139:1 174:1 175:1 187:1 188:1 210:1 211:1 223:1 224:1 246:1 247:1 259:1 260:1 270:1 271:1 282:1 283:1 295:1 296:1 306:1 307:1 318:1 319:1 331:1 332:1 342:1 343:1 354:1 355:1 367:1 368:1 378:1 379:1 390:1 391:1 403:1 404:1 414:1 415:1 426:1 427:1 439:1 440:1 450:1 451:1 462:1 463:1 475:1 476:1 486:1 487:1 498:1 499:1 511:1 512:1 522:1 523:1 534:1 535:1 547:1 548:1 558:1 559:1 570:1 571:1 583:1 584:1 594:1 595:1 606:1 607:1 619:1 620:1 630:1 631:1 642:1 643:1 655:1 656:1 666:1 667:1 678:1 679:1 691:1 692:1 702:1 703:1 714:1 715:1 727:1 728:1 738:1 739:1 750:1 751:1 763:1 764:1 774:1 775:1 786:1 787:1 799:1 800:1 810:1 811:1 822:1 823:1 835:1 836:1 846:1 847:1 858:1 859:1 871:1 872:1 882:1 883:1 894:1 895:1 907:1 908:1 918:1 919:1 930:1 931:1 943:1 944:1 954:1 955:1 966:1 967:1 979:1 980:1 990:1 991:1 1002:1 1003:1 1015:1 1016:1 1026:1 1027:1 1038:1 1039:1 1051:1 1052:1 1074:1 1075:1 1087:1 1088:1 1110:1 1111:1 1122:1 1123:1 1124:1 1146:1 1147:1 1182:1 1183:1 1218:1 1219:1 
0.01610443526804586 138:1 139:1 140:1 141:1 174:1 175:1 176:1 177:1 187:1 188:1 189:1 211:1 212:1 223:1 224:1 225:1 247:1 248:1 259:1 260:1 261:1 283:1 284:1 295:1 296:1 306:1 307:1 308:1 319:1 320:1 331:1 332:1 342:1 343:1 344:1 355:1 356:1 367:1 368:1 378:1 379:1 380:1 391:1 392:1 403:1 404:1 414:1 415:1 416:1 427:1 428:1 439:1 440:1 450:1 451:1 452:1 463:1 464:1 475:1 476:1 486:1 487:1 488:1 499:1 500:1 511:1 512:1 522:1 523:1 524:1 535:1 536:1 547:1 548:1 558:1 559:1 560:1 571:1 572:1 583:1 584:1 594:1 595:1 596:1 607:1 608:1 619:1 620:1 630:1 631:1 632:1 643:1 644:1 655:1 656:1 666:1 667:1 668:1 679:1 680:1 691:1 692:1 702:1 703:1 704:1 715:1 716:1 727:1 728:1 738:1 739:1 740:1 751:1 752:1 763:1 764:1 774:1 775:1 776:1 787:1 788:1 799:1 800:1 810:1 811:1 812:1 823:1 824:1 835:1 836:1 846:1 847:1 848:1 859:1 860:1 871:1 872:1 882:1 883:1 884:1 895:1 896:1 907:1 908:1 918:1 919:1 920:1 931:1 932:1 943:1 944:1 954:1 955:1 956:1 967:1 968:1 979:1 980:1 990:1 991:1 992:1 1003:1 1004:1 1015:1 1016:1 1026:1 1027:1 1028:1 1039:1 1040:1 1051:1 1052:1 1053:1 1075:1 1076:1 1087:1 1088:1 1089:1 1111:1 1112:1 1146:1 1147:1 1148:1 1182:1 1183:1 1184:1 1185:1 1218:1 1219:1 1220:1 1221:1 
0.006879981188995729 103:1 139:1 140:1 175:1 188:1 211:1 224:1 247:1 260:1 271:1 283:1 296:1 307:1 308:1 319:1 332:1 343:1 344:1 355:1 368:1 379:1 391:1 404:1 415:1 427:1 440:1 451:1 463:1 476:1 487:1 499:1 512:1 523:1 535:1 548:1 559:1 571:1 584:1 595:1 607:1 620:1 631:1 643:1 656:1 667:1 679:1 692:1 703:1 715:1 728:1 739:1 751:1 764:1 775:1 787:1 800:1 811:1 823:1 836:1 847:1 859:1 872:1 883:1 895:1 908:1 919:1 931:1 944:1 954:1 955:1 967:1 980:1 990:1 991:1 1003:1 1016:1 1027:1 1039:1 1051:1 1052:1 1075:1 1087:1 1088:1 1111:1 1124:1 1146:1 1147:1 1182:1 1183:1 1219:1 
0.01054806174123537 140:1 141:1 176:1 177:1 212:1 213:1 248:1 249:1 284:1 285:1 320:1 321:1 356:1 357:1 392:1 393:1 428:1 429:1 464:1 465:1 500:1 501:1 536:1 537:1 572:1 573:1 580:1 581:1 582:1 583:1 584:1 585:1 586:1 587:1 588:1 589:1 590:1 591:1 592:1 593:1 594:1 595:1 596:1 597:1 598:1 599:1 600:1 601:1 602:1 603:1 604:1 605:1 606:1 607:1 608:1 609:1 616:1 617:1 618:1 619:1 620:1 621:1 622:1 623:1 624:1 625:1 626:1 627:1 628:1 629:1 630:1 631:1 632:1 633:1 634:1 635:1 636:1 637:1 638:1 639:1 640:1 641:1 642:1 643:1 644:1 645:1 652:1 663:1 664:1 680:1 681:1 699:1 700:1 716:1 717:1 735:1 736:1 752:1 753:1 771:1 772:1 788:1 789:1 807:1 808:1 824:1 825:1 843:1 844:1 860:1 861:1 879:1 880:1 896:1 897:1 915:1 916:1 932:1 933:1 951:1 952:1 968:1 969:1 987:1 988:1 1004:1 1005:1 1023:1 1024:1 1040:1 1041:1 1059:1 1060:1 1076:1 1077:1 1095:1 1096:1 1112:1 1113:1 1148:1 1149:1 1184:1 1185:1 1220:1 1221:1 
0.03107156679554552 103:1 104:1 105:1 139:1 140:1 141:1 175:1 176:1 177:1 211:1 212:1 213:1 247:1 248:1 249:1 283:1 284:1 285:1 319:1 320:1 321:1 355:1 356:1 357:1 391:1 392:1 393:1 427:1 428:1 429:1 463:1 464:1 465:1 499:1 500:1 501:1 535:1 536:1 537:1 544:1 545:1 571:1 572:1 573:1 580:1 581:1 582:1 583:1 584:1 585:1 586:1 587:1 588:1 589:1 590:1 591:1 592:1 593:1 594:1 595:1 596:1 597:1 598:1 599:1 600:1 601:1 602:1 603:1 604:1 605:1 606:1 607:1 608:1 609:1 616:1 617:1 618:1 619:1 620:1 621:1 622:1 623:1 624:1 625:1 626:1 627:1 628:1 629:1 630:1 631:1 632:1 633:1 634:1 635:1 636:1 637:1 638:1 639:1 640:1 641:1 642:1 643:1 644:1 645:1 652:1 653:1 654:1 655:1 656:1 657:1 658:1 659:1 660:1 661:1 662:1 663:1 664:1 665:1 666:1 667:1 668:1 669:1 670:1 671:1 672:1 673:1 674:1 675:1 676:1 677:1 678:1 679:1 680:1 681:1 698:1 699:1 700:1 715:1 716:1 717:1 734:1 735:1 736:1 751:1 752:1 753:1 770:1 771:1 772:1 787:1 788:1 789:1 806:1 807:1 808:1 823:1 824:1 825:1 842:1 843:1 844:1 859:1 860:1 861:1 878:1 879:1 880:1 895:1 896:1 897:1 914:1 915:1 916:1 931:1 932:1 933:1 950:1 951:1 952:1 967:1 968:1 969:1 986:1 987:1 988:1 1003:1 1004:1 1005:1 1022:1 1023:1 1024:1 1039:1 1040:1 1041:1 1058:1 1059:1 1060:1 1075:1 1076:1 1077:1 1094:1 1095:1 1096:1 1111:1 1112:1 1113:1 1130:1 1131:1 1132:1 1147:1 1148:1 1149:1 1183:1 1184:1 1185:1 1219:1 1220:1 1221:1 1255:1 1256:1 1257:1 
0.0456757554499917 104:1 140:1 141:1 176:1 212:1 248:1 284:1 320:1 356:1 392:1 428:1 464:1 500:1 536:1 572:1 580:1 581:1 582:1 583:1 584:1 585:1 586:1 587:1 588:1 589:1 590:1 591:1 592:1 593:1 594:1 595:1 596:1 597:1 598:1 599:1 600:1 601:1 602:1 603:1 604:1 605:1 606:1 607:1 608:1 616:1 617:1 618:1 619:1 620:1 621:1 622:1 623:1 624:1 625:1 626:1 627:1 628:1 629:1 630:1 631:1 632:1 633:1 634:1 635:1 636:1 637:1 638:1 639:1 640:1 641:1 642:1 643:1 644:1 652:1 653:1 680:1 716:1 752:1 788:1 824:1 860:1 896:1 932:1 951:1 968:1 986:1 987:1 1004:1 1021:1 1022:1 1023:1 1040:1 1058:1 1059:1 1076:1 1095:1 1111:1 1112:1 1146:1 1147:1 1148:1 1183:1 1184:1 1220:1 
0.02642041526064187 113:1 114:1 115:1 149:1 150:1 151:1 185:1 186:1 187:1 221:1 222:1 257:1 258:1 293:1 294:1 329:1 330:1 365:1 366:1 401:1 402:1 437:1 438:1 473:1 474:1 509:1 510:1 545:1 546:1 581:1 582:1 610:1 617:1 618:1 619:1 620:1 621:1 622:1 623:1 624:1 625:1 626:1 627:1 628:1 629:1 630:1 631:1 632:1 633:1 634:1 635:1 636:1 637:1 638:1 639:1 640:1 641:1 642:1 643:1 644:1 645:1 646:1 653:1 654:1 655:1 656:1 657:1 658:1 659:1 660:1 661:1 662:1 663:1 664:1 665:1 666:1 667:1 668:1 669:1 670:1 671:1 672:1 673:1 674:1 675:1 676:1 677:1 678:1 679:1 680:1 681:1 682:1 689:1 690:1 725:1 726:1 761:1 762:1 771:1 797:1 798:1 806:1 807:1 808:1 833:1 834:1 842:1 843:1 844:1 869:1 870:1 879:1 880:1 881:1 905:1 906:1 916:1 917:1 918:1 941:1 942:1 953:1 954:1 955:1 977:1 978:1 990:1 991:1 992:1 1013:1 1014:1 1027:1 1028:1 1029:1 1030:1 1049:1 1050:1 1064:1 1065:1 1066:1 1067:1 1085:1 1086:1 1087:1 1101:1 1102:1 1103:1 1121:1 1122:1 1123:1 1138:1 1157:1 1158:1 1159:1 1193:1 1194:1 1195:1 
0.03443597752406133 114:1 115:1 116:1 150:1 151:1 152:1 186:1 187:1 188:1 222:1 223:1 224:1 258:1 259:1 260:1 294:1 295:1 296:1 330:1 331:1 332:1 366:1 367:1 368:1 402:1 403:1 404:1 438:1 439:1 440:1 474:1 475:1 476:1 510:1 511:1 512:1 546:1 547:1 548:1 582:1 583:1 584:1 585:1 586:1 587:1 588:1 589:1 590:1 591:1 592:1 593:1 594:1 595:1 596:1 597:1 598:1 599:1 600:1 601:1 602:1 603:1 604:1 605:1 606:1 607:1 608:1 609:1 610:1 618:1 619:1 620:1 621:1 622:1 623:1 624:1 625:1 626:1 627:1 628:1 629:1 630:1 631:1 632:1 633:1 634:1 635:1 636:1 637:1 638:1 639:1 640:1 641:1 642:1 643:1 644:1 645:1 646:1 654:1 655:1 656:1 657:1 658:1 659:1 660:1 661:1 662:1 663:1 664:1 665:1 666:1 667:1 668:1 669:1 670:1 671:1 672:1 673:1 674:1 675:1 676:1 677:1 678:1 679:1 680:1 681:1 682:1 690:1 691:1 692:1 726:1 727:1 728:1 762:1 763:1 764:1 773:1 774:1 798:1 799:1 800:1 808:1 809:1 810:1 834:1 835:1 836:1 844:1 845:1 846:1 847:1 870:1 871:1 872:1 881:1 882:1 883:1 884:1 906:1 907:1 908:1 918:1 919:1 920:1 921:1 942:1 943:1 944:1 955:1 956:1 957:1 958:1 978:1 979:1 980:1 992:1 993:1 994:1 995:1 1014:1 1015:1 1016:1 1029:1 1030:1 1031:1 1032:1 1033:1 1050:1 1051:1 1052:1 1066:1 1067:1 1068:1 1069:1 1070:1 1086:1 1087:1 1088:1 1103:1 1104:1 1105:1 1122:1 1123:1 1124:1 1140:1 1158:1 1159:1 1160:1 1194:1 1195:1 1196:1 
0.03730577427838721 77:1 78:1 113:1 114:1 139:1 140:1 149:1 150:1 175:1 176:1 177:1 185:1 186:1 210:1 211:1 212:1 221:1 222:1 245:1 246:1 247:1 248:1 257:1 258:1 281:1 282:1 283:1 293:1 294:1 316:1 317:1 318:1 329:1 330:1 350:1 351:1 352:1 353:1 354:1 365:1 366:1 385:1 386:1 387:1 388:1 389:1 401:1 402:1 418:1 419:1 420:1 421:1 422:1 423:1 437:1 438:1 439:1 440:1 441:1 442:1 443:1 444:1 445:1 446:1 447:1 448:1 449:1 450:1 451:1 452:1 453:1 454:1 455:1 456:1 457:1 458:1 473:1 474:1 475:1 476:1 477:1 478:1 479:1 480:1 481:1 482:1 483:1 484:1 485:1 486:1 487:1 488:1 489:1 490:1 491:1 509:1 510:1 545:1 546:1 581:1 582:1 617:1 618:1 653:1 654:1 689:1 690:1 725:1 726:1 761:1 762:1 797:1 798:1 833:1 834:1 860:1 861:1 869:1 870:1 871:1 872:1 873:1 874:1 875:1 876:1 877:1 878:1 879:1 880:1 881:1 882:1 883:1 884:1 885:1 886:1 887:1 888:1 889:1 890:1 891:1 892:1 893:1 894:1 895:1 896:1 897:1 905:1 906:1 907:1 908:1 909:1 910:1 911:1 912:1 913:1 914:1 915:1 916:1 917:1 918:1 919:1 920:1 921:1 922:1 923:1 924:1 925:1 926:1 927:1 928:1 929:1 930:1 931:1 932:1 933:1 941:1 942:1 977:1 978:1 1013:1 1014:1 1049:1 1050:1 1085:1 1086:1 1121:1 1122:1 1157:1 1158:1 1193:1 1194:1 
0.03253750824824592 78:1 79:1 80:1 114:1 115:1 116:1 141:1 150:1 151:1 152:1 176:1 177:1 178:1 186:1 187:1 188:1 211:1 212:1 213:1 214:1 222:1 223:1 224:1 246:1 247:1 248:1 249:1 259:1 260:1 281:1 282:1 283:1 284:1 295:1 296:1 315:1 316:1 317:1 318:1 319:1 331:1 332:1 349:1 350:1 351:1 352:1 353:1 354:1 367:1 368:1 383:1 384:1 385:1 386:1 387:1 388:1 389:1 403:1 404:1 415:1 416:1 417:1 418:1 419:1 420:1 421:1 422:1 423:1 439:1 440:1 441:1 442:1 443:1 444:1 445:1 446:1 447:1 448:1 449:1 450:1 451:1 452:1 453:1 454:1 455:1 456:1 457:1 458:1 475:1 476:1 477:1 478:1 479:1 480:1 481:1 482:1 483:1 484:1 485:1 486:1 487:1 488:1 489:1 490:1 491:1 511:1 512:1 513:1 514:1 515:1 516:1 517:1 518:1 519:1 520:1 521:1 522:1 523:1 524:1 547:1 548:1 583:1 584:1 619:1 620:1 655:1 656:1 691:1 692:1 727:1 728:1 763:1 764:1 799:1 800:1 835:1 836:1 837:1 838:1 839:1 840:1 841:1 842:1 843:1 844:1 845:1 846:1 847:1 848:1 849:1 850:1 851:1 852:1 853:1 854:1 855:1 856:1 857:1 858:1 859:1 860:1 861:1 862:1 863:1 871:1 872:1 873:1 874:1 875:1 876:1 877:1 878:1 879:1 880:1 881:1 882:1 883:1 884:1 885:1 886:1 887:1 888:1 889:1 890:1 891:1 892:1 893:1 894:1 895:1 896:1 897:1 898:1 899:1 907:1 908:1 909:1 910:1 911:1 912:1 913:1 914:1 915:1 916:1 917:1 918:1 919:1 920:1 921:1 922:1 923:1 924:1 925:1 926:1 927:1 928:1 929:1 930:1 931:1 932:1 933:1 934:1 935:1 943:1 944:1 971:1 979:1 980:1 1015:1 1016:1 1051:1 1052:1 1087:1 1088:1 1122:1 1123:1 1124:1 1158:1 1159:1 1160:1 1194:1 1195:1 1196:1 1230:1 1231:1 1232:1 
0.02131568649971064 152:1 178:1 188:1 213:1 224:1 248:1 260:1 282:1 283:1 296:1 317:1 318:1 319:1 332:1 351:1 352:1 353:1 368:1 385:1 386:1 387:1 388:1 404:1 418:1 419:1 420:1 421:1 422:1 423:1 440:1 442:1 443:1 444:1 445:1 446:1 447:1 448:1 449:1 450:1 451:1 452:1 453:1 454:1 455:1 456:1 457:1 476:1 477:1 478:1 479:1 480:1 481:1 482:1 483:1 484:1 485:1 486:1 487:1 488:1 489:1 512:1 513:1 514:1 515:1 516:1 517:1 518:1 519:1 548:1 584:1 620:1 656:1 692:1 728:1 764:1 800:1 836:1 837:1 838:1 839:1 840:1 841:1 842:1 843:1 844:1 845:1 846:1 847:1 848:1 849:1 850:1 851:1 852:1 853:1 854:1 855:1 856:1 857:1 858:1 859:1 860:1 861:1 862:1 863:1 872:1 873:1 874:1 875:1 876:1 877:1 878:1 879:1 880:1 881:1 882:1 883:1 884:1 885:1 886:1 887:1 888:1 889:1 890:1 891:1 892:1 893:1 894:1 895:1 896:1 897:1 898:1 908:1 944:1 980:1 1016:1 1052:1 1087:1 1088:1 1122:1 1123:1 1124:1 1158:1 1159:1 1160:1 1195:1 1196:1 1232:1 
0.0262392334063697 96:1 113:1 114:1 132:1 133:1 149:1 150:1 167:1 168:1 169:1 170:1 185:1 186:1 203:1 204:1 205:1 221:1 222:1 238:1 239:1 240:1 241:1 257:1 258:1 274:1 275:1 276:1 293:1 294:1 309:1 310:1 311:1 329:1 330:1 344:1 345:1 346:1 347:1 365:1 366:1 380:1 381:1 382:1 401:1 402:1 415:1 416:1 417:1 437:1 438:1 450:1 451:1 452:1 473:1 474:1 485:1 486:1 487:1 509:1 510:1 519:1 520:1 521:1 522:1 545:1 546:1 554:1 555:1 556:1 557:1 581:1 582:1 589:1 590:1 591:1 592:1 617:1 618:1 623:1 624:1 625:1 626:1 627:1 647:1 653:1 654:1 658:1 659:1 660:1 661:1 662:1 663:1 664:1 665:1 666:1 667:1 668:1 669:1 670:1 671:1 672:1 673:1 674:1 675:1 676:1 677:1 678:1 679:1 680:1 681:1 682:1 683:1 689:1 690:1 692:1 693:1 694:1 695:1 696:1 697:1 698:1 699:1 700:1 701:1 702:1 703:1 704:1 705:1 706:1 707:1 708:1 709:1 710:1 711:1 712:1 713:1 714:1 715:1 716:1 717:1 718:1 719:1 725:1 726:1 727:1 728:1 729:1 730:1 761:1 762:1 763:1 764:1 765:1 797:1 798:1 799:1 808:1 833:1 834:1 843:1 844:1 869:1 870:1 879:1 880:1 881:1 905:1 906:1 916:1 917:1 918:1 941:1 942:1 952:1 953:1 954:1 955:1 977:1 978:1 989:1 990:1 991:1 992:1 1013:1 1014:1 1026:1 1027:1 1028:1 1029:1 1049:1 1050:1 1063:1 1064:1 1065:1 1066:1 1085:1 1086:1 1100:1 1101:1 1102:1 1103:1 1121:1 1122:1 1137:1 1138:1 1139:1 1140:1 1157:1 1158:1 1174:1 1175:1 1176:1 1177:1 1193:1 1194:1 1211:1 1212:1 1213:1 1229:1 1230:1 1248:1 
0.03644508535613659 113:1 114:1 131:1 132:1 149:1 150:1 167:1 168:1 169:1 170:1 185:1 186:1 202:1 203:1 204:1 205:1 221:1 222:1 237:1 238:1 239:1 240:1 257:1 258:1 273:1 274:1 275:1 293:1 294:1 308:1 309:1 310:1 311:1 329:1 330:1 343:1 344:1 345:1 346:1 365:1 366:1 378:1 379:1 380:1 381:1 401:1 402:1 413:1 414:1 415:1 416:1 437:1 438:1 448:1 449:1 450:1 451:1 473:1 474:1 483:1 484:1 485:1 486:1 509:1 510:1 517:1 518:1 519:1 520:1 521:1 545:1 546:1 552:1 553:1 554:1 555:1 581:1 582:1 586:1 587:1 588:1 589:1 590:1 591:1 592:1 593:1 594:1 595:1 596:1 597:1 598:1 599:1 600:1 601:1 602:1 603:1 604:1 605:1 606:1 607:1 608:1 609:1 610:1 611:1 617:1 618:1 621:1 622:1 623:1 624:1 625:1 626:1 627:1 628:1 629:1 630:1 631:1 632:1 633:1 634:1 635:1 636:1 637:1 638:1 639:1 640:1 641:1 642:1 643:1 644:1 645:1 646:1 647:1 653:1 654:1 655:1 656:1 657:1 658:1 659:1 660:1 661:1 662:1 663:1 664:1 665:1 666:1 667:1 668:1 669:1 670:1 671:1 672:1 673:1 674:1 675:1 676:1 677:1 678:1 679:1 680:1 681:1 682:1 683:1 689:1 690:1 691:1 692:1 693:1 694:1 725:1 726:1 727:1 728:1 761:1 762:1 797:1 798:1 807:1 808:1 833:1 834:1 842:1 843:1 844:1 845:1 869:1 870:1 879:1 880:1 881:1 882:1 905:1 906:1 916:1 917:1 918:1 919:1 941:1 942:1 953:1 954:1 955:1 956:1 977:1 978:1 990:1 991:1 992:1 993:1 1013:1 1014:1 1026:1 1027:1 1028:1 1029:1 1030:1 1049:1 1050:1 1063:1 1064:1 1065:1 1066:1 1067:1 1085:1 1086:1 1100:1 1101:1 1102:1 1103:1 1104:1 1121:1 1122:1 1137:1 1138:1 1139:1 1140:1 1141:1 1157:1 1158:1 1174:1 1175:1 1176:1 1193:1 1194:1 
0.02714212436766906 114:1 134:1 150:1 169:1 170:1 186:1 205:1 222:1 240:1 258:1 275:1 276:1 294:1 310:1 311:1 330:1 345:1 346:1 366:1 380:1 381:1 402:1 414:1 415:1 416:1 438:1 449:1 450:1 451:1 474:1 484:1 485:1 486:1 510:1 518:1 519:1 520:1 521:1 546:1 552:1 553:1 554:1 555:1 556:1 582:1 587:1 588:1 589:1 590:1 618:1 620:1 621:1 622:1 623:1 624:1 625:1 626:1 627:1 628:1 629:1 630:1 631:1 632:1 633:1 634:1 635:1 636:1 637:1 638:1 639:1 640:1 641:1 642:1 643:1 644:1 645:1 646:1 654:1 655:1 656:1 657:1 658:1 659:1 660:1 661:1 662:1 663:1 664:1 665:1 666:1 667:1 668:1 669:1 670:1 671:1 672:1 673:1 674:1 675:1 676:1 677:1 678:1 679:1 680:1 681:1 682:1 690:1 691:1 692:1 693:1 697:1 698:1 712:1 713:1 714:1 715:1 716:1 717:1 718:1 726:1 727:1 733:1 762:1 798:1 834:1 843:1 870:1 880:1 906:1 916:1 917:1 942:1 953:1 954:1 978:1 990:1 991:1 1014:1 1026:1 1027:1 1028:1 1050:1 1063:1 1064:1 1065:1 1085:1 1086:1 1100:1 1101:1 1102:1 1103:1 1120:1 1121:1 1122:1 1137:1 1138:1 1139:1 1140:1 1156:1 1157:1 1158:1 1174:1 1175:1 1176:1 1177:1 1193:1 1194:1 1211:1 1212:1 1230:1 
0.03789352011749529 132:1 133:1 134:1 168:1 169:1 204:1 205:1 240:1 241:1 276:1 277:1 312:1 313:1 340:1 341:1 342:1 348:1 349:1 363:1 364:1 365:1 366:1 367:1 368:1 369:1 370:1 371:1 372:1 373:1 374:1 375:1 376:1 377:1 378:1 384:1 385:1 399:1 400:1 401:1 402:1 403:1 404:1 405:1 406:1 407:1 408:1 409:1 410:1 411:1 412:1 413:1 414:1 420:1 421:1 435:1 436:1 437:1 438:1 439:1 440:1 441:1 449:1 450:1 456:1 457:1 471:1 476:1 477:1 485:1 486:1 492:1 493:1 512:1 513:1 521:1 522:1 528:1 529:1 548:1 549:1 557:1 558:1 564:1 565:1 584:1 585:1 593:1 594:1 600:1 601:1 620:1 621:1 629:1 630:1 636:1 637:1 656:1 657:1 665:1 666:1 672:1 673:1 692:1 693:1 701:1 702:1 708:1 709:1 717:1 718:1 728:1 729:1 737:1 738:1 744:1 745:1 753:1 754:1 755:1 764:1 765:1 773:1 774:1 780:1 781:1 789:1 790:1 791:1 800:1 801:1 809:1 810:1 816:1 817:1 825:1 826:1 836:1 837:1 845:1 846:1 852:1 853:1 861:1 862:1 872:1 873:1 881:1 882:1 888:1 889:1 896:1 897:1 898:1 908:1 909:1 917:1 918:1 924:1 925:1 932:1 933:1 934:1 944:1 945:1 953:1 954:1 967:1 968:1 969:1 980:1 981:1 989:1 990:1 1002:1 1003:1 1004:1 1005:1 1016:1 1017:1 1025:1 1026:1 1031:1 1032:1 1033:1 1034:1 1035:1 1036:1 1037:1 1038:1 1039:1 1040:1 1052:1 1053:1 1061:1 1062:1 1063:1 1064:1 1065:1 1066:1 1067:1 1068:1 1069:1 1070:1 1071:1 1072:1 1073:1 1074:1 1075:1 1088:1 1089:1 1097:1 1098:1 1099:1 1100:1 1101:1 1102:1 1103:1 1104:1 1105:1 1106:1 1107:1 1124:1 1125:1 1160:1 1161:1 
0.04669438391878091 133:1 134:1 135:1 169:1 170:1 171:1 205:1 206:1 241:1 242:1 266:1 267:1 268:1 269:1 270:1 277:1 278:1 294:1 295:1 296:1 297:1 298:1 299:1 300:1 301:1 302:1 303:1 304:1 305:1 306:1 313:1 314:1 327:1 328:1 329:1 330:1 331:1 332:1 333:1 334:1 335:1 336:1 337:1 338:1 339:1 340:1 341:1 342:1 349:1 350:1 363:1 364:1 365:1 366:1 367:1 368:1 369:1 370:1 371:1 372:1 373:1 377:1 378:1 385:1 386:1 400:1 401:1 404:1 405:1 406:1 413:1 414:1 421:1 422:1 440:1 441:1 442:1 449:1 450:1 457:1 458:1 476:1 477:1 478:1 485:1 486:1 493:1 494:1 512:1 513:1 514:1 521:1 522:1 529:1 530:1 548:1 549:1 550:1 557:1 558:1 565:1 566:1 584:1 585:1 586:1 593:1 594:1 601:1 602:1 620:1 621:1 622:1 629:1 630:1 637:1 638:1 656:1 657:1 658:1 665:1 666:1 673:1 674:1 692:1 693:1 694:1 701:1 702:1 709:1 710:1 728:1 729:1 730:1 737:1 738:1 745:1 746:1 764:1 765:1 766:1 773:1 774:1 781:1 782:1 789:1 800:1 801:1 802:1 809:1 810:1 817:1 818:1 825:1 826:1 827:1 836:1 837:1 838:1 845:1 846:1 853:1 854:1 861:1 862:1 863:1 872:1 873:1 874:1 881:1 882:1 889:1 890:1 891:1 897:1 898:1 899:1 908:1 909:1 910:1 917:1 918:1 925:1 926:1 927:1 932:1 933:1 934:1 935:1 944:1 945:1 946:1 953:1 954:1 968:1 969:1 970:1 980:1 981:1 982:1 989:1 990:1 1003:1 1004:1 1005:1 1006:1 1016:1 1017:1 1018:1 1025:1 1026:1 1033:1 1034:1 1035:1 1036:1 1037:1 1038:1 1039:1 1040:1 1041:1 1042:1 1052:1 1053:1 1054:1 1061:1 1062:1 1063:1 1064:1 1065:1 1066:1 1067:1 1068:1 1069:1 1070:1 1071:1 1072:1 1073:1 1074:1 1075:1 1076:1 1077:1 1088:1 1089:1 1090:1 1097:1 1098:1 1099:1 1100:1 1101:1 1102:1 1103:1 1104:1 1105:1 1106:1 1107:1 1108:1 1109:1 1110:1 1111:1 1124:1 1125:1 1126:1 1133:1 1134:1 1135:1 1136:1 1137:1 1138:1 1139:1 1160:1 1161:1 1162:1 
0.05016025710545663 133:1 169:1 170:1 205:1 241:1 277:1 313:1 342:1 349:1 369:1 370:1 371:1 372:1 373:1 374:1 375:1 376:1 377:1 378:1 379:1 385:1 400:1 401:1 402:1 403:1 404:1 405:1 406:1 407:1 408:1 409:1 410:1 411:1 412:1 413:1 414:1 415:1 421:1 436:1 437:1 438:1 439:1 440:1 441:1 442:1 443:1 444:1 450:1 457:1 472:1 479:1 486:1 493:1 515:1 522:1 529:1 551:1 558:1 565:1 587:1 594:1 601:1 623:1 630:1 637:1 659:1 666:1 673:1 695:1 702:1 709:1 731:1 738:1 745:1 752:1 767:1 774:1 781:1 788:1 803:1 810:1 816:1 817:1 824:1 825:1 839:1 846:1 852:1 853:1 860:1 861:1 875:1 882:1 889:1 896:1 897:1 898:1 899:1 911:1 918:1 932:1 933:1 934:1 947:1 954:1 968:1 969:1 970:1 983:1 990:1 1002:1 1003:1 1004:1 1005:1 1019:1 1026:1 1033:1 1034:1 1035:1 1036:1 1037:1 1038:1 1039:1 1040:1 1041:1 1054:1 1055:1 1061:1 1062:1 1063:1 1064:1 1065:1 1066:1 1067:1 1068:1 1069:1 1070:1 1071:1 1072:1 1073:1 1074:1 1075:1 1089:1 1090:1 1091:1 1097:1 1098:1 1099:1 1100:1 1101:1 1102:1 1103:1 1104:1 1105:1 1106:1 1126:1 1127:1 1134:1 1163:1 
2.282449188797488 113:1 114:1 115:1 150:1 151:1 186:1 187:1 222:1 223:1 237:1 258:1 259:1 268:1 269:1 270:1 271:1 272:1 273:1 294:1 295:1 298:1 299:1 300:1 301:1 302:1 303:1 304:1 305:1 306:1 307:1 308:1 309:1 330:1 331:1 334:1 335:1 336:1 337:1 338:1 339:1 340:1 344:1 345:1 366:1 367:1 370:1 380:1 381:1 402:1 403:1 416:1 417:1 438:1 439:1 452:1 453:1 474:1 475:1 488:1 489:1 510:1 511:1 524:1 525:1 546:1 547:1 560:1 561:1 582:1 583:1 596:1 597:1 618:1 619:1 620:1 621:1 622:1 623:1 624:1 625:1 626:1 627:1 628:1 629:1 630:1 631:1 632:1 633:1 654:1 655:1 656:1 657:1 658:1 659:1 660:1 661:1 662:1 663:1 664:1 665:1 666:1 667:1 668:1 669:1 690:1 691:1 696:1 697:1 704:1 705:1 726:1 727:1 732:1 733:1 740:1 741:1 762:1 763:1 768:1 769:1 776:1 777:1 788:1 798:1 799:1 804:1 805:1 812:1 813:1 824:1 825:1 826:1 834:1 835:1 840:1 841:1 848:1 849:1 860:1 861:1 862:1 870:1 871:1 876:1 877:1 884:1 885:1 896:1 897:1 898:1 906:1 907:1 912:1 913:1 920:1 921:1 932:1 933:1 934:1 942:1 943:1 948:1 949:1 956:1 957:1 968:1 969:1 970:1 978:1 979:1 984:1 985:1 992:1 993:1 1003:1 1004:1 1005:1 1014:1 1015:1 1020:1 1021:1 1028:1 1029:1 1030:1 1031:1 1032:1 1033:1 1034:1 1035:1 1036:1 1037:1 1038:1 1039:1 1040:1 1041:1 1050:1 1051:1 1056:1 1057:1 1064:1 1065:1 1066:1 1067:1 1068:1 1069:1 1070:1 1071:1 1072:1 1073:1 1074:1 1075:1 1086:1 1087:1 1100:1 1101:1 1102:1 1103:1 1104:1 1105:1 1122:1 1123:1 1158:1 1159:1 1193:1 1194:1 1195:1 
0.6080821438549048 113:1 114:1 149:1 150:1 185:1 186:1 195:1 196:1 197:1 198:1 199:1 200:1 201:1 221:1 222:1 227:1 228:1 229:1 230:1 231:1 232:1 233:1 234:1 235:1 236:1 237:1 257:1 258:1 263:1 264:1 265:1 266:1 267:1 268:1 269:1 270:1 271:1 272:1 273:1 293:1 294:1 299:1 300:1 301:1 302:1 308:1 309:1 329:1 330:1 344:1 345:1 365:1 366:1 380:1 381:1 401:1 402:1 416:1 417:1 437:1 438:1 452:1 453:1 473:1 474:1 488:1 489:1 509:1 510:1 524:1 525:1 545:1 546:1 560:1 561:1 581:1 582:1 583:1 584:1 585:1 586:1 587:1 588:1 589:1 590:1 591:1 592:1 593:1 594:1 595:1 596:1 597:1 617:1 618:1 619:1 620:1 621:1 622:1 623:1 624:1 625:1 626:1 627:1 628:1 629:1 630:1 631:1 632:1 633:1 653:1 654:1 655:1 656:1 657:1 658:1 659:1 660:1 661:1 662:1 663:1 664:1 665:1 666:1 667:1 668:1 669:1 689:1 690:1 696:1 697:1 704:1 705:1 725:1 726:1 732:1 733:1 740:1 741:1 761:1 762:1 768:1 769:1 776:1 777:1 789:1 797:1 798:1 804:1 805:1 812:1 813:1 825:1 826:1 827:1 833:1 834:1 840:1 841:1 848:1 849:1 861:1 862:1 863:1 869:1 870:1 876:1 877:1 884:1 885:1 897:1 898:1 899:1 905:1 906:1 912:1 913:1 920:1 921:1 932:1 933:1 934:1 935:1 941:1 942:1 948:1 949:1 956:1 957:1 968:1 969:1 970:1 977:1 978:1 984:1 985:1 992:1 993:1 1003:1 1004:1 1005:1 1006:1 1013:1 1014:1 1020:1 1021:1 1028:1 1029:1 1035:1 1036:1 1037:1 1038:1 1039:1 1040:1 1041:1 1042:1 1049:1 1050:1 1056:1 1057:1 1064:1 1065:1 1066:1 1067:1 1068:1 1069:1 1070:1 1071:1 1072:1 1073:1 1074:1 1075:1 1076:1 1077:1 1085:1 1086:1 1092:1 1093:1 1100:1 1101:1 1102:1 1103:1 1104:1 1105:1 1106:1 1107:1 1108:1 1109:1 1110:1 1111:1 1121:1 1122:1 1136:1 1137:1 1138:1 1139:1 1140:1 1141:1 1142:1 1143:1 1157:1 1158:1 1172:1 1173:1 1193:1 1194:1 1229:1 1230:1 
0.1199492461730344 150:1 186:1 200:1 222:1 226:1 227:1 228:1 229:1 230:1 231:1 232:1 233:1 234:1 235:1 236:1 237:1 262:1 263:1 264:1 265:1 266:1 267:1 268:1 269:1 270:1 271:1 272:1 273:1 299:1 300:1 301:1 302:1 308:1 335:1 344:1 380:1 416:1 452:1 488:1 524:1 560:1 582:1 583:1 584:1 585:1 586:1 587:1 588:1 589:1 590:1 591:1 592:1 593:1 594:1 595:1 596:1 618:1 619:1 620:1 621:1 622:1 623:1 624:1 625:1 626:1 627:1 628:1 629:1 630:1 631:1 632:1 654:1 655:1 656:1 657:1 658:1 659:1 660:1 661:1 662:1 663:1 664:1 665:1 666:1 667:1 668:1 696:1 704:1 715:1 732:1 740:1 752:1 768:1 776:1 788:1 804:1 812:1 824:1 840:1 848:1 860:1 861:1 876:1 884:1 896:1 897:1 898:1 912:1 920:1 932:1 933:1 934:1 935:1 948:1 956:1 968:1 969:1 970:1 984:1 992:1 1003:1 1004:1 1005:1 1006:1 1020:1 1028:1 1036:1 1037:1 1038:1 1039:1 1040:1 1041:1 1055:1 1056:1 1064:1 1067:1 1068:1 1069:1 1070:1 1071:1 1072:1 1073:1 1074:1 1075:1 1076:1 1085:1 1091:1 1092:1 1099:1 1100:1 1101:1 1102:1 1103:1 1104:1 1105:1 1106:1 1107:1 1108:1 1109:1 1120:1 1121:1 1128:1 1135:1 1136:1 1137:1 1138:1 1139:1 1157:1 1172:1 
0.06509801952957833 103:1 104:1 105:1 139:1 140:1 175:1 176:1 211:1 212:1 222:1 223:1 247:1 248:1 258:1 259:1 269:1 270:1 271:1 283:1 284:1 294:1 295:1 305:1 306:1 307:1 319:1 320:1 330:1 331:1 341:1 342:1 355:1 356:1 366:1 367:1 378:1 391:1 392:1 402:1 403:1 414:1 427:1 428:1 438:1 439:1 450:1 463:1 464:1 474:1 475:1 486:1 496:1 497:1 498:1 499:1 500:1 510:1 511:1 522:1 523:1 524:1 525:1 526:1 527:1 528:1 529:1 530:1 531:1 532:1 533:1 534:1 535:1 536:1 546:1 547:1 549:1 550:1 551:1 552:1 553:1 554:1 555:1 556:1 557:1 558:1 559:1 560:1 561:1 562:1 563:1 564:1 565:1 566:1 567:1 568:1 569:1 570:1 571:1 572:1 582:1 583:1 584:1 585:1 586:1 587:1 588:1 589:1 590:1 591:1 592:1 593:1 594:1 595:1 596:1 597:1 607:1 608:1 618:1 619:1 620:1 621:1 622:1 623:1 630:1 643:1 644:1 654:1 655:1 666:1 679:1 680:1 690:1 691:1 702:1 715:1 716:1 726:1 727:1 738:1 751:1 752:1 762:1 763:1 774:1 787:1 788:1 798:1 799:1 810:1 823:1 824:1 834:1 835:1 846:1 859:1 860:1 870:1 871:1 882:1 895:1 896:1 906:1 907:1 918:1 931:1 932:1 942:1 943:1 954:1 967:1 968:1 978:1 979:1 987:1 988:1 989:1 990:1 991:1 992:1 993:1 994:1 995:1 996:1 997:1 998:1 999:1 1000:1 1001:1 1002:1 1003:1 1004:1 1014:1 1015:1 1016:1 1017:1 1018:1 1019:1 1020:1 1021:1 1022:1 1023:1 1024:1 1025:1 1026:1 1027:1 1028:1 1029:1 1030:1 1031:1 1032:1 1033:1 1034:1 1035:1 1036:1 1037:1 1038:1 1039:1 1040:1 1050:1 1051:1 1052:1 1053:1 1054:1 1055:1 1056:1 1057:1 1058:1 1059:1 1060:1 1061:1 1062:1 1075:1 1076:1 1111:1 1112:1 1147:1 1148:1 1183:1 1184:1 1219:1 1220:1 1255:1 1256:1 
0.04663870752594853 140:1 141:1 176:1 177:1 212:1 213:1 222:1 223:1 224:1 248:1 249:1 258:1 259:1 260:1 270:1 271:1 272:1 284:1 285:1 294:1 295:1 306:1 307:1 308:1 320:1 321:1 330:1 331:1 342:1 343:1 344:1 356:1 357:1 366:1 367:1 378:1 379:1 380:1 392:1 393:1 402:1 403:1 414:1 415:1 416:1 428:1 429:1 438:1 439:1 450:1 451:1 452:1 464:1 465:1 474:1 475:1 486:1 487:1 488:1 492:1 493:1 494:1 495:1 496:1 497:1 498:1 499:1 500:1 501:1 510:1 511:1 519:1 520:1 521:1 522:1 523:1 524:1 525:1 526:1 527:1 528:1 529:1 530:1 531:1 532:1 533:1 534:1 535:1 536:1 537:1 546:1 547:1 548:1 549:1 550:1 551:1 552:1 553:1 554:1 555:1 556:1 557:1 558:1 559:1 560:1 561:1 562:1 563:1 564:1 565:1 566:1 567:1 568:1 569:1 570:1 571:1 572:1 573:1 582:1 583:1 584:1 585:1 586:1 587:1 588:1 589:1 590:1 591:1 592:1 593:1 594:1 595:1 596:1 597:1 598:1 599:1 608:1 609:1 618:1 619:1 620:1 621:1 622:1 623:1 624:1 625:1 630:1 631:1 632:1 644:1 645:1 654:1 655:1 666:1 667:1 668:1 680:1 681:1 690:1 691:1 702:1 703:1 704:1 716:1 717:1 726:1 727:1 738:1 739:1 740:1 752:1 753:1 762:1 763:1 774:1 775:1 776:1 788:1 789:1 798:1 799:1 810:1 811:1 812:1 824:1 825:1 834:1 835:1 846:1 847:1 848:1 860:1 861:1 870:1 871:1 882:1 883:1 884:1 896:1 897:1 906:1 907:1 918:1 919:1 920:1 931:1 932:1 933:1 942:1 943:1 953:1 954:1 955:1 956:1 957:1 958:1 959:1 960:1 961:1 962:1 963:1 964:1 965:1 966:1 967:1 968:1 969:1 978:1 979:1 980:1 981:1 982:1 983:1 984:1 985:1 986:1 987:1 988:1 989:1 990:1 991:1 992:1 993:1 994:1 995:1 996:1 997:1 998:1 999:1 1000:1 1001:1 1002:1 1003:1 1004:1 1005:1 1014:1 1015:1 1016:1 1017:1 1018:1 1019:1 1020:1 1021:1 1022:1 1023:1 1024:1 1025:1 1026:1 1027:1 1028:1 1029:1 1030:1 1031:1 1032:1 1033:1 1034:1 1035:1 1036:1 1037:1 1038:1 1040:1 1041:1 1050:1 1051:1 1052:1 1053:1 1054:1 1055:1 1056:1 1057:1 1058:1 1059:1 1060:1 1076:1 1077:1 1112:1 1113:1 1148:1 1149:1 1184:1 1185:1 1220:1 1221:1 
0.02575289889374426 141:1 177:1 213:1 223:1 234:1 249:1 259:1 270:1 295:1 306:1 331:1 342:1 367:1 378:1 403:1 414:1 439:1 450:1 459:1 460:1 461:1 462:1 463:1 464:1 475:1 482:1 483:1 484:1 485:1 486:1 487:1 488:1 489:1 490:1 491:1 492:1 493:1 494:1 495:1 496:1 497:1 498:1 499:1 500:1 511:1 512:1 513:1 514:1 515:1 516:1 517:1 518:1 519:1 520:1 521:1 522:1 523:1 524:1 525:1 526:1 527:1 528:1 529:1 530:1 531:1 532:1 547:1 548:1 549:1 550:1 551:1 552:1 553:1 554:1 555:1 556:1 558:1 583:1 594:1 619:1 630:1 655:1 666:1 691:1 702:1 727:1 738:1 763:1 774:1 799:1 810:1 835:1 846:1 871:1 882:1 907:1 918:1 943:1 954:1 956:1 957:1 958:1 959:1 960:1 961:1 962:1 963:1 964:1 965:1 966:1 967:1 968:1 979:1 980:1 981:1 982:1 983:1 984:1 985:1 986:1 987:1 988:1 989:1 990:1 991:1 992:1 993:1 994:1 995:1 996:1 997:1 998:1 999:1 1000:1 1001:1 1002:1 1003:1 1004:1 1014:1 1015:1 1016:1 1017:1 1018:1 1019:1 1020:1 1021:1 1022:1 1023:1 1024:1 1025:1 1026:1 1027:1 1028:1 1029:1 1030:1 1031:1 1032:1 1050:1 1051:1 1052:1 1053:1 1054:1 1076:1 1087:1 1111:1 1112:1 1146:1 1147:1 1148:1 1183:1 1184:1 1220:1 
0.05621953144997914 140:1 141:1 142:1 172:1 176:1 177:1 178:1 208:1 209:1 213:1 214:1 222:1 223:1 243:1 244:1 245:1 246:1 249:1 250:1 258:1 259:1 279:1 280:1 281:1 285:1 286:1 294:1 295:1 314:1 315:1 316:1 321:1 322:1 330:1 331:1 349:1 350:1 351:1 352:1 357:1 358:1 366:1 367:1 372:1 373:1 384:1 385:1 386:1 387:1 393:1 394:1 402:1 403:1 408:1 409:1 410:1 419:1 420:1 421:1 422:1 429:1 430:1 438:1 439:1 444:1 445:1 446:1 454:1 455:1 456:1 457:1 465:1 466:1 474:1 475:1 481:1 482:1 483:1 489:1 490:1 491:1 492:1 501:1 502:1 510:1 511:1 518:1 519:1 520:1 524:1 525:1 526:1 527:1 537:1 538:1 546:1 547:1 554:1 555:1 556:1 558:1 559:1 560:1 561:1 562:1 573:1 574:1 582:1 583:1 591:1 592:1 593:1 594:1 595:1 596:1 609:1 610:1 618:1 619:1 626:1 627:1 628:1 629:1 630:1 631:1 645:1 646:1 654:1 655:1 657:1 658:1 659:1 660:1 661:1 662:1 663:1 664:1 665:1 666:1 681:1 682:1 690:1 691:1 692:1 693:1 694:1 695:1 696:1 697:1 698:1 699:1 701:1 702:1 703:1 717:1 718:1 726:1 727:1 728:1 729:1 730:1 731:1 738:1 739:1 740:1 753:1 754:1 762:1 763:1 775:1 776:1 777:1 789:1 790:1 798:1 799:1 811:1 812:1 813:1 819:1 825:1 826:1 834:1 835:1 848:1 849:1 855:1 856:1 857:1 858:1 861:1 862:1 870:1 871:1 891:1 892:1 893:1 894:1 897:1 898:1 906:1 907:1 927:1 928:1 929:1 930:1 933:1 934:1 942:1 943:1 963:1 964:1 965:1 969:1 970:1 978:1 979:1 999:1 1000:1 1001:1 1005:1 1006:1 1014:1 1015:1 1031:1 1032:1 1033:1 1034:1 1035:1 1036:1 1037:1 1041:1 1042:1 1050:1 1051:1 1057:1 1058:1 1059:1 1060:1 1061:1 1062:1 1063:1 1064:1 1065:1 1066:1 1067:1 1068:1 1069:1 1070:1 1071:1 1072:1 1077:1 1078:1 1086:1 1087:1 1088:1 1089:1 1090:1 1091:1 1092:1 1093:1 1094:1 1095:1 1096:1 1097:1 1098:1 1099:1 1100:1 1101:1 1102:1 1103:1 1104:1 1105:1 1106:1 1113:1 1114:1 1122:1 1123:1 1124:1 1125:1 1126:1 1127:1 1128:1 1129:1 1130:1 1131:1 1132:1 1133:1 1149:1 1150:1 1185:1 1186:1 1220:1 1221:1 1222:1 
0.06141761083691526 104:1 105:1 106:1 140:1 141:1 142:1 171:1 176:1 177:1 178:1 185:1 186:1 187:1 207:1 208:1 212:1 213:1 214:1 221:1 222:1 242:1 243:1 244:1 245:1 248:1 249:1 250:1 257:1 258:1 266:1 277:1 278:1 279:1 280:1 284:1 285:1 286:1 293:1 294:1 300:1 301:1 302:1 303:1 313:1 314:1 315:1 316:1 320:1 321:1 322:1 329:1 330:1 337:1 338:1 339:1 348:1 349:1 350:1 351:1 356:1 357:1 358:1 365:1 366:1 373:1 374:1 375:1 376:1 383:1 384:1 385:1 386:1 392:1 393:1 394:1 401:1 402:1 410:1 411:1 412:1 417:1 418:1 419:1 420:1 421:1 428:1 429:1 430:1 437:1 438:1 447:1 448:1 449:1 452:1 453:1 454:1 455:1 456:1 464:1 465:1 466:1 473:1 474:1 483:1 484:1 485:1 486:1 487:1 488:1 489:1 490:1 491:1 500:1 501:1 502:1 509:1 510:1 519:1 520:1 521:1 522:1 523:1 524:1 525:1 526:1 536:1 537:1 538:1 545:1 546:1 547:1 548:1 549:1 550:1 551:1 552:1 553:1 554:1 555:1 556:1 557:1 558:1 559:1 560:1 572:1 573:1 574:1 581:1 582:1 583:1 584:1 585:1 586:1 587:1 588:1 589:1 590:1 591:1 592:1 593:1 594:1 595:1 596:1 608:1 609:1 610:1 617:1 618:1 619:1 620:1 621:1 622:1 623:1 624:1 625:1 626:1 627:1 630:1 631:1 632:1 633:1 644:1 645:1 646:1 653:1 654:1 655:1 666:1 667:1 668:1 669:1 680:1 681:1 682:1 689:1 690:1 703:1 704:1 705:1 706:1 716:1 717:1 718:1 725:1 726:1 740:1 741:1 742:1 743:1 752:1 753:1 754:1 761:1 762:1 777:1 778:1 779:1 783:1 788:1 789:1 790:1 797:1 798:1 813:1 814:1 819:1 820:1 821:1 822:1 824:1 825:1 826:1 833:1 834:1 855:1 856:1 857:1 858:1 860:1 861:1 862:1 869:1 870:1 891:1 892:1 893:1 896:1 897:1 898:1 905:1 906:1 927:1 928:1 929:1 932:1 933:1 934:1 941:1 942:1 963:1 964:1 965:1 968:1 969:1 970:1 977:1 978:1 998:1 999:1 1000:1 1001:1 1004:1 1005:1 1006:1 1013:1 1014:1 1027:1 1028:1 1029:1 1030:1 1031:1 1032:1 1033:1 1034:1 1035:1 1036:1 1040:1 1041:1 1042:1 1049:1 1050:1 1051:1 1052:1 1053:1 1054:1 1055:1 1056:1 1057:1 1058:1 1059:1 1060:1 1061:1 1062:1 1063:1 1064:1 1065:1 1066:1 1067:1 1068:1 1069:1 1070:1 1071:1 1076:1 1077:1 1078:1 1085:1 1086:1 1087:1 1088:1 1089:1 1090:1 1091:1 1092:1 1093:1 1094:1 1095:1 1096:1 1097:1 1098:1 1099:1 1100:1 1101:1 1102:1 1103:1 1104:1 1105:1 1106:1 1112:1 1113:1 1114:1 1121:1 1122:1 1123:1 1124:1 1125:1 1126:1 1127:1 1128:1 1129:1 1130:1 1131:1 1132:1 1148:1 1149:1 1150:1 1184:1 1185:1 1186:1 1220:1 1221:1 1222:1 1256:1 1257:1 1258:1 
0.1104389268292067 177:1 209:1 213:1 222:1 244:1 249:1 258:1 280:1 285:1 294:1 300:1 315:1 321:1 330:1 336:1 350:1 351:1 357:1 366:1 373:1 385:1 386:1 393:1 402:1 409:1 419:1 420:1 421:1 429:1 438:1 446:1 454:1 455:1 456:1 465:1 474:1 482:1 483:1 488:1 489:1 490:1 491:1 501:1 510:1 519:1 522:1 523:1 524:1 525:1 537:1 546:1 555:1 556:1 557:1 558:1 559:1 560:1 573:1 582:1 583:1 584:1 585:1 586:1 587:1 588:1 589:1 590:1 591:1 592:1 593:1 594:1 609:1 618:1 619:1 620:1 621:1 622:1 623:1 624:1 625:1 626:1 627:1 628:1 629:1 645:1 654:1 655:1 656:1 664:1 665:1 666:1 681:1 690:1 701:1 702:1 703:1 717:1 726:1 738:1 739:1 740:1 747:1 753:1 762:1 774:1 775:1 776:1 777:1 778:1 783:1 789:1 798:1 811:1 812:1 813:1 814:1 819:1 825:1 834:1 855:1 856:1 861:1 870:1 891:1 892:1 893:1 897:1 906:1 927:1 928:1 929:1 930:1 933:1 942:1 963:1 964:1 965:1 969:1 978:1 997:1 998:1 999:1 1000:1 1001:1 1005:1 1014:1 1025:1 1026:1 1027:1 1028:1 1029:1 1030:1 1031:1 1032:1 1033:1 1034:1 1035:1 1036:1 1041:1 1049:1 1050:1 1051:1 1052:1 1053:1 1054:1 1055:1 1056:1 1057:1 1058:1 1059:1 1060:1 1061:1 1062:1 1063:1 1064:1 1065:1 1066:1 1067:1 1068:1 1069:1 1070:1 1076:1 1077:1 1085:1 1086:1 1087:1 1088:1 1089:1 1090:1 1091:1 1092:1 1093:1 1094:1 1095:1 1096:1 1097:1 1098:1 1099:1 1100:1 1111:1 1112:1 1113:1 1121:1 1122:1 1147:1 1148:1 1149:1 1184:1 1185:1 1221:1 
0.04410030951620334 122:1 123:1 124:1 158:1 159:1 160:1 194:1 195:1 223:1 224:1 225:1 231:1 260:1 261:1 267:1 296:1 297:1 303:1 332:1 333:1 339:1 352:1 368:1 369:1 375:1 387:1 388:1 404:1 405:1 411:1 417:1 418:1 419:1 423:1 424:1 425:1 440:1 441:1 447:1 451:1 452:1 453:1 454:1 455:1 460:1 461:1 476:1 477:1 483:1 484:1 485:1 486:1 487:1 488:1 489:1 490:1 491:1 496:1 497:1 498:1 512:1 513:1 517:1 518:1 519:1 520:1 521:1 522:1 523:1 525:1 526:1 532:1 533:1 534:1 548:1 549:1 550:1 551:1 552:1 553:1 554:1 555:1 556:1 561:1 562:1 569:1 570:1 581:1 582:1 583:1 584:1 585:1 586:1 587:1 588:1 589:1 591:1 597:1 598:1 605:1 606:1 607:1 614:1 615:1 616:1 617:1 618:1 619:1 620:1 621:1 622:1 627:1 633:1 634:1 642:1 643:1 650:1 651:1 652:1 653:1 654:1 656:1 657:1 663:1 669:1 670:1 678:1 679:1 680:1 687:1 692:1 693:1 699:1 705:1 706:1 714:1 715:1 716:1 728:1 729:1 735:1 741:1 742:1 749:1 750:1 751:1 752:1 764:1 765:1 771:1 777:1 778:1 784:1 785:1 786:1 787:1 788:1 789:1 800:1 801:1 807:1 813:1 814:1 818:1 819:1 820:1 821:1 824:1 825:1 836:1 837:1 843:1 849:1 850:1 853:1 854:1 855:1 856:1 860:1 861:1 862:1 872:1 873:1 879:1 885:1 886:1 887:1 888:1 889:1 890:1 897:1 898:1 908:1 909:1 915:1 921:1 922:1 923:1 924:1 925:1 933:1 934:1 935:1 944:1 945:1 951:1 957:1 958:1 959:1 960:1 969:1 970:1 971:1 980:1 981:1 987:1 993:1 994:1 1006:1 1016:1 1017:1 1023:1 1029:1 1052:1 1053:1 1059:1 1087:1 1088:1 1089:1 1095:1 1130:1 1131:1 1166:1 1167:1 1202:1 1203:1 1204:1 1238:1 1239:1 1240:1 
0.04137056499289404 123:1 124:1 125:1 159:1 160:1 161:1 195:1 196:1 197:1 224:1 225:1 226:1 231:1 232:1 233:1 260:1 261:1 262:1 267:1 268:1 269:1 296:1 297:1 298:1 303:1 304:1 305:1 332:1 333:1 334:1 339:1 340:1 341:1 369:1 370:1 375:1 376:1 377:1 405:1 406:1 411:1 412:1 413:1 417:1 418:1 419:1 420:1 441:1 442:1 447:1 448:1 449:1 451:1 452:1 453:1 454:1 455:1 460:1 461:1 462:1 477:1 478:1 483:1 484:1 485:1 486:1 487:1 488:1 489:1 490:1 491:1 496:1 497:1 498:1 513:1 514:1 516:1 517:1 518:1 519:1 520:1 521:1 522:1 523:1 524:1 525:1 526:1 527:1 532:1 533:1 534:1 548:1 549:1 550:1 551:1 552:1 553:1 554:1 555:1 556:1 557:1 558:1 562:1 563:1 569:1 570:1 571:1 580:1 581:1 582:1 583:1 584:1 585:1 586:1 587:1 588:1 589:1 590:1 591:1 592:1 593:1 598:1 599:1 605:1 606:1 607:1 615:1 616:1 617:1 618:1 619:1 620:1 621:1 622:1 623:1 627:1 628:1 629:1 634:1 635:1 641:1 642:1 643:1 644:1 651:1 652:1 653:1 654:1 655:1 657:1 658:1 663:1 664:1 665:1 670:1 671:1 678:1 679:1 680:1 687:1 688:1 693:1 694:1 699:1 700:1 701:1 706:1 707:1 714:1 715:1 716:1 729:1 730:1 735:1 736:1 737:1 742:1 743:1 749:1 750:1 751:1 752:1 753:1 765:1 766:1 771:1 772:1 773:1 778:1 779:1 784:1 785:1 786:1 787:1 788:1 789:1 801:1 802:1 807:1 808:1 809:1 814:1 815:1 819:1 820:1 821:1 822:1 823:1 824:1 825:1 826:1 837:1 838:1 843:1 844:1 845:1 850:1 851:1 854:1 855:1 856:1 857:1 860:1 861:1 862:1 873:1 874:1 879:1 880:1 881:1 886:1 887:1 888:1 889:1 890:1 891:1 892:1 896:1 897:1 898:1 909:1 910:1 915:1 916:1 917:1 922:1 923:1 924:1 925:1 926:1 927:1 932:1 933:1 934:1 935:1 944:1 945:1 946:1 951:1 952:1 953:1 958:1 959:1 960:1 961:1 962:1 969:1 980:1 981:1 982:1 987:1 988:1 989:1 994:1 995:1 996:1 997:1 1016:1 1017:1 1018:1 1023:1 1024:1 1025:1 1030:1 1031:1 1032:1 1052:1 1053:1 1054:1 1059:1 1060:1 1061:1 1066:1 1067:1 1088:1 1089:1 1090:1 1095:1 1096:1 1097:1 1131:1 1132:1 1133:1 1167:1 1168:1 1169:1 1203:1 1204:1 1205:1 
0.03756791116042518 88:1 124:1 125:1 160:1 196:1 225:1 232:1 261:1 262:1 268:1 297:1 304:1 333:1 340:1 369:1 376:1 405:1 412:1 418:1 441:1 448:1 453:1 454:1 455:1 460:1 477:1 484:1 486:1 487:1 488:1 489:1 490:1 491:1 496:1 513:1 517:1 518:1 519:1 520:1 521:1 522:1 523:1 524:1 525:1 526:1 532:1 533:1 546:1 547:1 548:1 549:1 550:1 551:1 552:1 553:1 554:1 555:1 556:1 557:1 558:1 562:1 569:1 579:1 580:1 581:1 582:1 583:1 584:1 585:1 586:1 587:1 588:1 589:1 592:1 598:1 605:1 606:1 616:1 617:1 618:1 619:1 621:1 628:1 634:1 641:1 642:1 652:1 657:1 664:1 670:1 678:1 679:1 693:1 700:1 706:1 714:1 715:1 729:1 736:1 742:1 750:1 751:1 752:1 765:1 772:1 778:1 785:1 786:1 787:1 788:1 789:1 801:1 808:1 814:1 820:1 821:1 823:1 824:1 825:1 826:1 837:1 844:1 850:1 855:1 856:1 860:1 861:1 862:1 863:1 873:1 880:1 886:1 889:1 890:1 891:1 897:1 898:1 909:1 916:1 922:1 924:1 925:1 926:1 944:1 945:1 952:1 958:1 959:1 960:1 961:1 980:1 981:1 988:1 993:1 994:1 995:1 996:1 1016:1 1017:1 1024:1 1030:1 1031:1 1053:1 1060:1 1067:1 1095:1 1096:1 1131:1 1132:1 1167:1 1168:1 1204:1 
0.02452302390518097 103:1 104:1 105:1 140:1 141:1 176:1 177:1 212:1 213:1 248:1 249:1 284:1 285:1 320:1 321:1 329:1 330:1 331:1 332:1 333:1 334:1 335:1 336:1 337:1 338:1 339:1 340:1 341:1 342:1 343:1 344:1 345:1 346:1 347:1 348:1 349:1 350:1 351:1 352:1 353:1 354:1 355:1 356:1 357:1 365:1 366:1 367:1 368:1 369:1 370:1 371:1 372:1 373:1 374:1 375:1 376:1 377:1 378:1 379:1 380:1 381:1 382:1 383:1 384:1 385:1 386:1 387:1 388:1 389:1 390:1 391:1 392:1 393:1 401:1 402:1 403:1 404:1 405:1 406:1 407:1 408:1 409:1 410:1 411:1 412:1 413:1 414:1 415:1 416:1 417:1 418:1 419:1 420:1 421:1 422:1 423:1 424:1 425:1 426:1 427:1 428:1 429:1 437:1 438:1 446:1 447:1 455:1 456:1 464:1 465:1 473:1 474:1 482:1 483:1 491:1 492:1 500:1 501:1 509:1 510:1 518:1 519:1 527:1 528:1 536:1 537:1 545:1 546:1 554:1 555:1 563:1 564:1 572:1 573:1 581:1 582:1 590:1 591:1 599:1 600:1 608:1 609:1 617:1 618:1 626:1 627:1 635:1 636:1 644:1 645:1 653:1 654:1 662:1 663:1 671:1 672:1 680:1 681:1 689:1 690:1 698:1 699:1 707:1 708:1 716:1 717:1 725:1 726:1 734:1 735:1 743:1 744:1 752:1 753:1 761:1 762:1 770:1 771:1 779:1 780:1 788:1 789:1 797:1 798:1 806:1 807:1 815:1 816:1 824:1 825:1 833:1 834:1 842:1 843:1 851:1 852:1 860:1 861:1 869:1 870:1 878:1 879:1 887:1 888:1 896:1 897:1 905:1 906:1 914:1 915:1 923:1 924:1 932:1 933:1 941:1 942:1 943:1 944:1 945:1 946:1 947:1 948:1 949:1 950:1 951:1 952:1 953:1 954:1 955:1 956:1 957:1 958:1 959:1 960:1 961:1 962:1 963:1 964:1 965:1 966:1 967:1 968:1 969:1 977:1 978:1 979:1 980:1 981:1 982:1 983:1 984:1 985:1 986:1 987:1 988:1 989:1 990:1 991:1 992:1 993:1 994:1 995:1 996:1 997:1 998:1 999:1 1000:1 1001:1 1002:1 1003:1 1004:1 1005:1 1040:1 1041:1 1076:1 1077:1 1112:1 1113:1 1148:1 1149:1 1184:1 1185:1 1220:1 1221:1 1255:1 1256:1 1257:1 
0.03043396024529562 104:1 105:1 140:1 141:1 176:1 177:1 212:1 213:1 248:1 249:1 284:1 285:1 320:1 321:1 329:1 330:1 331:1 332:1 333:1 334:1 335:1 336:1 337:1 338:1 339:1 340:1 341:1 342:1 343:1 344:1 345:1 346:1 347:1 348:1 349:1 350:1 351:1 352:1 353:1 354:1 355:1 356:1 357:1 365:1 366:1 367:1 368:1 369:1 370:1 371:1 372:1 373:1 374:1 375:1 376:1 377:1 378:1 379:1 380:1 381:1 382:1 383:1 384:1 385:1 386:1 387:1 388:1 389:1 390:1 391:1 392:1 393:1 401:1 402:1 403:1 404:1 405:1 406:1 407:1 408:1 409:1 410:1 411:1 412:1 413:1 414:1 415:1 416:1 417:1 418:1 419:1 420:1 421:1 422:1 423:1 424:1 425:1 426:1 427:1 428:1 429:1 437:1 438:1 439:1 446:1 447:1 454:1 455:1 456:1 464:1 465:1 473:1 474:1 475:1 482:1 483:1 490:1 491:1 492:1 500:1 501:1 509:1 510:1 511:1 518:1 519:1 526:1 527:1 528:1 536:1 537:1 545:1 546:1 547:1 554:1 555:1 562:1 563:1 564:1 572:1 573:1 581:1 582:1 583:1 590:1 591:1 598:1 599:1 600:1 608:1 609:1 617:1 618:1 619:1 626:1 627:1 634:1 635:1 636:1 644:1 645:1 653:1 654:1 655:1 662:1 663:1 670:1 671:1 672:1 680:1 681:1 689:1 690:1 691:1 698:1 699:1 706:1 707:1 708:1 716:1 717:1 725:1 726:1 727:1 734:1 735:1 742:1 743:1 744:1 752:1 753:1 761:1 762:1 763:1 770:1 771:1 778:1 779:1 780:1 788:1 789:1 797:1 798:1 799:1 806:1 807:1 814:1 815:1 816:1 824:1 825:1 833:1 834:1 835:1 842:1 843:1 850:1 851:1 852:1 860:1 861:1 869:1 870:1 871:1 878:1 879:1 886:1 887:1 888:1 896:1 897:1 905:1 906:1 907:1 908:1 909:1 910:1 911:1 912:1 913:1 914:1 915:1 916:1 917:1 918:1 919:1 920:1 921:1 922:1 923:1 924:1 925:1 926:1 927:1 928:1 929:1 930:1 931:1 932:1 933:1 941:1 942:1 943:1 944:1 945:1 946:1 947:1 948:1 949:1 950:1 951:1 952:1 953:1 954:1 955:1 956:1 957:1 958:1 959:1 960:1 961:1 962:1 963:1 964:1 965:1 966:1 967:1 968:1 969:1 977:1 978:1 979:1 980:1 981:1 982:1 983:1 984:1 985:1 986:1 987:1 988:1 989:1 990:1 991:1 992:1 993:1 994:1 995:1 996:1 997:1 998:1 999:1 1000:1 1001:1 1002:1 1003:1 1004:1 1005:1 1040:1 1041:1 1076:1 1077:1 1112:1 1113:1 1148:1 1149:1 1184:1 1185:1 1220:1 1221:1 1256:1 1257:1 
0.02561732813734592 132:1 167:1 168:1 169:1 176:1 177:1 185:1 186:1 187:1 203:1 204:1 205:1 212:1 213:1 221:1 222:1 238:1 239:1 240:1 248:1 249:1 258:1 273:1 274:1 275:1 276:1 284:1 285:1 294:1 309:1 310:1 311:1 320:1 321:1 330:1 344:1 345:1 346:1 356:1 357:1 366:1 379:1 380:1 381:1 392:1 393:1 402:1 414:1 415:1 416:1 428:1 429:1 438:1 450:1 451:1 452:1 464:1 465:1 474:1 485:1 486:1 487:1 500:1 501:1 510:1 519:1 520:1 521:1 522:1 536:1 537:1 546:1 554:1 555:1 556:1 557:1 572:1 573:1 582:1 589:1 590:1 591:1 592:1 608:1 609:1 618:1 624:1 625:1 626:1 627:1 628:1 629:1 630:1 631:1 632:1 633:1 634:1 635:1 636:1 637:1 638:1 639:1 640:1 641:1 644:1 645:1 654:1 658:1 659:1 660:1 661:1 662:1 663:1 664:1 665:1 666:1 667:1 668:1 669:1 670:1 671:1 672:1 673:1 674:1 675:1 676:1 677:1 680:1 681:1 690:1 693:1 694:1 695:1 696:1 716:1 717:1 726:1 727:1 728:1 729:1 730:1 752:1 753:1 762:1 763:1 764:1 765:1 771:1 788:1 789:1 798:1 799:1 806:1 807:1 808:1 824:1 825:1 834:1 842:1 843:1 844:1 845:1 860:1 861:1 870:1 879:1 880:1 881:1 896:1 897:1 906:1 916:1 917:1 918:1 932:1 933:1 942:1 953:1 954:1 955:1 968:1 969:1 978:1 990:1 991:1 992:1 1004:1 1005:1 1014:1 1027:1 1028:1 1029:1 1040:1 1041:1 1050:1 1064:1 1065:1 1066:1 1076:1 1077:1 1085:1 1086:1 1101:1 1102:1 1103:1 1112:1 1113:1 1121:1 1122:1 1123:1 1137:1 1138:1 1139:1 1148:1 1149:1 1174:1 1184:1 1185:1 1220:1 1221:1 
0.04498112148412488 95:1 104:1 105:1 106:1 131:1 132:1 140:1 141:1 142:1 150:1 151:1 166:1 167:1 168:1 169:1 176:1 177:1 178:1 186:1 187:1 201:1 202:1 203:1 204:1 212:1 213:1 214:1 222:1 223:1 237:1 238:1 239:1 240:1 248:1 249:1 250:1 258:1 259:1 272:1 273:1 274:1 275:1 284:1 285:1 286:1 294:1 295:1 307:1 308:1 309:1 310:1 320:1 321:1 322:1 330:1 331:1 342:1 343:1 344:1 345:1 356:1 357:1 358:1 366:1 367:1 377:1 378:1 379:1 380:1 392:1 393:1 394:1 402:1 403:1 412:1 413:1 414:1 415:1 428:1 429:1 430:1 438:1 439:1 447:1 448:1 449:1 450:1 464:1 465:1 466:1 474:1 475:1 482:1 483:1 484:1 485:1 500:1 501:1 502:1 510:1 511:1 517:1 518:1 519:1 520:1 536:1 537:1 538:1 546:1 547:1 551:1 552:1 553:1 554:1 555:1 572:1 573:1 574:1 582:1 583:1 586:1 587:1 588:1 589:1 590:1 591:1 592:1 593:1 594:1 595:1 596:1 597:1 598:1 599:1 600:1 601:1 602:1 603:1 604:1 605:1 606:1 608:1 609:1 610:1 618:1 619:1 620:1 621:1 622:1 623:1 624:1 625:1 626:1 627:1 628:1 629:1 630:1 631:1 632:1 633:1 634:1 635:1 636:1 637:1 638:1 639:1 640:1 641:1 642:1 644:1 645:1 646:1 654:1 655:1 656:1 657:1 658:1 659:1 660:1 661:1 662:1 663:1 664:1 665:1 666:1 667:1 668:1 669:1 670:1 671:1 672:1 673:1 674:1 675:1 676:1 677:1 678:1 680:1 681:1 682:1 690:1 691:1 692:1 693:1 694:1 716:1 717:1 718:1 726:1 727:1 728:1 752:1 753:1 754:1 762:1 763:1 788:1 789:1 790:1 798:1 799:1 807:1 824:1 825:1 826:1 834:1 835:1 842:1 843:1 844:1 860:1 861:1 862:1 870:1 871:1 878:1 879:1 880:1 881:1 896:1 897:1 898:1 906:1 907:1 915:1 916:1 917:1 918:1 932:1 933:1 934:1 942:1 943:1 952:1 953:1 954:1 955:1 968:1 969:1 970:1 978:1 979:1 988:1 989:1 990:1 991:1 992:1 1004:1 1005:1 1006:1 1014:1 1015:1 1025:1 1026:1 1027:1 1028:1 1040:1 1041:1 1042:1 1050:1 1051:1 1062:1 1063:1 1064:1 1065:1 1076:1 1077:1 1078:1 1086:1 1087:1 1099:1 1100:1 1101:1 1102:1 1112:1 1113:1 1114:1 1122:1 1123:1 1136:1 1137:1 1138:1 1139:1 1148:1 1149:1 1150:1 1158:1 1159:1 1173:1 1174:1 1184:1 1185:1 1186:1 1220:1 1221:1 1222:1 1256:1 1257:1 1258:1 
0.01128163703955168 99:1 134:1 141:1 169:1 170:1 177:1 187:1 205:1 213:1 223:1 240:1 249:1 275:1 276:1 310:1 311:1 345:1 346:1 380:1 381:1 415:1 416:1 417:1 449:1 450:1 451:1 452:1 484:1 485:1 486:1 518:1 519:1 520:1 521:1 553:1 554:1 555:1 556:1 587:1 588:1 589:1 590:1 591:1 621:1 622:1 623:1 624:1 625:1 626:1 627:1 628:1 629:1 630:1 631:1 632:1 633:1 634:1 635:1 636:1 637:1 638:1 639:1 640:1 641:1 642:1 643:1 644:1 655:1 656:1 657:1 658:1 659:1 661:1 662:1 663:1 664:1 665:1 666:1 667:1 668:1 669:1 670:1 671:1 672:1 673:1 674:1 675:1 676:1 677:1 678:1 679:1 680:1 691:1 692:1 693:1 698:1 727:1 734:1 808:1 845:1 881:1 918:1 954:1 955:1 991:1 992:1 1014:1 1027:1 1028:1 1029:1 1049:1 1050:1 1064:1 1065:1 1066:1 1076:1 1084:1 1085:1 1086:1 1100:1 1101:1 1102:1 1103:1 1111:1 1112:1 1121:1 1122:1 1137:1 1138:1 1139:1 1140:1 1141:1 1146:1 1147:1 1148:1 1158:1 1174:1 1175:1 1176:1 1177:1 1183:1 1184:1 1220:1 
0.03925723482604496 86:1 87:1 122:1 123:1 158:1 159:1 194:1 195:1 230:1 231:1 257:1 258:1 259:1 266:1 267:1 284:1 285:1 286:1 293:1 294:1 295:1 296:1 297:1 298:1 299:1 300:1 301:1 302:1 303:1 304:1 305:1 306:1 307:1 308:1 309:1 310:1 311:1 312:1 313:1 314:1 315:1 316:1 317:1 318:1 319:1 320:1 321:1 322:1 329:1 330:1 331:1 332:1 333:1 334:1 335:1 336:1 337:1 338:1 339:1 340:1 341:1 342:1 343:1 344:1 345:1 346:1 347:1 348:1 349:1 350:1 351:1 352:1 353:1 354:1 355:1 356:1 357:1 358:1 374:1 375:1 393:1 410:1 411:1 429:1 446:1 447:1 465:1 482:1 483:1 501:1 518:1 519:1 537:1 554:1 555:1 573:1 580:1 581:1 582:1 583:1 584:1 585:1 586:1 587:1 588:1 589:1 590:1 591:1 592:1 593:1 594:1 595:1 596:1 597:1 598:1 599:1 600:1 601:1 602:1 609:1 616:1 617:1 618:1 619:1 620:1 621:1 622:1 623:1 624:1 625:1 626:1 627:1 628:1 629:1 630:1 631:1 632:1 633:1 634:1 635:1 636:1 637:1 638:1 645:1 652:1 662:1 663:1 673:1 674:1 681:1 698:1 699:1 709:1 710:1 717:1 734:1 735:1 745:1 746:1 753:1 770:1 771:1 781:1 782:1 789:1 806:1 807:1 817:1 818:1 825:1 842:1 843:1 853:1 854:1 861:1 878:1 879:1 889:1 890:1 897:1 904:1 905:1 906:1 907:1 908:1 909:1 910:1 911:1 912:1 913:1 914:1 915:1 916:1 917:1 918:1 919:1 920:1 921:1 922:1 923:1 924:1 925:1 926:1 933:1 940:1 941:1 942:1 943:1 944:1 945:1 946:1 947:1 948:1 949:1 950:1 951:1 952:1 953:1 954:1 955:1 956:1 957:1 958:1 959:1 960:1 961:1 962:1 969:1 976:1 977:1 978:1 979:1 980:1 981:1 982:1 983:1 984:1 985:1 986:1 987:1 988:1 989:1 990:1 991:1 992:1 993:1 994:1 995:1 996:1 997:1 998:1 999:1 1005:1 1022:1 1023:1 1041:1 1058:1 1059:1 1077:1 1094:1 1095:1 1113:1 1130:1 1131:1 1149:1 1150:1 1166:1 1167:1 1184:1 1185:1 1186:1 1202:1 1203:1 1238:1 1239:1 
0.04826661960084801 86:1 87:1 122:1 123:1 158:1 159:1 194:1 195:1 221:1 222:1 223:1 224:1 225:1 226:1 227:1 228:1 229:1 230:1 231:1 232:1 233:1 234:1 235:1 236:1 237:1 238:1 239:1 240:1 241:1 242:1 243:1 244:1 245:1 246:1 247:1 248:1 249:1 250:1 257:1 258:1 259:1 260:1 261:1 262:1 263:1 264:1 265:1 266:1 267:1 268:1 269:1 270:1 271:1 272:1 273:1 274:1 275:1 276:1 277:1 278:1 279:1 280:1 281:1 282:1 283:1 284:1 285:1 286:1 293:1 294:1 295:1 296:1 297:1 298:1 299:1 300:1 301:1 302:1 303:1 304:1 305:1 306:1 307:1 308:1 309:1 310:1 311:1 312:1 313:1 314:1 315:1 316:1 317:1 318:1 319:1 320:1 321:1 322:1 329:1 330:1 338:1 339:1 356:1 357:1 358:1 374:1 375:1 392:1 393:1 394:1 410:1 411:1 428:1 429:1 430:1 446:1 447:1 464:1 465:1 466:1 482:1 483:1 500:1 501:1 502:1 518:1 519:1 536:1 537:1 538:1 544:1 545:1 546:1 547:1 548:1 549:1 550:1 551:1 552:1 553:1 554:1 555:1 556:1 557:1 558:1 559:1 560:1 561:1 562:1 563:1 564:1 565:1 566:1 572:1 573:1 574:1 580:1 581:1 582:1 583:1 584:1 585:1 586:1 587:1 588:1 589:1 590:1 591:1 592:1 593:1 594:1 595:1 596:1 597:1 598:1 599:1 600:1 601:1 602:1 608:1 609:1 610:1 616:1 617:1 618:1 619:1 620:1 621:1 622:1 623:1 624:1 625:1 626:1 627:1 628:1 629:1 630:1 631:1 632:1 633:1 634:1 635:1 636:1 637:1 638:1 644:1 645:1 646:1 662:1 663:1 673:1 674:1 680:1 681:1 682:1 698:1 699:1 709:1 710:1 716:1 717:1 718:1 734:1 735:1 745:1 746:1 752:1 753:1 754:1 770:1 771:1 781:1 782:1 788:1 789:1 790:1 806:1 807:1 817:1 818:1 824:1 825:1 826:1 842:1 843:1 853:1 854:1 860:1 861:1 862:1 868:1 869:1 870:1 871:1 872:1 873:1 874:1 875:1 876:1 877:1 878:1 879:1 880:1 881:1 882:1 883:1 884:1 885:1 886:1 887:1 888:1 889:1 890:1 896:1 897:1 898:1 904:1 905:1 906:1 907:1 908:1 909:1 910:1 911:1 912:1 913:1 914:1 915:1 916:1 917:1 918:1 919:1 920:1 921:1 922:1 923:1 924:1 925:1 926:1 932:1 933:1 934:1 940:1 941:1 942:1 943:1 944:1 945:1 946:1 947:1 948:1 949:1 950:1 951:1 952:1 953:1 954:1 955:1 956:1 957:1 958:1 959:1 960:1 961:1 962:1 968:1 969:1 970:1 986:1 987:1 1004:1 1005:1 1006:1 1022:1 1023:1 1040:1 1041:1 1042:1 1058:1 1059:1 1076:1 1077:1 1078:1 1094:1 1095:1 1112:1 1113:1 1114:1 1130:1 1131:1 1148:1 1149:1 1150:1 1166:1 1167:1 1202:1 1203:1 
0.05246549304743607 86:1 122:1 158:1 194:1 230:1 249:1 258:1 259:1 260:1 261:1 262:1 263:1 264:1 265:1 266:1 267:1 268:1 269:1 270:1 271:1 272:1 273:1 274:1 275:1 276:1 277:1 278:1 279:1 280:1 281:1 282:1 283:1 284:1 285:1 286:1 295:1 296:1 297:1 298:1 299:1 300:1 301:1 302:1 303:1 304:1 305:1 306:1 307:1 308:1 309:1 310:1 311:1 312:1 313:1 314:1 315:1 316:1 317:1 318:1 319:1 320:1 321:1 322:1 331:1 338:1 357:1 367:1 374:1 393:1 410:1 429:1 446:1 465:1 482:1 501:1 518:1 537:1 554:1 569:1 573:1 580:1 581:1 582:1 583:1 584:1 585:1 586:1 587:1 588:1 589:1 590:1 591:1 592:1 593:1 594:1 595:1 596:1 597:1 598:1 599:1 600:1 601:1 602:1 603:1 604:1 609:1 616:1 617:1 618:1 619:1 620:1 621:1 622:1 623:1 624:1 625:1 626:1 627:1 628:1 629:1 630:1 631:1 632:1 633:1 634:1 635:1 636:1 637:1 638:1 639:1 640:1 645:1 662:1 681:1 698:1 717:1 734:1 753:1 770:1 789:1 806:1 825:1 842:1 861:1 878:1 897:1 903:1 904:1 905:1 906:1 907:1 908:1 909:1 910:1 911:1 912:1 913:1 914:1 915:1 916:1 917:1 918:1 919:1 920:1 921:1 922:1 923:1 924:1 925:1 926:1 927:1 928:1 933:1 940:1 941:1 942:1 943:1 944:1 945:1 946:1 947:1 948:1 949:1 950:1 951:1 952:1 953:1 954:1 955:1 956:1 957:1 958:1 959:1 960:1 961:1 962:1 963:1 964:1 969:1 976:1 977:1 978:1 979:1 980:1 981:1 982:1 983:1 984:1 985:1 986:1 998:1 999:1 1005:1 1022:1 1041:1 1058:1 1077:1 1093:1 1094:1 1112:1 1113:1 1128:1 1129:1 1130:1 1147:1 1148:1 1149:1 1164:1 1165:1 1166:1 1184:1 1185:1 1201:1 1202:1 1221:1 1238:1 
0.06395974676419612 86:1 87:1 122:1 123:1 158:1 159:1 194:1 195:1 230:1 231:1 257:1 258:1 259:1 266:1 267:1 283:1 284:1 285:1 293:1 294:1 295:1 296:1 297:1 298:1 299:1 300:1 301:1 302:1 303:1 304:1 305:1 306:1 307:1 308:1 309:1 310:1 311:1 312:1 313:1 314:1 315:1 316:1 317:1 318:1 319:1 320:1 321:1 329:1 330:1 331:1 332:1 333:1 334:1 335:1 336:1 337:1 338:1 339:1 340:1 341:1 342:1 343:1 344:1 345:1 346:1 347:1 348:1 349:1 350:1 351:1 352:1 353:1 354:1 355:1 356:1 365:1 374:1 375:1 392:1 410:1 411:1 428:1 446:1 447:1 464:1 482:1 483:1 500:1 518:1 519:1 536:1 554:1 555:1 572:1 590:1 591:1 608:1 615:1 616:1 617:1 618:1 626:1 627:1 644:1 651:1 652:1 653:1 654:1 655:1 656:1 657:1 658:1 659:1 660:1 661:1 662:1 663:1 664:1 665:1 666:1 667:1 668:1 669:1 670:1 671:1 672:1 673:1 674:1 675:1 676:1 677:1 678:1 679:1 680:1 687:1 688:1 689:1 690:1 691:1 692:1 693:1 694:1 695:1 696:1 697:1 698:1 699:1 700:1 701:1 702:1 703:1 704:1 705:1 706:1 707:1 708:1 709:1 710:1 711:1 712:1 713:1 714:1 715:1 716:1 734:1 735:1 752:1 770:1 771:1 788:1 806:1 807:1 824:1 842:1 843:1 860:1 878:1 879:1 896:1 914:1 915:1 932:1 950:1 951:1 968:1 977:1 986:1 987:1 1004:1 1005:1 1006:1 1013:1 1014:1 1015:1 1016:1 1017:1 1018:1 1019:1 1020:1 1021:1 1022:1 1023:1 1024:1 1025:1 1026:1 1027:1 1028:1 1029:1 1030:1 1031:1 1032:1 1033:1 1034:1 1035:1 1036:1 1037:1 1038:1 1039:1 1040:1 1041:1 1042:1 1049:1 1050:1 1051:1 1052:1 1053:1 1054:1 1055:1 1056:1 1057:1 1058:1 1059:1 1060:1 1061:1 1062:1 1063:1 1064:1 1065:1 1066:1 1067:1 1068:1 1069:1 1070:1 1071:1 1072:1 1073:1 1074:1 1075:1 1076:1 1077:1 1078:1 1085:1 1094:1 1095:1 1130:1 1131:1 1166:1 1167:1 1202:1 1203:1 1238:1 1239:1 
0.05559449388143508 87:1 88:1 123:1 124:1 159:1 160:1 195:1 196:1 231:1 232:1 258:1 259:1 260:1 261:1 262:1 263:1 264:1 265:1 266:1 267:1 268:1 269:1 270:1 271:1 272:1 273:1 274:1 275:1 276:1 277:1 278:1 279:1 280:1 281:1 282:1 283:1 284:1 285:1 294:1 295:1 296:1 297:1 298:1 299:1 300:1 301:1 302:1 303:1 304:1 305:1 306:1 307:1 308:1 309:1 310:1 311:1 312:1 313:1 314:1 315:1 316:1 317:1 318:1 319:1 320:1 321:1 330:1 331:1 332:1 333:1 334:1 335:1 336:1 337:1 338:1 339:1 340:1 341:1 342:1 343:1 344:1 345:1 346:1 347:1 348:1 349:1 350:1 351:1 352:1 353:1 354:1 355:1 356:1 357:1 375:1 376:1 391:1 392:1 393:1 411:1 412:1 427:1 428:1 429:1 447:1 448:1 463:1 464:1 465:1 483:1 484:1 499:1 500:1 501:1 519:1 520:1 535:1 536:1 537:1 555:1 556:1 571:1 572:1 573:1 591:1 592:1 607:1 608:1 609:1 616:1 617:1 618:1 619:1 620:1 621:1 622:1 623:1 624:1 625:1 626:1 627:1 628:1 629:1 630:1 631:1 632:1 633:1 634:1 635:1 636:1 637:1 638:1 639:1 640:1 641:1 642:1 643:1 644:1 645:1 652:1 653:1 654:1 655:1 656:1 657:1 658:1 659:1 660:1 661:1 662:1 663:1 664:1 665:1 666:1 667:1 668:1 669:1 670:1 671:1 672:1 673:1 674:1 675:1 676:1 677:1 678:1 679:1 680:1 681:1 688:1 689:1 690:1 691:1 692:1 693:1 694:1 695:1 696:1 697:1 698:1 699:1 700:1 701:1 702:1 703:1 704:1 705:1 706:1 707:1 708:1 709:1 710:1 711:1 712:1 713:1 714:1 715:1 716:1 717:1 735:1 736:1 751:1 752:1 753:1 771:1 772:1 787:1 788:1 789:1 807:1 808:1 823:1 824:1 825:1 843:1 844:1 859:1 860:1 861:1 879:1 880:1 895:1 896:1 897:1 915:1 916:1 931:1 932:1 933:1 951:1 952:1 967:1 968:1 969:1 977:1 978:1 979:1 980:1 981:1 982:1 983:1 984:1 985:1 986:1 987:1 988:1 989:1 990:1 991:1 992:1 993:1 994:1 995:1 996:1 997:1 998:1 999:1 1000:1 1001:1 1002:1 1003:1 1004:1 1005:1 1013:1 1014:1 1015:1 1016:1 1017:1 1018:1 1019:1 1020:1 1021:1 1022:1 1023:1 1024:1 1025:1 1026:1 1027:1 1028:1 1029:1 1030:1 1031:1 1032:1 1033:1 1034:1 1035:1 1036:1 1037:1 1038:1 1039:1 1040:1 1041:1 1049:1 1050:1 1051:1 1052:1 1053:1 1054:1 1055:1 1056:1 1057:1 1058:1 1059:1 1060:1 1061:1 1062:1 1063:1 1064:1 1065:1 1066:1 1067:1 1068:1 1069:1 1070:1 1071:1 1072:1 1073:1 1074:1 1075:1 1076:1 1077:1 1095:1 1096:1 1131:1 1132:1 1167:1 1168:1 1203:1 1204:1 1239:1 1240:1 
0.0603543632211862 124:1 160:1 257:1 258:1 284:1 285:1 293:1 294:1 295:1 296:1 297:1 298:1 299:1 300:1 301:1 302:1 303:1 304:1 305:1 306:1 307:1 308:1 309:1 310:1 311:1 312:1 313:1 314:1 315:1 316:1 317:1 318:1 319:1 320:1 321:1 322:1 330:1 331:1 332:1 333:1 334:1 335:1 336:1 337:1 338:1 339:1 340:1 341:1 342:1 343:1 344:1 345:1 346:1 347:1 348:1 349:1 350:1 351:1 352:1 353:1 354:1 355:1 356:1 357:1 366:1 393:1 429:1 465:1 501:1 537:1 573:1 609:1 616:1 617:1 618:1 619:1 620:1 621:1 622:1 623:1 624:1 625:1 626:1 627:1 628:1 629:1 630:1 631:1 632:1 633:1 634:1 635:1 636:1 637:1 638:1 639:1 640:1 641:1 642:1 643:1 644:1 645:1 652:1 653:1 654:1 655:1 656:1 657:1 658:1 659:1 660:1 661:1 662:1 663:1 664:1 665:1 666:1 667:1 668:1 669:1 670:1 671:1 672:1 673:1 674:1 675:1 676:1 677:1 678:1 679:1 680:1 681:1 688:1 689:1 717:1 753:1 789:1 825:1 861:1 897:1 933:1 969:1 977:1 978:1 979:1 980:1 981:1 982:1 983:1 984:1 985:1 986:1 987:1 988:1 989:1 990:1 991:1 992:1 993:1 994:1 995:1 996:1 997:1 998:1 999:1 1000:1 1001:1 1002:1 1003:1 1004:1 1005:1 1006:1 1014:1 1015:1 1016:1 1017:1 1018:1 1019:1 1020:1 1021:1 1022:1 1023:1 1024:1 1025:1 1026:1 1027:1 1028:1 1029:1 1030:1 1031:1 1032:1 1033:1 1034:1 1035:1 1036:1 1037:1 1038:1 1039:1 1040:1 1041:1 1042:1 1050:1 1051:1 1095:1 1130:1 1131:1 1166:1 1167:1 1203:1 
0.03361695608238368 103:1 104:1 139:1 140:1 175:1 176:1 211:1 212:1 247:1 248:1 283:1 284:1 294:1 319:1 320:1 331:1 332:1 333:1 334:1 335:1 336:1 337:1 338:1 339:1 340:1 341:1 342:1 343:1 344:1 345:1 346:1 347:1 348:1 349:1 350:1 351:1 352:1 353:1 354:1 355:1 356:1 367:1 368:1 369:1 370:1 371:1 372:1 373:1 374:1 375:1 376:1 377:1 378:1 379:1 380:1 381:1 382:1 383:1 384:1 385:1 386:1 387:1 388:1 389:1 390:1 391:1 392:1 403:1 404:1 412:1 413:1 427:1 428:1 439:1 440:1 448:1 449:1 463:1 464:1 475:1 476:1 484:1 485:1 499:1 500:1 511:1 512:1 520:1 521:1 535:1 536:1 547:1 548:1 556:1 557:1 571:1 572:1 583:1 584:1 592:1 593:1 607:1 608:1 619:1 628:1 629:1 643:1 644:1 654:1 655:1 664:1 665:1 679:1 680:1 690:1 691:1 700:1 701:1 715:1 716:1 726:1 727:1 736:1 737:1 751:1 752:1 762:1 763:1 772:1 773:1 787:1 788:1 798:1 799:1 808:1 809:1 810:1 811:1 812:1 813:1 814:1 815:1 816:1 817:1 818:1 819:1 820:1 821:1 822:1 823:1 824:1 834:1 835:1 844:1 845:1 846:1 847:1 848:1 849:1 850:1 851:1 852:1 853:1 854:1 855:1 856:1 857:1 858:1 859:1 860:1 869:1 870:1 871:1 880:1 881:1 895:1 896:1 905:1 906:1 907:1 916:1 917:1 931:1 932:1 941:1 942:1 952:1 953:1 967:1 968:1 977:1 978:1 988:1 989:1 1003:1 1004:1 1012:1 1013:1 1014:1 1024:1 1025:1 1039:1 1040:1 1050:1 1060:1 1061:1 1075:1 1076:1 1096:1 1097:1 1098:1 1111:1 1112:1 1132:1 1133:1 1134:1 1147:1 1148:1 1183:1 1184:1 1219:1 1220:1 1255:1 1256:1 
0.04112025843951603 103:1 104:1 105:1 139:1 140:1 141:1 175:1 176:1 177:1 211:1 212:1 213:1 247:1 248:1 249:1 283:1 284:1 285:1 295:1 296:1 297:1 298:1 299:1 300:1 301:1 302:1 303:1 304:1 305:1 306:1 307:1 308:1 309:1 310:1 311:1 312:1 313:1 314:1 315:1 316:1 317:1 318:1 319:1 320:1 321:1 331:1 332:1 333:1 334:1 335:1 336:1 337:1 338:1 339:1 340:1 341:1 342:1 343:1 344:1 345:1 346:1 347:1 348:1 349:1 350:1 351:1 352:1 353:1 354:1 355:1 356:1 357:1 367:1 368:1 369:1 370:1 371:1 372:1 373:1 374:1 375:1 376:1 377:1 378:1 379:1 380:1 381:1 382:1 383:1 384:1 385:1 386:1 387:1 388:1 389:1 390:1 391:1 392:1 393:1 403:1 404:1 413:1 414:1 427:1 428:1 429:1 439:1 440:1 449:1 450:1 463:1 464:1 465:1 474:1 475:1 476:1 485:1 486:1 499:1 500:1 501:1 510:1 511:1 512:1 521:1 522:1 535:1 536:1 537:1 546:1 547:1 548:1 557:1 558:1 571:1 572:1 573:1 582:1 583:1 584:1 593:1 594:1 607:1 608:1 609:1 618:1 619:1 620:1 629:1 630:1 643:1 644:1 645:1 654:1 655:1 665:1 666:1 679:1 680:1 681:1 690:1 691:1 701:1 702:1 715:1 716:1 717:1 726:1 727:1 737:1 738:1 751:1 752:1 753:1 761:1 762:1 763:1 773:1 774:1 787:1 788:1 789:1 797:1 798:1 799:1 809:1 810:1 811:1 812:1 813:1 814:1 815:1 816:1 817:1 818:1 819:1 820:1 821:1 822:1 823:1 824:1 825:1 833:1 834:1 835:1 845:1 846:1 847:1 848:1 849:1 850:1 851:1 852:1 853:1 854:1 855:1 856:1 857:1 858:1 859:1 860:1 861:1 869:1 870:1 871:1 881:1 882:1 883:1 884:1 885:1 886:1 887:1 888:1 889:1 890:1 891:1 892:1 893:1 894:1 895:1 896:1 897:1 905:1 906:1 917:1 918:1 931:1 932:1 933:1 940:1 941:1 942:1 953:1 954:1 967:1 968:1 969:1 976:1 977:1 978:1 989:1 990:1 1003:1 1004:1 1005:1 1012:1 1013:1 1014:1 1024:1 1025:1 1026:1 1039:1 1040:1 1041:1 1049:1 1050:1 1060:1 1061:1 1062:1 1075:1 1076:1 1077:1 1086:1 1096:1 1097:1 1098:1 1111:1 1112:1 1113:1 1132:1 1133:1 1134:1 1147:1 1148:1 1149:1 1168:1 1169:1 1170:1 1183:1 1184:1 1185:1 1219:1 1220:1 1221:1 1255:1 1256:1 1257:1 
0.1131654431715826 113:1 114:1 149:1 150:1 185:1 186:1 221:1 222:1 228:1 229:1 230:1 231:1 232:1 233:1 234:1 235:1 236:1 237:1 238:1 239:1 240:1 241:1 242:1 243:1 244:1 245:1 246:1 247:1 248:1 249:1 250:1 257:1 258:1 264:1 265:1 266:1 267:1 268:1 269:1 270:1 271:1 272:1 273:1 274:1 275:1 276:1 277:1 278:1 279:1 280:1 281:1 282:1 283:1 284:1 285:1 286:1 293:1 294:1 300:1 301:1 329:1 330:1 336:1 337:1 350:1 351:1 365:1 366:1 372:1 373:1 386:1 387:1 388:1 401:1 402:1 408:1 409:1 421:1 422:1 423:1 437:1 438:1 444:1 445:1 456:1 457:1 458:1 459:1 473:1 474:1 480:1 481:1 491:1 492:1 493:1 494:1 509:1 510:1 516:1 517:1 526:1 527:1 528:1 529:1 545:1 546:1 552:1 553:1 560:1 561:1 562:1 563:1 581:1 582:1 588:1 589:1 594:1 595:1 596:1 597:1 598:1 617:1 618:1 621:1 622:1 623:1 624:1 625:1 626:1 627:1 628:1 629:1 630:1 631:1 632:1 653:1 654:1 655:1 656:1 657:1 658:1 659:1 660:1 661:1 662:1 663:1 664:1 665:1 666:1 667:1 689:1 690:1 691:1 692:1 693:1 694:1 695:1 696:1 697:1 702:1 703:1 725:1 726:1 732:1 733:1 738:1 739:1 740:1 761:1 762:1 768:1 769:1 775:1 776:1 777:1 797:1 798:1 804:1 805:1 812:1 813:1 814:1 833:1 834:1 840:1 841:1 849:1 850:1 851:1 869:1 870:1 876:1 877:1 886:1 887:1 888:1 896:1 905:1 906:1 912:1 913:1 923:1 924:1 925:1 932:1 933:1 934:1 941:1 942:1 948:1 949:1 960:1 961:1 962:1 963:1 968:1 969:1 970:1 977:1 978:1 984:1 985:1 997:1 998:1 1004:1 1005:1 1006:1 1013:1 1014:1 1020:1 1021:1 1040:1 1041:1 1042:1 1049:1 1050:1 1056:1 1057:1 1058:1 1059:1 1060:1 1061:1 1062:1 1063:1 1064:1 1065:1 1066:1 1067:1 1068:1 1069:1 1070:1 1071:1 1072:1 1073:1 1074:1 1075:1 1076:1 1077:1 1085:1 1086:1 1092:1 1093:1 1094:1 1095:1 1096:1 1097:1 1098:1 1099:1 1100:1 1101:1 1102:1 1103:1 1104:1 1105:1 1106:1 1107:1 1108:1 1109:1 1110:1 1111:1 1112:1 1113:1 1121:1 1122:1 1128:1 1157:1 1158:1 1193:1 1194:1 1228:1 1229:1 1230:1 
0.06039944473965218 113:1 114:1 115:1 149:1 150:1 151:1 157:1 158:1 159:1 160:1 161:1 162:1 163:1 164:1 165:1 166:1 167:1 168:1 169:1 170:1 171:1 172:1 173:1 174:1 175:1 176:1 177:1 178:1 185:1 186:1 187:1 193:1 194:1 195:1 196:1 197:1 198:1 199:1 200:1 201:1 202:1 203:1 204:1 205:1 206:1 207:1 208:1 209:1 210:1 211:1 212:1 213:1 214:1 221:1 222:1 223:1 229:1 230:1 231:1 232:1 233:1 234:1 235:1 236:1 237:1 238:1 239:1 240:1 241:1 242:1 243:1 244:1 245:1 246:1 247:1 248:1 249:1 250:1 257:1 258:1 259:1 265:1 266:1 267:1 293:1 294:1 295:1 301:1 302:1 303:1 329:1 330:1 331:1 337:1 338:1 339:1 351:1 365:1 366:1 367:1 373:1 374:1 375:1 386:1 387:1 388:1 389:1 401:1 402:1 403:1 409:1 410:1 411:1 421:1 422:1 423:1 424:1 437:1 438:1 439:1 445:1 446:1 447:1 456:1 457:1 458:1 459:1 473:1 474:1 475:1 481:1 482:1 483:1 491:1 492:1 493:1 494:1 509:1 510:1 511:1 517:1 518:1 519:1 526:1 527:1 528:1 529:1 545:1 546:1 547:1 553:1 554:1 555:1 560:1 561:1 562:1 563:1 564:1 581:1 582:1 583:1 589:1 590:1 591:1 593:1 594:1 595:1 596:1 597:1 598:1 599:1 617:1 618:1 619:1 620:1 621:1 622:1 623:1 624:1 625:1 626:1 627:1 628:1 629:1 630:1 631:1 632:1 633:1 634:1 653:1 654:1 655:1 656:1 657:1 658:1 659:1 660:1 661:1 662:1 663:1 664:1 665:1 666:1 667:1 668:1 669:1 689:1 690:1 691:1 692:1 693:1 694:1 695:1 696:1 697:1 698:1 699:1 700:1 701:1 703:1 704:1 705:1 706:1 725:1 726:1 727:1 733:1 734:1 735:1 740:1 741:1 742:1 743:1 761:1 762:1 763:1 769:1 770:1 771:1 777:1 778:1 779:1 780:1 797:1 798:1 799:1 805:1 806:1 807:1 814:1 815:1 816:1 817:1 833:1 834:1 835:1 841:1 842:1 843:1 850:1 851:1 852:1 853:1 854:1 869:1 870:1 871:1 877:1 878:1 879:1 887:1 888:1 889:1 890:1 891:1 897:1 905:1 906:1 907:1 913:1 914:1 915:1 924:1 925:1 926:1 927:1 928:1 933:1 934:1 935:1 941:1 942:1 943:1 949:1 950:1 951:1 961:1 962:1 963:1 968:1 969:1 970:1 971:1 977:1 978:1 979:1 985:1 986:1 987:1 998:1 1004:1 1005:1 1006:1 1013:1 1014:1 1015:1 1021:1 1022:1 1023:1 1040:1 1041:1 1042:1 1049:1 1050:1 1051:1 1057:1 1058:1 1059:1 1075:1 1076:1 1077:1 1078:1 1085:1 1086:1 1087:1 1093:1 1094:1 1095:1 1096:1 1097:1 1098:1 1099:1 1100:1 1101:1 1102:1 1103:1 1104:1 1105:1 1106:1 1107:1 1108:1 1109:1 1110:1 1111:1 1112:1 1113:1 1114:1 1121:1 1122:1 1123:1 1129:1 1130:1 1131:1 1132:1 1133:1 1134:1 1135:1 1136:1 1137:1 1138:1 1139:1 1140:1 1141:1 1142:1 1143:1 1144:1 1145:1 1146:1 1147:1 1148:1 1149:1 1157:1 1158:1 1159:1 1165:1 1166:1 1167:1 1168:1 1169:1 1170:1 1171:1 1172:1 1173:1 1174:1 1175:1 1176:1 1177:1 1178:1 1179:1 1180:1 1181:1 1182:1 1183:1 1193:1 1194:1 1195:1 1229:1 1230:1 1231:1 
0.1776349203168433 114:1 150:1 186:1 222:1 228:1 229:1 230:1 231:1 232:1 233:1 234:1 235:1 236:1 237:1 238:1 239:1 240:1 241:1 242:1 243:1 244:1 245:1 246:1 247:1 248:1 249:1 250:1 251:1 258:1 264:1 265:1 266:1 267:1 268:1 269:1 270:1 271:1 272:1 273:1 274:1 275:1 276:1 277:1 278:1 279:1 280:1 281:1 282:1 283:1 284:1 285:1 286:1 294:1 301:1 330:1 337:1 366:1 373:1 388:1 402:1 409:1 423:1 438:1 445:1 458:1 474:1 481:1 492:1 493:1 510:1 517:1 527:1 528:1 546:1 553:1 561:1 562:1 563:1 582:1 589:1 594:1 595:1 596:1 597:1 598:1 618:1 619:1 620:1 621:1 622:1 623:1 624:1 625:1 626:1 627:1 628:1 629:1 630:1 631:1 632:1 654:1 655:1 656:1 657:1 658:1 659:1 660:1 661:1 662:1 663:1 664:1 665:1 666:1 667:1 690:1 697:1 704:1 726:1 733:1 740:1 741:1 762:1 769:1 777:1 778:1 798:1 805:1 814:1 815:1 834:1 841:1 850:1 851:1 852:1 853:1 860:1 870:1 877:1 887:1 888:1 889:1 890:1 891:1 896:1 906:1 913:1 924:1 925:1 926:1 927:1 932:1 942:1 949:1 968:1 969:1 978:1 985:1 1004:1 1005:1 1006:1 1014:1 1021:1 1040:1 1041:1 1042:1 1043:1 1049:1 1050:1 1056:1 1057:1 1058:1 1059:1 1060:1 1061:1 1062:1 1063:1 1064:1 1065:1 1066:1 1067:1 1068:1 1069:1 1070:1 1071:1 1072:1 1073:1 1074:1 1075:1 1076:1 1077:1 1078:1 1084:1 1085:1 1086:1 1091:1 1092:1 1093:1 1094:1 1095:1 1096:1 1097:1 1098:1 1099:1 1100:1 1101:1 1102:1 1103:1 1104:1 1105:1 1106:1 1107:1 1108:1 1109:1 1110:1 1111:1 1112:1 1113:1 1120:1 1121:1 1122:1 1128:1 1129:1 1157:1 1158:1 1194:1 
0.04400337374308785 140:1 141:1 176:1 177:1 212:1 213:1 227:1 228:1 229:1 248:1 249:1 263:1 264:1 265:1 266:1 267:1 268:1 284:1 285:1 301:1 302:1 303:1 304:1 305:1 306:1 320:1 321:1 339:1 340:1 341:1 342:1 343:1 344:1 345:1 356:1 357:1 378:1 379:1 380:1 381:1 382:1 383:1 384:1 385:1 392:1 393:1 416:1 417:1 418:1 419:1 420:1 428:1 429:1 455:1 456:1 464:1 465:1 500:1 501:1 508:1 509:1 510:1 511:1 512:1 513:1 514:1 515:1 516:1 517:1 518:1 519:1 520:1 521:1 522:1 523:1 524:1 525:1 526:1 527:1 528:1 529:1 530:1 531:1 532:1 533:1 534:1 535:1 536:1 537:1 544:1 545:1 546:1 547:1 548:1 549:1 550:1 551:1 552:1 553:1 554:1 555:1 556:1 557:1 558:1 559:1 560:1 561:1 562:1 563:1 564:1 565:1 566:1 567:1 568:1 569:1 570:1 571:1 572:1 573:1 580:1 581:1 582:1 583:1 584:1 585:1 586:1 587:1 588:1 589:1 590:1 591:1 592:1 593:1 594:1 595:1 596:1 597:1 598:1 599:1 600:1 601:1 602:1 603:1 604:1 605:1 606:1 607:1 608:1 609:1 644:1 645:1 680:1 681:1 716:1 717:1 752:1 753:1 760:1 761:1 762:1 763:1 764:1 765:1 766:1 767:1 768:1 769:1 770:1 771:1 772:1 773:1 774:1 775:1 776:1 777:1 778:1 779:1 780:1 781:1 782:1 783:1 784:1 785:1 786:1 787:1 788:1 789:1 796:1 797:1 798:1 799:1 800:1 801:1 802:1 803:1 804:1 805:1 806:1 807:1 808:1 809:1 810:1 811:1 812:1 813:1 814:1 815:1 816:1 817:1 818:1 819:1 820:1 821:1 822:1 823:1 824:1 825:1 832:1 860:1 861:1 887:1 888:1 889:1 896:1 897:1 921:1 922:1 923:1 924:1 925:1 932:1 933:1 955:1 956:1 957:1 958:1 959:1 960:1 968:1 969:1 989:1 990:1 991:1 992:1 993:1 994:1 1004:1 1005:1 1022:1 1023:1 1024:1 1025:1 1026:1 1027:1 1028:1 1040:1 1041:1 1055:1 1056:1 1057:1 1058:1 1059:1 1060:1 1061:1 1076:1 1077:1 1091:1 1092:1 1093:1 1094:1 1095:1 1112:1 1113:1 1128:1 1129:1 1148:1 1149:1 1184:1 1185:1 1220:1 1221:1 
0.04141454996419201 103:1 104:1 105:1 120:1 121:1 139:1 140:1 141:1 156:1 157:1 158:1 159:1 175:1 176:1 177:1 191:1 192:1 193:1 194:1 195:1 196:1 197:1 198:1 211:1 212:1 213:1 228:1 229:1 230:1 231:1 232:1 233:1 234:1 235:1 236:1 237:1 248:1 249:1 266:1 267:1 268:1 269:1 270:1 271:1 272:1 273:1 274:1 275:1 276:1 284:1 285:1 305:1 306:1 307:1 308:1 309:1 310:1 311:1 312:1 320:1 321:1 344:1 345:1 346:1 347:1 356:1 357:1 383:1 392:1 393:1 428:1 429:1 464:1 465:1 472:1 473:1 474:1 475:1 476:1 477:1 478:1 479:1 480:1 481:1 482:1 483:1 484:1 485:1 486:1 487:1 488:1 489:1 490:1 491:1 492:1 493:1 494:1 495:1 496:1 497:1 498:1 499:1 500:1 501:1 508:1 509:1 510:1 511:1 512:1 513:1 514:1 515:1 516:1 517:1 518:1 519:1 520:1 521:1 522:1 523:1 524:1 525:1 526:1 527:1 528:1 529:1 530:1 531:1 532:1 533:1 534:1 535:1 536:1 537:1 544:1 545:1 546:1 547:1 548:1 549:1 550:1 551:1 552:1 553:1 554:1 555:1 556:1 557:1 558:1 559:1 560:1 561:1 562:1 563:1 564:1 565:1 566:1 567:1 568:1 569:1 570:1 571:1 572:1 573:1 608:1 609:1 644:1 645:1 680:1 681:1 716:1 717:1 724:1 725:1 752:1 753:1 760:1 761:1 762:1 763:1 764:1 765:1 766:1 767:1 768:1 769:1 770:1 771:1 772:1 773:1 774:1 775:1 776:1 777:1 778:1 779:1 780:1 781:1 782:1 783:1 784:1 785:1 786:1 787:1 788:1 789:1 796:1 797:1 798:1 799:1 800:1 801:1 802:1 803:1 804:1 805:1 806:1 807:1 808:1 809:1 810:1 811:1 812:1 813:1 814:1 815:1 816:1 817:1 818:1 819:1 820:1 821:1 822:1 823:1 824:1 825:1 832:1 833:1 834:1 835:1 836:1 837:1 838:1 839:1 840:1 841:1 842:1 843:1 844:1 845:1 846:1 847:1 848:1 849:1 850:1 851:1 852:1 853:1 854:1 855:1 856:1 857:1 858:1 859:1 860:1 861:1 896:1 897:1 932:1 933:1 958:1 959:1 960:1 968:1 969:1 991:1 992:1 993:1 994:1 995:1 996:1 1004:1 1005:1 1024:1 1025:1 1026:1 1027:1 1028:1 1029:1 1030:1 1031:1 1032:1 1040:1 1041:1 1056:1 1057:1 1058:1 1059:1 1060:1 1061:1 1062:1 1063:1 1064:1 1065:1 1076:1 1077:1 1091:1 1092:1 1093:1 1094:1 1095:1 1096:1 1097:1 1098:1 1099:1 1112:1 1113:1 1127:1 1128:1 1129:1 1130:1 1131:1 1132:1 1148:1 1149:1 1164:1 1165:1 1183:1 1184:1 1185:1 1219:1 1220:1 1221:1 1255:1 1256:1 1257:1 
0.03617237966276077 104:1 140:1 141:1 156:1 157:1 176:1 193:1 194:1 195:1 212:1 231:1 232:1 233:1 248:1 268:1 269:1 270:1 271:1 272:1 284:1 306:1 307:1 308:1 309:1 310:1 311:1 312:1 320:1 343:1 344:1 345:1 346:1 347:1 348:1 349:1 350:1 356:1 381:1 382:1 383:1 384:1 385:1 392:1 428:1 464:1 472:1 473:1 474:1 475:1 476:1 477:1 478:1 479:1 480:1 481:1 482:1 483:1 484:1 485:1 486:1 487:1 488:1 489:1 490:1 491:1 492:1 493:1 494:1 495:1 496:1 497:1 498:1 499:1 500:1 508:1 509:1 510:1 511:1 512:1 513:1 514:1 515:1 516:1 517:1 518:1 519:1 520:1 521:1 522:1 523:1 524:1 525:1 526:1 527:1 528:1 529:1 530:1 531:1 532:1 533:1 534:1 535:1 536:1 545:1 546:1 547:1 548:1 549:1 550:1 551:1 552:1 553:1 554:1 555:1 556:1 557:1 558:1 559:1 560:1 561:1 562:1 563:1 564:1 565:1 566:1 567:1 568:1 569:1 570:1 571:1 572:1 581:1 608:1 644:1 680:1 716:1 752:1 760:1 761:1 762:1 763:1 764:1 765:1 766:1 767:1 768:1 769:1 770:1 771:1 772:1 773:1 774:1 775:1 776:1 777:1 778:1 779:1 780:1 781:1 782:1 783:1 784:1 785:1 786:1 787:1 788:1 796:1 797:1 798:1 799:1 800:1 801:1 802:1 803:1 804:1 805:1 806:1 807:1 808:1 809:1 810:1 811:1 812:1 813:1 814:1 815:1 816:1 817:1 818:1 819:1 820:1 821:1 822:1 823:1 824:1 833:1 854:1 855:1 860:1 869:1 888:1 889:1 896:1 923:1 924:1 932:1 957:1 958:1 959:1 968:1 991:1 992:1 993:1 1004:1 1025:1 1026:1 1027:1 1028:1 1040:1 1058:1 1059:1 1060:1 1061:1 1062:1 1076:1 1091:1 1092:1 1093:1 1094:1 1095:1 1096:1 1097:1 1112:1 1128:1 1129:1 1130:1 1131:1 1147:1 1148:1 1164:1 1165:1 1183:1 1184:1 1201:1 1220:1 
0.02842699544766097 104:1 105:1 135:1 136:1 140:1 141:1 170:1 171:1 172:1 176:1 177:1 205:1 206:1 207:1 208:1 212:1 213:1 239:1 240:1 241:1 242:1 243:1 248:1 249:1 273:1 274:1 275:1 276:1 277:1 284:1 285:1 307:1 308:1 309:1 310:1 311:1 312:1 320:1 321:1 340:1 341:1 342:1 343:1 344:1 345:1 346:1 356:1 357:1 364:1 365:1 366:1 367:1 368:1 369:1 370:1 371:1 372:1 373:1 374:1 375:1 376:1 377:1 378:1 379:1 392:1 393:1 400:1 401:1 402:1 403:1 404:1 405:1 406:1 407:1 408:1 409:1 410:1 411:1 412:1 413:1 414:1 428:1 429:1 436:1 437:1 438:1 439:1 440:1 448:1 449:1 450:1 451:1 464:1 465:1 472:1 486:1 487:1 488:1 489:1 496:1 500:1 501:1 523:1 524:1 525:1 526:1 532:1 533:1 536:1 537:1 560:1 561:1 562:1 563:1 567:1 568:1 569:1 570:1 572:1 573:1 597:1 598:1 599:1 603:1 604:1 605:1 608:1 609:1 638:1 639:1 640:1 644:1 645:1 673:1 674:1 675:1 680:1 681:1 708:1 709:1 710:1 716:1 717:1 742:1 743:1 744:1 745:1 752:1 753:1 776:1 777:1 778:1 779:1 780:1 788:1 789:1 808:1 809:1 810:1 811:1 812:1 813:1 814:1 824:1 825:1 831:1 832:1 833:1 834:1 835:1 836:1 837:1 838:1 839:1 840:1 841:1 842:1 843:1 844:1 845:1 846:1 847:1 848:1 860:1 861:1 868:1 869:1 870:1 871:1 872:1 873:1 874:1 875:1 876:1 877:1 878:1 879:1 880:1 881:1 896:1 897:1 904:1 905:1 906:1 913:1 914:1 915:1 916:1 917:1 918:1 919:1 920:1 932:1 933:1 953:1 954:1 955:1 956:1 957:1 958:1 968:1 969:1 991:1 992:1 993:1 994:1 995:1 996:1 1004:1 1005:1 1029:1 1030:1 1031:1 1032:1 1033:1 1040:1 1041:1 1067:1 1068:1 1069:1 1070:1 1076:1 1077:1 1104:1 1105:1 1106:1 1107:1 1108:1 1112:1 1113:1 1141:1 1142:1 1143:1 1144:1 1145:1 1148:1 1149:1 1178:1 1179:1 1180:1 1184:1 1185:1 1215:1 1216:1 1220:1 1221:1 
0.0307541938498345 99:1 135:1 140:1 141:1 169:1 170:1 171:1 172:1 176:1 177:1 204:1 205:1 206:1 207:1 208:1 212:1 213:1 239:1 240:1 241:1 242:1 243:1 248:1 249:1 273:1 274:1 275:1 276:1 277:1 278:1 284:1 285:1 306:1 307:1 308:1 309:1 310:1 311:1 312:1 320:1 321:1 338:1 339:1 340:1 341:1 342:1 343:1 344:1 345:1 346:1 347:1 356:1 357:1 364:1 365:1 366:1 367:1 368:1 369:1 370:1 371:1 372:1 373:1 374:1 375:1 376:1 377:1 378:1 379:1 380:1 381:1 392:1 393:1 400:1 401:1 402:1 403:1 404:1 405:1 406:1 407:1 408:1 409:1 410:1 411:1 412:1 413:1 414:1 428:1 429:1 436:1 437:1 438:1 439:1 440:1 441:1 442:1 443:1 444:1 448:1 449:1 450:1 451:1 464:1 465:1 485:1 486:1 487:1 488:1 500:1 501:1 522:1 523:1 524:1 525:1 536:1 537:1 559:1 560:1 561:1 562:1 567:1 568:1 572:1 573:1 596:1 597:1 598:1 599:1 603:1 604:1 608:1 609:1 633:1 634:1 638:1 639:1 640:1 641:1 644:1 645:1 672:1 673:1 674:1 675:1 676:1 680:1 681:1 707:1 708:1 709:1 710:1 711:1 716:1 717:1 741:1 742:1 743:1 744:1 745:1 746:1 752:1 753:1 775:1 776:1 777:1 778:1 779:1 780:1 788:1 789:1 808:1 809:1 810:1 811:1 812:1 813:1 814:1 815:1 824:1 825:1 832:1 833:1 834:1 835:1 836:1 837:1 838:1 839:1 840:1 841:1 842:1 843:1 844:1 845:1 846:1 847:1 848:1 860:1 861:1 868:1 869:1 870:1 871:1 872:1 873:1 874:1 875:1 876:1 877:1 878:1 879:1 880:1 881:1 882:1 896:1 897:1 904:1 905:1 906:1 907:1 908:1 909:1 910:1 911:1 912:1 913:1 914:1 915:1 916:1 917:1 918:1 919:1 932:1 933:1 951:1 952:1 953:1 954:1 955:1 956:1 957:1 968:1 969:1 990:1 991:1 992:1 993:1 994:1 995:1 1004:1 1005:1 1028:1 1029:1 1030:1 1031:1 1032:1 1040:1 1041:1 1066:1 1067:1 1068:1 1069:1 1070:1 1076:1 1077:1 1103:1 1104:1 1105:1 1106:1 1107:1 1112:1 1113:1 1140:1 1141:1 1142:1 1143:1 1144:1 1148:1 1149:1 1177:1 1178:1 1179:1 1180:1 1184:1 1185:1 1214:1 1215:1 1220:1 1221:1 
