svm_type c_svc
kernel_type rbf
gamma 0.015625
nr_class 2
total_sv 24
rho -1.68204
label -1 1
nr_sv 19 5
SV
1.731482323996875 75:1 77:1 89:1 90:1 101:1 102:1 103:1 104:1 105:1 121:1 122:1 123:1 124:1 139:1 152:1 153:1 154:1 165:1 168:1 169:1 186:1 187:1 203:1 205:1 
2.253870245616192 76:1 77:1 89:1 90:1 91:1 93:1 101:1 102:1 103:1 104:1 105:1 109:1 121:1 122:1 124:1 125:1 139:1 140:1 141:1 152:1 153:1 154:1 157:1 165:1 166:1 167:1 168:1 169:1 170:1 173:1 186:1 187:1 189:1 204:1 205:1 
2.871729820723549 76:1 77:1 91:1 101:1 102:1 103:1 104:1 105:1 106:1 117:1 121:1 138:1 139:1 149:1 150:1 151:1 152:1 153:1 154:1 165:1 168:1 169:1 170:1 186:1 187:1 204:1 
0.5758212460632581 72:1 73:1 74:1 75:1 76:1 77:1 78:1 91:1 92:1 105:1 106:1 107:1 118:1 119:1 120:1 122:1 139:1 140:1 150:1 151:1 152:1 153:1 154:1 155:1 170:1 171:1 174:1 187:1 188:1 190:1 200:1 201:1 202:1 203:1 204:1 205:1 
0.09428176969087157 109:1 110:1 125:1 139:1 140:1 149:1 150:1 151:1 152:1 153:1 154:1 155:1 
0.04265346762063179 150:1 151:1 152:1 153:1 170:1 171:1 188:1 205:1 
0.8124891613989881 74:1 90:1 101:1 102:1 103:1 104:1 105:1 106:1 122:1 133:1 138:1 149:1 152:1 153:1 154:1 155:1 165:1 170:1 172:1 181:1 186:1 188:1 189:1 202:1 205:1 
0.3250374369096552 73:1 77:1 89:1 101:1 102:1 103:1 104:1 105:1 121:1 122:1 123:1 124:1 125:1 134:1 135:1 149:1 150:1 151:1 152:1 153:1 154:1 155:1 156:1 173:1 189:1 204:1 205:1 
0.5554451303264538 70:1 77:1 86:1 92:1 102:1 104:1 105:1 106:1 107:1 118:1 122:1 125:1 133:1 134:1 138:1 139:1 140:1 141:1 150:1 154:1 166:1 167:1 168:1 169:1 170:1 171:1 182:1 188:1 198:1 
0.003968601330974544 85:1 86:1 87:1 88:1 89:1 90:1 91:1 92:1 93:1 107:1 108:1 118:1 122:1 125:1 135:1 136:1 140:1 152:1 155:1 156:1 169:1 170:1 171:1 181:1 182:1 183:1 184:1 185:1 187:1 188:1 205:1 
0.4221635029630239 72:1 73:1 85:1 86:1 87:1 88:1 89:1 90:1 91:1 92:1 93:1 94:1 101:1 105:1 110:1 118:1 121:1 125:1 137:1 139:1 140:1 150:1 151:1 152:1 153:1 154:1 155:1 165:1 169:1 170:1 171:1 172:1 181:1 185:1 188:1 189:1 197:1 201:1 205:1 
1.981073601061062 73:1 87:1 88:1 93:1 101:1 102:1 103:1 109:1 117:1 120:1 125:1 139:1 140:1 149:1 150:1 151:1 152:1 153:1 154:1 169:1 170:1 171:1 182:1 187:1 188:1 205:1 
0.07621203183207946 72:1 77:1 88:1 92:1 104:1 105:1 106:1 107:1 119:1 123:1 125:1 133:1 140:1 141:1 150:1 151:1 155:1 156:1 167:1 169:1 170:1 171:1 184:1 188:1 200:1 205:1 
0.1978878201298579 77:1 88:1 91:1 92:1 103:1 104:1 105:1 106:1 107:1 118:1 119:1 123:1 125:1 133:1 134:1 140:1 141:1 151:1 153:1 154:1 155:1 156:1 168:1 170:1 171:1 172:1 184:1 188:1 205:1 
0.4735995200712984 73:1 77:1 88:1 91:1 92:1 104:1 105:1 106:1 118:1 119:1 123:1 125:1 133:1 140:1 151:1 153:1 154:1 155:1 156:1 168:1 170:1 171:1 184:1 188:1 205:1 
0.1442468326119954 72:1 73:1 86:1 87:1 88:1 89:1 90:1 91:1 92:1 93:1 101:1 102:1 119:1 121:1 122:1 125:1 136:1 138:1 139:1 140:1 141:1 149:1 151:1 153:1 154:1 155:1 157:1 169:1 170:1 173:1 184:1 187:1 188:1 189:1 199:1 205:1 
1.067938971300828 73:1 86:1 87:1 88:1 89:1 90:1 91:1 92:1 93:1 101:1 102:1 121:1 122:1 125:1 136:1 137:1 140:1 149:1 151:1 153:1 155:1 169:1 184:1 187:1 198:1 205:1 
1.042663242375135 72:1 87:1 88:1 89:1 90:1 91:1 92:1 93:1 101:1 102:1 105:1 119:1 120:1 121:1 125:1 134:1 135:1 137:1 139:1 140:1 149:1 150:1 151:1 152:1 153:1 154:1 167:1 169:1 171:1 183:1 185:1 188:1 201:1 205:1 
0.3274352739772719 72:1 86:1 87:1 88:1 89:1 90:1 91:1 92:1 93:1 101:1 102:1 107:1 119:1 122:1 123:1 125:1 136:1 138:1 140:1 141:1 150:1 151:1 155:1 156:1 165:1 168:1 169:1 170:1 187:1 188:1 198:1 199:1 205:1 
-3 76:1 77:1 89:1 90:1 91:1 101:1 102:1 103:1 104:1 105:1 122:1 125:1 139:1 140:1 153:1 154:1 155:1 165:1 166:1 167:1 168:1 169:1 170:1 187:1 188:1 204:1 205:1 
-3 76:1 77:1 85:1 86:1 87:1 88:1 89:1 90:1 91:1 92:1 101:1 102:1 103:1 105:1 122:1 123:1 125:1 139:1 140:1 149:1 150:1 151:1 152:1 153:1 154:1 155:1 169:1 170:1 171:1 187:1 188:1 205:1 
-3 76:1 77:1 90:1 91:1 92:1 101:1 102:1 103:1 104:1 105:1 106:1 121:1 122:1 125:1 139:1 140:1 149:1 150:1 151:1 152:1 153:1 154:1 169:1 170:1 171:1 187:1 188:1 205:1 
-3 77:1 90:1 91:1 101:1 102:1 103:1 104:1 105:1 121:1 122:1 125:1 139:1 140:1 149:1 150:1 151:1 152:1 153:1 154:1 165:1 169:1 170:1 187:1 188:1 205:1 
-3 77:1 90:1 91:1 101:1 102:1 103:1 104:1 105:1 121:1 122:1 125:1 139:1 140:1 149:1 150:1 151:1 152:1 153:1 154:1 165:1 169:1 170:1 187:1 188:1 205:1 
