svm_type c_svc
kernel_type rbf
gamma 0.015625
nr_class 2
total_sv 36
rho -1.3843
label -1 1
nr_sv 31 5
SV
0.08905015353939817 69:1 134:1 135:1 136:1 137:1 138:1 139:1 140:1 141:1 181:1 197:1 198:1 
0.3809699195546354 69:1 85:1 87:1 88:1 89:1 90:1 91:1 92:1 93:1 101:1 103:1 107:1 117:1 119:1 121:1 122:1 133:1 134:1 135:1 136:1 137:1 149:1 151:1 153:1 154:1 165:1 167:1 170:1 171:1 173:1 181:1 183:1 184:1 185:1 186:1 187:1 188:1 189:1 197:1 
1.001939178064806 86:1 87:1 89:1 92:1 102:1 103:1 104:1 105:1 107:1 108:1 117:1 118:1 119:1 121:1 125:1 133:1 134:1 135:1 136:1 137:1 138:1 139:1 140:1 141:1 150:1 151:1 152:1 153:1 166:1 167:1 169:1 171:1 182:1 183:1 185:1 187:1 188:1 204:1 
0.3252878758263549 70:1 86:1 89:1 92:1 102:1 104:1 105:1 107:1 118:1 119:1 121:1 122:1 125:1 133:1 134:1 136:1 137:1 138:1 139:1 140:1 141:1 150:1 153:1 166:1 169:1 182:1 185:1 187:1 198:1 204:1 
0.2983714267792657 69:1 85:1 87:1 88:1 89:1 90:1 91:1 92:1 93:1 101:1 103:1 106:1 107:1 117:1 118:1 119:1 120:1 121:1 133:1 135:1 137:1 138:1 139:1 149:1 151:1 152:1 153:1 154:1 165:1 167:1 170:1 173:1 181:1 183:1 189:1 197:1 
0.1649631336736873 72:1 73:1 74:1 75:1 76:1 77:1 78:1 91:1 92:1 105:1 106:1 107:1 118:1 119:1 120:1 122:1 139:1 140:1 150:1 151:1 152:1 153:1 154:1 155:1 170:1 171:1 174:1 187:1 188:1 190:1 200:1 201:1 202:1 203:1 204:1 205:1 
0.105821429624215 69:1 72:1 74:1 88:1 90:1 104:1 106:1 118:1 119:1 120:1 121:1 122:1 123:1 124:1 125:1 136:1 138:1 152:1 154:1 165:1 166:1 167:1 168:1 169:1 170:1 171:1 187:1 188:1 189:1 204:1 205:1 
0.194808217019998 86:1 87:1 88:1 89:1 91:1 92:1 102:1 104:1 105:1 107:1 118:1 120:1 121:1 123:1 133:1 134:1 135:1 136:1 137:1 138:1 139:1 140:1 141:1 150:1 152:1 153:1 155:1 166:1 168:1 169:1 171:1 182:1 183:1 184:1 185:1 187:1 188:1 
0.04214003531381379 74:1 75:1 85:1 89:1 91:1 102:1 103:1 104:1 107:1 123:1 134:1 136:1 137:1 138:1 139:1 140:1 141:1 155:1 166:1 168:1 169:1 171:1 181:1 185:1 187:1 199:1 202:1 203:1 
0.520003060246184 75:1 76:1 77:1 94:1 104:1 109:1 120:1 121:1 124:1 125:1 137:1 138:1 139:1 140:1 150:1 151:1 152:1 153:1 154:1 165:1 171:1 187:1 188:1 204:1 
0.4717001598070313 73:1 74:1 86:1 89:1 102:1 105:1 121:1 134:1 135:1 136:1 137:1 138:1 139:1 140:1 141:1 149:1 153:1 157:1 165:1 169:1 173:1 181:1 185:1 189:1 201:1 204:1 
0.1473798525340291 74:1 89:1 93:1 104:1 108:1 118:1 119:1 123:1 133:1 137:1 138:1 152:1 153:1 156:1 167:1 170:1 171:1 172:1 187:1 188:1 205:1 
0.2950384511538634 73:1 74:1 77:1 88:1 89:1 93:1 103:1 104:1 107:1 108:1 109:1 118:1 119:1 122:1 123:1 125:1 133:1 137:1 138:1 141:1 152:1 153:1 157:1 167:1 170:1 171:1 173:1 187:1 188:1 189:1 205:1 206:1 
1.057042370077962 73:1 74:1 88:1 89:1 92:1 103:1 104:1 107:1 108:1 118:1 119:1 122:1 124:1 133:1 136:1 137:1 140:1 151:1 152:1 156:1 170:1 172:1 187:1 188:1 204:1 205:1 
0.3595275403071501 70:1 74:1 86:1 87:1 88:1 90:1 102:1 104:1 106:1 109:1 118:1 122:1 126:1 134:1 135:1 136:1 137:1 138:1 139:1 140:1 141:1 150:1 154:1 166:1 168:1 170:1 181:1 183:1 184:1 186:1 197:1 202:1 
0.536480389776015 73:1 89:1 103:1 104:1 105:1 121:1 125:1 134:1 135:1 136:1 137:1 138:1 139:1 140:1 141:1 149:1 153:1 165:1 167:1 168:1 169:1 181:1 183:1 185:1 201:1 
0.8573803442818158 85:1 86:1 87:1 88:1 91:1 92:1 106:1 107:1 117:1 125:1 133:1 135:1 136:1 137:1 138:1 139:1 140:1 141:1 149:1 165:1 170:1 171:1 181:1 187:1 188:1 
0.5202457325059703 73:1 76:1 77:1 86:1 87:1 88:1 89:1 91:1 92:1 102:1 105:1 107:1 109:1 118:1 121:1 126:1 134:1 135:1 136:1 137:1 138:1 139:1 140:1 141:1 150:1 153:1 169:1 171:1 181:1 185:1 187:1 188:1 201:1 204:1 205:1 
1.482894564227076 76:1 86:1 87:1 88:1 89:1 91:1 92:1 102:1 105:1 106:1 107:1 121:1 125:1 135:1 136:1 137:1 138:1 139:1 140:1 141:1 149:1 153:1 165:1 169:1 170:1 171:1 181:1 185:1 187:1 188:1 201:1 204:1 
1.067684878800113 74:1 76:1 90:1 91:1 92:1 105:1 106:1 107:1 108:1 134:1 135:1 136:1 137:1 138:1 139:1 140:1 141:1 142:1 149:1 165:1 169:1 170:1 171:1 172:1 181:1 186:1 188:1 197:1 201:1 203:1 204:1 
0.01143822411629562 71:1 74:1 77:1 87:1 90:1 92:1 103:1 104:1 105:1 106:1 107:1 108:1 119:1 122:1 133:1 134:1 135:1 136:1 137:1 138:1 139:1 140:1 141:1 149:1 151:1 154:1 165:1 167:1 170:1 171:1 172:1 181:1 183:1 184:1 186:1 188:1 199:1 200:1 201:1 202:1 
0.03254087189794395 71:1 74:1 75:1 76:1 77:1 86:1 87:1 88:1 89:1 90:1 91:1 101:1 103:1 104:1 105:1 106:1 107:1 119:1 120:1 121:1 122:1 123:1 135:1 136:1 137:1 138:1 139:1 141:1 150:1 151:1 152:1 153:1 154:1 155:1 166:1 167:1 168:1 169:1 170:1 171:1 183:1 184:1 185:1 186:1 187:1 188:1 204:1 205:1 
0.02304448579189644 74:1 86:1 87:1 88:1 89:1 90:1 91:1 104:1 105:1 106:1 107:1 120:1 121:1 122:1 123:1 125:1 133:1 134:1 135:1 136:1 137:1 138:1 139:1 140:1 141:1 152:1 153:1 154:1 155:1 168:1 169:1 170:1 171:1 182:1 183:1 184:1 185:1 186:1 187:1 188:1 202:1 
0.2195008411088833 70:1 89:1 92:1 104:1 105:1 120:1 121:1 125:1 133:1 134:1 135:1 136:1 137:1 138:1 139:1 140:1 141:1 152:1 153:1 168:1 169:1 183:1 184:1 185:1 188:1 202:1 
0.5329646653060046 74:1 77:1 90:1 91:1 107:1 117:1 119:1 121:1 123:1 135:1 137:1 139:1 149:1 150:1 151:1 152:1 153:1 155:1 167:1 171:1 183:1 187:1 198:1 200:1 201:1 
0.1305320871770783 70:1 73:1 86:1 88:1 89:1 92:1 102:1 103:1 104:1 107:1 108:1 118:1 121:1 122:1 123:1 133:1 134:1 135:1 136:1 137:1 138:1 139:1 140:1 141:1 150:1 153:1 154:1 155:1 166:1 167:1 168:1 171:1 172:1 182:1 183:1 184:1 188:1 198:1 201:1 205:1 
1.905269674194336 74:1 77:1 89:1 92:1 103:1 104:1 107:1 108:1 121:1 122:1 133:1 134:1 135:1 136:1 137:1 138:1 139:1 140:1 141:1 154:1 167:1 168:1 171:1 172:1 182:1 185:1 188:1 
0.4007138288605114 73:1 86:1 87:1 88:1 89:1 90:1 91:1 92:1 93:1 101:1 102:1 109:1 120:1 121:1 122:1 124:1 135:1 136:1 137:1 139:1 141:1 150:1 152:1 157:1 167:1 168:1 181:1 183:1 184:1 187:1 202:1 204:1 
0.5254871442640834 72:1 73:1 85:1 86:1 87:1 88:1 89:1 90:1 91:1 92:1 93:1 101:1 104:1 119:1 120:1 122:1 124:1 125:1 134:1 135:1 136:1 138:1 139:1 141:1 149:1 150:1 152:1 153:1 154:1 155:1 156:1 157:1 166:1 167:1 168:1 170:1 171:1 183:1 184:1 186:1 187:1 188:1 200:1 204:1 
0.06636955102425289 72:1 85:1 86:1 87:1 88:1 89:1 90:1 91:1 92:1 93:1 101:1 107:1 120:1 121:1 122:1 133:1 134:1 135:1 136:1 137:1 138:1 139:1 140:1 141:1 149:1 152:1 153:1 154:1 156:1 169:1 170:1 171:1 172:1 181:1 182:1 183:1 184:1 186:1 188:1 203:1 204:1 205:1 
0.5116506623378674 72:1 73:1 85:1 86:1 87:1 88:1 89:1 90:1 91:1 92:1 93:1 101:1 107:1 118:1 120:1 121:1 122:1 133:1 134:1 135:1 136:1 137:1 138:1 139:1 140:1 141:1 149:1 152:1 153:1 154:1 156:1 168:1 169:1 170:1 171:1 172:1 181:1 182:1 183:1 184:1 186:1 188:1 202:1 203:1 204:1 
-2.971141885560345 69:1 74:1 76:1 85:1 89:1 91:1 92:1 104:1 106:1 107:1 117:1 119:1 121:1 133:1 134:1 135:1 136:1 137:1 138:1 139:1 140:1 141:1 149:1 152:1 153:1 165:1 167:1 170:1 171:1 181:1 182:1 183:1 187:1 188:1 204:1 
-3 70:1 73:1 74:1 76:1 77:1 86:1 88:1 89:1 91:1 92:1 102:1 104:1 107:1 118:1 119:1 122:1 134:1 135:1 136:1 137:1 138:1 139:1 140:1 141:1 142:1 150:1 152:1 153:1 169:1 170:1 181:1 184:1 187:1 188:1 197:1 200:1 204:1 
-3 73:1 74:1 76:1 86:1 88:1 89:1 91:1 92:1 102:1 103:1 104:1 106:1 107:1 118:1 121:1 122:1 133:1 134:1 135:1 136:1 137:1 138:1 139:1 140:1 141:1 149:1 152:1 153:1 154:1 165:1 167:1 168:1 170:1 171:1 181:1 183:1 187:1 188:1 204:1 
-2.378645243105243 74:1 89:1 92:1 104:1 107:1 121:1 122:1 134:1 135:1 136:1 137:1 138:1 139:1 140:1 141:1 152:1 153:1 165:1 167:1 171:1 181:1 183:1 187:1 188:1 204:1 
-2.92845362052695 74:1 89:1 92:1 104:1 107:1 121:1 122:1 134:1 135:1 136:1 137:1 138:1 139:1 140:1 141:1 152:1 153:1 165:1 167:1 171:1 181:1 183:1 187:1 188:1 204:1 
