svm_type c_svc
kernel_type rbf
gamma 0.015625
nr_class 2
total_sv 33
rho -1.47021
label -1 1
nr_sv 28 5
SV
0.9324246959371346 69:1 87:1 88:1 89:1 103:1 134:1 135:1 136:1 137:1 157:1 173:1 183:1 184:1 185:1 186:1 187:1 188:1 189:1 197:1 
0.3225985746306842 70:1 73:1 74:1 77:1 86:1 87:1 88:1 89:1 90:1 91:1 92:1 101:1 102:1 103:1 106:1 107:1 109:1 117:1 118:1 122:1 126:1 134:1 135:1 136:1 137:1 138:1 139:1 140:1 141:1 150:1 154:1 166:1 170:1 171:1 182:1 186:1 187:1 188:1 198:1 202:1 205:1 
0.7514319944647074 72:1 75:1 88:1 91:1 104:1 107:1 120:1 123:1 136:1 139:1 152:1 155:1 182:1 183:1 184:1 185:1 186:1 187:1 188:1 189:1 204:1 205:1 206:1 
0.3508894229995033 70:1 71:1 75:1 86:1 87:1 88:1 91:1 102:1 103:1 107:1 118:1 119:1 123:1 133:1 134:1 135:1 136:1 137:1 138:1 139:1 140:1 141:1 150:1 151:1 155:1 166:1 167:1 168:1 171:1 182:1 183:1 184:1 187:1 203:1 
0.4910475650602167 86:1 87:1 88:1 89:1 90:1 91:1 92:1 102:1 104:1 105:1 107:1 118:1 120:1 121:1 123:1 133:1 134:1 135:1 136:1 137:1 138:1 139:1 140:1 141:1 150:1 152:1 153:1 155:1 166:1 168:1 169:1 171:1 182:1 183:1 184:1 185:1 186:1 187:1 188:1 
0.6632442366819001 71:1 74:1 76:1 86:1 87:1 90:1 92:1 103:1 104:1 105:1 106:1 108:1 117:1 118:1 119:1 121:1 122:1 124:1 135:1 138:1 139:1 140:1 141:1 142:1 149:1 150:1 151:1 153:1 154:1 156:1 167:1 168:1 169:1 170:1 172:1 182:1 183:1 186:1 188:1 199:1 202:1 204:1 
0.5248095608097877 76:1 86:1 87:1 88:1 89:1 90:1 92:1 102:1 106:1 108:1 117:1 118:1 122:1 124:1 133:1 134:1 136:1 138:1 140:1 141:1 150:1 152:1 154:1 156:1 157:1 166:1 168:1 170:1 172:1 174:1 182:1 183:1 184:1 186:1 189:1 202:1 203:1 204:1 205:1 
0.3234813900901871 73:1 76:1 77:1 86:1 87:1 88:1 89:1 91:1 92:1 102:1 105:1 107:1 109:1 118:1 121:1 126:1 134:1 135:1 136:1 137:1 138:1 139:1 140:1 141:1 150:1 153:1 169:1 171:1 181:1 185:1 187:1 188:1 201:1 204:1 205:1 
0.7095881810195349 86:1 87:1 88:1 89:1 90:1 91:1 92:1 102:1 104:1 108:1 109:1 120:1 125:1 133:1 134:1 135:1 136:1 137:1 138:1 139:1 141:1 157:1 167:1 171:1 173:1 183:1 184:1 185:1 186:1 187:1 189:1 203:1 204:1 
0.4068526453320792 85:1 91:1 92:1 101:1 103:1 107:1 120:1 123:1 136:1 138:1 154:1 157:1 173:1 182:1 183:1 184:1 185:1 186:1 187:1 188:1 189:1 
0.69336790677361 74:1 75:1 76:1 77:1 87:1 88:1 89:1 93:1 102:1 103:1 109:1 125:1 136:1 139:1 141:1 150:1 151:1 152:1 153:1 154:1 155:1 157:1 168:1 171:1 173:1 182:1 183:1 184:1 185:1 186:1 187:1 188:1 189:1 203:1 204:1 205:1 
0.04075300195597087 70:1 71:1 72:1 73:1 74:1 75:1 76:1 77:1 85:1 86:1 87:1 88:1 89:1 90:1 91:1 92:1 101:1 102:1 103:1 104:1 105:1 106:1 107:1 108:1 119:1 120:1 121:1 122:1 123:1 136:1 137:1 138:1 139:1 150:1 151:1 152:1 153:1 155:1 166:1 167:1 168:1 169:1 170:1 171:1 172:1 184:1 187:1 188:1 198:1 200:1 201:1 203:1 204:1 205:1 
0.3441635138375085 70:1 71:1 72:1 73:1 77:1 86:1 87:1 88:1 90:1 92:1 93:1 103:1 104:1 106:1 108:1 117:1 119:1 120:1 122:1 123:1 124:1 134:1 135:1 136:1 137:1 138:1 139:1 150:1 151:1 154:1 155:1 166:1 167:1 170:1 173:1 183:1 184:1 185:1 189:1 197:1 199:1 204:1 205:1 
0.1903233084035536 70:1 71:1 74:1 75:1 86:1 90:1 91:1 101:1 102:1 103:1 106:1 107:1 108:1 109:1 118:1 119:1 122:1 123:1 135:1 136:1 139:1 149:1 150:1 151:1 152:1 155:1 156:1 157:1 166:1 168:1 169:1 170:1 173:1 182:1 184:1 189:1 198:1 204:1 205:1 
1.050601135750076 71:1 85:1 86:1 87:1 90:1 101:1 102:1 103:1 104:1 105:1 106:1 108:1 117:1 119:1 122:1 123:1 124:1 133:1 135:1 136:1 137:1 138:1 139:1 140:1 141:1 165:1 173:1 189:1 203:1 204:1 205:1 
0.1391537258413632 71:1 74:1 77:1 86:1 88:1 91:1 92:1 101:1 102:1 103:1 104:1 106:1 107:1 117:1 118:1 119:1 136:1 139:1 165:1 173:1 189:1 203:1 204:1 205:1 
0.6818732353136462 72:1 73:1 87:1 102:1 117:1 125:1 135:1 136:1 137:1 138:1 139:1 140:1 141:1 150:1 183:1 184:1 185:1 186:1 
0.04737534715420174 74:1 77:1 86:1 87:1 88:1 89:1 90:1 91:1 93:1 105:1 107:1 109:1 117:1 119:1 121:1 123:1 125:1 135:1 137:1 139:1 141:1 149:1 150:1 151:1 152:1 153:1 155:1 157:1 167:1 170:1 171:1 173:1 182:1 183:1 186:1 187:1 189:1 198:1 201:1 205:1 
0.0714020494694572 69:1 70:1 71:1 72:1 73:1 74:1 75:1 76:1 77:1 92:1 107:1 108:1 117:1 118:1 123:1 125:1 126:1 135:1 141:1 156:1 157:1 170:1 171:1 172:1 181:1 182:1 183:1 184:1 185:1 186:1 187:1 188:1 205:1 
1.463268126734046 73:1 86:1 87:1 88:1 89:1 90:1 91:1 92:1 93:1 101:1 118:1 137:1 138:1 139:1 140:1 150:1 151:1 184:1 185:1 186:1 187:1 188:1 204:1 
0.1254965991961951 72:1 73:1 86:1 87:1 88:1 89:1 90:1 91:1 92:1 93:1 101:1 102:1 133:1 134:1 135:1 136:1 137:1 138:1 139:1 140:1 141:1 156:1 157:1 167:1 169:1 170:1 171:1 182:1 183:1 187:1 188:1 204:1 205:1 
0.4697549245391553 72:1 73:1 86:1 87:1 88:1 89:1 90:1 91:1 92:1 93:1 101:1 102:1 120:1 134:1 135:1 136:1 137:1 138:1 139:1 140:1 141:1 149:1 150:1 154:1 157:1 166:1 167:1 169:1 170:1 173:1 183:1 184:1 185:1 189:1 200:1 204:1 205:1 
0.3032969716196342 72:1 86:1 87:1 88:1 89:1 90:1 91:1 92:1 93:1 101:1 104:1 119:1 120:1 134:1 135:1 136:1 137:1 138:1 139:1 140:1 141:1 149:1 157:1 166:1 167:1 171:1 173:1 183:1 184:1 185:1 186:1 187:1 189:1 200:1 204:1 
0.4637854289612785 71:1 72:1 85:1 86:1 87:1 88:1 89:1 90:1 91:1 92:1 93:1 103:1 105:1 106:1 109:1 117:1 118:1 119:1 122:1 123:1 124:1 135:1 136:1 137:1 138:1 139:1 141:1 150:1 157:1 166:1 168:1 169:1 170:1 171:1 172:1 182:1 185:1 186:1 187:1 188:1 198:1 199:1 205:1 
2.04736239576933 72:1 86:1 87:1 88:1 89:1 90:1 91:1 92:1 93:1 101:1 125:1 133:1 134:1 135:1 136:1 137:1 138:1 139:1 140:1 141:1 149:1 157:1 165:1 173:1 181:1 182:1 183:1 184:1 185:1 186:1 187:1 188:1 189:1 205:1 
0.07555117776352284 73:1 86:1 87:1 88:1 89:1 90:1 91:1 92:1 93:1 101:1 103:1 107:1 119:1 122:1 135:1 136:1 137:1 138:1 139:1 140:1 141:1 149:1 150:1 151:1 167:1 183:1 185:1 186:1 187:1 188:1 189:1 199:1 
0.5350735591549269 72:1 73:1 86:1 87:1 88:1 89:1 90:1 91:1 92:1 93:1 101:1 102:1 120:1 121:1 124:1 135:1 136:1 137:1 138:1 139:1 140:1 141:1 150:1 154:1 155:1 157:1 167:1 168:1 169:1 173:1 181:1 182:1 183:1 184:1 188:1 189:1 201:1 202:1 204:1 
0.7810293247367885 73:1 86:1 87:1 88:1 89:1 90:1 91:1 92:1 93:1 101:1 102:1 109:1 119:1 120:1 121:1 122:1 123:1 124:1 125:1 135:1 136:1 137:1 138:1 139:1 140:1 141:1 149:1 150:1 157:1 168:1 169:1 170:1 171:1 172:1 173:1 183:1 184:1 185:1 186:1 187:1 188:1 189:1 205:1 
-3 71:1 86:1 87:1 88:1 89:1 92:1 101:1 117:1 135:1 136:1 137:1 138:1 139:1 140:1 141:1 150:1 157:1 173:1 182:1 183:1 184:1 185:1 186:1 187:1 188:1 189:1 204:1 205:1 
-3 71:1 74:1 75:1 76:1 77:1 86:1 87:1 88:1 89:1 90:1 91:1 101:1 103:1 104:1 105:1 106:1 107:1 119:1 120:1 121:1 122:1 123:1 135:1 136:1 137:1 138:1 139:1 141:1 150:1 151:1 152:1 153:1 154:1 155:1 166:1 167:1 168:1 169:1 170:1 171:1 183:1 184:1 185:1 186:1 187:1 188:1 204:1 205:1 
-3 70:1 71:1 86:1 87:1 88:1 90:1 91:1 92:1 101:1 108:1 124:1 134:1 135:1 136:1 137:1 138:1 139:1 140:1 141:1 150:1 156:1 157:1 172:1 173:1 183:1 184:1 186:1 187:1 188:1 189:1 204:1 205:1 
-3 71:1 86:1 87:1 88:1 90:1 91:1 92:1 102:1 117:1 135:1 136:1 137:1 138:1 139:1 140:1 141:1 150:1 157:1 173:1 182:1 183:1 184:1 185:1 186:1 187:1 188:1 189:1 204:1 205:1 
-3 71:1 86:1 87:1 88:1 90:1 91:1 92:1 102:1 117:1 135:1 136:1 137:1 138:1 139:1 140:1 141:1 150:1 157:1 173:1 182:1 183:1 184:1 185:1 186:1 187:1 188:1 189:1 204:1 205:1 
