svm_type c_svc
kernel_type rbf
gamma 0.015625
nr_class 2
total_sv 33
rho -1.50585
label -1 1
nr_sv 28 5
SV
0.04113855771128015 73:1 89:1 104:1 117:1 118:1 119:1 120:1 121:1 122:1 123:1 124:1 125:1 136:1 141:1 152:1 168:1 184:1 189:1 200:1 203:1 204:1 205:1 
0.0322145045733736 76:1 86:1 89:1 92:1 102:1 105:1 108:1 118:1 121:1 124:1 134:1 137:1 140:1 150:1 153:1 156:1 166:1 169:1 172:1 182:1 185:1 188:1 204:1 
1.114978251431466 75:1 101:1 102:1 103:1 104:1 105:1 173:1 185:1 186:1 187:1 188:1 189:1 
1.192378996388891 75:1 77:1 89:1 90:1 101:1 102:1 103:1 104:1 105:1 121:1 122:1 123:1 124:1 139:1 152:1 153:1 154:1 165:1 168:1 169:1 186:1 187:1 203:1 205:1 
0.06523784948860391 71:1 77:1 78:1 87:1 92:1 93:1 101:1 102:1 103:1 104:1 105:1 106:1 107:1 108:1 119:1 120:1 135:1 136:1 137:1 151:1 153:1 165:1 166:1 167:1 168:1 169:1 170:1 171:1 172:1 173:1 174:1 183:1 199:1 
0.156813180379427 77:1 88:1 89:1 92:1 93:1 103:1 104:1 108:1 117:1 118:1 119:1 123:1 135:1 137:1 138:1 151:1 152:1 153:1 154:1 167:1 171:1 172:1 188:1 205:1 
0.7931789247425253 73:1 86:1 89:1 102:1 105:1 121:1 141:1 149:1 157:1 165:1 173:1 181:1 189:1 200:1 204:1 205:1 
0.02788235314528863 88:1 103:1 105:1 119:1 122:1 135:1 151:1 167:1 169:1 182:1 183:1 184:1 
0.381255115504363 101:1 102:1 103:1 104:1 105:1 106:1 107:1 108:1 125:1 141:1 157:1 173:1 187:1 188:1 189:1 204:1 
0.09903208643723042 71:1 77:1 78:1 87:1 92:1 93:1 103:1 107:1 108:1 117:1 118:1 119:1 120:1 121:1 122:1 135:1 151:1 167:1 168:1 169:1 170:1 171:1 172:1 173:1 203:1 204:1 205:1 
0.1358855196070412 71:1 72:1 73:1 74:1 75:1 76:1 77:1 93:1 101:1 102:1 103:1 104:1 105:1 106:1 107:1 108:1 109:1 119:1 120:1 121:1 122:1 123:1 124:1 125:1 149:1 150:1 151:1 152:1 153:1 154:1 155:1 156:1 157:1 203:1 204:1 205:1 
2.147917218438208 76:1 92:1 101:1 102:1 103:1 104:1 105:1 106:1 107:1 108:1 119:1 120:1 121:1 122:1 123:1 124:1 149:1 150:1 151:1 152:1 153:1 154:1 155:1 156:1 157:1 173:1 189:1 204:1 205:1 
0.06594559293557399 72:1 73:1 76:1 77:1 86:1 87:1 89:1 91:1 92:1 93:1 101:1 102:1 105:1 106:1 109:1 120:1 121:1 123:1 124:1 125:1 141:1 173:1 203:1 204:1 205:1 
0.5829571940316444 77:1 89:1 92:1 93:1 105:1 107:1 108:1 121:1 123:1 135:1 137:1 138:1 151:1 153:1 154:1 157:1 167:1 169:1 170:1 173:1 184:1 185:1 189:1 203:1 204:1 205:1 
0.8286649092576862 72:1 90:1 91:1 92:1 93:1 102:1 103:1 104:1 105:1 117:1 138:1 141:1 165:1 173:1 189:1 203:1 204:1 205:1 
0.7497136446203939 70:1 73:1 75:1 86:1 87:1 101:1 102:1 104:1 105:1 106:1 107:1 108:1 109:1 118:1 119:1 120:1 134:1 135:1 137:1 149:1 173:1 189:1 204:1 205:1 
1.14030276487842 70:1 72:1 73:1 74:1 75:1 76:1 86:1 89:1 92:1 101:1 102:1 103:1 105:1 107:1 108:1 109:1 110:1 118:1 121:1 124:1 134:1 136:1 137:1 138:1 139:1 140:1 173:1 203:1 204:1 205:1 
1.438534289380778 69:1 73:1 74:1 75:1 76:1 77:1 85:1 86:1 87:1 90:1 91:1 93:1 101:1 102:1 103:1 104:1 105:1 106:1 108:1 117:1 119:1 121:1 122:1 123:1 124:1 125:1 133:1 134:1 135:1 137:1 138:1 139:1 140:1 141:1 165:1 173:1 189:1 204:1 205:1 
0.3693931993728806 71:1 85:1 86:1 87:1 90:1 101:1 102:1 103:1 104:1 105:1 106:1 108:1 117:1 119:1 122:1 123:1 124:1 133:1 135:1 136:1 137:1 138:1 139:1 140:1 141:1 165:1 173:1 189:1 203:1 204:1 205:1 
0.3498601408274394 71:1 72:1 74:1 75:1 77:1 85:1 86:1 87:1 88:1 89:1 90:1 91:1 92:1 101:1 102:1 103:1 104:1 106:1 118:1 119:1 120:1 122:1 124:1 133:1 135:1 136:1 137:1 138:1 140:1 141:1 173:1 189:1 204:1 205:1 
1.200132077341006 72:1 77:1 92:1 93:1 101:1 102:1 109:1 123:1 124:1 135:1 138:1 139:1 165:1 173:1 189:1 204:1 205:1 
0.1356012504926993 70:1 72:1 77:1 87:1 88:1 89:1 90:1 91:1 92:1 93:1 101:1 102:1 103:1 104:1 105:1 106:1 107:1 109:1 119:1 120:1 121:1 122:1 123:1 124:1 125:1 134:1 136:1 173:1 189:1 204:1 205:1 
0.07959884523699011 71:1 77:1 104:1 105:1 106:1 107:1 108:1 133:1 134:1 152:1 173:1 189:1 198:1 203:1 204:1 205:1 
0.3631528401019427 73:1 74:1 89:1 93:1 103:1 104:1 105:1 109:1 119:1 120:1 121:1 123:1 124:1 133:1 135:1 136:1 137:1 151:1 152:1 153:1 155:1 156:1 157:1 167:1 168:1 169:1 173:1 183:1 184:1 185:1 189:1 198:1 201:1 202:1 204:1 205:1 
0.7501192346327867 73:1 74:1 88:1 89:1 103:1 104:1 118:1 119:1 133:1 
0.2337936483913707 73:1 87:1 88:1 101:1 102:1 103:1 104:1 105:1 106:1 107:1 108:1 109:1 119:1 125:1 135:1 139:1 140:1 149:1 150:1 151:1 152:1 153:1 154:1 155:1 167:1 173:1 183:1 189:1 199:1 200:1 201:1 202:1 203:1 204:1 
0.5209703499321042 73:1 87:1 88:1 89:1 90:1 91:1 92:1 93:1 101:1 102:1 123:1 124:1 134:1 135:1 136:1 182:1 189:1 203:1 204:1 205:1 
0.003347460718586368 73:1 86:1 87:1 88:1 89:1 90:1 91:1 92:1 93:1 101:1 102:1 119:1 121:1 135:1 137:1 138:1 139:1 149:1 150:1 151:1 152:1 167:1 169:1 170:1 171:1 172:1 173:1 183:1 189:1 203:1 204:1 205:1 
-3 73:1 77:1 89:1 101:1 102:1 103:1 104:1 105:1 121:1 122:1 123:1 124:1 125:1 134:1 135:1 149:1 150:1 151:1 152:1 153:1 154:1 155:1 156:1 173:1 189:1 204:1 205:1 
-3 74:1 75:1 76:1 77:1 78:1 90:1 93:1 101:1 102:1 103:1 104:1 105:1 106:1 109:1 119:1 122:1 125:1 135:1 173:1 203:1 204:1 205:1 
-3 73:1 74:1 75:1 76:1 77:1 89:1 92:1 101:1 102:1 103:1 104:1 105:1 108:1 119:1 121:1 124:1 135:1 137:1 138:1 140:1 141:1 173:1 189:1 204:1 205:1 
-3 89:1 92:1 101:1 102:1 103:1 104:1 105:1 108:1 119:1 121:1 124:1 135:1 137:1 165:1 173:1 189:1 203:1 204:1 205:1 
-3 89:1 92:1 101:1 102:1 103:1 104:1 105:1 108:1 119:1 121:1 124:1 135:1 137:1 165:1 173:1 189:1 203:1 204:1 205:1 
