svm_type c_svc
kernel_type rbf
gamma 0.015625
nr_class 2
total_sv 30
rho -1.38328
label -1 1
nr_sv 25 5
SV
0.3207127709814053 101:1 102:1 103:1 104:1 105:1 106:1 107:1 108:1 125:1 141:1 157:1 173:1 187:1 188:1 189:1 204:1 
0.07433526439167054 72:1 88:1 101:1 102:1 103:1 104:1 105:1 106:1 107:1 108:1 135:1 141:1 151:1 154:1 157:1 167:1 168:1 169:1 170:1 203:1 204:1 
0.008578880919529151 72:1 73:1 76:1 86:1 87:1 88:1 89:1 91:1 92:1 101:1 102:1 105:1 106:1 108:1 119:1 120:1 123:1 124:1 135:1 140:1 149:1 150:1 151:1 152:1 153:1 154:1 155:1 156:1 173:1 189:1 204:1 205:1 
0.8589951500863139 70:1 73:1 75:1 86:1 87:1 101:1 102:1 104:1 105:1 106:1 107:1 108:1 109:1 118:1 119:1 120:1 134:1 135:1 137:1 149:1 173:1 189:1 204:1 205:1 
0.1226750064210386 69:1 74:1 77:1 85:1 87:1 88:1 89:1 90:1 91:1 92:1 93:1 101:1 102:1 104:1 105:1 106:1 107:1 108:1 109:1 117:1 119:1 122:1 123:1 133:1 134:1 138:1 140:1 141:1 149:1 173:1 189:1 204:1 205:1 
0.6055722446662717 76:1 86:1 87:1 92:1 102:1 103:1 108:1 118:1 119:1 124:1 134:1 135:1 140:1 150:1 151:1 156:1 166:1 167:1 172:1 182:1 183:1 188:1 204:1 
0.5150542715320767 87:1 182:1 188:1 204:1 
1.954583900895249 73:1 88:1 102:1 103:1 104:1 105:1 106:1 107:1 108:1 109:1 117:1 
1.033049295376094 73:1 87:1 88:1 89:1 90:1 91:1 92:1 93:1 101:1 102:1 109:1 118:1 124:1 138:1 139:1 153:1 167:1 168:1 182:1 183:1 203:1 204:1 
2.693681425990039 72:1 73:1 74:1 86:1 87:1 88:1 89:1 90:1 91:1 92:1 93:1 94:1 101:1 102:1 
0.4383799873744378 72:1 73:1 86:1 87:1 88:1 89:1 90:1 91:1 92:1 93:1 101:1 102:1 103:1 104:1 105:1 106:1 107:1 108:1 109:1 118:1 134:1 150:1 157:1 166:1 167:1 168:1 169:1 170:1 171:1 172:1 173:1 182:1 198:1 
0.1152098931810474 73:1 87:1 88:1 89:1 90:1 91:1 92:1 93:1 101:1 102:1 123:1 124:1 134:1 135:1 136:1 182:1 189:1 203:1 204:1 205:1 
0.01479482394174271 73:1 87:1 88:1 89:1 90:1 91:1 92:1 93:1 101:1 102:1 103:1 109:1 124:1 137:1 138:1 140:1 150:1 151:1 152:1 156:1 169:1 172:1 186:1 187:1 188:1 204:1 205:1 
1.18714172555676 73:1 87:1 88:1 93:1 101:1 102:1 108:1 109:1 119:1 120:1 121:1 122:1 123:1 124:1 165:1 204:1 
1.750479213495317 72:1 73:1 86:1 87:1 88:1 89:1 90:1 91:1 92:1 93:1 94:1 101:1 102:1 118:1 125:1 134:1 141:1 150:1 157:1 166:1 173:1 182:1 189:1 198:1 205:1 
1.005047707236747 73:1 87:1 88:1 101:1 102:1 104:1 105:1 106:1 107:1 108:1 109:1 120:1 136:1 149:1 150:1 151:1 152:1 153:1 154:1 171:1 172:1 182:1 188:1 189:1 204:1 205:1 
0.3910695375969469 72:1 73:1 86:1 87:1 88:1 89:1 90:1 91:1 92:1 93:1 101:1 102:1 118:1 121:1 134:1 137:1 150:1 153:1 166:1 169:1 182:1 185:1 204:1 
0.07404181861042633 72:1 87:1 88:1 89:1 90:1 91:1 92:1 93:1 101:1 102:1 119:1 120:1 133:1 182:1 201:1 
0.848983750963123 72:1 73:1 86:1 87:1 88:1 89:1 90:1 91:1 92:1 93:1 101:1 102:1 119:1 135:1 151:1 165:1 167:1 173:1 183:1 199:1 
0.1581661068983258 72:1 73:1 86:1 87:1 88:1 89:1 90:1 91:1 92:1 93:1 101:1 102:1 109:1 120:1 133:1 135:1 141:1 151:1 152:1 157:1 166:1 167:1 182:1 201:1 202:1 
0.02369183398469822 72:1 73:1 86:1 87:1 88:1 89:1 90:1 91:1 92:1 93:1 101:1 102:1 133:1 134:1 135:1 136:1 137:1 138:1 139:1 140:1 141:1 156:1 157:1 167:1 169:1 170:1 171:1 182:1 183:1 187:1 188:1 204:1 205:1 
0.009570585719708093 72:1 73:1 86:1 87:1 88:1 89:1 90:1 91:1 92:1 93:1 101:1 102:1 119:1 120:1 121:1 124:1 135:1 149:1 150:1 151:1 167:1 183:1 199:1 200:1 201:1 204:1 
0.2006559304773785 73:1 87:1 88:1 89:1 90:1 91:1 92:1 93:1 101:1 102:1 117:1 118:1 125:1 181:1 182:1 183:1 184:1 
0.2451173371953006 72:1 85:1 86:1 87:1 88:1 89:1 90:1 91:1 92:1 93:1 101:1 108:1 109:1 135:1 156:1 157:1 168:1 169:1 170:1 171:1 181:1 182:1 183:1 184:1 185:1 186:1 187:1 204:1 205:1 
0.3504115365083547 72:1 86:1 87:1 88:1 89:1 90:1 91:1 92:1 93:1 101:1 118:1 119:1 122:1 124:1 138:1 140:1 154:1 156:1 157:1 170:1 172:1 186:1 188:1 198:1 199:1 200:1 201:1 202:1 204:1 
-3 72:1 73:1 86:1 87:1 88:1 89:1 90:1 91:1 92:1 93:1 101:1 102:1 108:1 118:1 119:1 204:1 
-3 72:1 73:1 74:1 86:1 87:1 88:1 89:1 90:1 91:1 92:1 93:1 94:1 101:1 102:1 118:1 125:1 134:1 141:1 150:1 157:1 166:1 173:1 182:1 189:1 198:1 205:1 
-3 72:1 73:1 86:1 87:1 88:1 89:1 90:1 91:1 92:1 93:1 101:1 102:1 109:1 119:1 124:1 135:1 140:1 151:1 156:1 167:1 172:1 183:1 188:1 204:1 
-3 73:1 87:1 88:1 101:1 102:1 104:1 105:1 106:1 107:1 108:1 109:1 182:1 204:1 
-3 73:1 87:1 88:1 101:1 102:1 104:1 105:1 106:1 107:1 108:1 109:1 182:1 204:1 
