svm_type c_svc
kernel_type rbf
gamma 0.015625
nr_class 2
total_sv 33
rho -1.52519
label -1 1
nr_sv 28 5
SV
2.142381239750699 69:1 75:1 90:1 105:1 106:1 120:1 134:1 135:1 150:1 197:1 
1.332251649631171 70:1 75:1 86:1 90:1 102:1 105:1 106:1 118:1 119:1 120:1 134:1 150:1 166:1 182:1 
0.1024322696782331 76:1 86:1 89:1 102:1 105:1 118:1 121:1 134:1 137:1 150:1 153:1 166:1 169:1 182:1 185:1 204:1 
1.042096100067597 70:1 75:1 76:1 86:1 90:1 91:1 102:1 105:1 106:1 118:1 120:1 121:1 134:1 135:1 136:1 137:1 138:1 139:1 140:1 141:1 142:1 150:1 151:1 153:1 166:1 169:1 170:1 182:1 186:1 198:1 202:1 203:1 
0.2600307717814937 72:1 86:1 87:1 88:1 90:1 91:1 101:1 102:1 104:1 105:1 119:1 120:1 136:1 150:1 151:1 152:1 154:1 155:1 165:1 168:1 183:1 204:1 
0.3658124361864658 76:1 88:1 91:1 93:1 105:1 106:1 120:1 124:1 135:1 136:1 137:1 138:1 139:1 140:1 150:1 151:1 152:1 165:1 170:1 181:1 184:1 186:1 187:1 203:1 
1.161025118687211 77:1 78:1 91:1 92:1 93:1 102:1 103:1 104:1 105:1 106:1 107:1 141:1 152:1 157:1 166:1 167:1 168:1 173:1 182:1 189:1 201:1 202:1 203:1 204:1 205:1 
0.02111235583110996 70:1 73:1 74:1 86:1 89:1 90:1 102:1 105:1 106:1 118:1 121:1 134:1 137:1 141:1 150:1 153:1 166:1 169:1 182:1 185:1 189:1 198:1 201:1 203:1 204:1 205:1 
0.3353896700368197 72:1 85:1 86:1 87:1 88:1 89:1 90:1 91:1 92:1 93:1 104:1 109:1 120:1 135:1 138:1 151:1 167:1 170:1 183:1 184:1 185:1 186:1 189:1 203:1 204:1 205:1 
0.1708154086951374 77:1 92:1 107:1 117:1 118:1 119:1 120:1 173:1 189:1 203:1 204:1 205:1 
0.04935648651845815 72:1 76:1 87:1 91:1 92:1 101:1 102:1 105:1 106:1 108:1 119:1 120:1 122:1 123:1 124:1 140:1 149:1 150:1 151:1 152:1 153:1 154:1 155:1 156:1 157:1 173:1 189:1 203:1 204:1 205:1 
0.907663529132986 72:1 73:1 76:1 77:1 86:1 87:1 89:1 91:1 92:1 93:1 101:1 102:1 105:1 106:1 109:1 120:1 121:1 123:1 124:1 125:1 141:1 173:1 203:1 204:1 205:1 
0.1809246417726405 71:1 85:1 86:1 90:1 92:1 93:1 101:1 102:1 103:1 106:1 108:1 109:1 117:1 121:1 122:1 123:1 125:1 133:1 134:1 135:1 136:1 138:1 139:1 141:1 149:1 154:1 157:1 165:1 166:1 170:1 173:1 181:1 189:1 199:1 203:1 204:1 
0.09562281050070656 70:1 75:1 86:1 90:1 91:1 101:1 102:1 103:1 106:1 107:1 108:1 109:1 118:1 119:1 120:1 121:1 122:1 123:1 134:1 139:1 149:1 150:1 151:1 152:1 153:1 154:1 155:1 156:1 157:1 173:1 189:1 203:1 204:1 205:1 
0.2649419724367555 71:1 88:1 92:1 93:1 104:1 105:1 106:1 108:1 109:1 123:1 125:1 133:1 134:1 135:1 139:1 141:1 151:1 155:1 157:1 166:1 170:1 173:1 181:1 185:1 186:1 189:1 198:1 204:1 205:1 
0.1575338042229974 70:1 75:1 76:1 86:1 90:1 91:1 101:1 102:1 103:1 106:1 107:1 108:1 109:1 118:1 120:1 121:1 122:1 123:1 134:1 136:1 139:1 140:1 150:1 151:1 152:1 155:1 156:1 157:1 165:1 166:1 169:1 170:1 173:1 182:1 185:1 189:1 198:1 204:1 205:1 
0.6966516470871186 125:1 136:1 137:1 138:1 139:1 140:1 141:1 151:1 166:1 181:1 
0.433549621599596 76:1 86:1 92:1 102:1 108:1 118:1 124:1 134:1 140:1 150:1 156:1 166:1 172:1 182:1 188:1 204:1 
0.5293248298309471 70:1 77:1 86:1 93:1 102:1 109:1 118:1 125:1 134:1 141:1 150:1 157:1 166:1 173:1 182:1 189:1 205:1 
0.4459269736556071 76:1 86:1 87:1 92:1 102:1 103:1 108:1 118:1 119:1 124:1 134:1 135:1 140:1 150:1 151:1 156:1 166:1 167:1 172:1 182:1 183:1 188:1 204:1 
0.2006984646866819 70:1 74:1 86:1 93:1 102:1 103:1 104:1 106:1 107:1 108:1 118:1 119:1 120:1 133:1 134:1 135:1 136:1 150:1 151:1 152:1 155:1 156:1 157:1 166:1 167:1 168:1 173:1 182:1 186:1 189:1 198:1 201:1 204:1 205:1 
1.482880690371541 76:1 77:1 91:1 93:1 106:1 109:1 120:1 121:1 125:1 133:1 134:1 135:1 136:1 141:1 152:1 153:1 154:1 157:1 170:1 171:1 173:1 187:1 188:1 189:1 204:1 205:1 
0.2319687611458011 91:1 106:1 119:1 120:1 121:1 133:1 134:1 152:1 169:1 170:1 186:1 187:1 203:1 204:1 
0.09954577842822888 86:1 93:1 108:1 109:1 122:1 123:1 125:1 134:1 135:1 136:1 137:1 141:1 149:1 150:1 151:1 152:1 157:1 169:1 170:1 173:1 187:1 189:1 203:1 205:1 
0.05092937376910792 72:1 73:1 85:1 86:1 87:1 88:1 89:1 90:1 91:1 92:1 93:1 94:1 101:1 106:1 118:1 120:1 121:1 122:1 125:1 134:1 139:1 140:1 150:1 151:1 152:1 153:1 154:1 155:1 157:1 166:1 173:1 182:1 189:1 198:1 199:1 200:1 201:1 202:1 203:1 204:1 205:1 
0.2251319800254443 87:1 88:1 89:1 90:1 91:1 92:1 93:1 101:1 102:1 119:1 120:1 133:1 135:1 150:1 151:1 167:1 183:1 184:1 199:1 204:1 
1.989745455990964 73:1 86:1 87:1 88:1 89:1 90:1 91:1 92:1 93:1 101:1 102:1 118:1 121:1 135:1 136:1 150:1 151:1 
0.02425615847848164 72:1 73:1 86:1 87:1 88:1 89:1 90:1 91:1 92:1 93:1 94:1 101:1 107:1 117:1 119:1 122:1 123:1 124:1 125:1 134:1 135:1 136:1 137:1 150:1 151:1 152:1 166:1 167:1 181:1 183:1 189:1 197:1 199:1 203:1 204:1 205:1 
-3 69:1 76:1 91:1 93:1 106:1 109:1 120:1 121:1 125:1 135:1 136:1 141:1 150:1 151:1 157:1 166:1 173:1 181:1 189:1 203:1 204:1 
-3 70:1 76:1 77:1 86:1 91:1 93:1 102:1 106:1 109:1 118:1 121:1 125:1 134:1 136:1 141:1 150:1 151:1 152:1 157:1 166:1 167:1 173:1 182:1 189:1 203:1 204:1 205:1 
-3 86:1 90:1 91:1 92:1 102:1 105:1 106:1 118:1 120:1 121:1 134:1 135:1 136:1 150:1 151:1 166:1 188:1 203:1 204:1 
-3 86:1 90:1 91:1 92:1 105:1 106:1 120:1 135:1 150:1 151:1 166:1 204:1 
-3 86:1 90:1 91:1 92:1 105:1 106:1 120:1 135:1 150:1 151:1 166:1 204:1 
