svm_type c_svc
kernel_type rbf
gamma 0.015625
nr_class 2
total_sv 35
rho -1.49183
label -1 1
nr_sv 30 5
SV
0.2909887660342396 72:1 86:1 88:1 102:1 104:1 106:1 118:1 119:1 120:1 121:1 122:1 124:1 133:1 134:1 136:1 138:1 140:1 150:1 152:1 154:1 155:1 156:1 157:1 166:1 168:1 170:1 171:1 173:1 182:1 184:1 186:1 200:1 
1.321417074240312 118:1 119:1 120:1 121:1 122:1 124:1 133:1 138:1 140:1 154:1 156:1 157:1 166:1 170:1 171:1 182:1 186:1 200:1 
0.5047465400434615 77:1 93:1 101:1 102:1 103:1 104:1 105:1 106:1 107:1 108:1 109:1 117:1 120:1 122:1 125:1 133:1 136:1 138:1 141:1 149:1 152:1 154:1 157:1 165:1 166:1 167:1 168:1 169:1 170:1 171:1 172:1 173:1 189:1 205:1 
0.2038221336977781 90:1 93:1 106:1 108:1 118:1 119:1 120:1 121:1 122:1 150:1 151:1 152:1 153:1 154:1 155:1 156:1 157:1 170:1 181:1 186:1 197:1 
0.533728490526853 71:1 77:1 87:1 89:1 90:1 101:1 103:1 106:1 107:1 118:1 119:1 120:1 121:1 122:1 123:1 124:1 135:1 151:1 152:1 153:1 154:1 155:1 156:1 165:1 167:1 170:1 181:1 183:1 185:1 186:1 199:1 
0.4597967967481182 73:1 86:1 102:1 103:1 104:1 105:1 106:1 107:1 108:1 109:1 118:1 124:1 133:1 134:1 135:1 136:1 138:1 139:1 140:1 150:1 155:1 156:1 166:1 167:1 170:1 172:1 182:1 183:1 186:1 189:1 198:1 
1.071036303587566 76:1 87:1 93:1 103:1 104:1 108:1 109:1 120:1 123:1 124:1 136:1 137:1 138:1 151:1 152:1 153:1 165:1 166:1 167:1 169:1 170:1 186:1 
0.2038905662543999 70:1 76:1 77:1 86:1 91:1 93:1 102:1 106:1 109:1 118:1 121:1 125:1 134:1 136:1 141:1 150:1 151:1 152:1 157:1 166:1 167:1 173:1 182:1 189:1 203:1 204:1 205:1 
0.08571037332327738 73:1 85:1 88:1 90:1 92:1 93:1 102:1 103:1 105:1 106:1 108:1 109:1 118:1 119:1 121:1 122:1 123:1 125:1 133:1 134:1 136:1 138:1 139:1 141:1 150:1 151:1 152:1 154:1 155:1 157:1 166:1 168:1 170:1 173:1 182:1 183:1 185:1 186:1 189:1 201:1 204:1 205:1 
0.583254976067153 70:1 74:1 86:1 87:1 88:1 90:1 91:1 102:1 103:1 104:1 106:1 107:1 118:1 120:1 122:1 123:1 125:1 133:1 134:1 135:1 136:1 137:1 138:1 139:1 140:1 141:1 150:1 152:1 154:1 155:1 166:1 167:1 168:1 170:1 171:1 182:1 183:1 184:1 185:1 186:1 187:1 188:1 198:1 202:1 
0.2823755472230086 70:1 74:1 91:1 102:1 103:1 107:1 125:1 133:1 134:1 135:1 136:1 137:1 138:1 139:1 140:1 141:1 152:1 166:1 167:1 184:1 185:1 186:1 187:1 201:1 
0.6251923197767295 73:1 74:1 89:1 90:1 103:1 104:1 105:1 106:1 119:1 120:1 121:1 122:1 125:1 133:1 135:1 136:1 137:1 138:1 139:1 140:1 141:1 151:1 152:1 153:1 154:1 167:1 168:1 169:1 170:1 185:1 186:1 
0.4279949235073915 70:1 86:1 102:1 103:1 104:1 118:1 125:1 133:1 134:1 139:1 140:1 141:1 150:1 155:1 166:1 167:1 168:1 170:1 182:1 185:1 198:1 
0.2314857388198867 71:1 88:1 89:1 90:1 91:1 92:1 93:1 104:1 106:1 117:1 120:1 122:1 133:1 134:1 136:1 137:1 138:1 139:1 140:1 152:1 154:1 168:1 170:1 184:1 185:1 186:1 187:1 188:1 189:1 198:1 
0.7820527118441275 70:1 73:1 90:1 91:1 93:1 102:1 103:1 105:1 106:1 107:1 109:1 121:1 122:1 123:1 124:1 133:1 137:1 138:1 139:1 153:1 154:1 155:1 166:1 167:1 169:1 170:1 171:1 173:1 185:1 186:1 189:1 200:1 204:1 205:1 
0.1551940032286679 69:1 76:1 77:1 85:1 87:1 88:1 89:1 90:1 93:1 103:1 104:1 105:1 106:1 107:1 108:1 109:1 118:1 119:1 120:1 121:1 122:1 123:1 124:1 125:1 133:1 135:1 139:1 151:1 152:1 153:1 154:1 155:1 156:1 157:1 166:1 167:1 171:1 172:1 181:1 183:1 185:1 186:1 187:1 188:1 189:1 197:1 201:1 202:1 205:1 
0.6375791569197582 70:1 74:1 87:1 88:1 89:1 90:1 102:1 106:1 107:1 108:1 109:1 119:1 120:1 121:1 122:1 133:1 136:1 138:1 152:1 154:1 167:1 170:1 183:1 184:1 185:1 186:1 201:1 202:1 205:1 
0.5433686229433856 88:1 103:1 104:1 105:1 106:1 107:1 108:1 109:1 117:1 
0.6608598945047648 72:1 88:1 89:1 90:1 103:1 117:1 118:1 125:1 133:1 136:1 140:1 141:1 150:1 151:1 155:1 156:1 167:1 170:1 184:1 200:1 
0.250026306986646 73:1 88:1 90:1 103:1 104:1 106:1 118:1 119:1 122:1 133:1 136:1 137:1 138:1 141:1 150:1 151:1 154:1 156:1 168:1 170:1 171:1 184:1 186:1 
0.3820929975969761 72:1 88:1 93:1 103:1 104:1 107:1 108:1 109:1 118:1 120:1 133:1 150:1 152:1 153:1 154:1 155:1 156:1 157:1 167:1 184:1 200:1 
0.08808693680560607 85:1 86:1 87:1 88:1 89:1 90:1 91:1 92:1 93:1 107:1 108:1 118:1 122:1 125:1 135:1 136:1 140:1 152:1 155:1 156:1 169:1 170:1 171:1 181:1 182:1 183:1 184:1 185:1 187:1 188:1 205:1 
0.05650076010367379 73:1 87:1 88:1 93:1 101:1 102:1 103:1 109:1 117:1 118:1 121:1 125:1 134:1 137:1 150:1 153:1 166:1 169:1 185:1 201:1 
0.514943096936027 72:1 88:1 90:1 93:1 103:1 104:1 106:1 108:1 109:1 118:1 120:1 122:1 123:1 125:1 133:1 134:1 136:1 138:1 141:1 150:1 151:1 152:1 154:1 155:1 157:1 167:1 168:1 170:1 172:1 173:1 184:1 186:1 189:1 200:1 
0.4056144707905063 72:1 77:1 87:1 88:1 90:1 92:1 93:1 102:1 103:1 104:1 106:1 107:1 108:1 117:1 118:1 120:1 122:1 125:1 133:1 136:1 138:1 139:1 140:1 141:1 150:1 152:1 154:1 167:1 168:1 170:1 171:1 172:1 183:1 186:1 188:1 200:1 202:1 
0.3321261943981071 77:1 88:1 92:1 103:1 104:1 107:1 118:1 120:1 125:1 133:1 136:1 138:1 139:1 140:1 141:1 150:1 152:1 167:1 168:1 171:1 184:1 185:1 188:1 200:1 
0.2106133014874912 72:1 77:1 88:1 90:1 93:1 103:1 104:1 106:1 107:1 108:1 109:1 118:1 120:1 121:1 125:1 133:1 134:1 136:1 138:1 139:1 141:1 150:1 152:1 156:1 157:1 167:1 168:1 169:1 170:1 173:1 184:1 185:1 189:1 200:1 
0.06149074280296741 72:1 73:1 85:1 86:1 87:1 88:1 89:1 90:1 91:1 92:1 93:1 101:1 117:1 119:1 121:1 122:1 125:1 133:1 135:1 136:1 138:1 140:1 149:1 151:1 153:1 154:1 155:1 156:1 165:1 166:1 167:1 170:1 171:1 172:1 181:1 182:1 183:1 185:1 186:1 188:1 189:1 199:1 202:1 205:1 
0.4148502343724325 72:1 86:1 87:1 88:1 89:1 90:1 91:1 92:1 93:1 101:1 118:1 119:1 121:1 122:1 133:1 136:1 138:1 151:1 154:1 168:1 170:1 182:1 185:1 186:1 189:1 
0.1048668249536863 72:1 89:1 90:1 91:1 92:1 93:1 103:1 106:1 118:1 122:1 125:1 133:1 150:1 153:1 154:1 155:1 156:1 167:1 173:1 183:1 185:1 186:1 187:1 188:1 189:1 
-2.007273097117928 88:1 90:1 93:1 103:1 104:1 106:1 109:1 118:1 121:1 122:1 125:1 133:1 136:1 138:1 140:1 151:1 152:1 154:1 155:1 156:1 166:1 167:1 170:1 171:1 184:1 185:1 186:1 
-3 78:1 87:1 88:1 90:1 91:1 93:1 102:1 103:1 104:1 106:1 107:1 109:1 117:1 118:1 120:1 121:1 123:1 125:1 133:1 136:1 140:1 141:1 151:1 152:1 156:1 166:1 167:1 170:1 171:1 182:1 185:1 186:1 
-1.741464955949157 77:1 88:1 90:1 93:1 103:1 104:1 106:1 109:1 117:1 118:1 120:1 121:1 122:1 125:1 133:1 136:1 138:1 140:1 151:1 152:1 154:1 155:1 156:1 166:1 167:1 170:1 171:1 182:1 185:1 186:1 
-2.688315233080614 93:1 103:1 104:1 106:1 107:1 109:1 118:1 121:1 122:1 133:1 136:1 138:1 140:1 152:1 154:1 155:1 166:1 167:1 170:1 185:1 186:1 
-2.988653520377301 93:1 103:1 104:1 106:1 107:1 109:1 118:1 121:1 122:1 133:1 136:1 138:1 140:1 152:1 154:1 155:1 166:1 167:1 170:1 185:1 186:1 
