svm_type c_svc
kernel_type rbf
gamma 0.015625
nr_class 2
total_sv 34
rho -1.40389
label -1 1
nr_sv 29 5
SV
0.04416736610024927 119:1 120:1 121:1 122:1 123:1 124:1 182:1 183:1 184:1 185:1 186:1 187:1 188:1 
0.03438371389018443 76:1 77:1 91:1 107:1 120:1 121:1 136:1 137:1 153:1 154:1 155:1 171:1 172:1 181:1 182:1 183:1 184:1 185:1 186:1 187:1 
0.4981987611406937 118:1 119:1 120:1 121:1 122:1 124:1 133:1 138:1 140:1 154:1 156:1 157:1 166:1 170:1 171:1 182:1 186:1 200:1 
0.06373294754409349 75:1 77:1 89:1 90:1 101:1 102:1 103:1 104:1 105:1 121:1 122:1 123:1 124:1 139:1 152:1 153:1 154:1 165:1 168:1 169:1 186:1 187:1 203:1 205:1 
0.2249794739759907 76:1 77:1 89:1 90:1 91:1 93:1 101:1 102:1 103:1 104:1 105:1 109:1 121:1 122:1 124:1 125:1 139:1 140:1 141:1 152:1 153:1 154:1 157:1 165:1 166:1 167:1 168:1 169:1 170:1 173:1 186:1 187:1 189:1 204:1 205:1 
0.9646098526465937 76:1 77:1 91:1 101:1 102:1 103:1 104:1 105:1 106:1 117:1 121:1 138:1 139:1 149:1 150:1 151:1 152:1 153:1 154:1 165:1 168:1 169:1 170:1 186:1 187:1 204:1 
0.5236834870379385 72:1 75:1 76:1 77:1 88:1 90:1 93:1 104:1 105:1 106:1 108:1 109:1 124:1 125:1 135:1 136:1 137:1 138:1 139:1 140:1 141:1 151:1 152:1 157:1 166:1 169:1 170:1 173:1 182:1 184:1 186:1 187:1 189:1 200:1 203:1 204:1 205:1 
0.7657041336915874 76:1 88:1 91:1 93:1 105:1 106:1 120:1 124:1 135:1 136:1 137:1 138:1 139:1 140:1 150:1 151:1 152:1 165:1 170:1 181:1 184:1 186:1 187:1 203:1 
2.668528064546382 107:1 108:1 123:1 124:1 139:1 154:1 
0.04796617780308494 69:1 72:1 74:1 88:1 90:1 104:1 106:1 118:1 119:1 120:1 121:1 122:1 123:1 124:1 125:1 136:1 138:1 152:1 154:1 165:1 166:1 167:1 168:1 169:1 170:1 171:1 187:1 188:1 189:1 204:1 205:1 
1.419161377760529 119:1 120:1 136:1 137:1 138:1 153:1 154:1 
0.08739407290361916 120:1 136:1 137:1 153:1 154:1 
0.09676301704914736 93:1 108:1 109:1 123:1 124:1 133:1 134:1 135:1 136:1 137:1 138:1 
0.4794310254280564 77:1 86:1 87:1 92:1 93:1 103:1 104:1 108:1 121:1 122:1 123:1 138:1 139:1 153:1 155:1 166:1 167:1 168:1 172:1 182:1 188:1 205:1 
0.6288515282315293 77:1 103:1 108:1 121:1 123:1 138:1 139:1 152:1 153:1 155:1 156:1 165:1 166:1 167:1 172:1 189:1 205:1 
1.077361060371164 74:1 89:1 93:1 104:1 108:1 118:1 119:1 123:1 133:1 137:1 138:1 152:1 153:1 156:1 167:1 170:1 171:1 172:1 187:1 188:1 205:1 
0.2640798847728237 77:1 86:1 87:1 93:1 103:1 104:1 108:1 117:1 121:1 122:1 123:1 124:1 134:1 135:1 138:1 139:1 153:1 154:1 155:1 156:1 166:1 167:1 168:1 172:1 182:1 189:1 205:1 
0.481450623503095 70:1 76:1 86:1 91:1 92:1 102:1 104:1 107:1 118:1 120:1 123:1 134:1 137:1 138:1 139:1 141:1 150:1 154:1 157:1 166:1 170:1 173:1 182:1 186:1 187:1 188:1 189:1 198:1 199:1 200:1 201:1 202:1 
0.3723145552296661 73:1 87:1 89:1 105:1 117:1 118:1 119:1 120:1 121:1 122:1 123:1 124:1 125:1 137:1 153:1 165:1 166:1 167:1 168:1 169:1 172:1 182:1 185:1 188:1 201:1 
1.357643465431375 85:1 125:1 136:1 137:1 138:1 139:1 140:1 141:1 151:1 166:1 167:1 182:1 
0.08816991037761775 73:1 89:1 93:1 102:1 103:1 105:1 110:1 119:1 120:1 121:1 125:1 135:1 136:1 137:1 138:1 139:1 140:1 141:1 151:1 153:1 166:1 167:1 169:1 182:1 185:1 186:1 187:1 201:1 202:1 
0.1093018335731511 70:1 73:1 90:1 91:1 93:1 102:1 103:1 105:1 106:1 107:1 109:1 121:1 122:1 123:1 124:1 133:1 137:1 138:1 139:1 153:1 154:1 155:1 166:1 167:1 169:1 170:1 171:1 173:1 185:1 186:1 189:1 200:1 204:1 205:1 
0.7548711033209365 74:1 75:1 76:1 77:1 109:1 124:1 125:1 135:1 136:1 137:1 138:1 139:1 151:1 152:1 153:1 154:1 171:1 172:1 188:1 189:1 205:1 206:1 
0.5499452783075312 73:1 87:1 88:1 93:1 101:1 102:1 109:1 124:1 134:1 135:1 136:1 137:1 138:1 139:1 150:1 165:1 166:1 167:1 168:1 169:1 170:1 187:1 188:1 205:1 
0.09726772435221837 73:1 88:1 103:1 117:1 118:1 120:1 123:1 124:1 133:1 137:1 140:1 150:1 153:1 154:1 157:1 167:1 184:1 200:1 201:1 
0.3032822189680525 73:1 87:1 88:1 93:1 101:1 102:1 109:1 137:1 138:1 165:1 166:1 167:1 173:1 181:1 182:1 183:1 184:1 185:1 186:1 187:1 188:1 199:1 
0.375219401144081 72:1 85:1 86:1 87:1 88:1 89:1 90:1 91:1 92:1 93:1 101:1 108:1 118:1 123:1 124:1 134:1 138:1 139:1 149:1 150:1 151:1 152:1 153:1 154:1 155:1 156:1 157:1 166:1 170:1 182:1 187:1 204:1 
0.3053060769480767 73:1 87:1 88:1 101:1 102:1 109:1 118:1 123:1 124:1 135:1 137:1 138:1 149:1 150:1 151:1 152:1 153:1 154:1 155:1 156:1 157:1 169:1 170:1 182:1 183:1 187:1 188:1 200:1 204:1 
0.3162318639505333 76:1 86:1 87:1 89:1 90:1 91:1 101:1 103:1 105:1 120:1 123:1 124:1 125:1 133:1 134:1 135:1 136:1 137:1 138:1 139:1 140:1 154:1 170:1 181:1 182:1 183:1 184:1 185:1 186:1 187:1 188:1 
-3 75:1 76:1 108:1 120:1 123:1 124:1 137:1 138:1 139:1 153:1 154:1 166:1 167:1 168:1 170:1 182:1 187:1 
-3 75:1 76:1 77:1 94:1 104:1 109:1 120:1 121:1 124:1 125:1 137:1 138:1 139:1 140:1 150:1 151:1 152:1 153:1 154:1 165:1 171:1 187:1 188:1 204:1 
-3 76:1 87:1 93:1 103:1 104:1 108:1 109:1 120:1 123:1 124:1 136:1 137:1 138:1 151:1 152:1 153:1 165:1 166:1 167:1 169:1 170:1 186:1 
-3 108:1 123:1 124:1 137:1 138:1 139:1 153:1 154:1 166:1 167:1 170:1 182:1 186:1 187:1 
-3 108:1 123:1 124:1 137:1 138:1 139:1 153:1 154:1 166:1 167:1 170:1 182:1 186:1 187:1 
