svm_type c_svc
kernel_type rbf
gamma 0.015625
nr_class 2
total_sv 34
rho -1.47632
label -1 1
nr_sv 29 5
SV
0.3387629218711735 77:1 92:1 93:1 106:1 107:1 108:1 118:1 119:1 120:1 121:1 122:1 136:1 152:1 157:1 168:1 170:1 171:1 172:1 173:1 184:1 185:1 186:1 187:1 188:1 
0.02990421489298981 118:1 119:1 120:1 121:1 122:1 124:1 133:1 138:1 140:1 154:1 156:1 157:1 166:1 170:1 171:1 182:1 186:1 200:1 
0.3755126792879093 69:1 72:1 74:1 88:1 90:1 104:1 106:1 118:1 119:1 120:1 121:1 122:1 123:1 124:1 125:1 136:1 138:1 152:1 154:1 165:1 166:1 167:1 168:1 169:1 170:1 171:1 187:1 188:1 189:1 204:1 205:1 
0.01251123059576763 88:1 93:1 101:1 104:1 108:1 118:1 119:1 122:1 123:1 133:1 134:1 135:1 136:1 137:1 138:1 149:1 154:1 173:1 186:1 187:1 188:1 189:1 
1.924998046088208 77:1 88:1 89:1 92:1 93:1 103:1 104:1 108:1 117:1 118:1 119:1 123:1 135:1 137:1 138:1 151:1 152:1 153:1 154:1 167:1 171:1 172:1 188:1 205:1 
1.597552576745079 89:1 93:1 104:1 108:1 117:1 118:1 119:1 123:1 135:1 136:1 137:1 138:1 151:1 152:1 153:1 154:1 171:1 172:1 188:1 189:1 205:1 
0.1275358237825829 69:1 74:1 76:1 85:1 89:1 91:1 92:1 104:1 106:1 107:1 117:1 119:1 121:1 133:1 134:1 135:1 136:1 137:1 138:1 139:1 140:1 141:1 149:1 152:1 153:1 165:1 167:1 170:1 171:1 181:1 182:1 183:1 187:1 188:1 204:1 
1.114913670989038 74:1 89:1 92:1 104:1 107:1 121:1 122:1 134:1 135:1 136:1 137:1 138:1 139:1 140:1 141:1 152:1 153:1 165:1 167:1 171:1 181:1 183:1 187:1 188:1 204:1 
0.1199068689173266 76:1 86:1 92:1 102:1 108:1 118:1 124:1 134:1 140:1 150:1 156:1 166:1 172:1 182:1 188:1 204:1 
0.787578701856238 72:1 88:1 92:1 101:1 104:1 107:1 108:1 120:1 122:1 124:1 136:1 137:1 140:1 152:1 156:1 168:1 171:1 172:1 181:1 184:1 188:1 200:1 
0.1720116228937767 73:1 77:1 89:1 93:1 105:1 106:1 107:1 108:1 109:1 118:1 119:1 120:1 121:1 125:1 137:1 141:1 153:1 157:1 169:1 173:1 185:1 186:1 187:1 188:1 189:1 205:1 
0.1216585113959614 70:1 73:1 76:1 86:1 88:1 89:1 91:1 92:1 94:1 102:1 104:1 105:1 107:1 109:1 117:1 118:1 119:1 121:1 122:1 125:1 133:1 134:1 137:1 138:1 140:1 150:1 152:1 153:1 155:1 156:1 166:1 168:1 170:1 171:1 172:1 173:1 182:1 185:1 186:1 189:1 198:1 205:1 206:1 
0.2243606348546224 72:1 74:1 77:1 86:1 88:1 90:1 92:1 104:1 106:1 107:1 108:1 119:1 120:1 122:1 123:1 125:1 133:1 136:1 137:1 138:1 139:1 140:1 141:1 152:1 154:1 168:1 170:1 171:1 172:1 184:1 186:1 188:1 200:1 202:1 
0.4123984558496885 73:1 74:1 76:1 89:1 90:1 92:1 103:1 104:1 105:1 106:1 108:1 119:1 120:1 121:1 122:1 124:1 133:1 135:1 136:1 137:1 138:1 139:1 140:1 141:1 151:1 152:1 153:1 154:1 156:1 157:1 167:1 168:1 169:1 170:1 171:1 172:1 173:1 185:1 186:1 187:1 189:1 201:1 202:1 203:1 205:1 
0.3138887369218595 73:1 74:1 76:1 78:1 87:1 88:1 90:1 92:1 94:1 106:1 108:1 109:1 122:1 123:1 124:1 133:1 137:1 138:1 140:1 154:1 156:1 170:1 172:1 173:1 183:1 184:1 186:1 201:1 202:1 205:1 
0.1606470275678067 70:1 73:1 75:1 77:1 86:1 87:1 88:1 89:1 90:1 91:1 92:1 102:1 105:1 108:1 109:1 110:1 118:1 122:1 123:1 124:1 125:1 133:1 134:1 137:1 139:1 140:1 141:1 150:1 151:1 152:1 153:1 156:1 166:1 170:1 172:1 173:1 182:1 184:1 185:1 186:1 187:1 188:1 189:1 198:1 201:1 202:1 205:1 
0.595825723743019 74:1 87:1 90:1 91:1 92:1 93:1 102:1 106:1 108:1 119:1 122:1 124:1 133:1 135:1 136:1 137:1 138:1 140:1 151:1 152:1 153:1 154:1 156:1 167:1 170:1 172:1 183:1 186:1 187:1 188:1 189:1 199:1 200:1 201:1 202:1 
2.634734274766029 73:1 74:1 88:1 89:1 103:1 104:1 118:1 119:1 133:1 
0.7505333358338733 74:1 89:1 104:1 118:1 119:1 123:1 133:1 134:1 139:1 140:1 151:1 156:1 168:1 185:1 201:1 
0.6332017840843552 77:1 88:1 92:1 104:1 108:1 118:1 119:1 122:1 123:1 133:1 134:1 137:1 138:1 151:1 155:1 168:1 172:1 184:1 188:1 189:1 205:1 
0.1309488517985806 73:1 77:1 88:1 89:1 93:1 104:1 108:1 118:1 119:1 123:1 124:1 133:1 134:1 135:1 137:1 138:1 151:1 155:1 156:1 167:1 168:1 172:1 184:1 189:1 200:1 205:1 
0.09556057364822586 73:1 93:1 104:1 118:1 119:1 123:1 124:1 133:1 137:1 138:1 151:1 155:1 168:1 172:1 184:1 189:1 205:1 
0.4840591367815758 73:1 87:1 88:1 89:1 90:1 91:1 92:1 93:1 101:1 102:1 103:1 109:1 124:1 137:1 138:1 140:1 150:1 151:1 152:1 156:1 169:1 172:1 186:1 187:1 188:1 204:1 205:1 
0.3315116086859907 69:1 70:1 71:1 72:1 73:1 74:1 75:1 76:1 77:1 92:1 107:1 108:1 117:1 118:1 123:1 125:1 126:1 135:1 141:1 156:1 157:1 170:1 171:1 172:1 181:1 182:1 183:1 184:1 185:1 186:1 187:1 188:1 205:1 
0.3967843660052323 72:1 76:1 88:1 89:1 92:1 103:1 105:1 106:1 108:1 118:1 119:1 124:1 133:1 136:1 137:1 138:1 139:1 140:1 141:1 142:1 150:1 156:1 167:1 169:1 170:1 172:1 183:1 184:1 185:1 188:1 200:1 204:1 
0.2511001117522043 73:1 86:1 87:1 88:1 89:1 90:1 91:1 92:1 93:1 101:1 102:1 109:1 119:1 123:1 124:1 137:1 138:1 149:1 150:1 151:1 152:1 153:1 154:1 155:1 156:1 157:1 170:1 171:1 182:1 187:1 188:1 204:1 
0.327396683758324 72:1 77:1 88:1 89:1 93:1 103:1 104:1 107:1 108:1 109:1 118:1 120:1 125:1 133:1 136:1 138:1 139:1 140:1 141:1 150:1 152:1 155:1 157:1 167:1 168:1 171:1 173:1 184:1 187:1 189:1 200:1 205:1 
0.001321402713662182 77:1 88:1 89:1 93:1 103:1 105:1 106:1 107:1 108:1 109:1 118:1 133:1 137:1 138:1 150:1 167:1 173:1 184:1 185:1 186:1 187:1 188:1 189:1 200:1 
0.5328804219189004 72:1 73:1 85:1 86:1 87:1 88:1 89:1 90:1 91:1 92:1 93:1 101:1 108:1 118:1 119:1 123:1 124:1 133:1 137:1 138:1 149:1 151:1 152:1 153:1 154:1 155:1 156:1 157:1 169:1 170:1 187:1 198:1 199:1 201:1 204:1 
-3 74:1 89:1 93:1 104:1 108:1 118:1 119:1 123:1 133:1 137:1 138:1 152:1 153:1 156:1 167:1 170:1 171:1 172:1 187:1 188:1 205:1 
-3 73:1 74:1 77:1 88:1 89:1 93:1 103:1 104:1 107:1 108:1 109:1 118:1 119:1 122:1 123:1 125:1 133:1 137:1 138:1 141:1 152:1 153:1 157:1 167:1 170:1 171:1 173:1 187:1 188:1 189:1 205:1 206:1 
-3 73:1 74:1 88:1 89:1 92:1 103:1 104:1 107:1 108:1 118:1 119:1 122:1 124:1 133:1 136:1 137:1 140:1 151:1 152:1 156:1 170:1 172:1 187:1 188:1 204:1 205:1 
-3 74:1 89:1 92:1 104:1 108:1 118:1 119:1 123:1 124:1 133:1 137:1 138:1 140:1 152:1 156:1 171:1 172:1 187:1 188:1 
-3 74:1 89:1 92:1 104:1 108:1 118:1 119:1 123:1 124:1 133:1 137:1 138:1 140:1 152:1 156:1 171:1 172:1 187:1 188:1 
