svm_type c_svc
kernel_type rbf
gamma 0.015625
nr_class 2
total_sv 34
rho -1.4623
label -1 1
nr_sv 29 5
SV
0.4342931473393534 200:1 
0.06795526632957993 70:1 77:1 86:1 93:1 102:1 108:1 109:1 118:1 122:1 123:1 124:1 134:1 135:1 136:1 137:1 138:1 150:1 166:1 182:1 198:1 
0.06966040671649824 70:1 75:1 86:1 90:1 102:1 105:1 106:1 118:1 119:1 120:1 134:1 150:1 166:1 182:1 
2.848431914431064 76:1 86:1 89:1 92:1 102:1 105:1 108:1 118:1 121:1 124:1 134:1 137:1 140:1 150:1 153:1 156:1 166:1 169:1 172:1 182:1 185:1 188:1 204:1 
0.3282196188693409 75:1 101:1 102:1 103:1 104:1 118:1 134:1 141:1 150:1 157:1 166:1 171:1 173:1 182:1 185:1 186:1 187:1 188:1 198:1 
0.06905137919607216 77:1 86:1 87:1 88:1 89:1 90:1 91:1 92:1 93:1 102:1 109:1 118:1 125:1 134:1 141:1 150:1 157:1 165:1 173:1 181:1 189:1 205:1 
0.05055031949827474 76:1 77:1 87:1 89:1 90:1 103:1 104:1 118:1 119:1 120:1 150:1 151:1 152:1 167:1 181:1 182:1 183:1 
0.1186774134758045 69:1 86:1 102:1 103:1 119:1 137:1 138:1 139:1 140:1 141:1 142:1 151:1 166:1 167:1 182:1 197:1 
1.806433851220106 87:1 102:1 120:1 138:1 155:1 171:1 172:1 188:1 204:1 
0.2475465402628421 149:1 150:1 151:1 152:1 170:1 171:1 188:1 
0.06844204716318755 71:1 76:1 87:1 92:1 103:1 107:1 108:1 117:1 119:1 122:1 134:1 135:1 137:1 141:1 151:1 152:1 157:1 167:1 173:1 189:1 
0.9243555994305115 87:1 102:1 117:1 125:1 182:1 184:1 198:1 
1.159021604673683 70:1 76:1 77:1 86:1 91:1 93:1 102:1 106:1 109:1 118:1 121:1 125:1 134:1 136:1 141:1 150:1 151:1 152:1 157:1 166:1 167:1 173:1 182:1 189:1 203:1 204:1 205:1 
0.09318195352593825 101:1 102:1 103:1 104:1 105:1 106:1 107:1 108:1 125:1 141:1 157:1 173:1 187:1 188:1 189:1 204:1 
1.685168170603519 70:1 86:1 102:1 118:1 134:1 150:1 166:1 182:1 183:1 198:1 199:1 
1.672094788825813 168:1 182:1 183:1 
0.310412706689194 77:1 92:1 107:1 117:1 118:1 119:1 120:1 173:1 189:1 203:1 204:1 205:1 
0.02374789590223729 73:1 87:1 88:1 102:1 103:1 108:1 109:1 117:1 122:1 123:1 125:1 137:1 141:1 152:1 153:1 157:1 173:1 182:1 189:1 204:1 205:1 
0.2661305696371863 85:1 86:1 87:1 88:1 92:1 93:1 101:1 102:1 107:1 108:1 109:1 117:1 118:1 123:1 125:1 133:1 134:1 141:1 149:1 150:1 154:1 157:1 165:1 166:1 170:1 173:1 181:1 182:1 183:1 189:1 203:1 204:1 
0.0187217041485383 85:1 86:1 87:1 88:1 89:1 90:1 92:1 93:1 107:1 109:1 123:1 125:1 141:1 154:1 157:1 165:1 170:1 173:1 181:1 182:1 183:1 189:1 204:1 205:1 
0.2462775193579754 70:1 75:1 76:1 86:1 87:1 90:1 92:1 101:1 102:1 103:1 106:1 107:1 108:1 109:1 118:1 119:1 122:1 124:1 134:1 139:1 140:1 149:1 150:1 151:1 152:1 153:1 154:1 155:1 156:1 173:1 189:1 204:1 205:1 
0.03901955856377376 70:1 71:1 86:1 87:1 88:1 90:1 91:1 92:1 101:1 108:1 124:1 134:1 135:1 136:1 137:1 138:1 139:1 140:1 141:1 150:1 156:1 157:1 172:1 173:1 183:1 184:1 186:1 187:1 188:1 189:1 204:1 205:1 
0.01158555517486173 77:1 92:1 93:1 107:1 108:1 109:1 121:1 122:1 125:1 141:1 157:1 171:1 172:1 173:1 188:1 189:1 205:1 
0.2316368287503892 77:1 86:1 87:1 88:1 133:1 134:1 135:1 136:1 170:1 182:1 183:1 184:1 186:1 
0.2999822117987353 70:1 77:1 86:1 87:1 92:1 93:1 102:1 103:1 104:1 108:1 110:1 118:1 126:1 133:1 134:1 137:1 138:1 139:1 140:1 141:1 142:1 150:1 152:1 166:1 167:1 168:1 172:1 182:1 188:1 189:1 198:1 205:1 
0.5655518635906474 87:1 91:1 92:1 93:1 103:1 119:1 133:1 135:1 151:1 167:1 183:1 187:1 188:1 189:1 
0.7153000995246566 72:1 73:1 86:1 87:1 88:1 89:1 90:1 91:1 92:1 93:1 101:1 102:1 109:1 119:1 124:1 135:1 140:1 151:1 156:1 167:1 172:1 183:1 188:1 204:1 
0.2828572736585625 73:1 87:1 88:1 101:1 102:1 104:1 105:1 106:1 107:1 108:1 109:1 182:1 204:1 
0.3456921916416543 77:1 92:1 93:1 108:1 122:1 123:1 133:1 134:1 135:1 136:1 138:1 139:1 150:1 155:1 156:1 166:1 167:1 172:1 182:1 183:1 188:1 189:1 200:1 205:1 
-3 76:1 86:1 92:1 102:1 108:1 118:1 124:1 134:1 140:1 150:1 156:1 166:1 172:1 182:1 188:1 204:1 
-3 70:1 77:1 86:1 93:1 102:1 109:1 118:1 125:1 134:1 141:1 150:1 157:1 166:1 173:1 182:1 189:1 205:1 
-3 76:1 86:1 87:1 92:1 102:1 103:1 108:1 118:1 119:1 124:1 134:1 135:1 140:1 150:1 151:1 156:1 166:1 167:1 172:1 182:1 183:1 188:1 204:1 
-3 87:1 182:1 188:1 204:1 
-3 87:1 182:1 188:1 204:1 
