svm_type c_svc
kernel_type rbf
gamma 0.015625
nr_class 2
total_sv 34
rho -1.43998
label -1 1
nr_sv 29 5
SV
0.4550387353688407 69:1 85:1 101:1 103:1 104:1 117:1 118:1 119:1 120:1 133:1 136:1 149:1 152:1 157:1 165:1 168:1 171:1 172:1 173:1 181:1 184:1 185:1 186:1 187:1 188:1 197:1 
1.284115211798973 69:1 76:1 77:1 85:1 92:1 101:1 106:1 107:1 117:1 133:1 149:1 165:1 166:1 167:1 168:1 169:1 170:1 171:1 172:1 181:1 197:1 
0.3994996211258667 70:1 77:1 78:1 86:1 91:1 92:1 93:1 102:1 103:1 104:1 105:1 106:1 107:1 108:1 118:1 134:1 150:1 166:1 167:1 168:1 169:1 170:1 171:1 172:1 173:1 182:1 198:1 
0.04034827796478531 69:1 85:1 87:1 88:1 89:1 90:1 101:1 106:1 117:1 122:1 133:1 134:1 135:1 136:1 137:1 138:1 149:1 154:1 157:1 165:1 170:1 173:1 181:1 185:1 186:1 187:1 188:1 189:1 197:1 200:1 
1.077431109969663 77:1 93:1 101:1 102:1 103:1 104:1 105:1 106:1 107:1 108:1 109:1 117:1 120:1 122:1 125:1 133:1 136:1 138:1 141:1 149:1 152:1 154:1 157:1 165:1 166:1 167:1 168:1 169:1 170:1 171:1 172:1 173:1 189:1 205:1 
0.455531876339616 77:1 101:1 102:1 103:1 104:1 105:1 106:1 107:1 108:1 165:1 166:1 167:1 168:1 169:1 170:1 171:1 172:1 
0.1303205724428047 69:1 85:1 87:1 88:1 89:1 90:1 91:1 92:1 93:1 101:1 103:1 104:1 105:1 106:1 107:1 117:1 119:1 123:1 133:1 134:1 135:1 136:1 137:1 138:1 139:1 149:1 151:1 155:1 165:1 167:1 168:1 169:1 170:1 171:1 173:1 181:1 183:1 184:1 185:1 186:1 187:1 188:1 189:1 197:1 
0.297964142162939 77:1 85:1 86:1 88:1 89:1 90:1 91:1 92:1 101:1 103:1 104:1 117:1 120:1 133:1 136:1 149:1 150:1 151:1 152:1 165:1 168:1 181:1 183:1 184:1 197:1 200:1 
0.7805348564118492 86:1 91:1 102:1 103:1 104:1 105:1 106:1 107:1 138:1 154:1 165:1 166:1 167:1 168:1 169:1 170:1 171:1 172:1 173:1 
0.8595693026739221 71:1 77:1 78:1 87:1 92:1 93:1 101:1 102:1 103:1 104:1 105:1 106:1 107:1 108:1 119:1 120:1 135:1 136:1 137:1 151:1 153:1 165:1 166:1 167:1 168:1 169:1 170:1 171:1 172:1 173:1 174:1 183:1 199:1 
2.072007195122688 77:1 85:1 91:1 92:1 101:1 105:1 106:1 107:1 117:1 118:1 119:1 120:1 133:1 149:1 157:1 165:1 166:1 167:1 168:1 173:1 184:1 187:1 188:1 189:1 200:1 201:1 202:1 
0.157953704414098 73:1 85:1 87:1 89:1 101:1 103:1 104:1 105:1 117:1 120:1 121:1 125:1 133:1 134:1 135:1 136:1 137:1 138:1 139:1 140:1 141:1 149:1 153:1 165:1 167:1 168:1 169:1 181:1 182:1 183:1 185:1 201:1 
0.6090173483199644 73:1 74:1 76:1 86:1 88:1 89:1 91:1 92:1 102:1 103:1 104:1 106:1 107:1 118:1 121:1 122:1 133:1 134:1 135:1 136:1 137:1 138:1 139:1 140:1 141:1 149:1 152:1 153:1 154:1 165:1 167:1 168:1 170:1 171:1 181:1 183:1 187:1 188:1 204:1 
0.5388908472564163 74:1 77:1 90:1 93:1 101:1 102:1 103:1 104:1 105:1 106:1 108:1 117:1 119:1 122:1 123:1 133:1 135:1 138:1 149:1 151:1 154:1 165:1 167:1 170:1 181:1 183:1 186:1 202:1 
0.1729911537071426 76:1 77:1 85:1 86:1 87:1 88:1 89:1 90:1 91:1 101:1 103:1 104:1 117:1 119:1 120:1 122:1 133:1 135:1 136:1 138:1 149:1 150:1 151:1 152:1 153:1 154:1 155:1 156:1 157:1 165:1 167:1 168:1 170:1 172:1 181:1 183:1 184:1 186:1 188:1 200:1 
0.7596766794004135 69:1 70:1 73:1 75:1 76:1 77:1 85:1 87:1 88:1 89:1 90:1 91:1 92:1 94:1 101:1 102:1 103:1 104:1 105:1 107:1 108:1 109:1 117:1 121:1 133:1 134:1 135:1 136:1 138:1 139:1 140:1 141:1 155:1 157:1 165:1 166:1 167:1 168:1 169:1 170:1 171:1 172:1 173:1 203:1 204:1 205:1 
0.2464989771085 70:1 73:1 74:1 75:1 76:1 77:1 78:1 85:1 88:1 89:1 90:1 91:1 92:1 93:1 101:1 102:1 104:1 105:1 106:1 107:1 108:1 109:1 117:1 120:1 121:1 122:1 123:1 124:1 125:1 126:1 133:1 134:1 135:1 136:1 137:1 142:1 149:1 153:1 154:1 155:1 156:1 157:1 165:1 166:1 167:1 168:1 169:1 170:1 171:1 172:1 173:1 189:1 203:1 204:1 205:1 
0.1337338015036973 71:1 74:1 77:1 86:1 88:1 91:1 92:1 101:1 102:1 103:1 104:1 106:1 107:1 117:1 118:1 119:1 136:1 139:1 165:1 173:1 189:1 203:1 204:1 205:1 
0.7579587154188829 77:1 85:1 101:1 105:1 106:1 117:1 118:1 119:1 122:1 133:1 138:1 149:1 154:1 165:1 168:1 169:1 170:1 171:1 172:1 181:1 
0.09415955990731671 77:1 85:1 91:1 101:1 104:1 105:1 106:1 107:1 117:1 118:1 122:1 133:1 137:1 139:1 149:1 155:1 156:1 165:1 167:1 168:1 169:1 181:1 205:1 
0.2045510291579472 70:1 73:1 75:1 85:1 86:1 87:1 88:1 89:1 91:1 93:1 101:1 102:1 103:1 104:1 105:1 106:1 118:1 119:1 121:1 135:1 136:1 137:1 138:1 139:1 149:1 150:1 152:1 155:1 167:1 168:1 169:1 170:1 171:1 172:1 173:1 181:1 184:1 187:1 201:1 202:1 203:1 
0.2157644587986034 72:1 73:1 86:1 87:1 88:1 89:1 90:1 91:1 92:1 93:1 101:1 102:1 103:1 104:1 105:1 106:1 107:1 108:1 109:1 118:1 134:1 150:1 157:1 166:1 167:1 168:1 169:1 170:1 171:1 172:1 173:1 182:1 198:1 
0.9514621646327658 73:1 87:1 88:1 89:1 90:1 91:1 92:1 93:1 101:1 102:1 121:1 133:1 134:1 135:1 136:1 149:1 153:1 154:1 155:1 156:1 157:1 166:1 167:1 168:1 169:1 185:1 200:1 201:1 
0.1235933071170577 72:1 73:1 77:1 87:1 89:1 91:1 92:1 93:1 102:1 103:1 105:1 109:1 117:1 118:1 121:1 125:1 133:1 137:1 138:1 139:1 140:1 141:1 149:1 150:1 153:1 155:1 157:1 166:1 167:1 169:1 171:1 173:1 183:1 185:1 187:1 189:1 200:1 201:1 205:1 
0.1275731782830833 73:1 86:1 87:1 88:1 89:1 90:1 91:1 92:1 93:1 101:1 102:1 104:1 118:1 120:1 134:1 136:1 139:1 140:1 149:1 150:1 151:1 152:1 157:1 166:1 168:1 169:1 170:1 171:1 172:1 173:1 182:1 184:1 200:1 201:1 
0.07256512950230695 73:1 87:1 88:1 89:1 90:1 91:1 92:1 93:1 101:1 102:1 106:1 118:1 121:1 134:1 135:1 138:1 149:1 150:1 152:1 154:1 157:1 166:1 169:1 170:1 171:1 172:1 173:1 182:1 184:1 186:1 198:1 200:1 202:1 
1.380248000138808 73:1 86:1 87:1 88:1 89:1 90:1 91:1 92:1 93:1 101:1 102:1 106:1 121:1 124:1 135:1 136:1 150:1 165:1 169:1 170:1 171:1 172:1 173:1 181:1 185:1 202:1 
0.4391149835989475 73:1 86:1 87:1 88:1 89:1 90:1 91:1 92:1 93:1 101:1 102:1 106:1 117:1 118:1 119:1 121:1 123:1 135:1 136:1 149:1 150:1 151:1 152:1 153:1 157:1 167:1 169:1 171:1 172:1 183:1 185:1 187:1 202:1 
0.1618860603521004 72:1 73:1 85:1 86:1 87:1 88:1 89:1 90:1 91:1 92:1 93:1 94:1 103:1 104:1 105:1 106:1 109:1 117:1 119:1 122:1 123:1 124:1 135:1 136:1 137:1 138:1 139:1 140:1 151:1 152:1 157:1 158:1 165:1 166:1 167:1 168:1 169:1 170:1 171:1 172:1 181:1 182:1 183:1 184:1 185:1 190:1 199:1 200:1 201:1 202:1 203:1 204:1 205:1 
-3 73:1 77:1 91:1 92:1 101:1 102:1 103:1 104:1 105:1 106:1 107:1 117:1 118:1 133:1 135:1 136:1 149:1 157:1 165:1 166:1 167:1 168:1 169:1 170:1 171:1 172:1 173:1 201:1 
-3 74:1 77:1 78:1 85:1 86:1 87:1 88:1 89:1 90:1 91:1 92:1 93:1 101:1 106:1 117:1 119:1 122:1 133:1 135:1 136:1 138:1 149:1 152:1 154:1 165:1 170:1 174:1 181:1 182:1 183:1 184:1 185:1 186:1 187:1 188:1 189:1 202:1 
-3 73:1 77:1 85:1 86:1 89:1 90:1 91:1 92:1 101:1 102:1 103:1 104:1 105:1 106:1 107:1 117:1 121:1 133:1 135:1 136:1 137:1 149:1 153:1 157:1 165:1 166:1 167:1 168:1 169:1 170:1 171:1 172:1 173:1 185:1 201:1 
-3 73:1 77:1 91:1 92:1 101:1 102:1 103:1 104:1 105:1 106:1 117:1 118:1 133:1 135:1 136:1 149:1 157:1 165:1 166:1 167:1 168:1 169:1 170:1 171:1 172:1 173:1 181:1 200:1 
-3 73:1 77:1 91:1 92:1 101:1 102:1 103:1 104:1 105:1 106:1 117:1 118:1 133:1 135:1 136:1 149:1 157:1 165:1 166:1 167:1 168:1 169:1 170:1 171:1 172:1 173:1 181:1 200:1 
