svm_type c_svc
kernel_type rbf
gamma 0.015625
nr_class 2
total_sv 33
rho -1.26293
label -1 1
nr_sv 28 5
SV
0.2623766472314292 70:1 77:1 78:1 86:1 91:1 92:1 93:1 102:1 103:1 104:1 105:1 106:1 107:1 108:1 118:1 134:1 150:1 166:1 167:1 168:1 169:1 170:1 171:1 172:1 173:1 182:1 198:1 
0.2150926900972499 70:1 77:1 86:1 92:1 93:1 102:1 106:1 107:1 108:1 118:1 119:1 120:1 121:1 122:1 134:1 150:1 166:1 167:1 168:1 169:1 170:1 171:1 172:1 173:1 182:1 198:1 
0.1254553374809286 70:1 86:1 89:1 92:1 102:1 103:1 104:1 105:1 107:1 117:1 118:1 121:1 125:1 134:1 135:1 136:1 137:1 138:1 139:1 140:1 141:1 150:1 153:1 166:1 169:1 171:1 182:1 185:1 187:1 188:1 198:1 204:1 
0.4251351050973166 70:1 73:1 74:1 77:1 86:1 87:1 88:1 89:1 90:1 91:1 92:1 101:1 102:1 103:1 106:1 107:1 109:1 117:1 118:1 122:1 126:1 134:1 135:1 136:1 137:1 138:1 139:1 140:1 141:1 150:1 154:1 166:1 170:1 171:1 182:1 186:1 187:1 188:1 198:1 202:1 205:1 
0.4925923315500232 86:1 87:1 89:1 92:1 102:1 103:1 104:1 105:1 107:1 108:1 117:1 118:1 119:1 121:1 125:1 133:1 134:1 135:1 136:1 137:1 138:1 139:1 140:1 141:1 150:1 151:1 152:1 153:1 166:1 167:1 169:1 171:1 182:1 183:1 185:1 187:1 188:1 204:1 
0.5826144124753263 70:1 86:1 89:1 92:1 102:1 104:1 105:1 107:1 118:1 119:1 121:1 122:1 125:1 133:1 134:1 136:1 137:1 138:1 139:1 140:1 141:1 150:1 153:1 166:1 169:1 182:1 185:1 187:1 198:1 204:1 
0.03854537916426066 73:1 74:1 76:1 86:1 88:1 89:1 91:1 92:1 102:1 103:1 104:1 106:1 107:1 118:1 121:1 122:1 133:1 134:1 135:1 136:1 137:1 138:1 139:1 140:1 141:1 149:1 152:1 153:1 154:1 165:1 167:1 168:1 170:1 171:1 181:1 183:1 187:1 188:1 204:1 
0.1773695959493022 70:1 74:1 86:1 87:1 88:1 90:1 91:1 102:1 103:1 104:1 106:1 107:1 118:1 120:1 122:1 123:1 125:1 133:1 134:1 135:1 136:1 137:1 138:1 139:1 140:1 141:1 150:1 152:1 154:1 155:1 166:1 167:1 168:1 170:1 171:1 182:1 183:1 184:1 185:1 186:1 187:1 188:1 198:1 202:1 
0.3658727786846414 70:1 77:1 86:1 88:1 89:1 93:1 102:1 103:1 104:1 105:1 108:1 109:1 118:1 121:1 122:1 123:1 124:1 133:1 134:1 139:1 140:1 150:1 154:1 156:1 166:1 167:1 168:1 169:1 172:1 173:1 182:1 184:1 189:1 198:1 199:1 205:1 
0.07330691464462635 70:1 74:1 75:1 76:1 77:1 86:1 89:1 102:1 103:1 105:1 118:1 120:1 121:1 133:1 134:1 137:1 150:1 152:1 153:1 166:1 167:1 168:1 169:1 182:1 185:1 198:1 201:1 
0.06610622482173174 76:1 77:1 86:1 89:1 90:1 91:1 92:1 102:1 103:1 118:1 119:1 120:1 133:1 134:1 150:1 166:1 167:1 168:1 182:1 183:1 198:1 201:1 
0.2976720967849605 70:1 74:1 86:1 87:1 90:1 102:1 103:1 106:1 117:1 118:1 119:1 122:1 125:1 133:1 134:1 135:1 138:1 139:1 140:1 141:1 150:1 151:1 154:1 155:1 166:1 167:1 170:1 182:1 183:1 186:1 198:1 
0.3461539277110918 70:1 86:1 87:1 88:1 89:1 90:1 102:1 105:1 106:1 118:1 119:1 122:1 133:1 134:1 137:1 138:1 150:1 151:1 152:1 153:1 154:1 166:1 167:1 170:1 171:1 172:1 182:1 184:1 188:1 189:1 198:1 200:1 205:1 
0.2326912276068392 70:1 75:1 86:1 87:1 88:1 90:1 91:1 102:1 103:1 107:1 117:1 118:1 119:1 123:1 125:1 133:1 134:1 135:1 139:1 140:1 141:1 150:1 151:1 154:1 155:1 166:1 167:1 168:1 171:1 182:1 187:1 203:1 
0.2666802265441396 70:1 74:1 76:1 86:1 87:1 88:1 89:1 90:1 92:1 102:1 103:1 106:1 108:1 110:1 117:1 118:1 119:1 122:1 124:1 126:1 133:1 134:1 135:1 138:1 139:1 140:1 141:1 150:1 151:1 154:1 155:1 156:1 166:1 167:1 170:1 171:1 172:1 182:1 183:1 184:1 185:1 186:1 188:1 198:1 204:1 
0.166983579861249 70:1 75:1 86:1 87:1 88:1 89:1 91:1 102:1 103:1 104:1 105:1 107:1 118:1 119:1 120:1 121:1 123:1 125:1 133:1 134:1 135:1 136:1 137:1 139:1 140:1 141:1 150:1 151:1 152:1 153:1 154:1 155:1 166:1 167:1 168:1 169:1 170:1 171:1 182:1 183:1 184:1 185:1 186:1 187:1 198:1 203:1 
0.2618681445639064 70:1 75:1 86:1 91:1 102:1 103:1 104:1 107:1 118:1 119:1 123:1 125:1 133:1 134:1 135:1 138:1 139:1 140:1 141:1 150:1 151:1 154:1 155:1 166:1 167:1 168:1 169:1 170:1 171:1 182:1 183:1 185:1 187:1 198:1 203:1 
2.970017803463577 70:1 86:1 87:1 89:1 90:1 92:1 102:1 104:1 105:1 106:1 107:1 118:1 125:1 133:1 134:1 138:1 139:1 140:1 141:1 149:1 150:1 166:1 170:1 171:1 182:1 183:1 185:1 186:1 187:1 188:1 198:1 
0.9665549958805719 70:1 77:1 86:1 88:1 89:1 90:1 92:1 102:1 104:1 106:1 108:1 117:1 118:1 120:1 122:1 126:1 133:1 134:1 136:1 138:1 139:1 140:1 141:1 150:1 152:1 154:1 166:1 168:1 170:1 172:1 182:1 184:1 185:1 186:1 188:1 198:1 205:1 
1.425067425417031 70:1 86:1 92:1 102:1 104:1 105:1 106:1 107:1 108:1 118:1 122:1 125:1 133:1 134:1 138:1 139:1 140:1 141:1 150:1 154:1 166:1 170:1 171:1 182:1 184:1 185:1 186:1 187:1 188:1 198:1 
2.558031125272467 70:1 77:1 86:1 92:1 102:1 104:1 105:1 106:1 107:1 108:1 118:1 123:1 125:1 133:1 134:1 138:1 139:1 140:1 141:1 150:1 166:1 168:1 169:1 170:1 171:1 182:1 185:1 186:1 188:1 198:1 
0.2973155560286964 70:1 86:1 87:1 88:1 89:1 90:1 92:1 93:1 102:1 103:1 105:1 106:1 108:1 109:1 118:1 119:1 121:1 122:1 124:1 125:1 133:1 134:1 135:1 137:1 138:1 140:1 141:1 150:1 151:1 153:1 154:1 156:1 157:1 166:1 167:1 169:1 170:1 172:1 173:1 182:1 183:1 184:1 185:1 186:1 188:1 189:1 198:1 
0.5129236174486118 70:1 86:1 90:1 91:1 92:1 93:1 102:1 103:1 104:1 106:1 107:1 109:1 118:1 119:1 122:1 123:1 125:1 133:1 134:1 135:1 138:1 139:1 141:1 150:1 151:1 154:1 155:1 157:1 166:1 167:1 168:1 170:1 171:1 173:1 182:1 183:1 184:1 186:1 187:1 188:1 189:1 198:1 
0.4877202447697673 72:1 77:1 86:1 88:1 90:1 92:1 102:1 103:1 104:1 106:1 107:1 108:1 117:1 118:1 120:1 122:1 125:1 133:1 134:1 136:1 137:1 138:1 139:1 140:1 141:1 150:1 152:1 154:1 166:1 167:1 168:1 170:1 171:1 172:1 182:1 184:1 186:1 188:1 200:1 
0.1913724478803075 70:1 77:1 86:1 87:1 92:1 93:1 102:1 103:1 104:1 108:1 110:1 118:1 126:1 133:1 134:1 137:1 138:1 139:1 140:1 141:1 142:1 150:1 152:1 166:1 167:1 168:1 172:1 182:1 188:1 189:1 198:1 205:1 
0.4757439820203324 76:1 77:1 89:1 90:1 91:1 101:1 102:1 103:1 104:1 105:1 122:1 125:1 139:1 140:1 153:1 154:1 155:1 165:1 166:1 167:1 168:1 169:1 170:1 187:1 188:1 204:1 205:1 
0.2983784566524398 72:1 77:1 88:1 90:1 92:1 103:1 104:1 106:1 107:1 118:1 120:1 122:1 125:1 133:1 136:1 138:1 139:1 140:1 141:1 150:1 152:1 154:1 167:1 168:1 170:1 171:1 172:1 183:1 184:1 186:1 188:1 200:1 
0.4203577248971752 73:1 77:1 86:1 88:1 89:1 92:1 102:1 103:1 104:1 107:1 108:1 118:1 121:1 122:1 133:1 134:1 135:1 136:1 137:1 138:1 139:1 140:1 141:1 150:1 153:1 154:1 155:1 166:1 167:1 168:1 171:1 172:1 182:1 183:1 184:1 188:1 198:1 201:1 205:1 
-3 70:1 86:1 87:1 89:1 90:1 92:1 102:1 103:1 104:1 105:1 106:1 107:1 118:1 125:1 133:1 134:1 138:1 139:1 140:1 141:1 149:1 150:1 166:1 167:1 170:1 171:1 182:1 183:1 185:1 186:1 187:1 188:1 198:1 
-3 70:1 77:1 86:1 88:1 89:1 90:1 91:1 92:1 102:1 104:1 105:1 108:1 109:1 117:1 118:1 120:1 121:1 126:1 133:1 134:1 136:1 137:1 139:1 140:1 141:1 150:1 152:1 153:1 166:1 168:1 169:1 172:1 182:1 184:1 185:1 186:1 187:1 188:1 198:1 205:1 
-3 70:1 86:1 87:1 88:1 89:1 90:1 92:1 102:1 103:1 106:1 107:1 108:1 118:1 119:1 122:1 123:1 125:1 133:1 134:1 135:1 138:1 139:1 140:1 141:1 150:1 151:1 154:1 166:1 167:1 170:1 171:1 182:1 183:1 184:1 185:1 186:1 187:1 188:1 198:1 204:1 
-3 70:1 77:1 86:1 92:1 102:1 104:1 105:1 106:1 107:1 118:1 122:1 125:1 133:1 134:1 138:1 139:1 140:1 141:1 150:1 154:1 166:1 167:1 168:1 169:1 170:1 171:1 182:1 188:1 198:1 
-3 70:1 77:1 86:1 92:1 102:1 104:1 105:1 106:1 107:1 118:1 122:1 125:1 133:1 134:1 138:1 139:1 140:1 141:1 150:1 154:1 166:1 167:1 168:1 169:1 170:1 171:1 182:1 188:1 198:1 
