svm_type c_svc
kernel_type rbf
gamma 0.015625
nr_class 2
total_sv 33
rho -1.35825
label -1 1
nr_sv 28 5
SV
0.00846777747413059 71:1 76:1 77:1 87:1 92:1 103:1 107:1 108:1 109:1 117:1 119:1 122:1 123:1 125:1 133:1 134:1 135:1 138:1 141:1 151:1 153:1 154:1 157:1 167:1 168:1 173:1 183:1 184:1 189:1 205:1 
0.2354529871591922 73:1 76:1 77:1 86:1 87:1 88:1 89:1 91:1 92:1 102:1 105:1 107:1 109:1 118:1 121:1 126:1 134:1 135:1 136:1 137:1 138:1 139:1 140:1 141:1 150:1 153:1 169:1 171:1 181:1 185:1 187:1 188:1 201:1 204:1 205:1 
0.19756044936367 69:1 74:1 76:1 85:1 89:1 91:1 92:1 104:1 106:1 107:1 117:1 119:1 121:1 133:1 134:1 135:1 136:1 137:1 138:1 139:1 140:1 141:1 149:1 152:1 153:1 165:1 167:1 170:1 171:1 181:1 182:1 183:1 187:1 188:1 204:1 
0.9857388059751437 77:1 85:1 87:1 90:1 92:1 101:1 103:1 104:1 105:1 106:1 107:1 108:1 117:1 119:1 122:1 123:1 133:1 134:1 135:1 136:1 137:1 138:1 139:1 140:1 141:1 149:1 151:1 154:1 155:1 165:1 167:1 170:1 172:1 181:1 183:1 186:1 188:1 200:1 205:1 
0.05534056608199973 86:1 87:1 88:1 89:1 90:1 91:1 92:1 102:1 104:1 108:1 109:1 120:1 125:1 133:1 134:1 135:1 136:1 137:1 138:1 139:1 141:1 157:1 167:1 171:1 173:1 183:1 184:1 185:1 186:1 187:1 189:1 203:1 204:1 
0.1297293586966004 73:1 76:1 87:1 89:1 91:1 92:1 101:1 102:1 106:1 108:1 119:1 120:1 123:1 124:1 140:1 149:1 150:1 151:1 152:1 153:1 154:1 155:1 156:1 173:1 189:1 203:1 204:1 205:1 
0.5378428322794053 69:1 85:1 88:1 89:1 90:1 93:1 101:1 102:1 103:1 104:1 109:1 117:1 118:1 123:1 125:1 134:1 139:1 141:1 150:1 155:1 157:1 166:1 171:1 173:1 182:1 187:1 189:1 203:1 204:1 205:1 
0.2807164572132606 74:1 85:1 86:1 87:1 88:1 89:1 90:1 92:1 93:1 101:1 102:1 105:1 106:1 107:1 108:1 109:1 117:1 118:1 121:1 122:1 123:1 125:1 133:1 134:1 137:1 138:1 139:1 141:1 149:1 150:1 153:1 154:1 155:1 157:1 165:1 166:1 167:1 169:1 170:1 173:1 181:1 185:1 186:1 189:1 204:1 205:1 
0.2481596293792977 69:1 72:1 74:1 77:1 85:1 87:1 88:1 89:1 90:1 92:1 93:1 101:1 102:1 103:1 106:1 108:1 117:1 119:1 122:1 123:1 124:1 133:1 135:1 138:1 139:1 149:1 151:1 154:1 155:1 165:1 167:1 170:1 173:1 181:1 183:1 184:1 185:1 189:1 197:1 204:1 205:1 
0.9039278240440811 72:1 90:1 91:1 92:1 93:1 102:1 103:1 104:1 105:1 117:1 138:1 141:1 165:1 173:1 189:1 203:1 204:1 205:1 
1.254086594492978 70:1 75:1 87:1 88:1 90:1 91:1 101:1 102:1 103:1 106:1 107:1 108:1 109:1 119:1 122:1 123:1 134:1 135:1 138:1 139:1 149:1 150:1 151:1 152:1 153:1 154:1 155:1 156:1 173:1 189:1 203:1 204:1 205:1 
1.812317613300056 69:1 71:1 73:1 77:1 85:1 87:1 88:1 90:1 91:1 101:1 102:1 103:1 104:1 105:1 106:1 107:1 108:1 117:1 119:1 120:1 121:1 122:1 123:1 124:1 133:1 134:1 135:1 138:1 141:1 149:1 165:1 166:1 167:1 168:1 169:1 170:1 171:1 172:1 173:1 189:1 204:1 205:1 
0.624017809389092 70:1 73:1 74:1 75:1 76:1 77:1 78:1 85:1 88:1 89:1 90:1 91:1 92:1 93:1 101:1 102:1 104:1 105:1 106:1 107:1 108:1 109:1 117:1 120:1 121:1 122:1 123:1 124:1 125:1 126:1 133:1 134:1 135:1 136:1 137:1 142:1 149:1 153:1 154:1 155:1 156:1 157:1 165:1 166:1 167:1 168:1 169:1 170:1 171:1 172:1 173:1 189:1 203:1 204:1 205:1 
1.58024228828226 69:1 73:1 74:1 75:1 76:1 77:1 85:1 86:1 87:1 90:1 91:1 93:1 101:1 102:1 103:1 104:1 105:1 106:1 108:1 117:1 119:1 121:1 122:1 123:1 124:1 125:1 133:1 134:1 135:1 137:1 138:1 139:1 140:1 141:1 165:1 173:1 189:1 204:1 205:1 
0.6936566003445815 71:1 74:1 77:1 86:1 88:1 91:1 92:1 101:1 102:1 103:1 104:1 106:1 107:1 117:1 118:1 119:1 136:1 139:1 165:1 173:1 189:1 203:1 204:1 205:1 
1.298514993478064 70:1 72:1 77:1 87:1 88:1 89:1 90:1 91:1 92:1 93:1 101:1 102:1 103:1 104:1 105:1 106:1 107:1 109:1 119:1 120:1 121:1 122:1 123:1 124:1 125:1 134:1 136:1 173:1 189:1 204:1 205:1 
0.06545072935831911 70:1 71:1 77:1 92:1 93:1 104:1 105:1 106:1 107:1 108:1 117:1 120:1 133:1 134:1 136:1 152:1 153:1 154:1 155:1 156:1 157:1 173:1 189:1 198:1 199:1 204:1 
0.05560891305296328 70:1 73:1 76:1 86:1 88:1 89:1 91:1 92:1 94:1 102:1 104:1 105:1 107:1 109:1 117:1 118:1 119:1 121:1 122:1 125:1 133:1 134:1 137:1 138:1 140:1 150:1 152:1 153:1 155:1 156:1 166:1 168:1 170:1 171:1 172:1 173:1 182:1 185:1 186:1 189:1 198:1 205:1 206:1 
0.0662343320169983 70:1 77:1 86:1 88:1 89:1 90:1 91:1 92:1 102:1 104:1 105:1 108:1 109:1 117:1 118:1 120:1 121:1 126:1 133:1 134:1 136:1 137:1 139:1 140:1 141:1 150:1 152:1 153:1 166:1 168:1 169:1 172:1 182:1 184:1 185:1 186:1 187:1 188:1 198:1 205:1 
0.3397007119639341 69:1 72:1 73:1 77:1 85:1 88:1 89:1 92:1 93:1 101:1 102:1 103:1 104:1 105:1 108:1 109:1 117:1 118:1 120:1 121:1 123:1 124:1 133:1 134:1 136:1 137:1 138:1 140:1 149:1 150:1 152:1 153:1 156:1 165:1 166:1 167:1 168:1 169:1 172:1 173:1 181:1 184:1 185:1 189:1 197:1 200:1 201:1 205:1 
0.002614995462225692 73:1 87:1 88:1 89:1 90:1 91:1 92:1 93:1 101:1 102:1 108:1 109:1 117:1 118:1 134:1 150:1 151:1 152:1 153:1 154:1 155:1 156:1 166:1 182:1 198:1 
1.401149740852195 73:1 87:1 88:1 89:1 90:1 91:1 92:1 93:1 101:1 102:1 119:1 120:1 133:1 134:1 139:1 140:1 141:1 149:1 154:1 157:1 168:1 169:1 173:1 182:1 189:1 203:1 204:1 205:1 
0.2716098205911316 73:1 87:1 88:1 89:1 90:1 91:1 92:1 93:1 101:1 102:1 105:1 109:1 120:1 133:1 134:1 137:1 138:1 139:1 166:1 167:1 171:1 172:1 173:1 184:1 185:1 186:1 200:1 
0.5981205287693754 72:1 86:1 87:1 88:1 89:1 90:1 91:1 92:1 93:1 101:1 109:1 124:1 133:1 134:1 135:1 136:1 137:1 138:1 149:1 165:1 173:1 182:1 189:1 203:1 204:1 205:1 
0.4104806121268757 72:1 87:1 88:1 89:1 90:1 91:1 92:1 93:1 101:1 102:1 109:1 119:1 122:1 136:1 137:1 138:1 139:1 140:1 141:1 149:1 150:1 151:1 153:1 169:1 185:1 199:1 201:1 202:1 203:1 204:1 205:1 
0.1593992512308559 87:1 88:1 89:1 90:1 91:1 92:1 93:1 101:1 102:1 118:1 119:1 136:1 137:1 138:1 139:1 140:1 141:1 149:1 154:1 157:1 169:1 173:1 185:1 189:1 198:1 203:1 204:1 205:1 
0.163929687435124 73:1 87:1 88:1 89:1 90:1 91:1 92:1 93:1 101:1 102:1 119:1 133:1 134:1 136:1 139:1 149:1 152:1 155:1 168:1 169:1 170:1 171:1 173:1 189:1 199:1 200:1 
0.6199280901861886 72:1 86:1 87:1 88:1 89:1 90:1 91:1 92:1 93:1 101:1 102:1 109:1 117:1 119:1 121:1 123:1 125:1 133:1 141:1 149:1 157:1 165:1 173:1 181:1 189:1 201:1 205:1 
-3 69:1 74:1 77:1 85:1 87:1 88:1 89:1 90:1 91:1 92:1 93:1 101:1 102:1 104:1 105:1 106:1 107:1 108:1 109:1 117:1 119:1 122:1 123:1 133:1 134:1 138:1 140:1 141:1 149:1 173:1 189:1 204:1 205:1 
-3 69:1 70:1 73:1 75:1 76:1 77:1 85:1 87:1 88:1 89:1 90:1 91:1 92:1 94:1 101:1 102:1 103:1 104:1 105:1 107:1 108:1 109:1 117:1 121:1 133:1 134:1 135:1 136:1 138:1 139:1 140:1 141:1 155:1 157:1 165:1 166:1 167:1 168:1 169:1 170:1 171:1 172:1 173:1 203:1 204:1 205:1 
-3 69:1 73:1 74:1 76:1 77:1 85:1 87:1 88:1 90:1 91:1 92:1 93:1 101:1 102:1 103:1 105:1 106:1 107:1 108:1 109:1 117:1 119:1 120:1 122:1 123:1 124:1 133:1 134:1 138:1 140:1 149:1 150:1 151:1 152:1 153:1 154:1 155:1 156:1 173:1 189:1 204:1 205:1 
-3 77:1 87:1 88:1 89:1 90:1 91:1 92:1 101:1 102:1 104:1 105:1 109:1 117:1 119:1 123:1 133:1 134:1 136:1 138:1 139:1 141:1 149:1 165:1 173:1 189:1 203:1 204:1 205:1 
-3 77:1 87:1 88:1 89:1 90:1 91:1 92:1 101:1 102:1 104:1 105:1 109:1 117:1 119:1 123:1 133:1 134:1 136:1 138:1 139:1 141:1 149:1 165:1 173:1 189:1 203:1 204:1 205:1 
