svm_type c_svc
kernel_type rbf
gamma 0.015625
nr_class 2
total_sv 29
rho -1.50587
label -1 1
nr_sv 24 5
SV
0.8974309242853027 73:1 89:1 105:1 121:1 137:1 153:1 169:1 185:1 201:1 
1.028159277178308 73:1 89:1 105:1 117:1 118:1 119:1 120:1 121:1 122:1 123:1 124:1 125:1 136:1 141:1 152:1 157:1 168:1 173:1 184:1 189:1 199:1 204:1 205:1 
0.3953146045391764 70:1 77:1 86:1 89:1 93:1 102:1 105:1 109:1 118:1 121:1 125:1 134:1 137:1 141:1 150:1 153:1 157:1 166:1 169:1 173:1 182:1 185:1 189:1 198:1 205:1 
2.534997164724376 86:1 89:1 102:1 105:1 118:1 121:1 134:1 137:1 150:1 153:1 166:1 169:1 182:1 185:1 198:1 204:1 
1.07184088690726 77:1 86:1 93:1 102:1 103:1 104:1 105:1 106:1 107:1 108:1 109:1 118:1 125:1 141:1 149:1 157:1 165:1 173:1 181:1 184:1 189:1 200:1 205:1 
1.531180344611342 73:1 86:1 89:1 93:1 102:1 105:1 108:1 109:1 121:1 122:1 123:1 125:1 134:1 135:1 136:1 137:1 141:1 153:1 157:1 165:1 169:1 171:1 172:1 181:1 185:1 188:1 189:1 201:1 205:1 
0.3828318741950711 69:1 85:1 101:1 106:1 107:1 117:1 118:1 119:1 120:1 121:1 122:1 133:1 138:1 139:1 140:1 149:1 150:1 151:1 152:1 153:1 154:1 165:1 170:1 173:1 181:1 189:1 197:1 200:1 201:1 202:1 203:1 204:1 205:1 
0.316542464416499 78:1 85:1 86:1 93:1 102:1 107:1 108:1 120:1 121:1 122:1 123:1 133:1 134:1 135:1 136:1 141:1 153:1 154:1 157:1 171:1 173:1 189:1 200:1 201:1 202:1 203:1 204:1 205:1 
1.209549500297486 73:1 86:1 87:1 89:1 102:1 103:1 104:1 105:1 118:1 121:1 125:1 134:1 135:1 136:1 137:1 138:1 139:1 140:1 141:1 149:1 153:1 165:1 167:1 168:1 169:1 181:1 183:1 185:1 201:1 
0.7189834324362299 77:1 86:1 92:1 102:1 107:1 108:1 118:1 119:1 123:1 124:1 135:1 136:1 138:1 141:1 149:1 153:1 154:1 157:1 165:1 169:1 173:1 181:1 189:1 205:1 
0.03594041786074419 76:1 86:1 87:1 88:1 89:1 91:1 92:1 102:1 105:1 106:1 107:1 121:1 125:1 135:1 136:1 137:1 138:1 139:1 140:1 141:1 149:1 153:1 165:1 169:1 170:1 171:1 181:1 185:1 187:1 188:1 201:1 204:1 
0.1247423530905877 86:1 89:1 92:1 93:1 103:1 104:1 105:1 107:1 109:1 121:1 123:1 125:1 133:1 137:1 138:1 141:1 149:1 152:1 153:1 154:1 157:1 165:1 166:1 167:1 169:1 173:1 181:1 182:1 185:1 189:1 204:1 205:1 
0.9970059803166815 73:1 74:1 75:1 76:1 77:1 89:1 92:1 101:1 102:1 103:1 104:1 105:1 108:1 119:1 121:1 124:1 135:1 137:1 138:1 140:1 141:1 173:1 189:1 204:1 205:1 
0.2023108991238798 89:1 92:1 101:1 102:1 103:1 104:1 105:1 108:1 119:1 121:1 124:1 135:1 137:1 165:1 173:1 189:1 203:1 204:1 205:1 
0.2180400550280104 70:1 72:1 86:1 88:1 90:1 102:1 103:1 104:1 105:1 106:1 117:1 120:1 122:1 133:1 136:1 138:1 141:1 173:1 189:1 204:1 205:1 
0.1823670016091284 75:1 87:1 91:1 102:1 103:1 109:1 117:1 120:1 121:1 133:1 134:1 135:1 136:1 149:1 165:1 173:1 189:1 203:1 204:1 205:1 
0.01513700534340251 70:1 73:1 75:1 86:1 87:1 88:1 89:1 91:1 101:1 102:1 105:1 106:1 107:1 108:1 109:1 118:1 119:1 120:1 121:1 123:1 134:1 137:1 139:1 149:1 150:1 151:1 152:1 153:1 154:1 155:1 156:1 157:1 173:1 189:1 204:1 205:1 
0.271503307061902 70:1 73:1 86:1 89:1 102:1 105:1 109:1 110:1 118:1 121:1 126:1 134:1 135:1 136:1 137:1 138:1 139:1 140:1 141:1 150:1 153:1 166:1 169:1 182:1 185:1 198:1 201:1 
0.612607718192547 72:1 85:1 101:1 105:1 106:1 117:1 133:1 141:1 149:1 157:1 165:1 172:1 181:1 186:1 187:1 188:1 200:1 
0.5517558485286708 72:1 73:1 86:1 87:1 88:1 89:1 90:1 91:1 92:1 93:1 94:1 101:1 102:1 119:1 120:1 121:1 122:1 123:1 124:1 125:1 141:1 157:1 173:1 189:1 199:1 200:1 201:1 202:1 203:1 204:1 205:1 206:1 
0.6495229748796307 72:1 73:1 86:1 87:1 88:1 89:1 90:1 91:1 92:1 93:1 101:1 102:1 109:1 118:1 121:1 134:1 137:1 150:1 151:1 152:1 153:1 154:1 155:1 156:1 157:1 165:1 173:1 181:1 184:1 189:1 200:1 204:1 205:1 
0.8442502276630868 73:1 87:1 88:1 89:1 90:1 91:1 92:1 93:1 101:1 102:1 119:1 120:1 133:1 134:1 139:1 140:1 141:1 149:1 154:1 157:1 168:1 169:1 173:1 182:1 189:1 203:1 204:1 205:1 
0.06936177430485341 72:1 73:1 86:1 87:1 88:1 89:1 90:1 91:1 92:1 93:1 101:1 102:1 120:1 134:1 135:1 136:1 137:1 138:1 139:1 140:1 141:1 149:1 150:1 154:1 157:1 166:1 167:1 169:1 170:1 173:1 183:1 184:1 185:1 189:1 200:1 204:1 205:1 
0.1386239634058235 73:1 87:1 88:1 93:1 101:1 102:1 108:1 109:1 119:1 125:1 141:1 149:1 153:1 157:1 165:1 169:1 173:1 189:1 200:1 205:1 
-3 73:1 74:1 86:1 89:1 102:1 105:1 121:1 134:1 135:1 136:1 137:1 138:1 139:1 140:1 141:1 149:1 153:1 157:1 165:1 169:1 173:1 181:1 185:1 189:1 201:1 204:1 
-3 70:1 73:1 74:1 86:1 89:1 90:1 102:1 105:1 106:1 118:1 121:1 134:1 137:1 141:1 150:1 153:1 166:1 169:1 182:1 185:1 189:1 198:1 201:1 203:1 204:1 205:1 
-3 73:1 86:1 89:1 102:1 105:1 118:1 119:1 120:1 121:1 122:1 123:1 124:1 134:1 137:1 140:1 141:1 149:1 153:1 157:1 165:1 169:1 173:1 181:1 189:1 200:1 203:1 204:1 205:1 
-3 73:1 86:1 89:1 102:1 105:1 121:1 141:1 149:1 157:1 165:1 173:1 181:1 189:1 200:1 204:1 205:1 
-3 73:1 86:1 89:1 102:1 105:1 121:1 141:1 149:1 157:1 165:1 173:1 181:1 189:1 200:1 204:1 205:1 
