svm_type c_svc
kernel_type rbf
gamma 0.015625
nr_class 2
total_sv 31
rho -1.28264
label -1 1
nr_sv 26 5
SV
0.1341715910098369 69:1 74:1 75:1 85:1 89:1 90:1 101:1 105:1 117:1 120:1 133:1 134:1 135:1 136:1 137:1 138:1 139:1 140:1 141:1 149:1 152:1 165:1 168:1 169:1 181:1 185:1 186:1 197:1 202:1 
0.2298913973186546 77:1 101:1 102:1 103:1 104:1 105:1 106:1 107:1 108:1 165:1 166:1 167:1 168:1 169:1 170:1 171:1 172:1 
0.4745134269786222 72:1 73:1 74:1 75:1 76:1 77:1 78:1 105:1 106:1 107:1 108:1 123:1 124:1 134:1 135:1 136:1 137:1 138:1 139:1 140:1 155:1 156:1 169:1 170:1 171:1 172:1 174:1 190:1 200:1 201:1 202:1 203:1 204:1 205:1 
0.018271844518947 74:1 75:1 85:1 89:1 91:1 102:1 103:1 104:1 107:1 123:1 134:1 136:1 137:1 138:1 139:1 140:1 141:1 155:1 166:1 168:1 169:1 171:1 181:1 185:1 187:1 199:1 202:1 203:1 
0.5244349485836453 71:1 73:1 74:1 85:1 87:1 89:1 93:1 101:1 103:1 105:1 108:1 109:1 117:1 119:1 120:1 121:1 133:1 135:1 149:1 151:1 152:1 165:1 167:1 168:1 169:1 170:1 173:1 181:1 183:1 185:1 199:1 201:1 202:1 
0.1604250578517018 71:1 75:1 85:1 87:1 89:1 91:1 101:1 103:1 105:1 107:1 117:1 119:1 133:1 134:1 135:1 136:1 137:1 138:1 139:1 140:1 141:1 149:1 151:1 165:1 167:1 168:1 169:1 170:1 171:1 172:1 181:1 183:1 185:1 188:1 199:1 201:1 203:1 204:1 
0.9109127727492602 72:1 88:1 101:1 102:1 103:1 104:1 105:1 106:1 107:1 108:1 135:1 141:1 151:1 154:1 157:1 167:1 168:1 169:1 170:1 203:1 204:1 
0.4681734158813036 71:1 72:1 73:1 74:1 75:1 76:1 77:1 93:1 101:1 102:1 103:1 104:1 105:1 106:1 107:1 108:1 109:1 119:1 120:1 121:1 122:1 123:1 124:1 125:1 149:1 150:1 151:1 152:1 153:1 154:1 155:1 156:1 157:1 203:1 204:1 205:1 
0.7936385913152835 71:1 72:1 73:1 74:1 75:1 76:1 92:1 101:1 102:1 103:1 104:1 105:1 106:1 107:1 108:1 124:1 149:1 150:1 151:1 152:1 153:1 154:1 155:1 156:1 157:1 173:1 189:1 204:1 205:1 
0.2682994416343251 70:1 72:1 73:1 74:1 87:1 88:1 89:1 92:1 93:1 101:1 102:1 103:1 105:1 107:1 108:1 109:1 120:1 121:1 123:1 125:1 134:1 137:1 141:1 149:1 150:1 151:1 152:1 153:1 154:1 157:1 168:1 169:1 173:1 184:1 185:1 189:1 197:1 200:1 203:1 204:1 
1.254334807232513 69:1 70:1 71:1 72:1 75:1 76:1 85:1 88:1 91:1 94:1 101:1 102:1 103:1 104:1 106:1 107:1 108:1 109:1 117:1 120:1 121:1 122:1 123:1 133:1 134:1 135:1 136:1 137:1 139:1 173:1 203:1 204:1 205:1 
1.706833700215681 70:1 73:1 75:1 86:1 87:1 101:1 102:1 104:1 105:1 106:1 107:1 108:1 109:1 118:1 119:1 120:1 134:1 135:1 137:1 149:1 173:1 189:1 204:1 205:1 
0.5448709637007103 70:1 71:1 72:1 73:1 74:1 75:1 76:1 86:1 87:1 88:1 90:1 91:1 92:1 101:1 102:1 103:1 104:1 106:1 107:1 108:1 109:1 110:1 118:1 119:1 120:1 121:1 122:1 123:1 124:1 136:1 150:1 151:1 156:1 157:1 166:1 170:1 171:1 182:1 185:1 186:1 198:1 201:1 204:1 205:1 
0.01451609451038694 70:1 72:1 74:1 76:1 86:1 87:1 88:1 90:1 92:1 102:1 103:1 104:1 106:1 108:1 109:1 118:1 120:1 122:1 124:1 126:1 133:1 134:1 135:1 136:1 137:1 138:1 139:1 140:1 141:1 150:1 152:1 154:1 156:1 166:1 167:1 168:1 170:1 172:1 182:1 183:1 184:1 186:1 188:1 198:1 202:1 
0.0775631671880006 72:1 73:1 74:1 75:1 77:1 88:1 91:1 93:1 104:1 105:1 106:1 107:1 108:1 109:1 124:1 125:1 135:1 136:1 137:1 138:1 139:1 140:1 141:1 151:1 155:1 156:1 157:1 166:1 168:1 169:1 170:1 171:1 173:1 182:1 184:1 185:1 186:1 189:1 200:1 203:1 204:1 205:1 
0.3276509836746269 71:1 73:1 74:1 75:1 77:1 78:1 87:1 93:1 103:1 107:1 108:1 119:1 120:1 121:1 122:1 125:1 133:1 134:1 135:1 141:1 151:1 157:1 167:1 183:1 184:1 185:1 199:1 201:1 202:1 203:1 
1.910217288863136 70:1 74:1 75:1 76:1 77:1 86:1 89:1 102:1 103:1 105:1 118:1 120:1 121:1 133:1 134:1 137:1 150:1 152:1 153:1 166:1 167:1 168:1 169:1 182:1 185:1 198:1 201:1 
0.4842546029023837 70:1 77:1 86:1 92:1 102:1 104:1 105:1 106:1 107:1 108:1 118:1 123:1 125:1 133:1 134:1 138:1 139:1 140:1 141:1 150:1 166:1 168:1 169:1 170:1 171:1 182:1 185:1 186:1 188:1 198:1 
0.1228075853641529 70:1 73:1 74:1 77:1 86:1 89:1 93:1 102:1 103:1 104:1 105:1 109:1 118:1 119:1 120:1 121:1 123:1 133:1 134:1 135:1 136:1 137:1 149:1 150:1 151:1 152:1 153:1 166:1 167:1 168:1 169:1 173:1 182:1 185:1 189:1 201:1 202:1 204:1 205:1 
0.3633868910115771 70:1 71:1 90:1 92:1 102:1 103:1 104:1 105:1 106:1 107:1 108:1 119:1 120:1 122:1 125:1 133:1 136:1 137:1 138:1 140:1 149:1 152:1 153:1 155:1 167:1 169:1 171:1 172:1 183:1 184:1 185:1 186:1 189:1 198:1 201:1 205:1 
0.207088352592596 70:1 73:1 76:1 87:1 88:1 89:1 92:1 93:1 101:1 103:1 104:1 105:1 106:1 107:1 108:1 109:1 118:1 119:1 120:1 121:1 123:1 134:1 135:1 136:1 137:1 139:1 149:1 152:1 153:1 155:1 166:1 167:1 168:1 169:1 170:1 171:1 172:1 173:1 181:1 182:1 184:1 187:1 198:1 199:1 200:1 201:1 202:1 203:1 
0.153034739171226 69:1 70:1 71:1 72:1 73:1 74:1 75:1 76:1 77:1 91:1 93:1 107:1 109:1 121:1 122:1 125:1 133:1 134:1 135:1 136:1 141:1 149:1 151:1 152:1 153:1 157:1 169:1 170:1 173:1 186:1 187:1 189:1 203:1 205:1 
0.487976970559281 73:1 74:1 88:1 101:1 102:1 103:1 104:1 105:1 106:1 107:1 108:1 109:1 117:1 149:1 150:1 151:1 152:1 153:1 154:1 155:1 156:1 157:1 168:1 184:1 201:1 202:1 
0.06108661198556879 69:1 70:1 71:1 72:1 73:1 74:1 75:1 76:1 77:1 92:1 107:1 108:1 117:1 118:1 123:1 125:1 126:1 135:1 141:1 156:1 157:1 170:1 171:1 172:1 181:1 182:1 183:1 184:1 185:1 186:1 187:1 188:1 205:1 
0.3024411969731824 72:1 87:1 88:1 93:1 101:1 102:1 103:1 104:1 105:1 106:1 107:1 108:1 109:1 120:1 122:1 134:1 135:1 138:1 151:1 154:1 165:1 166:1 167:1 168:1 169:1 170:1 171:1 172:1 173:1 183:1 186:1 199:1 202:1 
0.03410325092346486 70:1 73:1 74:1 77:1 86:1 88:1 89:1 92:1 102:1 103:1 104:1 105:1 107:1 108:1 118:1 121:1 122:1 123:1 133:1 134:1 135:1 136:1 137:1 138:1 139:1 140:1 141:1 142:1 150:1 153:1 154:1 155:1 166:1 168:1 169:1 171:1 172:1 182:1 183:1 184:1 185:1 188:1 198:1 201:1 202:1 205:1 
-2.780689695838062 70:1 71:1 72:1 73:1 74:1 75:1 76:1 101:1 102:1 103:1 104:1 105:1 106:1 107:1 108:1 109:1 119:1 120:1 133:1 134:1 137:1 141:1 150:1 151:1 153:1 166:1 167:1 168:1 169:1 182:1 185:1 198:1 201:1 202:1 203:1 204:1 205:1 
-1.680863828541784 70:1 71:1 72:1 73:1 74:1 75:1 76:1 77:1 101:1 102:1 103:1 104:1 105:1 106:1 107:1 108:1 109:1 110:1 119:1 120:1 133:1 134:1 135:1 137:1 141:1 149:1 150:1 153:1 157:1 166:1 168:1 169:1 170:1 171:1 172:1 173:1 182:1 184:1 185:1 189:1 198:1 201:1 202:1 203:1 204:1 205:1 206:1 
-1.659537658874887 70:1 71:1 72:1 73:1 74:1 75:1 76:1 101:1 102:1 103:1 104:1 105:1 106:1 107:1 108:1 109:1 120:1 134:1 135:1 137:1 138:1 139:1 140:1 141:1 149:1 150:1 153:1 156:1 166:1 168:1 169:1 170:1 171:1 172:1 182:1 184:1 185:1 188:1 198:1 199:1 201:1 202:1 203:1 204:1 205:1 
-2.913808511455337 70:1 71:1 72:1 73:1 74:1 75:1 76:1 101:1 102:1 103:1 104:1 105:1 106:1 107:1 108:1 109:1 120:1 133:1 134:1 135:1 149:1 168:1 169:1 185:1 
-3 70:1 71:1 72:1 73:1 74:1 75:1 76:1 101:1 102:1 103:1 104:1 105:1 106:1 107:1 108:1 109:1 120:1 133:1 134:1 135:1 149:1 168:1 169:1 185:1 
