svm_type c_svc
kernel_type rbf
gamma 0.015625
nr_class 2
total_sv 39
rho -1.05924
label -1 1
nr_sv 34 5
SV
0.2241341284223036 31:1 37:1 38:1 47:1 48:1 53:1 54:1 63:1 64:1 69:1 70:1 72:1 73:1 78:1 79:1 85:1 86:1 88:1 89:1 90:1 94:1 95:1 101:1 102:1 106:1 107:1 108:1 109:1 110:1 117:1 118:1 123:1 124:1 125:1 126:1 133:1 134:1 136:1 137:1 138:1 139:1 140:1 141:1 146:1 147:1 148:1 149:1 150:1 151:1 152:1 153:1 154:1 155:1 157:1 158:1 162:1 163:1 164:1 165:1 166:1 174:1 181:1 182:1 190:1 191:1 197:1 198:1 206:1 207:1 213:1 214:1 222:1 223:1 229:1 230:1 238:1 239:1 240:1 
0.02059015293181492 20:1 32:1 36:1 47:1 52:1 62:1 68:1 75:1 76:1 77:1 84:1 86:1 87:1 88:1 89:1 90:1 91:1 92:1 100:1 101:1 102:1 103:1 104:1 105:1 106:1 116:1 132:1 148:1 164:1 165:1 166:1 167:1 168:1 169:1 170:1 171:1 172:1 173:1 174:1 175:1 176:1 180:1 181:1 182:1 183:1 184:1 185:1 186:1 187:1 188:1 189:1 190:1 191:1 196:1 212:1 227:1 228:1 244:1 
0.08120581974509852 27:1 28:1 43:1 44:1 60:1 66:1 67:1 68:1 69:1 70:1 71:1 72:1 73:1 76:1 82:1 83:1 84:1 85:1 86:1 87:1 88:1 89:1 92:1 101:1 104:1 108:1 117:1 120:1 124:1 133:1 136:1 140:1 143:1 144:1 149:1 152:1 156:1 159:1 160:1 165:1 168:1 171:1 172:1 175:1 176:1 181:1 184:1 187:1 188:1 191:1 192:1 197:1 200:1 203:1 204:1 205:1 206:1 207:1 213:1 216:1 217:1 218:1 219:1 220:1 221:1 222:1 229:1 
0.05537203411816567 29:1 30:1 31:1 44:1 45:1 47:1 59:1 60:1 63:1 66:1 67:1 68:1 69:1 70:1 71:1 72:1 73:1 74:1 79:1 83:1 84:1 85:1 86:1 87:1 88:1 89:1 95:1 104:1 105:1 106:1 109:1 111:1 122:1 123:1 124:1 125:1 127:1 139:1 140:1 141:1 143:1 154:1 155:1 156:1 159:1 162:1 163:1 164:1 165:1 166:1 167:1 168:1 169:1 170:1 175:1 178:1 179:1 180:1 181:1 182:1 183:1 184:1 185:1 191:1 201:1 202:1 203:1 207:1 219:1 220:1 221:1 223:1 236:1 237:1 239:1 253:1 254:1 255:1 
0.2458579377706699 25:1 26:1 35:1 41:1 42:1 51:1 54:1 57:1 58:1 62:1 67:1 70:1 73:1 74:1 77:1 78:1 79:1 83:1 86:1 89:1 90:1 92:1 93:1 94:1 95:1 99:1 102:1 105:1 106:1 107:1 108:1 109:1 110:1 111:1 115:1 118:1 121:1 122:1 123:1 126:1 127:1 131:1 132:1 133:1 134:1 135:1 136:1 137:1 138:1 142:1 143:1 147:1 150:1 153:1 154:1 158:1 163:1 166:1 169:1 170:1 172:1 174:1 179:1 182:1 185:1 186:1 187:1 188:1 189:1 190:1 195:1 198:1 201:1 202:1 205:1 206:1 207:1 211:1 214:1 217:1 218:1 222:1 223:1 224:1 233:1 234:1 239:1 249:1 250:1 
0.08403312303248593 42:1 51:1 67:1 70:1 78:1 79:1 83:1 86:1 93:1 94:1 95:1 99:1 102:1 108:1 109:1 111:1 115:1 118:1 122:1 123:1 124:1 127:1 131:1 132:1 133:1 134:1 135:1 136:1 137:1 142:1 143:1 147:1 150:1 158:1 159:1 163:1 166:1 174:1 179:1 182:1 188:1 189:1 190:1 194:1 195:1 197:1 198:1 205:1 206:1 210:1 211:1 214:1 217:1 222:1 223:1 224:1 227:1 233:1 238:1 239:1 
0.05763289983608216 27:1 31:1 32:1 38:1 39:1 43:1 44:1 47:1 48:1 55:1 59:1 60:1 63:1 71:1 75:1 79:1 83:1 84:1 87:1 91:1 93:1 95:1 99:1 100:1 101:1 102:1 103:1 104:1 105:1 106:1 107:1 108:1 109:1 111:1 115:1 127:1 143:1 147:1 148:1 149:1 150:1 151:1 152:1 153:1 154:1 155:1 156:1 159:1 163:1 164:1 165:1 166:1 167:1 168:1 169:1 170:1 171:1 172:1 173:1 175:1 183:1 189:1 191:1 198:1 199:1 205:1 207:1 214:1 215:1 221:1 223:1 229:1 230:1 235:1 236:1 237:1 239:1 251:1 252:1 255:1 256:1 
0.2292855920090647 39:1 43:1 44:1 47:1 59:1 63:1 98:1 99:1 100:1 101:1 102:1 103:1 104:1 105:1 106:1 107:1 108:1 109:1 115:1 124:1 125:1 162:1 163:1 164:1 165:1 166:1 167:1 168:1 169:1 170:1 171:1 172:1 173:1 179:1 183:1 188:1 189:1 198:1 204:1 205:1 213:1 214:1 220:1 221:1 222:1 229:1 234:1 235:1 236:1 237:1 238:1 252:1 
0.1753667495271953 19:1 20:1 35:1 38:1 39:1 47:1 51:1 54:1 55:1 56:1 57:1 58:1 59:1 60:1 61:1 62:1 63:1 67:1 70:1 72:1 73:1 76:1 77:1 83:1 86:1 88:1 89:1 90:1 91:1 92:1 93:1 99:1 102:1 108:1 115:1 118:1 124:1 131:1 132:1 133:1 134:1 135:1 136:1 137:1 138:1 139:1 140:1 147:1 150:1 156:1 163:1 166:1 168:1 172:1 173:1 179:1 182:1 184:1 185:1 186:1 187:1 188:1 189:1 191:1 192:1 195:1 198:1 199:1 200:1 201:1 202:1 203:1 204:1 205:1 206:1 207:1 211:1 214:1 215:1 216:1 217:1 218:1 219:1 220:1 221:1 222:1 223:1 227:1 230:1 243:1 244:1 
0.2794094368179539 19:1 20:1 35:1 36:1 38:1 39:1 40:1 41:1 42:1 43:1 44:1 45:1 46:1 47:1 51:1 52:1 54:1 55:1 56:1 57:1 58:1 59:1 60:1 61:1 62:1 63:1 67:1 68:1 70:1 83:1 84:1 86:1 88:1 89:1 90:1 91:1 92:1 93:1 99:1 100:1 102:1 104:1 105:1 106:1 108:1 109:1 115:1 116:1 118:1 124:1 125:1 131:1 132:1 133:1 134:1 135:1 136:1 137:1 138:1 139:1 140:1 141:1 147:1 148:1 150:1 156:1 163:1 164:1 166:1 172:1 179:1 180:1 182:1 184:1 185:1 186:1 187:1 188:1 189:1 195:1 196:1 198:1 206:1 207:1 211:1 212:1 214:1 222:1 223:1 227:1 228:1 230:1 231:1 232:1 233:1 234:1 235:1 236:1 237:1 238:1 239:1 243:1 244:1 
0.210336237058509 19:1 35:1 51:1 54:1 55:1 56:1 57:1 58:1 59:1 60:1 61:1 62:1 63:1 67:1 70:1 83:1 86:1 88:1 89:1 90:1 91:1 92:1 99:1 102:1 104:1 108:1 115:1 118:1 124:1 131:1 132:1 133:1 134:1 135:1 136:1 137:1 138:1 139:1 140:1 147:1 150:1 156:1 163:1 166:1 172:1 174:1 179:1 182:1 184:1 185:1 186:1 187:1 188:1 189:1 190:1 195:1 198:1 206:1 207:1 208:1 211:1 213:1 214:1 215:1 216:1 217:1 218:1 219:1 220:1 221:1 222:1 223:1 226:1 227:1 230:1 231:1 232:1 233:1 234:1 235:1 236:1 237:1 238:1 243:1 
0.05294775088262722 25:1 26:1 41:1 42:1 51:1 52:1 54:1 55:1 57:1 58:1 62:1 67:1 68:1 70:1 71:1 73:1 74:1 77:1 78:1 79:1 83:1 84:1 86:1 87:1 89:1 90:1 92:1 93:1 94:1 95:1 99:1 100:1 102:1 103:1 105:1 106:1 107:1 108:1 109:1 110:1 111:1 115:1 116:1 118:1 119:1 121:1 122:1 123:1 124:1 126:1 127:1 131:1 132:1 133:1 134:1 135:1 136:1 137:1 138:1 142:1 143:1 147:1 148:1 150:1 151:1 153:1 154:1 158:1 159:1 163:1 164:1 166:1 167:1 169:1 170:1 172:1 174:1 175:1 179:1 180:1 182:1 183:1 185:1 186:1 187:1 188:1 189:1 190:1 195:1 198:1 199:1 201:1 202:1 205:1 206:1 210:1 211:1 214:1 215:1 217:1 218:1 222:1 223:1 224:1 233:1 234:1 239:1 249:1 250:1 
0.247220858390725 26:1 42:1 52:1 54:1 62:1 63:1 68:1 70:1 78:1 79:1 83:1 84:1 86:1 93:1 94:1 95:1 99:1 102:1 107:1 108:1 109:1 110:1 111:1 115:1 118:1 122:1 123:1 124:1 126:1 127:1 131:1 132:1 133:1 134:1 135:1 136:1 137:1 138:1 142:1 147:1 150:1 158:1 163:1 166:1 174:1 178:1 179:1 182:1 188:1 189:1 190:1 194:1 195:1 197:1 198:1 205:1 206:1 214:1 217:1 222:1 223:1 224:1 233:1 239:1 
0.05850742774764076 69:1 85:1 87:1 88:1 89:1 90:1 91:1 92:1 93:1 101:1 103:1 106:1 107:1 117:1 118:1 119:1 120:1 121:1 133:1 135:1 137:1 138:1 139:1 149:1 151:1 152:1 153:1 154:1 165:1 167:1 170:1 173:1 181:1 183:1 189:1 197:1 
0.3246491529866947 22:1 23:1 24:1 25:1 26:1 27:1 28:1 29:1 38:1 42:1 43:1 54:1 56:1 57:1 58:1 69:1 70:1 71:1 73:1 75:1 86:1 89:1 90:1 91:1 101:1 102:1 103:1 104:1 105:1 106:1 118:1 121:1 122:1 125:1 134:1 138:1 140:1 141:1 150:1 151:1 152:1 153:1 154:1 155:1 156:1 
0.02464004906319449 106:1 107:1 118:1 119:1 120:1 121:1 124:1 138:1 139:1 150:1 151:1 152:1 153:1 154:1 170:1 173:1 189:1 197:1 
0.02217701121113879 71:1 77:1 87:1 88:1 89:1 93:1 101:1 103:1 106:1 109:1 118:1 119:1 120:1 121:1 122:1 123:1 124:1 125:1 135:1 141:1 150:1 151:1 152:1 153:1 154:1 155:1 156:1 157:1 165:1 167:1 170:1 173:1 183:1 184:1 185:1 186:1 189:1 199:1 205:1 
0.8283366832606955 12:1 23:1 24:1 28:1 41:1 42:1 44:1 52:1 53:1 60:1 70:1 71:1 72:1 73:1 74:1 75:1 76:1 92:1 101:1 102:1 103:1 104:1 105:1 106:1 107:1 108:1 116:1 117:1 124:1 136:1 137:1 138:1 140:1 151:1 152:1 156:1 
0.4926753603306358 71:1 73:1 77:1 85:1 87:1 89:1 90:1 91:1 93:1 101:1 102:1 103:1 109:1 119:1 120:1 121:1 122:1 123:1 124:1 125:1 135:1 141:1 150:1 151:1 152:1 153:1 154:1 155:1 156:1 157:1 165:1 167:1 171:1 173:1 183:1 185:1 186:1 189:1 199:1 205:1 
0.03874542449940715 71:1 77:1 87:1 89:1 90:1 101:1 103:1 106:1 107:1 118:1 119:1 120:1 121:1 122:1 123:1 124:1 135:1 151:1 152:1 153:1 154:1 155:1 156:1 165:1 167:1 170:1 181:1 183:1 185:1 186:1 199:1 
1.040300137869912 86:1 91:1 102:1 103:1 104:1 105:1 106:1 107:1 138:1 154:1 165:1 166:1 167:1 168:1 169:1 170:1 171:1 172:1 173:1 
0.2806534901348625 73:1 88:1 103:1 104:1 118:1 119:1 133:1 134:1 136:1 137:1 138:1 139:1 140:1 141:1 150:1 151:1 167:1 184:1 200:1 201:1 
0.07586257920639267 8:1 24:1 39:1 54:1 55:1 69:1 84:1 85:1 88:1 89:1 90:1 91:1 92:1 93:1 101:1 102:1 118:1 119:1 135:1 136:1 152:1 
0.1189376893190397 53:1 58:1 59:1 70:1 71:1 73:1 74:1 89:1 100:1 101:1 102:1 103:1 104:1 105:1 106:1 107:1 108:1 109:1 
0.2703665787312389 87:1 88:1 89:1 90:1 106:1 122:1 133:1 134:1 135:1 136:1 137:1 138:1 139:1 140:1 141:1 154:1 170:1 183:1 184:1 185:1 186:1 
0.231263066036568 22:1 23:1 24:1 25:1 26:1 38:1 41:1 54:1 57:1 70:1 73:1 84:1 85:1 86:1 87:1 88:1 89:1 90:1 91:1 92:1 93:1 102:1 105:1 118:1 121:1 134:1 137:1 150:1 151:1 152:1 153:1 154:1 
0.6655751653113364 69:1 72:1 74:1 85:1 88:1 90:1 101:1 104:1 106:1 117:1 118:1 119:1 120:1 121:1 122:1 123:1 124:1 125:1 133:1 136:1 138:1 149:1 152:1 154:1 165:1 166:1 167:1 168:1 169:1 170:1 171:1 172:1 188:1 189:1 204:1 205:1 
0.6202289554352106 76:1 88:1 90:1 92:1 106:1 108:1 119:1 121:1 123:1 124:1 133:1 134:1 135:1 136:1 137:1 138:1 139:1 140:1 141:1 150:1 152:1 155:1 165:1 168:1 170:1 181:1 183:1 185:1 186:1 201:1 
0.4361602655640195 38:1 39:1 41:1 43:1 44:1 54:1 57:1 59:1 70:1 72:1 75:1 84:1 85:1 86:1 87:1 88:1 89:1 90:1 91:1 92:1 93:1 101:1 104:1 106:1 116:1 117:1 119:1 121:1 122:1 134:1 135:1 137:1 152:1 153:1 
1.066089630478881 72:1 76:1 87:1 89:1 90:1 92:1 103:1 105:1 107:1 108:1 119:1 121:1 123:1 133:1 134:1 135:1 136:1 137:1 138:1 139:1 140:1 141:1 150:1 152:1 155:1 166:1 168:1 170:1 181:1 183:1 184:1 186:1 201:1 
0.01438015218360914 86:1 88:1 133:1 134:1 135:1 136:1 137:1 138:1 139:1 140:1 141:1 182:1 184:1 
0.3281898281093494 10:1 26:1 40:1 42:1 56:1 58:1 72:1 74:1 84:1 85:1 86:1 87:1 88:1 89:1 90:1 91:1 92:1 93:1 104:1 106:1 120:1 122:1 136:1 138:1 154:1 
0.8275674238085463 70:1 71:1 75:1 86:1 87:1 88:1 91:1 102:1 103:1 107:1 118:1 119:1 123:1 133:1 134:1 135:1 136:1 137:1 138:1 139:1 140:1 141:1 150:1 151:1 155:1 166:1 167:1 168:1 171:1 182:1 183:1 184:1 187:1 203:1 
0.4243694771492819 133:1 134:1 135:1 136:1 137:1 138:1 139:1 140:1 141:1 182:1 
-1.315576353545461 70:1 73:1 86:1 87:1 89:1 93:1 102:1 104:1 105:1 106:1 107:1 108:1 109:1 118:1 121:1 124:1 133:1 134:1 135:1 136:1 137:1 138:1 139:1 150:1 152:1 153:1 155:1 156:1 166:1 167:1 169:1 170:1 172:1 182:1 185:1 186:1 189:1 201:1 205:1 
-3 8:1 21:1 24:1 37:1 38:1 40:1 41:1 42:1 43:1 44:1 45:1 53:1 54:1 55:1 56:1 60:1 69:1 72:1 76:1 84:1 85:1 86:1 87:1 88:1 89:1 90:1 91:1 92:1 101:1 104:1 106:1 107:1 117:1 119:1 120:1 122:1 123:1 124:1 133:1 134:1 136:1 137:1 138:1 140:1 149:1 152:1 156:1 
-2.296222234861622 70:1 73:1 86:1 87:1 89:1 90:1 91:1 92:1 93:1 102:1 104:1 105:1 109:1 118:1 121:1 124:1 133:1 134:1 135:1 136:1 137:1 138:1 139:1 150:1 153:1 155:1 156:1 166:1 167:1 168:1 169:1 170:1 171:1 172:1 182:1 183:1 185:1 186:1 188:1 189:1 198:1 201:1 205:1 
-0.6884542011534421 73:1 86:1 102:1 103:1 104:1 105:1 106:1 107:1 108:1 109:1 118:1 124:1 133:1 134:1 135:1 136:1 138:1 139:1 140:1 150:1 155:1 156:1 166:1 167:1 170:1 172:1 182:1 183:1 186:1 189:1 198:1 
-2.852815479419825 73:1 86:1 102:1 103:1 104:1 105:1 106:1 107:1 108:1 109:1 118:1 124:1 133:1 134:1 135:1 136:1 138:1 139:1 140:1 150:1 155:1 156:1 166:1 167:1 170:1 172:1 182:1 183:1 186:1 189:1 198:1 
