svm_type c_svc
kernel_type rbf
gamma 0.015625
nr_class 2
total_sv 35
rho -1.41594
label -1 1
nr_sv 30 5
SV
0.2058540026244169 69:1 85:1 101:1 103:1 104:1 117:1 118:1 119:1 120:1 133:1 136:1 149:1 152:1 157:1 165:1 168:1 171:1 172:1 173:1 181:1 184:1 185:1 186:1 187:1 188:1 197:1 
0.9739001020044925 75:1 101:1 102:1 103:1 104:1 105:1 173:1 185:1 186:1 187:1 188:1 189:1 
1.621825872142168 86:1 102:1 103:1 104:1 105:1 106:1 107:1 108:1 153:1 154:1 155:1 156:1 165:1 181:1 184:1 
0.2596326117740641 86:1 91:1 102:1 103:1 104:1 105:1 106:1 107:1 138:1 154:1 165:1 166:1 167:1 168:1 169:1 170:1 171:1 172:1 173:1 
0.02944704374280129 72:1 75:1 88:1 91:1 104:1 107:1 120:1 123:1 136:1 139:1 152:1 155:1 182:1 183:1 184:1 185:1 186:1 187:1 188:1 189:1 204:1 205:1 206:1 
0.2202052007067535 69:1 72:1 74:1 85:1 88:1 90:1 101:1 104:1 106:1 117:1 118:1 119:1 120:1 121:1 122:1 123:1 124:1 125:1 133:1 136:1 138:1 149:1 152:1 154:1 165:1 166:1 167:1 168:1 169:1 170:1 171:1 172:1 188:1 189:1 204:1 205:1 
0.2602130580714931 71:1 87:1 102:1 103:1 120:1 137:1 138:1 154:1 155:1 171:1 172:1 188:1 204:1 
0.4193111378059302 72:1 87:1 102:1 103:1 118:1 119:1 136:1 137:1 138:1 153:1 154:1 155:1 171:1 172:1 188:1 205:1 
0.005966435379104077 150:1 167:1 168:1 169:1 170:1 171:1 172:1 188:1 189:1 205:1 
0.601878566800972 69:1 85:1 150:1 151:1 152:1 153:1 169:1 170:1 171:1 172:1 188:1 189:1 205:1 
0.3853134358495612 75:1 86:1 87:1 88:1 89:1 90:1 91:1 102:1 106:1 107:1 117:1 118:1 122:1 123:1 134:1 136:1 138:1 139:1 150:1 152:1 154:1 155:1 166:1 167:1 168:1 170:1 171:1 173:1 186:1 188:1 189:1 202:1 203:1 
0.6178444441143545 75:1 78:1 86:1 87:1 88:1 89:1 90:1 91:1 93:1 102:1 104:1 107:1 109:1 118:1 120:1 123:1 124:1 136:1 139:1 152:1 155:1 165:1 168:1 169:1 170:1 171:1 181:1 184:1 187:1 200:1 203:1 
1.053029969510491 74:1 77:1 93:1 102:1 103:1 104:1 105:1 106:1 108:1 118:1 120:1 136:1 149:1 152:1 165:1 168:1 184:1 202:1 
0.5136871543056935 77:1 102:1 103:1 104:1 105:1 106:1 108:1 123:1 149:1 152:1 153:1 154:1 165:1 202:1 
3 77:1 102:1 103:1 104:1 105:1 106:1 108:1 123:1 149:1 152:1 153:1 154:1 165:1 202:1 
0.3791069459391337 72:1 87:1 88:1 101:1 102:1 104:1 119:1 120:1 136:1 149:1 150:1 151:1 152:1 153:1 154:1 155:1 156:1 173:1 189:1 203:1 204:1 205:1 
0.8793778305897197 74:1 77:1 85:1 88:1 90:1 93:1 102:1 103:1 104:1 105:1 106:1 109:1 119:1 121:1 122:1 124:1 138:1 139:1 150:1 151:1 152:1 153:1 154:1 155:1 156:1 170:1 172:1 182:1 183:1 186:1 188:1 189:1 198:1 202:1 205:1 
0.2059827485144108 74:1 88:1 90:1 93:1 102:1 104:1 105:1 106:1 109:1 119:1 122:1 124:1 136:1 137:1 138:1 139:1 150:1 151:1 152:1 154:1 155:1 170:1 172:1 182:1 186:1 188:1 202:1 
0.2405682371867445 72:1 85:1 101:1 105:1 106:1 117:1 133:1 141:1 149:1 157:1 165:1 172:1 181:1 186:1 187:1 188:1 200:1 
0.3968266555645342 72:1 88:1 90:1 103:1 104:1 105:1 106:1 118:1 119:1 120:1 122:1 136:1 138:1 141:1 142:1 152:1 154:1 158:1 168:1 170:1 173:1 184:1 186:1 187:1 188:1 189:1 200:1 
0.209039948931748 73:1 74:1 76:1 90:1 103:1 104:1 106:1 122:1 123:1 133:1 138:1 139:1 140:1 141:1 154:1 155:1 157:1 167:1 168:1 170:1 171:1 173:1 187:1 189:1 201:1 202:1 
0.2806083462256894 70:1 71:1 90:1 92:1 102:1 103:1 104:1 105:1 106:1 107:1 108:1 119:1 120:1 122:1 125:1 133:1 136:1 137:1 138:1 140:1 149:1 152:1 153:1 155:1 167:1 169:1 171:1 172:1 183:1 184:1 185:1 186:1 189:1 198:1 201:1 205:1 
0.2014504336814445 76:1 77:1 89:1 90:1 91:1 101:1 102:1 103:1 104:1 105:1 122:1 125:1 139:1 140:1 153:1 154:1 155:1 165:1 166:1 167:1 168:1 169:1 170:1 187:1 188:1 204:1 205:1 
0.004290213972294406 72:1 73:1 86:1 87:1 88:1 89:1 90:1 91:1 92:1 93:1 94:1 101:1 102:1 104:1 120:1 133:1 136:1 149:1 150:1 151:1 152:1 153:1 154:1 155:1 168:1 171:1 172:1 173:1 182:1 184:1 189:1 198:1 200:1 205:1 206:1 220:1 
0.2193562501899269 73:1 87:1 88:1 101:1 102:1 104:1 105:1 106:1 107:1 108:1 109:1 120:1 136:1 149:1 150:1 151:1 152:1 153:1 154:1 171:1 172:1 182:1 188:1 189:1 204:1 205:1 
0.6212632479764857 72:1 73:1 86:1 87:1 88:1 89:1 90:1 91:1 92:1 93:1 94:1 101:1 102:1 104:1 110:1 120:1 125:1 136:1 139:1 140:1 149:1 150:1 151:1 152:1 153:1 154:1 155:1 168:1 170:1 171:1 172:1 181:1 182:1 184:1 188:1 189:1 200:1 205:1 206:1 
0.1984981026014913 73:1 86:1 87:1 88:1 89:1 90:1 91:1 92:1 93:1 101:1 102:1 120:1 125:1 133:1 134:1 135:1 140:1 152:1 153:1 154:1 155:1 165:1 170:1 172:1 182:1 184:1 185:1 189:1 203:1 204:1 205:1 
0.537590628024215 72:1 73:1 86:1 87:1 88:1 89:1 90:1 91:1 92:1 93:1 101:1 105:1 106:1 117:1 120:1 121:1 122:1 123:1 125:1 133:1 137:1 138:1 139:1 141:1 149:1 152:1 153:1 154:1 155:1 156:1 165:1 169:1 170:1 171:1 172:1 181:1 185:1 186:1 188:1 189:1 200:1 201:1 202:1 205:1 
0.06574858478868997 72:1 86:1 87:1 88:1 89:1 90:1 91:1 92:1 93:1 101:1 117:1 120:1 122:1 125:1 133:1 136:1 138:1 140:1 149:1 152:1 153:1 154:1 155:1 156:1 165:1 168:1 170:1 173:1 181:1 184:1 186:1 189:1 197:1 198:1 199:1 200:1 202:1 203:1 204:1 
0.392182790981177 73:1 87:1 101:1 102:1 103:1 109:1 120:1 121:1 122:1 133:1 134:1 136:1 139:1 151:1 152:1 153:1 154:1 155:1 156:1 157:1 166:1 168:1 172:1 181:1 184:1 188:1 201:1 202:1 203:1 204:1 
-3 74:1 90:1 101:1 102:1 103:1 104:1 105:1 106:1 122:1 133:1 138:1 149:1 152:1 153:1 154:1 155:1 165:1 170:1 172:1 181:1 186:1 188:1 189:1 202:1 205:1 
-3 75:1 86:1 87:1 88:1 89:1 90:1 91:1 102:1 104:1 107:1 118:1 120:1 123:1 136:1 139:1 152:1 155:1 156:1 165:1 168:1 169:1 170:1 171:1 173:1 181:1 184:1 187:1 189:1 200:1 203:1 206:1 
-3 74:1 102:1 103:1 104:1 105:1 106:1 120:1 136:1 149:1 152:1 153:1 154:1 155:1 165:1 168:1 172:1 184:1 188:1 189:1 202:1 205:1 
-3 102:1 103:1 104:1 105:1 106:1 149:1 152:1 153:1 154:1 155:1 165:1 172:1 188:1 189:1 202:1 
-3 102:1 103:1 104:1 105:1 106:1 149:1 152:1 153:1 154:1 155:1 165:1 172:1 188:1 189:1 202:1 
