svm_type c_svc
kernel_type rbf
gamma 0.015625
nr_class 2
total_sv 32
rho -1.55845
label -1 1
nr_sv 27 5
SV
0.03664623450940306 93:1 108:1 109:1 123:1 125:1 133:1 134:1 135:1 136:1 137:1 138:1 149:1 165:1 172:1 181:1 183:1 188:1 189:1 201:1 
0.07040686266610848 70:1 73:1 86:1 87:1 89:1 90:1 91:1 92:1 93:1 94:1 102:1 104:1 105:1 109:1 118:1 121:1 122:1 125:1 133:1 134:1 135:1 136:1 137:1 138:1 139:1 141:1 150:1 153:1 155:1 156:1 166:1 168:1 169:1 171:1 173:1 182:1 183:1 184:1 185:1 187:1 189:1 198:1 201:1 205:1 
2.257001259845075 87:1 88:1 89:1 90:1 106:1 122:1 133:1 134:1 135:1 136:1 137:1 138:1 139:1 140:1 141:1 154:1 170:1 183:1 184:1 185:1 186:1 
0.6627940347166967 86:1 87:1 88:1 89:1 90:1 91:1 92:1 102:1 104:1 108:1 109:1 120:1 125:1 133:1 134:1 135:1 136:1 137:1 138:1 139:1 141:1 157:1 167:1 171:1 173:1 183:1 184:1 185:1 186:1 187:1 189:1 203:1 204:1 
0.812756761531289 73:1 86:1 87:1 88:1 89:1 90:1 91:1 92:1 102:1 103:1 104:1 108:1 109:1 120:1 125:1 133:1 134:1 135:1 136:1 137:1 138:1 139:1 141:1 151:1 154:1 157:1 167:1 170:1 173:1 183:1 184:1 185:1 186:1 189:1 203:1 204:1 205:1 
0.04418296018788093 85:1 86:1 87:1 88:1 89:1 90:1 92:1 93:1 107:1 109:1 123:1 125:1 141:1 154:1 157:1 165:1 170:1 173:1 181:1 182:1 183:1 189:1 204:1 205:1 
1.198131184665936 74:1 90:1 92:1 93:1 102:1 103:1 106:1 108:1 109:1 117:1 121:1 122:1 123:1 125:1 133:1 134:1 135:1 136:1 137:1 138:1 139:1 141:1 149:1 154:1 157:1 165:1 166:1 167:1 170:1 173:1 181:1 182:1 186:1 189:1 199:1 204:1 205:1 
0.6780298514980732 69:1 74:1 86:1 87:1 88:1 89:1 90:1 92:1 93:1 102:1 106:1 108:1 109:1 118:1 121:1 122:1 123:1 125:1 133:1 136:1 138:1 139:1 141:1 151:1 154:1 157:1 168:1 170:1 173:1 182:1 185:1 186:1 189:1 201:1 204:1 205:1 
0.2099528002442483 70:1 87:1 89:1 90:1 92:1 93:1 101:1 102:1 103:1 104:1 105:1 106:1 108:1 109:1 118:1 119:1 121:1 122:1 123:1 125:1 133:1 134:1 135:1 136:1 138:1 139:1 141:1 149:1 154:1 157:1 165:1 167:1 168:1 169:1 170:1 173:1 181:1 185:1 186:1 189:1 197:1 198:1 199:1 203:1 204:1 
0.6551444483870998 70:1 72:1 73:1 74:1 77:1 85:1 86:1 87:1 88:1 89:1 90:1 92:1 93:1 102:1 103:1 106:1 108:1 109:1 118:1 119:1 121:1 122:1 123:1 124:1 125:1 134:1 135:1 136:1 138:1 139:1 141:1 150:1 151:1 154:1 155:1 157:1 167:1 170:1 173:1 183:1 184:1 185:1 189:1 197:1 199:1 204:1 205:1 
0.1984613563502323 70:1 72:1 86:1 87:1 89:1 90:1 92:1 93:1 101:1 102:1 103:1 104:1 105:1 106:1 107:1 108:1 109:1 118:1 119:1 121:1 122:1 123:1 125:1 134:1 135:1 136:1 138:1 139:1 141:1 151:1 154:1 157:1 165:1 167:1 170:1 173:1 181:1 183:1 184:1 185:1 186:1 189:1 199:1 204:1 205:1 
0.5252328725869668 70:1 72:1 74:1 86:1 89:1 90:1 92:1 93:1 101:1 102:1 103:1 104:1 105:1 106:1 108:1 109:1 118:1 119:1 121:1 122:1 123:1 125:1 133:1 134:1 135:1 136:1 138:1 139:1 141:1 154:1 157:1 165:1 170:1 173:1 181:1 189:1 204:1 205:1 
0.4326045291797696 70:1 72:1 74:1 85:1 87:1 88:1 89:1 90:1 92:1 93:1 101:1 103:1 106:1 108:1 109:1 119:1 121:1 122:1 123:1 125:1 134:1 137:1 138:1 139:1 141:1 149:1 150:1 151:1 152:1 154:1 157:1 168:1 170:1 173:1 182:1 184:1 186:1 189:1 198:1 199:1 204:1 205:1 
0.08317656146796333 73:1 74:1 85:1 86:1 87:1 88:1 90:1 92:1 93:1 101:1 106:1 108:1 109:1 117:1 122:1 123:1 125:1 133:1 136:1 137:1 138:1 139:1 141:1 149:1 150:1 151:1 152:1 154:1 157:1 165:1 167:1 170:1 173:1 181:1 183:1 184:1 185:1 189:1 197:1 199:1 205:1 
0.558124581643393 70:1 73:1 86:1 87:1 88:1 90:1 92:1 93:1 101:1 103:1 105:1 106:1 108:1 109:1 119:1 120:1 122:1 123:1 125:1 135:1 138:1 139:1 141:1 150:1 151:1 154:1 157:1 165:1 167:1 169:1 170:1 173:1 182:1 184:1 185:1 186:1 189:1 199:1 204:1 205:1 
0.3165366970336043 70:1 85:1 87:1 88:1 90:1 92:1 93:1 103:1 106:1 107:1 108:1 109:1 118:1 119:1 122:1 123:1 125:1 134:1 135:1 138:1 139:1 141:1 149:1 150:1 151:1 152:1 154:1 155:1 157:1 166:1 167:1 170:1 173:1 182:1 183:1 186:1 189:1 198:1 201:1 204:1 205:1 
0.9146978793247459 70:1 72:1 85:1 88:1 90:1 92:1 93:1 104:1 105:1 106:1 108:1 109:1 119:1 120:1 121:1 122:1 123:1 125:1 133:1 135:1 136:1 137:1 138:1 139:1 141:1 150:1 152:1 153:1 154:1 157:1 165:1 166:1 167:1 168:1 169:1 170:1 173:1 181:1 183:1 185:1 186:1 189:1 198:1 203:1 204:1 
0.4336157871292392 71:1 88:1 92:1 93:1 104:1 105:1 106:1 108:1 109:1 123:1 125:1 133:1 134:1 135:1 139:1 141:1 151:1 155:1 157:1 166:1 170:1 173:1 181:1 185:1 186:1 189:1 198:1 204:1 205:1 
0.5025102637970681 77:1 86:1 87:1 88:1 90:1 93:1 104:1 106:1 109:1 120:1 122:1 125:1 133:1 134:1 135:1 136:1 138:1 141:1 152:1 154:1 157:1 168:1 170:1 173:1 182:1 183:1 184:1 186:1 189:1 205:1 
0.442957968937668 70:1 74:1 75:1 78:1 86:1 87:1 88:1 89:1 90:1 93:1 102:1 103:1 106:1 107:1 108:1 109:1 118:1 119:1 122:1 123:1 133:1 134:1 135:1 138:1 139:1 150:1 151:1 154:1 155:1 166:1 167:1 170:1 171:1 172:1 173:1 182:1 183:1 184:1 185:1 186:1 198:1 202:1 203:1 205:1 
0.2463637872158774 70:1 86:1 87:1 88:1 89:1 90:1 92:1 93:1 102:1 103:1 105:1 106:1 108:1 109:1 118:1 119:1 121:1 122:1 124:1 125:1 133:1 134:1 135:1 137:1 138:1 140:1 141:1 150:1 151:1 153:1 154:1 156:1 157:1 166:1 167:1 169:1 170:1 172:1 173:1 182:1 183:1 184:1 185:1 186:1 188:1 189:1 198:1 
0.6769198510040613 70:1 77:1 87:1 88:1 89:1 90:1 91:1 92:1 93:1 105:1 106:1 107:1 108:1 109:1 117:1 120:1 121:1 122:1 123:1 124:1 125:1 133:1 136:1 137:1 138:1 139:1 140:1 141:1 152:1 153:1 154:1 155:1 156:1 157:1 169:1 170:1 171:1 172:1 173:1 183:1 184:1 185:1 186:1 187:1 188:1 189:1 198:1 205:1 
1.35200420587303 70:1 77:1 87:1 88:1 89:1 93:1 105:1 106:1 107:1 108:1 109:1 121:1 123:1 125:1 133:1 137:1 139:1 141:1 152:1 153:1 155:1 157:1 169:1 170:1 171:1 172:1 173:1 182:1 183:1 184:1 185:1 189:1 205:1 
0.2569767107308609 72:1 73:1 86:1 87:1 88:1 89:1 90:1 91:1 92:1 93:1 94:1 101:1 109:1 110:1 123:1 124:1 125:1 133:1 134:1 135:1 136:1 137:1 138:1 139:1 165:1 173:1 182:1 203:1 204:1 205:1 
1.145525424713745 72:1 86:1 87:1 88:1 89:1 90:1 91:1 92:1 93:1 101:1 125:1 133:1 134:1 135:1 136:1 137:1 138:1 139:1 140:1 141:1 149:1 157:1 165:1 173:1 181:1 182:1 183:1 184:1 185:1 186:1 187:1 188:1 189:1 205:1 
0.2482428664538948 72:1 85:1 86:1 87:1 88:1 89:1 90:1 91:1 92:1 93:1 101:1 106:1 109:1 119:1 120:1 121:1 122:1 124:1 125:1 133:1 134:1 135:1 136:1 137:1 138:1 139:1 165:1 166:1 167:1 168:1 169:1 170:1 171:1 172:1 173:1 183:1 184:1 185:1 186:1 189:1 198:1 202:1 204:1 205:1 
0.04100225830606936 72:1 86:1 87:1 88:1 89:1 90:1 91:1 92:1 93:1 101:1 104:1 119:1 120:1 121:1 122:1 123:1 124:1 125:1 133:1 134:1 136:1 137:1 139:1 152:1 153:1 155:1 165:1 166:1 168:1 169:1 171:1 173:1 182:1 183:1 184:1 185:1 186:1 187:1 188:1 189:1 200:1 
-3 87:1 88:1 89:1 90:1 92:1 93:1 103:1 106:1 108:1 109:1 119:1 122:1 123:1 125:1 133:1 134:1 135:1 136:1 137:1 138:1 139:1 141:1 154:1 157:1 165:1 170:1 173:1 183:1 184:1 185:1 186:1 189:1 203:1 204:1 
-3 70:1 77:1 86:1 87:1 88:1 89:1 92:1 93:1 102:1 103:1 104:1 105:1 108:1 109:1 118:1 119:1 120:1 121:1 124:1 125:1 133:1 134:1 135:1 136:1 137:1 139:1 140:1 150:1 151:1 152:1 153:1 155:1 165:1 166:1 167:1 168:1 169:1 171:1 173:1 181:1 182:1 183:1 184:1 185:1 187:1 189:1 198:1 204:1 205:1 
-3 70:1 87:1 88:1 89:1 90:1 92:1 93:1 106:1 108:1 109:1 122:1 123:1 125:1 133:1 134:1 135:1 136:1 137:1 138:1 139:1 141:1 154:1 155:1 157:1 165:1 170:1 173:1 183:1 184:1 185:1 186:1 189:1 198:1 204:1 205:1 
-3 70:1 74:1 87:1 88:1 89:1 90:1 92:1 93:1 106:1 108:1 109:1 122:1 123:1 125:1 133:1 134:1 135:1 136:1 137:1 138:1 139:1 141:1 154:1 157:1 165:1 170:1 173:1 182:1 183:1 184:1 185:1 186:1 189:1 205:1 
-3 70:1 74:1 87:1 88:1 89:1 90:1 92:1 93:1 106:1 108:1 109:1 122:1 123:1 125:1 133:1 134:1 135:1 136:1 137:1 138:1 139:1 141:1 154:1 157:1 165:1 170:1 173:1 182:1 183:1 184:1 185:1 186:1 189:1 205:1 
