svm_type c_svc
kernel_type rbf
gamma 0.015625
nr_class 2
total_sv 35
rho -1.46803
label -1 1
nr_sv 30 5
SV
0.1461367247209761 200:1 
0.688240536003549 70:1 86:1 102:1 118:1 119:1 120:1 121:1 122:1 123:1 124:1 125:1 126:1 134:1 136:1 150:1 152:1 153:1 166:1 169:1 182:1 185:1 186:1 198:1 202:1 
0.02515279695194014 75:1 101:1 102:1 103:1 104:1 118:1 134:1 141:1 150:1 157:1 166:1 171:1 173:1 182:1 185:1 186:1 187:1 188:1 198:1 
0.5835611170573474 75:1 86:1 87:1 88:1 91:1 101:1 102:1 103:1 107:1 118:1 123:1 134:1 139:1 150:1 155:1 157:1 166:1 171:1 173:1 182:1 185:1 186:1 187:1 188:1 189:1 198:1 
0.2132541511841596 119:1 120:1 121:1 122:1 123:1 124:1 182:1 183:1 184:1 185:1 186:1 187:1 188:1 
0.05315793083047578 88:1 105:1 106:1 119:1 120:1 121:1 122:1 123:1 124:1 125:1 169:1 170:1 189:1 197:1 
0.8468470903340605 87:1 102:1 120:1 138:1 155:1 171:1 172:1 188:1 204:1 
0.4621650673489028 87:1 103:1 105:1 119:1 122:1 135:1 151:1 154:1 167:1 169:1 182:1 183:1 184:1 
0.6481346967003338 117:1 118:1 119:1 120:1 121:1 122:1 123:1 124:1 125:1 141:1 189:1 203:1 204:1 205:1 
0.7063611099669888 70:1 86:1 102:1 118:1 134:1 150:1 166:1 168:1 182:1 183:1 184:1 198:1 
0.3766843779769313 70:1 86:1 102:1 118:1 134:1 150:1 166:1 182:1 183:1 184:1 198:1 199:1 
0.1013802271039602 73:1 74:1 87:1 89:1 103:1 105:1 117:1 118:1 119:1 120:1 121:1 122:1 123:1 124:1 125:1 135:1 137:1 151:1 153:1 165:1 167:1 168:1 169:1 172:1 181:1 182:1 185:1 186:1 187:1 188:1 198:1 201:1 
1.796895891458177 87:1 102:1 103:1 117:1 118:1 125:1 134:1 136:1 137:1 138:1 139:1 140:1 141:1 150:1 166:1 182:1 184:1 198:1 
1.178811922688388 72:1 87:1 88:1 101:1 102:1 103:1 117:1 118:1 125:1 134:1 136:1 137:1 138:1 139:1 140:1 141:1 150:1 166:1 182:1 183:1 184:1 198:1 199:1 
1.429853056534705 87:1 182:1 188:1 204:1 
0.05132925487853349 70:1 86:1 102:1 103:1 104:1 118:1 125:1 133:1 134:1 139:1 140:1 141:1 150:1 155:1 166:1 167:1 168:1 170:1 182:1 185:1 198:1 
0.067718927035419 70:1 75:1 86:1 87:1 88:1 90:1 91:1 102:1 103:1 107:1 117:1 118:1 119:1 123:1 125:1 133:1 134:1 135:1 139:1 140:1 141:1 150:1 151:1 154:1 155:1 166:1 167:1 168:1 171:1 182:1 187:1 203:1 
0.09391548146803649 73:1 87:1 88:1 93:1 102:1 104:1 105:1 106:1 107:1 108:1 109:1 117:1 157:1 167:1 168:1 169:1 170:1 171:1 172:1 198:1 
0.314286442578138 73:1 87:1 88:1 93:1 101:1 102:1 103:1 117:1 120:1 121:1 125:1 135:1 141:1 149:1 154:1 156:1 165:1 171:1 172:1 182:1 183:1 186:1 187:1 200:1 201:1 
0.1637938026040556 73:1 87:1 88:1 93:1 101:1 102:1 103:1 109:1 117:1 120:1 125:1 139:1 140:1 149:1 150:1 151:1 152:1 153:1 154:1 169:1 170:1 171:1 182:1 187:1 188:1 205:1 
0.08729612489006787 73:1 87:1 88:1 93:1 101:1 102:1 103:1 104:1 108:1 109:1 117:1 125:1 134:1 139:1 153:1 154:1 187:1 200:1 204:1 205:1 
0.04008473785224508 72:1 86:1 87:1 88:1 89:1 90:1 91:1 92:1 93:1 101:1 118:1 120:1 121:1 123:1 133:1 134:1 135:1 137:1 139:1 149:1 150:1 151:1 153:1 155:1 166:1 169:1 171:1 182:1 185:1 187:1 198:1 201:1 203:1 
1.467611611515119 72:1 73:1 74:1 86:1 87:1 88:1 89:1 90:1 91:1 92:1 93:1 94:1 101:1 102:1 118:1 119:1 123:1 135:1 139:1 155:1 171:1 183:1 187:1 198:1 199:1 203:1 
0.1735014971684908 73:1 87:1 88:1 89:1 90:1 91:1 92:1 93:1 101:1 102:1 118:1 119:1 120:1 121:1 122:1 123:1 124:1 125:1 134:1 137:1 150:1 153:1 166:1 169:1 182:1 185:1 198:1 
0.9718230535204245 73:1 87:1 88:1 93:1 101:1 102:1 103:1 109:1 117:1 121:1 122:1 123:1 124:1 125:1 149:1 150:1 151:1 152:1 153:1 199:1 
0.01391847404098152 72:1 87:1 89:1 91:1 102:1 103:1 105:1 107:1 117:1 118:1 121:1 122:1 123:1 124:1 125:1 133:1 137:1 139:1 150:1 153:1 154:1 155:1 156:1 157:1 166:1 167:1 169:1 171:1 174:1 183:1 185:1 187:1 189:1 190:1 200:1 
1.184927137043745 72:1 73:1 86:1 87:1 88:1 89:1 90:1 91:1 92:1 93:1 101:1 102:1 107:1 117:1 119:1 120:1 121:1 122:1 123:1 124:1 125:1 135:1 137:1 139:1 151:1 153:1 155:1 167:1 169:1 171:1 183:1 185:1 187:1 189:1 197:1 203:1 
0.5785537034021655 72:1 86:1 87:1 93:1 101:1 102:1 103:1 104:1 105:1 106:1 107:1 108:1 109:1 118:1 120:1 121:1 122:1 123:1 124:1 125:1 134:1 137:1 139:1 150:1 153:1 155:1 165:1 166:1 169:1 171:1 173:1 181:1 182:1 185:1 187:1 189:1 198:1 200:1 201:1 202:1 203:1 204:1 205:1 
0.101053642280702 72:1 73:1 85:1 86:1 87:1 104:1 109:1 119:1 120:1 121:1 122:1 123:1 125:1 136:1 139:1 141:1 151:1 152:1 153:1 155:1 156:1 157:1 167:1 170:1 171:1 173:1 184:1 185:1 187:1 189:1 199:1 201:1 202:1 203:1 205:1 
0.4335494128609806 73:1 87:1 88:1 101:1 102:1 103:1 104:1 109:1 117:1 120:1 125:1 134:1 135:1 139:1 140:1 149:1 153:1 154:1 155:1 167:1 168:1 172:1 184:1 185:1 186:1 187:1 200:1 
-3 72:1 73:1 87:1 88:1 101:1 102:1 103:1 118:1 125:1 134:1 139:1 150:1 155:1 166:1 171:1 182:1 187:1 198:1 203:1 
-3 72:1 73:1 86:1 87:1 101:1 102:1 118:1 119:1 120:1 121:1 122:1 123:1 124:1 125:1 126:1 134:1 139:1 150:1 155:1 166:1 171:1 182:1 187:1 198:1 203:1 
-3 72:1 87:1 88:1 101:1 102:1 103:1 117:1 119:1 120:1 121:1 122:1 123:1 124:1 125:1 135:1 137:1 139:1 151:1 153:1 155:1 167:1 169:1 171:1 183:1 185:1 187:1 198:1 199:1 203:1 
-3 87:1 102:1 117:1 125:1 182:1 184:1 198:1 
-3 87:1 102:1 117:1 125:1 182:1 184:1 198:1 
