svm_type c_svc
kernel_type rbf
gamma 0.015625
nr_class 2
total_sv 34
rho -1.64071
label -1 1
nr_sv 29 5
SV
0.8846645893238644 73:1 133:1 136:1 152:1 199:1 203:1 204:1 
0.7884374726116379 70:1 75:1 90:1 105:1 106:1 119:1 120:1 134:1 
0.8301166162137104 77:1 92:1 93:1 106:1 107:1 108:1 118:1 119:1 120:1 121:1 122:1 136:1 152:1 157:1 168:1 170:1 171:1 172:1 173:1 184:1 185:1 186:1 187:1 188:1 
0.7694325752774246 134:1 135:1 136:1 137:1 138:1 139:1 140:1 141:1 152:1 169:1 170:1 186:1 
0.1549853246107996 77:1 91:1 92:1 93:1 103:1 107:1 109:1 120:1 121:1 122:1 125:1 134:1 135:1 136:1 137:1 141:1 153:1 155:1 157:1 171:1 172:1 173:1 185:1 186:1 187:1 189:1 197:1 205:1 
0.316370974213037 76:1 77:1 91:1 107:1 120:1 121:1 136:1 137:1 153:1 154:1 155:1 171:1 172:1 181:1 182:1 183:1 184:1 185:1 186:1 187:1 
0.09595953603232557 118:1 119:1 120:1 121:1 122:1 124:1 133:1 138:1 140:1 154:1 156:1 157:1 166:1 170:1 171:1 182:1 186:1 200:1 
0.5720788086098616 76:1 77:1 91:1 101:1 102:1 103:1 104:1 105:1 106:1 117:1 121:1 138:1 139:1 149:1 150:1 151:1 152:1 153:1 154:1 165:1 168:1 169:1 170:1 186:1 187:1 204:1 
0.600039435635385 72:1 75:1 77:1 85:1 90:1 91:1 101:1 105:1 106:1 117:1 120:1 124:1 133:1 135:1 136:1 137:1 138:1 139:1 140:1 149:1 150:1 152:1 153:1 165:1 168:1 169:1 170:1 181:1 183:1 186:1 187:1 203:1 205:1 
0.02481323365621781 90:1 93:1 106:1 108:1 118:1 119:1 120:1 121:1 122:1 150:1 151:1 152:1 153:1 154:1 155:1 156:1 157:1 170:1 181:1 186:1 197:1 
0.1458126208277728 72:1 73:1 74:1 75:1 76:1 77:1 78:1 91:1 92:1 105:1 106:1 107:1 118:1 119:1 120:1 122:1 139:1 140:1 150:1 151:1 152:1 153:1 154:1 155:1 170:1 171:1 174:1 187:1 188:1 190:1 200:1 201:1 202:1 203:1 204:1 205:1 
1.014371119170524 88:1 105:1 106:1 119:1 120:1 121:1 122:1 123:1 124:1 125:1 169:1 170:1 189:1 197:1 
0.1575413131259172 150:1 151:1 152:1 153:1 170:1 171:1 188:1 205:1 
0.2296330284717439 69:1 74:1 76:1 85:1 89:1 91:1 92:1 104:1 106:1 107:1 117:1 119:1 121:1 133:1 134:1 135:1 136:1 137:1 138:1 139:1 140:1 141:1 149:1 152:1 153:1 165:1 167:1 170:1 171:1 181:1 182:1 183:1 187:1 188:1 204:1 
0.9346619115219282 69:1 76:1 91:1 93:1 106:1 109:1 120:1 121:1 125:1 135:1 136:1 141:1 150:1 151:1 157:1 166:1 173:1 181:1 189:1 203:1 204:1 
0.4153371339632158 70:1 76:1 77:1 86:1 91:1 93:1 102:1 106:1 109:1 118:1 121:1 125:1 134:1 136:1 141:1 150:1 151:1 152:1 157:1 166:1 167:1 173:1 182:1 189:1 203:1 204:1 205:1 
0.0183187717051622 86:1 90:1 91:1 92:1 102:1 105:1 106:1 118:1 120:1 121:1 134:1 135:1 136:1 150:1 151:1 166:1 188:1 203:1 204:1 
1.589550905584486 75:1 87:1 91:1 102:1 103:1 109:1 117:1 120:1 121:1 133:1 134:1 135:1 136:1 149:1 165:1 173:1 189:1 203:1 204:1 205:1 
0.4229195160313501 73:1 77:1 89:1 93:1 105:1 106:1 107:1 108:1 109:1 118:1 119:1 120:1 121:1 125:1 137:1 141:1 153:1 157:1 169:1 173:1 185:1 186:1 187:1 188:1 189:1 205:1 
0.2441043338434854 77:1 86:1 88:1 90:1 104:1 106:1 120:1 122:1 133:1 134:1 135:1 136:1 138:1 152:1 154:1 168:1 170:1 182:1 183:1 184:1 186:1 
0.6011241479313788 74:1 77:1 88:1 90:1 93:1 104:1 106:1 109:1 120:1 122:1 125:1 133:1 134:1 135:1 136:1 138:1 141:1 152:1 154:1 157:1 168:1 170:1 173:1 184:1 186:1 189:1 205:1 
0.8169041027197393 71:1 77:1 104:1 105:1 106:1 107:1 108:1 133:1 134:1 152:1 173:1 189:1 198:1 203:1 204:1 205:1 
0.02536791107470193 70:1 77:1 86:1 89:1 90:1 91:1 102:1 118:1 119:1 120:1 133:1 134:1 150:1 152:1 166:1 167:1 182:1 198:1 200:1 
0.5231026665156304 86:1 93:1 107:1 108:1 122:1 133:1 134:1 135:1 136:1 149:1 151:1 152:1 153:1 170:1 187:1 204:1 205:1 
2.017371599570182 69:1 70:1 71:1 72:1 73:1 74:1 75:1 76:1 77:1 91:1 93:1 107:1 109:1 121:1 122:1 125:1 133:1 134:1 135:1 136:1 141:1 149:1 151:1 152:1 153:1 157:1 169:1 170:1 173:1 186:1 187:1 189:1 203:1 205:1 
0.4801831711438472 72:1 86:1 87:1 88:1 89:1 90:1 91:1 92:1 93:1 101:1 119:1 120:1 133:1 134:1 137:1 153:1 154:1 173:1 186:1 187:1 188:1 189:1 
0.08146300726219125 72:1 86:1 87:1 88:1 89:1 90:1 91:1 92:1 93:1 101:1 120:1 133:1 134:1 135:1 149:1 151:1 152:1 153:1 154:1 155:1 156:1 157:1 167:1 169:1 171:1 183:1 185:1 187:1 199:1 203:1 
0.2228164127496818 73:1 86:1 87:1 88:1 89:1 90:1 91:1 92:1 93:1 101:1 102:1 119:1 120:1 133:1 134:1 149:1 151:1 152:1 153:1 154:1 155:1 156:1 157:1 171:1 187:1 203:1 
0.02251776060279823 72:1 86:1 87:1 88:1 89:1 90:1 91:1 92:1 93:1 101:1 106:1 118:1 119:1 120:1 121:1 123:1 133:1 134:1 135:1 137:1 139:1 149:1 151:1 152:1 153:1 154:1 155:1 156:1 157:1 165:1 167:1 169:1 171:1 182:1 183:1 185:1 187:1 199:1 201:1 203:1 
-3 75:1 77:1 91:1 106:1 120:1 121:1 133:1 134:1 135:1 136:1 152:1 153:1 170:1 187:1 203:1 205:1 
-3 76:1 77:1 91:1 93:1 106:1 109:1 120:1 121:1 125:1 133:1 134:1 135:1 136:1 141:1 152:1 153:1 154:1 157:1 170:1 171:1 173:1 187:1 188:1 189:1 204:1 205:1 
-3 75:1 76:1 77:1 91:1 93:1 106:1 109:1 120:1 121:1 125:1 133:1 134:1 135:1 141:1 152:1 153:1 157:1 169:1 170:1 173:1 186:1 187:1 189:1 203:1 205:1 
-3 91:1 106:1 119:1 120:1 121:1 133:1 134:1 152:1 169:1 170:1 186:1 187:1 203:1 204:1 
-3 91:1 106:1 119:1 120:1 121:1 133:1 134:1 152:1 169:1 170:1 186:1 187:1 203:1 204:1 
