svm_type c_svc
kernel_type rbf
gamma 0.015625
nr_class 2
total_sv 29
rho -1.577
label -1 1
nr_sv 24 5
SV
0.04154999896725609 76:1 77:1 91:1 107:1 120:1 121:1 136:1 137:1 153:1 154:1 155:1 171:1 172:1 181:1 182:1 183:1 184:1 185:1 186:1 187:1 
0.3343329792828927 73:1 85:1 87:1 93:1 101:1 108:1 109:1 117:1 123:1 133:1 134:1 135:1 136:1 137:1 138:1 149:1 155:1 165:1 171:1 172:1 181:1 183:1 188:1 189:1 201:1 
0.319426424296601 86:1 91:1 102:1 103:1 104:1 105:1 106:1 107:1 138:1 154:1 165:1 166:1 167:1 168:1 169:1 170:1 171:1 172:1 173:1 
0.8307661718485172 120:1 137:1 138:1 
2.340099413456655 119:1 120:1 136:1 137:1 138:1 153:1 154:1 
0.1086563467341996 150:1 167:1 168:1 169:1 170:1 171:1 172:1 188:1 189:1 205:1 
0.5125480183309874 73:1 77:1 78:1 87:1 88:1 93:1 101:1 102:1 103:1 108:1 109:1 117:1 118:1 123:1 124:1 134:1 137:1 138:1 150:1 151:1 152:1 153:1 154:1 155:1 166:1 167:1 171:1 172:1 188:1 189:1 205:1 206:1 
0.3348166644792571 77:1 88:1 93:1 101:1 102:1 103:1 104:1 108:1 120:1 123:1 136:1 137:1 138:1 149:1 150:1 151:1 153:1 154:1 171:1 172:1 188:1 
0.8138171626323167 77:1 88:1 93:1 101:1 102:1 103:1 104:1 108:1 120:1 123:1 136:1 137:1 138:1 150:1 151:1 153:1 171:1 172:1 188:1 205:1 
0.08078624690620134 74:1 89:1 92:1 104:1 108:1 118:1 119:1 123:1 124:1 133:1 137:1 138:1 140:1 152:1 156:1 171:1 172:1 187:1 188:1 
0.06791234317398022 72:1 73:1 86:1 87:1 101:1 102:1 118:1 119:1 120:1 121:1 122:1 123:1 124:1 125:1 126:1 134:1 139:1 150:1 155:1 166:1 171:1 182:1 187:1 198:1 203:1 
0.2897088754367945 74:1 102:1 103:1 104:1 105:1 106:1 120:1 136:1 149:1 152:1 153:1 154:1 155:1 165:1 168:1 172:1 184:1 188:1 189:1 202:1 205:1 
1.224269657645337 102:1 103:1 104:1 105:1 106:1 149:1 152:1 153:1 154:1 155:1 165:1 172:1 188:1 189:1 202:1 
0.3161387317719951 71:1 77:1 78:1 87:1 92:1 93:1 103:1 107:1 108:1 117:1 118:1 119:1 120:1 121:1 122:1 135:1 151:1 167:1 168:1 169:1 170:1 171:1 172:1 173:1 203:1 204:1 205:1 
0.9570408647034666 72:1 87:1 102:1 117:1 125:1 136:1 137:1 138:1 139:1 140:1 141:1 183:1 
0.3554883024082822 87:1 182:1 188:1 204:1 
3 87:1 182:1 188:1 204:1 
0.5110881014543379 105:1 118:1 119:1 120:1 141:1 157:1 171:1 172:1 173:1 181:1 185:1 186:1 199:1 
0.004358236304402018 72:1 86:1 87:1 88:1 89:1 90:1 102:1 105:1 106:1 118:1 119:1 120:1 122:1 133:1 134:1 137:1 138:1 150:1 151:1 152:1 153:1 154:1 166:1 170:1 171:1 172:1 182:1 183:1 184:1 188:1 189:1 198:1 200:1 205:1 
0.5645220632075702 73:1 87:1 88:1 93:1 101:1 102:1 103:1 117:1 118:1 120:1 124:1 134:1 136:1 137:1 138:1 139:1 154:1 157:1 171:1 173:1 182:1 183:1 184:1 185:1 186:1 187:1 188:1 204:1 
0.6779910891354634 72:1 86:1 87:1 88:1 89:1 90:1 91:1 92:1 93:1 101:1 102:1 109:1 118:1 120:1 125:1 134:1 137:1 138:1 141:1 150:1 154:1 155:1 156:1 165:1 166:1 171:1 172:1 182:1 185:1 186:1 188:1 198:1 200:1 205:1 
0.448123668313646 73:1 86:1 87:1 88:1 89:1 90:1 91:1 92:1 93:1 101:1 102:1 118:1 119:1 121:1 125:1 136:1 137:1 138:1 139:1 149:1 152:1 155:1 156:1 170:1 171:1 172:1 185:1 188:1 198:1 205:1 
0.8029808466249321 73:1 86:1 87:1 88:1 89:1 90:1 91:1 92:1 93:1 101:1 102:1 119:1 120:1 121:1 122:1 133:1 137:1 138:1 139:1 151:1 152:1 155:1 156:1 167:1 168:1 169:1 170:1 171:1 172:1 188:1 199:1 204:1 
0.06357779288490781 73:1 87:1 101:1 102:1 103:1 109:1 120:1 121:1 122:1 133:1 134:1 136:1 139:1 151:1 152:1 153:1 154:1 155:1 156:1 157:1 166:1 168:1 172:1 181:1 184:1 188:1 201:1 202:1 203:1 204:1 
-3 71:1 87:1 102:1 103:1 120:1 137:1 138:1 154:1 155:1 171:1 172:1 188:1 204:1 
-3 72:1 87:1 102:1 103:1 118:1 119:1 136:1 137:1 138:1 153:1 154:1 155:1 171:1 172:1 188:1 205:1 
-3 71:1 86:1 87:1 102:1 117:1 118:1 119:1 120:1 136:1 137:1 138:1 154:1 155:1 171:1 172:1 188:1 
-3 87:1 102:1 120:1 138:1 155:1 171:1 172:1 188:1 204:1 
-3 87:1 102:1 120:1 138:1 155:1 171:1 172:1 188:1 204:1 
