svm_type c_svc
kernel_type rbf
gamma 0.015625
nr_class 2
total_sv 28
rho -1.49833
label -1 1
nr_sv 23 5
SV
0.3019999034192843 71:1 77:1 87:1 88:1 89:1 93:1 101:1 103:1 106:1 109:1 118:1 119:1 120:1 121:1 122:1 123:1 124:1 125:1 135:1 141:1 150:1 151:1 152:1 153:1 154:1 155:1 156:1 157:1 165:1 167:1 170:1 173:1 183:1 184:1 185:1 186:1 189:1 199:1 205:1 
0.8437186860467658 71:1 73:1 77:1 85:1 87:1 89:1 90:1 91:1 93:1 101:1 102:1 103:1 109:1 119:1 120:1 121:1 122:1 123:1 124:1 125:1 135:1 141:1 150:1 151:1 152:1 153:1 154:1 155:1 156:1 157:1 165:1 167:1 171:1 173:1 183:1 185:1 186:1 189:1 199:1 205:1 
0.2135756197546941 71:1 74:1 76:1 86:1 87:1 90:1 92:1 103:1 104:1 105:1 106:1 108:1 117:1 118:1 119:1 121:1 122:1 124:1 135:1 138:1 139:1 140:1 141:1 142:1 149:1 150:1 151:1 153:1 154:1 156:1 167:1 168:1 169:1 170:1 172:1 182:1 183:1 186:1 188:1 199:1 202:1 204:1 
0.2109981627993531 70:1 71:1 74:1 77:1 86:1 87:1 90:1 92:1 93:1 101:1 102:1 103:1 104:1 105:1 106:1 107:1 108:1 119:1 122:1 135:1 136:1 137:1 138:1 151:1 154:1 165:1 166:1 167:1 168:1 169:1 170:1 171:1 172:1 173:1 182:1 183:1 186:1 198:1 199:1 202:1 
0.02313567634204501 92:1 93:1 103:1 107:1 109:1 119:1 120:1 125:1 138:1 141:1 149:1 152:1 154:1 157:1 165:1 166:1 167:1 169:1 173:1 181:1 185:1 189:1 204:1 205:1 
1.096832045896838 70:1 72:1 73:1 77:1 85:1 86:1 87:1 88:1 90:1 92:1 93:1 102:1 105:1 106:1 108:1 118:1 119:1 120:1 121:1 122:1 123:1 124:1 138:1 139:1 150:1 151:1 152:1 153:1 154:1 155:1 166:1 168:1 170:1 173:1 182:1 184:1 189:1 198:1 199:1 200:1 201:1 204:1 205:1 
1.140150079824444 70:1 72:1 73:1 86:1 87:1 88:1 89:1 90:1 92:1 93:1 101:1 102:1 103:1 106:1 107:1 108:1 109:1 118:1 120:1 122:1 123:1 125:1 134:1 135:1 138:1 139:1 141:1 150:1 151:1 152:1 154:1 157:1 166:1 168:1 170:1 173:1 182:1 184:1 189:1 198:1 199:1 200:1 204:1 205:1 
0.09474939663638876 70:1 71:1 72:1 73:1 74:1 77:1 87:1 88:1 89:1 90:1 92:1 93:1 103:1 104:1 105:1 106:1 108:1 119:1 120:1 121:1 122:1 124:1 135:1 136:1 137:1 138:1 139:1 151:1 152:1 153:1 154:1 155:1 167:1 168:1 169:1 170:1 171:1 183:1 184:1 185:1 189:1 201:1 204:1 205:1 
1.170709857307022 70:1 72:1 73:1 74:1 77:1 85:1 86:1 87:1 88:1 89:1 90:1 92:1 93:1 102:1 103:1 106:1 108:1 109:1 118:1 119:1 121:1 122:1 123:1 124:1 125:1 134:1 135:1 136:1 138:1 139:1 141:1 150:1 151:1 154:1 155:1 157:1 167:1 170:1 173:1 183:1 184:1 185:1 189:1 197:1 199:1 204:1 205:1 
1.445520186723383 70:1 72:1 86:1 87:1 89:1 90:1 92:1 93:1 101:1 102:1 103:1 104:1 105:1 106:1 107:1 108:1 109:1 118:1 119:1 121:1 122:1 123:1 125:1 134:1 135:1 136:1 138:1 139:1 141:1 151:1 154:1 157:1 165:1 167:1 170:1 173:1 181:1 183:1 184:1 185:1 186:1 189:1 199:1 204:1 205:1 
0.9382376894931123 70:1 74:1 87:1 88:1 89:1 90:1 92:1 93:1 106:1 108:1 109:1 122:1 123:1 125:1 133:1 134:1 135:1 136:1 137:1 138:1 139:1 141:1 154:1 157:1 165:1 170:1 173:1 182:1 183:1 184:1 185:1 186:1 189:1 205:1 
0.4297103282620289 70:1 85:1 86:1 87:1 88:1 89:1 90:1 92:1 93:1 101:1 103:1 104:1 105:1 106:1 108:1 109:1 119:1 121:1 122:1 123:1 125:1 137:1 138:1 139:1 141:1 149:1 150:1 151:1 152:1 154:1 157:1 168:1 170:1 173:1 182:1 184:1 186:1 189:1 199:1 203:1 204:1 
1.060772339345725 73:1 85:1 86:1 87:1 88:1 90:1 92:1 93:1 101:1 106:1 108:1 109:1 117:1 118:1 120:1 122:1 123:1 125:1 136:1 137:1 138:1 139:1 141:1 149:1 150:1 151:1 152:1 154:1 157:1 165:1 167:1 170:1 173:1 181:1 183:1 184:1 185:1 186:1 189:1 197:1 199:1 204:1 205:1 
0.3190489099036316 73:1 85:1 86:1 87:1 88:1 90:1 92:1 93:1 101:1 102:1 104:1 106:1 108:1 109:1 117:1 118:1 119:1 120:1 122:1 123:1 125:1 136:1 137:1 138:1 139:1 141:1 149:1 150:1 151:1 152:1 154:1 157:1 165:1 167:1 170:1 173:1 181:1 183:1 184:1 185:1 186:1 189:1 199:1 204:1 205:1 
2.194696676330255 70:1 85:1 86:1 88:1 90:1 92:1 93:1 101:1 103:1 105:1 106:1 108:1 109:1 119:1 122:1 123:1 125:1 135:1 138:1 139:1 141:1 149:1 150:1 151:1 152:1 154:1 157:1 167:1 170:1 173:1 183:1 186:1 189:1 201:1 203:1 204:1 
0.5237659374901955 70:1 72:1 74:1 86:1 88:1 90:1 92:1 93:1 101:1 102:1 104:1 105:1 106:1 108:1 109:1 118:1 119:1 120:1 121:1 122:1 123:1 125:1 133:1 134:1 135:1 136:1 137:1 138:1 139:1 141:1 150:1 152:1 153:1 154:1 155:1 157:1 166:1 168:1 169:1 170:1 173:1 181:1 182:1 184:1 185:1 186:1 189:1 198:1 204:1 205:1 
0.8056866473306453 70:1 71:1 72:1 73:1 74:1 75:1 86:1 87:1 88:1 89:1 90:1 101:1 102:1 103:1 104:1 105:1 106:1 107:1 108:1 109:1 118:1 119:1 120:1 121:1 122:1 135:1 136:1 150:1 151:1 152:1 155:1 156:1 157:1 165:1 166:1 170:1 173:1 182:1 185:1 189:1 198:1 204:1 205:1 
0.1630052878997661 69:1 73:1 74:1 75:1 76:1 77:1 85:1 86:1 87:1 90:1 91:1 93:1 101:1 102:1 103:1 104:1 105:1 106:1 108:1 117:1 119:1 121:1 122:1 123:1 124:1 125:1 133:1 134:1 135:1 137:1 138:1 139:1 140:1 141:1 165:1 173:1 189:1 204:1 205:1 
0.2325301192698789 71:1 73:1 74:1 77:1 87:1 90:1 92:1 93:1 103:1 106:1 107:1 108:1 117:1 118:1 119:1 120:1 121:1 122:1 135:1 138:1 149:1 150:1 151:1 152:1 153:1 154:1 155:1 156:1 157:1 165:1 167:1 170:1 173:1 183:1 186:1 199:1 201:1 202:1 
0.2299280615613745 70:1 73:1 90:1 91:1 93:1 102:1 103:1 105:1 106:1 107:1 109:1 121:1 122:1 123:1 124:1 133:1 137:1 138:1 139:1 153:1 154:1 155:1 166:1 167:1 169:1 170:1 171:1 173:1 185:1 186:1 189:1 200:1 204:1 205:1 
0.3469231968795591 72:1 73:1 86:1 87:1 88:1 89:1 90:1 91:1 92:1 93:1 94:1 101:1 103:1 110:1 119:1 120:1 121:1 125:1 135:1 138:1 139:1 140:1 141:1 151:1 155:1 156:1 165:1 166:1 167:1 168:1 169:1 170:1 172:1 173:1 183:1 189:1 199:1 205:1 206:1 
0.5565680429233529 73:1 86:1 87:1 88:1 89:1 90:1 91:1 92:1 93:1 101:1 102:1 105:1 119:1 120:1 121:1 122:1 123:1 124:1 133:1 134:1 138:1 141:1 150:1 154:1 157:1 166:1 171:1 173:1 182:1 183:1 184:1 185:1 186:1 187:1 189:1 203:1 204:1 205:1 
0.09195084385792419 72:1 73:1 85:1 86:1 87:1 88:1 89:1 90:1 91:1 92:1 93:1 101:1 108:1 118:1 119:1 120:1 121:1 123:1 124:1 135:1 138:1 141:1 149:1 150:1 151:1 152:1 153:1 154:1 155:1 156:1 157:1 165:1 167:1 169:1 170:1 181:1 182:1 183:1 184:1 185:1 187:1 188:1 198:1 199:1 204:1 
-3 70:1 73:1 86:1 87:1 88:1 90:1 92:1 93:1 101:1 103:1 105:1 106:1 108:1 109:1 119:1 120:1 122:1 123:1 125:1 135:1 138:1 139:1 141:1 150:1 151:1 154:1 157:1 165:1 167:1 169:1 170:1 173:1 182:1 184:1 185:1 186:1 189:1 199:1 204:1 205:1 
-3 70:1 72:1 73:1 74:1 77:1 85:1 86:1 87:1 89:1 90:1 92:1 93:1 102:1 103:1 105:1 106:1 108:1 118:1 119:1 120:1 122:1 123:1 124:1 134:1 135:1 138:1 139:1 150:1 151:1 153:1 154:1 155:1 165:1 169:1 170:1 171:1 173:1 182:1 184:1 185:1 189:1 199:1 204:1 205:1 
-3 70:1 73:1 85:1 86:1 87:1 88:1 90:1 92:1 93:1 101:1 102:1 103:1 105:1 106:1 107:1 108:1 109:1 118:1 119:1 120:1 121:1 122:1 123:1 125:1 135:1 138:1 139:1 141:1 150:1 152:1 154:1 155:1 157:1 165:1 167:1 168:1 170:1 173:1 182:1 183:1 185:1 186:1 189:1 199:1 204:1 205:1 
-2.434213695297667 70:1 73:1 74:1 86:1 87:1 88:1 90:1 92:1 93:1 101:1 103:1 105:1 106:1 108:1 109:1 119:1 120:1 121:1 122:1 123:1 125:1 135:1 138:1 139:1 141:1 150:1 152:1 154:1 157:1 165:1 167:1 170:1 173:1 182:1 183:1 185:1 186:1 189:1 199:1 204:1 205:1 
-3 70:1 73:1 74:1 86:1 87:1 88:1 90:1 92:1 93:1 101:1 103:1 105:1 106:1 108:1 109:1 119:1 120:1 121:1 122:1 123:1 125:1 135:1 138:1 139:1 141:1 150:1 152:1 154:1 157:1 165:1 167:1 170:1 173:1 182:1 183:1 185:1 186:1 189:1 199:1 204:1 205:1 
