svm_type c_svc
kernel_type rbf
gamma 0.015625
nr_class 2
total_sv 32
rho -1.61913
label -1 1
nr_sv 27 5
SV
0.6051420314984136 73:1 89:1 104:1 117:1 118:1 119:1 120:1 121:1 122:1 123:1 124:1 125:1 136:1 141:1 152:1 168:1 184:1 189:1 200:1 203:1 204:1 205:1 
0.5542395942723867 73:1 88:1 103:1 104:1 118:1 119:1 133:1 134:1 137:1 138:1 139:1 140:1 141:1 142:1 150:1 151:1 167:1 168:1 184:1 201:1 
0.002523175201096658 93:1 105:1 108:1 117:1 118:1 119:1 120:1 121:1 122:1 138:1 151:1 167:1 168:1 169:1 170:1 171:1 172:1 173:1 189:1 203:1 204:1 205:1 
0.3010908602524063 77:1 88:1 89:1 92:1 93:1 103:1 104:1 108:1 117:1 118:1 119:1 123:1 135:1 137:1 138:1 151:1 152:1 153:1 154:1 167:1 171:1 172:1 188:1 205:1 
0.4796752219630138 89:1 93:1 104:1 108:1 117:1 118:1 119:1 123:1 135:1 136:1 137:1 138:1 151:1 152:1 153:1 154:1 171:1 172:1 188:1 189:1 205:1 
0.4411173498190599 74:1 89:1 93:1 104:1 108:1 118:1 119:1 123:1 133:1 137:1 138:1 152:1 153:1 156:1 167:1 170:1 171:1 172:1 187:1 188:1 205:1 
0.2114209990858529 74:1 89:1 92:1 104:1 108:1 118:1 119:1 123:1 124:1 133:1 137:1 138:1 140:1 152:1 156:1 171:1 172:1 187:1 188:1 
0.182856223529421 77:1 78:1 86:1 87:1 93:1 104:1 105:1 109:1 117:1 122:1 123:1 124:1 134:1 135:1 139:1 140:1 151:1 154:1 155:1 156:1 168:1 169:1 173:1 182:1 183:1 189:1 205:1 206:1 
0.380875881257767 76:1 77:1 87:1 92:1 103:1 107:1 108:1 117:1 119:1 122:1 123:1 124:1 134:1 135:1 137:1 138:1 151:1 153:1 157:1 167:1 168:1 173:1 183:1 189:1 205:1 
0.8906287776706983 70:1 71:1 73:1 77:1 85:1 87:1 88:1 90:1 92:1 93:1 102:1 104:1 106:1 108:1 118:1 119:1 121:1 122:1 123:1 124:1 134:1 137:1 138:1 139:1 149:1 150:1 151:1 152:1 154:1 155:1 168:1 170:1 173:1 182:1 184:1 189:1 198:1 199:1 204:1 205:1 
0.5557471526039221 72:1 73:1 74:1 75:1 77:1 88:1 91:1 93:1 104:1 107:1 109:1 118:1 119:1 120:1 123:1 124:1 125:1 141:1 150:1 151:1 152:1 155:1 156:1 157:1 168:1 171:1 173:1 184:1 187:1 189:1 200:1 201:1 202:1 203:1 205:1 
0.4988382789660212 73:1 88:1 93:1 104:1 109:1 122:1 124:1 133:1 134:1 139:1 140:1 151:1 153:1 154:1 156:1 168:1 173:1 182:1 184:1 189:1 198:1 205:1 
0.4258152860188618 73:1 74:1 89:1 93:1 103:1 104:1 105:1 109:1 119:1 120:1 121:1 123:1 124:1 133:1 135:1 136:1 137:1 151:1 152:1 153:1 155:1 156:1 157:1 167:1 168:1 169:1 173:1 183:1 184:1 185:1 189:1 198:1 201:1 202:1 204:1 205:1 
0.2776935015854866 74:1 89:1 104:1 118:1 119:1 123:1 133:1 134:1 139:1 140:1 151:1 156:1 168:1 185:1 201:1 
0.01561534082996159 73:1 88:1 93:1 103:1 104:1 105:1 106:1 107:1 108:1 109:1 118:1 119:1 133:1 150:1 151:1 167:1 168:1 169:1 170:1 171:1 172:1 173:1 174:1 184:1 200:1 201:1 
0.6398868183247343 73:1 88:1 93:1 104:1 108:1 118:1 119:1 133:1 150:1 151:1 152:1 153:1 154:1 155:1 156:1 157:1 168:1 184:1 
1.266217740237235 73:1 88:1 104:1 118:1 119:1 133:1 137:1 138:1 139:1 140:1 141:1 150:1 151:1 168:1 184:1 186:1 200:1 202:1 
0.593972337594411 73:1 88:1 89:1 104:1 118:1 119:1 121:1 123:1 124:1 133:1 134:1 137:1 140:1 150:1 151:1 153:1 154:1 156:1 157:1 168:1 184:1 201:1 
0.337399224584901 73:1 88:1 90:1 91:1 92:1 93:1 103:1 104:1 118:1 119:1 133:1 137:1 138:1 139:1 140:1 141:1 150:1 151:1 167:1 168:1 184:1 200:1 201:1 
0.09794841251295859 73:1 89:1 93:1 104:1 105:1 118:1 119:1 121:1 133:1 137:1 138:1 139:1 140:1 150:1 151:1 153:1 168:1 169:1 184:1 185:1 
1.579830618652024 93:1 123:1 124:1 133:1 134:1 135:1 136:1 137:1 138:1 155:1 166:1 172:1 189:1 205:1 
2.779273901791825 93:1 123:1 124:1 133:1 134:1 135:1 136:1 137:1 138:1 155:1 166:1 172:1 189:1 205:1 
0.4459020432531656 73:1 88:1 104:1 105:1 106:1 107:1 108:1 109:1 118:1 119:1 121:1 123:1 125:1 133:1 137:1 139:1 141:1 151:1 153:1 155:1 157:1 168:1 169:1 171:1 173:1 184:1 185:1 189:1 200:1 
0.3758422314952422 73:1 87:1 88:1 93:1 101:1 102:1 108:1 109:1 119:1 125:1 135:1 137:1 138:1 149:1 151:1 155:1 156:1 165:1 167:1 170:1 171:1 172:1 183:1 184:1 185:1 186:1 189:1 199:1 205:1 
0.6065232766571589 73:1 77:1 88:1 91:1 92:1 104:1 105:1 106:1 118:1 119:1 123:1 125:1 133:1 140:1 151:1 153:1 154:1 155:1 156:1 168:1 170:1 171:1 184:1 188:1 205:1 
0.3839618362959599 72:1 73:1 85:1 86:1 87:1 88:1 89:1 90:1 91:1 92:1 93:1 101:1 109:1 119:1 120:1 125:1 133:1 135:1 137:1 138:1 140:1 149:1 150:1 151:1 155:1 156:1 167:1 168:1 169:1 170:1 172:1 183:1 184:1 188:1 189:1 199:1 205:1 
0.06996188404601532 73:1 77:1 88:1 90:1 93:1 104:1 107:1 108:1 109:1 118:1 119:1 125:1 133:1 138:1 139:1 140:1 141:1 150:1 151:1 152:1 157:1 168:1 173:1 184:1 185:1 187:1 189:1 200:1 205:1 
-3 77:1 88:1 92:1 104:1 108:1 118:1 119:1 122:1 123:1 133:1 134:1 137:1 138:1 151:1 155:1 168:1 172:1 184:1 188:1 189:1 205:1 
-3 73:1 78:1 89:1 93:1 104:1 109:1 119:1 120:1 123:1 124:1 133:1 134:1 135:1 137:1 138:1 139:1 151:1 155:1 156:1 168:1 173:1 184:1 189:1 200:1 201:1 205:1 206:1 
-3 73:1 77:1 88:1 89:1 93:1 104:1 108:1 118:1 119:1 123:1 124:1 133:1 134:1 135:1 137:1 138:1 151:1 155:1 156:1 167:1 168:1 172:1 184:1 189:1 200:1 205:1 
-3 73:1 93:1 104:1 118:1 119:1 123:1 124:1 133:1 137:1 138:1 151:1 155:1 168:1 172:1 184:1 189:1 205:1 
-3 73:1 93:1 104:1 118:1 119:1 123:1 124:1 133:1 137:1 138:1 151:1 155:1 168:1 172:1 184:1 189:1 205:1 
