svm_type c_svc
kernel_type rbf
gamma 0.015625
nr_class 2
total_sv 31
rho -1.43985
label -1 1
nr_sv 26 5
SV
1.06501618585702 74:1 77:1 93:1 102:1 103:1 104:1 105:1 106:1 108:1 118:1 120:1 136:1 149:1 152:1 165:1 168:1 184:1 202:1 
0.08675521233414936 72:1 88:1 92:1 101:1 104:1 107:1 108:1 120:1 122:1 124:1 136:1 137:1 140:1 152:1 156:1 168:1 171:1 172:1 181:1 184:1 188:1 200:1 
0.05652189509796719 72:1 77:1 85:1 88:1 92:1 104:1 106:1 107:1 108:1 120:1 136:1 152:1 168:1 173:1 181:1 184:1 200:1 
0.5173231195281764 72:1 88:1 104:1 120:1 134:1 135:1 136:1 152:1 168:1 184:1 200:1 
0.6100184990210028 73:1 87:1 88:1 101:1 102:1 104:1 105:1 106:1 107:1 108:1 109:1 182:1 204:1 
0.1744932770863675 73:1 87:1 88:1 93:1 102:1 104:1 105:1 106:1 107:1 108:1 109:1 117:1 157:1 167:1 168:1 169:1 170:1 171:1 172:1 198:1 
0.9315112522235964 72:1 86:1 87:1 88:1 89:1 90:1 91:1 92:1 93:1 101:1 102:1 103:1 104:1 105:1 106:1 107:1 108:1 109:1 149:1 150:1 151:1 152:1 153:1 154:1 155:1 156:1 157:1 168:1 184:1 185:1 201:1 202:1 
0.0432387444842503 73:1 74:1 88:1 101:1 102:1 103:1 104:1 105:1 106:1 107:1 108:1 109:1 117:1 149:1 150:1 151:1 152:1 153:1 154:1 155:1 156:1 157:1 168:1 184:1 201:1 202:1 
0.5007558221775916 72:1 88:1 93:1 103:1 104:1 107:1 108:1 109:1 118:1 120:1 133:1 150:1 152:1 153:1 154:1 155:1 156:1 157:1 167:1 184:1 200:1 
3 72:1 73:1 87:1 88:1 89:1 90:1 91:1 92:1 93:1 101:1 102:1 109:1 120:1 136:1 149:1 152:1 168:1 184:1 200:1 205:1 
1.603074581118843 73:1 74:1 86:1 87:1 88:1 89:1 90:1 91:1 92:1 93:1 94:1 101:1 102:1 120:1 125:1 136:1 141:1 152:1 157:1 168:1 173:1 184:1 189:1 200:1 205:1 
1.170334349337889 73:1 87:1 88:1 89:1 90:1 91:1 92:1 93:1 101:1 102:1 109:1 120:1 125:1 136:1 149:1 150:1 151:1 152:1 153:1 154:1 155:1 156:1 168:1 184:1 200:1 
0.4856206217360431 73:1 87:1 88:1 93:1 101:1 102:1 108:1 109:1 119:1 120:1 121:1 122:1 123:1 124:1 165:1 204:1 
0.05457643692451912 72:1 73:1 86:1 87:1 88:1 89:1 90:1 91:1 92:1 93:1 101:1 102:1 109:1 121:1 122:1 123:1 136:1 141:1 149:1 157:1 165:1 184:1 201:1 202:1 203:1 
0.05892685884321983 73:1 87:1 88:1 93:1 101:1 102:1 103:1 105:1 117:1 120:1 122:1 134:1 135:1 138:1 149:1 150:1 152:1 154:1 157:1 167:1 170:1 171:1 172:1 184:1 186:1 187:1 200:1 
1.343933412098918 73:1 86:1 87:1 88:1 89:1 90:1 91:1 92:1 93:1 101:1 102:1 119:1 120:1 149:1 157:1 165:1 183:1 201:1 
1.103149729057385 73:1 87:1 88:1 91:1 92:1 93:1 101:1 102:1 117:1 119:1 149:1 157:1 165:1 
0.5213703622178424 72:1 86:1 87:1 88:1 89:1 90:1 91:1 92:1 93:1 101:1 102:1 109:1 120:1 133:1 135:1 136:1 141:1 149:1 151:1 152:1 153:1 154:1 155:1 156:1 157:1 165:1 166:1 168:1 181:1 184:1 185:1 200:1 
0.01628531550257293 72:1 73:1 85:1 86:1 87:1 88:1 89:1 90:1 91:1 92:1 93:1 101:1 109:1 120:1 136:1 137:1 138:1 139:1 140:1 150:1 151:1 152:1 168:1 184:1 185:1 186:1 187:1 188:1 197:1 
0.3659039473043239 73:1 87:1 88:1 93:1 101:1 102:1 108:1 109:1 117:1 123:1 124:1 134:1 135:1 136:1 137:1 152:1 168:1 169:1 170:1 171:1 172:1 173:1 181:1 184:1 200:1 
0.0951954709699037 72:1 86:1 87:1 88:1 89:1 90:1 91:1 92:1 93:1 101:1 102:1 117:1 122:1 136:1 157:1 183:1 184:1 197:1 202:1 
0.2649408014159403 73:1 87:1 88:1 93:1 101:1 102:1 108:1 109:1 117:1 120:1 123:1 133:1 134:1 135:1 137:1 149:1 157:1 184:1 185:1 186:1 199:1 203:1 204:1 
0.7373362514271975 72:1 86:1 87:1 88:1 89:1 90:1 91:1 92:1 93:1 101:1 120:1 136:1 149:1 150:1 151:1 152:1 153:1 154:1 155:1 156:1 157:1 166:1 168:1 170:1 182:1 184:1 187:1 198:1 200:1 203:1 
0.02953070111101837 72:1 73:1 86:1 87:1 88:1 89:1 90:1 91:1 92:1 93:1 101:1 102:1 104:1 120:1 136:1 149:1 150:1 151:1 152:1 153:1 154:1 155:1 156:1 157:1 166:1 168:1 170:1 171:1 182:1 183:1 184:1 187:1 200:1 
0.01452251538238258 73:1 87:1 88:1 93:1 101:1 102:1 108:1 109:1 119:1 125:1 141:1 149:1 153:1 157:1 165:1 169:1 173:1 189:1 200:1 205:1 
0.1496646377418807 72:1 73:1 76:1 77:1 85:1 86:1 87:1 89:1 90:1 91:1 103:1 104:1 107:1 108:1 136:1 139:1 152:1 155:1 168:1 171:1 184:1 187:1 
-3 72:1 86:1 87:1 88:1 89:1 90:1 91:1 92:1 93:1 101:1 120:1 136:1 149:1 152:1 157:1 168:1 184:1 200:1 
-3 72:1 73:1 74:1 86:1 87:1 88:1 89:1 90:1 91:1 92:1 93:1 94:1 101:1 102:1 
-3 73:1 86:1 87:1 88:1 89:1 90:1 91:1 92:1 93:1 101:1 102:1 103:1 104:1 105:1 106:1 107:1 108:1 109:1 120:1 136:1 149:1 150:1 151:1 152:1 153:1 154:1 155:1 156:1 157:1 168:1 184:1 200:1 
-3 73:1 87:1 88:1 93:1 101:1 102:1 108:1 109:1 120:1 136:1 149:1 152:1 157:1 165:1 168:1 184:1 200:1 
-3 73:1 87:1 88:1 93:1 101:1 102:1 108:1 109:1 120:1 136:1 149:1 152:1 157:1 165:1 168:1 184:1 200:1 
