svm_type c_svc
kernel_type rbf
gamma 0.015625
nr_class 2
total_sv 23
rho -1.27744
label -1 1
nr_sv 18 5
SV
0.01558756408160179 20:1 28:1 36:1 43:1 52:1 59:1 68:1 74:1 84:1 89:1 90:1 100:1 103:1 104:1 105:1 116:1 117:1 118:1 119:1 120:1 132:1 148:1 164:1 180:1 196:1 211:1 212:1 227:1 228:1 244:1 
0.2885156831298043 31:1 37:1 38:1 47:1 48:1 53:1 54:1 63:1 64:1 69:1 70:1 72:1 73:1 78:1 79:1 85:1 86:1 88:1 89:1 90:1 94:1 95:1 101:1 102:1 106:1 107:1 108:1 109:1 110:1 117:1 118:1 123:1 124:1 125:1 126:1 133:1 134:1 136:1 137:1 138:1 139:1 140:1 141:1 146:1 147:1 148:1 149:1 150:1 151:1 152:1 153:1 154:1 155:1 157:1 158:1 162:1 163:1 164:1 165:1 166:1 174:1 181:1 182:1 190:1 191:1 197:1 198:1 206:1 207:1 213:1 214:1 222:1 223:1 229:1 230:1 238:1 239:1 240:1 
0.08678136157170142 24:1 53:1 90:1 102:1 103:1 104:1 105:1 106:1 109:1 114:1 115:1 116:1 117:1 118:1 119:1 120:1 125:1 142:1 157:1 158:1 159:1 172:1 173:1 174:1 175:1 176:1 187:1 188:1 191:1 196:1 202:1 203:1 231:1 
0.1231920176387454 20:1 21:1 37:1 46:1 47:1 57:1 62:1 63:1 71:1 72:1 73:1 77:1 85:1 86:1 87:1 89:1 91:1 92:1 93:1 99:1 100:1 101:1 102:1 105:1 108:1 111:1 114:1 115:1 116:1 121:1 127:1 128:1 134:1 135:1 136:1 137:1 138:1 139:1 140:1 141:1 142:1 143:1 144:1 151:1 153:1 169:1 185:1 187:1 188:1 201:1 204:1 205:1 217:1 221:1 222:1 229:1 238:1 239:1 244:1 245:1 254:1 
0.2761276397738847 69:1 85:1 101:1 106:1 107:1 117:1 118:1 119:1 120:1 121:1 122:1 133:1 138:1 139:1 140:1 149:1 150:1 151:1 152:1 153:1 154:1 165:1 170:1 173:1 181:1 189:1 197:1 200:1 201:1 202:1 203:1 204:1 205:1 
0.7511051761615221 76:1 77:1 87:1 89:1 90:1 103:1 104:1 118:1 119:1 120:1 150:1 151:1 152:1 167:1 181:1 182:1 183:1 
0.3155158325341868 12:1 23:1 24:1 28:1 41:1 42:1 44:1 52:1 53:1 60:1 70:1 71:1 72:1 73:1 74:1 75:1 76:1 92:1 101:1 102:1 103:1 104:1 105:1 106:1 107:1 108:1 116:1 117:1 124:1 136:1 137:1 138:1 140:1 151:1 152:1 156:1 
0.559037965526486 84:1 85:1 86:1 87:1 88:1 89:1 90:1 91:1 92:1 93:1 
1.65286876514461 133:1 134:1 135:1 136:1 137:1 138:1 139:1 140:1 141:1 
0.5009417895099487 86:1 91:1 102:1 103:1 104:1 105:1 106:1 107:1 138:1 154:1 165:1 166:1 167:1 168:1 169:1 170:1 171:1 172:1 173:1 
1.749117606042167 118:1 122:1 138:1 165:1 
1.597739588826574 8:1 24:1 39:1 54:1 55:1 69:1 84:1 85:1 88:1 89:1 90:1 91:1 92:1 93:1 101:1 102:1 118:1 119:1 135:1 136:1 152:1 
2.752798620893291 73:1 88:1 104:1 118:1 119:1 133:1 136:1 137:1 138:1 139:1 140:1 141:1 150:1 151:1 168:1 184:1 
1.015269514115499 102:1 119:1 120:1 122:1 137:1 149:1 150:1 151:1 152:1 153:1 154:1 155:1 156:1 157:1 
0.008701497189532189 22:1 23:1 24:1 25:1 26:1 38:1 41:1 54:1 57:1 70:1 73:1 84:1 85:1 86:1 87:1 88:1 89:1 90:1 91:1 92:1 93:1 102:1 105:1 118:1 121:1 134:1 137:1 150:1 151:1 152:1 153:1 154:1 
1.349773140809899 87:1 103:1 119:1 133:1 134:1 135:1 136:1 137:1 138:1 139:1 140:1 141:1 151:1 167:1 183:1 199:1 
0.6756805076179052 70:1 71:1 75:1 86:1 87:1 88:1 91:1 102:1 103:1 107:1 118:1 119:1 123:1 133:1 134:1 135:1 136:1 137:1 138:1 139:1 140:1 141:1 150:1 151:1 155:1 166:1 167:1 168:1 171:1 182:1 183:1 184:1 187:1 203:1 
1.281245729432642 133:1 134:1 135:1 136:1 137:1 138:1 139:1 140:1 141:1 182:1 
-3 85:1 102:1 118:1 119:1 136:1 137:1 138:1 139:1 140:1 141:1 151:1 166:1 181:1 
-3 20:1 37:1 53:1 54:1 70:1 88:1 89:1 90:1 91:1 92:1 93:1 102:1 117:1 118:1 133:1 148:1 
-3 86:1 102:1 103:1 119:1 136:1 137:1 138:1 139:1 140:1 141:1 151:1 152:1 166:1 167:1 181:1 182:1 
-3 85:1 102:1 118:1 119:1 136:1 137:1 138:1 139:1 140:1 141:1 151:1 166:1 181:1 
-3 85:1 102:1 118:1 119:1 136:1 137:1 138:1 139:1 140:1 141:1 151:1 166:1 181:1 
