svm_type c_svc
kernel_type rbf
gamma 0.015625
nr_class 2
total_sv 22
rho -1.55203
label -1 1
nr_sv 17 5
SV
1.825433827371257 70:1 86:1 102:1 118:1 134:1 135:1 136:1 137:1 138:1 139:1 140:1 141:1 142:1 150:1 166:1 182:1 198:1 
0.4460787599614391 85:1 102:1 118:1 119:1 136:1 137:1 138:1 139:1 140:1 141:1 151:1 166:1 181:1 
0.9631194716137393 87:1 103:1 119:1 133:1 134:1 135:1 136:1 137:1 138:1 139:1 140:1 141:1 151:1 167:1 183:1 199:1 
1.035636440719185 72:1 73:1 87:1 88:1 101:1 102:1 103:1 118:1 125:1 134:1 139:1 150:1 155:1 166:1 171:1 182:1 187:1 198:1 203:1 
1.677615451507171 87:1 102:1 117:1 125:1 182:1 184:1 198:1 
0.6387142335277326 72:1 87:1 101:1 102:1 104:1 108:1 109:1 117:1 118:1 120:1 123:1 125:1 134:1 136:1 138:1 141:1 150:1 152:1 153:1 157:1 166:1 168:1 173:1 182:1 184:1 189:1 198:1 204:1 205:1 
0.331651538888292 72:1 87:1 88:1 101:1 102:1 103:1 104:1 107:1 108:1 109:1 117:1 118:1 120:1 122:1 123:1 125:1 134:1 136:1 137:1 138:1 141:1 150:1 152:1 153:1 157:1 166:1 168:1 173:1 182:1 189:1 204:1 205:1 
1.384014885230166 70:1 86:1 93:1 102:1 109:1 118:1 125:1 126:1 134:1 136:1 137:1 138:1 139:1 140:1 141:1 150:1 152:1 166:1 167:1 182:1 183:1 198:1 
0.3997143328234877 125:1 136:1 137:1 138:1 139:1 140:1 141:1 151:1 166:1 181:1 
1.854559271968936 72:1 73:1 87:1 102:1 117:1 125:1 135:1 136:1 137:1 138:1 139:1 140:1 141:1 150:1 183:1 184:1 185:1 186:1 
2.008483767185782 72:1 73:1 87:1 102:1 117:1 125:1 135:1 136:1 137:1 138:1 139:1 140:1 141:1 150:1 183:1 184:1 185:1 186:1 
0.4308795202116182 72:1 88:1 104:1 120:1 125:1 136:1 137:1 138:1 139:1 140:1 141:1 152:1 168:1 184:1 200:1 
0.8067746923133321 72:1 85:1 101:1 117:1 125:1 133:1 134:1 135:1 136:1 137:1 138:1 139:1 140:1 141:1 149:1 165:1 181:1 200:1 
0.669003322583776 72:1 87:1 88:1 90:1 103:1 106:1 117:1 118:1 122:1 133:1 136:1 137:1 138:1 139:1 140:1 141:1 150:1 154:1 167:1 170:1 183:1 186:1 200:1 202:1 
0.05650203644959564 72:1 75:1 87:1 88:1 91:1 103:1 107:1 118:1 123:1 133:1 136:1 137:1 138:1 139:1 140:1 141:1 142:1 150:1 155:1 167:1 171:1 183:1 184:1 187:1 200:1 203:1 216:1 
0.3124095580035861 72:1 86:1 87:1 88:1 89:1 90:1 91:1 92:1 93:1 101:1 102:1 118:1 119:1 120:1 134:1 136:1 137:1 138:1 139:1 140:1 141:1 149:1 150:1 154:1 157:1 166:1 169:1 170:1 173:1 182:1 185:1 189:1 198:1 199:1 204:1 205:1 
0.159408889640907 72:1 73:1 86:1 87:1 88:1 89:1 90:1 91:1 92:1 93:1 101:1 102:1 118:1 122:1 136:1 137:1 138:1 139:1 140:1 141:1 150:1 151:1 198:1 201:1 205:1 
-3 87:1 102:1 103:1 117:1 118:1 125:1 134:1 136:1 137:1 138:1 139:1 140:1 141:1 150:1 166:1 182:1 184:1 198:1 
-3 72:1 86:1 87:1 101:1 102:1 109:1 118:1 134:1 135:1 136:1 137:1 138:1 139:1 140:1 141:1 150:1 166:1 182:1 184:1 198:1 199:1 200:1 
-3 72:1 87:1 88:1 101:1 102:1 103:1 117:1 118:1 125:1 134:1 136:1 137:1 138:1 139:1 140:1 141:1 150:1 166:1 182:1 183:1 184:1 198:1 199:1 
-3 72:1 87:1 102:1 117:1 125:1 136:1 137:1 138:1 139:1 140:1 141:1 183:1 
-3 72:1 87:1 102:1 117:1 125:1 136:1 137:1 138:1 139:1 140:1 141:1 183:1 
