svm_type c_svc
kernel_type rbf
gamma 0.015625
nr_class 2
total_sv 30
rho -1.59766
label -1 1
nr_sv 25 5
SV
2.27945478114842 70:1 75:1 86:1 90:1 102:1 105:1 106:1 118:1 119:1 120:1 134:1 150:1 166:1 182:1 
0.3601647255758592 86:1 89:1 102:1 105:1 118:1 121:1 134:1 137:1 150:1 153:1 166:1 169:1 182:1 185:1 198:1 204:1 
0.9839220384645541 70:1 77:1 86:1 92:1 93:1 102:1 106:1 107:1 108:1 118:1 119:1 120:1 121:1 122:1 134:1 150:1 166:1 167:1 168:1 169:1 170:1 171:1 172:1 173:1 182:1 198:1 
0.8290264552444109 77:1 85:1 86:1 88:1 89:1 90:1 91:1 92:1 101:1 103:1 104:1 117:1 120:1 133:1 136:1 149:1 150:1 151:1 152:1 165:1 168:1 181:1 183:1 184:1 197:1 200:1 
0.2940998555935553 69:1 76:1 77:1 85:1 87:1 89:1 90:1 91:1 101:1 117:1 118:1 119:1 120:1 133:1 149:1 150:1 151:1 152:1 165:1 181:1 182:1 183:1 184:1 197:1 201:1 
2.004304519728905 76:1 77:1 87:1 89:1 90:1 103:1 104:1 118:1 119:1 120:1 150:1 151:1 152:1 167:1 181:1 182:1 183:1 
0.08022787099650433 86:1 102:1 103:1 104:1 120:1 152:1 167:1 168:1 182:1 183:1 
0.02477615771000855 77:1 85:1 91:1 92:1 101:1 105:1 106:1 107:1 117:1 118:1 119:1 120:1 133:1 149:1 157:1 165:1 166:1 167:1 168:1 173:1 184:1 187:1 188:1 189:1 200:1 201:1 202:1 
1.266334736307584 70:1 86:1 102:1 118:1 134:1 150:1 166:1 168:1 182:1 183:1 184:1 198:1 
0.02306949170583154 70:1 74:1 91:1 102:1 103:1 107:1 125:1 133:1 134:1 135:1 136:1 137:1 138:1 139:1 140:1 141:1 152:1 166:1 167:1 184:1 185:1 186:1 187:1 201:1 
0.4327896945211704 74:1 77:1 89:1 91:1 103:1 104:1 107:1 118:1 119:1 121:1 123:1 133:1 135:1 139:1 153:1 154:1 155:1 166:1 167:1 168:1 171:1 187:1 201:1 202:1 
0.07214547259667968 70:1 77:1 86:1 88:1 89:1 93:1 102:1 104:1 109:1 117:1 118:1 121:1 122:1 124:1 133:1 134:1 139:1 150:1 153:1 154:1 156:1 166:1 167:1 168:1 172:1 182:1 184:1 189:1 198:1 205:1 
0.1733395202140362 70:1 77:1 86:1 91:1 93:1 102:1 104:1 107:1 118:1 119:1 122:1 124:1 133:1 134:1 135:1 137:1 139:1 140:1 150:1 152:1 155:1 166:1 170:1 172:1 182:1 185:1 189:1 198:1 
1.107161106277362 70:1 86:1 102:1 103:1 104:1 118:1 125:1 133:1 134:1 139:1 140:1 141:1 150:1 155:1 166:1 167:1 168:1 170:1 182:1 185:1 198:1 
0.7764024102065319 70:1 72:1 73:1 86:1 87:1 88:1 89:1 90:1 102:1 105:1 118:1 119:1 120:1 133:1 134:1 137:1 150:1 153:1 166:1 182:1 183:1 184:1 187:1 188:1 189:1 198:1 200:1 201:1 205:1 
0.03223364381160219 70:1 86:1 87:1 88:1 89:1 90:1 102:1 105:1 106:1 118:1 119:1 122:1 133:1 134:1 137:1 138:1 150:1 151:1 152:1 153:1 154:1 166:1 167:1 170:1 171:1 172:1 182:1 184:1 188:1 189:1 198:1 200:1 205:1 
0.9939684670150846 70:1 73:1 74:1 77:1 86:1 89:1 93:1 102:1 103:1 104:1 105:1 109:1 118:1 119:1 120:1 121:1 123:1 133:1 134:1 135:1 136:1 137:1 149:1 150:1 151:1 152:1 153:1 166:1 167:1 168:1 169:1 173:1 182:1 185:1 189:1 201:1 202:1 204:1 205:1 
0.84072632544903 70:1 77:1 86:1 88:1 89:1 90:1 91:1 92:1 102:1 104:1 105:1 108:1 109:1 117:1 118:1 120:1 121:1 126:1 133:1 134:1 136:1 137:1 139:1 140:1 141:1 150:1 152:1 153:1 166:1 168:1 169:1 172:1 182:1 184:1 185:1 186:1 187:1 188:1 198:1 205:1 
0.1616216937319657 70:1 73:1 74:1 86:1 87:1 88:1 89:1 90:1 91:1 92:1 93:1 94:1 102:1 103:1 118:1 120:1 121:1 122:1 123:1 124:1 133:1 134:1 136:1 138:1 140:1 150:1 152:1 154:1 156:1 166:1 168:1 170:1 172:1 182:1 184:1 186:1 188:1 198:1 
0.7552273543536323 72:1 86:1 87:1 88:1 89:1 90:1 91:1 92:1 93:1 101:1 119:1 120:1 133:1 134:1 150:1 151:1 152:1 153:1 154:1 155:1 156:1 157:1 166:1 182:1 198:1 201:1 
0.7373083509547245 72:1 73:1 86:1 87:1 88:1 89:1 90:1 91:1 92:1 93:1 101:1 102:1 118:1 119:1 120:1 149:1 166:1 198:1 199:1 200:1 
0.2313442411099749 73:1 86:1 87:1 88:1 89:1 90:1 91:1 92:1 93:1 101:1 102:1 119:1 122:1 133:1 134:1 135:1 137:1 150:1 152:1 166:1 167:1 169:1 182:1 185:1 186:1 187:1 188:1 189:1 202:1 
0.2402517084583812 72:1 86:1 87:1 88:1 89:1 90:1 91:1 92:1 93:1 101:1 104:1 118:1 119:1 120:1 121:1 122:1 123:1 133:1 134:1 136:1 137:1 151:1 152:1 153:1 157:1 166:1 167:1 168:1 169:1 182:1 184:1 185:1 200:1 203:1 204:1 
0.01407708563212102 72:1 87:1 88:1 89:1 90:1 91:1 92:1 93:1 101:1 102:1 105:1 118:1 120:1 134:1 135:1 138:1 139:1 149:1 150:1 157:1 166:1 167:1 168:1 173:1 182:1 184:1 185:1 187:1 188:1 198:1 200:1 
0.2860222931920708 72:1 86:1 87:1 88:1 89:1 90:1 91:1 92:1 93:1 101:1 104:1 119:1 120:1 133:1 134:1 136:1 140:1 150:1 152:1 166:1 168:1 169:1 170:1 171:1 172:1 173:1 182:1 189:1 198:1 199:1 200:1 201:1 
-3 77:1 86:1 88:1 89:1 90:1 91:1 92:1 102:1 104:1 118:1 119:1 120:1 133:1 134:1 136:1 149:1 150:1 152:1 166:1 167:1 168:1 182:1 184:1 200:1 
-3 70:1 74:1 75:1 76:1 77:1 86:1 89:1 102:1 103:1 105:1 118:1 120:1 121:1 133:1 134:1 137:1 150:1 152:1 153:1 166:1 167:1 168:1 169:1 182:1 185:1 198:1 201:1 
-3 76:1 77:1 86:1 89:1 90:1 91:1 92:1 102:1 103:1 118:1 119:1 120:1 133:1 134:1 150:1 166:1 167:1 168:1 182:1 183:1 198:1 201:1 
-3 70:1 77:1 86:1 89:1 90:1 91:1 102:1 118:1 119:1 120:1 133:1 134:1 150:1 152:1 166:1 167:1 182:1 198:1 200:1 
-3 70:1 77:1 86:1 89:1 90:1 91:1 102:1 118:1 119:1 120:1 133:1 134:1 150:1 152:1 166:1 167:1 182:1 198:1 200:1 
