svm_type c_svc
kernel_type rbf
gamma 0.015625
nr_class 2
total_sv 31
rho -1.54892
label -1 1
nr_sv 26 5
SV
0.5847357424242435 72:1 86:1 87:1 88:1 90:1 91:1 101:1 102:1 104:1 105:1 119:1 120:1 136:1 150:1 151:1 152:1 154:1 155:1 165:1 168:1 183:1 204:1 
0.7150106913960509 120:1 136:1 137:1 153:1 154:1 
0.4430603372636977 87:1 89:1 103:1 105:1 106:1 107:1 119:1 120:1 121:1 122:1 123:1 124:1 125:1 151:1 152:1 153:1 154:1 155:1 156:1 157:1 167:1 169:1 170:1 183:1 189:1 
0.1001407404389832 71:1 87:1 102:1 103:1 120:1 137:1 138:1 154:1 155:1 171:1 172:1 188:1 204:1 
0.5505854220909847 77:1 86:1 87:1 92:1 93:1 103:1 104:1 108:1 121:1 122:1 123:1 138:1 139:1 153:1 155:1 166:1 167:1 168:1 172:1 182:1 188:1 205:1 
0.4100038026862902 77:1 78:1 86:1 87:1 93:1 104:1 105:1 109:1 122:1 123:1 124:1 139:1 140:1 153:1 154:1 155:1 156:1 167:1 168:1 169:1 173:1 182:1 183:1 189:1 205:1 206:1 
0.3734463866018956 87:1 103:1 105:1 119:1 122:1 135:1 151:1 154:1 167:1 169:1 182:1 183:1 184:1 
1.76746628612441 70:1 86:1 87:1 102:1 104:1 105:1 118:1 121:1 134:1 150:1 153:1 166:1 168:1 169:1 181:1 183:1 184:1 197:1 
0.5176987615855385 71:1 87:1 88:1 103:1 104:1 105:1 118:1 119:1 122:1 134:1 135:1 150:1 154:1 166:1 168:1 169:1 170:1 182:1 184:1 198:1 
0.1842899734834373 77:1 102:1 103:1 104:1 105:1 106:1 108:1 123:1 149:1 152:1 153:1 154:1 165:1 202:1 
0.5282447605705903 102:1 103:1 104:1 105:1 106:1 149:1 152:1 153:1 154:1 155:1 165:1 172:1 188:1 189:1 202:1 
0.007071661201418682 74:1 89:1 93:1 104:1 105:1 108:1 118:1 119:1 121:1 122:1 133:1 149:1 152:1 153:1 154:1 157:1 165:1 169:1 183:1 185:1 186:1 202:1 
3 168:1 182:1 183:1 
3 168:1 182:1 183:1 
0.3157021611303316 72:1 77:1 86:1 88:1 90:1 104:1 106:1 120:1 122:1 136:1 138:1 152:1 154:1 168:1 170:1 184:1 186:1 200:1 
0.450950315759498 77:1 86:1 88:1 90:1 104:1 106:1 120:1 122:1 133:1 134:1 135:1 136:1 138:1 152:1 154:1 168:1 170:1 182:1 183:1 184:1 186:1 
0.07346355341263126 75:1 77:1 88:1 89:1 104:1 107:1 108:1 119:1 120:1 121:1 122:1 133:1 134:1 141:1 151:1 152:1 153:1 154:1 155:1 156:1 157:1 168:1 182:1 185:1 198:1 202:1 
0.1509723802142709 73:1 87:1 88:1 101:1 102:1 104:1 105:1 106:1 107:1 108:1 109:1 182:1 204:1 
0.09893866403842988 73:1 87:1 88:1 102:1 103:1 104:1 105:1 106:1 107:1 108:1 109:1 117:1 125:1 139:1 140:1 149:1 150:1 151:1 152:1 153:1 154:1 173:1 183:1 189:1 199:1 200:1 
0.7122185601060086 73:1 104:1 107:1 118:1 119:1 121:1 124:1 133:1 137:1 140:1 151:1 153:1 154:1 157:1 168:1 184:1 
0.0624990817764659 73:1 87:1 88:1 93:1 101:1 102:1 103:1 117:1 120:1 121:1 125:1 135:1 141:1 149:1 154:1 156:1 165:1 171:1 172:1 182:1 183:1 186:1 187:1 200:1 201:1 
0.1555639900715014 73:1 87:1 88:1 93:1 101:1 102:1 103:1 104:1 108:1 109:1 117:1 125:1 134:1 139:1 153:1 154:1 187:1 200:1 204:1 205:1 
0.0826041896528727 72:1 85:1 86:1 87:1 88:1 89:1 90:1 91:1 92:1 93:1 101:1 104:1 107:1 121:1 122:1 133:1 137:1 141:1 149:1 153:1 154:1 166:1 167:1 168:1 169:1 170:1 171:1 189:1 197:1 
0.07076847731626862 86:1 87:1 88:1 89:1 90:1 91:1 92:1 93:1 101:1 102:1 121:1 125:1 140:1 153:1 154:1 155:1 172:1 181:1 182:1 183:1 184:1 189:1 202:1 205:1 
0.5642733343630726 73:1 86:1 87:1 88:1 89:1 90:1 91:1 92:1 93:1 101:1 104:1 107:1 121:1 122:1 141:1 149:1 153:1 154:1 156:1 157:1 167:1 168:1 169:1 170:1 182:1 186:1 204:1 205:1 
0.08029072629110698 73:1 87:1 88:1 101:1 102:1 103:1 104:1 109:1 117:1 120:1 125:1 134:1 135:1 139:1 140:1 149:1 153:1 154:1 155:1 167:1 168:1 172:1 184:1 185:1 186:1 187:1 200:1 
-3 71:1 87:1 88:1 104:1 121:1 153:1 154:1 168:1 183:1 
-3 86:1 102:1 103:1 104:1 120:1 152:1 167:1 168:1 182:1 183:1 
-3 87:1 88:1 104:1 105:1 106:1 121:1 122:1 154:1 155:1 168:1 169:1 170:1 183:1 184:1 
-3 87:1 104:1 121:1 153:1 154:1 168:1 182:1 183:1 
-3 87:1 104:1 121:1 153:1 154:1 168:1 182:1 183:1 
