svm_type c_svc
kernel_type rbf
gamma 0.015625
nr_class 2
total_sv 33
rho -1.56709
label -1 1
nr_sv 28 5
SV
0.2834519533393452 72:1 73:1 74:1 75:1 76:1 77:1 78:1 91:1 92:1 105:1 106:1 107:1 118:1 119:1 120:1 122:1 139:1 140:1 150:1 151:1 152:1 153:1 154:1 155:1 170:1 171:1 174:1 187:1 188:1 190:1 200:1 201:1 202:1 203:1 204:1 205:1 
0.2346911076651226 73:1 86:1 89:1 102:1 105:1 118:1 119:1 120:1 121:1 122:1 123:1 124:1 134:1 137:1 140:1 141:1 149:1 153:1 157:1 165:1 169:1 173:1 181:1 189:1 200:1 203:1 204:1 205:1 
0.1562983547509416 69:1 76:1 91:1 93:1 106:1 109:1 120:1 121:1 125:1 135:1 136:1 141:1 150:1 151:1 157:1 166:1 173:1 181:1 189:1 203:1 204:1 
0.04186743806768641 86:1 90:1 91:1 92:1 105:1 106:1 120:1 135:1 150:1 151:1 166:1 204:1 
0.8697268969393793 71:1 72:1 73:1 74:1 75:1 76:1 92:1 101:1 102:1 103:1 104:1 105:1 106:1 107:1 108:1 124:1 149:1 150:1 151:1 152:1 153:1 154:1 155:1 156:1 157:1 173:1 189:1 204:1 205:1 
2.719848623786509 76:1 92:1 101:1 102:1 103:1 104:1 105:1 106:1 107:1 108:1 119:1 120:1 121:1 122:1 123:1 124:1 149:1 150:1 151:1 152:1 153:1 154:1 155:1 156:1 157:1 173:1 189:1 204:1 205:1 
1.360584524763776 72:1 87:1 88:1 101:1 102:1 104:1 119:1 120:1 136:1 149:1 150:1 151:1 152:1 153:1 154:1 155:1 156:1 173:1 189:1 203:1 204:1 205:1 
0.4017099832545703 73:1 74:1 75:1 76:1 77:1 89:1 92:1 101:1 102:1 103:1 104:1 105:1 108:1 119:1 121:1 124:1 135:1 137:1 138:1 140:1 141:1 173:1 189:1 204:1 205:1 
0.5980477020427939 70:1 73:1 75:1 86:1 87:1 88:1 89:1 91:1 101:1 102:1 105:1 106:1 107:1 108:1 109:1 118:1 119:1 120:1 121:1 123:1 134:1 137:1 139:1 149:1 150:1 151:1 152:1 153:1 154:1 155:1 156:1 157:1 173:1 189:1 204:1 205:1 
0.9907782593664997 87:1 88:1 101:1 105:1 106:1 107:1 108:1 109:1 118:1 119:1 120:1 149:1 150:1 151:1 152:1 153:1 154:1 155:1 156:1 157:1 173:1 189:1 203:1 204:1 205:1 
0.4143908337413059 70:1 72:1 73:1 74:1 75:1 76:1 85:1 86:1 87:1 89:1 91:1 92:1 93:1 94:1 102:1 105:1 108:1 118:1 120:1 121:1 122:1 123:1 124:1 135:1 136:1 140:1 141:1 149:1 150:1 151:1 155:1 156:1 157:1 166:1 170:1 171:1 182:1 185:1 186:1 198:1 201:1 204:1 205:1 
1.317796661960928 69:1 73:1 74:1 76:1 77:1 85:1 87:1 88:1 90:1 91:1 92:1 93:1 101:1 102:1 103:1 105:1 106:1 107:1 108:1 109:1 117:1 119:1 120:1 122:1 123:1 124:1 133:1 134:1 138:1 140:1 149:1 150:1 151:1 152:1 153:1 154:1 155:1 156:1 173:1 189:1 204:1 205:1 
0.1056538893034396 72:1 73:1 86:1 87:1 88:1 89:1 90:1 91:1 92:1 93:1 101:1 102:1 108:1 118:1 119:1 204:1 
0.1111519008266627 72:1 73:1 86:1 87:1 88:1 89:1 90:1 91:1 92:1 93:1 101:1 102:1 109:1 119:1 124:1 135:1 140:1 151:1 156:1 167:1 172:1 183:1 188:1 204:1 
0.4664258464038469 73:1 87:1 88:1 89:1 90:1 91:1 92:1 93:1 101:1 102:1 123:1 124:1 134:1 135:1 136:1 182:1 189:1 203:1 204:1 205:1 
0.4147790056677727 72:1 73:1 86:1 87:1 88:1 89:1 90:1 91:1 92:1 93:1 94:1 101:1 102:1 119:1 120:1 121:1 122:1 123:1 124:1 125:1 141:1 157:1 173:1 189:1 199:1 200:1 201:1 202:1 203:1 204:1 205:1 206:1 
2.006930079956939 73:1 86:1 87:1 88:1 89:1 90:1 91:1 92:1 93:1 101:1 102:1 119:1 120:1 121:1 122:1 123:1 124:1 140:1 149:1 150:1 151:1 152:1 153:1 154:1 155:1 156:1 172:1 188:1 199:1 204:1 205:1 
0.04076042058494353 72:1 73:1 86:1 87:1 88:1 89:1 90:1 91:1 92:1 93:1 101:1 102:1 109:1 125:1 141:1 149:1 150:1 151:1 152:1 153:1 154:1 155:1 156:1 157:1 168:1 173:1 184:1 189:1 205:1 
0.09835107407204922 72:1 73:1 86:1 87:1 88:1 89:1 90:1 91:1 92:1 93:1 101:1 102:1 108:1 119:1 123:1 135:1 137:1 138:1 149:1 150:1 151:1 152:1 153:1 154:1 155:1 156:1 157:1 167:1 168:1 169:1 183:1 186:1 187:1 199:1 203:1 204:1 
0.3368840231719051 73:1 87:1 88:1 89:1 90:1 91:1 92:1 93:1 101:1 102:1 125:1 138:1 139:1 140:1 151:1 152:1 153:1 154:1 173:1 181:1 182:1 183:1 184:1 185:1 189:1 203:1 204:1 205:1 
0.1422889742289543 72:1 73:1 86:1 87:1 88:1 89:1 90:1 91:1 92:1 93:1 101:1 102:1 119:1 120:1 123:1 124:1 133:1 134:1 135:1 136:1 139:1 149:1 151:1 152:1 153:1 155:1 167:1 170:1 173:1 183:1 189:1 199:1 200:1 201:1 202:1 203:1 204:1 
0.205382816488333 72:1 87:1 88:1 89:1 90:1 91:1 92:1 93:1 101:1 102:1 109:1 121:1 122:1 123:1 124:1 153:1 154:1 155:1 156:1 157:1 170:1 173:1 185:1 189:1 203:1 204:1 205:1 
0.3834798868320358 72:1 87:1 88:1 89:1 90:1 91:1 92:1 93:1 101:1 102:1 123:1 124:1 125:1 134:1 135:1 136:1 140:1 153:1 154:1 156:1 170:1 171:1 172:1 184:1 189:1 203:1 204:1 205:1 
0.1530904049045181 72:1 73:1 87:1 88:1 89:1 90:1 91:1 92:1 93:1 101:1 102:1 109:1 119:1 123:1 133:1 149:1 150:1 166:1 173:1 181:1 182:1 199:1 201:1 203:1 
0.2291732643010967 72:1 73:1 85:1 86:1 87:1 88:1 89:1 90:1 91:1 92:1 93:1 94:1 101:1 102:1 118:1 123:1 124:1 125:1 126:1 134:1 141:1 149:1 150:1 151:1 152:1 157:1 166:1 173:1 182:1 189:1 198:1 203:1 204:1 205:1 206:1 
0.02144342478143121 72:1 73:1 86:1 87:1 88:1 89:1 90:1 91:1 92:1 93:1 101:1 120:1 121:1 122:1 123:1 125:1 140:1 149:1 150:1 151:1 153:1 154:1 155:1 156:1 166:1 171:1 172:1 182:1 188:1 198:1 203:1 205:1 
0.7764257309628218 72:1 76:1 77:1 86:1 87:1 89:1 90:1 91:1 101:1 102:1 103:1 105:1 106:1 119:1 120:1 123:1 124:1 125:1 133:1 134:1 135:1 136:1 137:1 138:1 139:1 140:1 141:1 152:1 154:1 157:1 168:1 170:1 173:1 184:1 186:1 189:1 205:1 
0.118586917834394 73:1 87:1 88:1 89:1 90:1 91:1 92:1 93:1 101:1 102:1 119:1 121:1 123:1 135:1 140:1 141:1 149:1 150:1 151:1 152:1 154:1 157:1 167:1 173:1 183:1 187:1 188:1 189:1 199:1 203:1 204:1 
-3 72:1 76:1 87:1 91:1 92:1 101:1 102:1 105:1 106:1 108:1 119:1 120:1 122:1 123:1 124:1 140:1 149:1 150:1 151:1 152:1 153:1 154:1 155:1 156:1 157:1 173:1 189:1 203:1 204:1 205:1 
-3 72:1 73:1 76:1 77:1 86:1 87:1 89:1 91:1 92:1 93:1 101:1 102:1 105:1 106:1 109:1 120:1 121:1 123:1 124:1 125:1 141:1 173:1 203:1 204:1 205:1 
-3 72:1 73:1 76:1 86:1 87:1 88:1 89:1 91:1 92:1 101:1 102:1 105:1 106:1 108:1 119:1 120:1 123:1 124:1 135:1 140:1 149:1 150:1 151:1 152:1 153:1 154:1 155:1 156:1 173:1 189:1 204:1 205:1 
-3 73:1 76:1 87:1 89:1 91:1 92:1 101:1 102:1 106:1 108:1 119:1 120:1 123:1 124:1 140:1 149:1 150:1 151:1 152:1 153:1 154:1 155:1 156:1 173:1 189:1 203:1 204:1 205:1 
-3 73:1 76:1 87:1 89:1 91:1 92:1 101:1 102:1 106:1 108:1 119:1 120:1 123:1 124:1 140:1 149:1 150:1 151:1 152:1 153:1 154:1 155:1 156:1 173:1 189:1 203:1 204:1 205:1 
