svm_type c_svc
kernel_type rbf
gamma 0.015625
nr_class 2
total_sv 39
rho -1.50927
label -1 1
nr_sv 34 5
SV
0.2458101168615497 73:1 89:1 105:1 117:1 118:1 119:1 120:1 121:1 122:1 123:1 124:1 125:1 136:1 141:1 152:1 157:1 168:1 173:1 184:1 189:1 199:1 204:1 205:1 
0.7751196761944013 71:1 77:1 88:1 89:1 90:1 93:1 106:1 109:1 117:1 118:1 119:1 120:1 121:1 122:1 123:1 124:1 125:1 141:1 149:1 150:1 151:1 152:1 153:1 154:1 155:1 156:1 157:1 170:1 173:1 184:1 185:1 186:1 189:1 199:1 200:1 205:1 
0.3988399721424338 69:1 85:1 101:1 106:1 107:1 117:1 118:1 119:1 120:1 121:1 122:1 133:1 138:1 139:1 140:1 149:1 150:1 151:1 152:1 153:1 154:1 165:1 170:1 173:1 181:1 189:1 197:1 200:1 201:1 202:1 203:1 204:1 205:1 
0.04787015468306875 106:1 107:1 118:1 119:1 120:1 121:1 124:1 138:1 139:1 150:1 151:1 152:1 153:1 154:1 170:1 173:1 189:1 197:1 
0.6800643745709529 85:1 89:1 92:1 93:1 105:1 107:1 108:1 117:1 118:1 119:1 120:1 121:1 122:1 149:1 150:1 151:1 152:1 153:1 154:1 155:1 156:1 157:1 169:1 185:1 197:1 202:1 
0.0100175463486043 86:1 90:1 93:1 108:1 117:1 118:1 119:1 120:1 121:1 122:1 123:1 149:1 150:1 151:1 152:1 153:1 154:1 155:1 156:1 157:1 198:1 200:1 201:1 
0.4506677354156621 71:1 73:1 77:1 78:1 87:1 89:1 90:1 92:1 93:1 103:1 106:1 107:1 108:1 117:1 118:1 119:1 120:1 121:1 122:1 123:1 135:1 139:1 151:1 167:1 168:1 169:1 170:1 171:1 172:1 173:1 203:1 204:1 205:1 
0.272288525874833 71:1 77:1 87:1 89:1 92:1 93:1 103:1 105:1 107:1 108:1 117:1 118:1 119:1 120:1 121:1 122:1 135:1 138:1 139:1 151:1 167:1 168:1 169:1 170:1 171:1 172:1 173:1 189:1 203:1 204:1 205:1 
0.3471816034467903 72:1 87:1 101:1 102:1 104:1 108:1 109:1 117:1 118:1 120:1 123:1 125:1 134:1 136:1 138:1 141:1 150:1 152:1 153:1 157:1 166:1 168:1 173:1 182:1 184:1 189:1 198:1 204:1 205:1 
0.2266299044905429 85:1 89:1 92:1 93:1 101:1 105:1 108:1 109:1 117:1 121:1 123:1 125:1 133:1 134:1 136:1 137:1 141:1 149:1 150:1 151:1 153:1 154:1 157:1 165:1 167:1 169:1 173:1 181:1 184:1 185:1 189:1 197:1 203:1 204:1 
0.1247485592169313 92:1 93:1 103:1 107:1 109:1 119:1 120:1 125:1 138:1 141:1 149:1 152:1 154:1 157:1 165:1 166:1 167:1 169:1 173:1 181:1 185:1 189:1 204:1 205:1 
0.1095358091984806 72:1 77:1 85:1 87:1 88:1 90:1 92:1 93:1 101:1 103:1 104:1 106:1 108:1 109:1 118:1 119:1 120:1 122:1 123:1 124:1 125:1 136:1 138:1 139:1 141:1 152:1 154:1 155:1 157:1 168:1 170:1 173:1 184:1 189:1 200:1 204:1 205:1 
1.345294186159135 72:1 86:1 88:1 92:1 93:1 102:1 103:1 104:1 107:1 109:1 117:1 118:1 123:1 125:1 138:1 141:1 149:1 150:1 151:1 152:1 153:1 154:1 157:1 169:1 170:1 173:1 189:1 199:1 204:1 205:1 
0.1047259753660949 70:1 72:1 73:1 77:1 85:1 86:1 87:1 88:1 90:1 92:1 93:1 102:1 105:1 106:1 108:1 118:1 119:1 120:1 121:1 122:1 123:1 124:1 138:1 139:1 150:1 151:1 152:1 153:1 154:1 155:1 166:1 168:1 170:1 173:1 182:1 184:1 189:1 198:1 199:1 200:1 201:1 204:1 205:1 
0.5683715051408823 70:1 72:1 73:1 86:1 87:1 88:1 89:1 90:1 92:1 93:1 101:1 102:1 103:1 106:1 107:1 108:1 109:1 118:1 120:1 122:1 123:1 125:1 134:1 135:1 138:1 139:1 141:1 150:1 151:1 152:1 154:1 157:1 166:1 168:1 170:1 173:1 182:1 184:1 189:1 198:1 199:1 200:1 204:1 205:1 
0.1205440962982717 69:1 72:1 85:1 87:1 89:1 92:1 93:1 101:1 102:1 103:1 104:1 105:1 107:1 108:1 109:1 117:1 120:1 121:1 123:1 125:1 133:1 136:1 137:1 141:1 149:1 152:1 153:1 154:1 157:1 165:1 168:1 169:1 170:1 173:1 181:1 182:1 183:1 184:1 185:1 189:1 197:1 203:1 204:1 
0.743734559179042 69:1 72:1 85:1 87:1 90:1 92:1 93:1 101:1 102:1 103:1 104:1 106:1 107:1 108:1 109:1 117:1 119:1 122:1 123:1 125:1 133:1 135:1 138:1 139:1 141:1 149:1 151:1 154:1 157:1 165:1 167:1 170:1 173:1 181:1 183:1 184:1 186:1 189:1 197:1 204:1 205:1 
0.8953473474238731 72:1 92:1 93:1 103:1 104:1 105:1 107:1 108:1 109:1 118:1 123:1 125:1 141:1 154:1 157:1 169:1 170:1 173:1 181:1 183:1 184:1 189:1 204:1 205:1 
0.6598370962556214 87:1 88:1 101:1 105:1 106:1 107:1 108:1 109:1 118:1 119:1 120:1 149:1 150:1 151:1 152:1 153:1 154:1 155:1 156:1 157:1 173:1 189:1 203:1 204:1 205:1 
1.737711932618907 70:1 85:1 86:1 87:1 88:1 89:1 90:1 92:1 93:1 101:1 103:1 104:1 105:1 106:1 108:1 109:1 119:1 121:1 122:1 123:1 125:1 137:1 138:1 139:1 141:1 149:1 150:1 151:1 152:1 154:1 157:1 168:1 170:1 173:1 182:1 184:1 186:1 189:1 199:1 203:1 204:1 
0.04758756211497289 70:1 75:1 76:1 86:1 87:1 90:1 92:1 101:1 102:1 103:1 106:1 107:1 108:1 109:1 118:1 119:1 122:1 124:1 134:1 139:1 140:1 149:1 150:1 151:1 152:1 153:1 154:1 155:1 156:1 173:1 189:1 204:1 205:1 
0.8550260856191658 73:1 85:1 86:1 87:1 88:1 90:1 92:1 93:1 101:1 106:1 108:1 109:1 117:1 118:1 120:1 122:1 123:1 125:1 136:1 137:1 138:1 139:1 141:1 149:1 150:1 151:1 152:1 154:1 157:1 165:1 167:1 170:1 173:1 181:1 183:1 184:1 185:1 186:1 189:1 197:1 199:1 204:1 205:1 
0.8653311214467884 70:1 72:1 73:1 74:1 77:1 85:1 86:1 87:1 89:1 90:1 92:1 93:1 102:1 103:1 105:1 106:1 108:1 118:1 119:1 120:1 122:1 123:1 124:1 134:1 135:1 138:1 139:1 150:1 151:1 153:1 154:1 155:1 165:1 169:1 170:1 171:1 173:1 182:1 184:1 185:1 189:1 199:1 204:1 205:1 
0.6113045019707829 69:1 77:1 85:1 88:1 89:1 90:1 93:1 101:1 106:1 109:1 117:1 118:1 119:1 120:1 121:1 122:1 123:1 124:1 125:1 133:1 138:1 141:1 149:1 150:1 151:1 152:1 153:1 154:1 155:1 156:1 157:1 165:1 170:1 173:1 181:1 184:1 185:1 186:1 189:1 197:1 205:1 
0.3623302722601778 69:1 77:1 85:1 88:1 89:1 90:1 93:1 101:1 104:1 106:1 109:1 117:1 118:1 119:1 120:1 122:1 123:1 124:1 125:1 133:1 141:1 149:1 150:1 151:1 152:1 154:1 155:1 156:1 157:1 165:1 168:1 170:1 173:1 181:1 184:1 185:1 186:1 189:1 205:1 
0.1537438137586403 72:1 73:1 86:1 87:1 88:1 89:1 90:1 91:1 92:1 93:1 101:1 117:1 118:1 119:1 120:1 121:1 122:1 125:1 133:1 139:1 140:1 149:1 150:1 151:1 152:1 153:1 154:1 165:1 170:1 171:1 172:1 173:1 181:1 182:1 183:1 184:1 185:1 186:1 189:1 204:1 205:1 
0.6675990646278702 72:1 86:1 87:1 88:1 89:1 90:1 91:1 92:1 93:1 101:1 103:1 109:1 117:1 118:1 119:1 120:1 121:1 122:1 123:1 138:1 139:1 140:1 141:1 151:1 152:1 153:1 204:1 205:1 
0.2028036480208711 72:1 86:1 87:1 88:1 89:1 90:1 91:1 92:1 93:1 101:1 117:1 118:1 119:1 120:1 121:1 122:1 123:1 124:1 125:1 133:1 136:1 138:1 149:1 150:1 151:1 152:1 153:1 154:1 155:1 156:1 165:1 168:1 170:1 181:1 184:1 186:1 189:1 197:1 198:1 199:1 200:1 201:1 202:1 203:1 204:1 205:1 
0.04203584915926219 87:1 88:1 89:1 90:1 91:1 92:1 93:1 101:1 102:1 117:1 119:1 138:1 149:1 150:1 151:1 152:1 154:1 170:1 184:1 186:1 187:1 188:1 189:1 
0.0147349076233258 72:1 86:1 87:1 88:1 89:1 90:1 91:1 92:1 93:1 101:1 105:1 109:1 118:1 119:1 120:1 125:1 136:1 137:1 141:1 149:1 150:1 151:1 152:1 153:1 154:1 155:1 156:1 157:1 169:1 173:1 182:1 183:1 184:1 189:1 200:1 201:1 202:1 205:1 
0.01222201435350714 72:1 73:1 85:1 86:1 87:1 88:1 89:1 90:1 91:1 92:1 93:1 94:1 101:1 105:1 106:1 109:1 118:1 119:1 120:1 123:1 125:1 136:1 137:1 139:1 141:1 149:1 150:1 151:1 152:1 153:1 154:1 155:1 156:1 157:1 169:1 170:1 171:1 173:1 183:1 184:1 185:1 187:1 189:1 198:1 200:1 201:1 203:1 205:1 
0.7596921604103414 72:1 73:1 85:1 86:1 87:1 88:1 89:1 90:1 91:1 92:1 93:1 101:1 105:1 109:1 118:1 119:1 120:1 122:1 125:1 136:1 138:1 141:1 149:1 150:1 151:1 152:1 153:1 154:1 155:1 156:1 157:1 168:1 169:1 170:1 173:1 182:1 183:1 184:1 186:1 189:1 200:1 205:1 
0.2801671447911427 73:1 86:1 87:1 88:1 89:1 90:1 91:1 92:1 93:1 101:1 102:1 105:1 120:1 122:1 123:1 124:1 125:1 135:1 141:1 150:1 151:1 152:1 153:1 154:1 157:1 167:1 173:1 184:1 186:1 189:1 197:1 200:1 
0.2610811769570725 72:1 73:1 86:1 87:1 88:1 89:1 90:1 91:1 92:1 93:1 101:1 102:1 118:1 120:1 122:1 123:1 124:1 134:1 139:1 140:1 141:1 149:1 150:1 151:1 152:1 153:1 154:1 157:1 166:1 170:1 171:1 173:1 182:1 184:1 188:1 189:1 198:1 203:1 204:1 
-3 85:1 86:1 87:1 89:1 90:1 92:1 93:1 101:1 103:1 106:1 108:1 109:1 117:1 118:1 119:1 120:1 122:1 123:1 125:1 138:1 139:1 141:1 149:1 150:1 151:1 152:1 153:1 154:1 157:1 165:1 168:1 170:1 173:1 181:1 184:1 186:1 189:1 197:1 203:1 204:1 
-3 70:1 71:1 72:1 73:1 77:1 87:1 89:1 90:1 92:1 93:1 101:1 103:1 104:1 105:1 106:1 108:1 117:1 118:1 119:1 120:1 122:1 123:1 124:1 138:1 139:1 150:1 151:1 152:1 153:1 154:1 155:1 166:1 168:1 170:1 173:1 182:1 184:1 189:1 198:1 199:1 200:1 204:1 205:1 
-3 85:1 89:1 90:1 92:1 93:1 101:1 103:1 104:1 105:1 106:1 107:1 108:1 109:1 117:1 118:1 119:1 120:1 122:1 123:1 125:1 138:1 139:1 141:1 149:1 150:1 151:1 152:1 153:1 154:1 157:1 165:1 170:1 173:1 181:1 184:1 186:1 189:1 197:1 204:1 205:1 
-3 86:1 87:1 89:1 90:1 92:1 93:1 105:1 107:1 109:1 117:1 118:1 119:1 120:1 123:1 125:1 141:1 149:1 150:1 151:1 152:1 153:1 154:1 157:1 169:1 170:1 173:1 184:1 189:1 204:1 205:1 
-3 86:1 87:1 89:1 90:1 92:1 93:1 105:1 107:1 109:1 117:1 118:1 119:1 120:1 123:1 125:1 141:1 149:1 150:1 151:1 152:1 153:1 154:1 157:1 169:1 170:1 173:1 184:1 189:1 204:1 205:1 
