svm_type c_svc
kernel_type rbf
gamma 0.015625
nr_class 2
total_sv 26
rho -1.51687
label -1 1
nr_sv 21 5
SV
0.2963377832617096 24:1 25:1 40:1 41:1 56:1 57:1 72:1 73:1 88:1 89:1 104:1 105:1 120:1 121:1 136:1 137:1 152:1 153:1 168:1 169:1 184:1 185:1 200:1 201:1 216:1 217:1 232:1 233:1 248:1 249:1 
1.187997361508463 24:1 40:1 56:1 72:1 88:1 104:1 120:1 136:1 152:1 168:1 184:1 200:1 216:1 231:1 232:1 248:1 
0.03094298886576766 30:1 46:1 52:1 62:1 68:1 72:1 73:1 78:1 84:1 88:1 89:1 94:1 100:1 104:1 105:1 110:1 116:1 120:1 121:1 126:1 132:1 136:1 137:1 142:1 148:1 152:1 153:1 158:1 164:1 168:1 169:1 174:1 180:1 184:1 185:1 190:1 196:1 200:1 201:1 206:1 212:1 222:1 238:1 254:1 
0.3601674183453346 36:1 52:1 132:1 133:1 134:1 135:1 136:1 137:1 138:1 139:1 140:1 141:1 142:1 143:1 151:1 168:1 184:1 185:1 200:1 201:1 202:1 211:1 218:1 227:1 
0.8285491600356276 19:1 28:1 35:1 43:1 51:1 59:1 67:1 73:1 74:1 83:1 88:1 89:1 99:1 103:1 104:1 115:1 117:1 118:1 119:1 131:1 132:1 133:1 134:1 135:1 136:1 137:1 138:1 139:1 140:1 141:1 142:1 143:1 147:1 148:1 150:1 163:1 167:1 179:1 184:1 195:1 200:1 201:1 211:1 217:1 218:1 226:1 227:1 234:1 235:1 243:1 251:1 
0.8278281903557626 28:1 36:1 43:1 44:1 47:1 52:1 59:1 63:1 73:1 74:1 88:1 89:1 90:1 103:1 104:1 105:1 118:1 119:1 132:1 133:1 134:1 135:1 136:1 137:1 138:1 139:1 140:1 141:1 142:1 148:1 151:1 184:1 201:1 202:1 211:1 217:1 218:1 222:1 227:1 234:1 235:1 238:1 254:1 
0.4339314553977617 106:1 107:1 118:1 119:1 120:1 121:1 124:1 138:1 139:1 150:1 151:1 152:1 153:1 154:1 170:1 173:1 189:1 197:1 
0.9947043306283351 77:1 85:1 86:1 88:1 89:1 90:1 91:1 92:1 101:1 103:1 104:1 117:1 120:1 133:1 136:1 149:1 150:1 151:1 152:1 165:1 168:1 181:1 183:1 184:1 197:1 200:1 
0.3311233031935889 76:1 77:1 87:1 89:1 90:1 103:1 104:1 118:1 119:1 120:1 150:1 151:1 152:1 167:1 181:1 182:1 183:1 
0.002784206250945502 118:1 122:1 138:1 165:1 
0.514269993262767 20:1 37:1 53:1 54:1 70:1 88:1 89:1 90:1 91:1 92:1 93:1 102:1 117:1 118:1 133:1 148:1 
0.3366877620037829 85:1 102:1 118:1 119:1 136:1 137:1 138:1 139:1 140:1 141:1 151:1 166:1 181:1 
2.996685747956251 85:1 102:1 118:1 119:1 136:1 137:1 138:1 139:1 140:1 141:1 151:1 166:1 181:1 
0.3774469644145773 22:1 23:1 24:1 25:1 26:1 38:1 41:1 54:1 57:1 70:1 73:1 84:1 85:1 86:1 87:1 88:1 89:1 90:1 91:1 92:1 93:1 102:1 105:1 118:1 121:1 134:1 137:1 150:1 151:1 152:1 153:1 154:1 
0.4976551828630229 87:1 88:1 89:1 90:1 103:1 106:1 119:1 122:1 133:1 134:1 135:1 136:1 137:1 138:1 139:1 140:1 141:1 151:1 154:1 167:1 170:1 183:1 184:1 185:1 186:1 
1.217422329472045 87:1 103:1 119:1 133:1 134:1 135:1 136:1 137:1 138:1 139:1 140:1 141:1 151:1 167:1 183:1 199:1 
0.06212269362900261 69:1 72:1 74:1 88:1 90:1 104:1 106:1 118:1 119:1 120:1 121:1 122:1 123:1 124:1 125:1 136:1 138:1 152:1 154:1 165:1 166:1 167:1 168:1 169:1 170:1 171:1 187:1 188:1 189:1 204:1 205:1 
0.001760063659670573 69:1 72:1 74:1 85:1 88:1 90:1 101:1 104:1 106:1 117:1 118:1 119:1 120:1 121:1 122:1 123:1 124:1 125:1 133:1 136:1 138:1 149:1 152:1 154:1 165:1 166:1 167:1 168:1 169:1 170:1 171:1 172:1 188:1 189:1 204:1 205:1 
0.5532464602790495 76:1 88:1 90:1 92:1 119:1 121:1 123:1 133:1 134:1 135:1 136:1 137:1 138:1 139:1 140:1 141:1 150:1 152:1 166:1 168:1 170:1 183:1 185:1 186:1 
2.191349723432446 86:1 88:1 133:1 134:1 135:1 136:1 137:1 138:1 139:1 140:1 141:1 182:1 184:1 
0.9569868811840894 70:1 71:1 75:1 86:1 87:1 88:1 91:1 102:1 103:1 107:1 118:1 119:1 123:1 133:1 134:1 135:1 136:1 137:1 138:1 139:1 140:1 141:1 150:1 151:1 155:1 166:1 167:1 168:1 171:1 182:1 183:1 184:1 187:1 203:1 
-3 73:1 88:1 103:1 104:1 118:1 119:1 133:1 134:1 136:1 137:1 138:1 139:1 140:1 141:1 150:1 151:1 167:1 184:1 200:1 201:1 
-3 8:1 24:1 39:1 54:1 55:1 69:1 84:1 85:1 88:1 89:1 90:1 91:1 92:1 93:1 101:1 102:1 118:1 119:1 135:1 136:1 152:1 
-3 73:1 88:1 103:1 104:1 118:1 119:1 133:1 134:1 136:1 137:1 138:1 139:1 140:1 141:1 150:1 151:1 167:1 168:1 184:1 200:1 201:1 
-3 73:1 88:1 104:1 118:1 119:1 133:1 136:1 137:1 138:1 139:1 140:1 141:1 150:1 151:1 168:1 184:1 
-3 73:1 88:1 104:1 118:1 119:1 133:1 136:1 137:1 138:1 139:1 140:1 141:1 150:1 151:1 168:1 184:1 
