svm_type c_svc
kernel_type rbf
gamma 0.015625
nr_class 2
total_sv 27
rho -1.37063
label -1 1
nr_sv 22 5
SV
0.9389190770788483 70:1 71:1 72:1 73:1 74:1 75:1 76:1 77:1 101:1 102:1 103:1 104:1 105:1 106:1 107:1 108:1 109:1 110:1 119:1 120:1 133:1 134:1 135:1 137:1 141:1 149:1 150:1 153:1 157:1 166:1 168:1 169:1 170:1 171:1 172:1 173:1 182:1 184:1 185:1 189:1 198:1 201:1 202:1 203:1 204:1 205:1 206:1 
0.4356036039855483 71:1 73:1 74:1 85:1 87:1 89:1 93:1 101:1 103:1 105:1 108:1 109:1 117:1 119:1 120:1 121:1 133:1 135:1 149:1 151:1 152:1 165:1 167:1 168:1 169:1 170:1 173:1 181:1 183:1 185:1 199:1 201:1 202:1 
0.5254832643580208 73:1 88:1 101:1 102:1 103:1 104:1 105:1 106:1 107:1 108:1 120:1 125:1 136:1 141:1 151:1 154:1 155:1 157:1 167:1 168:1 169:1 170:1 173:1 183:1 184:1 185:1 186:1 189:1 204:1 205:1 
0.6893623285271202 71:1 72:1 73:1 74:1 75:1 76:1 77:1 93:1 101:1 102:1 103:1 104:1 105:1 106:1 107:1 108:1 109:1 119:1 120:1 121:1 122:1 123:1 124:1 125:1 149:1 150:1 151:1 152:1 153:1 154:1 155:1 156:1 157:1 203:1 204:1 205:1 
0.8092721185054953 76:1 92:1 101:1 102:1 103:1 104:1 105:1 106:1 107:1 108:1 119:1 120:1 121:1 122:1 123:1 124:1 149:1 150:1 151:1 152:1 153:1 154:1 155:1 156:1 157:1 173:1 189:1 204:1 205:1 
1.002023134766551 72:1 87:1 88:1 101:1 102:1 104:1 119:1 120:1 136:1 149:1 150:1 151:1 152:1 153:1 154:1 155:1 156:1 173:1 189:1 203:1 204:1 205:1 
0.5287249898025703 87:1 88:1 101:1 105:1 106:1 107:1 108:1 109:1 118:1 119:1 120:1 149:1 150:1 151:1 152:1 153:1 154:1 155:1 156:1 157:1 173:1 189:1 203:1 204:1 205:1 
0.001473135624585997 72:1 86:1 93:1 101:1 102:1 103:1 104:1 105:1 106:1 107:1 109:1 119:1 120:1 121:1 122:1 123:1 125:1 136:1 138:1 141:1 149:1 150:1 151:1 152:1 154:1 157:1 165:1 166:1 167:1 169:1 170:1 172:1 173:1 181:1 182:1 183:1 184:1 185:1 186:1 187:1 189:1 200:1 204:1 205:1 
0.4317126897428167 70:1 71:1 72:1 73:1 74:1 75:1 76:1 77:1 85:1 86:1 87:1 88:1 89:1 90:1 91:1 92:1 101:1 102:1 103:1 104:1 105:1 106:1 107:1 108:1 119:1 120:1 121:1 122:1 123:1 136:1 137:1 138:1 139:1 150:1 151:1 152:1 153:1 155:1 166:1 167:1 168:1 169:1 170:1 171:1 172:1 184:1 187:1 188:1 198:1 200:1 201:1 203:1 204:1 205:1 
0.1090659473170211 72:1 93:1 101:1 102:1 103:1 104:1 105:1 106:1 107:1 109:1 119:1 120:1 121:1 122:1 123:1 125:1 136:1 138:1 141:1 150:1 151:1 152:1 157:1 167:1 168:1 169:1 170:1 172:1 173:1 181:1 182:1 183:1 184:1 185:1 186:1 187:1 189:1 200:1 203:1 204:1 205:1 
1.328662733694747 70:1 71:1 74:1 75:1 86:1 90:1 91:1 101:1 102:1 103:1 106:1 107:1 108:1 109:1 118:1 119:1 122:1 123:1 135:1 136:1 139:1 149:1 150:1 151:1 152:1 155:1 156:1 157:1 166:1 168:1 169:1 170:1 173:1 182:1 184:1 189:1 198:1 204:1 205:1 
1.141815112417531 70:1 72:1 73:1 74:1 75:1 76:1 85:1 86:1 87:1 89:1 91:1 92:1 93:1 94:1 102:1 105:1 108:1 118:1 120:1 121:1 122:1 123:1 124:1 135:1 136:1 140:1 141:1 149:1 150:1 151:1 155:1 156:1 157:1 166:1 170:1 171:1 182:1 185:1 186:1 198:1 201:1 204:1 205:1 
2.624578980879291 70:1 75:1 76:1 86:1 90:1 91:1 101:1 102:1 103:1 106:1 107:1 108:1 109:1 118:1 120:1 121:1 122:1 123:1 134:1 136:1 139:1 140:1 150:1 151:1 152:1 155:1 156:1 157:1 165:1 166:1 169:1 170:1 173:1 182:1 185:1 189:1 198:1 204:1 205:1 
1.48812414765818 70:1 86:1 90:1 101:1 102:1 103:1 106:1 107:1 108:1 109:1 118:1 122:1 134:1 136:1 139:1 150:1 151:1 155:1 156:1 157:1 165:1 169:1 170:1 173:1 184:1 189:1 198:1 203:1 204:1 205:1 
0.7227166842958588 70:1 71:1 72:1 73:1 75:1 76:1 78:1 86:1 87:1 88:1 89:1 92:1 93:1 101:1 102:1 103:1 104:1 105:1 109:1 118:1 119:1 120:1 121:1 125:1 134:1 135:1 136:1 137:1 139:1 140:1 141:1 150:1 152:1 157:1 165:1 166:1 167:1 168:1 169:1 170:1 171:1 172:1 173:1 189:1 203:1 204:1 205:1 
0.6460356386428688 70:1 74:1 87:1 88:1 89:1 90:1 102:1 106:1 107:1 108:1 109:1 119:1 120:1 121:1 122:1 133:1 136:1 138:1 152:1 154:1 167:1 170:1 183:1 184:1 185:1 186:1 201:1 202:1 205:1 
0.5112449743930937 73:1 87:1 88:1 93:1 101:1 102:1 108:1 109:1 119:1 120:1 121:1 122:1 123:1 124:1 165:1 204:1 
0.5180585285309021 73:1 86:1 87:1 88:1 89:1 90:1 91:1 92:1 93:1 101:1 102:1 119:1 120:1 121:1 122:1 149:1 150:1 151:1 152:1 153:1 154:1 155:1 156:1 157:1 173:1 184:1 185:1 186:1 189:1 198:1 204:1 205:1 
0.1453877680012454 73:1 87:1 88:1 93:1 101:1 102:1 108:1 109:1 119:1 125:1 135:1 137:1 138:1 149:1 151:1 155:1 156:1 165:1 167:1 170:1 171:1 172:1 183:1 184:1 185:1 186:1 189:1 199:1 205:1 
0.2112056648332714 73:1 86:1 87:1 88:1 89:1 90:1 91:1 92:1 93:1 101:1 102:1 103:1 109:1 117:1 118:1 119:1 120:1 121:1 124:1 135:1 136:1 137:1 138:1 139:1 141:1 151:1 156:1 157:1 169:1 170:1 171:1 172:1 184:1 185:1 186:1 187:1 188:1 198:1 205:1 
0.009587567026696419 73:1 86:1 87:1 88:1 89:1 90:1 91:1 92:1 93:1 101:1 102:1 107:1 118:1 119:1 121:1 122:1 135:1 136:1 137:1 141:1 149:1 150:1 151:1 152:1 156:1 170:1 171:1 184:1 185:1 188:1 199:1 
0.1809419099177374 73:1 86:1 87:1 88:1 89:1 90:1 91:1 92:1 93:1 101:1 102:1 109:1 118:1 119:1 120:1 121:1 122:1 123:1 134:1 136:1 149:1 150:1 151:1 166:1 170:1 173:1 182:1 183:1 184:1 189:1 198:1 200:1 
-3 71:1 73:1 76:1 87:1 88:1 89:1 101:1 102:1 103:1 104:1 105:1 107:1 108:1 109:1 119:1 120:1 121:1 136:1 139:1 140:1 149:1 150:1 151:1 152:1 155:1 156:1 157:1 166:1 168:1 169:1 170:1 173:1 182:1 184:1 189:1 198:1 204:1 205:1 
-3 70:1 71:1 72:1 73:1 74:1 75:1 76:1 86:1 87:1 88:1 90:1 91:1 92:1 101:1 102:1 103:1 104:1 106:1 107:1 108:1 109:1 110:1 118:1 119:1 120:1 121:1 122:1 123:1 124:1 136:1 150:1 151:1 156:1 157:1 166:1 170:1 171:1 182:1 185:1 186:1 198:1 201:1 204:1 205:1 
-3 70:1 71:1 72:1 73:1 74:1 75:1 86:1 87:1 88:1 89:1 90:1 101:1 102:1 103:1 104:1 105:1 106:1 107:1 108:1 109:1 118:1 119:1 120:1 121:1 122:1 135:1 136:1 150:1 151:1 152:1 155:1 156:1 157:1 165:1 166:1 170:1 173:1 182:1 185:1 189:1 198:1 204:1 205:1 
-3 70:1 76:1 87:1 101:1 102:1 103:1 107:1 108:1 109:1 119:1 120:1 121:1 122:1 136:1 149:1 150:1 151:1 155:1 156:1 157:1 165:1 169:1 170:1 173:1 184:1 185:1 189:1 203:1 204:1 205:1 
-3 70:1 76:1 87:1 101:1 102:1 103:1 107:1 108:1 109:1 119:1 120:1 121:1 122:1 136:1 149:1 150:1 151:1 155:1 156:1 157:1 165:1 169:1 170:1 173:1 184:1 185:1 189:1 203:1 204:1 205:1 
