svm_type c_svc
kernel_type rbf
gamma 0.015625
nr_class 2
total_sv 28
rho -1.52439
label -1 1
nr_sv 23 5
SV
0.3957645287640314 86:1 102:1 103:1 104:1 105:1 106:1 107:1 108:1 153:1 154:1 155:1 156:1 165:1 181:1 184:1 
1.386527698362837 72:1 73:1 74:1 88:1 90:1 93:1 104:1 106:1 107:1 108:1 109:1 118:1 119:1 120:1 121:1 122:1 123:1 150:1 151:1 152:1 153:1 154:1 155:1 156:1 157:1 158:1 168:1 170:1 184:1 186:1 200:1 201:1 202:1 203:1 
0.6677641419645118 102:1 107:1 123:1 138:1 149:1 150:1 151:1 152:1 153:1 154:1 155:1 156:1 157:1 
0.2173403979558906 85:1 89:1 92:1 93:1 105:1 107:1 108:1 117:1 118:1 119:1 120:1 121:1 122:1 149:1 150:1 151:1 152:1 153:1 154:1 155:1 156:1 157:1 169:1 185:1 197:1 202:1 
0.3530234838889936 86:1 87:1 88:1 89:1 93:1 102:1 105:1 108:1 117:1 118:1 119:1 120:1 121:1 122:1 123:1 134:1 137:1 149:1 150:1 151:1 152:1 153:1 154:1 155:1 156:1 157:1 166:1 169:1 182:1 183:1 184:1 185:1 201:1 
0.4057589611537798 70:1 71:1 72:1 73:1 74:1 75:1 76:1 101:1 102:1 103:1 104:1 105:1 106:1 107:1 108:1 109:1 120:1 134:1 135:1 137:1 138:1 139:1 140:1 141:1 149:1 150:1 153:1 156:1 166:1 168:1 169:1 170:1 171:1 172:1 182:1 184:1 185:1 188:1 198:1 199:1 201:1 202:1 203:1 204:1 205:1 
0.7504741409574935 77:1 102:1 103:1 104:1 105:1 106:1 108:1 123:1 149:1 152:1 153:1 154:1 165:1 202:1 
0.763098497520332 74:1 102:1 103:1 104:1 105:1 106:1 120:1 136:1 149:1 152:1 153:1 154:1 155:1 165:1 168:1 172:1 184:1 188:1 189:1 202:1 205:1 
0.9138184686447747 71:1 72:1 73:1 74:1 75:1 76:1 92:1 101:1 102:1 103:1 104:1 105:1 106:1 107:1 108:1 124:1 149:1 150:1 151:1 152:1 153:1 154:1 155:1 156:1 157:1 173:1 189:1 204:1 205:1 
0.009751052780229655 71:1 77:1 92:1 103:1 105:1 106:1 107:1 108:1 117:1 133:1 134:1 151:1 152:1 153:1 154:1 155:1 156:1 157:1 198:1 199:1 
0.04425308578713439 70:1 73:1 74:1 78:1 86:1 89:1 93:1 102:1 104:1 105:1 106:1 109:1 118:1 122:1 123:1 124:1 125:1 133:1 134:1 139:1 140:1 150:1 154:1 155:1 156:1 157:1 166:1 168:1 169:1 173:1 182:1 184:1 185:1 189:1 198:1 201:1 202:1 206:1 
0.01810236462871772 75:1 77:1 88:1 89:1 104:1 107:1 108:1 119:1 120:1 121:1 122:1 133:1 134:1 141:1 151:1 152:1 153:1 154:1 155:1 156:1 157:1 168:1 182:1 185:1 198:1 202:1 
0.5098280212613847 73:1 74:1 88:1 102:1 103:1 104:1 105:1 106:1 107:1 108:1 109:1 117:1 118:1 
0.1298841934025928 88:1 103:1 104:1 105:1 106:1 107:1 108:1 109:1 117:1 
0.0042862872542646 73:1 88:1 89:1 104:1 118:1 119:1 123:1 133:1 134:1 140:1 150:1 151:1 156:1 157:1 168:1 185:1 201:1 202:1 
0.9866512708870244 73:1 74:1 88:1 89:1 91:1 103:1 104:1 107:1 118:1 119:1 124:1 133:1 134:1 140:1 150:1 151:1 157:1 167:1 168:1 173:1 184:1 185:1 201:1 202:1 
3 73:1 86:1 87:1 88:1 89:1 90:1 91:1 92:1 93:1 101:1 102:1 103:1 104:1 105:1 106:1 107:1 108:1 109:1 120:1 136:1 149:1 150:1 151:1 152:1 153:1 154:1 155:1 156:1 157:1 168:1 184:1 200:1 
0.8693537763655123 73:1 87:1 88:1 102:1 103:1 104:1 105:1 106:1 107:1 108:1 109:1 117:1 119:1 125:1 135:1 139:1 140:1 149:1 150:1 151:1 152:1 153:1 154:1 155:1 167:1 173:1 183:1 189:1 199:1 200:1 201:1 202:1 203:1 204:1 
1.966077770673136 72:1 86:1 87:1 88:1 89:1 90:1 91:1 92:1 93:1 101:1 102:1 117:1 150:1 151:1 152:1 153:1 154:1 155:1 156:1 157:1 197:1 201:1 
0.4351390040352501 73:1 87:1 88:1 89:1 90:1 91:1 92:1 93:1 94:1 101:1 102:1 103:1 109:1 117:1 125:1 141:1 149:1 150:1 151:1 152:1 153:1 154:1 155:1 156:1 157:1 168:1 173:1 184:1 189:1 200:1 205:1 
0.1131527276300419 72:1 73:1 85:1 86:1 87:1 88:1 89:1 90:1 91:1 92:1 93:1 94:1 101:1 105:1 121:1 125:1 135:1 137:1 142:1 152:1 153:1 154:1 155:1 156:1 157:1 167:1 168:1 169:1 182:1 183:1 185:1 198:1 201:1 202:1 203:1 
0.6928755164144096 73:1 86:1 87:1 88:1 89:1 90:1 91:1 92:1 93:1 101:1 102:1 107:1 122:1 136:1 137:1 150:1 151:1 152:1 153:1 154:1 155:1 156:1 157:1 168:1 185:1 202:1 203:1 
0.1182378607290052 73:1 87:1 88:1 89:1 90:1 91:1 92:1 93:1 101:1 102:1 118:1 149:1 150:1 151:1 152:1 153:1 154:1 155:1 156:1 157:1 167:1 182:1 184:1 202:1 
-3 72:1 86:1 87:1 88:1 89:1 90:1 91:1 92:1 93:1 101:1 102:1 103:1 104:1 105:1 106:1 107:1 108:1 109:1 149:1 150:1 151:1 152:1 153:1 154:1 155:1 156:1 157:1 168:1 184:1 185:1 201:1 202:1 
-3 72:1 73:1 86:1 87:1 88:1 89:1 90:1 91:1 92:1 93:1 94:1 101:1 102:1 149:1 150:1 151:1 152:1 153:1 154:1 155:1 156:1 157:1 158:1 168:1 185:1 201:1 202:1 
-3 73:1 74:1 88:1 101:1 102:1 103:1 104:1 105:1 106:1 107:1 108:1 109:1 117:1 149:1 150:1 151:1 152:1 153:1 154:1 155:1 156:1 157:1 168:1 184:1 201:1 202:1 
-2.767885482051442 74:1 88:1 102:1 103:1 104:1 105:1 106:1 107:1 108:1 109:1 117:1 149:1 150:1 151:1 152:1 153:1 154:1 155:1 156:1 157:1 168:1 184:1 185:1 201:1 202:1 
-2.983277769009905 74:1 88:1 102:1 103:1 104:1 105:1 106:1 107:1 108:1 109:1 117:1 149:1 150:1 151:1 152:1 153:1 154:1 155:1 156:1 157:1 168:1 184:1 185:1 201:1 202:1 
