svm_type c_svc
kernel_type rbf
gamma 0.015625
nr_class 2
total_sv 39
rho -1.46083
label -1 1
nr_sv 34 5
SV
0.08236848685204802 74:1 77:1 90:1 105:1 120:1 134:1 135:1 136:1 137:1 138:1 139:1 140:1 150:1 152:1 168:1 169:1 185:1 186:1 202:1 205:1 
0.02229929514522979 74:1 77:1 89:1 90:1 93:1 105:1 109:1 119:1 120:1 125:1 134:1 135:1 136:1 137:1 138:1 139:1 140:1 141:1 152:1 157:1 168:1 173:1 185:1 189:1 202:1 205:1 
0.7095618258137586 71:1 75:1 77:1 87:1 90:1 93:1 103:1 106:1 109:1 117:1 118:1 119:1 120:1 121:1 122:1 123:1 124:1 125:1 141:1 149:1 150:1 151:1 152:1 153:1 154:1 155:1 157:1 167:1 168:1 171:1 173:1 183:1 187:1 189:1 198:1 199:1 201:1 202:1 203:1 205:1 
1.396969782073534 86:1 90:1 93:1 108:1 117:1 118:1 119:1 120:1 121:1 122:1 123:1 149:1 150:1 151:1 152:1 153:1 154:1 155:1 156:1 157:1 198:1 200:1 201:1 
0.4837581925755338 73:1 74:1 75:1 77:1 86:1 87:1 89:1 91:1 93:1 102:1 105:1 107:1 108:1 117:1 118:1 119:1 120:1 121:1 122:1 123:1 134:1 137:1 139:1 149:1 150:1 151:1 152:1 153:1 154:1 155:1 156:1 157:1 166:1 169:1 171:1 182:1 183:1 185:1 187:1 201:1 203:1 
0.5267297794245148 149:1 150:1 151:1 152:1 170:1 171:1 188:1 
0.4572366109186509 69:1 74:1 76:1 85:1 89:1 91:1 92:1 104:1 106:1 107:1 117:1 119:1 121:1 133:1 134:1 135:1 136:1 137:1 138:1 139:1 140:1 141:1 149:1 152:1 153:1 165:1 167:1 170:1 171:1 181:1 182:1 183:1 187:1 188:1 204:1 
0.4289991832981512 75:1 76:1 77:1 101:1 103:1 105:1 107:1 108:1 109:1 117:1 119:1 121:1 123:1 133:1 135:1 137:1 139:1 149:1 150:1 151:1 152:1 153:1 154:1 155:1 156:1 157:1 158:1 165:1 167:1 169:1 171:1 173:1 181:1 183:1 185:1 187:1 189:1 197:1 199:1 201:1 203:1 204:1 205:1 
0.1678109699311515 74:1 77:1 85:1 88:1 90:1 93:1 102:1 103:1 104:1 105:1 106:1 109:1 119:1 121:1 122:1 124:1 138:1 139:1 150:1 151:1 152:1 153:1 154:1 155:1 156:1 170:1 172:1 182:1 183:1 186:1 188:1 189:1 198:1 202:1 205:1 
0.01944356655821121 70:1 85:1 87:1 88:1 90:1 92:1 93:1 103:1 106:1 107:1 108:1 109:1 118:1 119:1 122:1 123:1 125:1 134:1 135:1 138:1 139:1 141:1 149:1 150:1 151:1 152:1 154:1 155:1 157:1 166:1 167:1 170:1 173:1 182:1 183:1 186:1 189:1 198:1 201:1 204:1 205:1 
1.634109061132006 77:1 87:1 88:1 89:1 90:1 91:1 92:1 93:1 103:1 105:1 107:1 109:1 119:1 121:1 123:1 125:1 135:1 137:1 139:1 141:1 151:1 153:1 155:1 157:1 167:1 169:1 171:1 173:1 183:1 184:1 185:1 186:1 187:1 188:1 189:1 205:1 
1.018738760590684 77:1 85:1 87:1 91:1 93:1 101:1 103:1 104:1 105:1 106:1 107:1 109:1 117:1 119:1 121:1 123:1 125:1 133:1 135:1 137:1 139:1 141:1 149:1 151:1 153:1 155:1 157:1 165:1 167:1 168:1 169:1 170:1 171:1 173:1 181:1 183:1 184:1 186:1 187:1 189:1 197:1 205:1 
0.006507595237674146 77:1 91:1 93:1 102:1 103:1 104:1 105:1 106:1 107:1 109:1 118:1 119:1 122:1 123:1 125:1 135:1 137:1 139:1 141:1 151:1 153:1 157:1 167:1 168:1 169:1 170:1 171:1 172:1 173:1 189:1 205:1 
0.241391615621751 72:1 77:1 89:1 90:1 91:1 93:1 107:1 109:1 118:1 119:1 120:1 121:1 122:1 123:1 124:1 125:1 141:1 150:1 151:1 152:1 153:1 154:1 155:1 156:1 157:1 171:1 173:1 185:1 186:1 187:1 189:1 200:1 205:1 
0.9226526311505252 73:1 74:1 77:1 87:1 88:1 89:1 91:1 93:1 102:1 103:1 104:1 105:1 107:1 109:1 117:1 119:1 121:1 123:1 125:1 133:1 135:1 137:1 138:1 139:1 141:1 150:1 153:1 155:1 157:1 166:1 167:1 168:1 169:1 171:1 173:1 183:1 184:1 185:1 187:1 189:1 201:1 202:1 205:1 
0.2316185138705064 73:1 74:1 77:1 86:1 87:1 88:1 90:1 91:1 93:1 102:1 103:1 104:1 106:1 107:1 109:1 117:1 119:1 121:1 122:1 123:1 125:1 133:1 135:1 137:1 138:1 139:1 141:1 151:1 153:1 154:1 155:1 157:1 166:1 167:1 168:1 170:1 171:1 173:1 182:1 183:1 184:1 185:1 186:1 187:1 189:1 199:1 201:1 202:1 203:1 205:1 
0.7785322203239737 74:1 77:1 89:1 91:1 103:1 104:1 107:1 118:1 119:1 121:1 123:1 133:1 135:1 139:1 153:1 154:1 155:1 166:1 167:1 168:1 171:1 187:1 201:1 202:1 
0.05943333431032407 70:1 77:1 86:1 89:1 90:1 91:1 102:1 118:1 119:1 120:1 133:1 134:1 150:1 152:1 166:1 167:1 182:1 198:1 200:1 
0.01105696095503055 70:1 71:1 72:1 73:1 74:1 75:1 76:1 77:1 92:1 93:1 108:1 109:1 123:1 125:1 135:1 136:1 137:1 138:1 141:1 149:1 150:1 151:1 152:1 157:1 169:1 170:1 173:1 187:1 189:1 204:1 205:1 
0.6418444976977767 69:1 70:1 71:1 72:1 73:1 74:1 75:1 76:1 77:1 91:1 93:1 107:1 109:1 121:1 122:1 125:1 133:1 134:1 135:1 136:1 141:1 149:1 151:1 152:1 153:1 157:1 169:1 170:1 173:1 186:1 187:1 189:1 203:1 205:1 
0.05512450209976797 86:1 93:1 108:1 109:1 122:1 123:1 125:1 134:1 135:1 136:1 137:1 141:1 149:1 150:1 151:1 152:1 157:1 169:1 170:1 173:1 187:1 189:1 203:1 205:1 
0.3307770288893976 73:1 87:1 88:1 102:1 103:1 104:1 105:1 106:1 107:1 108:1 109:1 117:1 119:1 125:1 135:1 139:1 140:1 149:1 150:1 151:1 152:1 153:1 154:1 155:1 167:1 173:1 183:1 189:1 199:1 200:1 201:1 202:1 203:1 204:1 
0.07043793026650086 74:1 75:1 76:1 77:1 109:1 124:1 125:1 135:1 136:1 137:1 138:1 139:1 151:1 152:1 153:1 154:1 171:1 172:1 188:1 189:1 205:1 206:1 
0.05219901298007135 72:1 85:1 86:1 87:1 88:1 89:1 90:1 91:1 92:1 93:1 101:1 109:1 119:1 120:1 121:1 125:1 135:1 141:1 149:1 150:1 151:1 152:1 153:1 154:1 156:1 167:1 171:1 172:1 183:1 186:1 187:1 200:1 
0.2139862678479216 72:1 73:1 86:1 87:1 88:1 89:1 90:1 91:1 92:1 93:1 94:1 101:1 107:1 119:1 121:1 123:1 135:1 137:1 139:1 149:1 150:1 151:1 152:1 153:1 154:1 155:1 156:1 157:1 158:1 167:1 169:1 171:1 183:1 185:1 187:1 199:1 201:1 203:1 
0.01398444262993685 73:1 86:1 87:1 88:1 89:1 90:1 91:1 92:1 93:1 101:1 102:1 109:1 119:1 121:1 124:1 135:1 138:1 139:1 149:1 150:1 151:1 152:1 153:1 167:1 171:1 183:1 188:1 205:1 
0.7209883239482892 72:1 73:1 86:1 87:1 88:1 89:1 90:1 91:1 92:1 93:1 94:1 101:1 105:1 121:1 125:1 137:1 141:1 152:1 153:1 157:1 167:1 169:1 170:1 171:1 182:1 183:1 185:1 187:1 188:1 198:1 201:1 205:1 
0.02594851241571219 72:1 85:1 86:1 87:1 88:1 89:1 90:1 91:1 92:1 93:1 101:1 117:1 119:1 121:1 122:1 123:1 124:1 133:1 135:1 137:1 139:1 151:1 153:1 155:1 167:1 169:1 170:1 171:1 183:1 189:1 198:1 199:1 200:1 201:1 202:1 203:1 204:1 205:1 
0.09616040673842839 72:1 86:1 87:1 88:1 89:1 90:1 91:1 92:1 93:1 101:1 109:1 119:1 120:1 121:1 125:1 135:1 137:1 139:1 140:1 149:1 150:1 151:1 152:1 153:1 154:1 155:1 167:1 169:1 170:1 171:1 183:1 185:1 188:1 199:1 201:1 205:1 
0.1407148513814693 72:1 73:1 85:1 86:1 87:1 88:1 89:1 90:1 91:1 92:1 93:1 94:1 101:1 109:1 119:1 121:1 123:1 125:1 135:1 137:1 139:1 141:1 149:1 150:1 151:1 152:1 153:1 154:1 155:1 156:1 157:1 167:1 169:1 171:1 173:1 183:1 185:1 187:1 189:1 199:1 201:1 203:1 205:1 
0.2822635830440451 73:1 87:1 88:1 89:1 90:1 91:1 92:1 93:1 101:1 102:1 119:1 121:1 123:1 125:1 134:1 135:1 137:1 138:1 141:1 149:1 150:1 152:1 153:1 154:1 155:1 166:1 167:1 170:1 172:1 182:1 183:1 186:1 187:1 202:1 
0.6853073500905539 72:1 73:1 85:1 86:1 87:1 88:1 89:1 90:1 91:1 92:1 93:1 101:1 105:1 109:1 118:1 119:1 121:1 124:1 125:1 137:1 138:1 139:1 149:1 150:1 151:1 152:1 169:1 170:1 171:1 172:1 173:1 182:1 183:1 189:1 198:1 201:1 204:1 205:1 
1.323164932555395 72:1 86:1 87:1 88:1 89:1 90:1 91:1 92:1 93:1 101:1 118:1 119:1 120:1 135:1 138:1 139:1 149:1 150:1 151:1 152:1 155:1 167:1 171:1 173:1 183:1 187:1 188:1 189:1 198:1 200:1 201:1 
0.03665943906182372 72:1 85:1 86:1 87:1 88:1 89:1 90:1 91:1 92:1 93:1 101:1 108:1 109:1 121:1 136:1 137:1 138:1 139:1 140:1 141:1 149:1 150:1 151:1 152:1 165:1 170:1 171:1 173:1 182:1 183:1 189:1 198:1 
-3 73:1 74:1 77:1 86:1 87:1 88:1 89:1 91:1 93:1 101:1 105:1 109:1 119:1 121:1 125:1 135:1 141:1 149:1 150:1 151:1 152:1 153:1 157:1 167:1 169:1 170:1 171:1 173:1 182:1 185:1 189:1 198:1 200:1 201:1 205:1 
-2.837353942102144 74:1 77:1 90:1 91:1 93:1 105:1 106:1 107:1 109:1 119:1 121:1 123:1 125:1 135:1 137:1 139:1 141:1 149:1 150:1 151:1 152:1 153:1 155:1 157:1 167:1 170:1 171:1 173:1 183:1 186:1 187:1 189:1 198:1 201:1 202:1 205:1 
-2.937320846666276 74:1 77:1 86:1 87:1 88:1 89:1 90:1 91:1 93:1 105:1 107:1 109:1 117:1 119:1 121:1 123:1 125:1 135:1 137:1 139:1 141:1 149:1 150:1 151:1 152:1 153:1 155:1 157:1 167:1 170:1 171:1 173:1 182:1 183:1 186:1 187:1 189:1 198:1 201:1 205:1 
-2.114104678661928 74:1 77:1 90:1 91:1 107:1 117:1 119:1 121:1 123:1 135:1 137:1 139:1 149:1 150:1 151:1 152:1 153:1 155:1 167:1 171:1 183:1 187:1 198:1 200:1 201:1 
-3 74:1 77:1 90:1 91:1 107:1 117:1 119:1 121:1 123:1 135:1 137:1 139:1 149:1 150:1 151:1 152:1 153:1 155:1 167:1 171:1 183:1 187:1 198:1 200:1 201:1 
