svm_type c_svc
kernel_type rbf
gamma 0.015625
nr_class 2
total_sv 46
rho -1.40653
label -1 1
nr_sv 41 5
SV
0.4715233263684169 73:1 77:1 89:1 93:1 105:1 107:1 108:1 109:1 118:1 119:1 120:1 121:1 125:1 137:1 141:1 153:1 157:1 169:1 172:1 173:1 182:1 183:1 184:1 185:1 186:1 187:1 188:1 189:1 205:1 
1.15557845149504 77:1 86:1 89:1 93:1 105:1 109:1 119:1 120:1 121:1 122:1 123:1 124:1 125:1 137:1 141:1 153:1 157:1 169:1 171:1 172:1 173:1 182:1 183:1 184:1 185:1 186:1 187:1 188:1 189:1 205:1 
0.1211162532797318 105:1 107:1 123:1 134:1 135:1 136:1 137:1 138:1 139:1 155:1 169:1 170:1 171:1 173:1 181:1 183:1 189:1 197:1 
0.1136868266830256 70:1 73:1 86:1 87:1 89:1 93:1 102:1 104:1 105:1 106:1 107:1 108:1 109:1 118:1 121:1 124:1 133:1 134:1 135:1 136:1 137:1 138:1 139:1 150:1 152:1 153:1 155:1 156:1 166:1 167:1 169:1 170:1 172:1 182:1 185:1 186:1 189:1 201:1 205:1 
0.03338562509321115 71:1 77:1 87:1 89:1 93:1 103:1 105:1 109:1 117:1 119:1 121:1 125:1 133:1 134:1 135:1 136:1 137:1 138:1 139:1 140:1 141:1 150:1 151:1 153:1 157:1 167:1 169:1 173:1 183:1 185:1 189:1 205:1 
0.3551708909221066 69:1 85:1 87:1 88:1 93:1 101:1 103:1 105:1 106:1 109:1 117:1 119:1 120:1 121:1 122:1 123:1 124:1 125:1 133:1 135:1 141:1 149:1 151:1 152:1 153:1 154:1 155:1 156:1 157:1 165:1 167:1 169:1 170:1 173:1 181:1 183:1 184:1 185:1 186:1 187:1 188:1 189:1 197:1 
0.5315430430714321 87:1 89:1 103:1 105:1 106:1 107:1 119:1 120:1 121:1 122:1 123:1 124:1 125:1 151:1 152:1 153:1 154:1 155:1 156:1 157:1 167:1 169:1 170:1 183:1 189:1 
0.5758277296771448 69:1 72:1 85:1 87:1 89:1 92:1 93:1 101:1 102:1 103:1 104:1 105:1 107:1 108:1 109:1 117:1 120:1 121:1 123:1 125:1 133:1 136:1 137:1 141:1 149:1 152:1 153:1 154:1 157:1 165:1 168:1 169:1 170:1 173:1 181:1 182:1 183:1 184:1 185:1 189:1 197:1 203:1 204:1 
0.3816338984116875 75:1 78:1 87:1 89:1 91:1 93:1 94:1 103:1 105:1 107:1 109:1 120:1 123:1 124:1 125:1 139:1 140:1 151:1 152:1 153:1 154:1 155:1 156:1 171:1 173:1 183:1 184:1 187:1 189:1 198:1 199:1 203:1 206:1 
1.244766690690501 70:1 87:1 88:1 89:1 90:1 92:1 93:1 106:1 108:1 109:1 122:1 123:1 125:1 133:1 134:1 135:1 136:1 137:1 138:1 139:1 141:1 154:1 155:1 157:1 165:1 170:1 173:1 183:1 184:1 185:1 186:1 189:1 198:1 204:1 205:1 
0.6596717118125191 70:1 74:1 87:1 88:1 89:1 90:1 92:1 93:1 106:1 108:1 109:1 122:1 123:1 125:1 133:1 134:1 135:1 136:1 137:1 138:1 139:1 141:1 154:1 157:1 165:1 170:1 173:1 182:1 183:1 184:1 185:1 186:1 189:1 205:1 
0.2068349214850363 74:1 86:1 87:1 88:1 89:1 90:1 91:1 104:1 105:1 106:1 107:1 120:1 121:1 122:1 123:1 125:1 133:1 134:1 135:1 136:1 137:1 138:1 139:1 140:1 141:1 152:1 153:1 154:1 155:1 168:1 169:1 170:1 171:1 182:1 183:1 184:1 185:1 186:1 187:1 188:1 202:1 
0.03466813281816236 73:1 75:1 76:1 87:1 88:1 89:1 91:1 92:1 103:1 104:1 105:1 107:1 108:1 119:1 120:1 121:1 123:1 124:1 126:1 133:1 134:1 135:1 136:1 137:1 138:1 139:1 140:1 141:1 151:1 152:1 153:1 155:1 156:1 167:1 168:1 169:1 171:1 172:1 183:1 184:1 185:1 187:1 188:1 203:1 
0.7177971027986558 77:1 92:1 93:1 107:1 108:1 109:1 121:1 122:1 125:1 141:1 157:1 171:1 172:1 173:1 188:1 189:1 205:1 
0.1539911879820943 77:1 88:1 120:1 121:1 122:1 123:1 124:1 136:1 152:1 168:1 169:1 170:1 171:1 172:1 184:1 
0.8887951893066034 77:1 87:1 88:1 89:1 90:1 91:1 92:1 93:1 103:1 105:1 107:1 109:1 119:1 121:1 123:1 125:1 135:1 137:1 139:1 141:1 151:1 153:1 155:1 157:1 167:1 169:1 171:1 173:1 183:1 184:1 185:1 186:1 187:1 188:1 189:1 205:1 
0.3999620378595584 77:1 85:1 87:1 91:1 93:1 101:1 103:1 104:1 105:1 106:1 107:1 109:1 117:1 119:1 121:1 123:1 125:1 133:1 135:1 137:1 139:1 141:1 149:1 151:1 153:1 155:1 157:1 165:1 167:1 168:1 169:1 170:1 171:1 173:1 181:1 183:1 184:1 186:1 187:1 189:1 197:1 205:1 
0.1751686720722143 77:1 87:1 88:1 89:1 90:1 91:1 92:1 93:1 102:1 103:1 104:1 107:1 109:1 120:1 121:1 123:1 125:1 136:1 137:1 138:1 139:1 140:1 141:1 152:1 154:1 156:1 157:1 168:1 171:1 172:1 173:1 184:1 185:1 186:1 187:1 188:1 189:1 205:1 
0.06802508049885474 77:1 85:1 88:1 89:1 93:1 105:1 106:1 109:1 118:1 119:1 120:1 121:1 122:1 123:1 124:1 125:1 141:1 150:1 151:1 152:1 153:1 154:1 155:1 156:1 157:1 169:1 170:1 173:1 181:1 184:1 185:1 186:1 189:1 205:1 
0.03874624870132633 74:1 77:1 86:1 87:1 88:1 89:1 90:1 91:1 93:1 105:1 107:1 109:1 117:1 119:1 121:1 123:1 125:1 135:1 137:1 139:1 141:1 149:1 150:1 151:1 152:1 153:1 155:1 157:1 167:1 170:1 171:1 173:1 182:1 183:1 186:1 187:1 189:1 198:1 201:1 205:1 
0.2571108491536291 70:1 71:1 77:1 92:1 93:1 104:1 105:1 106:1 107:1 108:1 117:1 120:1 133:1 134:1 136:1 152:1 153:1 154:1 155:1 156:1 157:1 173:1 189:1 198:1 199:1 204:1 
0.0328522591275676 70:1 77:1 78:1 86:1 92:1 93:1 102:1 105:1 106:1 107:1 108:1 118:1 133:1 134:1 150:1 166:1 169:1 170:1 171:1 172:1 173:1 182:1 198:1 205:1 
0.1526353049614583 71:1 77:1 87:1 92:1 93:1 103:1 104:1 105:1 106:1 107:1 108:1 119:1 120:1 133:1 134:1 135:1 136:1 151:1 152:1 167:1 168:1 169:1 170:1 171:1 172:1 173:1 183:1 189:1 199:1 204:1 205:1 
0.003536599675413086 70:1 77:1 86:1 89:1 91:1 93:1 102:1 104:1 105:1 107:1 109:1 118:1 119:1 122:1 124:1 133:1 134:1 137:1 138:1 139:1 140:1 150:1 152:1 153:1 155:1 166:1 168:1 169:1 170:1 172:1 182:1 185:1 189:1 198:1 205:1 
0.04032026823269869 70:1 73:1 90:1 91:1 93:1 102:1 103:1 105:1 106:1 107:1 109:1 121:1 122:1 123:1 124:1 133:1 137:1 138:1 139:1 153:1 154:1 155:1 166:1 167:1 169:1 170:1 171:1 173:1 185:1 186:1 189:1 200:1 204:1 205:1 
0.2682976012590517 70:1 71:1 90:1 92:1 102:1 103:1 104:1 105:1 106:1 107:1 108:1 119:1 120:1 122:1 125:1 133:1 136:1 137:1 138:1 140:1 149:1 152:1 153:1 155:1 167:1 169:1 171:1 172:1 183:1 184:1 185:1 186:1 189:1 198:1 201:1 205:1 
0.1829753033577171 69:1 76:1 77:1 85:1 87:1 88:1 89:1 90:1 93:1 103:1 104:1 105:1 106:1 107:1 108:1 109:1 118:1 119:1 120:1 121:1 122:1 123:1 124:1 125:1 133:1 135:1 139:1 151:1 152:1 153:1 154:1 155:1 156:1 157:1 166:1 167:1 171:1 172:1 181:1 183:1 185:1 186:1 187:1 188:1 189:1 197:1 201:1 202:1 205:1 
1.105207471721911 77:1 87:1 88:1 89:1 90:1 91:1 93:1 106:1 107:1 108:1 118:1 119:1 123:1 133:1 151:1 152:1 153:1 154:1 155:1 156:1 157:1 166:1 172:1 183:1 184:1 185:1 186:1 187:1 189:1 205:1 
0.2620105821273668 74:1 75:1 77:1 86:1 87:1 88:1 89:1 93:1 102:1 107:1 108:1 109:1 118:1 119:1 120:1 121:1 123:1 124:1 125:1 133:1 134:1 135:1 136:1 139:1 140:1 141:1 150:1 151:1 152:1 153:1 155:1 156:1 157:1 166:1 171:1 172:1 173:1 182:1 183:1 184:1 185:1 189:1 202:1 203:1 205:1 
1.274521927791042 73:1 74:1 77:1 86:1 87:1 88:1 89:1 93:1 102:1 104:1 105:1 106:1 107:1 108:1 109:1 118:1 121:1 122:1 123:1 124:1 125:1 133:1 134:1 135:1 136:1 137:1 138:1 139:1 140:1 141:1 150:1 153:1 154:1 155:1 156:1 157:1 166:1 168:1 169:1 170:1 171:1 172:1 173:1 183:1 184:1 185:1 189:1 201:1 202:1 205:1 
0.1779270080116583 76:1 77:1 91:1 93:1 106:1 109:1 120:1 121:1 125:1 133:1 134:1 135:1 136:1 141:1 152:1 153:1 154:1 157:1 170:1 171:1 173:1 187:1 188:1 189:1 204:1 205:1 
0.2882215784597863 72:1 77:1 88:1 89:1 93:1 103:1 105:1 109:1 118:1 121:1 125:1 133:1 137:1 138:1 139:1 140:1 141:1 150:1 153:1 157:1 167:1 169:1 173:1 184:1 185:1 189:1 200:1 205:1 
0.2011488037144262 85:1 86:1 87:1 88:1 89:1 90:1 91:1 92:1 93:1 107:1 108:1 118:1 122:1 125:1 135:1 136:1 140:1 152:1 155:1 156:1 169:1 170:1 171:1 181:1 182:1 183:1 184:1 185:1 187:1 188:1 205:1 
0.05787373131303313 73:1 87:1 88:1 93:1 101:1 102:1 108:1 109:1 125:1 137:1 140:1 150:1 151:1 154:1 155:1 168:1 169:1 170:1 171:1 172:1 182:1 183:1 184:1 188:1 189:1 205:1 
0.2646732774552014 72:1 88:1 89:1 90:1 91:1 92:1 93:1 103:1 105:1 107:1 109:1 118:1 121:1 123:1 125:1 133:1 137:1 139:1 141:1 150:1 153:1 155:1 157:1 167:1 169:1 171:1 173:1 183:1 184:1 185:1 187:1 189:1 200:1 205:1 
0.3551217089557893 73:1 88:1 104:1 105:1 106:1 107:1 108:1 109:1 118:1 119:1 121:1 123:1 125:1 133:1 137:1 139:1 141:1 151:1 153:1 155:1 157:1 168:1 169:1 171:1 173:1 184:1 185:1 189:1 200:1 
0.5101892972250415 72:1 77:1 78:1 87:1 88:1 91:1 92:1 93:1 103:1 105:1 106:1 107:1 118:1 123:1 124:1 126:1 133:1 140:1 141:1 150:1 154:1 155:1 156:1 167:1 168:1 169:1 170:1 171:1 172:1 183:1 184:1 188:1 189:1 200:1 205:1 206:1 
0.1619292163548009 72:1 73:1 86:1 87:1 88:1 89:1 90:1 91:1 92:1 93:1 101:1 105:1 106:1 117:1 120:1 121:1 122:1 123:1 125:1 133:1 137:1 138:1 139:1 141:1 149:1 152:1 153:1 154:1 155:1 156:1 165:1 169:1 170:1 171:1 172:1 181:1 185:1 186:1 188:1 189:1 200:1 201:1 202:1 205:1 
0.7199004606312028 87:1 88:1 89:1 90:1 91:1 92:1 93:1 101:1 102:1 121:1 125:1 137:1 138:1 139:1 141:1 152:1 153:1 155:1 156:1 169:1 170:1 171:1 172:1 181:1 185:1 188:1 199:1 201:1 
0.249454112837555 71:1 72:1 75:1 87:1 88:1 89:1 90:1 91:1 93:1 102:1 103:1 104:1 105:1 106:1 107:1 108:1 109:1 117:1 118:1 120:1 121:1 123:1 124:1 125:1 133:1 135:1 136:1 137:1 139:1 141:1 150:1 152:1 153:1 155:1 156:1 157:1 167:1 168:1 169:1 170:1 171:1 173:1 183:1 187:1 189:1 200:1 203:1 
0.1061996166063264 72:1 85:1 86:1 87:1 88:1 89:1 90:1 91:1 92:1 93:1 101:1 108:1 109:1 121:1 136:1 137:1 138:1 139:1 140:1 141:1 149:1 150:1 151:1 152:1 165:1 170:1 171:1 173:1 182:1 183:1 189:1 198:1 
-3 70:1 77:1 87:1 88:1 89:1 90:1 91:1 92:1 93:1 105:1 106:1 107:1 108:1 109:1 117:1 120:1 121:1 122:1 123:1 124:1 125:1 133:1 136:1 137:1 138:1 139:1 140:1 141:1 152:1 153:1 154:1 155:1 156:1 157:1 169:1 170:1 171:1 172:1 173:1 183:1 184:1 185:1 186:1 187:1 188:1 189:1 198:1 205:1 
-3 87:1 91:1 92:1 93:1 103:1 119:1 133:1 135:1 151:1 167:1 183:1 187:1 188:1 189:1 
-3 69:1 77:1 85:1 87:1 88:1 89:1 93:1 105:1 106:1 107:1 108:1 109:1 120:1 121:1 122:1 123:1 124:1 125:1 133:1 136:1 137:1 138:1 139:1 140:1 141:1 152:1 153:1 154:1 155:1 156:1 157:1 169:1 170:1 171:1 172:1 173:1 181:1 183:1 184:1 185:1 189:1 197:1 205:1 
-3 70:1 77:1 87:1 88:1 89:1 93:1 105:1 106:1 107:1 108:1 109:1 121:1 123:1 125:1 133:1 137:1 139:1 141:1 152:1 153:1 155:1 157:1 169:1 170:1 171:1 172:1 173:1 182:1 183:1 184:1 185:1 189:1 205:1 
-3 70:1 77:1 87:1 88:1 89:1 93:1 105:1 106:1 107:1 108:1 109:1 121:1 123:1 125:1 133:1 137:1 139:1 141:1 152:1 153:1 155:1 157:1 169:1 170:1 171:1 172:1 173:1 182:1 183:1 184:1 185:1 189:1 205:1 
