svm_type c_svc
kernel_type rbf
gamma 0.015625
nr_class 2
total_sv 30
rho -1.59591
label -1 1
nr_sv 25 5
SV
1.140216489547557 77:1 93:1 109:1 125:1 133:1 134:1 135:1 136:1 137:1 138:1 139:1 140:1 141:1 157:1 173:1 189:1 205:1 
2.492280647434839 72:1 86:1 87:1 88:1 89:1 90:1 91:1 92:1 93:1 102:1 104:1 109:1 120:1 125:1 133:1 134:1 135:1 136:1 137:1 138:1 139:1 140:1 141:1 152:1 157:1 168:1 173:1 182:1 183:1 184:1 185:1 186:1 187:1 188:1 189:1 200:1 
0.4446327689225333 86:1 87:1 89:1 92:1 102:1 103:1 104:1 105:1 107:1 108:1 117:1 118:1 119:1 121:1 125:1 133:1 134:1 135:1 136:1 137:1 138:1 139:1 140:1 141:1 150:1 151:1 152:1 153:1 166:1 167:1 169:1 171:1 182:1 183:1 185:1 187:1 188:1 204:1 
0.3019177755535785 73:1 86:1 102:1 103:1 104:1 105:1 106:1 107:1 108:1 109:1 118:1 124:1 133:1 134:1 135:1 136:1 138:1 139:1 140:1 150:1 155:1 156:1 166:1 167:1 170:1 172:1 182:1 183:1 186:1 189:1 198:1 
1.758098811555707 72:1 85:1 86:1 87:1 88:1 89:1 90:1 91:1 92:1 93:1 104:1 109:1 120:1 135:1 138:1 151:1 167:1 170:1 183:1 184:1 185:1 186:1 189:1 203:1 204:1 205:1 
1.840940427797387 73:1 88:1 101:1 102:1 103:1 104:1 105:1 106:1 107:1 108:1 120:1 125:1 136:1 141:1 151:1 154:1 155:1 157:1 167:1 168:1 169:1 170:1 173:1 183:1 184:1 185:1 186:1 189:1 204:1 205:1 
0.2575443026327722 71:1 86:1 87:1 90:1 92:1 93:1 102:1 103:1 106:1 107:1 108:1 109:1 117:1 119:1 121:1 122:1 123:1 125:1 133:1 134:1 135:1 136:1 137:1 138:1 139:1 141:1 149:1 151:1 154:1 155:1 157:1 165:1 166:1 167:1 170:1 173:1 181:1 182:1 183:1 186:1 189:1 199:1 204:1 205:1 
0.3401897708414872 74:1 90:1 92:1 93:1 102:1 103:1 106:1 108:1 109:1 117:1 121:1 122:1 123:1 125:1 133:1 134:1 135:1 136:1 137:1 138:1 139:1 141:1 149:1 154:1 157:1 165:1 166:1 167:1 170:1 173:1 181:1 182:1 186:1 189:1 199:1 204:1 205:1 
0.8741223935382225 87:1 88:1 89:1 90:1 92:1 93:1 103:1 106:1 108:1 109:1 119:1 122:1 123:1 125:1 133:1 134:1 135:1 136:1 137:1 138:1 139:1 141:1 154:1 157:1 165:1 170:1 173:1 183:1 184:1 185:1 186:1 189:1 203:1 204:1 
0.9340020312393431 70:1 87:1 88:1 89:1 90:1 92:1 93:1 106:1 108:1 109:1 122:1 123:1 125:1 133:1 134:1 135:1 136:1 137:1 138:1 139:1 141:1 154:1 155:1 157:1 165:1 170:1 173:1 183:1 184:1 185:1 186:1 189:1 198:1 204:1 205:1 
0.3592621569427494 73:1 85:1 86:1 87:1 88:1 90:1 92:1 93:1 101:1 102:1 104:1 106:1 108:1 109:1 117:1 118:1 119:1 120:1 122:1 123:1 125:1 136:1 137:1 138:1 139:1 141:1 149:1 150:1 151:1 152:1 154:1 157:1 165:1 167:1 170:1 173:1 181:1 183:1 184:1 185:1 186:1 189:1 199:1 204:1 205:1 
0.02031254316509757 71:1 88:1 92:1 93:1 104:1 105:1 106:1 108:1 109:1 123:1 125:1 133:1 134:1 135:1 139:1 141:1 151:1 155:1 157:1 166:1 170:1 173:1 181:1 185:1 186:1 189:1 198:1 204:1 205:1 
0.3523931610089823 71:1 86:1 87:1 88:1 90:1 91:1 92:1 102:1 117:1 135:1 136:1 137:1 138:1 139:1 140:1 141:1 150:1 157:1 173:1 182:1 183:1 184:1 185:1 186:1 187:1 188:1 189:1 204:1 205:1 
0.007701471583511733 77:1 86:1 87:1 88:1 90:1 93:1 104:1 106:1 109:1 120:1 122:1 125:1 133:1 134:1 135:1 136:1 138:1 141:1 152:1 154:1 157:1 168:1 170:1 173:1 182:1 183:1 184:1 186:1 189:1 205:1 
0.08269878388701182 73:1 74:1 77:1 86:1 87:1 88:1 90:1 91:1 93:1 102:1 103:1 104:1 106:1 107:1 109:1 117:1 119:1 121:1 122:1 123:1 125:1 133:1 135:1 137:1 138:1 139:1 141:1 151:1 153:1 154:1 155:1 157:1 166:1 167:1 168:1 170:1 171:1 173:1 182:1 183:1 184:1 185:1 186:1 187:1 189:1 199:1 201:1 202:1 203:1 205:1 
0.02746826443912437 70:1 86:1 88:1 93:1 102:1 104:1 109:1 118:1 120:1 125:1 133:1 134:1 136:1 137:1 138:1 139:1 140:1 141:1 150:1 152:1 157:1 166:1 168:1 173:1 182:1 184:1 189:1 198:1 
0.2441692882173575 74:1 86:1 90:1 102:1 103:1 104:1 106:1 118:1 120:1 122:1 123:1 133:1 134:1 136:1 138:1 139:1 141:1 150:1 152:1 154:1 155:1 157:1 166:1 167:1 168:1 169:1 170:1 171:1 173:1 182:1 186:1 187:1 189:1 198:1 201:1 203:1 204:1 205:1 
0.2496445456136415 73:1 90:1 92:1 102:1 103:1 104:1 105:1 106:1 108:1 109:1 119:1 120:1 122:1 123:1 125:1 133:1 136:1 137:1 138:1 139:1 150:1 151:1 152:1 156:1 167:1 168:1 169:1 171:1 173:1 183:1 185:1 186:1 189:1 202:1 205:1 
0.7620330926179089 72:1 73:1 74:1 85:1 86:1 87:1 88:1 89:1 90:1 91:1 92:1 93:1 94:1 101:1 109:1 110:1 119:1 124:1 125:1 133:1 134:1 135:1 136:1 137:1 138:1 139:1 151:1 167:1 173:1 183:1 184:1 185:1 186:1 187:1 188:1 189:1 203:1 204:1 205:1 
0.3043019553931095 73:1 86:1 87:1 88:1 89:1 90:1 91:1 92:1 93:1 101:1 102:1 109:1 119:1 124:1 125:1 133:1 134:1 135:1 136:1 137:1 138:1 139:1 149:1 150:1 151:1 152:1 167:1 168:1 169:1 170:1 171:1 172:1 173:1 183:1 184:1 185:1 189:1 204:1 205:1 
0.7045664479663387 72:1 73:1 86:1 87:1 88:1 89:1 90:1 91:1 92:1 93:1 94:1 101:1 102:1 119:1 120:1 133:1 134:1 135:1 137:1 141:1 151:1 154:1 157:1 167:1 173:1 183:1 189:1 199:1 200:1 201:1 202:1 203:1 204:1 205:1 
0.3396393471282069 72:1 73:1 86:1 87:1 88:1 89:1 90:1 91:1 92:1 93:1 101:1 102:1 118:1 120:1 123:1 124:1 125:1 134:1 135:1 136:1 137:1 138:1 139:1 150:1 151:1 152:1 154:1 157:1 171:1 173:1 182:1 183:1 184:1 185:1 186:1 187:1 188:1 203:1 204:1 
0.6219311538125588 72:1 86:1 87:1 88:1 89:1 90:1 91:1 92:1 93:1 101:1 104:1 119:1 120:1 134:1 135:1 136:1 137:1 138:1 139:1 140:1 141:1 149:1 157:1 166:1 167:1 171:1 173:1 183:1 184:1 185:1 186:1 187:1 189:1 200:1 204:1 
0.06191529753943802 73:1 87:1 88:1 93:1 101:1 102:1 108:1 109:1 117:1 120:1 123:1 133:1 134:1 135:1 137:1 149:1 157:1 184:1 185:1 186:1 199:1 203:1 204:1 
0.2287070505828516 72:1 73:1 85:1 86:1 87:1 104:1 109:1 119:1 120:1 121:1 122:1 123:1 125:1 136:1 139:1 141:1 151:1 152:1 153:1 155:1 156:1 157:1 167:1 170:1 171:1 173:1 184:1 185:1 187:1 189:1 199:1 201:1 202:1 203:1 205:1 
-3 86:1 87:1 88:1 89:1 90:1 91:1 92:1 102:1 104:1 108:1 109:1 120:1 125:1 133:1 134:1 135:1 136:1 137:1 138:1 139:1 141:1 157:1 167:1 171:1 173:1 183:1 184:1 185:1 186:1 187:1 189:1 203:1 204:1 
-3 72:1 86:1 87:1 88:1 89:1 90:1 91:1 92:1 93:1 104:1 109:1 120:1 125:1 133:1 134:1 135:1 136:1 137:1 138:1 139:1 140:1 141:1 151:1 157:1 167:1 171:1 173:1 183:1 185:1 186:1 187:1 189:1 198:1 199:1 203:1 204:1 205:1 
-3 73:1 86:1 87:1 88:1 89:1 90:1 91:1 92:1 102:1 103:1 104:1 108:1 109:1 120:1 125:1 133:1 134:1 135:1 136:1 137:1 138:1 139:1 141:1 151:1 154:1 157:1 167:1 170:1 173:1 183:1 184:1 185:1 186:1 189:1 203:1 204:1 205:1 
-2.793390592870785 73:1 86:1 102:1 104:1 108:1 109:1 120:1 125:1 133:1 134:1 135:1 136:1 137:1 138:1 139:1 141:1 151:1 154:1 157:1 167:1 170:1 173:1 182:1 183:1 184:1 185:1 186:1 189:1 204:1 205:1 
-2.957299386090531 73:1 86:1 102:1 104:1 108:1 109:1 120:1 125:1 133:1 134:1 135:1 136:1 137:1 138:1 139:1 141:1 151:1 154:1 157:1 167:1 170:1 173:1 182:1 183:1 184:1 185:1 186:1 189:1 204:1 205:1 
