svm_type c_svc
kernel_type rbf
gamma 0.015625
nr_class 2
total_sv 35
rho -1.42183
label -1 1
nr_sv 30 5
SV
2.275812112013925 77:1 78:1 86:1 87:1 93:1 104:1 105:1 109:1 122:1 123:1 124:1 139:1 140:1 153:1 154:1 155:1 156:1 167:1 168:1 169:1 173:1 182:1 183:1 189:1 205:1 206:1 
1.296272433325705 77:1 78:1 86:1 87:1 93:1 104:1 105:1 109:1 117:1 122:1 123:1 124:1 134:1 135:1 139:1 140:1 151:1 154:1 155:1 156:1 168:1 169:1 173:1 182:1 183:1 189:1 205:1 206:1 
1.290376493416862 93:1 103:1 117:1 121:1 124:1 134:1 138:1 139:1 153:1 154:1 155:1 156:1 166:1 167:1 168:1 172:1 182:1 189:1 205:1 
0.2078305168566233 71:1 87:1 88:1 103:1 104:1 105:1 118:1 119:1 122:1 134:1 135:1 150:1 154:1 166:1 168:1 169:1 170:1 182:1 184:1 198:1 
0.0660045007837357 70:1 86:1 102:1 118:1 134:1 150:1 166:1 168:1 182:1 183:1 184:1 198:1 
0.08109004535315617 74:1 77:1 85:1 88:1 90:1 93:1 102:1 103:1 104:1 105:1 106:1 109:1 119:1 121:1 122:1 124:1 138:1 139:1 150:1 151:1 152:1 153:1 154:1 155:1 156:1 170:1 172:1 182:1 183:1 186:1 188:1 189:1 198:1 202:1 205:1 
0.5861723765963391 69:1 73:1 77:1 86:1 88:1 90:1 92:1 93:1 106:1 108:1 118:1 119:1 121:1 122:1 123:1 124:1 133:1 134:1 136:1 138:1 139:1 150:1 151:1 152:1 154:1 155:1 166:1 168:1 170:1 173:1 182:1 184:1 189:1 198:1 199:1 201:1 204:1 205:1 
0.2362306122051262 70:1 86:1 90:1 101:1 102:1 103:1 106:1 107:1 108:1 109:1 118:1 122:1 134:1 136:1 139:1 150:1 151:1 155:1 156:1 157:1 165:1 169:1 170:1 173:1 184:1 189:1 198:1 203:1 204:1 205:1 
0.01160881672431481 86:1 92:1 93:1 107:1 121:1 122:1 124:1 140:1 154:1 156:1 171:1 172:1 184:1 187:1 188:1 189:1 200:1 
1.186565396092604 70:1 77:1 86:1 89:1 91:1 93:1 102:1 104:1 105:1 107:1 109:1 118:1 119:1 122:1 124:1 133:1 134:1 137:1 138:1 139:1 140:1 150:1 152:1 153:1 155:1 166:1 168:1 169:1 170:1 172:1 182:1 185:1 189:1 198:1 205:1 
0.02106697350823571 75:1 77:1 88:1 89:1 104:1 107:1 108:1 119:1 120:1 121:1 122:1 133:1 134:1 141:1 151:1 152:1 153:1 154:1 155:1 156:1 157:1 168:1 182:1 185:1 198:1 202:1 
1.732626988125921 70:1 86:1 88:1 93:1 102:1 104:1 109:1 118:1 120:1 125:1 133:1 134:1 136:1 137:1 138:1 139:1 140:1 141:1 150:1 152:1 157:1 166:1 168:1 173:1 182:1 184:1 189:1 198:1 
0.2260072353345427 70:1 77:1 86:1 88:1 89:1 90:1 92:1 102:1 104:1 106:1 108:1 117:1 118:1 120:1 122:1 126:1 133:1 134:1 136:1 138:1 139:1 140:1 141:1 150:1 152:1 154:1 166:1 168:1 170:1 172:1 182:1 184:1 185:1 186:1 188:1 198:1 205:1 
0.0474764667807987 70:1 77:1 86:1 92:1 102:1 104:1 105:1 106:1 107:1 118:1 122:1 125:1 133:1 134:1 138:1 139:1 140:1 141:1 150:1 154:1 166:1 167:1 168:1 169:1 170:1 171:1 182:1 188:1 198:1 
0.3261980487431488 70:1 74:1 86:1 88:1 89:1 90:1 91:1 92:1 93:1 102:1 103:1 117:1 118:1 123:1 124:1 125:1 133:1 134:1 141:1 150:1 157:1 166:1 173:1 182:1 184:1 185:1 186:1 187:1 188:1 189:1 198:1 205:1 
0.2240831249643108 70:1 73:1 74:1 86:1 87:1 88:1 89:1 90:1 91:1 92:1 93:1 94:1 102:1 103:1 118:1 120:1 121:1 122:1 123:1 124:1 133:1 134:1 136:1 138:1 140:1 150:1 152:1 154:1 156:1 166:1 168:1 170:1 172:1 182:1 184:1 186:1 188:1 198:1 
0.3033977478558627 70:1 73:1 74:1 86:1 88:1 89:1 90:1 91:1 92:1 93:1 102:1 103:1 104:1 118:1 120:1 121:1 122:1 123:1 125:1 133:1 134:1 137:1 139:1 141:1 150:1 153:1 155:1 157:1 166:1 169:1 171:1 173:1 182:1 184:1 185:1 186:1 187:1 189:1 198:1 205:1 
0.4995224862766303 70:1 73:1 75:1 77:1 86:1 87:1 88:1 89:1 90:1 91:1 92:1 102:1 105:1 108:1 109:1 110:1 118:1 122:1 123:1 124:1 125:1 133:1 134:1 137:1 139:1 140:1 141:1 150:1 151:1 152:1 153:1 156:1 166:1 170:1 172:1 173:1 182:1 184:1 185:1 186:1 187:1 188:1 189:1 198:1 201:1 202:1 205:1 
0.389336919757478 73:1 74:1 77:1 86:1 87:1 88:1 89:1 93:1 102:1 104:1 105:1 106:1 107:1 108:1 109:1 118:1 121:1 122:1 123:1 124:1 125:1 133:1 134:1 135:1 136:1 137:1 138:1 139:1 140:1 141:1 150:1 153:1 154:1 155:1 156:1 157:1 166:1 168:1 169:1 170:1 171:1 172:1 173:1 183:1 184:1 185:1 189:1 201:1 202:1 205:1 
0.07563355765938733 73:1 74:1 88:1 89:1 91:1 103:1 104:1 107:1 118:1 119:1 124:1 133:1 134:1 140:1 150:1 151:1 157:1 167:1 168:1 173:1 184:1 185:1 201:1 202:1 
0.00645009583734455 73:1 78:1 89:1 93:1 104:1 109:1 119:1 120:1 123:1 124:1 133:1 134:1 135:1 137:1 138:1 139:1 151:1 155:1 156:1 168:1 173:1 184:1 189:1 200:1 201:1 205:1 206:1 
1.937856998217191 73:1 88:1 89:1 104:1 118:1 119:1 121:1 123:1 124:1 133:1 134:1 137:1 140:1 150:1 151:1 153:1 154:1 156:1 157:1 168:1 184:1 201:1 
0.3311171216107474 73:1 77:1 88:1 90:1 93:1 103:1 104:1 106:1 109:1 118:1 119:1 122:1 125:1 133:1 138:1 139:1 140:1 141:1 150:1 151:1 154:1 157:1 167:1 168:1 170:1 173:1 184:1 186:1 189:1 200:1 201:1 205:1 
0.1534349584491747 73:1 78:1 89:1 93:1 105:1 109:1 121:1 124:1 134:1 137:1 138:1 139:1 140:1 150:1 153:1 156:1 166:1 169:1 173:1 182:1 185:1 189:1 201:1 206:1 
0.6325897792560316 72:1 73:1 88:1 93:1 103:1 108:1 109:1 118:1 123:1 125:1 133:1 134:1 141:1 150:1 151:1 156:1 157:1 167:1 172:1 173:1 184:1 189:1 200:1 
0.03109900987739685 73:1 87:1 88:1 93:1 101:1 102:1 103:1 104:1 108:1 109:1 117:1 125:1 134:1 139:1 153:1 154:1 187:1 200:1 204:1 205:1 
0.05566316681317306 70:1 73:1 86:1 88:1 89:1 92:1 102:1 103:1 104:1 107:1 108:1 118:1 121:1 122:1 123:1 133:1 134:1 135:1 136:1 137:1 138:1 139:1 140:1 141:1 150:1 153:1 154:1 155:1 166:1 167:1 168:1 171:1 172:1 182:1 183:1 184:1 188:1 198:1 201:1 205:1 
0.5243668481336871 73:1 87:1 88:1 89:1 90:1 91:1 92:1 93:1 101:1 102:1 109:1 118:1 120:1 121:1 122:1 124:1 134:1 138:1 139:1 149:1 150:1 151:1 152:1 153:1 154:1 166:1 171:1 172:1 182:1 183:1 184:1 187:1 189:1 198:1 205:1 
0.1891869684774614 72:1 73:1 86:1 87:1 88:1 89:1 90:1 91:1 92:1 93:1 101:1 102:1 109:1 119:1 120:1 121:1 122:1 124:1 125:1 133:1 134:1 135:1 138:1 139:1 140:1 151:1 152:1 153:1 154:1 156:1 166:1 167:1 168:1 169:1 170:1 171:1 172:1 173:1 182:1 188:1 198:1 199:1 200:1 201:1 202:1 203:1 204:1 205:1 
0.05492220095308537 72:1 73:1 85:1 86:1 87:1 93:1 101:1 102:1 105:1 106:1 109:1 117:1 118:1 120:1 122:1 124:1 125:1 134:1 136:1 138:1 139:1 140:1 150:1 151:1 152:1 153:1 154:1 155:1 156:1 157:1 158:1 165:1 166:1 168:1 170:1 173:1 181:1 182:1 184:1 186:1 189:1 198:1 199:1 200:1 202:1 203:1 204:1 
-3 70:1 77:1 86:1 88:1 89:1 93:1 102:1 104:1 109:1 117:1 118:1 121:1 122:1 124:1 133:1 134:1 139:1 150:1 153:1 154:1 156:1 166:1 167:1 168:1 172:1 182:1 184:1 189:1 198:1 205:1 
-3 70:1 73:1 74:1 78:1 86:1 89:1 93:1 102:1 104:1 105:1 106:1 109:1 118:1 122:1 123:1 124:1 125:1 133:1 134:1 139:1 140:1 150:1 154:1 155:1 156:1 157:1 166:1 168:1 169:1 173:1 182:1 184:1 185:1 189:1 198:1 201:1 202:1 206:1 
-3 70:1 77:1 86:1 88:1 89:1 93:1 102:1 103:1 104:1 105:1 108:1 109:1 118:1 121:1 122:1 123:1 124:1 133:1 134:1 139:1 140:1 150:1 154:1 156:1 166:1 167:1 168:1 169:1 172:1 173:1 182:1 184:1 189:1 198:1 199:1 205:1 
-3 73:1 88:1 93:1 104:1 109:1 122:1 124:1 133:1 134:1 139:1 140:1 151:1 153:1 154:1 156:1 168:1 173:1 182:1 184:1 189:1 198:1 205:1 
-3 73:1 88:1 93:1 104:1 109:1 122:1 124:1 133:1 134:1 139:1 140:1 151:1 153:1 154:1 156:1 168:1 173:1 182:1 184:1 189:1 198:1 205:1 
