svm_type c_svc
kernel_type rbf
gamma 0.015625
nr_class 2
total_sv 36
rho -1.57474
label -1 1
nr_sv 31 5
SV
0.7475113398808339 75:1 77:1 89:1 90:1 91:1 93:1 101:1 102:1 103:1 104:1 105:1 109:1 121:1 122:1 125:1 139:1 141:1 153:1 154:1 157:1 165:1 166:1 167:1 168:1 169:1 173:1 185:1 186:1 189:1 203:1 205:1 
0.04149129240433704 73:1 77:1 85:1 86:1 89:1 90:1 91:1 92:1 101:1 102:1 103:1 104:1 105:1 106:1 107:1 117:1 121:1 133:1 135:1 136:1 137:1 149:1 153:1 157:1 165:1 166:1 167:1 168:1 169:1 170:1 171:1 172:1 173:1 185:1 201:1 
0.1080331203538004 74:1 75:1 85:1 89:1 91:1 102:1 103:1 104:1 107:1 123:1 134:1 136:1 137:1 138:1 139:1 140:1 141:1 155:1 166:1 168:1 169:1 171:1 181:1 185:1 187:1 199:1 202:1 203:1 
0.6152559367848275 73:1 74:1 77:1 88:1 89:1 93:1 103:1 104:1 107:1 108:1 109:1 118:1 119:1 122:1 123:1 125:1 133:1 137:1 138:1 141:1 152:1 153:1 157:1 167:1 170:1 171:1 173:1 187:1 188:1 189:1 205:1 206:1 
0.174319216346483 77:1 86:1 87:1 93:1 103:1 104:1 108:1 117:1 121:1 122:1 123:1 124:1 134:1 135:1 138:1 139:1 153:1 154:1 155:1 156:1 166:1 167:1 168:1 172:1 182:1 189:1 205:1 
0.05256671625361751 70:1 74:1 88:1 91:1 102:1 103:1 107:1 123:1 125:1 133:1 134:1 135:1 136:1 137:1 138:1 139:1 140:1 141:1 155:1 166:1 167:1 171:1 184:1 185:1 186:1 187:1 198:1 202:1 
0.1284375504517641 71:1 74:1 77:1 78:1 87:1 90:1 93:1 101:1 102:1 103:1 104:1 105:1 106:1 107:1 108:1 119:1 122:1 135:1 138:1 151:1 154:1 165:1 166:1 167:1 168:1 169:1 170:1 171:1 172:1 173:1 174:1 183:1 186:1 199:1 202:1 
0.907554682873874 77:1 87:1 88:1 89:1 90:1 91:1 92:1 93:1 103:1 105:1 107:1 109:1 119:1 121:1 123:1 125:1 135:1 137:1 139:1 141:1 151:1 153:1 155:1 157:1 167:1 169:1 171:1 173:1 183:1 184:1 185:1 186:1 187:1 188:1 189:1 205:1 
0.9761379419407925 77:1 85:1 87:1 91:1 93:1 101:1 103:1 104:1 105:1 106:1 107:1 109:1 117:1 119:1 121:1 123:1 125:1 133:1 135:1 137:1 139:1 141:1 149:1 151:1 153:1 155:1 157:1 165:1 167:1 168:1 169:1 170:1 171:1 173:1 181:1 183:1 184:1 186:1 187:1 189:1 197:1 205:1 
0.3462010151491891 77:1 91:1 93:1 102:1 103:1 104:1 105:1 106:1 107:1 109:1 118:1 119:1 122:1 123:1 125:1 135:1 137:1 139:1 141:1 151:1 153:1 157:1 167:1 168:1 169:1 170:1 171:1 172:1 173:1 189:1 205:1 
0.2296684124505329 74:1 77:1 90:1 91:1 93:1 105:1 106:1 107:1 109:1 119:1 121:1 123:1 125:1 135:1 137:1 139:1 141:1 149:1 150:1 151:1 152:1 153:1 155:1 157:1 167:1 170:1 171:1 173:1 183:1 186:1 187:1 189:1 198:1 201:1 202:1 205:1 
1.137135168963679 74:1 77:1 90:1 91:1 107:1 117:1 119:1 121:1 123:1 135:1 137:1 139:1 149:1 150:1 151:1 152:1 153:1 155:1 167:1 171:1 183:1 187:1 198:1 200:1 201:1 
0.6752691492619191 77:1 88:1 91:1 93:1 104:1 107:1 109:1 118:1 119:1 120:1 121:1 122:1 123:1 124:1 125:1 136:1 139:1 141:1 150:1 151:1 152:1 153:1 154:1 155:1 156:1 157:1 168:1 171:1 173:1 184:1 187:1 189:1 200:1 201:1 202:1 203:1 205:1 
0.05355360110721892 70:1 75:1 86:1 87:1 88:1 90:1 91:1 102:1 103:1 107:1 117:1 118:1 119:1 123:1 125:1 133:1 134:1 135:1 139:1 140:1 141:1 150:1 151:1 154:1 155:1 166:1 167:1 168:1 171:1 182:1 187:1 203:1 
0.1973445353807695 70:1 74:1 75:1 86:1 87:1 88:1 90:1 91:1 102:1 103:1 106:1 107:1 117:1 118:1 119:1 122:1 123:1 126:1 133:1 134:1 135:1 138:1 139:1 140:1 141:1 150:1 151:1 154:1 155:1 166:1 167:1 170:1 171:1 182:1 183:1 184:1 186:1 187:1 198:1 202:1 203:1 
2.016379989260204 70:1 73:1 74:1 86:1 87:1 88:1 89:1 91:1 102:1 103:1 104:1 105:1 107:1 118:1 119:1 120:1 121:1 123:1 125:1 133:1 134:1 135:1 136:1 137:1 139:1 140:1 141:1 150:1 151:1 152:1 153:1 155:1 166:1 167:1 168:1 169:1 171:1 182:1 185:1 187:1 201:1 202:1 
0.1203323207407997 70:1 73:1 74:1 77:1 86:1 89:1 93:1 102:1 103:1 104:1 105:1 109:1 118:1 119:1 120:1 121:1 123:1 133:1 134:1 135:1 136:1 137:1 149:1 150:1 151:1 152:1 153:1 166:1 167:1 168:1 169:1 173:1 182:1 185:1 189:1 201:1 202:1 204:1 205:1 
0.09074606330960192 73:1 74:1 89:1 93:1 103:1 104:1 105:1 109:1 119:1 120:1 121:1 123:1 124:1 133:1 135:1 136:1 137:1 151:1 152:1 153:1 155:1 156:1 157:1 167:1 168:1 169:1 173:1 183:1 184:1 185:1 189:1 198:1 201:1 202:1 204:1 205:1 
0.1034877745639518 70:1 90:1 91:1 92:1 93:1 103:1 104:1 106:1 107:1 119:1 122:1 123:1 133:1 135:1 138:1 139:1 151:1 154:1 155:1 167:1 168:1 170:1 171:1 186:1 187:1 188:1 189:1 198:1 
0.06036363156523222 70:1 86:1 90:1 91:1 92:1 93:1 102:1 103:1 104:1 106:1 107:1 109:1 118:1 119:1 122:1 123:1 125:1 133:1 134:1 135:1 138:1 139:1 141:1 150:1 151:1 154:1 155:1 157:1 166:1 167:1 168:1 170:1 171:1 173:1 182:1 183:1 184:1 186:1 187:1 188:1 189:1 198:1 
1.559136484283538 73:1 74:1 76:1 90:1 103:1 104:1 106:1 122:1 123:1 133:1 138:1 139:1 140:1 141:1 154:1 155:1 157:1 167:1 168:1 170:1 171:1 173:1 187:1 189:1 201:1 202:1 
0.361642327747311 76:1 77:1 87:1 88:1 89:1 90:1 93:1 103:1 104:1 105:1 108:1 117:1 118:1 119:1 120:1 121:1 123:1 133:1 135:1 136:1 137:1 151:1 152:1 153:1 154:1 155:1 156:1 157:1 166:1 167:1 168:1 169:1 171:1 183:1 184:1 185:1 186:1 188:1 199:1 201:1 
0.5370320877598586 69:1 76:1 77:1 85:1 87:1 88:1 89:1 90:1 93:1 103:1 104:1 105:1 106:1 107:1 108:1 109:1 118:1 119:1 120:1 121:1 122:1 123:1 124:1 125:1 133:1 135:1 139:1 151:1 152:1 153:1 154:1 155:1 156:1 157:1 166:1 167:1 171:1 172:1 181:1 183:1 185:1 186:1 187:1 188:1 189:1 197:1 201:1 202:1 205:1 
1.017045431014606 73:1 74:1 77:1 86:1 87:1 88:1 89:1 93:1 102:1 104:1 105:1 106:1 107:1 108:1 109:1 118:1 121:1 122:1 123:1 124:1 125:1 133:1 134:1 135:1 136:1 137:1 138:1 139:1 140:1 141:1 150:1 153:1 154:1 155:1 156:1 157:1 166:1 168:1 169:1 170:1 171:1 172:1 173:1 183:1 184:1 185:1 189:1 201:1 202:1 205:1 
0.4980751632861591 73:1 74:1 88:1 89:1 91:1 103:1 104:1 107:1 118:1 119:1 124:1 133:1 134:1 140:1 150:1 151:1 157:1 167:1 168:1 173:1 184:1 185:1 201:1 202:1 
0.8233112816726385 72:1 73:1 74:1 86:1 87:1 88:1 89:1 90:1 91:1 92:1 93:1 94:1 101:1 102:1 117:1 119:1 121:1 123:1 133:1 134:1 135:1 137:1 139:1 151:1 153:1 155:1 166:1 167:1 169:1 171:1 181:1 182:1 183:1 185:1 187:1 199:1 201:1 203:1 
0.5675969823149195 72:1 73:1 77:1 87:1 89:1 91:1 92:1 93:1 102:1 103:1 105:1 109:1 117:1 118:1 121:1 125:1 133:1 137:1 138:1 139:1 140:1 141:1 149:1 150:1 153:1 155:1 157:1 166:1 167:1 169:1 171:1 173:1 183:1 185:1 187:1 189:1 200:1 201:1 205:1 
0.3607979911430632 70:1 73:1 74:1 77:1 86:1 88:1 89:1 92:1 102:1 103:1 104:1 105:1 107:1 108:1 118:1 121:1 122:1 123:1 133:1 134:1 135:1 136:1 137:1 138:1 139:1 140:1 141:1 142:1 150:1 153:1 154:1 155:1 166:1 168:1 169:1 171:1 172:1 182:1 183:1 184:1 185:1 188:1 198:1 201:1 202:1 205:1 
0.2550887618457004 72:1 87:1 89:1 91:1 102:1 103:1 105:1 107:1 117:1 118:1 121:1 122:1 123:1 124:1 125:1 133:1 137:1 139:1 150:1 153:1 154:1 155:1 156:1 157:1 166:1 167:1 169:1 171:1 174:1 183:1 185:1 187:1 189:1 190:1 200:1 
0.1251946724909713 72:1 77:1 87:1 89:1 91:1 93:1 102:1 103:1 105:1 106:1 107:1 108:1 109:1 117:1 118:1 119:1 121:1 122:1 123:1 124:1 125:1 133:1 135:1 141:1 150:1 151:1 153:1 154:1 155:1 167:1 173:1 183:1 184:1 185:1 186:1 187:1 188:1 189:1 200:1 
0.1132893573978064 72:1 73:1 85:1 86:1 87:1 88:1 89:1 90:1 91:1 92:1 93:1 94:1 101:1 117:1 118:1 119:1 121:1 123:1 125:1 133:1 135:1 137:1 139:1 149:1 151:1 153:1 154:1 155:1 165:1 167:1 169:1 171:1 181:1 183:1 185:1 187:1 201:1 202:1 203:1 204:1 205:1 
-3 73:1 74:1 77:1 87:1 88:1 89:1 91:1 93:1 102:1 103:1 104:1 105:1 107:1 109:1 117:1 119:1 121:1 123:1 125:1 133:1 135:1 137:1 138:1 139:1 141:1 150:1 153:1 155:1 157:1 166:1 167:1 168:1 169:1 171:1 173:1 183:1 184:1 185:1 187:1 189:1 201:1 202:1 205:1 
-3 73:1 74:1 77:1 86:1 87:1 88:1 90:1 91:1 93:1 102:1 103:1 104:1 106:1 107:1 109:1 117:1 119:1 121:1 122:1 123:1 125:1 133:1 135:1 137:1 138:1 139:1 141:1 151:1 153:1 154:1 155:1 157:1 166:1 167:1 168:1 170:1 171:1 173:1 182:1 183:1 184:1 185:1 186:1 187:1 189:1 199:1 201:1 202:1 203:1 205:1 
-3 73:1 74:1 77:1 88:1 89:1 90:1 91:1 93:1 102:1 103:1 104:1 105:1 107:1 109:1 117:1 118:1 119:1 121:1 122:1 123:1 125:1 133:1 135:1 137:1 139:1 141:1 151:1 153:1 154:1 155:1 157:1 166:1 167:1 168:1 169:1 171:1 173:1 183:1 185:1 187:1 189:1 201:1 202:1 205:1 
-3 74:1 77:1 89:1 91:1 103:1 104:1 107:1 118:1 119:1 121:1 123:1 133:1 135:1 139:1 153:1 154:1 155:1 166:1 167:1 168:1 171:1 187:1 201:1 202:1 
-3 74:1 77:1 89:1 91:1 103:1 104:1 107:1 118:1 119:1 121:1 123:1 133:1 135:1 139:1 153:1 154:1 155:1 166:1 167:1 168:1 171:1 187:1 201:1 202:1 
