svm_type c_svc
kernel_type rbf
gamma 0.015625
nr_class 2
total_sv 31
rho -1.23879
label -1 1
nr_sv 26 5
SV
1.804077285332495 69:1 125:1 134:1 135:1 136:1 137:1 138:1 139:1 140:1 141:1 
1.795675503894676 125:1 134:1 135:1 136:1 137:1 138:1 139:1 140:1 141:1 197:1 
0.08233061849051646 69:1 103:1 104:1 141:1 157:1 168:1 169:1 170:1 171:1 172:1 173:1 184:1 197:1 
0.6599449050955133 77:1 93:1 109:1 125:1 133:1 134:1 135:1 136:1 137:1 138:1 139:1 140:1 141:1 157:1 173:1 189:1 205:1 
0.07610100743176677 77:1 133:1 136:1 152:1 168:1 184:1 
0.4463129993363565 72:1 86:1 87:1 88:1 89:1 90:1 91:1 92:1 93:1 109:1 125:1 133:1 141:1 157:1 165:1 166:1 167:1 168:1 169:1 170:1 171:1 173:1 181:1 189:1 205:1 
2.108161290497372 133:1 134:1 135:1 136:1 137:1 138:1 139:1 140:1 141:1 142:1 
3 133:1 134:1 135:1 136:1 137:1 138:1 139:1 140:1 141:1 
1.102775134457315 133:1 134:1 135:1 136:1 137:1 138:1 139:1 140:1 141:1 
0.11933835518022 86:1 91:1 102:1 103:1 104:1 105:1 106:1 107:1 138:1 154:1 165:1 166:1 167:1 168:1 169:1 170:1 171:1 172:1 173:1 
0.1288974308932005 74:1 90:1 93:1 101:1 106:1 107:1 108:1 122:1 136:1 138:1 154:1 165:1 166:1 167:1 168:1 169:1 170:1 171:1 172:1 173:1 186:1 202:1 
0.1125698139271085 124:1 133:1 134:1 135:1 136:1 137:1 138:1 
0.2254840034067569 150:1 167:1 168:1 169:1 170:1 171:1 172:1 188:1 189:1 205:1 
0.3652525110957161 85:1 125:1 136:1 137:1 138:1 139:1 140:1 141:1 151:1 166:1 167:1 182:1 
0.1630308026644562 125:1 136:1 137:1 138:1 139:1 140:1 141:1 151:1 166:1 181:1 
0.0711121265438323 70:1 74:1 91:1 102:1 103:1 107:1 125:1 133:1 134:1 135:1 136:1 137:1 138:1 139:1 140:1 141:1 152:1 166:1 167:1 184:1 185:1 186:1 187:1 201:1 
0.2701935933939128 109:1 125:1 137:1 138:1 139:1 140:1 141:1 
0.7880751951791043 85:1 101:1 117:1 125:1 133:1 134:1 135:1 136:1 137:1 138:1 139:1 140:1 141:1 149:1 165:1 181:1 
0.07114766090137671 125:1 134:1 135:1 136:1 137:1 138:1 139:1 140:1 141:1 181:1 184:1 200:1 
0.7574164357371443 105:1 120:1 141:1 157:1 165:1 169:1 170:1 171:1 172:1 185:1 199:1 
0.2263902223280883 70:1 86:1 102:1 103:1 104:1 118:1 125:1 133:1 134:1 139:1 140:1 141:1 150:1 155:1 166:1 167:1 168:1 170:1 182:1 185:1 198:1 
0.3844086587095321 73:1 74:1 86:1 103:1 104:1 119:1 125:1 133:1 135:1 139:1 140:1 141:1 151:1 167:1 168:1 170:1 186:1 
0.009615329349227162 72:1 73:1 86:1 87:1 88:1 89:1 90:1 91:1 92:1 93:1 94:1 101:1 102:1 118:1 134:1 141:1 142:1 150:1 158:1 166:1 167:1 168:1 169:1 170:1 171:1 172:1 173:1 182:1 198:1 
0.04718966476792418 72:1 88:1 103:1 104:1 105:1 106:1 107:1 108:1 109:1 118:1 125:1 133:1 141:1 150:1 155:1 157:1 167:1 168:1 169:1 170:1 171:1 173:1 183:1 188:1 189:1 200:1 
0.02826849872570371 72:1 88:1 90:1 103:1 106:1 107:1 108:1 118:1 120:1 122:1 124:1 125:1 133:1 136:1 137:1 138:1 141:1 150:1 151:1 154:1 156:1 157:1 158:1 167:1 170:1 171:1 184:1 186:1 200:1 201:1 
0.1562309526606857 72:1 91:1 93:1 103:1 104:1 109:1 118:1 123:1 124:1 125:1 133:1 135:1 137:1 141:1 150:1 152:1 157:1 167:1 168:1 169:1 172:1 173:1 183:1 189:1 
-3 125:1 133:1 134:1 135:1 136:1 137:1 138:1 139:1 140:1 141:1 
-3 141:1 142:1 157:1 158:1 165:1 166:1 167:1 168:1 169:1 170:1 171:1 172:1 173:1 
-3 125:1 133:1 134:1 135:1 136:1 137:1 138:1 139:1 140:1 141:1 
-3 125:1 133:1 134:1 135:1 136:1 137:1 138:1 139:1 140:1 141:1 
-3 125:1 133:1 134:1 135:1 136:1 137:1 138:1 139:1 140:1 141:1 
