svm_type c_svc
kernel_type rbf
gamma 0.015625
nr_class 2
total_sv 53
rho -1.32162
label -1 1
nr_sv 48 5
SV
0.2741029349498746 69:1 85:1 101:1 103:1 104:1 117:1 118:1 119:1 120:1 133:1 136:1 149:1 152:1 157:1 165:1 168:1 171:1 172:1 173:1 181:1 184:1 185:1 186:1 187:1 188:1 197:1 
0.736414891806556 70:1 75:1 86:1 90:1 102:1 105:1 106:1 118:1 119:1 120:1 134:1 150:1 166:1 182:1 
0.3773065273722041 70:1 77:1 86:1 89:1 93:1 102:1 105:1 109:1 118:1 121:1 125:1 134:1 137:1 141:1 150:1 153:1 157:1 166:1 169:1 173:1 182:1 185:1 189:1 198:1 205:1 
0.3252098013608852 77:1 93:1 109:1 117:1 118:1 119:1 120:1 121:1 122:1 123:1 124:1 125:1 136:1 141:1 152:1 157:1 168:1 173:1 184:1 189:1 200:1 205:1 
0.3138788272896727 77:1 133:1 136:1 152:1 168:1 184:1 
0.2363724624386931 69:1 76:1 77:1 85:1 92:1 101:1 106:1 107:1 117:1 133:1 149:1 165:1 166:1 167:1 168:1 169:1 170:1 171:1 172:1 181:1 197:1 
0.09944570331264739 70:1 77:1 86:1 92:1 93:1 102:1 106:1 107:1 108:1 118:1 119:1 120:1 121:1 122:1 134:1 150:1 166:1 167:1 168:1 169:1 170:1 171:1 172:1 173:1 182:1 198:1 
0.6214640123634033 70:1 77:1 92:1 106:1 107:1 118:1 119:1 173:1 
0.1061799728878665 77:1 86:1 89:1 118:1 119:1 120:1 121:1 122:1 123:1 169:1 170:1 171:1 172:1 182:1 183:1 184:1 185:1 
0.1408450722783659 77:1 86:1 87:1 88:1 89:1 90:1 91:1 92:1 93:1 104:1 107:1 109:1 120:1 123:1 125:1 136:1 139:1 141:1 152:1 155:1 157:1 168:1 171:1 173:1 182:1 183:1 184:1 185:1 186:1 187:1 188:1 189:1 205:1 
0.2457166789133826 77:1 93:1 101:1 102:1 103:1 104:1 105:1 106:1 107:1 108:1 109:1 117:1 120:1 122:1 125:1 133:1 136:1 138:1 141:1 149:1 152:1 154:1 157:1 165:1 166:1 167:1 168:1 169:1 170:1 171:1 172:1 173:1 189:1 205:1 
0.1767646965793176 74:1 77:1 89:1 90:1 93:1 105:1 109:1 119:1 120:1 125:1 134:1 135:1 136:1 137:1 138:1 139:1 140:1 141:1 152:1 157:1 168:1 173:1 185:1 189:1 202:1 205:1 
0.07501121944979969 77:1 86:1 87:1 88:1 89:1 90:1 91:1 92:1 93:1 102:1 109:1 118:1 125:1 134:1 141:1 150:1 157:1 165:1 173:1 181:1 189:1 205:1 
0.08446378790039549 72:1 77:1 87:1 88:1 90:1 91:1 101:1 102:1 104:1 105:1 106:1 107:1 119:1 120:1 123:1 135:1 136:1 151:1 152:1 154:1 155:1 165:1 166:1 168:1 169:1 171:1 181:1 184:1 187:1 199:1 205:1 
0.3783267972702089 72:1 75:1 77:1 86:1 87:1 88:1 90:1 91:1 93:1 101:1 102:1 104:1 105:1 106:1 107:1 109:1 119:1 120:1 123:1 125:1 135:1 136:1 141:1 151:1 152:1 154:1 155:1 157:1 165:1 166:1 168:1 169:1 171:1 173:1 181:1 183:1 184:1 189:1 202:1 205:1 
0.04138535223358329 93:1 105:1 108:1 117:1 118:1 119:1 120:1 121:1 122:1 138:1 151:1 167:1 168:1 169:1 170:1 171:1 172:1 173:1 189:1 203:1 204:1 205:1 
0.3419779684133714 73:1 77:1 91:1 92:1 101:1 102:1 103:1 104:1 105:1 106:1 117:1 118:1 133:1 135:1 136:1 149:1 157:1 165:1 166:1 167:1 168:1 169:1 170:1 171:1 172:1 173:1 181:1 200:1 
0.1236412233189023 71:1 86:1 87:1 102:1 117:1 118:1 119:1 120:1 136:1 137:1 138:1 154:1 155:1 171:1 172:1 188:1 
0.6201519192147428 71:1 87:1 88:1 103:1 104:1 105:1 118:1 119:1 122:1 134:1 135:1 150:1 154:1 166:1 168:1 169:1 170:1 182:1 184:1 198:1 
0.5140618188871671 74:1 77:1 93:1 102:1 103:1 104:1 105:1 106:1 108:1 118:1 120:1 136:1 149:1 152:1 165:1 168:1 184:1 202:1 
0.02114946896990972 77:1 87:1 90:1 103:1 106:1 108:1 119:1 122:1 123:1 134:1 135:1 136:1 137:1 138:1 139:1 140:1 141:1 149:1 151:1 154:1 155:1 165:1 167:1 168:1 169:1 170:1 172:1 181:1 183:1 186:1 189:1 205:1 
0.6198364351830367 70:1 77:1 86:1 93:1 102:1 109:1 118:1 125:1 134:1 141:1 150:1 157:1 166:1 173:1 182:1 189:1 205:1 
0.00892408222199447 72:1 85:1 101:1 105:1 106:1 117:1 133:1 141:1 149:1 157:1 165:1 172:1 181:1 186:1 187:1 188:1 200:1 
0.4611268568242595 72:1 85:1 101:1 106:1 117:1 118:1 119:1 120:1 121:1 133:1 141:1 149:1 157:1 165:1 171:1 172:1 181:1 185:1 186:1 
0.9844382542778436 105:1 118:1 119:1 120:1 141:1 157:1 171:1 172:1 173:1 181:1 185:1 186:1 199:1 
0.2138469572502532 78:1 86:1 93:1 102:1 105:1 106:1 107:1 108:1 118:1 134:1 150:1 166:1 169:1 170:1 171:1 172:1 173:1 174:1 182:1 198:1 
0.1805486952469427 77:1 86:1 88:1 93:1 102:1 104:1 118:1 120:1 121:1 122:1 123:1 124:1 134:1 136:1 150:1 152:1 166:1 168:1 169:1 170:1 171:1 172:1 182:1 184:1 205:1 
0.6261683661892203 77:1 120:1 121:1 122:1 123:1 124:1 168:1 169:1 170:1 171:1 172:1 181:1 
0.370913475330472 70:1 72:1 75:1 77:1 86:1 88:1 91:1 93:1 102:1 104:1 107:1 109:1 118:1 120:1 123:1 125:1 134:1 136:1 139:1 141:1 150:1 152:1 155:1 157:1 166:1 168:1 171:1 173:1 182:1 184:1 187:1 189:1 200:1 203:1 205:1 
1.87814456132923 77:1 103:1 104:1 105:1 106:1 107:1 167:1 168:1 169:1 170:1 171:1 181:1 
0.4485166482155936 77:1 85:1 91:1 101:1 104:1 105:1 106:1 107:1 117:1 118:1 122:1 133:1 137:1 139:1 149:1 155:1 156:1 165:1 167:1 168:1 169:1 181:1 205:1 
0.1235054560837326 77:1 91:1 93:1 102:1 103:1 104:1 105:1 106:1 107:1 109:1 118:1 119:1 122:1 123:1 125:1 135:1 137:1 139:1 141:1 151:1 153:1 157:1 167:1 168:1 169:1 170:1 171:1 172:1 173:1 189:1 205:1 
0.3786646211572854 77:1 104:1 105:1 106:1 107:1 118:1 120:1 122:1 137:1 139:1 156:1 167:1 168:1 169:1 181:1 
0.1605235316014892 77:1 85:1 88:1 89:1 93:1 105:1 106:1 109:1 118:1 119:1 120:1 121:1 122:1 123:1 124:1 125:1 141:1 150:1 151:1 152:1 153:1 154:1 155:1 156:1 157:1 169:1 170:1 173:1 181:1 184:1 185:1 186:1 189:1 205:1 
0.1169190390196151 77:1 88:1 89:1 105:1 106:1 118:1 119:1 120:1 121:1 122:1 123:1 124:1 150:1 151:1 152:1 153:1 154:1 155:1 156:1 169:1 170:1 181:1 183:1 184:1 
0.05234104705172275 69:1 77:1 85:1 88:1 89:1 90:1 93:1 101:1 104:1 106:1 109:1 117:1 118:1 119:1 120:1 122:1 123:1 124:1 125:1 133:1 141:1 149:1 150:1 151:1 152:1 154:1 155:1 156:1 157:1 165:1 168:1 170:1 173:1 181:1 184:1 185:1 186:1 189:1 205:1 
0.1767855083874958 70:1 77:1 78:1 86:1 92:1 93:1 102:1 105:1 106:1 107:1 108:1 118:1 133:1 134:1 150:1 166:1 169:1 170:1 171:1 172:1 173:1 182:1 198:1 205:1 
0.604126280349388 70:1 77:1 86:1 89:1 91:1 93:1 102:1 104:1 105:1 107:1 109:1 118:1 119:1 122:1 124:1 133:1 134:1 137:1 138:1 139:1 140:1 150:1 152:1 153:1 155:1 166:1 168:1 169:1 170:1 172:1 182:1 185:1 189:1 198:1 205:1 
0.03361110167805548 70:1 77:1 86:1 88:1 89:1 90:1 92:1 102:1 104:1 106:1 108:1 117:1 118:1 120:1 122:1 126:1 133:1 134:1 136:1 138:1 139:1 140:1 141:1 150:1 152:1 154:1 166:1 168:1 170:1 172:1 182:1 184:1 185:1 186:1 188:1 198:1 205:1 
0.2191037918326268 70:1 77:1 86:1 92:1 102:1 104:1 105:1 106:1 107:1 108:1 118:1 123:1 125:1 133:1 134:1 138:1 139:1 140:1 141:1 150:1 166:1 168:1 169:1 170:1 171:1 182:1 185:1 186:1 188:1 198:1 
0.003118239200251593 70:1 77:1 86:1 88:1 89:1 90:1 91:1 92:1 102:1 104:1 105:1 108:1 109:1 117:1 118:1 120:1 121:1 126:1 133:1 134:1 136:1 137:1 139:1 140:1 141:1 150:1 152:1 153:1 166:1 168:1 169:1 172:1 182:1 184:1 185:1 186:1 187:1 188:1 198:1 205:1 
0.07236798953024685 74:1 86:1 90:1 102:1 103:1 104:1 106:1 118:1 120:1 122:1 123:1 133:1 134:1 136:1 138:1 139:1 141:1 150:1 152:1 154:1 155:1 157:1 166:1 167:1 168:1 169:1 170:1 171:1 173:1 182:1 186:1 187:1 189:1 198:1 201:1 203:1 204:1 205:1 
0.451374322911272 73:1 88:1 104:1 105:1 106:1 107:1 108:1 118:1 119:1 125:1 133:1 138:1 141:1 150:1 151:1 154:1 157:1 168:1 169:1 173:1 184:1 187:1 188:1 189:1 201:1 
0.3889469008915861 72:1 73:1 85:1 86:1 87:1 88:1 89:1 90:1 91:1 92:1 93:1 101:1 109:1 118:1 119:1 124:1 125:1 134:1 136:1 137:1 138:1 139:1 150:1 152:1 166:1 168:1 169:1 170:1 171:1 172:1 173:1 182:1 189:1 198:1 199:1 204:1 205:1 
0.03411098102487172 73:1 77:1 88:1 91:1 92:1 104:1 105:1 106:1 118:1 119:1 123:1 125:1 133:1 140:1 151:1 153:1 154:1 155:1 156:1 168:1 170:1 171:1 184:1 188:1 205:1 
0.1603273082179784 71:1 72:1 85:1 86:1 87:1 88:1 89:1 90:1 91:1 92:1 93:1 103:1 105:1 106:1 109:1 117:1 118:1 119:1 122:1 123:1 124:1 135:1 136:1 137:1 138:1 139:1 141:1 150:1 157:1 166:1 168:1 169:1 170:1 171:1 172:1 182:1 185:1 186:1 187:1 188:1 198:1 199:1 205:1 
0.1128028948660331 73:1 86:1 87:1 88:1 89:1 90:1 91:1 92:1 93:1 101:1 102:1 109:1 117:1 118:1 125:1 136:1 141:1 152:1 157:1 168:1 173:1 181:1 182:1 183:1 184:1 185:1 186:1 187:1 188:1 189:1 205:1 
0.2650355169165548 72:1 86:1 87:1 88:1 89:1 90:1 91:1 92:1 93:1 101:1 105:1 106:1 118:1 119:1 120:1 123:1 125:1 134:1 136:1 137:1 138:1 139:1 141:1 149:1 150:1 152:1 153:1 155:1 156:1 166:1 168:1 171:1 172:1 182:1 184:1 186:1 188:1 198:1 200:1 202:1 205:1 
-3 77:1 85:1 101:1 105:1 106:1 117:1 118:1 119:1 122:1 133:1 138:1 149:1 154:1 165:1 168:1 169:1 170:1 171:1 172:1 181:1 
-3 70:1 77:1 86:1 87:1 88:1 89:1 90:1 91:1 93:1 102:1 103:1 104:1 107:1 109:1 118:1 120:1 123:1 125:1 134:1 136:1 139:1 141:1 150:1 152:1 155:1 157:1 166:1 168:1 171:1 172:1 173:1 182:1 184:1 185:1 186:1 187:1 188:1 189:1 198:1 205:1 
-3 77:1 86:1 93:1 102:1 104:1 105:1 106:1 109:1 118:1 119:1 120:1 125:1 134:1 136:1 141:1 150:1 152:1 157:1 166:1 168:1 169:1 170:1 171:1 172:1 173:1 182:1 189:1 198:1 205:1 
-3 77:1 105:1 106:1 118:1 119:1 168:1 169:1 181:1 
-3 77:1 105:1 106:1 118:1 119:1 168:1 169:1 181:1 
