svm_type c_svc
kernel_type rbf
gamma 0.015625
nr_class 2
total_sv 35
rho -0.999111
label -1 1
nr_sv 32 3
SV
0.144262381751948 30:1 31:1 47:1 63:1 79:1 95:1 111:1 127:1 131:1 132:1 133:1 134:1 135:1 136:1 137:1 138:1 139:1 140:1 141:1 142:1 143:1 159:1 175:1 191:1 207:1 223:1 239:1 254:1 255:1 
0.1206103205938771 19:1 35:1 51:1 67:1 83:1 99:1 115:1 131:1 132:1 133:1 134:1 135:1 136:1 137:1 138:1 139:1 140:1 141:1 142:1 143:1 147:1 163:1 179:1 195:1 211:1 226:1 227:1 243:1 
0.08211013322012062 21:1 32:1 37:1 48:1 53:1 63:1 69:1 71:1 72:1 78:1 79:1 85:1 88:1 89:1 90:1 94:1 101:1 106:1 107:1 109:1 110:1 117:1 123:1 124:1 125:1 130:1 131:1 133:1 134:1 135:1 136:1 137:1 138:1 139:1 140:1 141:1 146:1 147:1 148:1 149:1 150:1 151:1 152:1 153:1 154:1 157:1 165:1 173:1 174:1 181:1 190:1 197:1 206:1 207:1 213:1 222:1 223:1 229:1 238:1 239:1 245:1 254:1 
0.1483437366427955 19:1 20:1 35:1 36:1 51:1 52:1 67:1 68:1 83:1 84:1 99:1 100:1 115:1 116:1 117:1 118:1 119:1 120:1 121:1 122:1 123:1 124:1 125:1 126:1 127:1 131:1 132:1 133:1 134:1 135:1 136:1 137:1 138:1 139:1 140:1 141:1 142:1 143:1 147:1 148:1 152:1 163:1 164:1 168:1 169:1 179:1 180:1 184:1 185:1 186:1 195:1 196:1 201:1 202:1 203:1 211:1 212:1 218:1 219:1 227:1 228:1 235:1 243:1 244:1 
0.1265176319585105 19:1 20:1 27:1 28:1 35:1 36:1 43:1 44:1 52:1 59:1 60:1 68:1 74:1 75:1 84:1 89:1 90:1 100:1 104:1 105:1 116:1 119:1 120:1 132:1 133:1 134:1 135:1 136:1 137:1 138:1 139:1 140:1 141:1 142:1 143:1 144:1 148:1 149:1 164:1 168:1 180:1 184:1 185:1 196:1 201:1 202:1 212:1 218:1 219:1 227:1 228:1 235:1 236:1 243:1 244:1 251:1 252:1 
0.002908089346332013 27:1 35:1 42:1 43:1 44:1 51:1 58:1 59:1 67:1 72:1 73:1 74:1 83:1 88:1 89:1 99:1 103:1 104:1 115:1 117:1 118:1 119:1 131:1 132:1 133:1 134:1 135:1 136:1 137:1 138:1 139:1 140:1 141:1 142:1 143:1 144:1 147:1 148:1 163:1 167:1 179:1 183:1 184:1 185:1 195:1 200:1 201:1 202:1 211:1 217:1 218:1 219:1 227:1 234:1 235:1 243:1 
0.2003620862617984 19:1 28:1 35:1 43:1 51:1 59:1 67:1 73:1 74:1 83:1 88:1 89:1 99:1 103:1 104:1 115:1 117:1 118:1 119:1 131:1 132:1 133:1 134:1 135:1 136:1 137:1 138:1 139:1 140:1 141:1 142:1 143:1 147:1 148:1 150:1 163:1 167:1 179:1 184:1 195:1 200:1 201:1 211:1 217:1 218:1 226:1 227:1 234:1 235:1 243:1 251:1 
0.1483785564056689 35:1 41:1 42:1 51:1 53:1 54:1 55:1 56:1 57:1 58:1 67:1 74:1 83:1 90:1 99:1 106:1 115:1 122:1 131:1 132:1 133:1 134:1 135:1 136:1 137:1 138:1 147:1 150:1 151:1 154:1 158:1 163:1 166:1 167:1 170:1 174:1 175:1 179:1 182:1 183:1 186:1 190:1 191:1 195:1 198:1 199:1 202:1 206:1 207:1 211:1 214:1 215:1 216:1 217:1 218:1 219:1 220:1 221:1 222:1 223:1 227:1 230:1 231:1 232:1 233:1 234:1 235:1 236:1 237:1 243:1 
0.008427785471736275 19:1 35:1 41:1 42:1 51:1 53:1 54:1 55:1 56:1 57:1 58:1 67:1 73:1 74:1 83:1 89:1 90:1 99:1 105:1 106:1 115:1 121:1 122:1 131:1 132:1 133:1 134:1 135:1 136:1 137:1 138:1 147:1 150:1 153:1 154:1 158:1 163:1 166:1 169:1 170:1 174:1 175:1 176:1 179:1 182:1 185:1 186:1 190:1 191:1 195:1 198:1 201:1 202:1 205:1 206:1 207:1 211:1 214:1 217:1 218:1 219:1 220:1 221:1 222:1 223:1 227:1 233:1 234:1 235:1 236:1 237:1 243:1 
0.06864169596823959 30:1 31:1 46:1 47:1 51:1 52:1 56:1 57:1 62:1 63:1 67:1 68:1 72:1 73:1 78:1 79:1 83:1 84:1 88:1 89:1 94:1 95:1 99:1 100:1 104:1 105:1 106:1 107:1 108:1 109:1 110:1 111:1 115:1 116:1 117:1 118:1 119:1 120:1 121:1 122:1 123:1 124:1 125:1 126:1 127:1 131:1 132:1 136:1 137:1 142:1 143:1 147:1 148:1 152:1 153:1 158:1 159:1 163:1 164:1 168:1 169:1 174:1 175:1 179:1 180:1 184:1 185:1 190:1 191:1 195:1 196:1 197:1 198:1 199:1 200:1 201:1 202:1 203:1 204:1 205:1 206:1 207:1 211:1 212:1 213:1 214:1 215:1 216:1 217:1 218:1 222:1 223:1 238:1 239:1 254:1 255:1 
0.1245838080947437 30:1 31:1 35:1 36:1 44:1 46:1 47:1 51:1 52:1 55:1 59:1 60:1 61:1 62:1 63:1 67:1 68:1 70:1 71:1 75:1 76:1 78:1 79:1 83:1 87:1 88:1 89:1 90:1 91:1 94:1 95:1 99:1 103:1 104:1 105:1 106:1 110:1 111:1 115:1 116:1 117:1 118:1 119:1 120:1 121:1 126:1 127:1 131:1 132:1 136:1 137:1 138:1 142:1 143:1 147:1 153:1 154:1 156:1 158:1 159:1 163:1 170:1 172:1 173:1 174:1 175:1 179:1 188:1 189:1 190:1 191:1 195:1 202:1 203:1 204:1 205:1 206:1 207:1 211:1 212:1 213:1 214:1 215:1 216:1 217:1 218:1 219:1 220:1 222:1 223:1 227:1 228:1 229:1 230:1 231:1 232:1 238:1 239:1 254:1 255:1 
0.08496937453204327 45:1 47:1 51:1 61:1 63:1 67:1 70:1 75:1 76:1 83:1 86:1 87:1 90:1 91:1 99:1 103:1 104:1 105:1 106:1 115:1 116:1 117:1 118:1 119:1 120:1 121:1 131:1 132:1 136:1 137:1 147:1 152:1 153:1 154:1 156:1 163:1 169:1 170:1 172:1 173:1 179:1 188:1 189:1 195:1 198:1 199:1 200:1 201:1 202:1 203:1 204:1 205:1 210:1 211:1 212:1 213:1 214:1 215:1 216:1 217:1 218:1 219:1 222:1 227:1 238:1 
0.0813172078019679 31:1 47:1 63:1 66:1 67:1 68:1 69:1 70:1 71:1 72:1 73:1 74:1 75:1 76:1 77:1 78:1 83:1 84:1 85:1 86:1 87:1 88:1 89:1 90:1 91:1 92:1 93:1 94:1 99:1 103:1 115:1 119:1 131:1 135:1 147:1 151:1 163:1 167:1 179:1 180:1 181:1 182:1 183:1 184:1 185:1 186:1 187:1 188:1 189:1 190:1 195:1 222:1 238:1 254:1 
0.1763894487803313 27:1 35:1 36:1 43:1 44:1 47:1 51:1 52:1 58:1 59:1 63:1 68:1 73:1 74:1 79:1 84:1 89:1 90:1 95:1 100:1 104:1 105:1 111:1 116:1 119:1 120:1 127:1 132:1 133:1 134:1 135:1 136:1 137:1 138:1 139:1 140:1 141:1 143:1 148:1 149:1 159:1 164:1 167:1 168:1 175:1 180:1 184:1 185:1 191:1 196:1 201:1 202:1 207:1 211:1 212:1 218:1 219:1 223:1 227:1 228:1 235:1 239:1 254:1 255:1 
0.1040424366354688 28:1 36:1 43:1 44:1 47:1 52:1 59:1 63:1 73:1 74:1 88:1 89:1 90:1 103:1 104:1 105:1 118:1 119:1 132:1 133:1 134:1 135:1 136:1 137:1 138:1 139:1 140:1 141:1 142:1 148:1 151:1 184:1 201:1 202:1 211:1 217:1 218:1 222:1 227:1 234:1 235:1 238:1 254:1 
0.07161982548257388 23:1 39:1 51:1 52:1 55:1 63:1 68:1 71:1 79:1 87:1 95:1 103:1 111:1 114:1 115:1 116:1 117:1 118:1 119:1 120:1 121:1 122:1 123:1 124:1 125:1 127:1 131:1 135:1 143:1 151:1 159:1 167:1 175:1 183:1 191:1 195:1 196:1 197:1 198:1 199:1 200:1 201:1 202:1 203:1 204:1 207:1 215:1 223:1 230:1 231:1 238:1 239:1 247:1 255:1 
0.2268594948801886 23:1 39:1 51:1 52:1 55:1 62:1 63:1 67:1 68:1 69:1 70:1 71:1 72:1 73:1 74:1 75:1 76:1 77:1 78:1 79:1 87:1 95:1 103:1 111:1 119:1 127:1 130:1 131:1 132:1 133:1 134:1 135:1 136:1 137:1 138:1 139:1 140:1 141:1 142:1 143:1 151:1 159:1 167:1 175:1 183:1 191:1 195:1 196:1 197:1 198:1 199:1 200:1 201:1 202:1 203:1 204:1 205:1 206:1 207:1 208:1 211:1 212:1 213:1 214:1 215:1 216:1 217:1 218:1 219:1 220:1 221:1 222:1 223:1 224:1 231:1 247:1 
0.03688375560107005 23:1 39:1 51:1 55:1 62:1 63:1 67:1 68:1 69:1 70:1 71:1 72:1 73:1 74:1 75:1 76:1 77:1 78:1 79:1 87:1 94:1 95:1 103:1 110:1 111:1 119:1 126:1 127:1 130:1 131:1 132:1 133:1 134:1 135:1 136:1 137:1 138:1 139:1 140:1 141:1 142:1 143:1 146:1 147:1 151:1 158:1 159:1 167:1 174:1 175:1 183:1 190:1 191:1 195:1 196:1 197:1 198:1 199:1 200:1 201:1 202:1 203:1 204:1 205:1 206:1 207:1 211:1 212:1 213:1 214:1 215:1 216:1 217:1 218:1 219:1 220:1 221:1 222:1 223:1 231:1 247:1 
0.02021736412857819 30:1 31:1 46:1 47:1 62:1 63:1 68:1 69:1 70:1 71:1 72:1 73:1 74:1 75:1 76:1 77:1 78:1 79:1 84:1 88:1 94:1 95:1 99:1 100:1 104:1 110:1 111:1 115:1 116:1 120:1 126:1 127:1 131:1 132:1 136:1 142:1 143:1 147:1 148:1 152:1 158:1 159:1 163:1 164:1 168:1 169:1 170:1 171:1 172:1 173:1 174:1 175:1 179:1 184:1 185:1 186:1 187:1 188:1 189:1 190:1 191:1 194:1 195:1 200:1 206:1 207:1 211:1 216:1 222:1 223:1 232:1 238:1 239:1 254:1 255:1 
0.4148983417409006 29:1 30:1 31:1 44:1 45:1 47:1 59:1 60:1 63:1 66:1 67:1 68:1 69:1 70:1 71:1 72:1 73:1 74:1 79:1 83:1 84:1 85:1 86:1 87:1 88:1 89:1 95:1 104:1 105:1 106:1 109:1 111:1 122:1 123:1 124:1 125:1 127:1 139:1 140:1 141:1 143:1 154:1 155:1 156:1 159:1 162:1 163:1 164:1 165:1 166:1 167:1 168:1 169:1 170:1 175:1 178:1 179:1 180:1 181:1 182:1 183:1 184:1 185:1 191:1 201:1 202:1 203:1 207:1 219:1 220:1 221:1 223:1 236:1 237:1 239:1 253:1 254:1 255:1 
0.3366782398657583 31:1 45:1 47:1 60:1 61:1 73:1 74:1 75:1 82:1 83:1 84:1 85:1 86:1 87:1 88:1 89:1 90:1 99:1 100:1 104:1 120:1 121:1 122:1 125:1 138:1 139:1 140:1 152:1 153:1 154:1 155:1 162:1 163:1 164:1 165:1 166:1 167:1 168:1 169:1 178:1 179:1 180:1 181:1 182:1 183:1 184:1 202:1 203:1 204:1 219:1 220:1 221:1 222:1 236:1 237:1 238:1 253:1 254:1 
0.3705284345146486 31:1 40:1 41:1 44:1 47:1 54:1 55:1 56:1 59:1 60:1 61:1 63:1 67:1 68:1 69:1 70:1 72:1 74:1 75:1 76:1 77:1 79:1 83:1 84:1 88:1 89:1 90:1 92:1 93:1 95:1 99:1 103:1 104:1 108:1 111:1 117:1 118:1 119:1 124:1 127:1 134:1 136:1 137:1 140:1 143:1 151:1 152:1 153:1 155:1 156:1 157:1 159:1 165:1 166:1 167:1 168:1 170:1 171:1 172:1 175:1 179:1 180:1 181:1 184:1 185:1 186:1 188:1 191:1 195:1 199:1 200:1 201:1 204:1 207:1 214:1 215:1 219:1 220:1 223:1 229:1 230:1 235:1 236:1 239:1 246:1 255:1 
0.2626596414013955 23:1 30:1 31:1 39:1 40:1 43:1 44:1 46:1 47:1 53:1 54:1 55:1 56:1 59:1 60:1 62:1 63:1 67:1 68:1 69:1 71:1 73:1 74:1 75:1 76:1 78:1 79:1 82:1 83:1 84:1 87:1 88:1 89:1 90:1 91:1 92:1 94:1 95:1 99:1 102:1 103:1 104:1 107:1 108:1 110:1 111:1 117:1 118:1 119:1 123:1 126:1 127:1 134:1 135:1 136:1 139:1 142:1 143:1 150:1 151:1 152:1 155:1 156:1 158:1 159:1 165:1 166:1 167:1 168:1 170:1 171:1 172:1 174:1 175:1 178:1 179:1 180:1 181:1 183:1 184:1 185:1 186:1 187:1 188:1 190:1 191:1 194:1 195:1 199:1 200:1 201:1 203:1 204:1 206:1 207:1 213:1 214:1 215:1 219:1 222:1 223:1 230:1 231:1 235:1 238:1 239:1 254:1 255:1 
0.2445282438215901 30:1 39:1 40:1 43:1 44:1 46:1 54:1 55:1 56:1 59:1 60:1 62:1 66:1 67:1 68:1 69:1 73:1 74:1 75:1 78:1 82:1 83:1 88:1 89:1 91:1 94:1 102:1 103:1 107:1 110:1 117:1 118:1 123:1 126:1 135:1 136:1 139:1 142:1 149:1 150:1 151:1 155:1 156:1 158:1 163:1 164:1 165:1 169:1 170:1 171:1 172:1 174:1 178:1 179:1 180:1 184:1 185:1 187:1 190:1 197:1 198:1 199:1 203:1 206:1 213:1 214:1 219:1 222:1 235:1 237:1 238:1 254:1 
0.4860355125936723 27:1 31:1 32:1 38:1 39:1 43:1 44:1 47:1 48:1 55:1 59:1 60:1 63:1 71:1 75:1 79:1 83:1 84:1 87:1 91:1 93:1 95:1 99:1 100:1 101:1 102:1 103:1 104:1 105:1 106:1 107:1 108:1 109:1 111:1 115:1 127:1 143:1 147:1 148:1 149:1 150:1 151:1 152:1 153:1 154:1 155:1 156:1 159:1 163:1 164:1 165:1 166:1 167:1 168:1 169:1 170:1 171:1 172:1 173:1 175:1 183:1 189:1 191:1 198:1 199:1 205:1 207:1 214:1 215:1 221:1 223:1 229:1 230:1 235:1 236:1 237:1 239:1 251:1 252:1 255:1 256:1 
0.01437696214068223 39:1 43:1 44:1 47:1 59:1 63:1 98:1 99:1 100:1 101:1 102:1 103:1 104:1 105:1 106:1 107:1 108:1 109:1 115:1 124:1 125:1 162:1 163:1 164:1 165:1 166:1 167:1 168:1 169:1 170:1 171:1 172:1 173:1 179:1 183:1 188:1 189:1 198:1 204:1 205:1 213:1 214:1 220:1 221:1 222:1 229:1 234:1 235:1 236:1 237:1 238:1 252:1 
0.06485699553692564 19:1 20:1 35:1 38:1 39:1 47:1 51:1 54:1 55:1 56:1 57:1 58:1 59:1 60:1 61:1 62:1 63:1 67:1 70:1 72:1 73:1 76:1 77:1 83:1 86:1 88:1 89:1 90:1 91:1 92:1 93:1 99:1 102:1 108:1 115:1 118:1 124:1 131:1 132:1 133:1 134:1 135:1 136:1 137:1 138:1 139:1 140:1 147:1 150:1 156:1 163:1 166:1 168:1 172:1 173:1 179:1 182:1 184:1 185:1 186:1 187:1 188:1 189:1 191:1 192:1 195:1 198:1 199:1 200:1 201:1 202:1 203:1 204:1 205:1 206:1 207:1 211:1 214:1 215:1 216:1 217:1 218:1 219:1 220:1 221:1 222:1 223:1 227:1 230:1 243:1 244:1 
0.3060775836939352 19:1 20:1 35:1 36:1 38:1 39:1 40:1 41:1 42:1 43:1 44:1 45:1 46:1 47:1 51:1 52:1 54:1 55:1 56:1 57:1 58:1 59:1 60:1 61:1 62:1 63:1 67:1 68:1 70:1 83:1 84:1 86:1 88:1 89:1 90:1 91:1 92:1 93:1 99:1 100:1 102:1 104:1 105:1 106:1 108:1 109:1 115:1 116:1 118:1 124:1 125:1 131:1 132:1 133:1 134:1 135:1 136:1 137:1 138:1 139:1 140:1 141:1 147:1 148:1 150:1 156:1 163:1 164:1 166:1 172:1 179:1 180:1 182:1 184:1 185:1 186:1 187:1 188:1 189:1 195:1 196:1 198:1 206:1 207:1 211:1 212:1 214:1 222:1 223:1 227:1 228:1 230:1 231:1 232:1 233:1 234:1 235:1 236:1 237:1 238:1 239:1 243:1 244:1 
0.1323291181318726 19:1 35:1 51:1 54:1 55:1 56:1 57:1 58:1 59:1 60:1 61:1 62:1 63:1 67:1 70:1 83:1 86:1 88:1 89:1 90:1 91:1 92:1 99:1 102:1 104:1 108:1 115:1 118:1 124:1 131:1 132:1 133:1 134:1 135:1 136:1 137:1 138:1 139:1 140:1 147:1 150:1 156:1 163:1 166:1 172:1 174:1 179:1 182:1 184:1 185:1 186:1 187:1 188:1 189:1 190:1 195:1 198:1 206:1 207:1 208:1 211:1 213:1 214:1 215:1 216:1 217:1 218:1 219:1 220:1 221:1 222:1 223:1 226:1 227:1 230:1 231:1 232:1 233:1 234:1 235:1 236:1 237:1 238:1 243:1 
0.0500601915156671 26:1 42:1 51:1 52:1 54:1 55:1 58:1 62:1 67:1 68:1 71:1 74:1 78:1 79:1 83:1 84:1 87:1 90:1 93:1 94:1 95:1 99:1 100:1 103:1 106:1 108:1 109:1 110:1 111:1 115:1 116:1 119:1 122:1 123:1 124:1 126:1 127:1 131:1 132:1 133:1 134:1 135:1 136:1 137:1 138:1 139:1 142:1 143:1 147:1 148:1 151:1 154:1 158:1 159:1 163:1 164:1 167:1 170:1 171:1 172:1 174:1 179:1 180:1 183:1 186:1 188:1 189:1 190:1 195:1 199:1 202:1 206:1 207:1 210:1 211:1 214:1 215:1 218:1 222:1 223:1 224:1 227:1 234:1 239:1 250:1 
0.2643523513563655 87:1 88:1 89:1 90:1 103:1 106:1 119:1 122:1 133:1 134:1 135:1 136:1 137:1 138:1 139:1 140:1 141:1 151:1 154:1 167:1 170:1 183:1 184:1 185:1 186:1 
0.01356556949599327 76:1 88:1 90:1 92:1 119:1 121:1 123:1 133:1 134:1 135:1 136:1 137:1 138:1 139:1 140:1 141:1 150:1 152:1 166:1 168:1 170:1 183:1 185:1 186:1 
-1.544948285097492 29:1 39:1 44:1 45:1 47:1 51:1 52:1 55:1 59:1 60:1 61:1 63:1 67:1 71:1 74:1 75:1 79:1 83:1 87:1 88:1 89:1 90:1 95:1 99:1 103:1 104:1 105:1 109:1 111:1 115:1 125:1 126:1 127:1 131:1 133:1 134:1 135:1 136:1 137:1 138:1 139:1 140:1 141:1 143:1 147:1 149:1 150:1 151:1 152:1 153:1 159:1 163:1 164:1 165:1 168:1 169:1 170:1 175:1 179:1 180:1 184:1 185:1 186:1 191:1 195:1 198:1 199:1 203:1 204:1 207:1 214:1 215:1 219:1 220:1 223:1 230:1 236:1 237:1 239:1 252:1 254:1 255:1 
-1.509556644800275 22:1 23:1 28:1 30:1 31:1 38:1 39:1 44:1 45:1 46:1 47:1 54:1 55:1 59:1 60:1 62:1 63:1 67:1 71:1 73:1 74:1 75:1 79:1 83:1 87:1 88:1 89:1 90:1 95:1 99:1 103:1 104:1 109:1 111:1 115:1 125:1 127:1 131:1 133:1 134:1 135:1 136:1 137:1 138:1 139:1 140:1 141:1 143:1 147:1 149:1 150:1 151:1 152:1 159:1 163:1 164:1 165:1 168:1 169:1 170:1 175:1 179:1 180:1 184:1 185:1 186:1 191:1 195:1 196:1 199:1 200:1 202:1 203:1 207:1 211:1 212:1 214:1 215:1 219:1 223:1 231:1 235:1 236:1 238:1 239:1 251:1 252:1 254:1 255:1 
-1.883887389469633 29:1 44:1 45:1 47:1 55:1 59:1 60:1 63:1 67:1 71:1 74:1 75:1 83:1 87:1 88:1 89:1 90:1 99:1 102:1 103:1 104:1 109:1 115:1 119:1 125:1 131:1 133:1 134:1 135:1 136:1 137:1 138:1 139:1 140:1 141:1 147:1 149:1 150:1 151:1 163:1 164:1 168:1 169:1 179:1 180:1 184:1 185:1 186:1 194:1 195:1 199:1 203:1 211:1 214:1 215:1 219:1 220:1 222:1 231:1 235:1 236:1 237:1 238:1 252:1 
