svm_type c_svc
kernel_type rbf
gamma 0.015625
nr_class 2
total_sv 25
rho -1.64474
label -1 1
nr_sv 20 5
SV
1.492770077425882 73:1 89:1 105:1 121:1 137:1 153:1 169:1 185:1 201:1 
1.232355379673279 200:1 
0.9008594924710993 70:1 75:1 90:1 105:1 106:1 119:1 120:1 134:1 
0.1136442087664916 76:1 77:1 91:1 107:1 120:1 121:1 136:1 137:1 153:1 154:1 155:1 171:1 172:1 181:1 182:1 183:1 184:1 185:1 186:1 187:1 
0.4298136757741466 69:1 77:1 107:1 122:1 134:1 135:1 136:1 137:1 153:1 154:1 171:1 173:1 189:1 197:1 200:1 
0.7514334098841914 118:1 122:1 138:1 165:1 
1.209688122715712 102:1 119:1 120:1 122:1 137:1 149:1 150:1 151:1 152:1 153:1 154:1 155:1 156:1 157:1 
0.5019582889109221 71:1 87:1 88:1 104:1 121:1 153:1 154:1 168:1 183:1 
1.261297720504985 124:1 133:1 134:1 135:1 136:1 137:1 138:1 
0.5735812701281158 71:1 87:1 102:1 103:1 120:1 137:1 138:1 154:1 155:1 171:1 172:1 188:1 204:1 
0.2373838352205292 71:1 86:1 87:1 102:1 117:1 118:1 119:1 120:1 136:1 137:1 138:1 154:1 155:1 171:1 172:1 188:1 
1.045583598310873 75:1 76:1 108:1 120:1 123:1 124:1 137:1 138:1 139:1 153:1 154:1 166:1 167:1 168:1 170:1 182:1 187:1 
0.5558114823535809 77:1 88:1 93:1 101:1 102:1 103:1 104:1 108:1 120:1 123:1 136:1 137:1 138:1 149:1 150:1 151:1 153:1 154:1 171:1 172:1 188:1 
0.4275684318515263 91:1 103:1 107:1 120:1 122:1 136:1 138:1 153:1 154:1 157:1 169:1 173:1 184:1 185:1 186:1 187:1 188:1 
0.6267469713886917 109:1 125:1 137:1 138:1 139:1 140:1 141:1 
0.2919656855099986 72:1 88:1 104:1 120:1 125:1 136:1 137:1 138:1 139:1 140:1 141:1 152:1 168:1 184:1 200:1 
0.2031571907415326 72:1 77:1 86:1 88:1 90:1 104:1 106:1 120:1 122:1 136:1 138:1 152:1 154:1 168:1 170:1 184:1 186:1 200:1 
3 119:1 136:1 
0.07422838810838808 73:1 88:1 103:1 117:1 118:1 120:1 123:1 124:1 133:1 137:1 140:1 150:1 153:1 154:1 157:1 167:1 184:1 200:1 201:1 
0.07015277026005518 72:1 86:1 87:1 88:1 89:1 90:1 91:1 92:1 93:1 101:1 119:1 120:1 133:1 134:1 137:1 153:1 154:1 173:1 186:1 187:1 188:1 189:1 
-3 120:1 137:1 138:1 
-3 88:1 89:1 105:1 106:1 122:1 123:1 
-3 119:1 120:1 136:1 137:1 138:1 153:1 154:1 
-3 120:1 136:1 137:1 153:1 154:1 
-3 120:1 136:1 137:1 153:1 154:1 
