svm_type c_svc
kernel_type rbf
gamma 0.015625
nr_class 2
total_sv 22
rho -1.59899
label -1 1
nr_sv 17 5
SV
0.1099986795847471 69:1 77:1 92:1 107:1 108:1 118:1 119:1 120:1 121:1 122:1 136:1 152:1 157:1 168:1 171:1 172:1 184:1 185:1 186:1 187:1 197:1 
2.495471381585195 70:1 77:1 92:1 106:1 107:1 118:1 119:1 173:1 
0.2120484082592036 71:1 77:1 87:1 88:1 92:1 103:1 105:1 107:1 108:1 117:1 118:1 119:1 120:1 121:1 122:1 135:1 138:1 166:1 167:1 168:1 203:1 204:1 
1.934350808728096 71:1 73:1 77:1 78:1 87:1 89:1 90:1 92:1 93:1 103:1 106:1 107:1 108:1 117:1 118:1 119:1 120:1 121:1 122:1 123:1 135:1 139:1 151:1 167:1 168:1 169:1 170:1 171:1 172:1 173:1 203:1 204:1 205:1 
2.659366829253549 71:1 77:1 87:1 89:1 92:1 93:1 103:1 105:1 107:1 108:1 117:1 118:1 119:1 120:1 121:1 122:1 135:1 138:1 139:1 151:1 167:1 168:1 169:1 170:1 171:1 172:1 173:1 189:1 203:1 204:1 205:1 
2.559058337410546 93:1 105:1 108:1 117:1 118:1 119:1 120:1 121:1 122:1 138:1 151:1 167:1 168:1 169:1 170:1 171:1 172:1 173:1 189:1 203:1 204:1 205:1 
0.3502298092942502 77:1 92:1 93:1 107:1 108:1 118:1 119:1 120:1 121:1 122:1 153:1 157:1 166:1 167:1 168:1 173:1 181:1 188:1 189:1 201:1 
0.5780221557617689 77:1 92:1 107:1 118:1 119:1 120:1 121:1 165:1 166:1 167:1 168:1 173:1 181:1 188:1 189:1 200:1 201:1 202:1 
0.1549781717138752 76:1 77:1 87:1 92:1 103:1 107:1 108:1 117:1 119:1 122:1 123:1 124:1 134:1 135:1 137:1 138:1 151:1 153:1 157:1 167:1 168:1 173:1 183:1 189:1 205:1 
1.647025695701449 117:1 118:1 119:1 120:1 121:1 122:1 123:1 124:1 125:1 141:1 189:1 203:1 204:1 205:1 
0.1617094646907124 75:1 87:1 91:1 102:1 103:1 109:1 117:1 120:1 121:1 133:1 134:1 135:1 136:1 149:1 165:1 173:1 189:1 203:1 204:1 205:1 
0.01141278833995121 87:1 88:1 101:1 105:1 106:1 107:1 108:1 109:1 118:1 119:1 120:1 149:1 150:1 151:1 152:1 153:1 154:1 155:1 156:1 157:1 173:1 189:1 203:1 204:1 205:1 
0.7693114072581929 71:1 74:1 77:1 86:1 88:1 91:1 92:1 101:1 102:1 103:1 104:1 106:1 107:1 117:1 118:1 119:1 136:1 139:1 165:1 173:1 189:1 203:1 204:1 205:1 
0.193771988136765 77:1 92:1 93:1 107:1 108:1 109:1 121:1 122:1 125:1 141:1 157:1 171:1 172:1 173:1 188:1 189:1 205:1 
0.6667876999316855 72:1 77:1 85:1 92:1 101:1 107:1 108:1 117:1 120:1 133:1 149:1 165:1 168:1 169:1 170:1 171:1 172:1 173:1 181:1 200:1 
0.4899504260700778 71:1 77:1 87:1 92:1 93:1 103:1 104:1 105:1 106:1 107:1 108:1 119:1 120:1 133:1 134:1 135:1 136:1 151:1 152:1 167:1 168:1 169:1 170:1 171:1 172:1 173:1 183:1 189:1 199:1 204:1 205:1 
0.006505948279933929 77:1 92:1 107:1 108:1 120:1 121:1 122:1 133:1 134:1 135:1 136:1 153:1 154:1 171:1 172:1 188:1 189:1 
-3 77:1 92:1 107:1 108:1 117:1 118:1 119:1 120:1 121:1 122:1 151:1 167:1 168:1 169:1 170:1 171:1 172:1 173:1 189:1 204:1 205:1 
-3 71:1 77:1 78:1 87:1 92:1 93:1 103:1 107:1 108:1 117:1 118:1 119:1 120:1 121:1 122:1 135:1 151:1 167:1 168:1 169:1 170:1 171:1 172:1 173:1 203:1 204:1 205:1 
-3 77:1 87:1 92:1 93:1 103:1 106:1 107:1 108:1 117:1 118:1 119:1 120:1 121:1 122:1 135:1 151:1 167:1 168:1 169:1 170:1 171:1 172:1 173:1 189:1 203:1 204:1 205:1 
-3 77:1 92:1 107:1 117:1 118:1 119:1 120:1 173:1 189:1 203:1 204:1 205:1 
-3 77:1 92:1 107:1 117:1 118:1 119:1 120:1 173:1 189:1 203:1 204:1 205:1 
