svm_type c_svc
kernel_type rbf
gamma 0.015625
nr_class 2
total_sv 32
rho -1.42944
label -1 1
nr_sv 27 5
SV
1.676060631233264 71:1 77:1 78:1 87:1 88:1 93:1 103:1 104:1 105:1 106:1 109:1 119:1 122:1 123:1 124:1 135:1 139:1 140:1 149:1 150:1 151:1 152:1 153:1 154:1 156:1 167:1 173:1 183:1 189:1 199:1 205:1 
0.1757314290276717 69:1 85:1 101:1 106:1 107:1 117:1 118:1 119:1 120:1 121:1 122:1 133:1 138:1 139:1 140:1 149:1 150:1 151:1 152:1 153:1 154:1 165:1 170:1 173:1 181:1 189:1 197:1 200:1 201:1 202:1 203:1 204:1 205:1 
0.8617236761663204 109:1 110:1 125:1 139:1 140:1 149:1 150:1 151:1 152:1 153:1 154:1 155:1 
0.1220184051329067 72:1 86:1 88:1 92:1 93:1 102:1 103:1 104:1 107:1 109:1 117:1 118:1 123:1 125:1 138:1 141:1 149:1 150:1 151:1 152:1 153:1 154:1 157:1 169:1 170:1 173:1 189:1 199:1 204:1 205:1 
0.0672028766789816 70:1 72:1 73:1 74:1 87:1 88:1 89:1 92:1 93:1 101:1 102:1 103:1 105:1 107:1 108:1 109:1 120:1 121:1 123:1 125:1 134:1 137:1 141:1 149:1 150:1 151:1 152:1 153:1 154:1 157:1 168:1 169:1 173:1 184:1 185:1 189:1 197:1 200:1 203:1 204:1 
0.2627254990383512 87:1 88:1 101:1 105:1 106:1 107:1 108:1 109:1 118:1 119:1 120:1 149:1 150:1 151:1 152:1 153:1 154:1 155:1 156:1 157:1 173:1 189:1 203:1 204:1 205:1 
0.0370296974901699 70:1 75:1 87:1 88:1 90:1 91:1 101:1 102:1 103:1 106:1 107:1 108:1 109:1 119:1 122:1 123:1 134:1 135:1 138:1 139:1 149:1 150:1 151:1 152:1 153:1 154:1 155:1 156:1 173:1 189:1 203:1 204:1 205:1 
0.3913808773109863 70:1 85:1 86:1 88:1 90:1 92:1 93:1 101:1 103:1 105:1 106:1 108:1 109:1 119:1 122:1 123:1 125:1 135:1 138:1 139:1 141:1 149:1 150:1 151:1 152:1 154:1 157:1 167:1 170:1 173:1 183:1 186:1 189:1 201:1 203:1 204:1 
1.187866781142885 71:1 87:1 103:1 104:1 105:1 106:1 107:1 108:1 109:1 117:1 119:1 133:1 134:1 135:1 150:1 151:1 167:1 183:1 189:1 199:1 
0.02679491904397698 73:1 88:1 102:1 103:1 104:1 105:1 106:1 107:1 108:1 109:1 117:1 
1.946070354277171 73:1 74:1 88:1 101:1 102:1 103:1 104:1 105:1 106:1 107:1 108:1 109:1 117:1 149:1 150:1 151:1 152:1 153:1 154:1 155:1 156:1 157:1 168:1 184:1 201:1 202:1 
0.2144966497966003 72:1 73:1 87:1 88:1 93:1 101:1 102:1 103:1 104:1 105:1 106:1 107:1 108:1 109:1 117:1 124:1 125:1 137:1 138:1 139:1 140:1 150:1 151:1 152:1 153:1 156:1 165:1 166:1 172:1 185:1 186:1 187:1 188:1 203:1 204:1 205:1 
0.4838154208393324 73:1 88:1 103:1 104:1 105:1 106:1 107:1 108:1 109:1 118:1 125:1 133:1 141:1 150:1 151:1 152:1 155:1 157:1 167:1 168:1 173:1 184:1 187:1 188:1 189:1 200:1 
0.5445373195940755 72:1 73:1 86:1 87:1 88:1 89:1 90:1 91:1 92:1 93:1 101:1 102:1 121:1 122:1 125:1 134:1 136:1 139:1 140:1 150:1 152:1 153:1 154:1 155:1 166:1 167:1 173:1 182:1 189:1 198:1 199:1 200:1 201:1 202:1 203:1 204:1 
0.5623207884781163 73:1 87:1 88:1 101:1 102:1 104:1 105:1 106:1 107:1 108:1 109:1 120:1 136:1 149:1 150:1 151:1 152:1 153:1 154:1 171:1 172:1 182:1 188:1 189:1 204:1 205:1 
0.1659266389438975 72:1 73:1 85:1 86:1 87:1 88:1 89:1 90:1 91:1 92:1 93:1 94:1 101:1 103:1 109:1 110:1 119:1 123:1 124:1 125:1 135:1 136:1 137:1 138:1 139:1 149:1 151:1 153:1 157:1 167:1 169:1 173:1 183:1 185:1 189:1 199:1 201:1 202:1 203:1 204:1 205:1 
0.4755321858289809 73:1 87:1 88:1 101:1 102:1 103:1 104:1 105:1 106:1 107:1 108:1 109:1 120:1 121:1 124:1 125:1 134:1 135:1 138:1 139:1 140:1 141:1 152:1 153:1 154:1 165:1 166:1 167:1 171:1 172:1 183:1 184:1 187:1 188:1 200:1 201:1 205:1 
0.9140431149677533 73:1 87:1 88:1 93:1 101:1 102:1 103:1 104:1 108:1 109:1 117:1 125:1 134:1 139:1 153:1 154:1 187:1 200:1 204:1 205:1 
0.2130167868950283 73:1 87:1 88:1 89:1 90:1 91:1 92:1 93:1 101:1 102:1 108:1 109:1 119:1 135:1 137:1 138:1 140:1 149:1 150:1 151:1 152:1 156:1 167:1 171:1 172:1 173:1 183:1 186:1 187:1 189:1 199:1 200:1 
0.3623556387125184 73:1 87:1 88:1 89:1 90:1 91:1 92:1 93:1 101:1 102:1 125:1 138:1 139:1 140:1 151:1 152:1 153:1 154:1 173:1 181:1 182:1 183:1 184:1 185:1 189:1 203:1 204:1 205:1 
0.984954922554405 72:1 73:1 86:1 87:1 88:1 89:1 90:1 91:1 92:1 93:1 101:1 102:1 104:1 119:1 120:1 121:1 125:1 133:1 134:1 135:1 137:1 139:1 140:1 149:1 151:1 152:1 153:1 154:1 155:1 167:1 169:1 173:1 183:1 185:1 189:1 198:1 199:1 201:1 202:1 203:1 204:1 
1.04869724472458 72:1 73:1 85:1 86:1 87:1 88:1 89:1 90:1 91:1 92:1 93:1 101:1 117:1 118:1 119:1 124:1 125:1 134:1 135:1 138:1 139:1 140:1 149:1 150:1 151:1 152:1 153:1 154:1 167:1 170:1 171:1 173:1 183:1 187:1 188:1 189:1 199:1 200:1 201:1 202:1 
0.03025008682186889 72:1 73:1 85:1 86:1 87:1 88:1 89:1 90:1 91:1 92:1 93:1 94:1 101:1 109:1 119:1 125:1 133:1 135:1 141:1 149:1 150:1 151:1 157:1 167:1 173:1 183:1 189:1 199:1 200:1 205:1 
0.6518488730135514 72:1 73:1 85:1 86:1 87:1 88:1 89:1 90:1 91:1 92:1 93:1 94:1 101:1 106:1 110:1 119:1 120:1 121:1 122:1 125:1 135:1 138:1 139:1 140:1 149:1 150:1 151:1 152:1 153:1 154:1 155:1 167:1 170:1 171:1 172:1 183:1 186:1 189:1 199:1 200:1 201:1 202:1 205:1 206:1 
0.02900275116030428 72:1 73:1 85:1 86:1 87:1 88:1 89:1 90:1 91:1 92:1 93:1 94:1 107:1 119:1 120:1 121:1 122:1 123:1 124:1 125:1 126:1 135:1 137:1 139:1 150:1 151:1 152:1 153:1 154:1 155:1 167:1 169:1 171:1 174:1 183:1 185:1 187:1 190:1 199:1 200:1 201:1 202:1 203:1 204:1 205:1 
0.1164956991229294 72:1 73:1 75:1 77:1 87:1 89:1 90:1 91:1 92:1 93:1 102:1 103:1 105:1 106:1 107:1 109:1 118:1 121:1 123:1 125:1 133:1 137:1 138:1 139:1 140:1 141:1 149:1 150:1 166:1 167:1 169:1 170:1 171:1 172:1 174:1 183:1 190:1 200:1 201:1 202:1 203:1 204:1 205:1 
0.1017962856109081 72:1 87:1 90:1 92:1 102:1 103:1 106:1 108:1 118:1 119:1 122:1 124:1 126:1 133:1 135:1 149:1 150:1 151:1 166:1 167:1 174:1 183:1 189:1 190:1 199:1 200:1 
-3 73:1 87:1 88:1 101:1 102:1 103:1 104:1 105:1 106:1 107:1 108:1 109:1 119:1 125:1 135:1 139:1 140:1 149:1 150:1 151:1 152:1 153:1 154:1 155:1 167:1 173:1 183:1 189:1 199:1 200:1 201:1 202:1 203:1 204:1 
-3 72:1 73:1 74:1 85:1 86:1 87:1 88:1 89:1 90:1 91:1 92:1 93:1 94:1 101:1 110:1 119:1 125:1 135:1 138:1 139:1 140:1 149:1 150:1 151:1 152:1 153:1 154:1 157:1 167:1 174:1 183:1 190:1 199:1 200:1 201:1 202:1 203:1 204:1 205:1 
-1.653695553607534 73:1 87:1 88:1 102:1 103:1 104:1 105:1 106:1 107:1 108:1 109:1 117:1 119:1 125:1 135:1 139:1 140:1 149:1 150:1 151:1 152:1 153:1 154:1 155:1 167:1 173:1 183:1 189:1 199:1 200:1 201:1 202:1 203:1 204:1 
-3 73:1 87:1 88:1 102:1 103:1 104:1 105:1 106:1 107:1 108:1 109:1 117:1 125:1 139:1 140:1 149:1 150:1 151:1 152:1 153:1 154:1 173:1 183:1 189:1 199:1 200:1 
-3 73:1 87:1 88:1 102:1 103:1 104:1 105:1 106:1 107:1 108:1 109:1 117:1 125:1 139:1 140:1 149:1 150:1 151:1 152:1 153:1 154:1 173:1 183:1 189:1 199:1 200:1 
