svm_type c_svc
kernel_type rbf
gamma 0.015625
nr_class 2
total_sv 32
rho -1.47498
label -1 1
nr_sv 27 5
SV
0.9111220981256146 70:1 73:1 86:1 87:1 89:1 93:1 102:1 104:1 105:1 106:1 107:1 108:1 109:1 118:1 121:1 124:1 133:1 134:1 135:1 136:1 137:1 138:1 139:1 150:1 152:1 153:1 155:1 156:1 166:1 167:1 169:1 170:1 172:1 182:1 185:1 186:1 189:1 201:1 205:1 
0.7867922816939367 70:1 71:1 72:1 73:1 74:1 75:1 76:1 101:1 102:1 103:1 104:1 105:1 106:1 107:1 108:1 109:1 119:1 120:1 133:1 134:1 137:1 141:1 150:1 151:1 153:1 166:1 167:1 168:1 169:1 182:1 185:1 198:1 201:1 202:1 203:1 204:1 205:1 
0.1959674308843193 78:1 85:1 86:1 93:1 102:1 107:1 108:1 120:1 121:1 122:1 123:1 133:1 134:1 135:1 136:1 141:1 153:1 154:1 157:1 171:1 173:1 189:1 200:1 201:1 202:1 203:1 204:1 205:1 
0.1218711688255494 77:1 78:1 91:1 92:1 93:1 102:1 103:1 104:1 105:1 106:1 107:1 141:1 152:1 157:1 166:1 167:1 168:1 173:1 182:1 189:1 201:1 202:1 203:1 204:1 205:1 
0.08291864620818082 74:1 77:1 93:1 102:1 103:1 104:1 105:1 106:1 108:1 118:1 120:1 136:1 149:1 152:1 165:1 168:1 184:1 202:1 
0.1770024171558416 71:1 73:1 74:1 85:1 87:1 89:1 93:1 101:1 103:1 105:1 108:1 109:1 117:1 119:1 120:1 121:1 133:1 135:1 149:1 151:1 152:1 165:1 167:1 168:1 169:1 170:1 173:1 181:1 183:1 185:1 199:1 201:1 202:1 
0.3394822989698507 70:1 76:1 77:1 86:1 91:1 93:1 102:1 106:1 109:1 118:1 121:1 125:1 134:1 136:1 141:1 150:1 151:1 152:1 157:1 166:1 167:1 173:1 182:1 189:1 203:1 204:1 205:1 
0.08905638328349161 70:1 71:1 73:1 75:1 76:1 91:1 93:1 102:1 103:1 106:1 107:1 108:1 109:1 117:1 119:1 120:1 121:1 133:1 134:1 138:1 149:1 150:1 151:1 152:1 153:1 154:1 155:1 156:1 173:1 189:1 204:1 
0.7958371127712974 70:1 77:1 86:1 87:1 88:1 89:1 92:1 93:1 102:1 103:1 104:1 105:1 108:1 109:1 118:1 119:1 120:1 121:1 124:1 125:1 133:1 134:1 135:1 136:1 137:1 139:1 140:1 150:1 151:1 152:1 153:1 155:1 165:1 166:1 167:1 168:1 169:1 171:1 173:1 181:1 182:1 183:1 184:1 185:1 187:1 189:1 198:1 204:1 205:1 
0.5535096711068265 70:1 85:1 87:1 88:1 90:1 92:1 93:1 103:1 106:1 107:1 108:1 109:1 118:1 119:1 122:1 123:1 125:1 134:1 135:1 138:1 139:1 141:1 149:1 150:1 151:1 152:1 154:1 155:1 157:1 166:1 167:1 170:1 173:1 182:1 183:1 186:1 189:1 198:1 201:1 204:1 205:1 
1.295089575442856 70:1 71:1 74:1 75:1 86:1 90:1 91:1 101:1 102:1 103:1 106:1 107:1 108:1 109:1 118:1 119:1 122:1 123:1 135:1 136:1 139:1 149:1 150:1 151:1 152:1 155:1 156:1 157:1 166:1 168:1 169:1 170:1 173:1 182:1 184:1 189:1 198:1 204:1 205:1 
0.9250416726521077 70:1 71:1 72:1 73:1 74:1 75:1 86:1 87:1 88:1 89:1 90:1 101:1 102:1 103:1 104:1 105:1 106:1 107:1 108:1 109:1 118:1 119:1 120:1 121:1 122:1 135:1 136:1 150:1 151:1 152:1 155:1 156:1 157:1 165:1 166:1 170:1 173:1 182:1 185:1 189:1 198:1 204:1 205:1 
0.08818061767365663 73:1 74:1 77:1 88:1 89:1 90:1 91:1 93:1 102:1 103:1 104:1 105:1 107:1 109:1 117:1 118:1 119:1 121:1 122:1 123:1 125:1 133:1 135:1 137:1 139:1 141:1 151:1 153:1 154:1 155:1 157:1 166:1 167:1 168:1 169:1 171:1 173:1 183:1 185:1 187:1 189:1 201:1 202:1 205:1 
0.7088314268811357 71:1 77:1 87:1 92:1 93:1 103:1 104:1 105:1 106:1 107:1 108:1 119:1 120:1 133:1 134:1 135:1 136:1 151:1 152:1 167:1 168:1 169:1 170:1 171:1 172:1 173:1 183:1 189:1 199:1 204:1 205:1 
0.2425798154953823 70:1 73:1 74:1 78:1 86:1 89:1 93:1 102:1 104:1 105:1 106:1 109:1 118:1 122:1 123:1 124:1 125:1 133:1 134:1 139:1 140:1 150:1 154:1 155:1 156:1 157:1 166:1 168:1 169:1 173:1 182:1 184:1 185:1 189:1 198:1 201:1 202:1 206:1 
0.6734723326405364 70:1 71:1 74:1 77:1 86:1 87:1 89:1 90:1 92:1 93:1 103:1 107:1 108:1 119:1 120:1 121:1 122:1 123:1 133:1 134:1 135:1 141:1 151:1 152:1 153:1 154:1 155:1 156:1 157:1 167:1 183:1 185:1 186:1 198:1 199:1 202:1 203:1 
0.6639249169945373 70:1 74:1 75:1 76:1 77:1 86:1 89:1 102:1 103:1 105:1 118:1 120:1 121:1 133:1 134:1 137:1 150:1 152:1 153:1 166:1 167:1 168:1 169:1 182:1 185:1 198:1 201:1 
0.7033079098062803 70:1 74:1 86:1 89:1 92:1 93:1 102:1 103:1 104:1 105:1 118:1 119:1 125:1 133:1 134:1 141:1 150:1 157:1 166:1 173:1 182:1 183:1 184:1 185:1 186:1 187:1 188:1 189:1 198:1 205:1 
1.031092298901904 70:1 73:1 74:1 86:1 87:1 88:1 89:1 91:1 92:1 102:1 103:1 104:1 105:1 107:1 108:1 118:1 119:1 120:1 121:1 123:1 124:1 133:1 134:1 135:1 136:1 137:1 140:1 141:1 150:1 151:1 152:1 153:1 156:1 158:1 166:1 167:1 168:1 169:1 172:1 174:1 182:1 183:1 184:1 185:1 186:1 188:1 190:1 198:1 201:1 202:1 204:1 205:1 
1.412515233686861 74:1 86:1 90:1 102:1 103:1 104:1 106:1 118:1 120:1 122:1 123:1 133:1 134:1 136:1 138:1 139:1 141:1 150:1 152:1 154:1 155:1 157:1 166:1 167:1 168:1 169:1 170:1 171:1 173:1 182:1 186:1 187:1 189:1 198:1 201:1 203:1 204:1 205:1 
0.4158704979514152 72:1 73:1 77:1 88:1 90:1 91:1 93:1 102:1 103:1 104:1 105:1 106:1 107:1 109:1 118:1 119:1 120:1 121:1 122:1 123:1 124:1 133:1 134:1 135:1 136:1 137:1 138:1 139:1 149:1 150:1 151:1 152:1 153:1 154:1 155:1 166:1 167:1 168:1 169:1 170:1 171:1 172:1 173:1 182:1 184:1 185:1 186:1 189:1 200:1 201:1 204:1 205:1 
0.01395246715192771 73:1 90:1 92:1 102:1 103:1 104:1 105:1 106:1 108:1 109:1 119:1 120:1 122:1 123:1 125:1 133:1 136:1 137:1 138:1 139:1 150:1 151:1 152:1 156:1 167:1 168:1 169:1 171:1 173:1 183:1 185:1 186:1 189:1 202:1 205:1 
0.3116960928112466 76:1 77:1 87:1 88:1 89:1 90:1 93:1 103:1 104:1 105:1 108:1 117:1 118:1 119:1 120:1 121:1 123:1 133:1 135:1 136:1 137:1 151:1 152:1 153:1 154:1 155:1 156:1 157:1 166:1 167:1 168:1 169:1 171:1 183:1 184:1 185:1 186:1 188:1 199:1 201:1 
0.4591075300783837 74:1 75:1 77:1 86:1 87:1 88:1 89:1 93:1 102:1 107:1 108:1 109:1 118:1 119:1 120:1 121:1 123:1 124:1 125:1 133:1 134:1 135:1 136:1 139:1 140:1 141:1 150:1 151:1 152:1 153:1 155:1 156:1 157:1 166:1 171:1 172:1 173:1 182:1 183:1 184:1 185:1 189:1 202:1 203:1 205:1 
0.6791726172764472 73:1 74:1 88:1 89:1 91:1 103:1 104:1 107:1 118:1 119:1 124:1 133:1 134:1 140:1 150:1 151:1 157:1 167:1 168:1 173:1 184:1 185:1 201:1 202:1 
1.279075014433053 73:1 78:1 89:1 93:1 104:1 109:1 119:1 120:1 123:1 124:1 133:1 134:1 135:1 137:1 138:1 139:1 151:1 155:1 156:1 168:1 173:1 184:1 189:1 200:1 201:1 205:1 206:1 
0.04353047109736093 72:1 73:1 86:1 87:1 88:1 89:1 90:1 91:1 92:1 93:1 101:1 102:1 109:1 119:1 120:1 133:1 134:1 135:1 137:1 149:1 150:1 151:1 153:1 154:1 166:1 167:1 173:1 182:1 183:1 189:1 198:1 199:1 200:1 201:1 202:1 203:1 204:1 
-3 70:1 73:1 74:1 77:1 86:1 89:1 93:1 102:1 103:1 104:1 105:1 109:1 118:1 119:1 120:1 121:1 123:1 133:1 134:1 135:1 136:1 137:1 149:1 150:1 151:1 152:1 153:1 166:1 167:1 168:1 169:1 173:1 182:1 185:1 189:1 201:1 202:1 204:1 205:1 
-3 70:1 74:1 75:1 78:1 86:1 87:1 88:1 89:1 90:1 93:1 102:1 103:1 106:1 107:1 108:1 109:1 118:1 119:1 122:1 123:1 133:1 134:1 135:1 138:1 139:1 150:1 151:1 154:1 155:1 166:1 167:1 170:1 171:1 172:1 173:1 182:1 183:1 184:1 185:1 186:1 198:1 202:1 203:1 205:1 
-3 73:1 74:1 89:1 93:1 103:1 104:1 105:1 109:1 119:1 120:1 121:1 123:1 124:1 133:1 135:1 136:1 137:1 151:1 152:1 153:1 155:1 156:1 157:1 167:1 168:1 169:1 173:1 183:1 184:1 185:1 189:1 198:1 201:1 202:1 204:1 205:1 
-3 70:1 74:1 86:1 93:1 102:1 103:1 104:1 106:1 107:1 108:1 118:1 119:1 120:1 133:1 134:1 135:1 136:1 150:1 151:1 152:1 155:1 156:1 157:1 166:1 167:1 168:1 173:1 182:1 186:1 189:1 198:1 201:1 204:1 205:1 
-3 70:1 74:1 86:1 93:1 102:1 103:1 104:1 106:1 107:1 108:1 118:1 119:1 120:1 133:1 134:1 135:1 136:1 150:1 151:1 152:1 155:1 156:1 157:1 166:1 167:1 168:1 173:1 182:1 186:1 189:1 198:1 201:1 204:1 205:1 
