svm_type c_svc
kernel_type rbf
gamma 0.015625
nr_class 2
total_sv 32
rho -1.69795
label -1 1
nr_sv 27 5
SV
0.1069356108067322 70:1 76:1 77:1 86:1 91:1 93:1 102:1 106:1 109:1 118:1 121:1 125:1 134:1 136:1 141:1 150:1 151:1 152:1 157:1 166:1 167:1 173:1 182:1 189:1 203:1 204:1 205:1 
0.03323970818475919 72:1 87:1 101:1 102:1 104:1 108:1 109:1 117:1 118:1 120:1 123:1 125:1 134:1 136:1 138:1 141:1 150:1 152:1 153:1 157:1 166:1 168:1 173:1 182:1 184:1 189:1 198:1 204:1 205:1 
0.2927137785169036 72:1 87:1 88:1 101:1 102:1 103:1 104:1 107:1 108:1 109:1 117:1 118:1 120:1 122:1 123:1 125:1 134:1 136:1 137:1 138:1 141:1 150:1 152:1 153:1 157:1 166:1 168:1 173:1 182:1 189:1 204:1 205:1 
0.6981596997555254 73:1 87:1 88:1 102:1 103:1 108:1 109:1 117:1 122:1 123:1 125:1 137:1 141:1 152:1 153:1 157:1 173:1 182:1 189:1 204:1 205:1 
0.03873921021976321 72:1 73:1 76:1 77:1 86:1 87:1 89:1 91:1 92:1 93:1 101:1 102:1 105:1 106:1 109:1 120:1 121:1 123:1 124:1 125:1 141:1 173:1 203:1 204:1 205:1 
0.5091775117738249 85:1 92:1 93:1 101:1 102:1 103:1 107:1 108:1 109:1 117:1 123:1 125:1 133:1 138:1 141:1 149:1 152:1 153:1 154:1 157:1 165:1 166:1 167:1 169:1 173:1 181:1 182:1 189:1 203:1 204:1 
0.277726667891553 69:1 85:1 88:1 89:1 90:1 93:1 101:1 102:1 103:1 104:1 109:1 117:1 118:1 123:1 125:1 134:1 139:1 141:1 150:1 155:1 157:1 166:1 171:1 173:1 182:1 187:1 189:1 203:1 204:1 205:1 
0.01817023748624765 70:1 86:1 93:1 102:1 109:1 118:1 125:1 126:1 134:1 136:1 137:1 138:1 139:1 140:1 141:1 150:1 152:1 166:1 167:1 182:1 183:1 198:1 
1.534635315519685 72:1 73:1 74:1 86:1 87:1 88:1 89:1 90:1 91:1 92:1 93:1 94:1 101:1 102:1 118:1 125:1 134:1 141:1 150:1 157:1 166:1 173:1 182:1 189:1 198:1 205:1 
0.1411511013469038 73:1 87:1 88:1 89:1 90:1 91:1 92:1 93:1 101:1 102:1 109:1 124:1 133:1 134:1 135:1 136:1 137:1 138:1 167:1 168:1 169:1 170:1 171:1 172:1 173:1 189:1 203:1 204:1 205:1 
0.2414361349908315 73:1 87:1 88:1 89:1 90:1 91:1 92:1 93:1 101:1 102:1 123:1 124:1 134:1 135:1 136:1 182:1 189:1 203:1 204:1 205:1 
2.112510840061271 72:1 73:1 85:1 86:1 87:1 88:1 89:1 90:1 91:1 92:1 93:1 94:1 101:1 109:1 110:1 118:1 123:1 124:1 125:1 134:1 135:1 136:1 137:1 138:1 150:1 157:1 166:1 167:1 168:1 173:1 182:1 183:1 189:1 201:1 202:1 203:1 204:1 205:1 
1.961843048036855 72:1 73:1 86:1 87:1 88:1 89:1 90:1 91:1 92:1 93:1 101:1 102:1 118:1 123:1 137:1 138:1 152:1 153:1 166:1 167:1 173:1 185:1 202:1 203:1 
1.067007412846172 73:1 86:1 87:1 88:1 89:1 90:1 91:1 92:1 93:1 101:1 102:1 109:1 118:1 124:1 136:1 137:1 138:1 139:1 168:1 169:1 170:1 171:1 172:1 198:1 203:1 204:1 
0.3420153764907264 73:1 87:1 88:1 89:1 90:1 91:1 92:1 93:1 101:1 102:1 109:1 118:1 120:1 124:1 135:1 139:1 153:1 154:1 173:1 200:1 
1.058790113533899 73:1 87:1 88:1 89:1 90:1 91:1 92:1 93:1 101:1 102:1 125:1 138:1 139:1 140:1 151:1 152:1 153:1 154:1 173:1 181:1 182:1 183:1 184:1 185:1 189:1 203:1 204:1 205:1 
0.3332931568003595 73:1 87:1 88:1 89:1 90:1 91:1 92:1 93:1 101:1 102:1 118:1 119:1 120:1 121:1 122:1 123:1 124:1 125:1 136:1 137:1 138:1 166:1 167:1 168:1 169:1 170:1 198:1 204:1 205:1 
0.1739918041931026 73:1 86:1 87:1 88:1 89:1 90:1 91:1 92:1 93:1 101:1 102:1 109:1 119:1 123:1 124:1 137:1 138:1 149:1 150:1 151:1 152:1 153:1 154:1 155:1 156:1 157:1 170:1 171:1 182:1 187:1 188:1 204:1 
0.3570581772679763 72:1 73:1 74:1 86:1 87:1 88:1 89:1 90:1 91:1 92:1 93:1 94:1 101:1 102:1 122:1 123:1 124:1 125:1 126:1 138:1 141:1 154:1 157:1 167:1 170:1 173:1 183:1 186:1 189:1 199:1 202:1 203:1 204:1 205:1 206:1 
1.284972372928157 72:1 73:1 85:1 86:1 87:1 88:1 89:1 90:1 91:1 92:1 93:1 94:1 101:1 102:1 118:1 123:1 124:1 125:1 126:1 134:1 141:1 149:1 150:1 151:1 152:1 157:1 166:1 173:1 182:1 189:1 198:1 203:1 204:1 205:1 206:1 
0.4816803807189145 73:1 87:1 88:1 89:1 90:1 91:1 92:1 93:1 101:1 102:1 109:1 119:1 121:1 122:1 123:1 124:1 133:1 134:1 157:1 166:1 167:1 171:1 173:1 182:1 185:1 186:1 187:1 189:1 204:1 205:1 
0.1944269661363166 73:1 86:1 87:1 88:1 89:1 90:1 91:1 92:1 93:1 101:1 102:1 109:1 118:1 119:1 120:1 121:1 122:1 123:1 124:1 134:1 138:1 149:1 150:1 154:1 166:1 170:1 173:1 182:1 183:1 189:1 198:1 201:1 203:1 204:1 205:1 
0.03622144060377153 86:1 87:1 88:1 89:1 90:1 91:1 92:1 93:1 101:1 102:1 118:1 119:1 124:1 137:1 138:1 139:1 149:1 150:1 151:1 152:1 168:1 169:1 170:1 171:1 172:1 173:1 182:1 183:1 189:1 200:1 203:1 204:1 205:1 
0.01154919383712505 72:1 91:1 93:1 103:1 104:1 109:1 118:1 123:1 124:1 125:1 133:1 135:1 137:1 141:1 150:1 152:1 157:1 167:1 168:1 169:1 172:1 173:1 183:1 189:1 
0.3043082527165448 72:1 73:1 85:1 86:1 87:1 88:1 89:1 90:1 91:1 92:1 93:1 94:1 102:1 109:1 110:1 118:1 119:1 120:1 123:1 124:1 125:1 137:1 138:1 139:1 141:1 150:1 152:1 156:1 157:1 166:1 168:1 172:1 182:1 183:1 184:1 185:1 186:1 187:1 188:1 200:1 204:1 
0.7641947127584022 73:1 87:1 88:1 89:1 90:1 91:1 92:1 93:1 101:1 102:1 109:1 122:1 123:1 124:1 134:1 136:1 139:1 141:1 149:1 152:1 153:1 154:1 155:1 156:1 157:1 166:1 167:1 168:1 183:1 184:1 187:1 200:1 204:1 
0.6240517745776764 73:1 86:1 87:1 88:1 89:1 90:1 91:1 92:1 93:1 101:1 102:1 117:1 118:1 119:1 120:1 121:1 122:1 123:1 124:1 125:1 135:1 141:1 151:1 153:1 154:1 157:1 167:1 173:1 181:1 182:1 183:1 184:1 189:1 203:1 204:1 205:1 
-3 73:1 87:1 88:1 89:1 90:1 91:1 92:1 93:1 101:1 102:1 109:1 118:1 124:1 138:1 139:1 153:1 167:1 168:1 182:1 183:1 203:1 204:1 
-3 72:1 73:1 74:1 86:1 87:1 88:1 89:1 90:1 91:1 92:1 93:1 94:1 101:1 102:1 118:1 123:1 124:1 125:1 134:1 138:1 139:1 141:1 150:1 153:1 154:1 157:1 166:1 168:1 173:1 182:1 183:1 189:1 198:1 203:1 204:1 205:1 
-3 72:1 73:1 86:1 87:1 88:1 89:1 90:1 91:1 92:1 93:1 101:1 102:1 109:1 118:1 123:1 124:1 125:1 134:1 137:1 138:1 141:1 150:1 152:1 153:1 157:1 166:1 167:1 173:1 182:1 189:1 204:1 
-3 73:1 87:1 88:1 89:1 90:1 91:1 92:1 93:1 101:1 102:1 109:1 118:1 123:1 124:1 125:1 137:1 138:1 141:1 152:1 157:1 166:1 167:1 173:1 182:1 189:1 203:1 204:1 205:1 
-3 73:1 87:1 88:1 89:1 90:1 91:1 92:1 93:1 101:1 102:1 109:1 118:1 123:1 124:1 125:1 137:1 138:1 141:1 152:1 157:1 166:1 167:1 173:1 182:1 189:1 203:1 204:1 205:1 
