svm_type c_svc
kernel_type rbf
gamma 0.015625
nr_class 2
total_sv 37
rho -1.41783
label -1 1
nr_sv 32 5
SV
0.4287902535647301 69:1 103:1 104:1 141:1 157:1 168:1 169:1 170:1 171:1 172:1 173:1 184:1 197:1 
0.09887398569154936 69:1 76:1 77:1 85:1 92:1 101:1 106:1 107:1 117:1 133:1 149:1 165:1 166:1 167:1 168:1 169:1 170:1 171:1 172:1 181:1 197:1 
1.082449251695048 87:1 88:1 89:1 90:1 103:1 157:1 173:1 181:1 183:1 184:1 185:1 186:1 187:1 188:1 197:1 
0.2137984247897534 76:1 77:1 91:1 107:1 120:1 121:1 136:1 137:1 153:1 154:1 155:1 171:1 172:1 181:1 182:1 183:1 184:1 185:1 186:1 187:1 
1.754061279314115 77:1 101:1 102:1 103:1 104:1 105:1 106:1 107:1 108:1 165:1 166:1 167:1 168:1 169:1 170:1 171:1 172:1 
0.2679187233213448 85:1 86:1 87:1 88:1 89:1 90:1 91:1 92:1 93:1 109:1 125:1 139:1 141:1 155:1 157:1 171:1 173:1 181:1 182:1 183:1 184:1 185:1 186:1 187:1 189:1 205:1 
0.0830424146527725 69:1 85:1 87:1 88:1 89:1 90:1 91:1 92:1 93:1 101:1 103:1 107:1 117:1 119:1 121:1 122:1 133:1 134:1 135:1 136:1 137:1 149:1 151:1 153:1 154:1 165:1 167:1 170:1 171:1 173:1 181:1 183:1 184:1 185:1 186:1 187:1 188:1 189:1 197:1 
1.323818279972086 69:1 85:1 87:1 88:1 89:1 90:1 91:1 92:1 93:1 101:1 103:1 104:1 105:1 106:1 107:1 117:1 119:1 123:1 133:1 134:1 135:1 136:1 137:1 138:1 139:1 149:1 151:1 155:1 165:1 167:1 168:1 169:1 170:1 171:1 173:1 181:1 183:1 184:1 185:1 186:1 187:1 188:1 189:1 197:1 
0.3794752774820979 71:1 75:1 87:1 89:1 91:1 103:1 105:1 107:1 119:1 121:1 123:1 133:1 134:1 135:1 136:1 137:1 138:1 139:1 140:1 141:1 142:1 151:1 153:1 155:1 167:1 169:1 171:1 183:1 185:1 187:1 199:1 203:1 
0.02346432653242333 87:1 88:1 104:1 105:1 106:1 121:1 122:1 154:1 155:1 168:1 169:1 170:1 183:1 184:1 
0.3280715933009388 69:1 85:1 87:1 88:1 93:1 101:1 103:1 105:1 106:1 109:1 117:1 119:1 120:1 121:1 122:1 123:1 124:1 125:1 133:1 135:1 141:1 149:1 151:1 152:1 153:1 154:1 155:1 156:1 157:1 165:1 167:1 169:1 170:1 173:1 181:1 183:1 184:1 185:1 186:1 187:1 188:1 189:1 197:1 
0.04701155405495501 87:1 89:1 103:1 105:1 106:1 107:1 119:1 120:1 121:1 122:1 123:1 124:1 125:1 151:1 152:1 153:1 154:1 155:1 156:1 157:1 167:1 169:1 170:1 183:1 189:1 
0.6776286163247386 87:1 103:1 105:1 119:1 122:1 135:1 151:1 154:1 167:1 169:1 182:1 183:1 184:1 
0.2288175698370982 88:1 103:1 105:1 119:1 122:1 135:1 151:1 167:1 169:1 182:1 183:1 184:1 
0.75481897692453 77:1 85:1 86:1 87:1 88:1 89:1 90:1 91:1 103:1 106:1 107:1 108:1 109:1 119:1 135:1 150:1 151:1 155:1 156:1 157:1 165:1 167:1 181:1 183:1 184:1 185:1 186:1 187:1 188:1 200:1 
0.06554165991611226 77:1 89:1 92:1 93:1 105:1 107:1 108:1 121:1 123:1 135:1 137:1 138:1 151:1 153:1 154:1 157:1 167:1 169:1 170:1 173:1 184:1 185:1 189:1 203:1 204:1 205:1 
0.9929157689785538 77:1 105:1 106:1 118:1 119:1 168:1 169:1 181:1 
0.03023859312922433 77:1 120:1 121:1 122:1 123:1 124:1 168:1 169:1 170:1 171:1 172:1 181:1 
1.142253465411379 77:1 91:1 93:1 102:1 103:1 104:1 105:1 106:1 107:1 109:1 118:1 119:1 122:1 123:1 125:1 135:1 137:1 139:1 141:1 151:1 153:1 157:1 167:1 168:1 169:1 170:1 171:1 172:1 173:1 189:1 205:1 
0.6403740907383154 77:1 104:1 105:1 106:1 107:1 118:1 120:1 122:1 137:1 139:1 156:1 167:1 168:1 169:1 181:1 
0.7385260032703285 74:1 77:1 90:1 91:1 93:1 105:1 106:1 107:1 109:1 119:1 121:1 123:1 125:1 135:1 137:1 139:1 141:1 149:1 150:1 151:1 152:1 153:1 155:1 157:1 167:1 170:1 171:1 173:1 183:1 186:1 187:1 189:1 198:1 201:1 202:1 205:1 
0.5664244622519155 74:1 77:1 86:1 87:1 88:1 89:1 90:1 91:1 93:1 105:1 107:1 109:1 117:1 119:1 121:1 123:1 125:1 135:1 137:1 139:1 141:1 149:1 150:1 151:1 152:1 153:1 155:1 157:1 167:1 170:1 171:1 173:1 182:1 183:1 186:1 187:1 189:1 198:1 201:1 205:1 
0.5302322166538454 73:1 74:1 77:1 87:1 88:1 89:1 91:1 93:1 102:1 103:1 104:1 105:1 107:1 109:1 117:1 119:1 121:1 123:1 125:1 133:1 135:1 137:1 138:1 139:1 141:1 150:1 153:1 155:1 157:1 166:1 167:1 168:1 169:1 171:1 173:1 183:1 184:1 185:1 187:1 189:1 201:1 202:1 205:1 
0.02124455673801247 74:1 77:1 89:1 91:1 103:1 104:1 107:1 118:1 119:1 121:1 123:1 133:1 135:1 139:1 153:1 154:1 155:1 166:1 167:1 168:1 171:1 187:1 201:1 202:1 
0.3900342637497463 71:1 77:1 87:1 92:1 93:1 103:1 104:1 105:1 106:1 107:1 108:1 119:1 133:1 134:1 135:1 151:1 167:1 168:1 169:1 170:1 171:1 172:1 173:1 183:1 199:1 
0.1464343675284061 73:1 74:1 86:1 103:1 104:1 119:1 125:1 133:1 135:1 139:1 140:1 141:1 151:1 167:1 168:1 170:1 186:1 
0.7941881038706872 70:1 90:1 91:1 92:1 93:1 103:1 104:1 119:1 133:1 135:1 151:1 167:1 168:1 169:1 183:1 185:1 186:1 187:1 188:1 189:1 
0.2123902111679603 88:1 103:1 104:1 105:1 106:1 107:1 108:1 109:1 117:1 
0.6086004539562507 72:1 88:1 89:1 90:1 91:1 92:1 93:1 103:1 105:1 107:1 109:1 118:1 121:1 123:1 125:1 133:1 137:1 139:1 141:1 150:1 153:1 155:1 157:1 167:1 169:1 171:1 173:1 183:1 184:1 185:1 187:1 189:1 200:1 205:1 
0.2819206761407949 72:1 77:1 88:1 92:1 104:1 105:1 106:1 107:1 119:1 123:1 125:1 133:1 140:1 141:1 150:1 151:1 155:1 156:1 167:1 169:1 170:1 171:1 184:1 188:1 200:1 205:1 
0.03508391091460124 72:1 73:1 85:1 86:1 87:1 88:1 89:1 90:1 91:1 92:1 93:1 94:1 101:1 103:1 105:1 109:1 119:1 121:1 125:1 135:1 137:1 141:1 151:1 153:1 157:1 165:1 166:1 167:1 168:1 169:1 170:1 171:1 172:1 181:1 183:1 188:1 189:1 198:1 199:1 204:1 205:1 206:1 
0.1115566681256873 72:1 73:1 76:1 77:1 85:1 86:1 87:1 89:1 90:1 91:1 103:1 104:1 107:1 108:1 136:1 139:1 152:1 155:1 168:1 171:1 184:1 187:1 
-3 69:1 87:1 88:1 89:1 90:1 91:1 103:1 119:1 135:1 151:1 167:1 183:1 184:1 185:1 186:1 187:1 
-3 77:1 87:1 88:1 89:1 90:1 91:1 92:1 93:1 103:1 105:1 107:1 109:1 119:1 121:1 123:1 125:1 135:1 137:1 139:1 141:1 151:1 153:1 155:1 157:1 167:1 169:1 171:1 173:1 183:1 184:1 185:1 186:1 187:1 188:1 189:1 205:1 
-3 77:1 85:1 87:1 91:1 93:1 101:1 103:1 104:1 105:1 106:1 107:1 109:1 117:1 119:1 121:1 123:1 125:1 133:1 135:1 137:1 139:1 141:1 149:1 151:1 153:1 155:1 157:1 165:1 167:1 168:1 169:1 170:1 171:1 173:1 181:1 183:1 184:1 186:1 187:1 189:1 197:1 205:1 
-3 77:1 103:1 104:1 105:1 106:1 107:1 167:1 168:1 169:1 170:1 171:1 181:1 
-3 77:1 103:1 104:1 105:1 106:1 107:1 167:1 168:1 169:1 170:1 171:1 181:1 
