svm_type c_svc
kernel_type rbf
gamma 0.015625
nr_class 2
total_sv 31
rho -1.405
label -1 1
nr_sv 26 5
SV
0.1830456904807873 73:1 85:1 87:1 89:1 92:1 93:1 101:1 103:1 105:1 107:1 108:1 109:1 117:1 119:1 121:1 122:1 123:1 125:1 133:1 134:1 135:1 136:1 137:1 141:1 149:1 151:1 153:1 165:1 167:1 169:1 171:1 172:1 181:1 183:1 185:1 188:1 189:1 201:1 
0.2050689403817484 69:1 85:1 87:1 101:1 103:1 105:1 106:1 107:1 117:1 119:1 123:1 133:1 134:1 135:1 136:1 137:1 138:1 139:1 149:1 151:1 155:1 165:1 167:1 169:1 170:1 171:1 172:1 181:1 183:1 189:1 197:1 199:1 200:1 201:1 202:1 203:1 204:1 205:1 
0.01813926342258528 70:1 72:1 74:1 77:1 86:1 88:1 90:1 93:1 102:1 104:1 106:1 108:1 109:1 120:1 122:1 123:1 125:1 134:1 135:1 136:1 137:1 138:1 141:1 149:1 152:1 154:1 157:1 165:1 168:1 170:1 172:1 173:1 181:1 184:1 186:1 189:1 200:1 202:1 
0.7297731590359787 87:1 88:1 89:1 90:1 103:1 106:1 119:1 122:1 133:1 134:1 135:1 136:1 137:1 138:1 139:1 140:1 141:1 151:1 154:1 167:1 170:1 183:1 184:1 185:1 186:1 
0.3066447729087857 76:1 88:1 90:1 92:1 106:1 108:1 119:1 121:1 123:1 124:1 133:1 134:1 135:1 136:1 137:1 138:1 139:1 140:1 141:1 150:1 152:1 155:1 165:1 168:1 170:1 181:1 183:1 185:1 186:1 201:1 
0.4015237989050597 71:1 77:1 87:1 89:1 90:1 93:1 103:1 106:1 109:1 117:1 119:1 122:1 125:1 134:1 135:1 136:1 137:1 138:1 139:1 140:1 141:1 151:1 154:1 157:1 167:1 169:1 170:1 173:1 183:1 185:1 186:1 189:1 199:1 205:1 
0.5108338731412232 77:1 103:1 108:1 121:1 123:1 138:1 139:1 152:1 153:1 155:1 156:1 165:1 166:1 167:1 172:1 189:1 205:1 
0.2921893335244928 77:1 86:1 87:1 93:1 103:1 104:1 108:1 117:1 121:1 122:1 123:1 124:1 134:1 135:1 138:1 139:1 153:1 154:1 155:1 156:1 166:1 167:1 168:1 172:1 182:1 189:1 205:1 
0.1770234895606438 74:1 77:1 90:1 93:1 101:1 102:1 103:1 104:1 105:1 106:1 108:1 117:1 119:1 122:1 123:1 133:1 135:1 138:1 149:1 151:1 154:1 165:1 167:1 170:1 181:1 183:1 186:1 202:1 
0.8564753519187585 75:1 76:1 77:1 85:1 86:1 87:1 88:1 89:1 90:1 101:1 103:1 104:1 106:1 107:1 108:1 117:1 119:1 120:1 122:1 133:1 135:1 136:1 138:1 141:1 149:1 150:1 151:1 152:1 153:1 154:1 155:1 156:1 157:1 165:1 167:1 168:1 170:1 172:1 181:1 183:1 184:1 186:1 187:1 188:1 197:1 200:1 
0.7609684778469106 71:1 77:1 85:1 87:1 88:1 90:1 92:1 101:1 103:1 104:1 105:1 107:1 108:1 117:1 119:1 120:1 122:1 123:1 133:1 134:1 135:1 136:1 137:1 138:1 139:1 140:1 141:1 149:1 151:1 154:1 165:1 167:1 168:1 169:1 170:1 171:1 181:1 183:1 184:1 186:1 188:1 199:1 201:1 204:1 
2.490052502325319 71:1 75:1 77:1 87:1 90:1 93:1 103:1 104:1 105:1 106:1 107:1 108:1 119:1 122:1 123:1 133:1 134:1 135:1 136:1 137:1 138:1 139:1 140:1 141:1 142:1 149:1 151:1 155:1 165:1 167:1 168:1 169:1 170:1 171:1 172:1 181:1 183:1 185:1 187:1 189:1 197:1 199:1 200:1 201:1 202:1 203:1 205:1 
3 71:1 73:1 74:1 77:1 85:1 87:1 90:1 92:1 101:1 103:1 104:1 105:1 106:1 107:1 108:1 117:1 119:1 122:1 123:1 133:1 134:1 135:1 136:1 137:1 138:1 139:1 140:1 141:1 149:1 151:1 154:1 155:1 165:1 167:1 168:1 169:1 170:1 171:1 172:1 181:1 183:1 184:1 186:1 188:1 199:1 202:1 205:1 
0.8094124373368254 71:1 74:1 77:1 87:1 90:1 92:1 103:1 104:1 105:1 106:1 107:1 108:1 119:1 122:1 133:1 134:1 135:1 136:1 137:1 138:1 139:1 140:1 141:1 149:1 151:1 154:1 165:1 167:1 170:1 171:1 172:1 181:1 183:1 184:1 186:1 188:1 199:1 200:1 201:1 202:1 
1.069780105100994 77:1 86:1 90:1 92:1 93:1 103:1 105:1 106:1 108:1 121:1 122:1 123:1 124:1 134:1 135:1 136:1 137:1 138:1 139:1 149:1 154:1 155:1 165:1 167:1 170:1 173:1 181:1 182:1 183:1 189:1 197:1 204:1 205:1 
0.215091291485682 70:1 75:1 87:1 88:1 90:1 91:1 101:1 102:1 103:1 106:1 107:1 108:1 109:1 119:1 122:1 123:1 134:1 135:1 138:1 139:1 149:1 150:1 151:1 152:1 153:1 154:1 155:1 156:1 173:1 189:1 203:1 204:1 205:1 
0.02847678939093078 73:1 75:1 76:1 87:1 88:1 89:1 91:1 92:1 103:1 104:1 105:1 107:1 108:1 119:1 120:1 121:1 123:1 124:1 126:1 133:1 134:1 135:1 136:1 137:1 138:1 139:1 140:1 141:1 151:1 152:1 153:1 155:1 156:1 167:1 168:1 169:1 171:1 172:1 183:1 184:1 185:1 187:1 188:1 203:1 
0.4095966413487926 77:1 85:1 87:1 91:1 93:1 101:1 103:1 104:1 105:1 106:1 107:1 109:1 117:1 119:1 121:1 123:1 125:1 133:1 135:1 137:1 139:1 141:1 149:1 151:1 153:1 155:1 157:1 165:1 167:1 168:1 169:1 170:1 171:1 173:1 181:1 183:1 184:1 186:1 187:1 189:1 197:1 205:1 
1.376574768517092 77:1 85:1 87:1 101:1 117:1 119:1 124:1 133:1 134:1 135:1 136:1 137:1 138:1 139:1 140:1 149:1 150:1 151:1 155:1 165:1 167:1 169:1 170:1 181:1 183:1 184:1 185:1 186:1 203:1 205:1 
0.2146266819213239 72:1 74:1 77:1 87:1 88:1 90:1 92:1 103:1 104:1 106:1 107:1 108:1 110:1 118:1 120:1 122:1 126:1 133:1 136:1 137:1 138:1 139:1 140:1 141:1 150:1 152:1 154:1 167:1 168:1 170:1 171:1 172:1 183:1 184:1 186:1 188:1 200:1 202:1 205:1 
0.06544512569296664 72:1 73:1 86:1 87:1 88:1 89:1 90:1 91:1 92:1 93:1 101:1 105:1 106:1 117:1 120:1 121:1 122:1 123:1 125:1 133:1 137:1 138:1 139:1 141:1 149:1 152:1 153:1 154:1 155:1 156:1 165:1 169:1 170:1 171:1 172:1 181:1 185:1 186:1 188:1 189:1 200:1 201:1 202:1 205:1 
0.008367702758927962 73:1 87:1 88:1 89:1 90:1 91:1 92:1 93:1 101:1 102:1 103:1 108:1 119:1 123:1 134:1 135:1 136:1 137:1 138:1 139:1 140:1 141:1 151:1 167:1 181:1 182:1 183:1 184:1 185:1 186:1 187:1 188:1 189:1 199:1 
0.1659735189576236 72:1 86:1 87:1 88:1 89:1 90:1 91:1 92:1 93:1 101:1 117:1 118:1 119:1 120:1 121:1 122:1 123:1 124:1 133:1 135:1 137:1 138:1 139:1 140:1 141:1 149:1 151:1 157:1 165:1 167:1 169:1 170:1 171:1 172:1 181:1 183:1 186:1 187:1 188:1 202:1 205:1 
0.2412584080065723 72:1 76:1 77:1 86:1 87:1 89:1 90:1 91:1 101:1 102:1 103:1 105:1 106:1 119:1 120:1 123:1 124:1 125:1 133:1 134:1 135:1 136:1 137:1 138:1 139:1 140:1 141:1 152:1 154:1 157:1 168:1 170:1 173:1 184:1 186:1 189:1 205:1 
0.1056561710879591 72:1 86:1 87:1 88:1 89:1 90:1 91:1 92:1 93:1 101:1 104:1 119:1 122:1 123:1 125:1 133:1 134:1 136:1 137:1 138:1 140:1 141:1 149:1 152:1 154:1 155:1 157:1 166:1 167:1 168:1 171:1 172:1 173:1 183:1 184:1 186:1 187:1 189:1 200:1 205:1 
0.3580017049420169 72:1 73:1 85:1 86:1 87:1 88:1 89:1 90:1 91:1 92:1 93:1 94:1 101:1 107:1 110:1 117:1 118:1 119:1 120:1 121:1 122:1 123:1 125:1 133:1 135:1 136:1 138:1 139:1 140:1 141:1 149:1 151:1 152:1 154:1 155:1 165:1 167:1 168:1 170:1 171:1 172:1 181:1 183:1 184:1 186:1 187:1 189:1 203:1 205:1 206:1 
-3 77:1 85:1 87:1 90:1 92:1 101:1 103:1 104:1 105:1 106:1 107:1 108:1 117:1 119:1 122:1 123:1 133:1 134:1 135:1 136:1 137:1 138:1 139:1 140:1 141:1 149:1 151:1 154:1 155:1 165:1 167:1 170:1 172:1 181:1 183:1 186:1 188:1 200:1 205:1 
-3 71:1 73:1 75:1 77:1 87:1 89:1 91:1 93:1 101:1 103:1 104:1 105:1 106:1 107:1 108:1 117:1 119:1 121:1 123:1 124:1 133:1 134:1 135:1 136:1 137:1 138:1 139:1 140:1 141:1 142:1 149:1 151:1 153:1 155:1 156:1 165:1 167:1 169:1 171:1 172:1 181:1 183:1 184:1 185:1 186:1 187:1 189:1 197:1 199:1 201:1 203:1 205:1 
-3 72:1 74:1 77:1 85:1 87:1 88:1 90:1 92:1 101:1 103:1 104:1 105:1 106:1 107:1 108:1 117:1 119:1 120:1 122:1 123:1 133:1 134:1 135:1 136:1 137:1 138:1 139:1 140:1 141:1 149:1 151:1 152:1 154:1 155:1 165:1 167:1 168:1 169:1 170:1 171:1 172:1 181:1 183:1 184:1 186:1 188:1 200:1 202:1 205:1 
-3 77:1 87:1 90:1 103:1 106:1 108:1 119:1 122:1 123:1 134:1 135:1 136:1 137:1 138:1 139:1 140:1 141:1 149:1 151:1 154:1 155:1 165:1 167:1 168:1 169:1 170:1 172:1 181:1 183:1 186:1 189:1 205:1 
-3 77:1 87:1 90:1 103:1 106:1 108:1 119:1 122:1 123:1 134:1 135:1 136:1 137:1 138:1 139:1 140:1 141:1 149:1 151:1 154:1 155:1 165:1 167:1 168:1 169:1 170:1 172:1 181:1 183:1 186:1 189:1 205:1 
