svm_type c_svc
kernel_type rbf
gamma 0.015625
nr_class 2
total_sv 35
rho -1.4322
label -1 1
nr_sv 30 5
SV
0.3528410939456348 73:1 85:1 87:1 93:1 101:1 108:1 109:1 117:1 123:1 133:1 134:1 135:1 136:1 137:1 138:1 149:1 155:1 165:1 171:1 172:1 181:1 183:1 188:1 189:1 201:1 
0.872343554194597 70:1 71:1 72:1 73:1 74:1 75:1 76:1 101:1 102:1 103:1 104:1 105:1 106:1 107:1 108:1 109:1 120:1 133:1 134:1 135:1 149:1 168:1 169:1 185:1 
0.2527984955923626 78:1 85:1 86:1 93:1 102:1 107:1 108:1 120:1 121:1 122:1 123:1 133:1 134:1 135:1 136:1 141:1 153:1 154:1 157:1 171:1 173:1 189:1 200:1 201:1 202:1 203:1 204:1 205:1 
0.4734203460071995 75:1 91:1 102:1 103:1 104:1 105:1 107:1 117:1 118:1 123:1 134:1 139:1 150:1 153:1 155:1 166:1 167:1 171:1 173:1 186:1 187:1 188:1 189:1 
0.10289329589193 71:1 75:1 85:1 87:1 89:1 91:1 101:1 103:1 105:1 107:1 117:1 119:1 133:1 134:1 135:1 136:1 137:1 138:1 139:1 140:1 141:1 149:1 151:1 165:1 167:1 168:1 169:1 170:1 171:1 172:1 181:1 183:1 185:1 188:1 199:1 201:1 203:1 204:1 
0.6114558791205995 69:1 76:1 91:1 93:1 106:1 109:1 120:1 121:1 125:1 135:1 136:1 141:1 150:1 151:1 157:1 166:1 173:1 181:1 189:1 203:1 204:1 
0.054198381219799 71:1 77:1 78:1 87:1 92:1 93:1 103:1 107:1 108:1 117:1 118:1 119:1 120:1 121:1 122:1 135:1 151:1 167:1 168:1 169:1 170:1 171:1 172:1 173:1 203:1 204:1 205:1 
0.4759137543395769 71:1 85:1 86:1 90:1 92:1 93:1 101:1 102:1 103:1 106:1 108:1 109:1 117:1 121:1 122:1 123:1 125:1 133:1 134:1 135:1 136:1 138:1 139:1 141:1 149:1 154:1 157:1 165:1 166:1 170:1 173:1 181:1 189:1 199:1 203:1 204:1 
0.39686781205969 74:1 90:1 92:1 93:1 102:1 103:1 106:1 108:1 109:1 117:1 121:1 122:1 123:1 125:1 133:1 134:1 135:1 136:1 137:1 138:1 139:1 141:1 149:1 154:1 157:1 165:1 166:1 167:1 170:1 173:1 181:1 182:1 186:1 189:1 199:1 204:1 205:1 
0.6831406494155461 70:1 72:1 74:1 75:1 76:1 77:1 78:1 86:1 88:1 90:1 93:1 102:1 103:1 104:1 105:1 106:1 109:1 117:1 120:1 122:1 125:1 133:1 136:1 173:1 203:1 204:1 205:1 
0.298655669433428 72:1 90:1 91:1 92:1 93:1 102:1 103:1 104:1 105:1 117:1 138:1 141:1 165:1 173:1 189:1 203:1 204:1 205:1 
0.02075224846611648 70:1 73:1 75:1 86:1 87:1 101:1 102:1 104:1 105:1 106:1 107:1 108:1 109:1 118:1 119:1 120:1 134:1 135:1 137:1 149:1 173:1 189:1 204:1 205:1 
1.365758092949171 70:1 71:1 73:1 75:1 85:1 86:1 88:1 89:1 91:1 101:1 102:1 105:1 106:1 107:1 108:1 109:1 110:1 118:1 119:1 120:1 121:1 123:1 134:1 137:1 139:1 173:1 203:1 204:1 205:1 
1.104037941086599 70:1 75:1 87:1 88:1 90:1 91:1 101:1 102:1 103:1 106:1 107:1 108:1 109:1 119:1 122:1 123:1 134:1 135:1 138:1 139:1 149:1 150:1 151:1 152:1 153:1 154:1 155:1 156:1 173:1 189:1 203:1 204:1 205:1 
0.3127099111907466 70:1 75:1 86:1 90:1 91:1 101:1 102:1 103:1 106:1 107:1 108:1 109:1 118:1 119:1 120:1 121:1 122:1 123:1 134:1 139:1 149:1 150:1 151:1 152:1 153:1 154:1 155:1 156:1 157:1 173:1 189:1 203:1 204:1 205:1 
0.8544015054740609 69:1 70:1 73:1 75:1 76:1 77:1 85:1 87:1 88:1 89:1 90:1 91:1 92:1 94:1 101:1 102:1 103:1 104:1 105:1 107:1 108:1 109:1 117:1 121:1 133:1 134:1 135:1 136:1 138:1 139:1 140:1 141:1 155:1 157:1 165:1 166:1 167:1 168:1 169:1 170:1 171:1 172:1 173:1 203:1 204:1 205:1 
0.02286609368593526 77:1 87:1 88:1 89:1 90:1 91:1 92:1 101:1 102:1 104:1 105:1 109:1 117:1 119:1 123:1 133:1 134:1 136:1 138:1 139:1 141:1 149:1 165:1 173:1 189:1 203:1 204:1 205:1 
1.209287920974282 70:1 76:1 87:1 101:1 102:1 103:1 107:1 108:1 109:1 119:1 120:1 121:1 122:1 136:1 149:1 150:1 151:1 155:1 156:1 157:1 165:1 169:1 170:1 173:1 184:1 185:1 189:1 203:1 204:1 205:1 
0.7269569829521415 69:1 71:1 73:1 77:1 85:1 87:1 88:1 90:1 91:1 101:1 102:1 103:1 104:1 105:1 106:1 107:1 108:1 117:1 119:1 120:1 121:1 122:1 123:1 124:1 133:1 134:1 135:1 138:1 141:1 149:1 165:1 166:1 167:1 168:1 169:1 170:1 171:1 172:1 173:1 189:1 204:1 205:1 
0.3687212423573207 69:1 73:1 74:1 75:1 76:1 77:1 85:1 86:1 87:1 90:1 91:1 93:1 101:1 102:1 103:1 104:1 105:1 106:1 108:1 117:1 119:1 121:1 122:1 123:1 124:1 125:1 133:1 134:1 135:1 137:1 138:1 139:1 140:1 141:1 165:1 173:1 189:1 204:1 205:1 
0.07510601169334806 71:1 74:1 77:1 86:1 88:1 91:1 92:1 101:1 102:1 103:1 104:1 106:1 107:1 117:1 118:1 119:1 136:1 139:1 165:1 173:1 189:1 203:1 204:1 205:1 
0.6161958905234927 71:1 87:1 103:1 104:1 105:1 106:1 107:1 108:1 109:1 117:1 119:1 133:1 134:1 135:1 150:1 151:1 167:1 183:1 189:1 199:1 
1.762229313413264 75:1 77:1 91:1 106:1 120:1 121:1 133:1 134:1 135:1 136:1 152:1 153:1 170:1 187:1 203:1 205:1 
0.08503384653773821 69:1 70:1 71:1 72:1 73:1 74:1 75:1 76:1 77:1 91:1 93:1 107:1 109:1 121:1 122:1 125:1 133:1 134:1 135:1 136:1 141:1 149:1 151:1 152:1 153:1 157:1 169:1 170:1 173:1 186:1 187:1 189:1 203:1 205:1 
0.1921037932822699 73:1 87:1 88:1 89:1 90:1 91:1 92:1 93:1 101:1 102:1 109:1 124:1 133:1 134:1 135:1 136:1 137:1 138:1 167:1 168:1 169:1 170:1 171:1 172:1 173:1 189:1 203:1 204:1 205:1 
0.1037190923335453 73:1 87:1 88:1 93:1 101:1 102:1 108:1 109:1 117:1 118:1 121:1 134:1 137:1 150:1 151:1 152:1 153:1 154:1 155:1 156:1 157:1 173:1 181:1 189:1 203:1 204:1 205:1 
0.4226810611972556 72:1 73:1 87:1 93:1 101:1 102:1 109:1 120:1 133:1 136:1 149:1 150:1 151:1 152:1 153:1 154:1 165:1 168:1 172:1 182:1 183:1 184:1 189:1 204:1 205:1 
0.5696183646394479 72:1 86:1 87:1 88:1 89:1 90:1 91:1 92:1 93:1 101:1 109:1 124:1 133:1 134:1 135:1 136:1 137:1 138:1 149:1 165:1 173:1 182:1 189:1 203:1 204:1 205:1 
0.3579940480020959 73:1 87:1 88:1 93:1 101:1 102:1 108:1 109:1 117:1 120:1 123:1 133:1 134:1 135:1 137:1 149:1 157:1 184:1 185:1 186:1 199:1 203:1 204:1 
0.2552977080208059 71:1 72:1 75:1 87:1 88:1 89:1 90:1 91:1 93:1 102:1 103:1 104:1 105:1 106:1 107:1 108:1 109:1 117:1 118:1 120:1 121:1 123:1 124:1 125:1 133:1 135:1 136:1 137:1 139:1 141:1 150:1 152:1 153:1 155:1 156:1 157:1 167:1 168:1 169:1 170:1 171:1 173:1 183:1 187:1 189:1 200:1 203:1 
-3 70:1 71:1 73:1 75:1 76:1 91:1 93:1 102:1 103:1 106:1 107:1 108:1 109:1 117:1 119:1 120:1 121:1 133:1 134:1 138:1 149:1 150:1 151:1 152:1 153:1 154:1 155:1 156:1 173:1 189:1 204:1 
-3 69:1 70:1 71:1 72:1 75:1 76:1 85:1 88:1 91:1 94:1 101:1 102:1 103:1 104:1 106:1 107:1 108:1 109:1 117:1 120:1 121:1 122:1 123:1 133:1 134:1 135:1 136:1 137:1 139:1 173:1 203:1 204:1 205:1 
-3 71:1 73:1 75:1 87:1 89:1 91:1 93:1 101:1 102:1 103:1 105:1 106:1 107:1 108:1 109:1 117:1 121:1 122:1 123:1 133:1 134:1 135:1 136:1 137:1 139:1 150:1 165:1 166:1 167:1 168:1 169:1 170:1 171:1 172:1 173:1 189:1 203:1 204:1 205:1 
-3 75:1 87:1 91:1 102:1 103:1 109:1 117:1 120:1 121:1 133:1 134:1 135:1 136:1 149:1 165:1 173:1 189:1 203:1 204:1 205:1 
-3 75:1 87:1 91:1 102:1 103:1 109:1 117:1 120:1 121:1 133:1 134:1 135:1 136:1 149:1 165:1 173:1 189:1 203:1 204:1 205:1 
