svm_type c_svc
kernel_type rbf
gamma 0.015625
nr_class 2
total_sv 43
rho -1.32036
label -1 1
nr_sv 38 5
SV
0.5610872510385945 76:1 77:1 89:1 90:1 91:1 93:1 101:1 102:1 103:1 104:1 105:1 109:1 121:1 122:1 124:1 125:1 139:1 140:1 141:1 152:1 153:1 154:1 157:1 165:1 166:1 167:1 168:1 169:1 170:1 173:1 186:1 187:1 189:1 204:1 205:1 
0.09669474646484715 72:1 73:1 74:1 75:1 76:1 77:1 78:1 105:1 106:1 107:1 108:1 123:1 124:1 134:1 135:1 136:1 137:1 138:1 139:1 140:1 155:1 156:1 169:1 170:1 171:1 172:1 174:1 190:1 200:1 201:1 202:1 203:1 204:1 205:1 
0.475150851981555 69:1 72:1 74:1 88:1 90:1 104:1 106:1 118:1 119:1 120:1 121:1 122:1 123:1 124:1 125:1 136:1 138:1 152:1 154:1 165:1 166:1 167:1 168:1 169:1 170:1 171:1 187:1 188:1 189:1 204:1 205:1 
0.2870608227367461 74:1 75:1 76:1 86:1 88:1 90:1 92:1 102:1 104:1 106:1 108:1 118:1 120:1 122:1 124:1 133:1 134:1 135:1 136:1 137:1 138:1 139:1 140:1 141:1 142:1 150:1 152:1 154:1 156:1 166:1 168:1 170:1 172:1 182:1 184:1 186:1 188:1 202:1 203:1 204:1 
0.3482869795461903 73:1 74:1 75:1 76:1 86:1 88:1 89:1 90:1 91:1 92:1 93:1 94:1 102:1 104:1 105:1 106:1 107:1 108:1 109:1 117:1 118:1 119:1 120:1 121:1 122:1 123:1 124:1 134:1 136:1 137:1 138:1 139:1 140:1 149:1 150:1 151:1 152:1 153:1 154:1 155:1 156:1 157:1 158:1 166:1 168:1 169:1 170:1 171:1 172:1 182:1 184:1 185:1 186:1 187:1 188:1 201:1 202:1 203:1 204:1 
0.2111871848967756 70:1 71:1 72:1 73:1 74:1 75:1 76:1 77:1 101:1 102:1 103:1 104:1 105:1 106:1 107:1 108:1 109:1 110:1 119:1 120:1 133:1 134:1 135:1 137:1 141:1 149:1 150:1 153:1 157:1 166:1 168:1 169:1 170:1 171:1 172:1 173:1 182:1 184:1 185:1 189:1 198:1 201:1 202:1 203:1 204:1 205:1 206:1 
0.3352890678451613 74:1 75:1 85:1 89:1 90:1 91:1 102:1 103:1 105:1 106:1 107:1 117:1 120:1 123:1 134:1 137:1 138:1 139:1 140:1 141:1 151:1 152:1 155:1 166:1 168:1 169:1 171:1 181:1 185:1 187:1 199:1 201:1 202:1 203:1 
0.3888839799764228 71:1 74:1 85:1 86:1 87:1 89:1 90:1 91:1 92:1 102:1 103:1 104:1 105:1 106:1 108:1 119:1 120:1 122:1 124:1 133:1 134:1 135:1 136:1 137:1 138:1 139:1 140:1 141:1 151:1 154:1 156:1 165:1 166:1 167:1 168:1 169:1 170:1 172:1 181:1 183:1 185:1 187:1 188:1 199:1 201:1 202:1 
0.1815017485212826 77:1 78:1 91:1 92:1 93:1 102:1 103:1 104:1 105:1 106:1 107:1 141:1 152:1 157:1 166:1 167:1 168:1 173:1 182:1 189:1 201:1 202:1 203:1 204:1 205:1 
0.03320827250946196 70:1 73:1 74:1 86:1 89:1 90:1 102:1 105:1 106:1 118:1 121:1 134:1 137:1 141:1 150:1 153:1 166:1 169:1 182:1 185:1 189:1 198:1 201:1 203:1 204:1 205:1 
0.7026319793602088 76:1 86:1 87:1 88:1 89:1 90:1 92:1 102:1 106:1 108:1 117:1 118:1 122:1 124:1 133:1 134:1 136:1 138:1 140:1 141:1 150:1 152:1 154:1 156:1 157:1 166:1 168:1 170:1 172:1 174:1 182:1 183:1 184:1 186:1 189:1 202:1 203:1 204:1 205:1 
0.2143811616401066 73:1 74:1 76:1 86:1 88:1 89:1 91:1 92:1 102:1 103:1 104:1 106:1 107:1 118:1 121:1 122:1 133:1 134:1 135:1 136:1 137:1 138:1 139:1 140:1 141:1 149:1 152:1 153:1 154:1 165:1 167:1 168:1 170:1 171:1 181:1 183:1 187:1 188:1 204:1 
0.1368437392421213 74:1 90:1 101:1 102:1 103:1 104:1 105:1 106:1 122:1 133:1 138:1 149:1 152:1 153:1 154:1 155:1 165:1 170:1 172:1 181:1 186:1 188:1 189:1 202:1 205:1 
0.5311279113410666 70:1 76:1 86:1 91:1 92:1 102:1 104:1 107:1 118:1 120:1 123:1 134:1 137:1 138:1 139:1 141:1 150:1 154:1 157:1 166:1 170:1 173:1 182:1 186:1 187:1 188:1 189:1 198:1 199:1 200:1 201:1 202:1 
0.2424756778712883 69:1 74:1 86:1 87:1 88:1 89:1 90:1 92:1 93:1 102:1 106:1 108:1 109:1 118:1 121:1 122:1 123:1 125:1 133:1 136:1 138:1 139:1 141:1 151:1 154:1 157:1 168:1 170:1 173:1 182:1 185:1 186:1 189:1 201:1 204:1 205:1 
0.3970492948624643 69:1 71:1 73:1 74:1 75:1 77:1 78:1 86:1 87:1 88:1 90:1 92:1 93:1 103:1 106:1 107:1 119:1 120:1 122:1 123:1 124:1 133:1 134:1 135:1 136:1 138:1 139:1 140:1 141:1 142:1 151:1 154:1 156:1 165:1 166:1 167:1 168:1 169:1 170:1 171:1 172:1 173:1 203:1 204:1 205:1 
0.9323503358002022 70:1 74:1 86:1 87:1 88:1 90:1 91:1 102:1 103:1 104:1 106:1 107:1 118:1 120:1 122:1 123:1 125:1 133:1 134:1 135:1 136:1 137:1 138:1 139:1 140:1 141:1 150:1 152:1 154:1 155:1 166:1 167:1 168:1 170:1 171:1 182:1 183:1 184:1 185:1 186:1 187:1 188:1 198:1 202:1 
0.01492392521686207 73:1 75:1 76:1 87:1 88:1 89:1 91:1 92:1 103:1 104:1 105:1 107:1 108:1 119:1 120:1 121:1 123:1 124:1 126:1 133:1 134:1 135:1 136:1 137:1 138:1 139:1 140:1 141:1 151:1 152:1 153:1 155:1 156:1 167:1 168:1 169:1 171:1 172:1 183:1 184:1 185:1 187:1 188:1 203:1 
0.2304375788279934 73:1 74:1 77:1 86:1 87:1 88:1 90:1 91:1 93:1 102:1 103:1 104:1 106:1 107:1 109:1 117:1 119:1 121:1 122:1 123:1 125:1 133:1 135:1 137:1 138:1 139:1 141:1 151:1 153:1 154:1 155:1 157:1 166:1 167:1 168:1 170:1 171:1 173:1 182:1 183:1 184:1 185:1 186:1 187:1 189:1 199:1 201:1 202:1 203:1 205:1 
0.2238923864346585 74:1 77:1 89:1 91:1 103:1 104:1 107:1 118:1 119:1 121:1 123:1 133:1 135:1 139:1 153:1 154:1 155:1 166:1 167:1 168:1 171:1 187:1 201:1 202:1 
1.196649781836202 73:1 74:1 89:1 90:1 103:1 104:1 105:1 106:1 119:1 120:1 121:1 122:1 125:1 133:1 135:1 136:1 137:1 138:1 139:1 140:1 141:1 151:1 152:1 153:1 154:1 167:1 168:1 169:1 170:1 185:1 186:1 
0.4774267464647826 73:1 74:1 89:1 93:1 103:1 104:1 105:1 109:1 119:1 120:1 121:1 123:1 124:1 133:1 135:1 136:1 137:1 151:1 152:1 153:1 155:1 156:1 157:1 167:1 168:1 169:1 173:1 183:1 184:1 185:1 189:1 198:1 201:1 202:1 204:1 205:1 
1.589310664286536 70:1 74:1 86:1 93:1 102:1 103:1 104:1 106:1 107:1 108:1 118:1 119:1 120:1 133:1 134:1 135:1 136:1 150:1 151:1 152:1 155:1 156:1 157:1 166:1 167:1 168:1 173:1 182:1 186:1 189:1 198:1 201:1 204:1 205:1 
0.2052448261483381 70:1 90:1 91:1 92:1 93:1 103:1 104:1 106:1 107:1 119:1 122:1 123:1 133:1 135:1 138:1 139:1 151:1 154:1 155:1 167:1 168:1 170:1 171:1 186:1 187:1 188:1 189:1 198:1 
0.922080528985633 70:1 73:1 74:1 86:1 88:1 89:1 90:1 91:1 92:1 93:1 102:1 103:1 104:1 118:1 120:1 121:1 122:1 123:1 125:1 133:1 134:1 137:1 139:1 141:1 150:1 153:1 155:1 157:1 166:1 169:1 171:1 173:1 182:1 184:1 185:1 186:1 187:1 189:1 198:1 205:1 
0.6979405677159422 73:1 90:1 92:1 102:1 103:1 104:1 105:1 106:1 108:1 109:1 119:1 120:1 122:1 123:1 125:1 133:1 136:1 137:1 138:1 139:1 150:1 151:1 152:1 156:1 167:1 168:1 169:1 171:1 173:1 183:1 185:1 186:1 189:1 202:1 205:1 
0.2931375902452919 72:1 73:1 88:1 90:1 103:1 106:1 118:1 120:1 122:1 133:1 136:1 137:1 138:1 150:1 151:1 154:1 157:1 167:1 170:1 171:1 172:1 184:1 186:1 187:1 200:1 201:1 
0.2762523890109156 73:1 88:1 104:1 106:1 118:1 119:1 120:1 122:1 133:1 136:1 137:1 138:1 141:1 150:1 151:1 154:1 156:1 157:1 167:1 168:1 170:1 171:1 172:1 184:1 186:1 201:1 
0.0745554047968405 73:1 77:1 88:1 90:1 93:1 103:1 104:1 106:1 109:1 118:1 119:1 122:1 125:1 133:1 138:1 139:1 140:1 141:1 150:1 151:1 154:1 157:1 167:1 168:1 170:1 173:1 184:1 186:1 189:1 200:1 201:1 205:1 
0.399307937493917 72:1 74:1 87:1 90:1 93:1 103:1 104:1 106:1 108:1 109:1 117:1 118:1 120:1 122:1 123:1 125:1 133:1 136:1 138:1 141:1 150:1 152:1 154:1 155:1 157:1 167:1 168:1 170:1 172:1 173:1 183:1 186:1 189:1 200:1 
0.07551187344524282 72:1 75:1 88:1 91:1 103:1 104:1 105:1 106:1 107:1 118:1 123:1 133:1 136:1 137:1 138:1 139:1 140:1 141:1 150:1 154:1 155:1 167:1 168:1 169:1 170:1 171:1 183:1 184:1 187:1 200:1 203:1 
0.6827886870400793 72:1 73:1 85:1 86:1 87:1 103:1 108:1 109:1 117:1 118:1 119:1 120:1 121:1 122:1 123:1 135:1 136:1 137:1 138:1 139:1 140:1 141:1 151:1 152:1 153:1 154:1 155:1 156:1 166:1 167:1 168:1 169:1 170:1 171:1 172:1 173:1 182:1 189:1 198:1 199:1 200:1 201:1 202:1 203:1 204:1 205:1 
0.3396111163989394 72:1 73:1 86:1 87:1 88:1 89:1 90:1 91:1 92:1 93:1 94:1 101:1 104:1 118:1 119:1 120:1 121:1 122:1 123:1 124:1 133:1 134:1 136:1 139:1 150:1 152:1 155:1 157:1 166:1 168:1 169:1 170:1 171:1 174:1 182:1 189:1 190:1 198:1 199:1 200:1 201:1 202:1 203:1 204:1 205:1 
0.1246381755355811 72:1 73:1 85:1 86:1 87:1 105:1 108:1 109:1 110:1 118:1 119:1 120:1 121:1 122:1 123:1 134:1 135:1 136:1 137:1 138:1 139:1 140:1 141:1 142:1 150:1 151:1 152:1 153:1 154:1 155:1 156:1 157:1 158:1 166:1 167:1 168:1 169:1 170:1 171:1 172:1 182:1 183:1 184:1 185:1 186:1 187:1 188:1 190:1 197:1 198:1 199:1 200:1 201:1 202:1 203:1 204:1 205:1 206:1 
0.4133709937309169 70:1 73:1 74:1 77:1 86:1 88:1 89:1 92:1 102:1 103:1 104:1 105:1 107:1 108:1 118:1 121:1 122:1 123:1 133:1 134:1 135:1 136:1 137:1 138:1 139:1 140:1 141:1 142:1 150:1 153:1 154:1 155:1 166:1 168:1 169:1 171:1 172:1 182:1 183:1 184:1 185:1 188:1 198:1 201:1 202:1 205:1 
0.4987326193500918 71:1 72:1 73:1 85:1 86:1 102:1 103:1 104:1 105:1 106:1 107:1 109:1 110:1 119:1 120:1 121:1 122:1 123:1 124:1 140:1 141:1 150:1 151:1 152:1 153:1 154:1 155:1 157:1 166:1 167:1 168:1 169:1 170:1 171:1 172:1 174:1 190:1 197:1 198:1 199:1 200:1 201:1 202:1 203:1 204:1 205:1 
0.1712097390494156 72:1 73:1 85:1 86:1 87:1 118:1 120:1 122:1 125:1 133:1 134:1 136:1 138:1 141:1 149:1 150:1 152:1 154:1 155:1 156:1 157:1 166:1 168:1 170:1 172:1 173:1 182:1 184:1 186:1 187:1 188:1 189:1 203:1 205:1 
0.01776546235132456 72:1 73:1 85:1 86:1 87:1 104:1 109:1 119:1 120:1 121:1 122:1 123:1 125:1 136:1 139:1 141:1 151:1 152:1 153:1 155:1 156:1 157:1 167:1 170:1 171:1 173:1 184:1 185:1 187:1 189:1 199:1 201:1 202:1 203:1 205:1 
-3 73:1 74:1 76:1 90:1 103:1 104:1 106:1 122:1 123:1 133:1 138:1 139:1 140:1 141:1 154:1 155:1 157:1 167:1 168:1 170:1 171:1 173:1 187:1 189:1 201:1 202:1 
-3 70:1 73:1 74:1 86:1 87:1 88:1 89:1 91:1 92:1 102:1 103:1 104:1 105:1 107:1 108:1 118:1 119:1 120:1 121:1 123:1 124:1 133:1 134:1 135:1 136:1 137:1 140:1 141:1 150:1 151:1 152:1 153:1 156:1 158:1 166:1 167:1 168:1 169:1 172:1 174:1 182:1 183:1 184:1 185:1 186:1 188:1 190:1 198:1 201:1 202:1 204:1 205:1 
-3 73:1 74:1 76:1 89:1 90:1 92:1 103:1 104:1 105:1 106:1 108:1 119:1 120:1 121:1 122:1 124:1 133:1 135:1 136:1 137:1 138:1 139:1 140:1 141:1 151:1 152:1 153:1 154:1 156:1 157:1 167:1 168:1 169:1 170:1 171:1 172:1 173:1 185:1 186:1 187:1 189:1 201:1 202:1 203:1 205:1 
-3 74:1 86:1 90:1 102:1 103:1 104:1 106:1 118:1 120:1 122:1 123:1 133:1 134:1 136:1 138:1 139:1 141:1 150:1 152:1 154:1 155:1 157:1 166:1 167:1 168:1 169:1 170:1 171:1 173:1 182:1 186:1 187:1 189:1 198:1 201:1 203:1 204:1 205:1 
-3 74:1 86:1 90:1 102:1 103:1 104:1 106:1 118:1 120:1 122:1 123:1 133:1 134:1 136:1 138:1 139:1 141:1 150:1 152:1 154:1 155:1 157:1 166:1 167:1 168:1 169:1 170:1 171:1 173:1 182:1 186:1 187:1 189:1 198:1 201:1 203:1 204:1 205:1 
