svm_type c_svc
kernel_type rbf
gamma 0.015625
nr_class 2
total_sv 44
rho -1.48287
label -1 1
nr_sv 39 5
SV
0.05610354418361583 71:1 72:1 77:1 89:1 90:1 91:1 93:1 109:1 117:1 118:1 119:1 120:1 121:1 122:1 123:1 124:1 125:1 141:1 149:1 150:1 151:1 152:1 153:1 154:1 155:1 156:1 157:1 173:1 185:1 186:1 187:1 189:1 199:1 200:1 205:1 
0.7484557809900257 71:1 77:1 88:1 89:1 90:1 93:1 106:1 109:1 117:1 118:1 119:1 120:1 121:1 122:1 123:1 124:1 125:1 141:1 149:1 150:1 151:1 152:1 153:1 154:1 155:1 156:1 157:1 170:1 173:1 184:1 185:1 186:1 189:1 199:1 200:1 205:1 
0.09021237257884633 76:1 77:1 91:1 101:1 102:1 103:1 104:1 105:1 106:1 117:1 121:1 138:1 139:1 149:1 150:1 151:1 152:1 153:1 154:1 165:1 168:1 169:1 170:1 186:1 187:1 204:1 
0.2092496704000254 72:1 75:1 77:1 86:1 87:1 88:1 90:1 91:1 93:1 101:1 102:1 104:1 105:1 107:1 109:1 119:1 120:1 123:1 125:1 136:1 139:1 141:1 151:1 152:1 154:1 155:1 157:1 165:1 166:1 168:1 169:1 170:1 171:1 173:1 184:1 187:1 189:1 199:1 203:1 205:1 
0.3205609400674476 77:1 88:1 89:1 92:1 93:1 103:1 104:1 108:1 117:1 123:1 137:1 138:1 151:1 152:1 153:1 154:1 171:1 172:1 188:1 205:1 
0.2023694627912351 77:1 86:1 88:1 92:1 102:1 107:1 108:1 118:1 123:1 125:1 134:1 135:1 136:1 138:1 141:1 153:1 154:1 157:1 165:1 169:1 173:1 181:1 185:1 189:1 205:1 
0.1014252339147281 72:1 88:1 101:1 102:1 103:1 104:1 105:1 106:1 107:1 108:1 135:1 141:1 151:1 154:1 157:1 167:1 168:1 169:1 170:1 203:1 204:1 
0.2299823767024585 71:1 72:1 86:1 87:1 88:1 92:1 93:1 101:1 102:1 104:1 107:1 108:1 109:1 118:1 120:1 122:1 123:1 134:1 136:1 138:1 150:1 152:1 153:1 154:1 166:1 168:1 169:1 173:1 182:1 189:1 198:1 203:1 204:1 205:1 
1.186797172040551 72:1 87:1 88:1 101:1 102:1 103:1 104:1 107:1 108:1 109:1 117:1 118:1 120:1 122:1 123:1 125:1 134:1 136:1 137:1 138:1 141:1 150:1 152:1 153:1 157:1 166:1 168:1 173:1 182:1 189:1 204:1 205:1 
0.1827824545858 76:1 92:1 101:1 102:1 103:1 104:1 105:1 106:1 107:1 108:1 119:1 120:1 121:1 122:1 123:1 124:1 149:1 150:1 151:1 152:1 153:1 154:1 155:1 156:1 157:1 173:1 189:1 204:1 205:1 
0.2047451080108692 85:1 92:1 93:1 101:1 102:1 103:1 107:1 108:1 109:1 117:1 123:1 125:1 133:1 138:1 141:1 149:1 152:1 153:1 154:1 157:1 165:1 166:1 167:1 169:1 173:1 181:1 182:1 189:1 203:1 204:1 
0.3779581350358824 86:1 89:1 92:1 93:1 103:1 104:1 105:1 107:1 109:1 121:1 123:1 125:1 133:1 137:1 138:1 141:1 149:1 152:1 153:1 154:1 157:1 165:1 166:1 167:1 169:1 173:1 181:1 182:1 185:1 189:1 204:1 205:1 
0.3753193016763695 72:1 86:1 87:1 88:1 89:1 93:1 101:1 104:1 118:1 119:1 120:1 136:1 137:1 138:1 141:1 149:1 150:1 151:1 152:1 153:1 154:1 155:1 156:1 173:1 189:1 203:1 204:1 205:1 
0.6757095784038366 70:1 72:1 73:1 74:1 87:1 88:1 89:1 92:1 93:1 101:1 102:1 103:1 105:1 107:1 108:1 109:1 120:1 121:1 123:1 125:1 134:1 137:1 141:1 149:1 150:1 151:1 152:1 153:1 154:1 157:1 168:1 169:1 173:1 184:1 185:1 189:1 197:1 200:1 203:1 204:1 
0.193125272746871 70:1 72:1 73:1 86:1 87:1 88:1 89:1 90:1 92:1 93:1 101:1 102:1 103:1 106:1 107:1 108:1 109:1 118:1 120:1 122:1 123:1 125:1 134:1 135:1 138:1 139:1 141:1 150:1 151:1 152:1 154:1 157:1 166:1 168:1 170:1 173:1 182:1 184:1 189:1 198:1 199:1 200:1 204:1 205:1 
2.098898975578847 72:1 92:1 93:1 103:1 104:1 105:1 107:1 108:1 109:1 118:1 123:1 125:1 141:1 154:1 157:1 169:1 170:1 173:1 181:1 183:1 184:1 189:1 204:1 205:1 
2.266614694636602 86:1 87:1 89:1 90:1 92:1 93:1 105:1 107:1 109:1 117:1 118:1 119:1 120:1 123:1 125:1 141:1 149:1 150:1 151:1 152:1 153:1 154:1 157:1 169:1 170:1 173:1 184:1 189:1 204:1 205:1 
0.04755870191560227 71:1 85:1 86:1 90:1 92:1 93:1 101:1 102:1 103:1 106:1 108:1 109:1 117:1 121:1 122:1 123:1 125:1 133:1 134:1 135:1 136:1 138:1 139:1 141:1 149:1 154:1 157:1 165:1 166:1 170:1 173:1 181:1 189:1 199:1 203:1 204:1 
0.2049348688542277 70:1 72:1 73:1 74:1 77:1 85:1 86:1 87:1 88:1 89:1 90:1 92:1 93:1 102:1 103:1 106:1 108:1 109:1 118:1 119:1 121:1 122:1 123:1 124:1 125:1 134:1 135:1 136:1 138:1 139:1 141:1 150:1 151:1 154:1 155:1 157:1 167:1 170:1 173:1 183:1 184:1 185:1 189:1 197:1 199:1 204:1 205:1 
0.4974779950960011 70:1 85:1 86:1 87:1 88:1 89:1 90:1 92:1 93:1 101:1 103:1 104:1 105:1 106:1 108:1 109:1 119:1 121:1 122:1 123:1 125:1 137:1 138:1 139:1 141:1 149:1 150:1 151:1 152:1 154:1 157:1 168:1 170:1 173:1 182:1 184:1 186:1 189:1 199:1 203:1 204:1 
1.032864225142976 73:1 85:1 86:1 87:1 88:1 90:1 92:1 93:1 101:1 102:1 104:1 106:1 108:1 109:1 117:1 118:1 119:1 120:1 122:1 123:1 125:1 136:1 137:1 138:1 139:1 141:1 149:1 150:1 151:1 152:1 154:1 157:1 165:1 167:1 170:1 173:1 181:1 183:1 184:1 185:1 186:1 189:1 199:1 204:1 205:1 
0.5909184447778014 70:1 72:1 85:1 88:1 89:1 90:1 92:1 93:1 103:1 106:1 109:1 118:1 121:1 122:1 123:1 125:1 134:1 137:1 138:1 139:1 141:1 149:1 150:1 153:1 154:1 157:1 166:1 169:1 170:1 173:1 182:1 183:1 185:1 186:1 189:1 198:1 201:1 204:1 205:1 
0.2966588694925668 70:1 71:1 72:1 73:1 74:1 75:1 76:1 77:1 92:1 93:1 108:1 109:1 123:1 125:1 135:1 136:1 137:1 138:1 141:1 149:1 150:1 151:1 152:1 157:1 169:1 170:1 173:1 187:1 189:1 204:1 205:1 
0.5073189327990589 73:1 87:1 88:1 102:1 103:1 104:1 105:1 106:1 107:1 108:1 109:1 117:1 125:1 139:1 140:1 149:1 150:1 151:1 152:1 153:1 154:1 173:1 183:1 189:1 199:1 200:1 
0.3821934489902489 72:1 73:1 86:1 87:1 88:1 89:1 90:1 91:1 92:1 93:1 94:1 101:1 102:1 109:1 123:1 124:1 125:1 136:1 137:1 138:1 141:1 149:1 150:1 151:1 152:1 157:1 169:1 173:1 185:1 186:1 187:1 188:1 189:1 204:1 205:1 206:1 
0.3672596906184198 72:1 77:1 88:1 93:1 103:1 105:1 106:1 107:1 108:1 109:1 117:1 118:1 125:1 133:1 134:1 136:1 137:1 138:1 139:1 140:1 141:1 150:1 151:1 154:1 157:1 168:1 170:1 173:1 184:1 189:1 205:1 
0.01899658865633983 72:1 73:1 86:1 87:1 88:1 89:1 90:1 91:1 92:1 93:1 101:1 102:1 109:1 119:1 123:1 124:1 125:1 133:1 135:1 136:1 137:1 138:1 139:1 149:1 150:1 151:1 152:1 167:1 168:1 169:1 170:1 171:1 172:1 173:1 183:1 189:1 199:1 204:1 205:1 
0.2170819426877047 72:1 86:1 87:1 88:1 89:1 90:1 91:1 92:1 93:1 101:1 117:1 124:1 134:1 138:1 139:1 150:1 151:1 152:1 153:1 154:1 170:1 171:1 173:1 183:1 189:1 199:1 200:1 201:1 202:1 203:1 204:1 
0.09885234781006543 72:1 73:1 86:1 87:1 88:1 89:1 90:1 91:1 92:1 93:1 101:1 102:1 119:1 121:1 122:1 125:1 136:1 138:1 139:1 140:1 141:1 149:1 151:1 153:1 154:1 155:1 157:1 169:1 170:1 173:1 184:1 187:1 188:1 189:1 199:1 205:1 
0.2084324445753531 72:1 86:1 87:1 88:1 89:1 90:1 91:1 92:1 93:1 101:1 102:1 109:1 118:1 119:1 125:1 137:1 149:1 150:1 153:1 169:1 185:1 199:1 200:1 201:1 202:1 203:1 204:1 205:1 
0.08151814424363207 72:1 86:1 87:1 88:1 89:1 90:1 91:1 92:1 93:1 101:1 103:1 109:1 117:1 118:1 119:1 120:1 121:1 122:1 123:1 138:1 139:1 140:1 141:1 151:1 152:1 153:1 204:1 205:1 
0.0558499033058896 72:1 86:1 87:1 88:1 89:1 90:1 91:1 92:1 93:1 101:1 102:1 119:1 121:1 124:1 125:1 137:1 139:1 141:1 149:1 150:1 151:1 152:1 153:1 154:1 157:1 169:1 171:1 185:1 187:1 188:1 201:1 205:1 
0.1137756454540356 72:1 86:1 87:1 88:1 89:1 90:1 91:1 92:1 93:1 101:1 102:1 109:1 119:1 122:1 125:1 133:1 135:1 141:1 149:1 150:1 151:1 152:1 153:1 154:1 155:1 156:1 157:1 167:1 173:1 183:1 189:1 199:1 205:1 
0.2020761999363467 72:1 86:1 87:1 88:1 89:1 90:1 91:1 92:1 93:1 101:1 102:1 109:1 121:1 122:1 123:1 124:1 125:1 137:1 149:1 150:1 151:1 152:1 153:1 167:1 169:1 183:1 185:1 199:1 201:1 205:1 
0.08427240422238892 73:1 87:1 88:1 93:1 101:1 102:1 103:1 109:1 117:1 121:1 122:1 123:1 124:1 125:1 149:1 150:1 151:1 152:1 153:1 199:1 
0.07145716338993753 72:1 86:1 87:1 88:1 89:1 90:1 91:1 92:1 93:1 101:1 102:1 118:1 119:1 120:1 134:1 136:1 137:1 138:1 139:1 140:1 141:1 149:1 150:1 154:1 157:1 166:1 169:1 170:1 173:1 182:1 185:1 189:1 198:1 199:1 204:1 205:1 
0.2281820805504582 72:1 73:1 85:1 86:1 87:1 88:1 89:1 90:1 91:1 92:1 93:1 101:1 104:1 105:1 118:1 119:1 120:1 121:1 124:1 125:1 135:1 137:1 138:1 139:1 140:1 149:1 150:1 151:1 152:1 153:1 154:1 167:1 169:1 170:1 171:1 172:1 173:1 183:1 185:1 189:1 199:1 201:1 204:1 205:1 
0.09109031967982177 71:1 72:1 73:1 85:1 86:1 102:1 103:1 104:1 105:1 106:1 107:1 109:1 110:1 119:1 120:1 121:1 122:1 123:1 124:1 140:1 141:1 150:1 151:1 152:1 153:1 154:1 155:1 157:1 166:1 167:1 168:1 169:1 170:1 171:1 172:1 174:1 190:1 197:1 198:1 199:1 200:1 201:1 202:1 203:1 204:1 205:1 
0.08091956345711239 71:1 72:1 85:1 86:1 87:1 88:1 89:1 90:1 91:1 92:1 93:1 101:1 102:1 103:1 104:1 105:1 106:1 109:1 123:1 124:1 135:1 136:1 139:1 140:1 150:1 151:1 152:1 153:1 154:1 156:1 157:1 166:1 167:1 168:1 169:1 170:1 171:1 189:1 197:1 198:1 199:1 200:1 201:1 202:1 203:1 204:1 205:1 
-3 72:1 86:1 88:1 89:1 92:1 93:1 102:1 105:1 108:1 109:1 117:1 119:1 121:1 123:1 125:1 137:1 141:1 149:1 150:1 151:1 152:1 153:1 154:1 157:1 169:1 170:1 173:1 185:1 189:1 199:1 203:1 204:1 205:1 
-3 72:1 77:1 85:1 87:1 88:1 90:1 92:1 93:1 101:1 103:1 104:1 106:1 108:1 109:1 118:1 119:1 120:1 122:1 123:1 124:1 125:1 136:1 138:1 139:1 141:1 152:1 154:1 155:1 157:1 168:1 170:1 173:1 184:1 189:1 200:1 204:1 205:1 
-3 72:1 86:1 88:1 89:1 92:1 93:1 101:1 102:1 103:1 104:1 105:1 107:1 108:1 109:1 117:1 118:1 120:1 121:1 123:1 125:1 134:1 137:1 139:1 141:1 149:1 150:1 151:1 152:1 153:1 154:1 157:1 169:1 170:1 173:1 183:1 185:1 186:1 189:1 199:1 204:1 205:1 
-3 72:1 86:1 88:1 92:1 93:1 102:1 103:1 104:1 107:1 109:1 117:1 118:1 123:1 125:1 138:1 141:1 149:1 150:1 151:1 152:1 153:1 154:1 157:1 169:1 170:1 173:1 189:1 199:1 204:1 205:1 
-3 72:1 86:1 88:1 92:1 93:1 102:1 103:1 104:1 107:1 109:1 117:1 118:1 123:1 125:1 138:1 141:1 149:1 150:1 151:1 152:1 153:1 154:1 157:1 169:1 170:1 173:1 189:1 199:1 204:1 205:1 
