svm_type c_svc
kernel_type rbf
gamma 0.015625
nr_class 2
total_sv 35
rho -1.50064
label -1 1
nr_sv 30 5
SV
1.416755039801314 70:1 77:1 78:1 86:1 92:1 93:1 102:1 105:1 106:1 107:1 108:1 118:1 119:1 120:1 121:1 122:1 134:1 141:1 150:1 157:1 166:1 173:1 182:1 185:1 186:1 187:1 188:1 189:1 198:1 
0.2838514932690926 70:1 77:1 92:1 107:1 108:1 118:1 119:1 120:1 121:1 122:1 136:1 152:1 168:1 172:1 173:1 184:1 185:1 186:1 187:1 188:1 
0.07183371980406349 77:1 93:1 109:1 117:1 118:1 119:1 120:1 121:1 122:1 123:1 124:1 125:1 136:1 141:1 152:1 157:1 168:1 173:1 184:1 189:1 200:1 205:1 
0.3287606999433306 69:1 76:1 77:1 85:1 92:1 101:1 106:1 107:1 117:1 133:1 149:1 165:1 166:1 167:1 168:1 169:1 170:1 171:1 172:1 181:1 197:1 
0.138960806059939 70:1 77:1 92:1 106:1 107:1 118:1 119:1 173:1 
0.2746607117623807 77:1 86:1 93:1 102:1 103:1 104:1 105:1 106:1 107:1 108:1 109:1 118:1 125:1 141:1 149:1 157:1 165:1 173:1 181:1 184:1 189:1 200:1 205:1 
0.3815126752102943 69:1 85:1 101:1 106:1 107:1 117:1 118:1 119:1 120:1 121:1 122:1 133:1 138:1 139:1 140:1 149:1 150:1 151:1 152:1 153:1 154:1 165:1 170:1 173:1 181:1 189:1 197:1 200:1 201:1 202:1 203:1 204:1 205:1 
0.3281751632274934 71:1 72:1 73:1 77:1 87:1 90:1 91:1 92:1 93:1 101:1 102:1 103:1 109:1 119:1 120:1 121:1 122:1 123:1 124:1 125:1 135:1 141:1 150:1 151:1 152:1 153:1 154:1 155:1 156:1 157:1 165:1 166:1 167:1 173:1 181:1 183:1 186:1 187:1 188:1 189:1 199:1 200:1 201:1 205:1 
0.355353189330696 71:1 77:1 87:1 88:1 92:1 103:1 105:1 107:1 108:1 117:1 118:1 119:1 120:1 121:1 122:1 135:1 138:1 166:1 167:1 168:1 203:1 204:1 
0.9829207268737983 73:1 77:1 91:1 92:1 101:1 102:1 103:1 104:1 105:1 106:1 107:1 117:1 118:1 133:1 135:1 136:1 149:1 157:1 165:1 166:1 167:1 168:1 169:1 170:1 171:1 172:1 173:1 201:1 
0.7962828811622114 77:1 85:1 92:1 102:1 103:1 107:1 108:1 121:1 122:1 133:1 134:1 135:1 136:1 137:1 153:1 170:1 171:1 173:1 188:1 189:1 199:1 200:1 201:1 202:1 
0.2881964793122135 77:1 92:1 107:1 108:1 117:1 118:1 119:1 120:1 121:1 122:1 151:1 167:1 168:1 169:1 170:1 171:1 172:1 173:1 189:1 204:1 205:1 
2.407174009175781 77:1 92:1 107:1 117:1 118:1 119:1 120:1 173:1 189:1 203:1 204:1 205:1 
0.0918164230878309 70:1 76:1 86:1 91:1 92:1 102:1 104:1 107:1 118:1 120:1 123:1 134:1 137:1 138:1 139:1 141:1 150:1 154:1 157:1 166:1 170:1 173:1 182:1 186:1 187:1 188:1 189:1 198:1 199:1 200:1 201:1 202:1 
1.133739235839663 92:1 93:1 103:1 107:1 109:1 119:1 120:1 125:1 138:1 141:1 149:1 152:1 154:1 157:1 165:1 166:1 167:1 169:1 173:1 181:1 185:1 189:1 204:1 205:1 
0.6084207793293994 73:1 87:1 89:1 105:1 117:1 118:1 119:1 120:1 121:1 122:1 123:1 124:1 125:1 137:1 153:1 165:1 166:1 167:1 168:1 169:1 172:1 182:1 185:1 188:1 201:1 
0.137656058614849 141:1 142:1 157:1 158:1 165:1 166:1 167:1 168:1 169:1 170:1 171:1 172:1 173:1 
0.06931131940414587 77:1 92:1 93:1 107:1 108:1 109:1 121:1 122:1 125:1 141:1 157:1 171:1 172:1 173:1 188:1 189:1 205:1 
0.2927810594726768 77:1 105:1 106:1 118:1 119:1 168:1 169:1 181:1 
1.132869932452575 72:1 77:1 85:1 88:1 92:1 104:1 106:1 107:1 108:1 120:1 136:1 152:1 168:1 173:1 181:1 184:1 200:1 
0.04051147523830739 71:1 77:1 87:1 103:1 107:1 108:1 117:1 118:1 119:1 120:1 135:1 149:1 151:1 157:1 165:1 167:1 183:1 199:1 201:1 
0.3004612906025069 77:1 104:1 105:1 106:1 107:1 118:1 120:1 122:1 137:1 139:1 156:1 167:1 168:1 169:1 181:1 
1.221593691610219 74:1 77:1 89:1 91:1 103:1 104:1 107:1 118:1 119:1 121:1 123:1 133:1 135:1 139:1 153:1 154:1 155:1 166:1 167:1 168:1 171:1 187:1 201:1 202:1 
0.09122304199511867 72:1 73:1 74:1 75:1 77:1 88:1 91:1 93:1 104:1 107:1 109:1 118:1 119:1 120:1 123:1 124:1 125:1 141:1 150:1 151:1 152:1 155:1 156:1 157:1 168:1 171:1 173:1 184:1 187:1 189:1 200:1 201:1 202:1 203:1 205:1 
0.5809107529114941 76:1 77:1 86:1 89:1 90:1 91:1 92:1 102:1 103:1 118:1 119:1 120:1 133:1 134:1 150:1 166:1 167:1 168:1 182:1 183:1 198:1 201:1 
0.1085642564685125 73:1 88:1 103:1 104:1 105:1 106:1 107:1 108:1 109:1 118:1 125:1 133:1 141:1 150:1 151:1 152:1 155:1 157:1 167:1 168:1 173:1 184:1 187:1 188:1 189:1 200:1 
0.2752640242440835 73:1 86:1 87:1 88:1 89:1 90:1 91:1 92:1 93:1 101:1 102:1 121:1 122:1 135:1 136:1 137:1 138:1 139:1 140:1 141:1 149:1 151:1 157:1 166:1 167:1 173:1 184:1 188:1 189:1 201:1 202:1 
0.1153475151056837 72:1 86:1 87:1 88:1 89:1 90:1 91:1 92:1 93:1 101:1 118:1 125:1 140:1 155:1 156:1 166:1 167:1 168:1 169:1 170:1 171:1 173:1 181:1 188:1 189:1 200:1 204:1 205:1 
0.5402217877295679 72:1 86:1 87:1 88:1 89:1 90:1 91:1 92:1 93:1 101:1 104:1 118:1 120:1 134:1 135:1 136:1 138:1 139:1 149:1 150:1 152:1 155:1 157:1 166:1 167:1 168:1 171:1 173:1 182:1 184:1 187:1 188:1 189:1 198:1 200:1 201:1 202:1 
0.2048697609607587 72:1 73:1 85:1 86:1 87:1 105:1 106:1 110:1 117:1 119:1 120:1 121:1 123:1 133:1 135:1 136:1 137:1 140:1 141:1 149:1 151:1 152:1 153:1 157:1 165:1 167:1 168:1 169:1 172:1 173:1 181:1 183:1 184:1 185:1 187:1 188:1 189:1 201:1 202:1 206:1 
-3 77:1 92:1 93:1 107:1 108:1 118:1 119:1 120:1 121:1 122:1 153:1 157:1 166:1 167:1 168:1 173:1 181:1 188:1 189:1 201:1 
-3 77:1 78:1 91:1 92:1 93:1 102:1 103:1 104:1 105:1 106:1 107:1 141:1 152:1 157:1 166:1 167:1 168:1 173:1 182:1 189:1 201:1 202:1 203:1 204:1 205:1 
-3 77:1 85:1 91:1 92:1 101:1 105:1 106:1 107:1 117:1 118:1 119:1 120:1 133:1 149:1 157:1 165:1 166:1 167:1 168:1 173:1 184:1 187:1 188:1 189:1 200:1 201:1 202:1 
-3 77:1 92:1 107:1 118:1 119:1 120:1 121:1 165:1 166:1 167:1 168:1 173:1 181:1 188:1 189:1 200:1 201:1 202:1 
-3 77:1 92:1 107:1 118:1 119:1 120:1 121:1 165:1 166:1 167:1 168:1 173:1 181:1 188:1 189:1 200:1 201:1 202:1 
