svm_type c_svc
kernel_type rbf
gamma 0.015625
nr_class 2
total_sv 24
rho -1.56442
label -1 1
nr_sv 19 5
SV
0.4364390589869677 74:1 77:1 90:1 105:1 120:1 134:1 135:1 136:1 137:1 138:1 139:1 140:1 150:1 152:1 168:1 169:1 185:1 186:1 202:1 205:1 
0.08818905295881634 74:1 77:1 89:1 90:1 93:1 105:1 109:1 119:1 120:1 125:1 134:1 135:1 136:1 137:1 138:1 139:1 140:1 141:1 152:1 157:1 168:1 173:1 185:1 189:1 202:1 205:1 
0.9855360610039849 73:1 88:1 103:1 104:1 118:1 119:1 133:1 134:1 137:1 138:1 139:1 140:1 141:1 142:1 150:1 151:1 167:1 168:1 184:1 201:1 
0.2963248570290609 74:1 75:1 85:1 89:1 90:1 91:1 102:1 103:1 105:1 106:1 107:1 117:1 120:1 123:1 134:1 137:1 138:1 139:1 140:1 141:1 151:1 152:1 155:1 166:1 168:1 169:1 171:1 181:1 185:1 187:1 199:1 201:1 202:1 203:1 
0.07215315955546187 74:1 75:1 85:1 89:1 91:1 102:1 103:1 104:1 107:1 123:1 134:1 136:1 137:1 138:1 139:1 140:1 141:1 155:1 166:1 168:1 169:1 171:1 181:1 185:1 187:1 199:1 202:1 203:1 
0.7091143031744499 74:1 89:1 92:1 104:1 108:1 118:1 119:1 123:1 124:1 133:1 137:1 138:1 140:1 152:1 156:1 171:1 172:1 187:1 188:1 
0.1394293969072649 71:1 74:1 85:1 87:1 89:1 90:1 93:1 101:1 103:1 105:1 108:1 109:1 117:1 119:1 120:1 122:1 123:1 133:1 134:1 135:1 149:1 151:1 152:1 165:1 167:1 169:1 170:1 173:1 181:1 183:1 185:1 186:1 199:1 202:1 
0.6475898682633983 71:1 75:1 87:1 89:1 91:1 103:1 119:1 134:1 135:1 136:1 137:1 138:1 139:1 140:1 141:1 149:1 151:1 165:1 167:1 168:1 171:1 181:1 183:1 185:1 199:1 202:1 203:1 
0.6301238308219704 74:1 77:1 89:1 91:1 103:1 104:1 107:1 118:1 119:1 121:1 123:1 133:1 135:1 139:1 153:1 154:1 155:1 166:1 167:1 168:1 171:1 187:1 201:1 202:1 
1.29875455465441 70:1 73:1 74:1 78:1 86:1 89:1 93:1 102:1 104:1 105:1 106:1 109:1 118:1 122:1 123:1 124:1 125:1 133:1 134:1 139:1 140:1 150:1 154:1 155:1 156:1 157:1 166:1 168:1 169:1 173:1 182:1 184:1 185:1 189:1 198:1 201:1 202:1 206:1 
0.6377025837909006 75:1 77:1 88:1 89:1 104:1 107:1 108:1 119:1 120:1 121:1 122:1 133:1 134:1 141:1 151:1 152:1 153:1 154:1 155:1 156:1 157:1 168:1 182:1 185:1 198:1 202:1 
0.3728134711236184 70:1 73:1 74:1 87:1 88:1 89:1 103:1 104:1 105:1 119:1 120:1 121:1 125:1 133:1 135:1 136:1 137:1 139:1 140:1 141:1 151:1 152:1 153:1 167:1 168:1 169:1 185:1 186:1 201:1 202:1 
0.01211389390867722 70:1 73:1 74:1 86:1 87:1 88:1 89:1 91:1 102:1 103:1 104:1 105:1 107:1 118:1 119:1 120:1 121:1 123:1 125:1 133:1 134:1 135:1 136:1 137:1 139:1 140:1 141:1 150:1 151:1 152:1 153:1 155:1 166:1 167:1 168:1 169:1 171:1 182:1 185:1 187:1 201:1 202:1 
0.3869274857807994 73:1 74:1 86:1 103:1 104:1 119:1 125:1 133:1 135:1 139:1 140:1 141:1 151:1 167:1 168:1 170:1 186:1 
2.866536592594144 73:1 74:1 88:1 89:1 103:1 104:1 118:1 119:1 133:1 
0.213931214368863 73:1 78:1 89:1 93:1 104:1 109:1 119:1 120:1 123:1 124:1 133:1 134:1 135:1 137:1 138:1 139:1 151:1 155:1 156:1 168:1 173:1 184:1 189:1 200:1 201:1 205:1 206:1 
3 73:1 88:1 89:1 104:1 118:1 119:1 121:1 123:1 124:1 133:1 134:1 137:1 140:1 150:1 151:1 153:1 154:1 156:1 157:1 168:1 184:1 201:1 
0.08214103813425318 72:1 73:1 86:1 87:1 88:1 89:1 90:1 91:1 92:1 93:1 94:1 101:1 102:1 119:1 120:1 122:1 123:1 124:1 133:1 134:1 135:1 137:1 151:1 157:1 167:1 183:1 185:1 199:1 200:1 202:1 203:1 204:1 
2.124179576942958 73:1 90:1 93:1 104:1 107:1 108:1 118:1 119:1 133:1 139:1 140:1 150:1 151:1 156:1 168:1 169:1 170:1 184:1 201:1 
-3 73:1 88:1 89:1 104:1 118:1 119:1 123:1 133:1 134:1 140:1 150:1 151:1 156:1 157:1 168:1 185:1 201:1 202:1 
-3 73:1 74:1 88:1 89:1 91:1 103:1 104:1 107:1 118:1 119:1 124:1 133:1 134:1 140:1 150:1 151:1 157:1 167:1 168:1 173:1 184:1 185:1 201:1 202:1 
-3 73:1 74:1 89:1 104:1 118:1 119:1 122:1 123:1 133:1 134:1 135:1 139:1 140:1 151:1 152:1 156:1 168:1 169:1 185:1 201:1 202:1 
-3 74:1 89:1 104:1 118:1 119:1 123:1 133:1 134:1 139:1 140:1 151:1 156:1 168:1 185:1 201:1 
-3 74:1 89:1 104:1 118:1 119:1 123:1 133:1 134:1 139:1 140:1 151:1 156:1 168:1 185:1 201:1 
