svm_type c_svc
kernel_type rbf
gamma 0.015625
nr_class 2
total_sv 34
rho -1.46909
label -1 1
nr_sv 29 5
SV
0.01488624807113049 69:1 85:1 87:1 88:1 89:1 90:1 91:1 92:1 93:1 101:1 103:1 104:1 105:1 106:1 107:1 117:1 119:1 123:1 133:1 134:1 135:1 136:1 137:1 138:1 139:1 149:1 151:1 155:1 165:1 167:1 168:1 169:1 170:1 171:1 173:1 181:1 183:1 184:1 185:1 186:1 187:1 188:1 189:1 197:1 
0.7097046839178545 86:1 87:1 88:1 89:1 90:1 91:1 92:1 102:1 104:1 108:1 109:1 120:1 125:1 133:1 134:1 135:1 136:1 137:1 138:1 139:1 141:1 157:1 167:1 171:1 173:1 183:1 184:1 185:1 186:1 187:1 189:1 203:1 204:1 
0.6951341014503339 73:1 86:1 87:1 88:1 89:1 90:1 91:1 92:1 102:1 103:1 104:1 108:1 109:1 120:1 125:1 133:1 134:1 135:1 136:1 137:1 138:1 139:1 141:1 151:1 154:1 157:1 167:1 170:1 173:1 183:1 184:1 185:1 186:1 189:1 203:1 204:1 205:1 
0.008102699690685288 71:1 73:1 75:1 87:1 89:1 91:1 93:1 101:1 102:1 103:1 105:1 106:1 107:1 108:1 109:1 117:1 121:1 122:1 123:1 133:1 134:1 135:1 136:1 137:1 139:1 150:1 165:1 166:1 167:1 168:1 169:1 170:1 171:1 172:1 173:1 189:1 203:1 204:1 205:1 
0.4612753299295916 72:1 73:1 85:1 86:1 87:1 88:1 89:1 90:1 91:1 92:1 93:1 94:1 101:1 109:1 123:1 124:1 125:1 133:1 134:1 135:1 136:1 137:1 138:1 165:1 166:1 167:1 168:1 182:1 183:1 184:1 185:1 186:1 187:1 188:1 205:1 206:1 
0.5172973045013772 73:1 87:1 88:1 93:1 101:1 102:1 109:1 124:1 134:1 135:1 136:1 137:1 138:1 139:1 150:1 165:1 166:1 167:1 168:1 169:1 170:1 187:1 188:1 205:1 
0.02952483131597812 72:1 73:1 85:1 86:1 87:1 88:1 89:1 90:1 91:1 92:1 93:1 101:1 109:1 118:1 121:1 122:1 123:1 124:1 125:1 134:1 150:1 166:1 167:1 168:1 169:1 170:1 171:1 172:1 173:1 189:1 203:1 204:1 205:1 
0.07397389501108007 73:1 77:1 88:1 89:1 93:1 104:1 108:1 118:1 119:1 123:1 124:1 133:1 134:1 135:1 137:1 138:1 151:1 155:1 156:1 167:1 168:1 172:1 184:1 189:1 200:1 205:1 
0.1734344178016837 72:1 73:1 85:1 86:1 87:1 88:1 89:1 90:1 91:1 92:1 93:1 94:1 101:1 109:1 110:1 118:1 123:1 124:1 125:1 134:1 135:1 136:1 137:1 138:1 150:1 157:1 166:1 167:1 168:1 173:1 182:1 183:1 189:1 201:1 202:1 203:1 204:1 205:1 
0.07430105958074723 73:1 87:1 88:1 89:1 90:1 91:1 92:1 93:1 101:1 102:1 103:1 109:1 124:1 137:1 138:1 140:1 150:1 151:1 152:1 156:1 169:1 172:1 186:1 187:1 188:1 204:1 205:1 
0.4181554380397237 73:1 86:1 87:1 88:1 89:1 90:1 91:1 92:1 93:1 101:1 120:1 124:1 134:1 135:1 136:1 137:1 138:1 139:1 149:1 167:1 168:1 169:1 170:1 171:1 172:1 173:1 184:1 200:1 
0.1019302154090745 73:1 87:1 88:1 89:1 90:1 91:1 92:1 93:1 101:1 102:1 105:1 109:1 120:1 133:1 134:1 137:1 138:1 139:1 166:1 167:1 171:1 172:1 173:1 184:1 185:1 186:1 200:1 
0.3674988628041221 73:1 86:1 87:1 88:1 89:1 90:1 91:1 92:1 93:1 101:1 102:1 109:1 122:1 125:1 134:1 135:1 136:1 141:1 157:1 172:1 173:1 184:1 185:1 186:1 187:1 188:1 189:1 205:1 
0.1551861928003263 72:1 73:1 85:1 86:1 87:1 88:1 89:1 90:1 91:1 92:1 93:1 94:1 101:1 103:1 109:1 110:1 119:1 123:1 124:1 125:1 135:1 136:1 137:1 138:1 139:1 149:1 151:1 153:1 157:1 167:1 169:1 173:1 183:1 185:1 189:1 199:1 201:1 202:1 203:1 204:1 205:1 
1.930659759577596 72:1 86:1 87:1 88:1 89:1 90:1 91:1 92:1 93:1 101:1 102:1 109:1 119:1 124:1 125:1 133:1 135:1 136:1 137:1 138:1 139:1 149:1 151:1 152:1 167:1 168:1 169:1 170:1 171:1 172:1 183:1 184:1 189:1 199:1 204:1 205:1 
0.9164342951471477 72:1 73:1 86:1 87:1 88:1 89:1 90:1 91:1 92:1 93:1 101:1 102:1 109:1 119:1 123:1 124:1 125:1 133:1 135:1 136:1 137:1 138:1 139:1 149:1 150:1 151:1 152:1 167:1 168:1 169:1 170:1 171:1 172:1 173:1 183:1 189:1 199:1 204:1 205:1 
0.9954348843032332 87:1 88:1 89:1 90:1 91:1 92:1 93:1 101:1 102:1 119:1 124:1 125:1 136:1 137:1 138:1 139:1 149:1 150:1 152:1 168:1 169:1 170:1 171:1 172:1 173:1 189:1 203:1 204:1 205:1 
0.5933113705023549 73:1 86:1 87:1 88:1 89:1 90:1 91:1 92:1 93:1 101:1 102:1 109:1 118:1 124:1 136:1 137:1 138:1 139:1 168:1 169:1 170:1 171:1 172:1 198:1 203:1 204:1 
1.033639598659564 73:1 86:1 87:1 88:1 89:1 90:1 91:1 92:1 93:1 101:1 102:1 109:1 119:1 123:1 124:1 133:1 134:1 135:1 136:1 137:1 141:1 149:1 151:1 154:1 156:1 167:1 170:1 171:1 172:1 183:1 184:1 185:1 186:1 188:1 189:1 199:1 205:1 
0.378759287612997 72:1 73:1 86:1 87:1 88:1 89:1 90:1 91:1 92:1 93:1 94:1 101:1 109:1 110:1 123:1 124:1 125:1 133:1 134:1 135:1 136:1 137:1 138:1 139:1 165:1 173:1 182:1 203:1 204:1 205:1 
1.846573512206582 72:1 86:1 87:1 88:1 89:1 90:1 91:1 92:1 93:1 101:1 109:1 124:1 133:1 134:1 135:1 136:1 137:1 138:1 149:1 165:1 173:1 182:1 189:1 203:1 204:1 205:1 
0.259403767233546 73:1 87:1 88:1 89:1 90:1 91:1 92:1 93:1 101:1 102:1 109:1 119:1 121:1 122:1 123:1 124:1 133:1 134:1 157:1 166:1 167:1 171:1 173:1 182:1 185:1 186:1 187:1 189:1 204:1 205:1 
0.3367461028420689 72:1 85:1 86:1 87:1 88:1 89:1 90:1 91:1 92:1 93:1 101:1 106:1 109:1 119:1 120:1 121:1 122:1 124:1 125:1 133:1 134:1 135:1 136:1 137:1 138:1 139:1 165:1 166:1 167:1 168:1 169:1 170:1 171:1 172:1 173:1 183:1 184:1 185:1 186:1 189:1 198:1 202:1 204:1 205:1 
0.838530785353573 73:1 87:1 88:1 89:1 90:1 91:1 92:1 93:1 101:1 102:1 119:1 120:1 122:1 125:1 133:1 134:1 135:1 136:1 137:1 138:1 139:1 140:1 165:1 166:1 167:1 168:1 169:1 170:1 171:1 172:1 173:1 183:1 185:1 186:1 189:1 199:1 203:1 204:1 205:1 
0.5050896308996818 73:1 86:1 87:1 88:1 89:1 90:1 91:1 92:1 93:1 101:1 102:1 119:1 121:1 135:1 137:1 138:1 139:1 149:1 150:1 151:1 152:1 167:1 169:1 170:1 171:1 172:1 173:1 183:1 189:1 203:1 204:1 205:1 
0.6969727266017032 72:1 73:1 86:1 87:1 88:1 89:1 90:1 91:1 92:1 93:1 94:1 101:1 110:1 119:1 125:1 133:1 134:1 135:1 136:1 137:1 138:1 140:1 151:1 167:1 172:1 181:1 182:1 183:1 184:1 185:1 186:1 188:1 189:1 199:1 205:1 206:1 
0.4202411823608812 72:1 73:1 85:1 86:1 87:1 88:1 89:1 90:1 91:1 92:1 93:1 101:1 109:1 118:1 121:1 122:1 124:1 125:1 133:1 134:1 135:1 136:1 138:1 139:1 140:1 150:1 151:1 152:1 154:1 166:1 167:1 168:1 169:1 170:1 171:1 172:1 173:1 183:1 185:1 186:1 189:1 200:1 201:1 202:1 204:1 205:1 
0.3954978713515139 72:1 73:1 85:1 86:1 87:1 88:1 89:1 90:1 91:1 92:1 93:1 101:1 109:1 117:1 119:1 120:1 121:1 124:1 125:1 134:1 135:1 137:1 138:1 139:1 151:1 153:1 165:1 166:1 167:1 169:1 173:1 183:1 184:1 185:1 189:1 204:1 205:1 
0.05229994502384872 72:1 73:1 85:1 86:1 87:1 88:1 89:1 90:1 91:1 92:1 93:1 101:1 105:1 117:1 119:1 121:1 123:1 124:1 125:1 134:1 135:1 136:1 137:1 150:1 151:1 153:1 167:1 169:1 181:1 183:1 184:1 185:1 187:1 188:1 189:1 201:1 
-3 72:1 86:1 87:1 88:1 89:1 90:1 91:1 92:1 93:1 101:1 109:1 119:1 124:1 125:1 133:1 134:1 135:1 136:1 137:1 138:1 139:1 149:1 151:1 167:1 172:1 183:1 184:1 185:1 186:1 187:1 188:1 189:1 203:1 204:1 205:1 
-3 72:1 73:1 74:1 85:1 86:1 87:1 88:1 89:1 90:1 91:1 92:1 93:1 94:1 101:1 109:1 110:1 119:1 124:1 125:1 133:1 134:1 135:1 136:1 137:1 138:1 139:1 151:1 167:1 173:1 183:1 184:1 185:1 186:1 187:1 188:1 189:1 203:1 204:1 205:1 
-3 73:1 86:1 87:1 88:1 89:1 90:1 91:1 92:1 93:1 101:1 102:1 109:1 119:1 124:1 125:1 133:1 134:1 135:1 136:1 137:1 138:1 139:1 149:1 150:1 151:1 152:1 167:1 168:1 169:1 170:1 171:1 172:1 173:1 183:1 184:1 185:1 189:1 204:1 205:1 
-3 73:1 87:1 88:1 89:1 90:1 91:1 92:1 93:1 101:1 102:1 109:1 124:1 133:1 134:1 135:1 136:1 137:1 138:1 167:1 168:1 169:1 170:1 171:1 172:1 173:1 189:1 203:1 204:1 205:1 
-3 73:1 87:1 88:1 89:1 90:1 91:1 92:1 93:1 101:1 102:1 109:1 124:1 133:1 134:1 135:1 136:1 137:1 138:1 167:1 168:1 169:1 170:1 171:1 172:1 173:1 189:1 203:1 204:1 205:1 
